3.454589843750000000e-02

-7.745361328125000000e-02

-9.167480468750000000e-02

-9.509277343750000000e-02

-1.451416015625000000e-01

-3.247070312500000000e-02

9.362792968750000000e-02

4.870605468750000000e-02

-1.218261718750000000e-01

1.221923828125000000e-01

7.446289062500000000e-02

-7.067871093750000000e-02

-5.517578125000000000e-02

-1.016235351562500000e-02

-1.684570312500000000e-01

-1.102905273437500000e-01

-1.008300781250000000e-01

1.116943359375000000e-01

-9.576416015625000000e-02

-1.119384765625000000e-01

1.928710937500000000e-02

-9.301757812500000000e-02

2.209472656250000000e-02

7.446289062500000000e-02

1.680908203125000000e-01

1.292724609375000000e-01

8.117675781250000000e-02

1.715087890625000000e-01

5.041503906250000000e-02

-1.693725585937500000e-02

1.217041015625000000e-01

-1.512451171875000000e-01

-6.054687500000000000e-02

1.918029785156250000e-02

-1.708984375000000000e-01

7.995605468750000000e-02

1.510009765625000000e-01

1.199951171875000000e-01

3.186035156250000000e-02

-1.308593750000000000e-01

-1.695556640625000000e-01

1.092529296875000000e-01

-1.728515625000000000e-01

4.840850830078125000e-03

6.231689453125000000e-02

1.329345703125000000e-01

5.746459960937500000e-02

1.343994140625000000e-01

-4.809570312500000000e-02

1.524658203125000000e-01

-1.384277343750000000e-01

6.494140625000000000e-02

2.468872070312500000e-02

-1.604003906250000000e-01

-2.441406250000000000e-02

7.006835937500000000e-02

-1.428222656250000000e-01

1.568603515625000000e-01

1.580810546875000000e-01

6.567382812500000000e-02

-1.275634765625000000e-01

-7.678222656250000000e-02

1.583251953125000000e-01

9.509277343750000000e-02

1.258544921875000000e-01

-5.346679687500000000e-02

3.451538085937500000e-02

1.354980468750000000e-02

-1.508789062500000000e-01

-2.268981933593750000e-02

-1.708984375000000000e-01

1.539306640625000000e-01

-1.126708984375000000e-01

-8.557128906250000000e-02

-1.505126953125000000e-01

2.807617187500000000e-02

7.849121093750000000e-02

1.068115234375000000e-01

-7.513427734375000000e-02

1.625061035156250000e-02

6.152343750000000000e-02

-1.417236328125000000e-01

5.075073242187500000e-02

-1.040649414062500000e-02

-1.489257812500000000e-02

-9.301757812500000000e-02

1.892089843750000000e-02

3.479003906250000000e-02

6.701660156250000000e-02

-9.100341796875000000e-02

5.651855468750000000e-02

1.068115234375000000e-01

-3.955078125000000000e-02

-7.916259765625000000e-02

1.184082031250000000e-02

-7.305908203125000000e-02

-1.566162109375000000e-01

4.299926757812500000e-02

-1.650390625000000000e-01

1.024169921875000000e-01

