-9.014892578125000000e-02 -1.989746093750000000e-01 -5.175781250000000000e-02 9.741210937500000000e-02 6.909179687500000000e-02 -1.823730468750000000e-01 -3.271484375000000000e-02 1.711425781250000000e-01 7.006835937500000000e-02 -8.654785156250000000e-02 -1.972656250000000000e-01 5.932617187500000000e-02 -1.330566406250000000e-02 1.230468750000000000e-01 -1.608886718750000000e-01 -1.281738281250000000e-01 -1.912841796875000000e-01 -1.334228515625000000e-01 5.541992187500000000e-02 -5.175781250000000000e-02 9.619140625000000000e-02 -1.208496093750000000e-02 1.511230468750000000e-01 -1.540527343750000000e-01 -6.030273437500000000e-02 1.875000000000000000e-01 -3.149414062500000000e-02 -1.430664062500000000e-01 1.354980468750000000e-01 -5.334472656250000000e-02 -1.391601562500000000e-01 -9.747314453125000000e-02 9.130859375000000000e-02 8.325195312500000000e-02 -9.582519531250000000e-02 -1.726074218750000000e-01 1.828613281250000000e-01 -1.657714843750000000e-01 2.041015625000000000e-01 -1.278076171875000000e-01 -1.124267578125000000e-01 -1.217041015625000000e-01 1.059570312500000000e-01 1.750488281250000000e-01 -3.149414062500000000e-02 1.823730468750000000e-01 1.135253906250000000e-01 -4.394531250000000000e-03 -1.262207031250000000e-01 -2.807617187500000000e-03 2.429199218750000000e-02 -1.484375000000000000e-01 1.694335937500000000e-01 -1.171875000000000000e-02 8.862304687500000000e-02 4.614257812500000000e-02 1.669921875000000000e-01 3.845214843750000000e-02 -3.662109375000000000e-03 1.848144531250000000e-01 -1.855468750000000000e-02 1.015625000000000000e-01 1.589355468750000000e-01 -2.954101562500000000e-02 -1.358642578125000000e-01 -6.030273437500000000e-02 -1.689453125000000000e-01 2.380371093750000000e-02 3.918457031250000000e-02 -4.650878906250000000e-02 3.479003906250000000e-02 9.619140625000000000e-02 2.028808593750000000e-01 -2.587890625000000000e-02 1.491699218750000000e-01 9.497070312500000000e-02 -1.047363281250000000e-01 1.127929687500000000e-01 8.911132812500000000e-03 -1.002807617187500000e-01 -1.257324218750000000e-01 1.330566406250000000e-02 1.071777343750000000e-01 -1.071777343750000000e-01 -1.549072265625000000e-01 5.297851562500000000e-02 -9.259033203125000000e-02 -1.633300781250000000e-01 3.564453125000000000e-02 -1.330566406250000000e-02 8.886718750000000000e-02 2.954101562500000000e-02 1.989746093750000000e-01 -3.234863281250000000e-02 -9.625244140625000000e-02 1.091308593750000000e-01 -1.682128906250000000e-01 1.984863281250000000e-01 1.357421875000000000e-01 5.810546875000000000e-02

-1.018676757812500000e-01 -1.178588867187500000e-01 1.673583984375000000e-01 -1.566162109375000000e-01 -2.034912109375000000e-01 9.313964843750000000e-02 1.575927734375000000e-01 -1.334228515625000000e-01 -1.379394531250000000e-01 1.404571533203125000e-02 -6.158447265625000000e-02 1.639404296875000000e-01 -1.943359375000000000e-01 1.407470703125000000e-01 1.722412109375000000e-01 -1.129150390625000000e-01 -1.386718750000000000e-01 1.854248046875000000e-01 -1.200561523437500000e-01 8.496093750000000000e-02 1.120605468750000000e-01 -1.155853271484375000e-02 1.525878906250000000e-01 -3.552246093750000000e-02 1.006469726562500000e-01 -1.972656250000000000e-01 -1.595458984375000000e-01 -1.877441406250000000e-01 -2.551269531250000000e-02 1.022338867187500000e-01 -6.463623046875000000e-02 -1.357421875000000000e-01 4.843139648437500000e-02 7.733154296875000000e-02 3.863525390625000000e-02 6.519317626953125000e-03 -1.549072265625000000e-01 1.640625000000000000e-01 -9.130859375000000000e-02 1.367187500000000000e-01 5.364990234375000000e-02 -4.159545898437500000e-02 -1.976318359375000000e-01 -1.525878906250000000e-01 -1.505126953125000000e-01 -2.241516113281250000e-02 -1.715087890625000000e-02 9.899902343750000000e-02 8.050537109375000000e-02 1.098632812500000000e-01 1.208496093750000000e-01 -3.070831298828125000e-03 -1.744079589843750000e-02 -9.948730468750000000e-02 -7.684326171875000000e-02 3.649902343750000000e-02 1.805419921875000000e-01 4.425048828125000000e-02 -1.261138916015625000e-02 -1.705322265625000000e-01 1.098022460937500000e-01 -1.007080078125000000e-01 1.673583984375000000e-01 -3.961181640625000000e-02 -6.451416015625000000e-02 8.728027343750000000e-02 -1.356201171875000000e-01 1.208496093750000000e-02 2.592468261718750000e-02 8.636474609375000000e-02 1.511230468750000000e-01 1.009521484375000000e-01 -1.839599609375000000e-01 -1.226806640625000000e-01 -1.274414062500000000e-01 -4.248046875000000000e-02 -6.677246093750000000e-02 -6.701660156250000000e-02 7.073974609375000000e-02 1.479148864746093750e-03 8.520507812500000000e-02 -2.016601562500000000e-01 -1.033935546875000000e-01 3.372192382812500000e-02 2.053222656250000000e-01 9.240722656250000000e-02 7.196044921875000000e-02 2.038574218750000000e-01 -1.674804687500000000e-01 1.928710937500000000e-01 -1.056671142578125000e-02 -1.409912109375000000e-01 -1.173095703125000000e-01 -1.844482421875000000e-01 1.848144531250000000e-01 -2.026367187500000000e-01 -9.869384765625000000e-02 -4.949951171875000000e-02 1.639404296875000000e-01 -8.502197265625000000e-02

1.108398437500000000e-01 -1.001358032226562500e-03 -1.625976562500000000e-01 -3.198242187500000000e-02 6.909179687500000000e-02 2.299499511718750000e-02 1.547851562500000000e-01 -1.491699218750000000e-01 7.714843750000000000e-02 -6.433105468750000000e-02 5.493164062500000000e-02 -1.195678710937500000e-01 4.791259765625000000e-03 3.686523437500000000e-02 -1.007080078125000000e-01 -2.030029296875000000e-01 1.325683593750000000e-01 -1.325683593750000000e-01 -3.787231445312500000e-02 -1.874923706054687500e-03 -8.813476562500000000e-02 -7.647705078125000000e-02 -1.203613281250000000e-01 1.323242187500000000e-01 -1.629638671875000000e-01 6.884765625000000000e-02 9.674072265625000000e-03 1.794433593750000000e-01 -4.858398437500000000e-02 -7.678222656250000000e-02 6.225585937500000000e-02 -6.994628906250000000e-02 1.811523437500000000e-01 -3.448486328125000000e-02 1.816406250000000000e-01 -9.338378906250000000e-02 -1.354980468750000000e-01 5.661010742187500000e-03 7.255554199218750000e-03 -8.074951171875000000e-02 -1.007080078125000000e-01 7.226562500000000000e-02 -1.152343750000000000e-01 1.840820312500000000e-01 -2.006530761718750000e-02 -1.896972656250000000e-01 -1.184844970703125000e-02 1.225585937500000000e-01 2.102661132812500000e-02 1.152343750000000000e-01 9.375000000000000000e-02 7.519531250000000000e-02 9.384155273437500000e-03 -1.762695312500000000e-01 -1.726074218750000000e-01 1.189575195312500000e-01 2.045898437500000000e-01 -1.334228515625000000e-01 -1.237182617187500000e-01 5.664062500000000000e-02 -1.175537109375000000e-01 6.713867187500000000e-02 1.169433593750000000e-01 -2.557373046875000000e-02 1.433563232421875000e-02 -1.613769531250000000e-01 -9.466552734375000000e-02 8.398437500000000000e-02 -1.689453125000000000e-01 -1.087646484375000000e-01 -1.289062500000000000e-01 -6.628417968750000000e-02 -9.661865234375000000e-02 1.535644531250000000e-01 -1.278076171875000000e-01 1.633300781250000000e-01 1.865234375000000000e-01 4.977416992187500000e-02 4.425048828125000000e-03 -9.704589843750000000e-02 6.463623046875000000e-02 1.208496093750000000e-01 -1.860351562500000000e-01 -1.145019531250000000e-01 1.779785156250000000e-01 8.398437500000000000e-02 1.657714843750000000e-01 1.176757812500000000e-01 4.809570312500000000e-02 1.206054687500000000e-01 -5.786132812500000000e-02 1.923828125000000000e-01 -4.003906250000000000e-02 -8.129882812500000000e-02 2.221679687500000000e-02 -1.876220703125000000e-01 6.640625000000000000e-02 1.750488281250000000e-01 -1.172485351562500000e-01 1.757812500000000000e-01

4.324340820312500000e-02 -2.897644042968750000e-02 -1.937255859375000000e-01 8.300781250000000000e-02 2.542114257812500000e-02 5.676269531250000000e-02 -1.520996093750000000e-01 -1.269531250000000000e-01 2.026367187500000000e-02 7.806396484375000000e-02 1.887207031250000000e-01 -2.745056152343750000e-02 8.062744140625000000e-02 1.464843750000000000e-01 1.394042968750000000e-01 1.557617187500000000e-01 -1.961669921875000000e-01 1.274414062500000000e-01 2.038574218750000000e-01 1.983642578125000000e-01 1.447753906250000000e-01 1.081085205078125000e-02 -6.039428710937500000e-02 1.640625000000000000e-01 1.896972656250000000e-01 1.169433593750000000e-01 -8.483886718750000000e-02 -1.313476562500000000e-01 -6.066894531250000000e-02 1.357421875000000000e-01 1.079101562500000000e-01 1.218872070312500000e-01 -1.605224609375000000e-01 4.138183593750000000e-02 8.209228515625000000e-02 1.661682128906250000e-02 -1.257324218750000000e-01 7.446289062500000000e-02 -9.094238281250000000e-02 -1.898193359375000000e-01 -1.589355468750000000e-01 -1.430664062500000000e-01 -1.584472656250000000e-01 1.507568359375000000e-01 9.906005859375000000e-02 -1.564941406250000000e-01 -1.961669921875000000e-01 1.430664062500000000e-01 -2.033691406250000000e-01 -3.479003906250000000e-02 -1.079711914062500000e-01 1.391601562500000000e-01 5.361938476562500000e-02 1.054687500000000000e-01 1.169586181640625000e-02 1.551513671875000000e-01 1.231079101562500000e-01 -5.978393554687500000e-02 -4.858398437500000000e-02 -1.625976562500000000e-01 -6.060791015625000000e-02 -9.423828125000000000e-02 -3.884887695312500000e-02 6.106567382812500000e-02 -1.831054687500000000e-01 -9.020996093750000000e-02 8.514404296875000000e-03 1.423339843750000000e-01 8.583068847656250000e-03 -1.407470703125000000e-01 2.033691406250000000e-01 1.959228515625000000e-01 -2.443313598632812500e-03 -1.682128906250000000e-01 -1.459960937500000000e-01 1.301269531250000000e-01 -9.503173828125000000e-02 -1.743164062500000000e-01 -1.576232910156250000e-02 -2.911376953125000000e-02 -1.785888671875000000e-01 1.781005859375000000e-01 1.702880859375000000e-02 2.743530273437500000e-02 1.560058593750000000e-01 1.132965087890625000e-02 -1.337890625000000000e-01 -1.395263671875000000e-01 -7.153320312500000000e-02 1.699218750000000000e-01 6.268310546875000000e-02 -5.029296875000000000e-02 1.750488281250000000e-01 5.291748046875000000e-02 -4.089355468750000000e-02 -2.673339843750000000e-02 1.257324218750000000e-01 -5.273437500000000000e-02 1.640625000000000000e-01 1.102905273437500000e-01

1.213378906250000000e-01 7.928466796875000000e-02 1.816406250000000000e-01 9.228515625000000000e-02 1.511230468750000000e-01 1.848144531250000000e-01 1.958007812500000000e-01 1.884765625000000000e-01 3.112792968750000000e-02 -3.912353515625000000e-02 -1.039428710937500000e-01 -1.872558593750000000e-01 2.332687377929687500e-03 1.774902343750000000e-01 -4.891967773437500000e-02 -1.467285156250000000e-01 -4.861450195312500000e-02 -1.815185546875000000e-01 1.403808593750000000e-01 5.612182617187500000e-02 -1.909179687500000000e-01 6.903076171875000000e-02 -1.365966796875000000e-01 3.016662597656250000e-02 -3.282546997070312500e-03 -1.411132812500000000e-01 4.437255859375000000e-02 6.890869140625000000e-02 8.056640625000000000e-03 1.418457031250000000e-01 -1.755371093750000000e-01 -1.442871093750000000e-01 -2.052307128906250000e-02 -1.428222656250000000e-01 -2.845764160156250000e-02 1.613769531250000000e-01 -1.968994140625000000e-01 4.924774169921875000e-03 -3.567504882812500000e-02 3.903198242187500000e-02 1.711425781250000000e-01 4.809570312500000000e-02 -5.703735351562500000e-02 1.828613281250000000e-01 -7.794189453125000000e-02 3.858566284179687500e-03 -6.118774414062500000e-02 -1.686096191406250000e-02 4.043579101562500000e-02 -1.374511718750000000e-01 -4.650878906250000000e-02 -6.384277343750000000e-02 -5.819702148437500000e-02 -6.787109375000000000e-02 -2.775192260742187500e-03 1.788330078125000000e-01 3.671264648437500000e-02 -1.269531250000000000e-01 -1.104125976562500000e-01 9.375000000000000000e-02 1.041870117187500000e-01 2.006835937500000000e-01 -1.383056640625000000e-01 -3.604125976562500000e-02 7.122802734375000000e-02 9.600830078125000000e-02 5.569458007812500000e-02 -1.574707031250000000e-02 -1.274414062500000000e-01 1.337890625000000000e-01 4.931640625000000000e-02 -1.920166015625000000e-01 1.230468750000000000e-01 -3.137207031250000000e-02 1.298828125000000000e-01 1.909179687500000000e-01 1.301269531250000000e-01 1.713867187500000000e-01 7.446289062500000000e-02 -3.016662597656250000e-02 -2.027587890625000000e-01 -4.257202148437500000e-02 7.928466796875000000e-02 -1.920166015625000000e-01 -4.248046875000000000e-02 -1.265869140625000000e-01 1.206054687500000000e-01 -1.325683593750000000e-01 -4.968261718750000000e-02 9.375000000000000000e-02 -3.439331054687500000e-02 2.052001953125000000e-01 1.706542968750000000e-01 -1.820068359375000000e-01 -1.689453125000000000e-01 1.381835937500000000e-01 -1.916503906250000000e-01 -1.961669921875000000e-01 1.249389648437500000e-01 1.711425781250000000e-01

3.802490234375000000e-02 -3.137207031250000000e-02 -1.920166015625000000e-01 -2.191162109375000000e-02 -3.363037109375000000e-02 -1.322021484375000000e-01 -1.802978515625000000e-01 -1.484375000000000000e-01 9.228515625000000000e-02 -1.278076171875000000e-01 -8.532714843750000000e-02 -1.595458984375000000e-01 1.303863525390625000e-02 -5.816650390625000000e-02 1.662597656250000000e-01 -1.262207031250000000e-01 1.535644531250000000e-01 -9.918212890625000000e-02 -1.621093750000000000e-01 -2.010498046875000000e-01 -8.367919921875000000e-02 2.807617187500000000e-02 1.921386718750000000e-01 -1.216430664062500000e-01 -1.993408203125000000e-01 -1.608886718750000000e-01 8.746337890625000000e-02 -1.480712890625000000e-01 9.765625000000000000e-03 4.364013671875000000e-02 1.662597656250000000e-01 5.990600585937500000e-02 1.933593750000000000e-01 1.707763671875000000e-01 -6.618499755859375000e-04 -1.099853515625000000e-01 -5.300903320312500000e-02 2.053222656250000000e-01 1.096191406250000000e-01 1.346435546875000000e-01 -8.590698242187500000e-03 3.564453125000000000e-02 -3.558349609375000000e-02 -1.932373046875000000e-01 2.001953125000000000e-01 -3.377914428710937500e-03 -1.839599609375000000e-01 2.033691406250000000e-01 1.577148437500000000e-01 -1.820068359375000000e-01 1.374511718750000000e-01 7.452392578125000000e-02 -1.451416015625000000e-01 -1.568603515625000000e-01 1.872558593750000000e-01 1.734619140625000000e-01 1.523437500000000000e-01 3.399658203125000000e-02 3.674316406250000000e-02 -4.034423828125000000e-02 5.606079101562500000e-02 1.804199218750000000e-01 2.178955078125000000e-02 1.188964843750000000e-01 -1.130981445312500000e-01 -2.560424804687500000e-02 9.954833984375000000e-02 3.173828125000000000e-03 6.507873535156250000e-03 -1.411132812500000000e-01 -1.269531250000000000e-01 1.381835937500000000e-01 -2.954101562500000000e-02 -8.868408203125000000e-02 1.278877258300781250e-03 -1.022949218750000000e-01 2.221679687500000000e-02 1.060180664062500000e-01 7.275390625000000000e-02 1.879882812500000000e-01 -1.483154296875000000e-01 -9.088134765625000000e-02 1.795291900634765625e-04 9.536743164062500000e-03 1.088867187500000000e-01 2.050781250000000000e-01 1.164550781250000000e-01 9.814453125000000000e-02 -1.472167968750000000e-01 6.274414062500000000e-02 6.401062011718750000e-03 -2.032470703125000000e-01 2.062988281250000000e-01 -1.742553710937500000e-02 -1.892089843750000000e-01 1.791992187500000000e-01 1.108398437500000000e-01 -2.844238281250000000e-02 7.409667968750000000e-02 -1.428222656250000000e-01

3.852844238281250000e-04 1.224365234375000000e-01 -2.952575683593750000e-02 1.335449218750000000e-01 -5.010986328125000000e-02 1.464843750000000000e-01 6.884765625000000000e-02 -1.342773437500000000e-01 1.606445312500000000e-01 -1.475830078125000000e-01 -2.795410156250000000e-02 6.530761718750000000e-02 1.120605468750000000e-01 -2.378845214843750000e-02 -1.613769531250000000e-01 -1.112060546875000000e-01 -1.403808593750000000e-01 6.359863281250000000e-02 3.436279296875000000e-02 1.442871093750000000e-01 -1.831054687500000000e-01 -1.584472656250000000e-01 -3.961181640625000000e-02 1.225585937500000000e-01 9.497070312500000000e-02 -8.856201171875000000e-02 9.375000000000000000e-02 1.989746093750000000e-01 -1.112060546875000000e-01 3.648757934570312500e-03 -6.384277343750000000e-02 -6.262207031250000000e-02 1.225585937500000000e-01 2.045898437500000000e-01 1.192626953125000000e-01 1.616210937500000000e-01 -6.628417968750000000e-02 3.918457031250000000e-02 6.225585937500000000e-02 -1.124267578125000000e-01 5.737304687500000000e-02 1.960449218750000000e-01 -1.306152343750000000e-01 -1.524658203125000000e-01 -1.783752441406250000e-02 -4.772949218750000000e-02 -2.624511718750000000e-02 -2.058105468750000000e-01 -1.807861328125000000e-01 -5.261230468750000000e-02 -1.245117187500000000e-01 -1.944580078125000000e-01 4.937744140625000000e-02 1.806640625000000000e-01 1.152343750000000000e-01 -1.298828125000000000e-01 1.677246093750000000e-01 1.169433593750000000e-01 7.641601562500000000e-02 4.736328125000000000e-02 -2.025604248046875000e-03 7.031250000000000000e-02 -1.156616210937500000e-01 -4.656982421875000000e-02 -1.968994140625000000e-01 -6.347656250000000000e-02 -1.593017578125000000e-01 8.740234375000000000e-02 1.815795898437500000e-02 -2.795410156250000000e-02 -5.017089843750000000e-02 -1.795654296875000000e-01 1.171875000000000000e-02 7.019042968750000000e-02 -1.378631591796875000e-02 5.786132812500000000e-02 1.176757812500000000e-01 -1.734619140625000000e-01 -1.920166015625000000e-01 -9.582519531250000000e-02 1.711425781250000000e-01 -1.055297851562500000e-01 -7.812500000000000000e-02 1.209716796875000000e-01 -1.330566406250000000e-02 -3.720092773437500000e-02 -8.489990234375000000e-02 -6.311035156250000000e-02 1.640625000000000000e-01 5.419921875000000000e-02 -7.641601562500000000e-02 3.570556640625000000e-02 1.362304687500000000e-01 -1.835937500000000000e-01 1.960449218750000000e-01 -2.221679687500000000e-02 2.062988281250000000e-01 1.701660156250000000e-01 -8.868408203125000000e-02 -4.492187500000000000e-02

1.657714843750000000e-01 2.954101562500000000e-02 -1.383056640625000000e-01 1.369628906250000000e-01 -1.876220703125000000e-01 9.008789062500000000e-02 2.832031250000000000e-02 -2.062988281250000000e-02 1.552734375000000000e-01 -1.730957031250000000e-01 1.726074218750000000e-01 -4.492187500000000000e-02 -3.271484375000000000e-02 6.958007812500000000e-02 -5.017089843750000000e-02 -4.162597656250000000e-02 5.615234375000000000e-02 1.169433593750000000e-01 2.270507812500000000e-02 -9.783935546875000000e-02 -1.237182617187500000e-01 -1.313476562500000000e-01 -1.791992187500000000e-01 -6.994628906250000000e-02 -7.446289062500000000e-02 1.115722656250000000e-01 1.040039062500000000e-01 -1.430664062500000000e-01 -1.475830078125000000e-01 -8.654785156250000000e-02 1.545410156250000000e-01 -2.380371093750000000e-02 1.208496093750000000e-02 -3.759765625000000000e-02 5.249023437500000000e-03 2.746582031250000000e-02 -1.977539062500000000e-01 1.860351562500000000e-01 9.301757812500000000e-02 1.804199218750000000e-01 1.577148437500000000e-01 -6.591796875000000000e-02 -1.220703125000000000e-03 -5.419921875000000000e-02 -1.265869140625000000e-01 -2.990722656250000000e-02 5.859375000000000000e-02 -1.713867187500000000e-01 -1.439208984375000000e-01 1.337890625000000000e-01 -2.270507812500000000e-02 1.411132812500000000e-01 4.370117187500000000e-02 -1.807861328125000000e-01 -1.669921875000000000e-01 6.469726562500000000e-03 -1.685791015625000000e-01 8.129882812500000000e-02 1.467285156250000000e-01 3.796386718750000000e-02 -1.022949218750000000e-01 -1.087646484375000000e-01 1.411132812500000000e-01 2.050781250000000000e-01 1.940917968750000000e-01 -9.301757812500000000e-02 -1.574707031250000000e-02 -7.153320312500000000e-02 -1.192626953125000000e-01 1.650390625000000000e-01 6.884765625000000000e-02 -8.251953125000000000e-02 6.884765625000000000e-02 -8.209228515625000000e-02 -9.906005859375000000e-02 1.933593750000000000e-01 -4.089355468750000000e-02 1.323242187500000000e-01 -3.845214843750000000e-02 1.362304687500000000e-01 1.103515625000000000e-01 -1.956787109375000000e-01 9.277343750000000000e-03 -9.259033203125000000e-02 -1.750488281250000000e-01 9.106445312500000000e-02 1.750488281250000000e-01 1.030273437500000000e-01 -1.172485351562500000e-01 1.818847656250000000e-01 6.103515625000000000e-03 1.301269531250000000e-01 7.714843750000000000e-02 1.965332031250000000e-01 9.375000000000000000e-02 -6.835937500000000000e-03 1.418457031250000000e-01 -1.580810546875000000e-01 1.459960937500000000e-01 -5.578613281250000000e-02

-1.447753906250000000e-01 -2.058105468750000000e-01 2.053222656250000000e-01 3.201293945312500000e-02 -2.091979980468750000e-02 8.172607421875000000e-02 -1.002197265625000000e-01 -1.767578125000000000e-01 -2.017822265625000000e-01 -1.265869140625000000e-01 1.240234375000000000e-01 -8.624267578125000000e-02 3.839111328125000000e-02 1.005249023437500000e-01 -5.172729492187500000e-02 -1.143798828125000000e-01 4.537963867187500000e-02 7.141113281250000000e-02 -1.253662109375000000e-01 -1.866455078125000000e-01 -1.853942871093750000e-02 -8.215332031250000000e-02 -2.065429687500000000e-01 3.228759765625000000e-02 -6.634521484375000000e-02 1.362304687500000000e-01 -1.262207031250000000e-01 1.092529296875000000e-01 -1.337890625000000000e-01 3.204345703125000000e-02 4.998779296875000000e-02 2.041015625000000000e-01 -7.110595703125000000e-02 -7.983398437500000000e-02 -1.455078125000000000e-01 6.958007812500000000e-02 4.092407226562500000e-02 4.544067382812500000e-02 -1.172485351562500000e-01 9.753417968750000000e-02 5.618286132812500000e-02 2.146911621093750000e-02 -2.067565917968750000e-02 -1.530456542968750000e-02 -1.805114746093750000e-02 -1.983642578125000000e-01 -1.257324218750000000e-01 -7.635498046875000000e-02 -1.322021484375000000e-01 -1.330566406250000000e-02 1.536560058593750000e-02 7.318115234375000000e-02 -1.094970703125000000e-01 -4.089355468750000000e-02 1.491699218750000000e-01 1.922607421875000000e-02 -1.564941406250000000e-01 1.442871093750000000e-01 -1.645507812500000000e-01 -1.835937500000000000e-01 1.722412109375000000e-01 -4.284667968750000000e-02 -1.079711914062500000e-01 -3.323364257812500000e-02 4.745483398437500000e-02 1.782226562500000000e-01 2.576828002929687500e-03 -1.322021484375000000e-01 1.860351562500000000e-01 -4.844665527343750000e-03 4.436492919921875000e-03 1.828613281250000000e-01 -1.617431640625000000e-01 -2.014160156250000000e-01 -1.512451171875000000e-01 1.652832031250000000e-01 9.667968750000000000e-02 1.051635742187500000e-01 -4.931640625000000000e-02 -1.848144531250000000e-01 -1.088867187500000000e-01 3.016662597656250000e-02 1.855468750000000000e-01 -1.348876953125000000e-01 -3.248453140258789062e-05 -4.156494140625000000e-02 -1.839599609375000000e-01 -9.625244140625000000e-02 -4.402160644531250000e-03 -9.625244140625000000e-02 6.106567382812500000e-02 9.387207031250000000e-02 -3.131866455078125000e-03 4.290771484375000000e-02 1.687011718750000000e-01 6.713867187500000000e-02 8.300781250000000000e-02 1.206665039062500000e-01 -1.179504394531250000e-02 4.049682617187500000e-02

6.225585937500000000e-02 -9.057617187500000000e-02 1.928710937500000000e-01 4.858398437500000000e-02 1.936035156250000000e-01 -1.206970214843750000e-02 -2.868652343750000000e-02 -1.439208984375000000e-01 2.807617187500000000e-03 -1.459960937500000000e-01 -1.257324218750000000e-01 1.052246093750000000e-01 1.491699218750000000e-01 5.859375000000000000e-02 1.374511718750000000e-01 -7.389068603515625000e-03 1.311035156250000000e-01 -1.940917968750000000e-01 1.374511718750000000e-01 9.008789062500000000e-02 6.030273437500000000e-02 -8.654785156250000000e-02 1.145019531250000000e-01 4.040527343750000000e-02 3.198242187500000000e-02 9.741210937500000000e-02 -1.209106445312500000e-01 1.718750000000000000e-01 5.126953125000000000e-02 5.493164062500000000e-02 5.712890625000000000e-02 -1.710205078125000000e-01 -1.678466796875000000e-01 9.985351562500000000e-02 -1.439208984375000000e-01 -1.669921875000000000e-01 7.128906250000000000e-02 1.472167968750000000e-01 -1.660156250000000000e-02 1.423339843750000000e-01 -1.027221679687500000e-01 6.420898437500000000e-02 -1.645507812500000000e-01 -5.664062500000000000e-02 -1.346435546875000000e-01 -6.677246093750000000e-02 -1.613769531250000000e-01 1.054687500000000000e-01 -4.968261718750000000e-02 1.965332031250000000e-01 -1.423339843750000000e-01 -2.042236328125000000e-01 1.948242187500000000e-01 -2.465820312500000000e-02 4.390716552734375000e-03 -1.734619140625000000e-01 7.690429687500000000e-02 -2.061767578125000000e-01 5.419921875000000000e-02 6.762695312500000000e-02 2.045898437500000000e-01 1.633300781250000000e-01 -1.484375000000000000e-01 -1.560058593750000000e-01 9.441375732421875000e-04 -1.867675781250000000e-01 6.229400634765625000e-03 8.496093750000000000e-02 -1.491699218750000000e-01 1.892089843750000000e-01 -7.324218750000000000e-02 -6.994628906250000000e-02 1.276855468750000000e-01 -1.968994140625000000e-01 -1.577148437500000000e-01 -1.459960937500000000e-01 1.218261718750000000e-01 -1.383056640625000000e-01 -1.904296875000000000e-01 1.059570312500000000e-01 1.108398437500000000e-01 4.162597656250000000e-02 5.615234375000000000e-02 -1.984863281250000000e-01 1.909179687500000000e-01 -7.755279541015625000e-03 1.257324218750000000e-01 -1.269531250000000000e-01 1.499023437500000000e-01 5.859375000000000000e-02 1.257324218750000000e-02 -8.532714843750000000e-02 8.129882812500000000e-02 1.757812500000000000e-01 6.054687500000000000e-02 -5.822753906250000000e-02 1.135253906250000000e-01 -8.569335937500000000e-02 -1.909179687500000000e-01 -1.136474609375000000e-01

5.105590820312500000e-02 -2.632141113281250000e-02 -1.172485351562500000e-01 -1.503906250000000000e-01 1.818847656250000000e-01 -2.099609375000000000e-02 6.347656250000000000e-02 -1.055297851562500000e-01 1.145019531250000000e-01 -5.090332031250000000e-02 4.440307617187500000e-02 9.423828125000000000e-02 -1.989746093750000000e-01 9.350585937500000000e-02 1.616210937500000000e-01 1.858520507812500000e-02 1.108398437500000000e-01 -1.601562500000000000e-01 -2.429199218750000000e-02 6.884765625000000000e-02 1.406250000000000000e-01 5.810546875000000000e-02 1.441192626953125000e-02 1.713867187500000000e-01 -9.863281250000000000e-02 -1.124267578125000000e-01 1.535644531250000000e-01 -1.925048828125000000e-01 1.584472656250000000e-01 1.354980468750000000e-01 6.958007812500000000e-02 -1.783447265625000000e-01 1.911621093750000000e-01 4.321289062500000000e-02 -1.391601562500000000e-01 -1.204833984375000000e-01 1.569824218750000000e-01 1.398925781250000000e-01 1.379394531250000000e-01 9.063720703125000000e-02 -2.030029296875000000e-01 -1.827392578125000000e-01 -8.949279785156250000e-03 3.320312500000000000e-02 -9.344482421875000000e-02 1.723632812500000000e-01 1.109008789062500000e-01 -1.221313476562500000e-01 2.308654785156250000e-02 -1.407470703125000000e-01 -1.746826171875000000e-01 1.872558593750000000e-01 -1.286621093750000000e-01 -1.010742187500000000e-01 1.054687500000000000e-01 2.108812332153320312e-04 -1.075439453125000000e-01 -5.734252929687500000e-02 -1.968994140625000000e-01 3.027915954589843750e-04 -1.989746093750000000e-01 -1.184692382812500000e-01 -1.855468750000000000e-02 1.916503906250000000e-01 9.234619140625000000e-02 8.941650390625000000e-03 -1.708984375000000000e-02 6.054687500000000000e-02 6.176757812500000000e-02 1.257324218750000000e-01 2.380371093750000000e-02 1.667785644531250000e-02 -5.419921875000000000e-02 3.515625000000000000e-02 7.671356201171875000e-03 -4.614257812500000000e-02 -1.298828125000000000e-01 -3.323364257812500000e-02 1.916503906250000000e-01 3.640747070312500000e-02 1.459960937500000000e-01 -1.925048828125000000e-01 -1.533203125000000000e-01 1.140136718750000000e-01 1.867675781250000000e-01 1.145019531250000000e-01 -1.524658203125000000e-01 -1.015014648437500000e-01 5.712890625000000000e-02 1.540527343750000000e-01 -1.447753906250000000e-01 5.722045898437500000e-02 1.374511718750000000e-01 6.274414062500000000e-02 -4.809570312500000000e-02 -4.492187500000000000e-02 -1.015014648437500000e-01 1.027221679687500000e-01 -1.540527343750000000e-01 3.234863281250000000e-02

-1.605224609375000000e-01 2.462768554687500000e-02 1.281738281250000000e-03 -1.370849609375000000e-01 6.640625000000000000e-02 -1.370849609375000000e-01 1.875000000000000000e-01 -2.033691406250000000e-01 -6.677246093750000000e-02 -1.528320312500000000e-01 -1.293945312500000000e-01 -1.132202148437500000e-01 1.984863281250000000e-01 2.342224121093750000e-02 1.774902343750000000e-01 -6.066894531250000000e-02 1.677246093750000000e-01 6.274414062500000000e-02 1.652832031250000000e-01 -1.900634765625000000e-01 6.469726562500000000e-02 -1.734619140625000000e-01 -1.528930664062500000e-02 1.811523437500000000e-01 8.691406250000000000e-02 -1.274414062500000000e-01 1.594238281250000000e-01 -3.146362304687500000e-02 1.977539062500000000e-02 1.665039062500000000e-01 -5.822753906250000000e-02 7.031250000000000000e-02 -1.552734375000000000e-01 -2.045898437500000000e-01 3.195190429687500000e-02 1.601562500000000000e-01 1.511230468750000000e-01 7.031250000000000000e-02 -1.184692382812500000e-01 1.064453125000000000e-01 1.164550781250000000e-01 -4.003906250000000000e-02 1.779785156250000000e-01 -4.037475585937500000e-02 4.202270507812500000e-02 -1.030883789062500000e-01 -1.762695312500000000e-01 -1.577148437500000000e-01 -7.885742187500000000e-02 -4.614257812500000000e-02 1.274414062500000000e-01 1.706542968750000000e-01 -6.750488281250000000e-02 1.669921875000000000e-01 -1.298828125000000000e-01 6.835937500000000000e-02 5.224609375000000000e-02 4.003906250000000000e-02 -1.855468750000000000e-02 1.369628906250000000e-01 3.268432617187500000e-02 -1.015014648437500000e-01 5.908203125000000000e-02 -1.925048828125000000e-01 -2.021484375000000000e-01 -1.568603515625000000e-01 1.711425781250000000e-01 -7.690429687500000000e-03 1.523437500000000000e-01 1.306152343750000000e-01 -2.001953125000000000e-01 3.077697753906250000e-02 -1.782226562500000000e-02 8.618164062500000000e-02 -8.453369140625000000e-02 -5.212402343750000000e-02 -8.612060546875000000e-02 -1.164550781250000000e-01 9.667968750000000000e-02 -1.520996093750000000e-01 -6.677246093750000000e-02 7.348632812500000000e-02 1.171875000000000000e-01 -6.958007812500000000e-02 1.782226562500000000e-01 -1.848144531250000000e-01 8.569335937500000000e-02 3.234863281250000000e-02 2.062988281250000000e-01 7.275390625000000000e-02 2.026367187500000000e-02 -3.915405273437500000e-02 -2.185058593750000000e-02 8.087158203125000000e-03 -1.989746093750000000e-01 -3.601074218750000000e-02 1.582031250000000000e-01 -1.730957031250000000e-01 -1.685791015625000000e-01 1.965332031250000000e-01

-1.049804687500000000e-02 -4.376220703125000000e-02 1.633300781250000000e-01 2.006835937500000000e-01 -1.071777343750000000e-01 -1.022949218750000000e-01 -1.136474609375000000e-01 1.547851562500000000e-01 5.859375000000000000e-02 4.983520507812500000e-02 -1.289062500000000000e-01 2.058105468750000000e-01 -2.088546752929687500e-03 -5.020141601562500000e-02 -5.416870117187500000e-02 1.196289062500000000e-01 -1.621093750000000000e-01 6.793212890625000000e-02 -1.322021484375000000e-01 1.818847656250000000e-01 -1.556396484375000000e-01 1.660156250000000000e-02 -1.490478515625000000e-01 -1.350097656250000000e-01 -1.435546875000000000e-01 1.909179687500000000e-01 -1.395263671875000000e-01 -1.706542968750000000e-01 1.181640625000000000e-01 -1.795654296875000000e-01 1.794433593750000000e-01 3.108215332031250000e-02 -3.558349609375000000e-02 4.971313476562500000e-02 -2.677917480468750000e-02 -1.002807617187500000e-01 -1.047363281250000000e-01 1.455078125000000000e-01 -4.251098632812500000e-02 -5.691528320312500000e-02 -4.040527343750000000e-02 1.687011718750000000e-01 -6.628417968750000000e-02 -1.831054687500000000e-01 -8.282470703125000000e-02 6.915283203125000000e-02 -1.189575195312500000e-01 -1.152343750000000000e-01 -6.750488281250000000e-02 -2.429199218750000000e-02 -8.856201171875000000e-02 6.347656250000000000e-02 1.540374755859375000e-02 -7.849121093750000000e-02 1.782226562500000000e-01 -6.982421875000000000e-02 8.569335937500000000e-02 -1.395263671875000000e-01 -1.783447265625000000e-01 8.056640625000000000e-03 -1.666259765625000000e-01 -3.845214843750000000e-02 -9.423828125000000000e-02 1.523437500000000000e-01 1.090698242187500000e-01 -8.007812500000000000e-02 6.021118164062500000e-02 1.767578125000000000e-01 -7.335662841796875000e-03 -1.520996093750000000e-01 3.601074218750000000e-02 7.330322265625000000e-02 1.330566406250000000e-01 1.040649414062500000e-01 -1.984863281250000000e-01 -1.229248046875000000e-01 -3.845214843750000000e-02 3.839111328125000000e-02 1.250000000000000000e-01 -9.625244140625000000e-02 1.131591796875000000e-01 -2.383422851562500000e-02 1.965332031250000000e-01 -9.252929687500000000e-02 1.472167968750000000e-01 1.379394531250000000e-01 -1.645507812500000000e-01 -7.604980468750000000e-02 1.442871093750000000e-01 -8.251953125000000000e-02 -1.274414062500000000e-01 1.806640625000000000e-01 7.031250000000000000e-02 3.277587890625000000e-02 -1.536865234375000000e-01 1.787109375000000000e-01 -1.625976562500000000e-01 1.669921875000000000e-01 -1.430664062500000000e-01 -8.728027343750000000e-02

-6.225585937500000000e-02 -7.519531250000000000e-02 -8.654785156250000000e-02 -8.776855468750000000e-02 1.503906250000000000e-01 4.638671875000000000e-02 9.008789062500000000e-02 -3.918457031250000000e-02 -1.879882812500000000e-01 -1.175689697265625000e-02 -8.251953125000000000e-02 -1.556396484375000000e-01 1.638183593750000000e-01 6.469726562500000000e-02 1.110839843750000000e-01 -2.145385742187500000e-02 5.175781250000000000e-02 -5.209350585937500000e-02 -5.822753906250000000e-02 -1.528320312500000000e-01 2.502441406250000000e-02 1.611328125000000000e-02 4.421997070312500000e-02 1.662597656250000000e-01 -1.428222656250000000e-01 2.380371093750000000e-02 -9.239196777343750000e-03 1.650390625000000000e-01 1.330566406250000000e-02 1.171875000000000000e-01 1.171875000000000000e-02 1.369628906250000000e-01 9.301757812500000000e-02 -2.497863769531250000e-02 5.224609375000000000e-02 -1.831054687500000000e-01 1.572265625000000000e-01 -1.820068359375000000e-01 -4.856109619140625000e-03 -1.937255859375000000e-01 2.905273437500000000e-02 -4.284667968750000000e-02 1.301269531250000000e-01 -5.908203125000000000e-02 1.982421875000000000e-01 -1.997070312500000000e-01 -1.536369323730468750e-03 -1.730957031250000000e-01 1.477050781250000000e-01 8.813476562500000000e-02 1.977539062500000000e-02 -1.269531250000000000e-01 -4.924774169921875000e-03 -2.343750000000000000e-02 4.089355468750000000e-02 -9.423828125000000000e-02 8.496093750000000000e-02 8.056640625000000000e-03 -1.374511718750000000e-01 -1.645507812500000000e-01 -1.888427734375000000e-01 6.347656250000000000e-02 -1.774902343750000000e-01 9.716796875000000000e-02 -1.035156250000000000e-01 -3.393554687500000000e-02 7.958984375000000000e-02 -4.370117187500000000e-02 7.885742187500000000e-02 4.931640625000000000e-02 1.616210937500000000e-01 1.276855468750000000e-01 -4.614257812500000000e-02 -1.152343750000000000e-01 1.367187500000000000e-01 -8.734130859375000000e-02 -4.040527343750000000e-02 1.132812500000000000e-01 -1.560058593750000000e-01 -1.030883789062500000e-01 1.516113281250000000e-01 -2.308654785156250000e-02 -9.100341796875000000e-02 -2.839660644531250000e-02 1.589355468750000000e-01 1.701660156250000000e-01 -4.895019531250000000e-02 9.423828125000000000e-02 1.184082031250000000e-01 2.148437500000000000e-02 -1.823730468750000000e-01 -8.612060546875000000e-02 1.306152343750000000e-01 -8.110046386718750000e-03 -1.851806640625000000e-01 -4.858398437500000000e-02 -1.136474609375000000e-01 3.974914550781250000e-03 -5.981445312500000000e-02 -1.177978515625000000e-02

5.169677734375000000e-02 9.582519531250000000e-02 -7.220458984375000000e-02 1.516113281250000000e-01 -1.965332031250000000e-01 -1.795654296875000000e-01 1.337890625000000000e-01 -1.560058593750000000e-01 -1.313476562500000000e-01 9.759521484375000000e-02 -1.920166015625000000e-01 -1.145629882812500000e-01 -4.013061523437500000e-02 2.006835937500000000e-01 -1.233520507812500000e-01 1.354980468750000000e-01 -1.937255859375000000e-01 2.679443359375000000e-02 -2.026367187500000000e-01 -2.014160156250000000e-01 -3.656387329101562500e-03 2.947998046875000000e-02 1.030273437500000000e-01 -1.257324218750000000e-01 -1.418457031250000000e-01 1.650390625000000000e-01 1.337890625000000000e-01 1.976318359375000000e-01 -1.132202148437500000e-01 2.050781250000000000e-01 1.045989990234375000e-02 4.278564453125000000e-02 1.298828125000000000e-01 -1.145172119140625000e-02 -3.329467773437500000e-02 -1.876220703125000000e-01 8.203125000000000000e-02 -1.949462890625000000e-01 1.005859375000000000e-01 1.256103515625000000e-01 -1.655578613281250000e-02 9.594726562500000000e-02 2.984619140625000000e-02 1.828613281250000000e-01 1.533203125000000000e-01 -1.695556640625000000e-01 1.217041015625000000e-01 2.041015625000000000e-01 2.676391601562500000e-02 -4.394531250000000000e-03 2.668762207031250000e-02 1.323242187500000000e-01 4.742431640625000000e-02 -1.726074218750000000e-01 -9.179687500000000000e-02 2.758789062500000000e-02 -8.064270019531250000e-03 4.486083984375000000e-02 1.362304687500000000e-01 -5.340576171875000000e-02 4.849243164062500000e-02 4.443359375000000000e-02 9.350585937500000000e-02 -1.075439453125000000e-01 1.391601562500000000e-01 -1.342773437500000000e-01 1.074218750000000000e-02 2.045898437500000000e-01 -1.383056640625000000e-01 -7.971191406250000000e-02 -1.692199707031250000e-02 5.017089843750000000e-02 -6.469726562500000000e-03 -1.682128906250000000e-01 3.024291992187500000e-02 -1.257324218750000000e-01 1.047363281250000000e-01 8.843994140625000000e-02 -9.863281250000000000e-02 -6.939697265625000000e-02 -2.917480468750000000e-02 3.111267089843750000e-02 6.039428710937500000e-02 2.914428710937500000e-02 -1.301269531250000000e-01 1.374511718750000000e-01 -4.312133789062500000e-02 1.491699218750000000e-01 1.606445312500000000e-01 9.780883789062500000e-03 -1.718750000000000000e-01 -1.602783203125000000e-01 -1.379394531250000000e-01 -1.771240234375000000e-01 -1.079711914062500000e-01 1.347656250000000000e-01 -7.885742187500000000e-02 -1.123046875000000000e-01 -4.870605468750000000e-02 -1.835937500000000000e-01

1.440429687500000000e-01 1.650390625000000000e-01 -1.940917968750000000e-01 1.477050781250000000e-01 9.106445312500000000e-02 -1.608886718750000000e-01 9.277343750000000000e-03 -1.835937500000000000e-01 1.779785156250000000e-01 -1.224975585937500000e-01 -8.544921875000000000e-03 1.206054687500000000e-01 -2.017822265625000000e-01 -4.040527343750000000e-02 -1.391601562500000000e-01 -9.301757812500000000e-02 1.127929687500000000e-01 -1.217041015625000000e-01 -1.213378906250000000e-01 1.452636718750000000e-02 1.816406250000000000e-01 -9.014892578125000000e-02 1.313476562500000000e-01 -3.845214843750000000e-02 1.286621093750000000e-01 -1.463623046875000000e-01 -1.584472656250000000e-01 -1.132202148437500000e-01 1.547851562500000000e-01 7.153320312500000000e-02 1.875000000000000000e-01 -2.624511718750000000e-02 -6.469726562500000000e-03 -1.956787109375000000e-01 -1.560058593750000000e-01 1.281738281250000000e-01 -4.248046875000000000e-02 2.021484375000000000e-01 3.173828125000000000e-03 1.181640625000000000e-01 1.787109375000000000e-01 1.220703125000000000e-01 -1.293945312500000000e-01 -1.087646484375000000e-01 -4.199218750000000000e-02 4.284667968750000000e-02 -3.515625000000000000e-02 1.730957031250000000e-01 9.985351562500000000e-02 8.691406250000000000e-02 -1.274414062500000000e-01 5.712890625000000000e-02 5.053710937500000000e-02 -1.274414062500000000e-01 -1.087646484375000000e-01 -4.039764404296875000e-03 -3.723144531250000000e-02 1.723632812500000000e-01 -7.446289062500000000e-02 1.430664062500000000e-01 1.657714843750000000e-01 -6.835937500000000000e-03 1.779785156250000000e-01 1.840820312500000000e-01 -1.249389648437500000e-01 1.916503906250000000e-01 -4.003906250000000000e-02 -1.560058593750000000e-01 -1.104125976562500000e-01 1.369628906250000000e-01 -1.568603515625000000e-01 2.009277343750000000e-01 1.477050781250000000e-01 8.552551269531250000e-03 -1.325683593750000000e-01 -1.451416015625000000e-01 -1.654052734375000000e-01 5.615234375000000000e-03 -1.586914062500000000e-03 -1.416015625000000000e-02 1.501464843750000000e-02 3.759765625000000000e-02 -2.380371093750000000e-02 -1.354980468750000000e-01 7.226562500000000000e-02 -1.734619140625000000e-01 4.565429687500000000e-02 1.701660156250000000e-01 -1.164550781250000000e-01 1.713867187500000000e-01 2.062988281250000000e-02 2.709960937500000000e-02 1.872558593750000000e-01 -9.460449218750000000e-02 -8.453369140625000000e-02 1.489257812500000000e-01 2.014160156250000000e-01 -1.823730468750000000e-01 -1.977539062500000000e-01 2.099609375000000000e-02

-1.398925781250000000e-01 -1.536865234375000000e-01 -1.645507812500000000e-01 4.370117187500000000e-02 1.501464843750000000e-02 2.026367187500000000e-02 3.601074218750000000e-02 6.835937500000000000e-03 -7.238769531250000000e-02 -5.859375000000000000e-02 1.262207031250000000e-01 -1.322021484375000000e-01 -1.452636718750000000e-02 1.904296875000000000e-02 -5.578613281250000000e-02 1.245117187500000000e-01 6.274414062500000000e-02 -2.005615234375000000e-01 -1.039428710937500000e-01 5.859375000000000000e-02 1.735839843750000000e-01 -1.022949218750000000e-01 -1.204833984375000000e-01 -1.172485351562500000e-01 1.047363281250000000e-01 1.799316406250000000e-01 -5.090332031250000000e-02 -2.624511718750000000e-02 -6.909179687500000000e-02 -1.168823242187500000e-01 -2.030029296875000000e-01 1.184082031250000000e-01 8.569335937500000000e-02 8.691406250000000000e-02 -1.645507812500000000e-01 7.324218750000000000e-03 6.665039062500000000e-02 -3.637695312500000000e-02 1.574707031250000000e-02 -2.148437500000000000e-02 -1.180419921875000000e-01 -8.166503906250000000e-02 -1.140136718750000000e-01 4.028320312500000000e-03 3.967285156250000000e-02 1.750488281250000000e-01 -2.042236328125000000e-01 1.916503906250000000e-01 6.591796875000000000e-02 -1.221313476562500000e-01 1.313476562500000000e-01 -4.492187500000000000e-02 9.375000000000000000e-02 1.757812500000000000e-01 2.185058593750000000e-02 1.447753906250000000e-01 1.496582031250000000e-01 -2.185058593750000000e-02 -9.906005859375000000e-02 2.001953125000000000e-01 3.637695312500000000e-02 -1.091918945312500000e-01 1.718750000000000000e-01 -7.971191406250000000e-02 -1.516113281250000000e-01 -8.569335937500000000e-02 -2.868652343750000000e-02 -2.049560546875000000e-01 9.545898437500000000e-02 -7.360839843750000000e-02 -1.593017578125000000e-01 1.066894531250000000e-01 9.594726562500000000e-02 1.103515625000000000e-01 -3.796386718750000000e-02 -1.501464843750000000e-02 -1.601562500000000000e-01 -2.502441406250000000e-02 2.016601562500000000e-01 6.909179687500000000e-02 -1.552734375000000000e-01 -1.835937500000000000e-01 7.031250000000000000e-02 1.491699218750000000e-01 4.089355468750000000e-02 -1.013183593750000000e-02 -1.119995117187500000e-01 -1.589355468750000000e-01 1.496582031250000000e-01 1.381835937500000000e-01 -1.383056640625000000e-01 -1.188964843750000000e-01 -1.015014648437500000e-01 -1.083984375000000000e-01 -1.701660156250000000e-01 -2.026367187500000000e-02 1.779785156250000000e-01 1.823730468750000000e-01 1.835937500000000000e-01 1.218261718750000000e-01

1.824951171875000000e-01 -1.519012451171875000e-02 1.002197265625000000e-01 1.121826171875000000e-01 7.580566406250000000e-02 7.043457031250000000e-02 -8.825683593750000000e-02 1.496582031250000000e-01 -8.898925781250000000e-02 -7.442474365234375000e-03 1.373291015625000000e-01 1.130371093750000000e-01 1.312255859375000000e-01 4.574584960937500000e-02 -2.015380859375000000e-01 1.365966796875000000e-01 2.107238769531250000e-02 -4.608154296875000000e-03 -1.199951171875000000e-01 -9.405517578125000000e-02 1.650390625000000000e-01 -2.004394531250000000e-01 1.149291992187500000e-01 4.895019531250000000e-02 1.812744140625000000e-01 -8.245849609375000000e-02 1.524658203125000000e-01 8.428955078125000000e-02 -1.241455078125000000e-01 -4.696655273437500000e-02 -1.066284179687500000e-01 -4.232788085937500000e-02 1.523590087890625000e-02 3.988647460937500000e-02 -4.302978515625000000e-02 -3.717041015625000000e-02 -3.607177734375000000e-02 1.600341796875000000e-01 -1.948242187500000000e-01 1.586914062500000000e-01 -1.335449218750000000e-01 1.916503906250000000e-01 -5.899047851562500000e-02 2.973937988281250000e-02 1.364746093750000000e-01 -8.062744140625000000e-02 -4.547119140625000000e-02 4.028320312500000000e-02 -2.192687988281250000e-02 1.218261718750000000e-01 -1.030883789062500000e-01 -2.612304687500000000e-02 -5.834960937500000000e-02 2.223205566406250000e-02 1.090698242187500000e-01 -1.433105468750000000e-01 -2.065429687500000000e-01 -1.680908203125000000e-01 -1.932373046875000000e-01 -1.979980468750000000e-01 -1.284179687500000000e-01 -1.820068359375000000e-01 -1.768798828125000000e-01 1.060180664062500000e-01 -8.514404296875000000e-02 1.563720703125000000e-01 -9.106445312500000000e-02 1.958007812500000000e-01 -1.430664062500000000e-01 -1.311302185058593750e-03 1.317138671875000000e-01 -3.689575195312500000e-02 8.203125000000000000e-02 3.741455078125000000e-02 2.006835937500000000e-01 -9.136962890625000000e-02 -5.261230468750000000e-02 -1.163330078125000000e-01 -9.222412109375000000e-02 3.988647460937500000e-02 -1.023864746093750000e-02 -9.808349609375000000e-02 -1.641845703125000000e-02 1.992187500000000000e-01 -6.781005859375000000e-02 1.939697265625000000e-01 1.446533203125000000e-01 2.375793457031250000e-02 -1.206970214843750000e-02 2.001953125000000000e-01 -1.630859375000000000e-01 1.234741210937500000e-01 3.314208984375000000e-02 1.805419921875000000e-01 -1.633300781250000000e-01 -1.107788085937500000e-01 8.758544921875000000e-02 4.473876953125000000e-02 5.364990234375000000e-02 1.409912109375000000e-01

1.147460937500000000e-01 -1.325683593750000000e-01 -9.545898437500000000e-02 1.022949218750000000e-01 7.934570312500000000e-02 -8.003234863281250000e-03 -1.944580078125000000e-01 1.145019531250000000e-01 -1.099853515625000000e-01 -1.224975585937500000e-01 -1.259613037109375000e-02 -1.710205078125000000e-01 -1.839599609375000000e-01 -3.320312500000000000e-02 1.960449218750000000e-01 1.640625000000000000e-01 2.062988281250000000e-01 -1.879882812500000000e-01 1.596679687500000000e-01 -7.080078125000000000e-02 -6.188964843750000000e-02 1.508331298828125000e-02 1.200561523437500000e-01 1.770019531250000000e-01 -1.605224609375000000e-01 9.228515625000000000e-02 6.030273437500000000e-02 -2.279663085937500000e-02 -1.379394531250000000e-02 -9.338378906250000000e-02 1.260375976562500000e-02 1.757812500000000000e-01 -1.577758789062500000e-02 -1.132202148437500000e-01 -9.423828125000000000e-02 1.250000000000000000e-01 -6.958007812500000000e-02 -4.003906250000000000e-02 -1.192626953125000000e-01 1.487731933593750000e-02 -5.456542968750000000e-02 1.662597656250000000e-01 -1.472167968750000000e-01 1.140136718750000000e-01 -1.861572265625000000e-02 -1.596679687500000000e-01 1.989746093750000000e-01 9.472656250000000000e-02 1.225585937500000000e-01 1.110839843750000000e-01 1.386718750000000000e-01 -1.532745361328125000e-02 1.464843750000000000e-01 1.923828125000000000e-01 8.447265625000000000e-02 -5.267333984375000000e-02 -1.084136962890625000e-02 1.860351562500000000e-01 1.711425781250000000e-01 -1.779785156250000000e-01 4.693603515625000000e-02 -6.591796875000000000e-02 2.793884277343750000e-02 1.367187500000000000e-01 1.313476562500000000e-01 -1.237182617187500000e-01 5.010986328125000000e-02 1.916503906250000000e-01 -1.811523437500000000e-01 -1.827392578125000000e-01 -1.313476562500000000e-01 -2.714538574218750000e-02 -1.855468750000000000e-01 1.301269531250000000e-01 5.810546875000000000e-02 -1.925048828125000000e-01 1.865234375000000000e-01 -9.783935546875000000e-02 1.782226562500000000e-01 7.255554199218750000e-03 4.763603210449218750e-04 6.396484375000000000e-02 5.374145507812500000e-02 2.980041503906250000e-02 1.547851562500000000e-01 -1.774902343750000000e-01 7.714843750000000000e-02 -1.997070312500000000e-01 5.737304687500000000e-02 3.796386718750000000e-02 1.428222656250000000e-01 -4.864501953125000000e-02 4.882812500000000000e-02 1.262207031250000000e-01 -1.087646484375000000e-01 -1.795654296875000000e-01 6.518554687500000000e-02 1.779785156250000000e-01 -1.055297851562500000e-01 -2.153015136718750000e-02

-6.750488281250000000e-02 -5.419921875000000000e-02 -5.383300781250000000e-02 -4.125976562500000000e-02 1.940917968750000000e-01 -5.541992187500000000e-02 1.804199218750000000e-01 -9.136962890625000000e-02 -1.439208984375000000e-01 1.318359375000000000e-01 3.442382812500000000e-02 -6.628417968750000000e-02 1.357421875000000000e-01 -1.330566406250000000e-02 1.428222656250000000e-01 1.884765625000000000e-01 -4.370117187500000000e-02 3.845214843750000000e-02 -2.058105468750000000e-01 -1.738281250000000000e-01 3.796386718750000000e-02 -2.551269531250000000e-02 8.178710937500000000e-02 1.928710937500000000e-01 -1.608886718750000000e-01 -1.593017578125000000e-01 1.289062500000000000e-01 1.120605468750000000e-01 -1.411132812500000000e-01 -1.086425781250000000e-02 -2.001953125000000000e-01 6.481170654296875000e-03 4.541015625000000000e-02 -5.615234375000000000e-02 5.249023437500000000e-02 -1.455078125000000000e-01 -1.855468750000000000e-02 1.086425781250000000e-02 -7.446289062500000000e-02 -2.099990844726562500e-03 1.169433593750000000e-01 -1.019287109375000000e-01 -8.473396301269531250e-04 -1.855468750000000000e-01 -1.654052734375000000e-01 1.718750000000000000e-01 1.638183593750000000e-01 5.932617187500000000e-02 1.323242187500000000e-01 -1.733398437500000000e-02 2.954101562500000000e-02 1.245117187500000000e-01 1.755371093750000000e-01 -9.948730468750000000e-02 -1.601562500000000000e-01 -9.338378906250000000e-02 -1.418457031250000000e-01 -1.972656250000000000e-01 -1.463623046875000000e-01 -7.922363281250000000e-02 -7.671356201171875000e-03 7.690429687500000000e-02 8.935546875000000000e-02 -8.691406250000000000e-02 2.795410156250000000e-02 1.818847656250000000e-02 4.882812500000000000e-02 -1.306152343750000000e-01 4.003906250000000000e-02 -1.638183593750000000e-01 1.374511718750000000e-01 3.271484375000000000e-02 1.533203125000000000e-01 1.330566406250000000e-02 -6.433105468750000000e-02 6.665039062500000000e-02 -1.233520507812500000e-01 -1.301269531250000000e-01 9.130859375000000000e-02 1.799316406250000000e-01 -5.419921875000000000e-02 1.447753906250000000e-01 1.430664062500000000e-01 -1.027221679687500000e-01 -8.367919921875000000e-02 1.687011718750000000e-01 1.237792968750000000e-01 -6.469726562500000000e-02 3.393554687500000000e-02 -1.022949218750000000e-01 -1.596679687500000000e-01 1.325683593750000000e-01 -1.148681640625000000e-01 -1.184692382812500000e-01 1.406250000000000000e-01 1.391601562500000000e-01 1.782226562500000000e-02 -5.053710937500000000e-02 1.608886718750000000e-01 -5.175781250000000000e-02

5.346679687500000000e-02 4.437255859375000000e-02 -3.910064697265625000e-03 1.496582031250000000e-01 2.432250976562500000e-02 -1.701660156250000000e-01 -1.286621093750000000e-01 1.342773437500000000e-01 -5.615234375000000000e-02 -1.204833984375000000e-01 1.958007812500000000e-01 -1.455078125000000000e-01 4.565429687500000000e-02 -1.237182617187500000e-01 8.569335937500000000e-02 1.416015625000000000e-01 -9.545898437500000000e-02 3.887939453125000000e-02 1.066894531250000000e-01 -1.423339843750000000e-01 1.159667968750000000e-01 -1.289062500000000000e-01 1.197814941406250000e-02 1.262207031250000000e-01 1.220703125000000000e-01 1.286621093750000000e-01 -2.799987792968750000e-02 1.928710937500000000e-01 -1.318359375000000000e-01 1.892089843750000000e-01 9.985351562500000000e-02 5.661010742187500000e-02 -1.722412109375000000e-01 -9.625244140625000000e-02 6.048583984375000000e-02 -6.225585937500000000e-02 -1.136474609375000000e-01 -1.629638671875000000e-01 -4.489898681640625000e-03 -9.895324707031250000e-03 -1.104125976562500000e-01 -8.776855468750000000e-02 1.447296142578125000e-02 -3.967285156250000000e-02 -4.556274414062500000e-02 -6.143188476562500000e-02 -1.928710937500000000e-01 -1.204833984375000000e-01 2.674865722656250000e-02 -1.586914062500000000e-03 -7.446289062500000000e-02 5.981445312500000000e-03 1.369628906250000000e-01 7.128906250000000000e-02 -9.625244140625000000e-02 -1.221313476562500000e-01 5.468750000000000000e-02 -1.864013671875000000e-01 1.774902343750000000e-01 -1.979064941406250000e-02 3.964233398437500000e-02 -1.233520507812500000e-01 1.164550781250000000e-01 -1.552734375000000000e-01 4.412841796875000000e-02 4.370117187500000000e-02 6.420898437500000000e-02 2.026367187500000000e-02 -1.258850097656250000e-02 1.933593750000000000e-01 -5.700683593750000000e-02 -2.259826660156250000e-02 -8.410644531250000000e-02 -6.219482421875000000e-02 -1.989746093750000000e-01 -3.723144531250000000e-02 1.574707031250000000e-02 4.492187500000000000e-02 -4.248046875000000000e-02 2.275085449218750000e-02 -3.573608398437500000e-02 1.330566406250000000e-01 5.053710937500000000e-02 -1.904296875000000000e-01 7.812500000000000000e-02 6.958007812500000000e-02 -1.855468750000000000e-01 -1.972656250000000000e-01 -1.318359375000000000e-01 -1.423339843750000000e-01 1.342773437500000000e-01 1.311035156250000000e-01 6.030273437500000000e-02 4.135131835937500000e-03 -1.160278320312500000e-01 1.472167968750000000e-01 1.723632812500000000e-01 9.619140625000000000e-02 -1.533203125000000000e-01 -1.116180419921875000e-02

1.520996093750000000e-01 6.988525390625000000e-02 -6.219482421875000000e-02 -2.261352539062500000e-02 -9.259033203125000000e-02 -1.742553710937500000e-02 -8.770751953125000000e-02 -8.978271484375000000e-02 2.021484375000000000e-01 6.353759765625000000e-02 -5.612182617187500000e-02 -9.478759765625000000e-02 -1.446533203125000000e-01 -7.891845703125000000e-02 1.464843750000000000e-01 7.208251953125000000e-02 1.132812500000000000e-01 9.686279296875000000e-02 -9.407043457031250000e-03 1.400146484375000000e-01 -1.342773437500000000e-01 3.807067871093750000e-03 -1.434326171875000000e-01 5.975341796875000000e-02 1.566162109375000000e-01 2.148437500000000000e-02 -7.208251953125000000e-02 2.700805664062500000e-02 1.369628906250000000e-01 -1.905517578125000000e-01 3.140258789062500000e-02 -7.489013671875000000e-02 -4.678344726562500000e-02 3.829956054687500000e-02 5.108642578125000000e-02 7.696533203125000000e-02 -1.726074218750000000e-01 1.840820312500000000e-01 2.090454101562500000e-02 -7.995605468750000000e-02 5.545043945312500000e-02 1.298828125000000000e-01 5.245971679687500000e-02 -2.847290039062500000e-02 1.499023437500000000e-01 6.561279296875000000e-02 1.170043945312500000e-01 1.206665039062500000e-01 -1.087646484375000000e-01 6.640625000000000000e-02 1.264648437500000000e-01 6.781005859375000000e-02 -1.351318359375000000e-01 -5.017089843750000000e-02 -1.977539062500000000e-01 -1.992187500000000000e-01 -9.381103515625000000e-02 1.323242187500000000e-01 -6.591796875000000000e-02 -1.540527343750000000e-01 -2.055664062500000000e-01 2.759933471679687500e-03 1.140136718750000000e-01 4.876708984375000000e-02 -1.057128906250000000e-01 -1.496582031250000000e-01 -6.488037109375000000e-02 1.818847656250000000e-02 1.699218750000000000e-01 1.989746093750000000e-01 -1.528320312500000000e-01 -1.554107666015625000e-02 1.027832031250000000e-01 -8.715820312500000000e-02 1.513481140136718750e-03 -1.201171875000000000e-01 4.980468750000000000e-02 -9.954833984375000000e-02 7.031250000000000000e-02 7.818603515625000000e-02 8.529663085937500000e-03 1.110229492187500000e-01 -4.788208007812500000e-02 1.700439453125000000e-01 -3.271484375000000000e-02 -5.850219726562500000e-02 5.130004882812500000e-02 -1.130676269531250000e-02 -1.067504882812500000e-01 -1.689453125000000000e-01 -1.447753906250000000e-01 7.031250000000000000e-02 2.505493164062500000e-02 -1.244506835937500000e-01 -1.115722656250000000e-01 -5.456542968750000000e-02 5.007934570312500000e-02 -8.276367187500000000e-02 1.916503906250000000e-01 -5.075073242187500000e-02

1.717529296875000000e-01 1.901245117187500000e-02 -2.464294433593750000e-02 7.092285156250000000e-02 1.207275390625000000e-01 -8.821487426757812500e-04 1.017456054687500000e-01 8.398437500000000000e-02 -9.704589843750000000e-02 1.466064453125000000e-01 -8.441162109375000000e-02 1.080932617187500000e-01 7.940673828125000000e-02 -7.226562500000000000e-02 -1.846313476562500000e-02 -3.549194335937500000e-02 1.182861328125000000e-01 -1.096801757812500000e-01 9.234619140625000000e-02 1.810302734375000000e-01 1.240234375000000000e-01 8.888244628906250000e-03 7.629394531250000000e-02 -3.860473632812500000e-02 1.624755859375000000e-01 1.232299804687500000e-01 2.867126464843750000e-02 -1.230468750000000000e-01 -6.469726562500000000e-02 -7.537841796875000000e-02 1.697998046875000000e-01 1.625976562500000000e-01 -1.368408203125000000e-01 -1.868896484375000000e-01 9.069824218750000000e-02 -4.745483398437500000e-02 -1.030273437500000000e-01 1.052856445312500000e-01 -1.994628906250000000e-01 -1.016235351562500000e-01 5.621337890625000000e-02 3.720092773437500000e-02 -3.982543945312500000e-02 1.089477539062500000e-02 -1.047973632812500000e-01 3.970336914062500000e-02 -8.972167968750000000e-02 -2.832031250000000000e-02 -1.312255859375000000e-01 1.936035156250000000e-01 -1.815185546875000000e-01 5.450439453125000000e-02 -1.507568359375000000e-01 -3.323364257812500000e-02 -9.698486328125000000e-02 -6.317138671875000000e-02 2.032470703125000000e-01 -4.510498046875000000e-02 1.735839843750000000e-01 1.722412109375000000e-01 -5.801391601562500000e-02 -3.765869140625000000e-02 -1.923828125000000000e-01 8.911132812500000000e-03 1.400146484375000000e-01 -7.263183593750000000e-02 -7.757568359375000000e-02 -7.397460937500000000e-02 -9.509277343750000000e-02 -1.826171875000000000e-01 1.625976562500000000e-01 9.625244140625000000e-02 1.574707031250000000e-02 -1.135864257812500000e-01 3.869628906250000000e-02 -4.199218750000000000e-02 1.442871093750000000e-01 4.147338867187500000e-02 -3.472900390625000000e-02 2.022705078125000000e-01 9.710693359375000000e-02 -1.220092773437500000e-01 1.445312500000000000e-01 1.680908203125000000e-01 1.423339843750000000e-01 2.868652343750000000e-02 -1.652526855468750000e-02 1.233520507812500000e-01 -5.789184570312500000e-02 5.056762695312500000e-02 -7.104492187500000000e-02 -1.937255859375000000e-01 4.940795898437500000e-02 -7.135009765625000000e-02 -8.734130859375000000e-02 -1.549072265625000000e-01 5.941772460937500000e-02 -1.947021484375000000e-01 -1.850585937500000000e-01 -6.085205078125000000e-02

-6.063842773437500000e-02 1.807861328125000000e-01 -2.392578125000000000e-02 1.799316406250000000e-01 -1.447753906250000000e-01 -1.666259765625000000e-01 -9.292602539062500000e-03 -3.479003906250000000e-02 -1.180419921875000000e-01 -2.042236328125000000e-01 4.684448242187500000e-02 1.940917968750000000e-01 -1.095581054687500000e-01 -1.767578125000000000e-01 -5.911254882812500000e-02 2.038574218750000000e-01 -1.496582031250000000e-01 1.483154296875000000e-01 -1.674804687500000000e-01 -1.593017578125000000e-01 -1.596679687500000000e-01 9.255409240722656250e-04 -9.765625000000000000e-02 -4.837036132812500000e-03 1.440429687500000000e-01 -5.010986328125000000e-02 -1.650390625000000000e-01 -8.422851562500000000e-02 -9.014892578125000000e-02 1.276855468750000000e-01 1.748046875000000000e-01 -3.997802734375000000e-02 -1.628417968750000000e-01 1.339111328125000000e-01 -6.210327148437500000e-02 1.699218750000000000e-01 1.972656250000000000e-01 1.491699218750000000e-01 -1.815185546875000000e-01 3.536987304687500000e-02 -5.178833007812500000e-02 -1.884765625000000000e-01 -2.045898437500000000e-01 -1.990966796875000000e-01 -1.140747070312500000e-01 1.287841796875000000e-01 -1.365966796875000000e-01 -8.166503906250000000e-02 1.287841796875000000e-02 4.687500000000000000e-02 3.564453125000000000e-02 2.485275268554687500e-03 -4.003906250000000000e-02 9.106445312500000000e-02 -1.580810546875000000e-01 1.467285156250000000e-01 -1.370849609375000000e-01 9.503173828125000000e-02 -1.977539062500000000e-01 -1.156005859375000000e-01 -1.657714843750000000e-01 4.132080078125000000e-02 -6.756591796875000000e-02 2.507019042968750000e-02 -7.141113281250000000e-02 3.839111328125000000e-02 -1.167602539062500000e-01 1.757812500000000000e-01 -1.972656250000000000e-01 -6.878662109375000000e-02 -8.453369140625000000e-02 -6.512451171875000000e-02 -1.455078125000000000e-01 -2.067871093750000000e-01 -5.905151367187500000e-02 -1.713867187500000000e-01 1.047363281250000000e-01 1.237792968750000000e-01 -5.386352539062500000e-02 1.163940429687500000e-01 2.384948730468750000e-02 5.233764648437500000e-02 1.121215820312500000e-01 2.001953125000000000e-01 4.417419433593750000e-03 -1.750488281250000000e-01 -4.650878906250000000e-02 -6.106567382812500000e-02 7.934570312500000000e-02 1.572265625000000000e-01 -1.325683593750000000e-01 1.507568359375000000e-01 1.582031250000000000e-01 -4.095458984375000000e-02 1.325683593750000000e-01 1.652832031250000000e-01 1.989746093750000000e-01 -1.744384765625000000e-01 1.739501953125000000e-01 1.176147460937500000e-01

-4.443359375000000000e-02 3.442382812500000000e-02 6.176757812500000000e-02 -1.593017578125000000e-01 -1.767578125000000000e-01 1.940917968750000000e-02 -9.948730468750000000e-02 -3.356933593750000000e-02 1.276855468750000000e-01 1.662597656250000000e-01 -5.017089843750000000e-02 -7.482910156250000000e-02 1.994628906250000000e-01 -5.383300781250000000e-02 -2.030029296875000000e-01 1.484375000000000000e-01 -8.532714843750000000e-02 -1.023864746093750000e-02 2.006835937500000000e-01 -9.582519531250000000e-02 1.660156250000000000e-02 1.856994628906250000e-02 -9.783935546875000000e-02 6.469726562500000000e-02 2.038574218750000000e-01 1.318359375000000000e-01 -1.540527343750000000e-01 -1.612854003906250000e-02 1.064453125000000000e-01 1.940917968750000000e-02 6.787109375000000000e-02 -8.489990234375000000e-02 -3.967285156250000000e-02 -1.374511718750000000e-01 -6.555175781250000000e-02 -1.904296875000000000e-02 7.006835937500000000e-02 6.958007812500000000e-02 9.545898437500000000e-02 9.619140625000000000e-02 -1.608886718750000000e-01 -1.843261718750000000e-01 -1.136474609375000000e-01 4.337310791015625000e-03 -9.704589843750000000e-02 1.816406250000000000e-01 1.613769531250000000e-01 -1.502227783203125000e-02 1.552734375000000000e-01 5.224609375000000000e-02 1.159667968750000000e-01 -4.968261718750000000e-02 -5.017089843750000000e-02 -1.215934753417968750e-03 -1.475830078125000000e-01 1.533203125000000000e-01 -3.515625000000000000e-02 -6.555175781250000000e-02 7.153320312500000000e-02 -4.040527343750000000e-02 1.657714843750000000e-01 -1.201171875000000000e-01 3.145217895507812500e-03 -4.931640625000000000e-02 7.348632812500000000e-02 -1.968994140625000000e-01 4.443359375000000000e-02 -1.112060546875000000e-01 1.823730468750000000e-01 1.757812500000000000e-01 7.153320312500000000e-02 7.470703125000000000e-02 1.108398437500000000e-01 -1.892089843750000000e-01 -1.172485351562500000e-01 7.153320312500000000e-02 2.795410156250000000e-02 -2.868652343750000000e-02 3.516674041748046875e-04 1.748046875000000000e-01 -1.884765625000000000e-01 -1.253662109375000000e-01 -3.320312500000000000e-02 5.419921875000000000e-02 -1.007080078125000000e-01 -1.245117187500000000e-01 1.547851562500000000e-01 1.843261718750000000e-01 -1.621093750000000000e-01 -3.564453125000000000e-02 5.224609375000000000e-02 7.006835937500000000e-02 -1.059570312500000000e-01 1.997070312500000000e-01 1.970214843750000000e-01 2.009277343750000000e-01 2.307128906250000000e-02 7.031250000000000000e-02 1.027832031250000000e-01 -1.568603515625000000e-01

2.905273437500000000e-02 -1.171875000000000000e-02 -1.968994140625000000e-01 -5.615234375000000000e-02 -1.944580078125000000e-01 -9.460449218750000000e-02 1.123046875000000000e-01 -2.061767578125000000e-01 -1.002807617187500000e-01 1.953125000000000000e-01 -1.289062500000000000e-01 1.088867187500000000e-01 5.371093750000000000e-02 5.664062500000000000e-02 5.493164062500000000e-02 2.954101562500000000e-02 -1.330566406250000000e-02 1.711425781250000000e-01 8.642578125000000000e-02 -1.455078125000000000e-01 1.489257812500000000e-01 5.932617187500000000e-02 1.984863281250000000e-01 -1.350097656250000000e-01 1.018066406250000000e-01 -2.038574218750000000e-01 1.193847656250000000e-01 -1.156616210937500000e-01 4.760742187500000000e-02 -1.330566406250000000e-01 -1.767578125000000000e-01 -2.033691406250000000e-01 6.347656250000000000e-02 9.472656250000000000e-02 -8.489990234375000000e-02 -1.855468750000000000e-01 1.503906250000000000e-01 -1.201171875000000000e-01 9.790039062500000000e-02 -8.331298828125000000e-02 1.640625000000000000e-01 -1.334228515625000000e-01 2.990722656250000000e-02 1.911621093750000000e-01 -1.682128906250000000e-01 -1.370849609375000000e-01 8.691406250000000000e-02 -1.286621093750000000e-01 -1.848144531250000000e-01 -1.925048828125000000e-01 -2.014160156250000000e-01 -1.358642578125000000e-01 -2.868652343750000000e-02 8.544921875000000000e-03 -9.338378906250000000e-02 9.350585937500000000e-02 -9.179687500000000000e-02 -7.849121093750000000e-02 -6.152343750000000000e-02 1.357421875000000000e-01 1.547851562500000000e-01 -1.391601562500000000e-01 -1.669921875000000000e-01 7.690429687500000000e-02 2.099609375000000000e-02 -5.493164062500000000e-02 1.713867187500000000e-01 -1.617431640625000000e-01 9.277343750000000000e-03 -1.807861328125000000e-01 -1.552734375000000000e-01 -2.042236328125000000e-01 -2.062988281250000000e-02 -2.795410156250000000e-02 3.662109375000000000e-03 -9.014892578125000000e-02 8.740234375000000000e-02 -9.747314453125000000e-02 -2.001953125000000000e-01 -9.136962890625000000e-02 7.836914062500000000e-02 5.297851562500000000e-02 -4.931640625000000000e-02 -1.904296875000000000e-01 -2.001953125000000000e-01 2.014160156250000000e-01 -9.545898437500000000e-02 -1.545410156250000000e-01 1.491699218750000000e-01 6.347656250000000000e-02 -4.370117187500000000e-02 1.601562500000000000e-01 2.062988281250000000e-02 -4.614257812500000000e-02 -1.864013671875000000e-01 -7.202148437500000000e-02 7.324218750000000000e-03 3.393554687500000000e-02 1.569824218750000000e-01 1.735839843750000000e-01

8.935546875000000000e-02 -3.717041015625000000e-02 9.002685546875000000e-02 7.080078125000000000e-02 1.027832031250000000e-01 -2.033691406250000000e-01 -7.366180419921875000e-03 1.206054687500000000e-01 1.689453125000000000e-01 -1.802978515625000000e-01 -1.827392578125000000e-01 1.263427734375000000e-02 -6.469726562500000000e-02 4.202270507812500000e-02 1.662597656250000000e-01 2.902221679687500000e-02 1.188964843750000000e-01 7.995605468750000000e-03 -1.257324218750000000e-01 -1.748046875000000000e-01 -8.044433593750000000e-02 -1.694335937500000000e-01 -1.517333984375000000e-01 4.251098632812500000e-02 -7.604980468750000000e-02 4.284667968750000000e-02 -1.327514648437500000e-02 1.806640625000000000e-01 -1.787109375000000000e-01 -1.916503906250000000e-01 1.503906250000000000e-01 -8.728027343750000000e-02 1.249389648437500000e-01 -8.001708984375000000e-02 1.116333007812500000e-01 6.274414062500000000e-02 8.325195312500000000e-02 1.245117187500000000e-01 -1.835937500000000000e-01 7.073974609375000000e-02 7.226562500000000000e-02 -4.736328125000000000e-02 8.984375000000000000e-02 -1.335906982421875000e-02 -1.335906982421875000e-02 7.633209228515625000e-03 -7.879638671875000000e-02 -1.568603515625000000e-01 -1.508789062500000000e-01 3.637695312500000000e-02 9.472656250000000000e-02 -4.489135742187500000e-02 3.390502929687500000e-02 -1.281738281250000000e-01 1.499023437500000000e-01 5.364990234375000000e-02 -1.176757812500000000e-01 -1.892089843750000000e-01 9.228515625000000000e-02 3.848266601562500000e-02 -2.033691406250000000e-01 1.806640625000000000e-01 -1.322021484375000000e-01 1.342773437500000000e-01 1.452636718750000000e-01 7.586669921875000000e-02 1.461029052734375000e-02 -6.835937500000000000e-02 -9.545898437500000000e-02 5.343627929687500000e-02 2.989196777343750000e-02 1.435546875000000000e-01 1.042480468750000000e-01 2.424621582031250000e-02 -9.460449218750000000e-02 -1.112060546875000000e-01 -6.750488281250000000e-02 1.711425781250000000e-01 -1.104125976562500000e-01 8.018493652343750000e-03 -3.021240234375000000e-02 -7.879638671875000000e-02 -2.668762207031250000e-02 1.640625000000000000e-01 7.031250000000000000e-02 -1.488037109375000000e-01 -1.940917968750000000e-01 -1.258087158203125000e-02 7.690429687500000000e-02 1.904296875000000000e-01 -4.905700683593750000e-03 -7.647705078125000000e-02 -1.855468750000000000e-01 -1.912841796875000000e-01 -6.958007812500000000e-02 -1.019287109375000000e-01 1.447753906250000000e-01 5.050659179687500000e-02 -3.475952148437500000e-02 -1.145019531250000000e-01

-1.295089721679687500e-03 -3.351211547851562500e-03 -5.493164062500000000e-02 6.134033203125000000e-02 4.968261718750000000e-02 -1.791992187500000000e-01 1.665039062500000000e-01 5.615234375000000000e-02 1.301269531250000000e-01 4.690551757812500000e-02 5.862426757812500000e-02 1.237182617187500000e-01 3.439331054687500000e-02 3.887939453125000000e-02 -1.811523437500000000e-01 -1.646423339843750000e-02 -2.069091796875000000e-01 1.773681640625000000e-01 -1.549072265625000000e-01 1.402282714843750000e-02 1.589355468750000000e-01 -4.388427734375000000e-02 1.776123046875000000e-01 -1.682128906250000000e-01 8.013916015625000000e-02 1.089477539062500000e-01 2.659606933593750000e-02 1.356201171875000000e-01 -5.700683593750000000e-02 1.899414062500000000e-01 7.897949218750000000e-02 -1.346435546875000000e-01 -6.234741210937500000e-02 1.917724609375000000e-01 8.850097656250000000e-02 5.468750000000000000e-02 -1.334228515625000000e-01 -2.054443359375000000e-01 -2.436828613281250000e-02 -1.520996093750000000e-01 -1.156616210937500000e-01 1.958007812500000000e-01 -1.733398437500000000e-01 3.045654296875000000e-02 -6.896972656250000000e-02 9.838867187500000000e-02 2.404785156250000000e-02 1.522216796875000000e-01 -1.254882812500000000e-01 -1.488037109375000000e-01 -1.904296875000000000e-01 -1.726074218750000000e-01 -5.014038085937500000e-02 -1.127929687500000000e-01 -1.257324218750000000e-01 -1.447753906250000000e-01 8.813476562500000000e-02 -7.391357421875000000e-02 -8.575439453125000000e-02 4.559326171875000000e-02 1.200561523437500000e-01 1.699218750000000000e-01 2.314758300781250000e-02 -4.611206054687500000e-02 -1.396942138671875000e-02 -3.677368164062500000e-02 -4.550170898437500000e-02 1.337890625000000000e-01 -1.634597778320312500e-03 -6.402587890625000000e-02 4.440307617187500000e-03 1.706542968750000000e-01 -1.961669921875000000e-01 5.880737304687500000e-02 -5.734252929687500000e-02 1.367187500000000000e-01 -1.779785156250000000e-01 -4.997253417968750000e-03 1.257324218750000000e-01 -1.823730468750000000e-01 2.043151855468750000e-02 -1.428222656250000000e-01 4.724121093750000000e-02 -2.015380859375000000e-01 -1.309814453125000000e-01 -1.699218750000000000e-01 -1.278076171875000000e-01 1.782226562500000000e-01 1.132812500000000000e-01 1.757812500000000000e-01 8.251953125000000000e-02 8.642578125000000000e-02 8.132934570312500000e-03 -6.039428710937500000e-02 -2.830505371093750000e-02 2.026367187500000000e-02 6.909179687500000000e-02 -7.635498046875000000e-02 -1.447753906250000000e-01 -1.289062500000000000e-01

1.252441406250000000e-01 -8.203125000000000000e-02 5.364990234375000000e-02 1.452636718750000000e-01 8.740234375000000000e-02 6.958007812500000000e-02 -1.209106445312500000e-01 4.125976562500000000e-02 4.248046875000000000e-02 -5.687713623046875000e-03 -1.743164062500000000e-01 2.235412597656250000e-02 6.835937500000000000e-02 7.568359375000000000e-02 -1.710205078125000000e-01 9.375000000000000000e-02 -1.140136718750000000e-01 3.534317016601562500e-03 6.033325195312500000e-02 -1.593017578125000000e-01 -2.624511718750000000e-02 -5.722045898437500000e-02 -1.738281250000000000e-01 -1.860351562500000000e-01 -5.819702148437500000e-02 4.418945312500000000e-02 -7.482910156250000000e-02 -5.349731445312500000e-02 -1.124267578125000000e-01 -1.241455078125000000e-01 6.420898437500000000e-02 1.110839843750000000e-01 2.259826660156250000e-02 2.601623535156250000e-02 2.038574218750000000e-01 -3.074645996093750000e-02 -1.920166015625000000e-01 -1.083984375000000000e-01 -1.249389648437500000e-01 1.394042968750000000e-01 -4.444122314453125000e-03 9.057617187500000000e-02 -7.556152343750000000e-02 -1.520996093750000000e-01 1.684570312500000000e-02 1.289062500000000000e-01 -6.622314453125000000e-02 3.671264648437500000e-02 1.965332031250000000e-01 3.967285156250000000e-02 -1.085662841796875000e-02 -3.390502929687500000e-02 3.964233398437500000e-02 7.446289062500000000e-02 1.687011718750000000e-01 -1.469421386718750000e-02 -9.661865234375000000e-02 8.178710937500000000e-02 -6.750488281250000000e-02 7.714843750000000000e-02 -7.269287109375000000e-02 2.954101562500000000e-02 -9.100341796875000000e-02 5.667114257812500000e-02 1.694335937500000000e-01 1.320648193359375000e-02 9.265136718750000000e-02 -7.885742187500000000e-02 -1.148681640625000000e-01 -1.386718750000000000e-01 5.468750000000000000e-02 -1.722412109375000000e-01 -1.713867187500000000e-01 1.689453125000000000e-01 1.738281250000000000e-01 3.515625000000000000e-02 -6.311035156250000000e-02 -6.835937500000000000e-02 1.774902343750000000e-01 1.005859375000000000e-01 -4.513549804687500000e-02 7.434844970703125000e-03 -1.428222656250000000e-01 1.088256835937500000e-01 2.465820312500000000e-02 1.735839843750000000e-01 1.936035156250000000e-01 -1.508789062500000000e-01 1.467285156250000000e-01 -6.030273437500000000e-02 2.001953125000000000e-01 1.090087890625000000e-01 1.645507812500000000e-01 -1.605224609375000000e-01 -1.884765625000000000e-01 1.799316406250000000e-01 3.442382812500000000e-02 1.582031250000000000e-01 -7.467269897460937500e-04 -1.904296875000000000e-01

-1.204223632812500000e-01 1.104125976562500000e-01 1.589355468750000000e-01 -1.572265625000000000e-01 -1.503906250000000000e-01 1.816406250000000000e-01 -1.165161132812500000e-01 1.923828125000000000e-01 9.545898437500000000e-02 -6.561279296875000000e-02 -1.533203125000000000e-01 -7.541656494140625000e-03 -2.058105468750000000e-01 -9.655761718750000000e-02 -2.021484375000000000e-01 2.751350402832031250e-04 -2.754211425781250000e-03 1.761474609375000000e-01 -1.777648925781250000e-02 9.216308593750000000e-02 1.170349121093750000e-02 1.553955078125000000e-01 -4.388427734375000000e-02 -7.879638671875000000e-02 3.680419921875000000e-02 1.909179687500000000e-01 -1.091308593750000000e-01 1.014404296875000000e-01 -1.750488281250000000e-01 -2.226257324218750000e-02 -1.777648925781250000e-02 -1.365966796875000000e-01 1.970291137695312500e-03 -1.155853271484375000e-02 1.517333984375000000e-01 1.584472656250000000e-01 -1.953125000000000000e-01 1.584472656250000000e-01 1.767578125000000000e-01 1.146240234375000000e-01 1.855468750000000000e-01 -1.418457031250000000e-01 -4.769897460937500000e-02 -1.279296875000000000e-01 2.037353515625000000e-01 1.522827148437500000e-02 -1.143798828125000000e-01 -1.876220703125000000e-01 3.756713867187500000e-02 4.284667968750000000e-02 -5.053710937500000000e-02 1.633300781250000000e-01 -6.317138671875000000e-02 1.657714843750000000e-01 9.130859375000000000e-02 1.885986328125000000e-01 1.933593750000000000e-01 -1.163940429687500000e-01 1.152343750000000000e-01 -7.965087890625000000e-02 7.727050781250000000e-02 5.178833007812500000e-02 -2.555847167968750000e-02 9.164810180664062500e-04 1.400146484375000000e-01 -3.973388671875000000e-02 1.290283203125000000e-01 -2.832031250000000000e-02 -1.196899414062500000e-01 9.539794921875000000e-02 1.096191406250000000e-01 1.810302734375000000e-01 -4.003906250000000000e-02 1.470947265625000000e-01 -2.902221679687500000e-02 -1.654052734375000000e-01 -1.613769531250000000e-01 -1.463623046875000000e-01 9.741210937500000000e-02 -1.821289062500000000e-01 -1.665039062500000000e-01 -2.020263671875000000e-01 7.086181640625000000e-02 1.712646484375000000e-01 4.763793945312500000e-02 1.369628906250000000e-01 -8.691406250000000000e-02 -1.019287109375000000e-01 3.796386718750000000e-02 1.650390625000000000e-01 -8.819580078125000000e-02 -8.380126953125000000e-02 9.252929687500000000e-02 1.212768554687500000e-01 -5.053710937500000000e-02 -1.900634765625000000e-01 6.051635742187500000e-02 -1.473388671875000000e-01 -2.000732421875000000e-01 -4.449462890625000000e-02

-5.142211914062500000e-02 8.441162109375000000e-02 1.948242187500000000e-01 -2.587890625000000000e-02 -8.007812500000000000e-02 -9.210205078125000000e-02 2.021484375000000000e-01 -9.259033203125000000e-02 -1.022949218750000000e-01 -6.347656250000000000e-02 1.755371093750000000e-01 4.974365234375000000e-02 -1.342773437500000000e-01 -1.909179687500000000e-01 3.359985351562500000e-02 -4.318237304687500000e-02 -1.430664062500000000e-01 -1.524658203125000000e-01 8.300781250000000000e-02 -1.926269531250000000e-01 -7.519531250000000000e-02 1.472167968750000000e-01 7.843017578125000000e-02 3.598022460937500000e-02 -9.625244140625000000e-02 -4.284667968750000000e-02 1.072387695312500000e-01 -1.148071289062500000e-01 -6.591796875000000000e-02 -1.823730468750000000e-01 7.812500000000000000e-02 1.779785156250000000e-01 1.030273437500000000e-01 -4.390716552734375000e-03 1.816406250000000000e-01 1.899414062500000000e-01 -1.220703125000000000e-03 -1.269531250000000000e-01 7.006835937500000000e-02 1.899719238281250000e-02 -1.491699218750000000e-01 -7.153320312500000000e-02 1.326751708984375000e-02 -9.252929687500000000e-02 9.674072265625000000e-02 -6.222534179687500000e-02 4.882812500000000000e-02 1.318359375000000000e-01 1.123046875000000000e-01 -9.783935546875000000e-02 8.374023437500000000e-02 8.819580078125000000e-02 -9.277343750000000000e-03 -1.560058593750000000e-01 -6.433105468750000000e-02 1.815185546875000000e-01 1.904296875000000000e-01 -1.330566406250000000e-01 -5.822753906250000000e-02 1.939392089843750000e-02 -1.423339843750000000e-01 9.269714355468750000e-03 4.165649414062500000e-02 -1.475830078125000000e-01 1.217651367187500000e-01 6.536865234375000000e-02 2.064208984375000000e-01 1.323242187500000000e-01 1.977539062500000000e-01 1.250000000000000000e-01 6.298828125000000000e-02 -1.654052734375000000e-01 -6.384277343750000000e-02 9.112548828125000000e-02 2.016601562500000000e-01 -6.030273437500000000e-02 -5.252838134765625000e-03 1.184692382812500000e-01 -9.057617187500000000e-02 -1.442871093750000000e-01 -1.661376953125000000e-01 2.299499511718750000e-02 -1.710205078125000000e-01 -2.030029296875000000e-01 8.886718750000000000e-02 1.391601562500000000e-01 -6.106567382812500000e-02 1.523437500000000000e-01 8.056640625000000000e-03 -1.171112060546875000e-02 -7.763671875000000000e-02 1.688232421875000000e-01 1.076660156250000000e-01 -7.733154296875000000e-02 -1.346435546875000000e-01 -4.614257812500000000e-02 1.669921875000000000e-01 1.121215820312500000e-01 -4.776000976562500000e-02 -1.503906250000000000e-01

2.340698242187500000e-02 -2.754211425781250000e-02 2.490997314453125000e-03 -1.718750000000000000e-01 -1.484375000000000000e-01 -2.226257324218750000e-02 -1.269531250000000000e-01 -1.694335937500000000e-01 -1.124267578125000000e-01 1.416015625000000000e-01 -1.638183593750000000e-01 -2.035522460937500000e-02 4.876708984375000000e-02 -1.718750000000000000e-01 1.477050781250000000e-01 2.009277343750000000e-01 5.218505859375000000e-03 -1.955566406250000000e-01 -1.666259765625000000e-01 -1.450195312500000000e-01 2.058105468750000000e-01 1.688232421875000000e-01 -1.495361328125000000e-01 -1.362304687500000000e-01 1.435546875000000000e-01 5.001831054687500000e-02 -1.435546875000000000e-01 -1.551513671875000000e-01 3.234863281250000000e-02 8.094787597656250000e-03 -1.718750000000000000e-01 2.021484375000000000e-01 8.306884765625000000e-02 1.090698242187500000e-01 -8.618164062500000000e-02 -1.799316406250000000e-01 -1.697998046875000000e-01 -7.663726806640625000e-03 1.181030273437500000e-01 -1.232299804687500000e-01 2.065429687500000000e-01 -2.589416503906250000e-02 -1.743164062500000000e-01 -1.139526367187500000e-01 1.888427734375000000e-01 1.231079101562500000e-01 -1.120605468750000000e-01 -1.533508300781250000e-02 -1.010894775390625000e-02 -1.104125976562500000e-01 1.035156250000000000e-01 -2.677917480468750000e-02 8.062744140625000000e-02 -1.746826171875000000e-01 -1.370849609375000000e-01 2.391052246093750000e-02 4.611206054687500000e-02 -1.584472656250000000e-01 -2.183532714843750000e-02 4.611206054687500000e-02 1.122436523437500000e-01 -1.759033203125000000e-01 9.918212890625000000e-02 1.418457031250000000e-01 1.644287109375000000e-01 2.045898437500000000e-01 -8.581542968750000000e-02 -1.977539062500000000e-02 -9.863281250000000000e-02 -1.666259765625000000e-01 -5.490112304687500000e-02 -1.216430664062500000e-01 -1.783447265625000000e-01 -6.549072265625000000e-02 5.538940429687500000e-02 1.201171875000000000e-01 1.560058593750000000e-01 4.876708984375000000e-02 4.812622070312500000e-02 -1.795654296875000000e-01 1.029052734375000000e-01 2.021789550781250000e-02 -1.092529296875000000e-01 1.536865234375000000e-01 -8.081054687500000000e-02 -7.269287109375000000e-02 -1.657104492187500000e-02 1.572265625000000000e-01 -1.237182617187500000e-01 -1.479492187500000000e-01 -1.386718750000000000e-01 -1.514892578125000000e-01 6.591796875000000000e-02 -8.605957031250000000e-02 -1.689453125000000000e-01 8.525848388671875000e-04 -7.238769531250000000e-02 8.306884765625000000e-02 9.588623046875000000e-02 4.455566406250000000e-03

1.965332031250000000e-01 7.403564453125000000e-02 1.711425781250000000e-01 3.195190429687500000e-02 1.623535156250000000e-02 8.691406250000000000e-02 -7.604980468750000000e-02 -3.637695312500000000e-02 1.164550781250000000e-01 -3.445434570312500000e-02 -1.001739501953125000e-02 -1.488037109375000000e-01 5.349731445312500000e-02 -3.317260742187500000e-02 6.173706054687500000e-02 8.251953125000000000e-02 -1.925048828125000000e-01 -1.605224609375000000e-01 -1.262207031250000000e-01 -6.341552734375000000e-02 -1.920166015625000000e-01 4.138183593750000000e-02 8.160400390625000000e-02 1.960754394531250000e-02 8.300781250000000000e-02 -6.750488281250000000e-02 7.348632812500000000e-02 -1.217651367187500000e-01 5.346679687500000000e-02 -1.358032226562500000e-02 -1.007080078125000000e-01 -1.835937500000000000e-01 -1.956787109375000000e-01 -1.079101562500000000e-01 1.958007812500000000e-01 3.564453125000000000e-02 3.082275390625000000e-02 1.755371093750000000e-01 1.379394531250000000e-01 -1.118164062500000000e-01 2.557373046875000000e-02 2.795410156250000000e-02 2.665710449218750000e-02 -1.259613037109375000e-02 -1.023559570312500000e-01 8.978271484375000000e-02 1.511230468750000000e-01 -1.403808593750000000e-01 -1.278076171875000000e-01 3.442382812500000000e-02 -1.977539062500000000e-02 -1.676940917968750000e-02 -1.022949218750000000e-01 2.016601562500000000e-01 2.500915527343750000e-02 3.430175781250000000e-02 -2.107238769531250000e-02 -5.538940429687500000e-02 -1.059570312500000000e-01 1.072883605957031250e-03 -1.131439208984375000e-02 7.080078125000000000e-02 -2.014160156250000000e-01 4.495239257812500000e-02 -9.942626953125000000e-02 5.493164062500000000e-03 -1.274414062500000000e-01 -6.591796875000000000e-02 -1.577148437500000000e-01 1.108398437500000000e-01 3.918457031250000000e-02 1.354980468750000000e-01 -1.213378906250000000e-01 -1.629638671875000000e-01 1.589355468750000000e-01 1.086425781250000000e-02 1.794433593750000000e-01 2.886962890625000000e-02 1.547851562500000000e-01 1.088867187500000000e-01 -1.879882812500000000e-01 -2.291870117187500000e-02 -1.968994140625000000e-01 -1.615905761718750000e-02 1.979064941406250000e-02 1.608886718750000000e-01 -1.007080078125000000e-01 -1.293945312500000000e-01 2.001953125000000000e-01 -1.079711914062500000e-01 1.892089843750000000e-01 1.997070312500000000e-01 5.419921875000000000e-02 7.083892822265625000e-03 -9.179687500000000000e-02 2.016601562500000000e-01 2.903747558593750000e-02 1.545410156250000000e-01 1.096801757812500000e-01 -4.635620117187500000e-02

-6.066894531250000000e-02 -6.311035156250000000e-02 -2.746582031250000000e-02 -1.827392578125000000e-01 -1.771240234375000000e-01 1.416015625000000000e-01 1.594238281250000000e-01 -6.225585937500000000e-02 -1.867675781250000000e-01 -4.284667968750000000e-02 1.293945312500000000e-02 1.516113281250000000e-01 1.440429687500000000e-01 -1.633300781250000000e-01 5.712890625000000000e-02 7.641601562500000000e-02 2.058105468750000000e-01 -2.062988281250000000e-02 1.970214843750000000e-01 -1.309814453125000000e-01 9.594726562500000000e-02 1.076660156250000000e-01 8.447265625000000000e-02 1.086425781250000000e-02 6.274414062500000000e-02 6.103515625000000000e-02 6.839752197265625000e-03 -1.577148437500000000e-01 8.642578125000000000e-02 1.330566406250000000e-02 -1.192626953125000000e-01 1.391601562500000000e-01 -6.835937500000000000e-02 -5.944824218750000000e-02 -1.556396484375000000e-01 -6.188964843750000000e-02 2.709960937500000000e-02 1.611328125000000000e-02 -1.086425781250000000e-02 5.737304687500000000e-02 3.076171875000000000e-02 1.281738281250000000e-01 1.496582031250000000e-01 8.691406250000000000e-02 -4.040527343750000000e-02 -9.259033203125000000e-02 3.234863281250000000e-02 -3.076171875000000000e-02 -1.229248046875000000e-01 3.173828125000000000e-03 -2.148437500000000000e-02 1.010742187500000000e-01 -1.855468750000000000e-02 6.469726562500000000e-03 -2.075195312500000000e-03 4.614257812500000000e-02 -6.506347656250000000e-02 1.313476562500000000e-01 -2.062988281250000000e-02 1.726074218750000000e-01 8.203125000000000000e-02 -3.967285156250000000e-02 -2.551269531250000000e-02 -3.271484375000000000e-02 1.577148437500000000e-01 -4.968261718750000000e-02 1.933593750000000000e-01 -4.650878906250000000e-02 -1.309814453125000000e-01 1.103515625000000000e-01 -6.750488281250000000e-02 -6.311035156250000000e-02 1.662597656250000000e-01 -1.325683593750000000e-01 -1.055297851562500000e-01 6.274414062500000000e-02 1.354980468750000000e-01 1.511230468750000000e-01 -5.261230468750000000e-02 -1.067504882812500000e-01 -1.472167968750000000e-01 1.831054687500000000e-01 -1.892089843750000000e-01 -3.320312500000000000e-02 -1.496582031250000000e-01 -8.410644531250000000e-02 3.881835937500000000e-02 1.298828125000000000e-01 7.348632812500000000e-02 -6.872558593750000000e-02 -1.977539062500000000e-01 -6.958007812500000000e-02 -1.650390625000000000e-01 -2.148437500000000000e-02 2.807617187500000000e-03 -5.981445312500000000e-02 -1.301269531250000000e-01 1.799316406250000000e-01 1.491699218750000000e-01 -4.492187500000000000e-02

4.492187500000000000e-02 -9.704589843750000000e-02 -8.367919921875000000e-02 -1.771240234375000000e-01 -1.611328125000000000e-02 5.981445312500000000e-02 -1.071777343750000000e-01 -1.253662109375000000e-01 -1.330566406250000000e-02 1.545410156250000000e-01 -1.629638671875000000e-01 1.257324218750000000e-01 -1.802978515625000000e-01 -1.237182617187500000e-01 -3.196716308593750000e-03 -1.281738281250000000e-01 -1.027221679687500000e-01 1.208496093750000000e-01 -6.713867187500000000e-02 1.669921875000000000e-01 -1.383056640625000000e-01 1.582031250000000000e-01 2.021484375000000000e-01 -7.275390625000000000e-02 1.865234375000000000e-01 -1.135253906250000000e-02 1.010742187500000000e-01 -5.456542968750000000e-02 -4.199218750000000000e-02 -1.508789062500000000e-01 -4.040527343750000000e-02 1.123046875000000000e-01 -1.820068359375000000e-01 6.176757812500000000e-02 -1.815185546875000000e-01 7.698059082031250000e-03 -1.706542968750000000e-01 -1.823730468750000000e-01 -3.198242187500000000e-02 1.140136718750000000e-01 -7.238769531250000000e-02 5.541992187500000000e-02 6.835937500000000000e-02 -2.017822265625000000e-01 -1.669921875000000000e-01 5.175781250000000000e-02 -1.762695312500000000e-01 -5.700683593750000000e-02 6.542968750000000000e-02 3.076171875000000000e-02 1.201171875000000000e-01 -3.918457031250000000e-02 -1.491699218750000000e-01 6.713867187500000000e-02 -8.569335937500000000e-02 3.796386718750000000e-02 8.496093750000000000e-02 8.178710937500000000e-02 -1.564941406250000000e-01 5.932617187500000000e-02 1.430664062500000000e-01 -2.009277343750000000e-01 -1.407470703125000000e-01 -1.354980468750000000e-01 -1.657714843750000000e-01 -1.759033203125000000e-01 -1.606750488281250000e-02 -3.674316406250000000e-02 -5.139160156250000000e-02 4.565429687500000000e-02 -1.115722656250000000e-01 -9.014892578125000000e-02 -4.162597656250000000e-02 9.545898437500000000e-02 -3.723144531250000000e-02 3.845214843750000000e-02 -8.532714843750000000e-02 -1.124267578125000000e-01 -1.827392578125000000e-01 -7.678222656250000000e-02 7.885742187500000000e-02 -1.435546875000000000e-01 -1.689453125000000000e-01 9.741210937500000000e-02 -1.977539062500000000e-02 -8.410644531250000000e-02 -1.685791015625000000e-01 -1.949462890625000000e-01 -1.520996093750000000e-01 1.589355468750000000e-01 -1.900634765625000000e-01 -6.750488281250000000e-02 -1.867675781250000000e-01 1.323242187500000000e-01 8.544921875000000000e-03 3.393554687500000000e-02 -1.909179687500000000e-01 1.379394531250000000e-01 -1.104125976562500000e-01 -3.881835937500000000e-02

1.391601562500000000e-01 1.064453125000000000e-01 1.735839843750000000e-01 -1.176757812500000000e-01 1.816406250000000000e-01 1.159667968750000000e-01 4.638671875000000000e-02 -1.007080078125000000e-01 -1.977539062500000000e-01 9.497070312500000000e-02 -1.900634765625000000e-01 1.945800781250000000e-01 -1.674804687500000000e-01 -5.700683593750000000e-02 7.202148437500000000e-02 -2.270507812500000000e-02 2.009277343750000000e-01 1.611328125000000000e-02 -1.257324218750000000e-01 4.443359375000000000e-02 1.701660156250000000e-01 4.882812500000000000e-02 1.003417968750000000e-01 1.066894531250000000e-01 1.164550781250000000e-01 3.637695312500000000e-02 9.814453125000000000e-02 1.225471496582031250e-03 -1.099853515625000000e-01 4.687500000000000000e-02 9.594726562500000000e-02 9.497070312500000000e-02 1.467285156250000000e-01 -2.221679687500000000e-02 1.496582031250000000e-01 1.904296875000000000e-02 2.709960937500000000e-02 -1.925048828125000000e-01 1.379394531250000000e-02 -6.555175781250000000e-02 -1.932373046875000000e-01 -1.912841796875000000e-01 -1.095581054687500000e-01 3.149414062500000000e-02 8.911132812500000000e-03 8.056640625000000000e-03 -3.479003906250000000e-02 7.153320312500000000e-02 1.030273437500000000e-01 3.845214843750000000e-02 -5.493164062500000000e-02 2.148437500000000000e-02 -8.856201171875000000e-02 -1.362304687500000000e-01 -1.171875000000000000e-02 -6.555175781250000000e-02 3.759765625000000000e-02 8.081054687500000000e-02 1.416015625000000000e-01 -1.755371093750000000e-01 2.429199218750000000e-02 7.592773437500000000e-02 1.535644531250000000e-01 -1.391601562500000000e-01 1.220703125000000000e-01 -1.049804687500000000e-02 1.601562500000000000e-01 3.149414062500000000e-02 -1.171875000000000000e-02 1.806640625000000000e-01 -1.220703125000000000e-03 1.574707031250000000e-02 4.089355468750000000e-02 7.275390625000000000e-02 -1.184692382812500000e-01 1.430664062500000000e-01 -7.275390625000000000e-02 1.347656250000000000e-01 -2.746582031250000000e-02 -3.356933593750000000e-02 8.862304687500000000e-02 2.075195312500000000e-03 -3.234863281250000000e-02 1.843261718750000000e-01 4.736328125000000000e-02 3.637695312500000000e-02 -6.188964843750000000e-02 1.733398437500000000e-02 1.464843750000000000e-01 -1.650390625000000000e-01 1.196289062500000000e-01 -3.198242187500000000e-02 1.831054687500000000e-01 1.713867187500000000e-01 -2.832031250000000000e-02 1.262207031250000000e-01 -8.813476562500000000e-02 -1.063232421875000000e-01 1.953125000000000000e-01 -2.270507812500000000e-02

-7.244873046875000000e-02 1.944580078125000000e-01 -1.340332031250000000e-01 -8.216857910156250000e-03 1.852416992187500000e-02 -1.511230468750000000e-01 5.905151367187500000e-02 1.865234375000000000e-01 1.347656250000000000e-01 2.060546875000000000e-01 6.652832031250000000e-02 1.949462890625000000e-01 -3.143310546875000000e-02 -2.049560546875000000e-01 -9.368896484375000000e-02 1.660156250000000000e-01 3.900146484375000000e-02 1.727294921875000000e-01 -3.591918945312500000e-02 1.413574218750000000e-01 1.786804199218750000e-02 -1.978759765625000000e-01 -6.475830078125000000e-02 -1.684570312500000000e-01 -1.932373046875000000e-01 1.689453125000000000e-01 -1.352539062500000000e-01 -1.171264648437500000e-01 -7.641601562500000000e-02 1.951904296875000000e-01 -1.641845703125000000e-01 1.429443359375000000e-01 -1.990966796875000000e-01 -1.770019531250000000e-02 1.900634765625000000e-01 -1.367187500000000000e-01 -4.385375976562500000e-02 3.375244140625000000e-02 1.650390625000000000e-01 1.220703125000000000e-02 -5.401611328125000000e-02 2.058105468750000000e-01 -1.589355468750000000e-01 2.481079101562500000e-02 -1.505126953125000000e-01 -1.951904296875000000e-01 1.877441406250000000e-01 4.962158203125000000e-02 -1.839599609375000000e-01 -2.049560546875000000e-01 1.535644531250000000e-01 -1.745605468750000000e-01 -1.107788085937500000e-01 1.447296142578125000e-02 1.608886718750000000e-01 1.083984375000000000e-01 -1.605224609375000000e-01 -1.418457031250000000e-01 -1.593017578125000000e-01 8.563232421875000000e-02 -8.764648437500000000e-02 -1.984863281250000000e-01 1.628417968750000000e-01 -1.423339843750000000e-01 1.960449218750000000e-01 -1.176757812500000000e-01 -9.570312500000000000e-02 1.633300781250000000e-01 7.763671875000000000e-02 -9.539794921875000000e-02 1.958007812500000000e-01 -1.739501953125000000e-02 1.799316406250000000e-01 -1.536865234375000000e-01 1.577148437500000000e-01 -4.858398437500000000e-02 -4.162597656250000000e-02 -8.476257324218750000e-03 -1.657714843750000000e-01 -1.188354492187500000e-01 2.415466308593750000e-02 -1.729965209960937500e-03 -1.004638671875000000e-01 -3.808593750000000000e-02 -5.725860595703125000e-03 2.036132812500000000e-01 8.508300781250000000e-02 5.007934570312500000e-02 2.098083496093750000e-02 4.196166992187500000e-02 -1.248168945312500000e-01 8.795166015625000000e-02 4.302978515625000000e-02 1.380615234375000000e-01 -2.049560546875000000e-01 1.948242187500000000e-01 5.364990234375000000e-02 -6.091308593750000000e-02 9.362792968750000000e-02 3.781127929687500000e-02

5.932617187500000000e-02 1.157226562500000000e-01 1.042480468750000000e-01 -1.196899414062500000e-01 -1.063232421875000000e-01 -1.071777343750000000e-01 4.003906250000000000e-02 -9.179687500000000000e-02 1.220703125000000000e-03 -5.578613281250000000e-02 -2.441406250000000000e-03 -1.730957031250000000e-01 6.054687500000000000e-02 -6.628417968750000000e-02 -1.843261718750000000e-01 -1.330566406250000000e-02 9.472656250000000000e-02 -2.026367187500000000e-01 -1.879882812500000000e-01 -1.428222656250000000e-01 1.171875000000000000e-01 3.845214843750000000e-02 1.589355468750000000e-01 3.173828125000000000e-03 1.848144531250000000e-01 9.423828125000000000e-02 -1.759033203125000000e-01 -3.759765625000000000e-02 1.997070312500000000e-01 1.933593750000000000e-01 1.574707031250000000e-02 -1.007080078125000000e-01 -2.038574218750000000e-01 1.394042968750000000e-01 -8.911132812500000000e-03 1.892089843750000000e-01 1.782226562500000000e-01 1.904296875000000000e-01 -9.277343750000000000e-03 4.040527343750000000e-02 1.828613281250000000e-01 5.590820312500000000e-02 1.047363281250000000e-01 -1.075439453125000000e-01 1.611328125000000000e-02 -1.330566406250000000e-02 8.911132812500000000e-03 9.008789062500000000e-02 1.484375000000000000e-01 1.569824218750000000e-01 6.518554687500000000e-02 1.755371093750000000e-01 1.806640625000000000e-01 1.516113281250000000e-01 -4.406738281250000000e-02 1.201171875000000000e-01 1.076660156250000000e-01 -8.544921875000000000e-03 -5.334472656250000000e-02 9.716796875000000000e-02 1.884765625000000000e-01 -9.381103515625000000e-02 1.386718750000000000e-01 1.572265625000000000e-01 -9.906005859375000000e-02 1.538085937500000000e-02 2.746582031250000000e-02 1.289062500000000000e-01 2.270507812500000000e-02 7.836914062500000000e-02 4.199218750000000000e-02 -2.062988281250000000e-02 5.810546875000000000e-02 -7.031250000000000000e-02 9.375000000000000000e-02 2.795410156250000000e-02 -2.587890625000000000e-02 2.065429687500000000e-01 1.718750000000000000e-01 1.455078125000000000e-01 1.337890625000000000e-01 -1.912841796875000000e-01 -4.443359375000000000e-02 -3.173828125000000000e-03 -8.209228515625000000e-02 -1.039428710937500000e-01 1.423339843750000000e-01 2.270507812500000000e-02 1.447753906250000000e-01 -2.049560546875000000e-01 -6.262207031250000000e-02 -9.985351562500000000e-02 1.188964843750000000e-01 1.540527343750000000e-01 -1.298828125000000000e-01 -1.253662109375000000e-01 -7.324218750000000000e-02 3.967285156250000000e-02 5.004882812500000000e-02 -1.916503906250000000e-01

-1.189575195312500000e-01 -5.392456054687500000e-02 -1.705322265625000000e-01 -3.192138671875000000e-02 -1.334228515625000000e-01 -9.344482421875000000e-02 5.722045898437500000e-02 3.442382812500000000e-02 5.859375000000000000e-02 2.752685546875000000e-02 -1.839599609375000000e-01 -1.538085937500000000e-01 6.536865234375000000e-02 1.972656250000000000e-01 -9.332275390625000000e-02 4.332065582275390625e-04 -1.848144531250000000e-01 1.141967773437500000e-01 9.613037109375000000e-02 -3.526687622070312500e-03 7.446289062500000000e-02 -9.558105468750000000e-02 8.074951171875000000e-02 -2.839660644531250000e-02 -1.730957031250000000e-01 -5.020141601562500000e-02 -4.049682617187500000e-02 -4.312133789062500000e-02 -1.051025390625000000e-01 1.755371093750000000e-01 -1.689453125000000000e-01 -1.898193359375000000e-01 3.253936767578125000e-03 4.800415039062500000e-02 6.774902343750000000e-02 -1.961669921875000000e-01 -1.496582031250000000e-01 7.403564453125000000e-02 5.001831054687500000e-02 1.380615234375000000e-01 -1.228637695312500000e-01 1.342773437500000000e-01 5.807495117187500000e-02 1.546630859375000000e-01 2.037048339843750000e-02 -8.270263671875000000e-02 1.284027099609375000e-02 -1.286621093750000000e-01 -9.698486328125000000e-02 -4.370117187500000000e-02 2.058105468750000000e-01 1.151733398437500000e-01 7.574462890625000000e-02 7.080078125000000000e-02 -1.533203125000000000e-01 -1.745605468750000000e-01 -1.334228515625000000e-01 -2.014160156250000000e-01 -1.695251464843750000e-02 1.528320312500000000e-01 1.074981689453125000e-02 -7.347106933593750000e-03 -2.033691406250000000e-01 1.171264648437500000e-01 8.721923828125000000e-02 -1.014404296875000000e-01 1.334228515625000000e-01 1.569824218750000000e-01 -6.787109375000000000e-02 -2.339172363281250000e-02 2.065429687500000000e-01 -1.773071289062500000e-02 -6.787109375000000000e-02 -1.907958984375000000e-01 -5.337524414062500000e-02 -1.136474609375000000e-01 4.089355468750000000e-02 1.519775390625000000e-01 2.062988281250000000e-01 -9.454345703125000000e-02 1.729736328125000000e-01 1.317138671875000000e-01 -2.901077270507812500e-03 4.174804687500000000e-02 -1.087646484375000000e-01 1.406250000000000000e-01 -2.042236328125000000e-01 -1.584472656250000000e-01 -2.430725097656250000e-02 3.271484375000000000e-02 -1.949462890625000000e-01 -1.134643554687500000e-01 -7.397460937500000000e-02 -5.484008789062500000e-02 5.126953125000000000e-02 -3.271484375000000000e-02 4.324340820312500000e-02 -1.013793945312500000e-01 -5.026245117187500000e-02 1.265869140625000000e-01

