2.663574218750000000e-01

-8.776855468750000000e-02

-1.596679687500000000e-01

-7.299804687500000000e-02

1.363372802734375000e-02

-2.148437500000000000e-02

1.843261718750000000e-01

2.502441406250000000e-01

-2.453613281250000000e-01

7.076263427734375000e-03

1.811523437500000000e-01

-9.773254394531250000e-03

-1.284179687500000000e-01

-2.602539062500000000e-01

5.371093750000000000e-02

8.056640625000000000e-02

6.420898437500000000e-02

2.648925781250000000e-01

-2.304687500000000000e-01

-2.551269531250000000e-01

8.618164062500000000e-02

-1.235351562500000000e-01

-3.457641601562500000e-02

1.679687500000000000e-01

-2.288818359375000000e-01

-1.904296875000000000e-01

1.877441406250000000e-01

-2.294921875000000000e-02

-2.026367187500000000e-02

-2.200927734375000000e-01

1.552734375000000000e-01

1.960449218750000000e-01

2.805175781250000000e-01

-8.227539062500000000e-02

2.731933593750000000e-01

2.092285156250000000e-01

-2.365722656250000000e-01

8.447265625000000000e-02

