3.131103515625000000e-02 -7.720947265625000000e-02 6.591796875000000000e-03 4.010009765625000000e-02 -3.002929687500000000e-02 1.318359375000000000e-02 -4.446411132812500000e-02 -6.130981445312500000e-02 -1.428222656250000000e-02 -1.116943359375000000e-02 4.815673828125000000e-02 -1.922607421875000000e-02 -6.439208984375000000e-02 -7.904052734375000000e-02 1.904296875000000000e-02 -1.208496093750000000e-02 -8.819580078125000000e-02 -4.849243164062500000e-02 7.830810546875000000e-02 8.056640625000000000e-03 6.536865234375000000e-02 -7.373046875000000000e-02 8.709716796875000000e-02 5.493164062500000000e-03 -4.190063476562500000e-02 2.764892578125000000e-02 -2.691650390625000000e-02 5.401611328125000000e-02 6.243896484375000000e-02 4.022216796875000000e-02 -5.398559570312500000e-02 -1.812744140625000000e-02 -8.197021484375000000e-02 -3.311157226562500000e-02 -8.801269531250000000e-02 -1.501464843750000000e-02 -3.295898437500000000e-03 -7.849121093750000000e-02

2.947998046875000000e-02 1.079559326171875000e-02 1.098632812500000000e-02 -1.202225685119628906e-04 -3.500366210937500000e-02 -5.215454101562500000e-02 -5.068969726562500000e-02 3.253173828125000000e-02 2.931213378906250000e-02 8.734130859375000000e-02 -2.048492431640625000e-03 6.250000000000000000e-02 -5.874633789062500000e-02 -8.764648437500000000e-02 -3.894805908203125000e-03 -9.994506835937500000e-03 -3.634643554687500000e-02 4.867553710937500000e-02 6.402587890625000000e-02 5.880737304687500000e-02 -8.471679687500000000e-02 1.959228515625000000e-02 5.627441406250000000e-02 5.816650390625000000e-02 8.050537109375000000e-02 2.616882324218750000e-02 6.256103515625000000e-02 -1.704406738281250000e-02 -4.519653320312500000e-02 -1.670837402343750000e-02 2.673339843750000000e-02 7.453918457031250000e-03 1.812744140625000000e-02 -1.940917968750000000e-02 1.260375976562500000e-02 -5.160522460937500000e-02 2.947998046875000000e-02 -8.068847656250000000e-02

-6.634521484375000000e-02 7.415771484375000000e-02 8.111572265625000000e-02 6.164550781250000000e-02 7.177734375000000000e-02 -7.995605468750000000e-02 8.380126953125000000e-02 4.211425781250000000e-03 5.096435546875000000e-02 -6.866455078125000000e-02 6.774902343750000000e-02 3.298950195312500000e-02 -1.577758789062500000e-02 -6.970214843750000000e-02 -6.402587890625000000e-02 -8.245849609375000000e-02 3.284454345703125000e-03 -4.138183593750000000e-02 -5.505371093750000000e-02 2.299499511718750000e-02 -5.645751953125000000e-02 -5.584716796875000000e-02 8.923339843750000000e-02 -7.238769531250000000e-02 4.425048828125000000e-02 4.812622070312500000e-02 -8.721923828125000000e-02 -1.110076904296875000e-02 4.589843750000000000e-02 -3.395080566406250000e-03 -1.525878906250000000e-02 1.350641250610351562e-04 -4.376220703125000000e-02 3.143310546875000000e-02 2.058410644531250000e-02 -6.805419921875000000e-02 -7.550048828125000000e-02 -7.482910156250000000e-02

-1.226806640625000000e-02 7.464599609375000000e-02 -1.647949218750000000e-02 -5.355834960937500000e-02 -5.947875976562500000e-02 9.246826171875000000e-02 -8.801269531250000000e-02 -7.318115234375000000e-02 -6.274414062500000000e-02 7.305908203125000000e-02 8.404541015625000000e-02 6.762695312500000000e-02 7.055664062500000000e-02 -2.925109863281250000e-02 4.467010498046875000e-03 -6.121826171875000000e-02 6.402587890625000000e-02 -7.208251953125000000e-02 6.658935546875000000e-02 -8.514404296875000000e-02 5.523681640625000000e-02 -9.240722656250000000e-02 4.837036132812500000e-02 8.227539062500000000e-02 5.364990234375000000e-02 5.255126953125000000e-02 -3.833007812500000000e-02 -3.784179687500000000e-02 5.084228515625000000e-02 -7.922363281250000000e-02 8.489990234375000000e-02 -4.507446289062500000e-02 -4.611206054687500000e-02 -7.922363281250000000e-02 -2.526855468750000000e-02 -5.014038085937500000e-02 6.256103515625000000e-02 -4.174804687500000000e-02

-3.637313842773437500e-03 -8.912086486816406250e-04 -8.068847656250000000e-02 7.305908203125000000e-02 -7.098388671875000000e-02 -4.428100585937500000e-02 -8.325195312500000000e-02 -4.757690429687500000e-02 -1.481628417968750000e-02 5.804443359375000000e-02 -1.441955566406250000e-02 -7.739257812500000000e-02 5.291748046875000000e-02 7.720947265625000000e-02 6.939697265625000000e-02 -1.316833496093750000e-02 8.843994140625000000e-02 -3.128051757812500000e-02 -8.215332031250000000e-02 3.359985351562500000e-02 3.790283203125000000e-02 -3.256225585937500000e-02 4.772949218750000000e-02 -2.642822265625000000e-02 1.757812500000000000e-02 2.726745605468750000e-02 9.246826171875000000e-02 -8.325195312500000000e-02 -5.126953125000000000e-03 4.275512695312500000e-02 7.086181640625000000e-02 -2.636718750000000000e-02 -9.521484375000000000e-03 4.339599609375000000e-02 5.780029296875000000e-02 -7.482910156250000000e-02 -1.109313964843750000e-02 -3.494262695312500000e-02

-2.845764160156250000e-02 8.563232421875000000e-02 9.323120117187500000e-03 5.712890625000000000e-02 2.490234375000000000e-02 -2.928161621093750000e-02 -3.237915039062500000e-02 -4.153442382812500000e-02 2.850341796875000000e-02 -6.927490234375000000e-02 -2.703857421875000000e-02 4.458618164062500000e-02 9.027099609375000000e-02 5.456542968750000000e-02 8.612060546875000000e-02 -2.967834472656250000e-02 -7.244873046875000000e-02 -8.990478515625000000e-02 1.898193359375000000e-02 3.015136718750000000e-02 4.932403564453125000e-03 1.412200927734375000e-02 1.918029785156250000e-02 -3.927612304687500000e-02 -7.153320312500000000e-02 3.506469726562500000e-02 3.137207031250000000e-02 2.027893066406250000e-02 5.261230468750000000e-02 -3.665161132812500000e-02 2.630615234375000000e-02 -3.816604614257812500e-03 -1.509094238281250000e-02 -2.673339843750000000e-02 6.750488281250000000e-02 7.928466796875000000e-02 4.238128662109375000e-03 -4.776000976562500000e-02

-7.751464843750000000e-02 7.647705078125000000e-02 -3.952026367187500000e-02 7.745361328125000000e-02 -3.219604492187500000e-03 -1.409149169921875000e-02 -8.966064453125000000e-02 6.170654296875000000e-02 -4.360961914062500000e-02 -2.233886718750000000e-02 2.265930175781250000e-03 2.664184570312500000e-02 -3.396606445312500000e-02 3.076171875000000000e-02 -7.183837890625000000e-02 -5.780029296875000000e-02 -2.757263183593750000e-02 4.141235351562500000e-02 -1.770973205566406250e-03 7.653808593750000000e-02 -8.355712890625000000e-02 2.081298828125000000e-02 -4.324340820312500000e-02 8.074951171875000000e-02 7.690429687500000000e-03 4.516601562500000000e-02 -2.890014648437500000e-02 -8.673095703125000000e-02 -4.763793945312500000e-02 5.519866943359375000e-03 -1.504516601562500000e-02 -5.838012695312500000e-02 -2.583312988281250000e-02 -5.874633789062500000e-02 8.532714843750000000e-02 5.683898925781250000e-03 1.438903808593750000e-02 -4.035949707031250000e-03

-4.675292968750000000e-02 5.380249023437500000e-02 -3.332519531250000000e-02 -4.180908203125000000e-02 -3.843307495117187500e-03 3.280639648437500000e-02 1.519775390625000000e-02 2.783203125000000000e-02 -6.848144531250000000e-02 4.617309570312500000e-02 -2.255249023437500000e-02 3.161621093750000000e-02 -4.699707031250000000e-03 8.496093750000000000e-02 -9.252929687500000000e-02 5.697631835937500000e-02 -1.500701904296875000e-02 -3.201293945312500000e-02 -7.348632812500000000e-02 2.432250976562500000e-02 -7.391357421875000000e-02 7.641601562500000000e-02 3.979492187500000000e-02 -6.164550781250000000e-02 3.094482421875000000e-02 -3.152465820312500000e-02 9.259033203125000000e-02 7.891845703125000000e-02 -8.435058593750000000e-02 3.259277343750000000e-02 6.457519531250000000e-02 8.734130859375000000e-02 2.867126464843750000e-02 -1.136016845703125000e-02 -7.026672363281250000e-03 -5.178833007812500000e-02 7.806396484375000000e-02 -4.325866699218750000e-03

-7.275390625000000000e-02 6.256103515625000000e-02 9.140014648437500000e-03 6.402587890625000000e-02 2.061462402343750000e-02 -9.204101562500000000e-02 -9.521484375000000000e-03 -7.666015625000000000e-02 8.148193359375000000e-02 -5.226135253906250000e-03 -6.268310546875000000e-02 7.652282714843750000e-03 -3.988647460937500000e-02 9.222412109375000000e-02 4.806518554687500000e-02 -8.795166015625000000e-02 4.840850830078125000e-03 8.276367187500000000e-02 -4.602050781250000000e-02 -3.601074218750000000e-02 6.536865234375000000e-02 3.713989257812500000e-02 -6.984710693359375000e-03 -1.176452636718750000e-02 4.095458984375000000e-02 1.716613769531250000e-02 1.779174804687500000e-02 -2.784729003906250000e-02 -2.859497070312500000e-02 6.311035156250000000e-02 -1.514434814453125000e-02 4.730224609375000000e-02 -1.686096191406250000e-02 -7.511138916015625000e-03 2.009582519531250000e-02 -4.464721679687500000e-02 -3.216552734375000000e-02 -2.107620239257812500e-03

8.343505859375000000e-02 -1.794433593750000000e-02 -7.141113281250000000e-03 -2.653503417968750000e-02 -4.053115844726562500e-04 -8.581542968750000000e-02 -7.098388671875000000e-02 -1.629638671875000000e-02 1.995849609375000000e-02 7.635498046875000000e-02 -1.591491699218750000e-02 8.599853515625000000e-02 5.450439453125000000e-02 1.684570312500000000e-02 5.694580078125000000e-02 5.084228515625000000e-02 -1.823425292968750000e-03 8.184814453125000000e-02 4.705810546875000000e-02 4.351806640625000000e-02 3.099441528320312500e-03 -7.629394531250000000e-02 -6.951904296875000000e-02 8.599853515625000000e-02 1.080322265625000000e-02 7.745361328125000000e-02 3.692626953125000000e-02 1.684570312500000000e-02 5.047607421875000000e-02 -4.215240478515625000e-03 -5.966186523437500000e-02 -8.178710937500000000e-02 -2.032470703125000000e-02 7.867431640625000000e-02 2.984619140625000000e-02 9.521484375000000000e-03 -5.709838867187500000e-02 -7.189941406250000000e-02

-7.464599609375000000e-02 3.167724609375000000e-02 2.893066406250000000e-02 -1.530456542968750000e-02 -5.422973632812500000e-02 6.061553955078125000e-03 4.095458984375000000e-02 -5.783081054687500000e-02 5.963134765625000000e-02 3.182983398437500000e-02 3.387451171875000000e-02 7.598876953125000000e-02 -6.970214843750000000e-02 5.548095703125000000e-02 1.776123046875000000e-02 -8.972167968750000000e-03 7.830810546875000000e-02 -2.966308593750000000e-02 5.511474609375000000e-02 8.674621582031250000e-03 -8.911132812500000000e-02 4.461669921875000000e-02 4.714965820312500000e-02 5.523681640625000000e-02 -5.654907226562500000e-02 6.280517578125000000e-02 -1.354217529296875000e-02 6.512451171875000000e-02 -3.732299804687500000e-02 -4.413604736328125000e-03 3.317260742187500000e-02 -3.753662109375000000e-02 -2.655029296875000000e-02 -7.611083984375000000e-02 2.053833007812500000e-02 -7.043457031250000000e-02 -6.515502929687500000e-03 -3.604125976562500000e-02

7.305908203125000000e-02 -6.347656250000000000e-02 3.002929687500000000e-02 6.829833984375000000e-02 -7.574462890625000000e-02 4.974365234375000000e-02 -1.867675781250000000e-02 6.243896484375000000e-02 -4.153442382812500000e-02 5.450439453125000000e-02 7.098388671875000000e-02 3.662109375000000000e-03 5.560302734375000000e-02 -8.068847656250000000e-02 5.310058593750000000e-03 9.356689453125000000e-02 -4.739379882812500000e-02 2.856445312500000000e-02 -1.043701171875000000e-02 2.764892578125000000e-02 2.160644531250000000e-02 -9.039306640625000000e-02 -7.464599609375000000e-02 6.109619140625000000e-02 5.145263671875000000e-02 6.475830078125000000e-02 1.776123046875000000e-02 -6.240844726562500000e-02 9.112548828125000000e-02 -9.204101562500000000e-02 4.815673828125000000e-02 -5.014038085937500000e-02 -3.201293945312500000e-02 -4.391479492187500000e-02 5.877685546875000000e-02 3.662109375000000000e-03 9.027099609375000000e-02 -5.673217773437500000e-02

-1.675415039062500000e-02 5.230712890625000000e-02 5.072021484375000000e-02 5.703735351562500000e-02 -9.332275390625000000e-02 -4.168701171875000000e-02 7.122802734375000000e-02 -7.135009765625000000e-02 7.421875000000000000e-02 1.496887207031250000e-02 -4.989624023437500000e-03 -5.578613281250000000e-02 -4.702758789062500000e-02 6.982421875000000000e-02 4.052734375000000000e-02 -1.006317138671875000e-02 -5.847930908203125000e-03 3.186035156250000000e-02 -7.434082031250000000e-02 -2.673339843750000000e-02 4.547119140625000000e-02 -4.779052734375000000e-02 -9.179687500000000000e-02 -7.623291015625000000e-02 9.002685546875000000e-02 8.160400390625000000e-02 -8.697509765625000000e-02 -6.347656250000000000e-02 5.596923828125000000e-02 4.977416992187500000e-02 4.580688476562500000e-02 3.068542480468750000e-02 -6.713867187500000000e-02 -1.464843750000000000e-02 6.835937500000000000e-02 -7.446289062500000000e-02 2.883911132812500000e-02 3.399658203125000000e-02

-3.094482421875000000e-02 8.782958984375000000e-02 4.669189453125000000e-02 -2.616882324218750000e-02 -5.484008789062500000e-02 -8.837890625000000000e-02 7.867431640625000000e-02 -7.556152343750000000e-02 -4.165649414062500000e-02 -7.702636718750000000e-02 -5.566406250000000000e-02 8.874511718750000000e-02 -1.301574707031250000e-02 -3.890991210937500000e-02 3.488159179687500000e-02 -7.458496093750000000e-02 4.849243164062500000e-02 -2.919006347656250000e-02 3.713989257812500000e-02 8.245849609375000000e-02 9.460449218750000000e-03 -3.237915039062500000e-02 1.310729980468750000e-02 6.412506103515625000e-03 4.449462890625000000e-02 -5.047607421875000000e-02 -9.185791015625000000e-02 1.384735107421875000e-03 4.534912109375000000e-02 -8.148193359375000000e-02 7.135009765625000000e-02 -5.291748046875000000e-02 7.818603515625000000e-02 -3.112792968750000000e-03 2.423095703125000000e-02 1.646995544433593750e-03 8.709716796875000000e-02 -5.010986328125000000e-02

-3.494262695312500000e-02 -4.574584960937500000e-02 -6.365966796875000000e-02 5.302429199218750000e-03 9.100341796875000000e-02 -8.636474609375000000e-02 -7.830810546875000000e-02 -4.373168945312500000e-02 -5.178833007812500000e-02 8.477783203125000000e-02 3.509521484375000000e-03 1.189422607421875000e-02 5.987548828125000000e-02 2.307128906250000000e-02 -4.483032226562500000e-02 -8.087158203125000000e-02 6.768798828125000000e-02 6.951904296875000000e-02 2.874755859375000000e-02 -6.402587890625000000e-02 -8.032226562500000000e-02 2.655029296875000000e-02 -3.530883789062500000e-02 9.100341796875000000e-02 -6.311035156250000000e-02 -7.958984375000000000e-02 2.270507812500000000e-02 1.446533203125000000e-02 -2.069091796875000000e-02 -7.830810546875000000e-02 7.427978515625000000e-02 -4.556274414062500000e-02 5.497932434082031250e-04 -7.812500000000000000e-02 8.255004882812500000e-03 -3.845214843750000000e-03 9.039306640625000000e-02 5.877685546875000000e-02

3.280639648437500000e-02 2.235412597656250000e-02 -7.446289062500000000e-02 -8.233642578125000000e-02 -3.826904296875000000e-02 -8.068847656250000000e-02 2.636718750000000000e-02 -1.629638671875000000e-02 3.457641601562500000e-02 4.882812500000000000e-03 -3.451538085937500000e-02 3.786087036132812500e-03 3.170967102050781250e-05 -1.890563964843750000e-02 -6.970214843750000000e-02 -2.738952636718750000e-02 -3.900146484375000000e-02 8.990478515625000000e-02 8.966064453125000000e-02 2.743530273437500000e-02 3.683471679687500000e-02 -4.025268554687500000e-02 7.830810546875000000e-02 5.480957031250000000e-02 2.636718750000000000e-02 6.945800781250000000e-02 -5.329132080078125000e-03 2.070617675781250000e-02 8.056640625000000000e-03 7.171630859375000000e-02 1.335906982421875000e-02 9.075927734375000000e-02 -8.105468750000000000e-02 3.216552734375000000e-02 -6.732177734375000000e-02 -6.402587890625000000e-02 7.904052734375000000e-02 -1.410675048828125000e-02

5.877685546875000000e-02 -4.006958007812500000e-02 -2.655029296875000000e-02 -7.720947265625000000e-02 2.030944824218750000e-02 4.864501953125000000e-02 -7.427978515625000000e-02 -1.281738281250000000e-03 7.244873046875000000e-02 -7.865905761718750000e-03 -2.087402343750000000e-02 7.159423828125000000e-02 5.853271484375000000e-02 6.182861328125000000e-02 -1.776123046875000000e-02 -7.263183593750000000e-02 4.974365234375000000e-02 -7.281494140625000000e-02 -8.325195312500000000e-02 6.805419921875000000e-02 4.573822021484375000e-03 -6.567382812500000000e-02 8.441162109375000000e-02 5.474853515625000000e-02 -8.605957031250000000e-03 -7.297515869140625000e-03 7.305908203125000000e-02 7.830810546875000000e-02 4.760742187500000000e-03 5.084228515625000000e-02 7.855224609375000000e-02 -2.929687500000000000e-03 2.380371093750000000e-02 -2.014160156250000000e-03 -7.286071777343750000e-04 1.465797424316406250e-03 4.278564453125000000e-02 -7.281494140625000000e-02

-6.385803222656250000e-03 -4.208374023437500000e-02 -7.116699218750000000e-02 -4.879760742187500000e-02 5.480957031250000000e-02 -9.872436523437500000e-03 -3.237915039062500000e-02 -9.112548828125000000e-02 4.043579101562500000e-02 -6.018066406250000000e-02 5.905151367187500000e-02 -6.024169921875000000e-02 -9.033203125000000000e-02 -6.573486328125000000e-02 -5.133056640625000000e-02 -3.274536132812500000e-02 7.128906250000000000e-02 6.256103515625000000e-02 -7.836914062500000000e-02 4.061889648437500000e-02 1.666069030761718750e-03 2.593994140625000000e-02 -4.772949218750000000e-02 -7.641601562500000000e-02 -4.336547851562500000e-02 -4.360961914062500000e-02 -7.086181640625000000e-02 3.814697265625000000e-02 -4.098510742187500000e-02 9.094238281250000000e-02 7.031250000000000000e-02 4.336547851562500000e-02 8.258056640625000000e-02 -9.130859375000000000e-02 -2.354431152343750000e-02 -2.343750000000000000e-02 4.241943359375000000e-02 -7.501220703125000000e-02

3.793334960937500000e-02 5.841064453125000000e-02 9.027099609375000000e-02 6.866455078125000000e-02 4.861450195312500000e-02 1.473426818847656250e-03 -1.574707031250000000e-02 -2.471923828125000000e-02 -6.076049804687500000e-02 -5.838012695312500000e-02 5.230712890625000000e-02 -6.057739257812500000e-02 -5.032348632812500000e-02 4.681396484375000000e-02 4.937744140625000000e-02 -2.856445312500000000e-02 -6.204223632812500000e-02 -6.988525390625000000e-02 1.081085205078125000e-02 3.570556640625000000e-02 5.816650390625000000e-02 -8.197021484375000000e-02 2.265930175781250000e-02 6.292724609375000000e-02 3.039550781250000000e-02 -8.123779296875000000e-02 -1.777648925781250000e-02 3.166198730468750000e-03 -7.556152343750000000e-02 -2.307128906250000000e-02 -7.977294921875000000e-02 8.598327636718750000e-03 1.831054687500000000e-02 -8.947753906250000000e-02 3.875732421875000000e-02 -6.167602539062500000e-02 -3.494262695312500000e-02 -8.691406250000000000e-02

6.976318359375000000e-02 -5.215454101562500000e-02 1.776123046875000000e-02 3.497314453125000000e-02 7.694244384765625000e-03 -5.563354492187500000e-02 9.149169921875000000e-02 -5.947875976562500000e-02 -5.050659179687500000e-02 -2.819824218750000000e-02 7.965087890625000000e-02 6.774902343750000000e-03 -5.105590820312500000e-02 -3.092956542968750000e-02 5.487060546875000000e-02 6.512451171875000000e-02 3.399658203125000000e-02 -7.995605468750000000e-02 7.830810546875000000e-02 7.086181640625000000e-02 8.551025390625000000e-02 -6.805419921875000000e-02 -2.088928222656250000e-02 6.842041015625000000e-02 -5.490112304687500000e-02 -7.858276367187500000e-03 -7.482910156250000000e-02 4.571533203125000000e-02 -5.676269531250000000e-03 -4.757690429687500000e-02 8.074951171875000000e-02 -4.428100585937500000e-02 -5.856323242187500000e-02 4.937744140625000000e-02 5.657958984375000000e-02 8.239746093750000000e-03 1.593017578125000000e-02 -8.856201171875000000e-02

-7.867431640625000000e-02 -2.618408203125000000e-02 -5.929565429687500000e-02 -3.057861328125000000e-02 1.245117187500000000e-02 -8.654785156250000000e-02 -1.922607421875000000e-02 7.818603515625000000e-02 -5.142211914062500000e-02 -1.885986328125000000e-02 3.143310546875000000e-02 -3.845214843750000000e-03 -2.947998046875000000e-02 -3.439331054687500000e-02 4.718017578125000000e-02 8.123779296875000000e-02 5.267333984375000000e-02 -7.226562500000000000e-02 -6.768798828125000000e-02 6.988525390625000000e-02 3.709793090820312500e-04 2.270507812500000000e-02 -6.860351562500000000e-02 -8.837890625000000000e-02 8.422851562500000000e-03 -1.629638671875000000e-02 6.317138671875000000e-02 -8.288574218750000000e-02 -8.691406250000000000e-02 6.182861328125000000e-02 -5.929565429687500000e-02 -4.006958007812500000e-02 -3.292846679687500000e-02 -5.307006835937500000e-02 3.143310546875000000e-02 -4.977416992187500000e-02 7.135009765625000000e-02 -6.292724609375000000e-02

8.758544921875000000e-02 -6.018066406250000000e-02 2.561569213867187500e-03 5.648803710937500000e-02 3.198242187500000000e-02 -3.640747070312500000e-02 8.966064453125000000e-02 -4.592895507812500000e-02 -4.116821289062500000e-02 8.496093750000000000e-02 -3.756713867187500000e-02 5.088806152343750000e-03 -8.764648437500000000e-02 5.603027343750000000e-02 -8.929443359375000000e-02 -2.412414550781250000e-02 6.457519531250000000e-02 -9.228515625000000000e-02 -5.218505859375000000e-02 2.488708496093750000e-02 2.545166015625000000e-02 7.922363281250000000e-02 -8.959960937500000000e-02 7.226562500000000000e-02 -6.530761718750000000e-02 7.189941406250000000e-02 -3.534317016601562500e-03 -1.951599121093750000e-02 -2.110290527343750000e-02 -5.151367187500000000e-02 -7.281494140625000000e-02 4.348754882812500000e-02 8.544921875000000000e-03 2.378463745117187500e-03 4.849243164062500000e-02 3.936767578125000000e-02 -2.333068847656250000e-02 -6.457519531250000000e-02

5.181884765625000000e-02 5.633544921875000000e-02 5.291748046875000000e-02 8.709716796875000000e-02 7.952880859375000000e-02 3.509521484375000000e-02 4.339599609375000000e-02 -6.640625000000000000e-02 4.602050781250000000e-02 2.008056640625000000e-02 -8.135986328125000000e-02 4.998779296875000000e-02 -7.714843750000000000e-02 -3.274536132812500000e-02 -2.201843261718750000e-02 2.426147460937500000e-02 8.551025390625000000e-02 5.267333984375000000e-02 -8.599853515625000000e-02 -3.823852539062500000e-02 3.579711914062500000e-02 -9.368896484375000000e-03 -7.806396484375000000e-02 -8.013916015625000000e-02 4.522705078125000000e-02 -5.221557617187500000e-02 5.285644531250000000e-02 -7.720947265625000000e-02 7.598876953125000000e-02 2.055358886718750000e-02 -8.178710937500000000e-02 -5.618286132812500000e-02 -8.325195312500000000e-02 8.819580078125000000e-02 2.398681640625000000e-02 6.463623046875000000e-02 4.022216796875000000e-02 -2.586364746093750000e-03

-1.866149902343750000e-02 9.295654296875000000e-02 4.022216796875000000e-02 9.002685546875000000e-02 -8.856201171875000000e-02 -7.537841796875000000e-02 8.709716796875000000e-02 -2.673339843750000000e-02 -2.601623535156250000e-03 -4.571533203125000000e-02 -7.861328125000000000e-02 1.337432861328125000e-02 -4.244995117187500000e-02 -7.153320312500000000e-02 1.256561279296875000e-02 -4.705810546875000000e-02 -1.525115966796875000e-02 -1.343536376953125000e-02 6.100463867187500000e-02 -1.622009277343750000e-02 1.424407958984375000e-02 -2.931213378906250000e-02 -3.585815429687500000e-02 -3.250122070312500000e-02 -8.435058593750000000e-02 -7.562255859375000000e-02 8.178710937500000000e-02 -4.061889648437500000e-02 -9.167480468750000000e-02 8.923339843750000000e-02 -8.929443359375000000e-02 5.627441406250000000e-02 8.598327636718750000e-03 4.864501953125000000e-02 7.611083984375000000e-02 -4.537963867187500000e-02 -2.938842773437500000e-02 1.988220214843750000e-02

4.415893554687500000e-02 5.291748046875000000e-02 -3.970336914062500000e-02 1.059722900390625000e-02 -5.386352539062500000e-02 8.111572265625000000e-02 -8.435058593750000000e-02 8.709716796875000000e-02 3.240966796875000000e-02 2.468872070312500000e-02 -3.768920898437500000e-02 -7.037353515625000000e-02 -3.978729248046875000e-03 -4.998779296875000000e-02 6.402587890625000000e-02 -1.622009277343750000e-02 6.100463867187500000e-02 4.270076751708984375e-04 2.229309082031250000e-02 4.742431640625000000e-02 7.891845703125000000e-02 -2.088928222656250000e-02 -9.320068359375000000e-02 -7.556152343750000000e-02 -1.263427734375000000e-02 7.977294921875000000e-02 8.673095703125000000e-02 6.427001953125000000e-02 2.508544921875000000e-02 -6.347656250000000000e-02 -3.198242187500000000e-02 5.838012695312500000e-02 -4.577636718750000000e-03 7.049560546875000000e-02 -5.618286132812500000e-02 8.917236328125000000e-02 -6.130981445312500000e-02 -5.607604980468750000e-04

-5.859375000000000000e-03 3.039550781250000000e-02 7.525634765625000000e-02 -6.823730468750000000e-02 7.904052734375000000e-02 2.362060546875000000e-02 -6.222534179687500000e-02 -2.362060546875000000e-02 -2.984619140625000000e-02 -4.885864257812500000e-02 1.045227050781250000e-02 3.936767578125000000e-02 -4.299926757812500000e-02 9.173583984375000000e-02 -3.256225585937500000e-02 -6.384277343750000000e-02 1.007080078125000000e-02 2.581787109375000000e-02 -6.805419921875000000e-02 5.035400390625000000e-02 -3.933715820312500000e-02 -1.116943359375000000e-02 5.010986328125000000e-02 7.159423828125000000e-02 8.038330078125000000e-02 6.475830078125000000e-02 -4.959106445312500000e-02 -1.428222656250000000e-02 1.519775390625000000e-02 6.646728515625000000e-02 -2.966308593750000000e-02 -5.636596679687500000e-02 6.774902343750000000e-03 6.805419921875000000e-02 -3.677368164062500000e-02 -1.373291015625000000e-02 8.331298828125000000e-02 -7.995605468750000000e-02

6.622314453125000000e-02 -7.995605468750000000e-02 -2.014160156250000000e-02 -3.259277343750000000e-02 -5.181884765625000000e-02 7.318115234375000000e-02 -2.343750000000000000e-02 -9.155273437500000000e-03 -8.087158203125000000e-02 1.922607421875000000e-02 8.111572265625000000e-02 3.204345703125000000e-02 -9.130859375000000000e-02 3.326416015625000000e-02 -3.588867187500000000e-02 9.295654296875000000e-02 3.985595703125000000e-02 -8.325195312500000000e-02 4.278564453125000000e-02 9.332275390625000000e-02 8.453369140625000000e-02 3.460693359375000000e-02 6.207275390625000000e-02 3.728866577148437500e-03 -3.530883789062500000e-02 5.120849609375000000e-02 8.782958984375000000e-02 -1.063537597656250000e-02 -5.178833007812500000e-02 5.283355712890625000e-03 -4.794311523437500000e-02 8.734130859375000000e-02 1.647949218750000000e-02 2.197265625000000000e-03 -8.618164062500000000e-02 6.402587890625000000e-02 4.058837890625000000e-02 -8.087158203125000000e-02

-5.322265625000000000e-02 -8.489990234375000000e-02 -3.089904785156250000e-02 3.353881835937500000e-02 8.258056640625000000e-02 8.184814453125000000e-02 5.493164062500000000e-03 -4.592895507812500000e-02 -9.057617187500000000e-02 1.647949218750000000e-02 8.911132812500000000e-02 4.663085937500000000e-02 -5.819702148437500000e-02 2.960205078125000000e-02 6.341552734375000000e-02 9.155273437500000000e-02 9.197998046875000000e-02 4.040527343750000000e-02 5.154418945312500000e-02 -7.849121093750000000e-02 -2.360534667968750000e-02 -2.674865722656250000e-02 -7.318115234375000000e-02 9.283447265625000000e-02 3.509521484375000000e-02 1.296997070312500000e-02 -6.580352783203125000e-03 -6.878662109375000000e-02 1.754760742187500000e-02 4.995727539062500000e-02 8.703613281250000000e-02 4.598999023437500000e-02 -2.493286132812500000e-02 -8.398437500000000000e-02 -5.465698242187500000e-02 3.643798828125000000e-02 -2.778625488281250000e-02 7.092285156250000000e-02

-3.530883789062500000e-02 -5.252075195312500000e-02 6.549072265625000000e-02 8.441162109375000000e-02 7.775878906250000000e-02 2.473449707031250000e-02 -6.512451171875000000e-02 -6.860351562500000000e-02 -4.409790039062500000e-02 6.353759765625000000e-02 5.596923828125000000e-02 6.829833984375000000e-02 -9.204101562500000000e-02 -7.043457031250000000e-02 -1.596069335937500000e-02 -3.071594238281250000e-02 -6.988525390625000000e-02 1.759338378906250000e-02 2.050781250000000000e-02 4.486083984375000000e-02 -3.366088867187500000e-02 5.584716796875000000e-02 2.214050292968750000e-02 3.433227539062500000e-03 2.307128906250000000e-02 6.439208984375000000e-02 9.259033203125000000e-02 -6.933593750000000000e-02 -5.676269531250000000e-03 -2.140808105468750000e-02 6.353759765625000000e-02 -7.794189453125000000e-02 -8.197021484375000000e-02 -1.025390625000000000e-02 5.047607421875000000e-02 -9.350585937500000000e-02 2.671813964843750000e-02 -2.418518066406250000e-02

-5.092620849609375000e-03 -4.299926757812500000e-02 4.937744140625000000e-02 -1.991271972656250000e-02 4.187011718750000000e-02 1.995849609375000000e-02 4.718017578125000000e-02 3.240966796875000000e-02 4.455566406250000000e-02 -3.222656250000000000e-02 -2.233886718750000000e-02 4.739379882812500000e-02 5.969238281250000000e-02 -8.276367187500000000e-02 8.587646484375000000e-02 8.166503906250000000e-02 -7.922363281250000000e-02 8.160400390625000000e-02 7.073974609375000000e-02 -3.219604492187500000e-02 8.587646484375000000e-02 -1.905822753906250000e-02 -6.500244140625000000e-02 -6.585693359375000000e-02 5.310058593750000000e-03 -1.995849609375000000e-02 -6.146240234375000000e-02 1.026153564453125000e-02 2.398681640625000000e-02 -5.490112304687500000e-02 -5.496978759765625000e-03 -7.336425781250000000e-02 -2.180480957031250000e-02 8.551025390625000000e-02 -2.603149414062500000e-02 -7.141113281250000000e-03 -2.375793457031250000e-02 -8.032226562500000000e-02

9.075927734375000000e-02 1.994323730468750000e-02 -6.970214843750000000e-02 -9.222412109375000000e-02 4.782104492187500000e-02 -1.281738281250000000e-02 1.318359375000000000e-02 8.050537109375000000e-02 8.862304687500000000e-02 8.087158203125000000e-02 2.407836914062500000e-02 3.396606445312500000e-02 7.281494140625000000e-02 2.932739257812500000e-02 -3.192138671875000000e-02 1.988220214843750000e-02 -6.787109375000000000e-02 -4.513549804687500000e-02 -1.241683959960937500e-03 -3.155517578125000000e-02 8.477783203125000000e-02 8.526611328125000000e-02 -2.626419067382812500e-03 4.913330078125000000e-02 -1.446533203125000000e-02 3.419876098632812500e-03 5.010986328125000000e-02 -9.350585937500000000e-02 9.112548828125000000e-02 5.316162109375000000e-02 -6.475830078125000000e-02 -4.544067382812500000e-02 -4.537963867187500000e-02 -1.135253906250000000e-02 5.364990234375000000e-02 -6.585693359375000000e-02 -3.366088867187500000e-02 4.376220703125000000e-02

-7.409667968750000000e-02 -6.329345703125000000e-02 -3.768920898437500000e-02 -5.709838867187500000e-02 -4.629516601562500000e-02 7.159423828125000000e-02 1.574707031250000000e-02 -6.039428710937500000e-02 -8.247375488281250000e-03 -7.666015625000000000e-02 6.866455078125000000e-02 6.683349609375000000e-02 9.039306640625000000e-02 -7.666015625000000000e-02 -4.299926757812500000e-02 2.816772460937500000e-02 8.270263671875000000e-02 -7.343292236328125000e-03 2.490234375000000000e-02 4.534912109375000000e-02 5.218505859375000000e-02 1.226806640625000000e-02 2.307128906250000000e-02 -1.225280761718750000e-02 3.662109375000000000e-04 -6.402587890625000000e-02 1.105308532714843750e-03 2.893066406250000000e-02 8.746337890625000000e-02 -2.398681640625000000e-02 7.342529296875000000e-02 7.379150390625000000e-02 4.412841796875000000e-02 4.315185546875000000e-02 5.487060546875000000e-02 4.193115234375000000e-02 -8.874511718750000000e-02 2.655029296875000000e-02

4.864501953125000000e-02 -5.123901367187500000e-02 8.239746093750000000e-03 -7.080078125000000000e-02 1.774597167968750000e-02 -5.307006835937500000e-02 2.069091796875000000e-02 3.729248046875000000e-02 5.657958984375000000e-02 -3.677368164062500000e-02 -7.690429687500000000e-03 3.143310546875000000e-02 -6.149291992187500000e-02 -2.728271484375000000e-02 1.025390625000000000e-02 -4.885864257812500000e-02 -7.043457031250000000e-02 5.853271484375000000e-02 8.929443359375000000e-02 1.428222656250000000e-02 8.746337890625000000e-02 1.867675781250000000e-02 -1.300048828125000000e-02 -5.068969726562500000e-02 7.562255859375000000e-02 2.270507812500000000e-02 -5.160522460937500000e-02 -8.325195312500000000e-02 4.388427734375000000e-02 8.697509765625000000e-02 6.732177734375000000e-02 4.888916015625000000e-02 -1.940917968750000000e-02 -8.764648437500000000e-02 4.974365234375000000e-02 7.159423828125000000e-02 9.173583984375000000e-02 8.734130859375000000e-02

4.635620117187500000e-02 -7.135009765625000000e-02 -3.311157226562500000e-02 -4.763793945312500000e-02 -1.872253417968750000e-02 -6.457519531250000000e-02 4.852294921875000000e-02 3.826904296875000000e-02 -1.474761962890625000e-02 3.231811523437500000e-02 8.743286132812500000e-03 -7.855224609375000000e-02 6.885528564453125000e-03 1.038360595703125000e-02 -5.682373046875000000e-02 7.006835937500000000e-02 7.940673828125000000e-02 -8.666992187500000000e-02 2.223205566406250000e-02 -8.666992187500000000e-02 -6.402587890625000000e-02 -8.746337890625000000e-02 -8.306884765625000000e-02 -6.414794921875000000e-02 6.292724609375000000e-02 1.412391662597656250e-03 3.115844726562500000e-02 8.880615234375000000e-02 1.644897460937500000e-02 2.120971679687500000e-02 8.007812500000000000e-02 2.064514160156250000e-02 -9.277343750000000000e-02 -3.494262695312500000e-02 2.416992187500000000e-02 8.599853515625000000e-02 -7.812500000000000000e-02 5.615234375000000000e-02

1.797485351562500000e-02 -1.535797119140625000e-02 1.791381835937500000e-02 9.259033203125000000e-02 7.879638671875000000e-02 6.980895996093750000e-03 -5.270385742187500000e-02 1.007080078125000000e-02 -2.247619628906250000e-02 8.630371093750000000e-02 -4.620361328125000000e-02 -4.261016845703125000e-03 -5.450439453125000000e-02 1.626586914062500000e-02 -2.239990234375000000e-02 1.416015625000000000e-02 -9.963989257812500000e-03 2.658081054687500000e-02 6.567382812500000000e-02 4.596710205078125000e-03 -4.634857177734375000e-03 -1.135253906250000000e-02 1.010894775390625000e-02 -5.532836914062500000e-02 5.859375000000000000e-03 -3.897094726562500000e-02 -7.104492187500000000e-02 -3.097534179687500000e-02 6.658935546875000000e-02 -1.736450195312500000e-02 5.822753906250000000e-02 7.501220703125000000e-02 -5.453491210937500000e-02 -1.226806640625000000e-02 5.886840820312500000e-02 -7.885742187500000000e-02 -1.502990722656250000e-03 -8.837890625000000000e-02

4.458618164062500000e-02 -6.771087646484375000e-04 -9.323120117187500000e-03 -1.860046386718750000e-02 -1.869201660156250000e-02 -7.684326171875000000e-02 6.243896484375000000e-02 3.253173828125000000e-02 8.270263671875000000e-02 1.026153564453125000e-02 8.587646484375000000e-02 5.603027343750000000e-02 -7.128906250000000000e-02 7.330322265625000000e-02 6.268310546875000000e-02 -3.289794921875000000e-02 5.880737304687500000e-02 5.474853515625000000e-02 7.897949218750000000e-02 2.212524414062500000e-03 -5.099487304687500000e-02 -3.848266601562500000e-02 -9.423828125000000000e-02 -6.524658203125000000e-02 -5.398559570312500000e-02 8.972167968750000000e-02 5.593872070312500000e-02 -7.830810546875000000e-02 -7.114410400390625000e-03 -7.678222656250000000e-02 -2.490234375000000000e-02 5.740356445312500000e-02 9.100341796875000000e-02 2.160644531250000000e-02 6.584167480468750000e-03 -5.581665039062500000e-02 2.230834960937500000e-02 -4.737854003906250000e-03

5.841064453125000000e-02 -3.970336914062500000e-02 -4.464721679687500000e-02 2.343750000000000000e-02 9.112548828125000000e-02 1.428985595703125000e-02 -3.128051757812500000e-02 7.354736328125000000e-02 -1.153564453125000000e-02 6.439208984375000000e-02 4.791259765625000000e-02 3.692626953125000000e-02 -7.684326171875000000e-02 1.593017578125000000e-02 -8.435058593750000000e-02 8.789062500000000000e-03 7.525634765625000000e-02 -7.592773437500000000e-02 8.819580078125000000e-02 -2.655029296875000000e-02 2.728271484375000000e-02 4.351806640625000000e-02 6.463623046875000000e-02 6.106567382812500000e-02 -6.112670898437500000e-02 -2.764892578125000000e-02 -2.380371093750000000e-02 -7.977294921875000000e-02 5.084228515625000000e-02 7.745361328125000000e-02 -2.142333984375000000e-02 -4.922485351562500000e-02 1.428222656250000000e-02 8.624267578125000000e-02 5.364990234375000000e-02 -7.830810546875000000e-02 -4.080200195312500000e-02 3.662109375000000000e-03

8.258056640625000000e-02 -8.325195312500000000e-02 1.259803771972656250e-03 -4.052734375000000000e-02 -8.038330078125000000e-02 6.317138671875000000e-02 -4.629516601562500000e-02 -3.457641601562500000e-02 4.190063476562500000e-02 2.134704589843750000e-02 -2.316284179687500000e-02 -4.992675781250000000e-02 6.002807617187500000e-02 2.941894531250000000e-02 -9.994506835937500000e-03 2.131652832031250000e-02 -6.878662109375000000e-02 1.925659179687500000e-02 1.841735839843750000e-02 6.640625000000000000e-02 5.154418945312500000e-02 -7.885742187500000000e-02 -8.972167968750000000e-02 3.323364257812500000e-02 3.363037109375000000e-02 -3.515625000000000000e-02 -6.170654296875000000e-02 -8.691406250000000000e-02 5.963134765625000000e-02 -4.568481445312500000e-02 2.732849121093750000e-02 5.317687988281250000e-03 -7.025146484375000000e-02 1.812744140625000000e-02 -3.059387207031250000e-02 -6.167602539062500000e-02 -7.604980468750000000e-02 2.392578125000000000e-02

