-1.501464843750000000e-02 -4.666137695312500000e-02 -2.819824218750000000e-02 -1.739501953125000000e-02 8.789062500000000000e-03 -4.922485351562500000e-02 5.364990234375000000e-02 7.977294921875000000e-02 1.959228515625000000e-02 8.038330078125000000e-02 -5.178833007812500000e-02 -5.545043945312500000e-02 1.780986785888671875e-04 1.501464843750000000e-02 8.605957031250000000e-03 -2.801513671875000000e-02 2.655029296875000000e-02 -8.453369140625000000e-02 4.241943359375000000e-02 -5.947875976562500000e-02 8.880615234375000000e-02 7.342529296875000000e-02 4.302978515625000000e-02 3.839111328125000000e-02 6.573486328125000000e-02 -1.739501953125000000e-02 5.889892578125000000e-02 -1.080322265625000000e-02 -6.112670898437500000e-02 4.815673828125000000e-02 2.600097656250000000e-02 5.303955078125000000e-02 -6.622314453125000000e-02 -4.721069335937500000e-02 -8.032226562500000000e-02 7.305908203125000000e-02 1.171875000000000000e-02 1.428222656250000000e-02

-4.977416992187500000e-02 4.351806640625000000e-02 -7.794189453125000000e-02 -1.997375488281250000e-02 1.603698730468750000e-02 -8.911132812500000000e-02 5.560302734375000000e-02 5.291748046875000000e-02 2.661132812500000000e-02 8.148193359375000000e-02 -3.479003906250000000e-02 9.039306640625000000e-02 -2.563476562500000000e-02 2.667236328125000000e-02 5.077362060546875000e-03 -5.453491210937500000e-02 1.555633544921875000e-02 2.938842773437500000e-02 7.904052734375000000e-02 -8.056640625000000000e-02 6.463623046875000000e-02 -1.820564270019531250e-03 7.263183593750000000e-02 -4.223632812500000000e-02 8.807373046875000000e-02 3.915405273437500000e-02 8.224487304687500000e-03 9.398460388183593750e-04 -6.076812744140625000e-03 3.546142578125000000e-02 -3.128051757812500000e-02 7.232666015625000000e-02 -9.332275390625000000e-02 -5.361938476562500000e-02 4.833984375000000000e-02 -1.721191406250000000e-02 -5.746459960937500000e-02 -2.944946289062500000e-02

8.459472656250000000e-02 -2.865600585937500000e-02 3.747558593750000000e-02 4.513549804687500000e-02 4.235839843750000000e-02 -5.014038085937500000e-02 -6.896972656250000000e-02 -4.006958007812500000e-02 5.908203125000000000e-02 -1.858520507812500000e-02 -8.068847656250000000e-02 8.468627929687500000e-03 5.596923828125000000e-02 7.495117187500000000e-02 8.062744140625000000e-02 6.555175781250000000e-02 -7.604980468750000000e-02 -7.592773437500000000e-02 -9.100341796875000000e-02 9.925842285156250000e-03 4.989624023437500000e-02 -4.421997070312500000e-02 -6.451416015625000000e-02 3.656005859375000000e-02 -7.391357421875000000e-02 1.969909667968750000e-02 -4.153442382812500000e-02 -5.389404296875000000e-02 4.516601562500000000e-02 -8.123779296875000000e-02 6.158447265625000000e-02 -8.624267578125000000e-02 9.017944335937500000e-03 -9.075927734375000000e-02 2.593994140625000000e-02 6.732177734375000000e-02 1.282501220703125000e-02 -2.291870117187500000e-02

4.928588867187500000e-02 -5.783081054687500000e-02 1.190948486328125000e-02 1.483917236328125000e-03 1.470184326171875000e-02 -4.336547851562500000e-02 4.925537109375000000e-02 1.757812500000000000e-02 4.951477050781250000e-03 -6.130981445312500000e-02 -8.618164062500000000e-02 2.047729492187500000e-02 -2.561950683593750000e-02 -7.501220703125000000e-02 4.855346679687500000e-02 -8.111572265625000000e-02 7.098388671875000000e-02 -7.922363281250000000e-02 -8.691406250000000000e-02 1.316833496093750000e-02 3.561401367187500000e-02 -1.048278808593750000e-02 -1.707458496093750000e-02 2.951049804687500000e-02 1.977539062500000000e-02 4.077148437500000000e-02 -4.598999023437500000e-02 5.551147460937500000e-02 6.939697265625000000e-02 5.783081054687500000e-02 9.246826171875000000e-03 -4.931640625000000000e-02 -1.448059082031250000e-02 5.120849609375000000e-02 5.047607421875000000e-02 1.890659332275390625e-04 -5.911254882812500000e-02 8.087158203125000000e-02

-8.398437500000000000e-02 -7.135009765625000000e-02 -8.966064453125000000e-02 4.339599609375000000e-02 -4.098510742187500000e-02 -2.947998046875000000e-02 -5.563354492187500000e-02 7.757568359375000000e-02 -1.240539550781250000e-02 -8.636474609375000000e-02 -4.351806640625000000e-02 -4.871368408203125000e-03 -8.526611328125000000e-02 -6.237792968750000000e-02 9.369850158691406250e-04 7.281494140625000000e-02 4.522705078125000000e-02 4.901123046875000000e-02 4.632568359375000000e-02 1.811218261718750000e-02 7.012939453125000000e-02 -2.783203125000000000e-02 8.691406250000000000e-02 -2.314758300781250000e-02 8.953857421875000000e-02 1.629638671875000000e-02 -8.255004882812500000e-03 -3.256225585937500000e-02 7.708740234375000000e-02 -4.632568359375000000e-02 1.904296875000000000e-02 4.998779296875000000e-02 -5.068969726562500000e-02 -2.618408203125000000e-02 3.985595703125000000e-02 4.449462890625000000e-02 -4.885864257812500000e-02 -7.226562500000000000e-02

-4.125976562500000000e-02 -2.706909179687500000e-02 6.219482421875000000e-02 3.771972656250000000e-02 -2.027893066406250000e-02 1.465606689453125000e-02 -7.775878906250000000e-02 -2.581787109375000000e-02 9.252929687500000000e-02 -7.440185546875000000e-02 7.095336914062500000e-04 -4.052734375000000000e-02 1.201629638671875000e-02 -8.496093750000000000e-02 -4.483032226562500000e-02 1.634216308593750000e-02 -6.945800781250000000e-02 6.396484375000000000e-02 7.696533203125000000e-02 4.415893554687500000e-02 4.037475585937500000e-02 -4.125976562500000000e-02 -4.403686523437500000e-02 -1.748657226562500000e-02 3.936767578125000000e-02 -5.371093750000000000e-02 -3.323364257812500000e-02 8.801269531250000000e-02 2.372741699218750000e-02 5.749511718750000000e-02 -4.547119140625000000e-02 6.896972656250000000e-02 8.746337890625000000e-02 4.083251953125000000e-02 -9.167480468750000000e-02 2.894592285156250000e-02 -8.689880371093750000e-03 -1.876831054687500000e-03

-6.146240234375000000e-02 -7.537841796875000000e-02 6.292724609375000000e-02 -3.034973144531250000e-02 -4.067993164062500000e-02 -8.398437500000000000e-02 -8.068847656250000000e-02 -9.368896484375000000e-02 8.782958984375000000e-02 -5.859375000000000000e-02 -3.155517578125000000e-02 8.361816406250000000e-02 -7.470703125000000000e-02 -5.581665039062500000e-02 -8.734130859375000000e-02 3.713989257812500000e-02 4.010009765625000000e-02 -2.694702148437500000e-02 -3.335571289062500000e-02 -5.981445312500000000e-02 8.221435546875000000e-02 -5.004882812500000000e-02 -4.440307617187500000e-02 4.489421844482421875e-04 -5.215454101562500000e-02 3.250122070312500000e-02 -2.996826171875000000e-02 -4.006958007812500000e-02 4.113769531250000000e-02 -7.580566406250000000e-02 -2.807617187500000000e-02 8.209228515625000000e-02 -3.585815429687500000e-02 -2.819824218750000000e-02 -6.378173828125000000e-02 1.940917968750000000e-02 -2.957153320312500000e-02 1.771545410156250000e-02

-5.557250976562500000e-02 -6.713867187500000000e-02 -1.699829101562500000e-02 -6.280517578125000000e-02 -8.715820312500000000e-02 -1.847839355468750000e-02 7.208251953125000000e-02 2.856445312500000000e-02 8.404541015625000000e-02 7.238769531250000000e-02 7.708740234375000000e-02 3.268432617187500000e-02 8.447265625000000000e-02 8.184814453125000000e-02 -1.396942138671875000e-02 5.206298828125000000e-02 -6.921386718750000000e-02 6.268310546875000000e-02 8.537292480468750000e-03 -6.707763671875000000e-02 5.844116210937500000e-02 2.763748168945312500e-03 1.234436035156250000e-02 5.883789062500000000e-02 5.926513671875000000e-02 1.317596435546875000e-02 5.578613281250000000e-02 1.483917236328125000e-02 -7.281494140625000000e-02 6.164550781250000000e-02 3.439331054687500000e-02 -3.332519531250000000e-02 3.677368164062500000e-02 2.526855468750000000e-02 2.635192871093750000e-02 -6.970214843750000000e-02 3.674316406250000000e-02 2.703857421875000000e-02

2.749633789062500000e-02 3.276824951171875000e-03 5.950927734375000000e-02 4.791259765625000000e-02 -7.958984375000000000e-02 4.581451416015625000e-03 -7.336425781250000000e-02 4.241943359375000000e-02 1.664161682128906250e-03 -7.226562500000000000e-02 1.652526855468750000e-02 -4.772949218750000000e-02 -1.705932617187500000e-02 1.021385192871093750e-03 7.110595703125000000e-02 2.552795410156250000e-02 5.899047851562500000e-02 5.236816406250000000e-02 -8.599853515625000000e-02 -2.500915527343750000e-02 -1.954650878906250000e-02 7.489013671875000000e-02 -6.964111328125000000e-02 6.219482421875000000e-02 5.694580078125000000e-02 -3.848266601562500000e-02 -3.778076171875000000e-02 -6.759643554687500000e-03 -6.329345703125000000e-02 6.347656250000000000e-02 5.197143554687500000e-02 -2.865600585937500000e-02 -1.502990722656250000e-02 3.790283203125000000e-02 -7.000732421875000000e-02 -2.032470703125000000e-02 7.977294921875000000e-02 -3.065490722656250000e-02

-9.204101562500000000e-02 1.812744140625000000e-02 4.168701171875000000e-02 2.069091796875000000e-02 -3.421020507812500000e-02 -9.350585937500000000e-02 5.877685546875000000e-02 6.976318359375000000e-02 6.622314453125000000e-02 -2.233886718750000000e-02 9.075927734375000000e-02 -2.638244628906250000e-02 4.901123046875000000e-02 5.555152893066406250e-04 7.208251953125000000e-02 2.040863037109375000e-03 -8.233642578125000000e-02 6.756591796875000000e-02 9.295654296875000000e-02 -3.860473632812500000e-02 -8.380126953125000000e-02 -7.464599609375000000e-02 2.690124511718750000e-02 -8.105468750000000000e-02 4.742431640625000000e-02 7.379150390625000000e-02 5.743408203125000000e-02 4.119873046875000000e-02 -7.373046875000000000e-02 -3.311157226562500000e-03 -8.874511718750000000e-02 -6.402587890625000000e-02 -6.787109375000000000e-02 -5.050659179687500000e-02 -5.764770507812500000e-02 3.021240234375000000e-02 9.259033203125000000e-02 9.100341796875000000e-02

4.159545898437500000e-02 -4.776000976562500000e-02 7.904052734375000000e-02 -8.489990234375000000e-02 -1.504516601562500000e-02 9.320068359375000000e-02 2.947998046875000000e-02 6.170654296875000000e-02 2.743530273437500000e-02 5.987548828125000000e-02 3.424072265625000000e-02 -8.544921875000000000e-02 2.731323242187500000e-02 2.107238769531250000e-02 3.948974609375000000e-02 8.331298828125000000e-02 3.317260742187500000e-02 -8.471679687500000000e-02 2.951049804687500000e-02 9.332275390625000000e-02 -6.222534179687500000e-02 7.179260253906250000e-03 3.971099853515625000e-03 -6.702423095703125000e-03 -2.124023437500000000e-02 7.305908203125000000e-02 -8.489990234375000000e-02 -7.281494140625000000e-02 4.083251953125000000e-02 1.255798339843750000e-02 5.294799804687500000e-02 3.750610351562500000e-02 -6.805419921875000000e-02 -6.475830078125000000e-02 -3.787231445312500000e-02 5.926513671875000000e-02 -3.275871276855468750e-04 7.305908203125000000e-02

6.695556640625000000e-02 3.692626953125000000e-02 -4.006958007812500000e-02 8.422851562500000000e-03 -1.336669921875000000e-02 -1.300048828125000000e-02 -2.435302734375000000e-02 -6.970214843750000000e-02 3.948974609375000000e-02 -9.002685546875000000e-02 -5.581665039062500000e-02 -6.475830078125000000e-02 6.610107421875000000e-02 2.764892578125000000e-02 -8.361816406250000000e-02 -7.720947265625000000e-02 -8.728027343750000000e-02 5.194091796875000000e-02 -1.080322265625000000e-02 -5.563354492187500000e-02 -5.618286132812500000e-02 5.413818359375000000e-02 7.379150390625000000e-02 -3.076171875000000000e-02 4.901123046875000000e-02 6.878662109375000000e-02 6.390380859375000000e-02 4.974365234375000000e-02 -7.226562500000000000e-02 3.619384765625000000e-02 -3.128051757812500000e-02 -1.867675781250000000e-02 5.804443359375000000e-02 -6.970214843750000000e-02 -2.142333984375000000e-02 -4.611206054687500000e-02 2.160644531250000000e-02 8.001708984375000000e-02

-4.385375976562500000e-02 -2.473449707031250000e-02 3.399658203125000000e-02 5.636596679687500000e-02 1.593589782714843750e-03 6.076049804687500000e-02 7.086181640625000000e-02 2.764892578125000000e-02 6.286621093750000000e-02 2.555847167968750000e-02 -1.896667480468750000e-02 3.829956054687500000e-02 2.134704589843750000e-02 2.946472167968750000e-02 7.305908203125000000e-02 2.145385742187500000e-02 -4.657745361328125000e-03 -4.769897460937500000e-02 4.037475585937500000e-02 -2.441406250000000000e-02 -8.187294006347656250e-04 -6.420135498046875000e-03 -9.405517578125000000e-02 3.594970703125000000e-02 2.545166015625000000e-02 -5.261230468750000000e-02 5.853271484375000000e-02 7.135009765625000000e-02 -3.471374511718750000e-03 -6.158447265625000000e-02 7.244873046875000000e-02 -8.074951171875000000e-02 -7.684326171875000000e-02 9.039306640625000000e-02 -3.167724609375000000e-02 4.644775390625000000e-02 2.813720703125000000e-02 6.610107421875000000e-02

5.258178710937500000e-02 -2.307128906250000000e-02 -3.475952148437500000e-02 8.282470703125000000e-02 2.772521972656250000e-02 4.754638671875000000e-02 -8.508300781250000000e-02 3.112792968750000000e-02 2.989196777343750000e-02 5.401611328125000000e-02 8.752441406250000000e-02 7.128906250000000000e-02 -6.579589843750000000e-02 -6.182861328125000000e-02 -4.986572265625000000e-02 5.160522460937500000e-02 4.638671875000000000e-02 2.778625488281250000e-02 -4.910278320312500000e-02 4.968261718750000000e-02 -2.059936523437500000e-02 5.584716796875000000e-02 2.911376953125000000e-02 -5.166625976562500000e-02 -8.746337890625000000e-02 5.926513671875000000e-02 5.084228515625000000e-02 4.193115234375000000e-02 4.911422729492187500e-04 -9.979248046875000000e-03 1.380920410156250000e-02 6.793212890625000000e-02 3.314208984375000000e-02 -9.240722656250000000e-02 3.186035156250000000e-02 6.793212890625000000e-02 -9.002685546875000000e-02 -5.157470703125000000e-02

4.864501953125000000e-02 -1.025390625000000000e-02 4.058837890625000000e-02 4.205322265625000000e-02 4.779052734375000000e-02 -6.713867187500000000e-02 -1.831054687500000000e-03 -3.640747070312500000e-02 2.288818359375000000e-02 -4.263305664062500000e-02 -4.354858398437500000e-02 4.756927490234375000e-03 1.519775390625000000e-02 -7.849121093750000000e-02 -1.116943359375000000e-02 -7.775878906250000000e-02 -4.556274414062500000e-02 3.497314453125000000e-02 5.157470703125000000e-02 1.208496093750000000e-02 -6.549072265625000000e-02 3.314208984375000000e-02 -7.556152343750000000e-02 4.412841796875000000e-02 -1.885986328125000000e-02 -4.409790039062500000e-02 -1.776123046875000000e-02 5.767822265625000000e-02 7.049560546875000000e-02 2.966308593750000000e-02 6.988525390625000000e-02 -2.966308593750000000e-02 8.416748046875000000e-02 2.838134765625000000e-02 4.791259765625000000e-02 6.695556640625000000e-02 -7.611083984375000000e-02 -5.856323242187500000e-02

6.210327148437500000e-02 -1.335144042968750000e-02 7.281494140625000000e-02 -8.337402343750000000e-02 7.958984375000000000e-02 -6.402587890625000000e-02 4.498291015625000000e-02 -9.350585937500000000e-02 3.509521484375000000e-02 1.171875000000000000e-02 -2.082824707031250000e-02 -4.394531250000000000e-02 7.354736328125000000e-02 -5.294799804687500000e-02 -2.128601074218750000e-02 3.817749023437500000e-02 2.870178222656250000e-02 1.542663574218750000e-02 6.213378906250000000e-02 1.380157470703125000e-02 6.323242187500000000e-02 -5.270385742187500000e-02 -7.281494140625000000e-02 -6.988525390625000000e-02 2.673339843750000000e-02 6.137084960937500000e-02 7.043457031250000000e-02 -8.380126953125000000e-02 7.686614990234375000e-03 2.565383911132812500e-03 4.141235351562500000e-02 -3.659057617187500000e-02 -3.114318847656250000e-02 2.746582031250000000e-02 -4.220581054687500000e-02 8.404541015625000000e-02 -5.450439453125000000e-02 -6.695556640625000000e-02

6.146240234375000000e-02 -8.087158203125000000e-02 4.760742187500000000e-03 6.622314453125000000e-02 7.110595703125000000e-03 7.391357421875000000e-02 9.155273437500000000e-03 4.315185546875000000e-02 1.885986328125000000e-02 3.350830078125000000e-02 -7.133483886718750000e-03 -8.471679687500000000e-02 -9.295654296875000000e-02 6.217956542968750000e-03 -7.427978515625000000e-02 -9.332275390625000000e-02 -9.130859375000000000e-02 -4.867553710937500000e-02 9.100341796875000000e-02 6.915283203125000000e-02 -1.812744140625000000e-02 1.500701904296875000e-02 -3.530883789062500000e-02 4.278564453125000000e-02 -7.940673828125000000e-02 -9.895324707031250000e-03 -5.325317382812500000e-02 -7.354736328125000000e-02 -1.794433593750000000e-02 4.940795898437500000e-02 -1.721191406250000000e-02 -8.013916015625000000e-02 -1.300048828125000000e-02 -9.313964843750000000e-02 -1.757812500000000000e-02 1.647949218750000000e-02 -8.709716796875000000e-02 -9.259033203125000000e-02

-8.062744140625000000e-02 -7.281494140625000000e-02 5.987548828125000000e-02 -7.757568359375000000e-02 -8.038330078125000000e-02 2.911376953125000000e-02 -1.556396484375000000e-02 8.782958984375000000e-02 -5.581665039062500000e-02 9.173583984375000000e-02 -5.200195312500000000e-02 1.742553710937500000e-02 1.497650146484375000e-02 -4.348754882812500000e-02 -3.591918945312500000e-02 1.258087158203125000e-02 4.067993164062500000e-02 5.380249023437500000e-02 -4.919433593750000000e-02 -9.362792968750000000e-02 -1.104736328125000000e-02 7.305908203125000000e-02 -6.774902343750000000e-02 5.712890625000000000e-02 -3.256225585937500000e-02 -4.391479492187500000e-02 -3.787231445312500000e-02 1.317977905273437500e-03 -1.666259765625000000e-02 4.492187500000000000e-02 6.433105468750000000e-02 4.019165039062500000e-02 -1.730918884277343750e-03 -4.794311523437500000e-02 6.365966796875000000e-02 9.332275390625000000e-02 -7.189941406250000000e-02 -3.823852539062500000e-02

5.084228515625000000e-02 5.621337890625000000e-02 5.853271484375000000e-02 -3.695678710937500000e-02 -7.849121093750000000e-02 6.431579589843750000e-03 4.412841796875000000e-02 8.917236328125000000e-02 -2.911376953125000000e-02 -6.878662109375000000e-02 -7.373046875000000000e-02 7.391357421875000000e-02 -8.013916015625000000e-02 -5.657958984375000000e-02 -7.373046875000000000e-02 -7.006835937500000000e-02 5.722045898437500000e-03 4.888916015625000000e-02 -9.313964843750000000e-02 -8.966064453125000000e-02 -6.823730468750000000e-02 -2.008438110351562500e-03 -1.998901367187500000e-02 -2.233886718750000000e-02 -1.409912109375000000e-02 4.138946533203125000e-03 -2.235412597656250000e-02 -4.336547851562500000e-02 -2.197265625000000000e-02 -3.677368164062500000e-02 -2.490234375000000000e-02 -3.640747070312500000e-02 -5.636596679687500000e-02 2.343750000000000000e-02 -9.002685546875000000e-02 4.302978515625000000e-02 -7.684326171875000000e-02 -3.164672851562500000e-02

-3.787231445312500000e-02 -8.526611328125000000e-02 -5.764770507812500000e-02 2.014160156250000000e-02 -7.116699218750000000e-02 -3.604125976562500000e-02 7.965087890625000000e-02 2.856445312500000000e-02 7.940673828125000000e-02 -7.556152343750000000e-02 7.928466796875000000e-02 7.684326171875000000e-02 -5.709838867187500000e-02 5.291748046875000000e-02 -1.373291015625000000e-02 8.966064453125000000e-02 3.204345703125000000e-02 4.852294921875000000e-02 7.318115234375000000e-02 -9.313964843750000000e-02 -2.565002441406250000e-02 7.415771484375000000e-02 2.305603027343750000e-02 -8.233642578125000000e-02 -1.318359375000000000e-02 8.197021484375000000e-02 1.702880859375000000e-02 3.900146484375000000e-02 4.266357421875000000e-02 -5.068969726562500000e-02 8.697509765625000000e-02 -5.288696289062500000e-02 4.388427734375000000e-02 9.002685546875000000e-02 9.246826171875000000e-02 -1.647949218750000000e-02 5.517005920410156250e-04 -7.025146484375000000e-02

-5.984497070312500000e-02 8.953857421875000000e-02 -7.904052734375000000e-02 2.893066406250000000e-02 -7.666015625000000000e-02 5.072021484375000000e-02 6.042480468750000000e-03 9.295654296875000000e-02 -9.167480468750000000e-02 2.325439453125000000e-02 8.331298828125000000e-02 -4.537963867187500000e-02 9.155273437500000000e-03 -4.739379882812500000e-02 7.891845703125000000e-02 5.401611328125000000e-02 2.014160156250000000e-02 -7.684326171875000000e-02 -6.732177734375000000e-02 2.416992187500000000e-02 3.094482421875000000e-02 -2.215576171875000000e-02 9.222412109375000000e-02 1.263427734375000000e-02 5.310058593750000000e-03 -7.739257812500000000e-02 3.436279296875000000e-02 -4.116821289062500000e-02 1.831054687500000000e-03 9.246826171875000000e-02 1.940917968750000000e-02 -3.421020507812500000e-02 -8.050537109375000000e-02 -8.691406250000000000e-02 5.126953125000000000e-03 1.739501953125000000e-02 2.380371093750000000e-02 -2.197265625000000000e-02

-6.085205078125000000e-02 6.903076171875000000e-02 4.058837890625000000e-02 5.758666992187500000e-02 -3.884887695312500000e-02 2.510070800781250000e-02 -6.149291992187500000e-02 -3.878784179687500000e-02 -6.488037109375000000e-02 4.013061523437500000e-02 -2.105712890625000000e-02 2.507019042968750000e-02 6.701660156250000000e-02 5.300903320312500000e-02 5.950927734375000000e-02 -2.069091796875000000e-02 7.757568359375000000e-02 3.701782226562500000e-02 6.115722656250000000e-02 4.595947265625000000e-02 -3.439331054687500000e-02 4.806518554687500000e-02 3.097534179687500000e-02 5.633544921875000000e-02 -2.270507812500000000e-02 1.486968994140625000e-02 4.846191406250000000e-02 -3.271102905273437500e-03 -2.804565429687500000e-02 6.069946289062500000e-02 7.781982421875000000e-02 -4.583740234375000000e-02 -1.962280273437500000e-02 1.171875000000000000e-02 6.427001953125000000e-02 -4.080200195312500000e-02 2.642822265625000000e-02 4.916381835937500000e-02

-9.204101562500000000e-02 -4.244995117187500000e-02 5.889892578125000000e-02 9.063720703125000000e-02 -3.662109375000000000e-03 4.119873046875000000e-02 5.120849609375000000e-02 7.855224609375000000e-02 8.766174316406250000e-03 -8.288574218750000000e-02 3.227233886718750000e-03 4.486083984375000000e-02 -4.510498046875000000e-02 4.776000976562500000e-02 -1.132965087890625000e-02 -6.072998046875000000e-02 -3.955078125000000000e-02 -2.615356445312500000e-02 -7.789611816406250000e-03 -7.745361328125000000e-02 1.473236083984375000e-02 8.441162109375000000e-02 8.459472656250000000e-02 6.951904296875000000e-02 3.240966796875000000e-02 7.678222656250000000e-02 -7.519531250000000000e-02 -3.073120117187500000e-02 -6.347656250000000000e-02 -5.691528320312500000e-02 -7.006835937500000000e-02 -8.709716796875000000e-02 3.875732421875000000e-02 -6.896972656250000000e-02 6.580352783203125000e-03 5.767822265625000000e-02 1.032257080078125000e-02 -4.299926757812500000e-02

7.965087890625000000e-02 8.294677734375000000e-02 1.922607421875000000e-02 3.250122070312500000e-02 7.110595703125000000e-02 -6.695556640625000000e-02 -6.329345703125000000e-02 -5.947875976562500000e-02 4.125976562500000000e-02 -6.054687500000000000e-02 -1.806640625000000000e-02 -3.049373626708984375e-04 4.089355468750000000e-02 -2.947998046875000000e-02 9.130859375000000000e-02 1.776123046875000000e-02 -6.323242187500000000e-02 -8.728027343750000000e-02 -2.555847167968750000e-02 5.731201171875000000e-02 2.192687988281250000e-02 4.486083984375000000e-02 4.244995117187500000e-02 -6.707763671875000000e-02 -3.002929687500000000e-02 4.055023193359375000e-03 1.074981689453125000e-02 -1.889038085937500000e-02 2.799987792968750000e-02 5.151367187500000000e-02 9.075927734375000000e-02 -5.569458007812500000e-02 3.509521484375000000e-02 2.728271484375000000e-02 4.135131835937500000e-02 -1.829147338867187500e-03 2.119445800781250000e-02 7.751464843750000000e-02

4.718017578125000000e-02 7.358551025390625000e-03 6.610107421875000000e-02 -8.782958984375000000e-02 -7.342529296875000000e-02 7.611083984375000000e-02 4.669189453125000000e-02 -2.764892578125000000e-02 -1.074218750000000000e-02 -3.878784179687500000e-02 -6.219482421875000000e-02 -3.143310546875000000e-02 -5.191040039062500000e-02 -2.088928222656250000e-02 3.472900390625000000e-02 4.085540771484375000e-03 -6.329345703125000000e-02 8.628845214843750000e-03 -6.274414062500000000e-02 3.396606445312500000e-02 5.081176757812500000e-02 7.505416870117187500e-04 -1.696777343750000000e-02 -4.461669921875000000e-02 8.709716796875000000e-02 2.482604980468750000e-02 4.425048828125000000e-02 -2.546310424804687500e-04 7.427978515625000000e-02 3.726196289062500000e-02 -2.963256835937500000e-02 2.670288085937500000e-02 -7.849121093750000000e-02 -5.874633789062500000e-02 -7.922363281250000000e-02 -7.427978515625000000e-02 -8.544921875000000000e-02 -4.666137695312500000e-02

1.794433593750000000e-02 4.241943359375000000e-02 7.012939453125000000e-02 -5.838012695312500000e-02 3.643798828125000000e-02 -2.435302734375000000e-02 6.591796875000000000e-03 8.331298828125000000e-02 -1.849365234375000000e-02 -1.519012451171875000e-02 -2.325439453125000000e-02 6.976318359375000000e-02 4.608154296875000000e-02 -6.494140625000000000e-02 -6.585693359375000000e-02 -5.471801757812500000e-02 3.656005859375000000e-02 -3.530883789062500000e-02 -3.604125976562500000e-02 5.255126953125000000e-02 6.390380859375000000e-02 1.428222656250000000e-02 -3.805541992187500000e-02 8.148193359375000000e-02 1.116943359375000000e-02 4.083251953125000000e-02 3.277587890625000000e-02 -7.244873046875000000e-02 8.990478515625000000e-02 4.571533203125000000e-02 -6.094360351562500000e-02 -2.838134765625000000e-02 -2.142333984375000000e-02 -3.094482421875000000e-02 -5.859375000000000000e-03 -5.215454101562500000e-02 -7.299804687500000000e-02 -9.075927734375000000e-02

3.875732421875000000e-02 1.428222656250000000e-02 -2.308654785156250000e-02 -3.039550781250000000e-02 -8.215332031250000000e-02 6.463623046875000000e-02 -3.805541992187500000e-02 6.097412109375000000e-02 -1.208496093750000000e-02 -7.885742187500000000e-02 3.753662109375000000e-02 3.167724609375000000e-02 6.097412109375000000e-02 1.849365234375000000e-02 -8.819580078125000000e-02 -8.581542968750000000e-02 -8.178710937500000000e-02 6.024169921875000000e-02 -5.068969726562500000e-02 -3.768920898437500000e-02 4.388427734375000000e-02 -8.361816406250000000e-02 7.122802734375000000e-02 -3.805541992187500000e-02 -1.354980468750000000e-02 5.694580078125000000e-02 -2.033996582031250000e-02 4.302978515625000000e-02 -6.311035156250000000e-02 -2.635192871093750000e-02 2.893066406250000000e-02 -5.984497070312500000e-02 -7.666015625000000000e-02 3.509521484375000000e-02 -9.295654296875000000e-02 4.022216796875000000e-02 7.562255859375000000e-02 -1.891851425170898438e-04

5.380249023437500000e-02 -4.025268554687500000e-02 -1.268005371093750000e-02 -1.526641845703125000e-02 4.919433593750000000e-02 1.440048217773437500e-03 3.021240234375000000e-02 -2.087402343750000000e-02 2.812194824218750000e-02 -9.078979492187500000e-03 6.292724609375000000e-02 -1.314544677734375000e-02 -2.008056640625000000e-02 4.586791992187500000e-02 -3.286743164062500000e-02 8.071899414062500000e-03 8.435058593750000000e-02 8.825683593750000000e-02 1.495361328125000000e-02 5.044555664062500000e-02 6.567382812500000000e-02 6.549072265625000000e-02 2.482604980468750000e-02 -4.360198974609375000e-03 4.156494140625000000e-02 6.243896484375000000e-02 -7.696533203125000000e-02 7.446289062500000000e-02 -3.134155273437500000e-02 8.245849609375000000e-02 5.844116210937500000e-02 -2.386474609375000000e-02 8.636474609375000000e-02 7.281494140625000000e-02 -1.093292236328125000e-02 -5.746459960937500000e-02 7.415771484375000000e-02 3.526687622070312500e-03

8.056640625000000000e-03 -4.208374023437500000e-02 -9.338378906250000000e-03 -4.904174804687500000e-02 2.379417419433593750e-04 5.889892578125000000e-02 8.709716796875000000e-02 -6.039428710937500000e-02 1.308441162109375000e-02 -6.787109375000000000e-02 3.463745117187500000e-02 6.038665771484375000e-03 8.453369140625000000e-02 -7.446289062500000000e-02 -2.217102050781250000e-02 -5.981445312500000000e-02 3.753662109375000000e-02 -2.087402343750000000e-02 -3.439331054687500000e-02 5.548095703125000000e-02 -2.237319946289062500e-03 8.232116699218750000e-03 -7.574462890625000000e-02 -5.197143554687500000e-02 -7.812500000000000000e-02 -9.259033203125000000e-02 2.581787109375000000e-02 -6.713867187500000000e-02 8.972167968750000000e-03 -9.094238281250000000e-03 -8.636474609375000000e-02 3.839111328125000000e-02 -4.464721679687500000e-02 1.098632812500000000e-03 -8.435058593750000000e-02 7.208251953125000000e-02 5.081176757812500000e-03 6.585693359375000000e-02

-6.970214843750000000e-02 6.756591796875000000e-02 7.501220703125000000e-02 -6.585693359375000000e-02 6.033325195312500000e-02 7.928466796875000000e-02 -2.380371093750000000e-02 -3.057861328125000000e-02 -7.330322265625000000e-02 -6.567382812500000000e-02 1.174926757812500000e-02 1.358985900878906250e-03 2.145385742187500000e-02 -5.331420898437500000e-02 -8.306884765625000000e-02 -5.807495117187500000e-02 -5.490112304687500000e-02 8.404541015625000000e-02 8.807373046875000000e-02 -1.777648925781250000e-02 4.776000976562500000e-02 -8.856201171875000000e-02 -2.427673339843750000e-02 9.289550781250000000e-02 4.302978515625000000e-02 -1.015472412109375000e-02 5.477905273437500000e-02 -6.347656250000000000e-02 -4.830932617187500000e-02 -3.805541992187500000e-02 3.034973144531250000e-02 -5.767822265625000000e-02 5.450439453125000000e-02 -1.940917968750000000e-02 6.976318359375000000e-02 -7.684326171875000000e-02 7.281494140625000000e-02 5.035400390625000000e-02

-2.342224121093750000e-02 5.615234375000000000e-03 -2.090454101562500000e-02 -6.451416015625000000e-02 -4.284667968750000000e-02 7.320404052734375000e-03 5.548095703125000000e-02 -5.947875976562500000e-02 -5.032348632812500000e-02 -1.457977294921875000e-02 -1.543426513671875000e-02 -6.719970703125000000e-02 3.734588623046875000e-03 7.354736328125000000e-02 6.311035156250000000e-02 4.656982421875000000e-02 4.446411132812500000e-02 -6.161499023437500000e-02 -1.493835449218750000e-02 -2.607727050781250000e-02 5.107879638671875000e-03 -8.508300781250000000e-02 -7.171630859375000000e-02 3.765869140625000000e-02 5.841064453125000000e-02 3.176879882812500000e-02 7.049560546875000000e-02 -2.273559570312500000e-03 6.475830078125000000e-02 5.056762695312500000e-02 -3.640747070312500000e-02 8.325195312500000000e-02 -3.512573242187500000e-02 1.025390625000000000e-02 -3.103637695312500000e-02 -6.420898437500000000e-02 -6.585693359375000000e-02 -3.561401367187500000e-02

-5.407333374023437500e-04 6.225585937500000000e-03 -1.831054687500000000e-02 2.546691894531250000e-02 1.643180847167968750e-03 3.656005859375000000e-02 -4.977416992187500000e-02 9.295654296875000000e-02 -4.066467285156250000e-03 -6.950378417968750000e-03 4.302978515625000000e-02 -4.885864257812500000e-02 5.950927734375000000e-02 -4.959106445312500000e-03 -4.940795898437500000e-02 1.612663269042968750e-03 -1.959228515625000000e-02 5.303955078125000000e-02 7.855224609375000000e-02 -7.647705078125000000e-02 -2.783203125000000000e-02 5.157470703125000000e-02 7.098388671875000000e-02 -6.094360351562500000e-02 6.732177734375000000e-02 -6.805419921875000000e-02 -6.402587890625000000e-02 -8.032226562500000000e-02 5.072021484375000000e-02 3.497314453125000000e-02 8.404541015625000000e-02 -5.087280273437500000e-02 3.936767578125000000e-02 6.756591796875000000e-02 5.192756652832031250e-04 4.522705078125000000e-02 -2.746582031250000000e-02 8.343505859375000000e-02

-6.420898437500000000e-02 4.193115234375000000e-02 -2.453613281250000000e-02 5.478858947753906250e-04 -3.567504882812500000e-02 -7.702636718750000000e-02 8.673095703125000000e-02 5.450439453125000000e-02 -6.094360351562500000e-02 -3.842163085937500000e-02 7.196044921875000000e-02 6.829833984375000000e-02 -4.391479492187500000e-02 -4.794311523437500000e-02 -3.512573242187500000e-02 -4.666137695312500000e-02 5.181884765625000000e-02 6.036376953125000000e-02 -8.142089843750000000e-02 3.179931640625000000e-02 6.042480468750000000e-03 -6.494140625000000000e-02 -4.025268554687500000e-02 -5.380249023437500000e-02 6.695556640625000000e-02 -2.709960937500000000e-02 -4.519653320312500000e-02 1.062011718750000000e-02 7.867431640625000000e-02 -3.585815429687500000e-02 5.889892578125000000e-02 6.463623046875000000e-02 -1.300048828125000000e-02 5.474853515625000000e-02 -3.604125976562500000e-02 3.399658203125000000e-02 7.867431640625000000e-02 -4.299926757812500000e-02

8.689880371093750000e-03 -5.233764648437500000e-02 -8.415222167968750000e-03 2.910614013671875000e-03 7.244873046875000000e-02 6.988525390625000000e-02 -8.966064453125000000e-02 -1.446533203125000000e-02 5.960083007812500000e-02 -2.332687377929687500e-03 -1.828002929687500000e-02 9.094238281250000000e-02 2.813339233398437500e-03 -4.086303710937500000e-02 2.752685546875000000e-02 2.256774902343750000e-02 -7.519531250000000000e-02 -2.268981933593750000e-02 7.586669921875000000e-02 4.397583007812500000e-02 2.778625488281250000e-02 7.873535156250000000e-03 -4.052734375000000000e-02 -8.416748046875000000e-02 -2.069091796875000000e-02 -9.320068359375000000e-02 8.430480957031250000e-04 -2.952575683593750000e-02 -4.666137695312500000e-02 7.501220703125000000e-02 4.803466796875000000e-02 -8.746337890625000000e-02 5.438232421875000000e-02 -4.135131835937500000e-02 3.700256347656250000e-03 -4.501342773437500000e-02 -4.168701171875000000e-02 -6.652832031250000000e-03

5.770874023437500000e-02 -3.457641601562500000e-02 3.607177734375000000e-02 -1.165771484375000000e-02 -8.526611328125000000e-02 5.709838867187500000e-02 -7.720947265625000000e-02 7.379150390625000000e-02 7.400512695312500000e-03 -6.335449218750000000e-02 9.140014648437500000e-03 -1.190948486328125000e-02 1.240539550781250000e-02 8.508300781250000000e-02 -2.052307128906250000e-02 -5.966186523437500000e-02 -7.897949218750000000e-02 -3.555297851562500000e-03 1.250457763671875000e-02 8.630371093750000000e-02 7.519531250000000000e-02 -3.292846679687500000e-02 5.032348632812500000e-02 5.853271484375000000e-02 -7.757568359375000000e-02 5.923461914062500000e-02 3.897094726562500000e-02 -7.098388671875000000e-02 2.215576171875000000e-02 6.646728515625000000e-02 6.726074218750000000e-02 -5.383300781250000000e-02 5.081176757812500000e-03 7.135009765625000000e-02 6.549072265625000000e-02 -8.581542968750000000e-02 3.585815429687500000e-02 -6.097412109375000000e-02

7.360839843750000000e-02 -8.929443359375000000e-02 1.722717285156250000e-02 1.644897460937500000e-02 -1.641845703125000000e-02 2.143859863281250000e-02 -5.874633789062500000e-02 7.086181640625000000e-02 6.353759765625000000e-02 -4.104614257812500000e-02 -2.265930175781250000e-02 2.885437011718750000e-02 2.122497558593750000e-02 4.669189453125000000e-02 -2.818298339843750000e-02 -6.115722656250000000e-02 -3.125000000000000000e-02 -6.909179687500000000e-02 8.197021484375000000e-02 -2.169799804687500000e-02 2.441406250000000000e-02 -4.800415039062500000e-02 -3.930664062500000000e-02 4.794311523437500000e-02 2.197265625000000000e-03 5.270385742187500000e-02 3.921508789062500000e-02 -5.001831054687500000e-02 -9.271240234375000000e-02 -1.875305175781250000e-02 -4.919433593750000000e-02 -7.209777832031250000e-03 -8.178710937500000000e-02 8.782958984375000000e-02 4.895019531250000000e-02 -5.838012695312500000e-02 4.072189331054687500e-04 -2.259826660156250000e-02

7.318115234375000000e-02 7.574462890625000000e-02 2.563476562500000000e-02 1.372528076171875000e-02 9.332275390625000000e-02 8.064270019531250000e-03 7.196044921875000000e-02 -7.171630859375000000e-02 -4.684448242187500000e-02 3.912353515625000000e-02 1.483917236328125000e-02 -9.064674377441406250e-04 4.998779296875000000e-02 7.208251953125000000e-02 5.328369140625000000e-02 -8.563232421875000000e-02 6.903076171875000000e-02 -2.014160156250000000e-02 4.522705078125000000e-02 -3.933715820312500000e-02 6.610107421875000000e-02 -2.178955078125000000e-02 -3.475952148437500000e-02 5.844116210937500000e-03 -3.805541992187500000e-02 6.317138671875000000e-02 6.915283203125000000e-02 4.095458984375000000e-02 -8.599853515625000000e-02 4.718017578125000000e-02 -5.581665039062500000e-02 2.453613281250000000e-02 -3.421020507812500000e-02 5.438232421875000000e-02 4.608154296875000000e-02 8.782958984375000000e-02 5.560302734375000000e-02 -6.256103515625000000e-02

-7.849121093750000000e-02 5.340576171875000000e-02 2.416992187500000000e-02 -2.746582031250000000e-02 -4.095458984375000000e-02 9.155273437500000000e-03 -9.002685546875000000e-02 -4.043579101562500000e-02 -4.208374023437500000e-02 8.197021484375000000e-02 -5.592346191406250000e-03 7.690429687500000000e-02 -1.477813720703125000e-02 7.415771484375000000e-02 -2.053833007812500000e-02 8.789062500000000000e-02 -7.409667968750000000e-02 1.268005371093750000e-02 -5.621337890625000000e-02 8.435058593750000000e-02 -6.152343750000000000e-02 1.957702636718750000e-02 -8.209228515625000000e-02 -5.786132812500000000e-02 -7.189941406250000000e-02 8.740234375000000000e-02 -7.144927978515625000e-03 7.049560546875000000e-02 2.783203125000000000e-02 -2.809524536132812500e-03 -3.195190429687500000e-02 -8.581542968750000000e-02 -5.313873291015625000e-03 8.160400390625000000e-02 -5.523681640625000000e-02 2.508544921875000000e-02 -7.939338684082031250e-04 3.836059570312500000e-02

