-3.604125976562500000e-02 -3.146362304687500000e-02 6.951904296875000000e-02 2.032470703125000000e-02 3.985595703125000000e-02 5.523681640625000000e-02 -2.050781250000000000e-02 1.739501953125000000e-02 -4.006958007812500000e-02 3.277587890625000000e-02 -2.014160156250000000e-03 -2.014160156250000000e-03 8.856201171875000000e-02 -4.574584960937500000e-02 -2.673339843750000000e-02 2.581787109375000000e-02 -6.658935546875000000e-02 7.025146484375000000e-02 -3.094482421875000000e-02 1.556396484375000000e-02 -6.130981445312500000e-02 -7.885742187500000000e-02 -4.922485351562500000e-02 -7.666015625000000000e-02 -2.252197265625000000e-02 -4.354858398437500000e-02 1.099586486816406250e-03 6.219482421875000000e-02 -4.391479492187500000e-02 -5.160522460937500000e-02 -8.087158203125000000e-02 -4.299926757812500000e-02 -5.160522460937500000e-02 -1.666259765625000000e-02 -1.336669921875000000e-02 9.283447265625000000e-02 -7.324218750000000000e-04 2.819824218750000000e-02

7.830810546875000000e-02 9.283447265625000000e-02 -6.695556640625000000e-02 -1.039123535156250000e-02 5.438232421875000000e-02 -5.673217773437500000e-02 9.136962890625000000e-02 8.331298828125000000e-02 -7.891845703125000000e-02 -7.647705078125000000e-02 -2.906799316406250000e-02 5.432128906250000000e-02 -9.002685546875000000e-03 -3.253173828125000000e-02 7.519531250000000000e-02 7.397460937500000000e-02 2.777099609375000000e-02 8.306884765625000000e-02 -7.849121093750000000e-02 -7.049560546875000000e-02 -2.032470703125000000e-02 -5.819702148437500000e-02 -2.314758300781250000e-02 9.555816650390625000e-04 -9.075927734375000000e-02 -3.439331054687500000e-02 -8.929443359375000000e-02 7.684326171875000000e-02 -1.464843750000000000e-02 -1.565551757812500000e-02 5.767822265625000000e-02 6.805419921875000000e-02 -3.787231445312500000e-02 7.965087890625000000e-02 5.603027343750000000e-02 2.380371093750000000e-02 -6.439208984375000000e-02 -9.277343750000000000e-03

-6.195068359375000000e-02 6.152343750000000000e-02 1.390838623046875000e-02 7.934570312500000000e-03 -4.406738281250000000e-02 -8.911132812500000000e-02 -2.105712890625000000e-02 7.196044921875000000e-02 -6.402587890625000000e-02 -8.929443359375000000e-02 -7.055664062500000000e-02 8.361816406250000000e-02 -3.778076171875000000e-02 -5.087280273437500000e-02 -8.551025390625000000e-02 -8.258056640625000000e-02 8.459472656250000000e-02 9.017944335937500000e-03 -8.697509765625000000e-02 -4.046630859375000000e-02 6.317138671875000000e-02 5.917358398437500000e-02 5.683898925781250000e-03 -3.640747070312500000e-02 1.464843750000000000e-02 -4.531860351562500000e-02 -9.265136718750000000e-02 4.339599609375000000e-02 -6.585693359375000000e-02 1.042938232421875000e-02 1.134872436523437500e-03 7.128906250000000000e-02 -6.365966796875000000e-02 -8.526611328125000000e-02 -6.695556640625000000e-02 5.474853515625000000e-02 -2.349853515625000000e-02 2.299499511718750000e-02

3.256225585937500000e-02 4.644775390625000000e-02 1.574707031250000000e-02 4.392862319946289062e-05 1.340484619140625000e-02 2.453613281250000000e-02 -1.977539062500000000e-02 -6.530761718750000000e-02 -4.489135742187500000e-02 -1.730346679687500000e-02 7.714843750000000000e-02 5.953979492187500000e-02 1.387786865234375000e-02 8.734130859375000000e-02 1.882934570312500000e-02 4.327392578125000000e-02 -7.684326171875000000e-02 -1.058959960937500000e-02 -2.323150634765625000e-03 -6.774902343750000000e-02 -9.008789062500000000e-02 -7.226562500000000000e-02 6.652832031250000000e-03 7.751464843750000000e-02 2.545166015625000000e-02 -2.624511718750000000e-02 5.758666992187500000e-02 9.544372558593750000e-03 -9.155273437500000000e-03 4.830932617187500000e-02 -4.129028320312500000e-02 -7.360839843750000000e-02 -9.039306640625000000e-02 2.087402343750000000e-02 -8.288574218750000000e-02 -5.178833007812500000e-02 -9.039306640625000000e-02 4.993438720703125000e-03

1.080322265625000000e-02 -5.380249023437500000e-02 4.669189453125000000e-02 -6.021118164062500000e-02 5.181884765625000000e-02 2.160644531250000000e-02 3.424072265625000000e-02 3.295898437500000000e-03 -7.656097412109375000e-03 8.087158203125000000e-02 -3.637695312500000000e-02 4.573822021484375000e-03 -8.288574218750000000e-02 5.621337890625000000e-02 -4.043579101562500000e-02 4.534912109375000000e-02 -9.222412109375000000e-02 5.560302734375000000e-02 5.084228515625000000e-02 -4.650878906250000000e-02 7.940673828125000000e-02 -3.366088867187500000e-02 -6.335449218750000000e-02 1.126098632812500000e-02 3.753662109375000000e-02 3.704071044921875000e-03 -5.197143554687500000e-02 -6.204223632812500000e-02 -3.112792968750000000e-03 8.233642578125000000e-02 3.643798828125000000e-02 -2.217102050781250000e-02 -7.537841796875000000e-02 -3.076171875000000000e-02 -6.713867187500000000e-02 6.353759765625000000e-02 5.694580078125000000e-02 -9.130859375000000000e-02

-5.554199218750000000e-02 2.049255371093750000e-02 -6.384277343750000000e-02 5.404663085937500000e-02 -1.876831054687500000e-02 -2.433776855468750000e-02 -8.178710937500000000e-02 9.155273437500000000e-03 7.347106933593750000e-03 8.044433593750000000e-02 2.249145507812500000e-02 -8.026123046875000000e-02 -1.914978027343750000e-02 -4.849243164062500000e-02 -6.445312500000000000e-02 -3.277587890625000000e-02 6.652832031250000000e-02 -9.265136718750000000e-02 3.031921386718750000e-02 -8.972167968750000000e-02 1.078796386718750000e-02 -2.249145507812500000e-02 3.408813476562500000e-02 8.947753906250000000e-02 -6.823730468750000000e-02 5.673217773437500000e-02 8.557128906250000000e-02 2.424716949462890625e-04 -4.171752929687500000e-02 2.890014648437500000e-02 4.467773437500000000e-02 4.287719726562500000e-02 6.256103515625000000e-02 -1.741027832031250000e-02 -4.794311523437500000e-02 -1.976013183593750000e-02 -1.417541503906250000e-02 -1.588439941406250000e-02

1.451873779296875000e-02 -7.574462890625000000e-02 -6.311035156250000000e-02 8.587646484375000000e-02 -4.281616210937500000e-02 -1.298904418945312500e-03 -3.915405273437500000e-02 -7.318115234375000000e-02 -1.625061035156250000e-02 -1.947021484375000000e-02 -7.635498046875000000e-02 5.511474609375000000e-02 4.232788085937500000e-02 7.525634765625000000e-02 3.771972656250000000e-02 -6.408691406250000000e-02 -8.245849609375000000e-02 -6.475830078125000000e-02 -7.073974609375000000e-02 4.119873046875000000e-02 -3.994750976562500000e-02 -4.617309570312500000e-02 2.981567382812500000e-02 -1.617431640625000000e-02 9.173583984375000000e-02 -2.604675292968750000e-02 3.910064697265625000e-03 7.171630859375000000e-02 -1.962280273437500000e-02 -4.977416992187500000e-02 -4.278564453125000000e-02 -8.868408203125000000e-02 7.720947265625000000e-02 7.354736328125000000e-02 4.583740234375000000e-02 7.708740234375000000e-02 1.966857910156250000e-02 7.629394531250000000e-02

-2.145385742187500000e-02 -2.281188964843750000e-02 -4.432678222656250000e-03 3.004455566406250000e-02 8.905029296875000000e-02 -3.857421875000000000e-02 3.765869140625000000e-02 -4.739379882812500000e-02 3.158569335937500000e-02 -5.978393554687500000e-02 8.087158203125000000e-02 1.795959472656250000e-02 7.806396484375000000e-02 7.879638671875000000e-02 6.335449218750000000e-02 -1.374053955078125000e-02 7.226562500000000000e-02 -7.427978515625000000e-02 -5.422973632812500000e-02 8.496093750000000000e-02 5.526733398437500000e-02 -3.921508789062500000e-02 -1.416015625000000000e-02 8.074951171875000000e-02 -3.421020507812500000e-02 5.807495117187500000e-02 -8.477783203125000000e-02 -5.535888671875000000e-02 -7.885742187500000000e-02 -6.404876708984375000e-03 -7.824707031250000000e-02 -3.250122070312500000e-03 -4.690551757812500000e-02 3.875732421875000000e-02 3.280639648437500000e-02 -1.519012451171875000e-02 8.105468750000000000e-02 6.433105468750000000e-02

1.290130615234375000e-02 -3.585815429687500000e-02 -3.732299804687500000e-02 -5.514526367187500000e-02 -8.172607421875000000e-02 -1.335906982421875000e-02 -2.545166015625000000e-02 -5.105590820312500000e-02 8.917236328125000000e-02 -2.941894531250000000e-02 -3.505706787109375000e-03 -5.731201171875000000e-02 -6.244659423828125000e-03 -6.591796875000000000e-02 -1.588439941406250000e-02 -6.512451171875000000e-02 2.571105957031250000e-02 3.997802734375000000e-02 -6.787109375000000000e-02 1.361083984375000000e-02 1.211547851562500000e-02 7.700920104980468750e-04 -5.987548828125000000e-02 6.616210937500000000e-02 -8.306884765625000000e-02 -7.263183593750000000e-02 -8.709716796875000000e-02 -8.654785156250000000e-02 3.143310546875000000e-02 -1.962280273437500000e-02 6.341934204101562500e-05 -2.297973632812500000e-02 -4.666137695312500000e-02 -3.439331054687500000e-02 2.137756347656250000e-02 -1.666259765625000000e-02 -7.812500000000000000e-02 5.474853515625000000e-02

8.624267578125000000e-02 1.391601562500000000e-02 -1.276016235351562500e-03 -8.856201171875000000e-02 6.756591796875000000e-02 -4.574584960937500000e-02 5.413818359375000000e-02 4.010009765625000000e-02 5.194091796875000000e-02 4.083251953125000000e-02 -6.768798828125000000e-02 2.300739288330078125e-05 8.430480957031250000e-03 5.438232421875000000e-02 -9.338378906250000000e-03 2.328491210937500000e-02 3.301620483398437500e-03 8.551025390625000000e-02 -8.430480957031250000e-03 8.587646484375000000e-02 5.267333984375000000e-02 3.912353515625000000e-02 -9.130859375000000000e-02 -7.427978515625000000e-02 -3.512573242187500000e-02 1.272201538085937500e-03 -2.015686035156250000e-02 1.813888549804687500e-03 3.253173828125000000e-02 -3.421020507812500000e-02 4.461669921875000000e-02 8.111572265625000000e-02 -9.521484375000000000e-03 -1.483154296875000000e-02 -1.666259765625000000e-02 -7.135009765625000000e-02 3.094482421875000000e-02 -2.508544921875000000e-02

-5.380249023437500000e-02 7.635498046875000000e-02 5.841064453125000000e-02 -3.201293945312500000e-02 3.417968750000000000e-02 -5.032348632812500000e-02 7.525634765625000000e-02 -6.933593750000000000e-02 5.822181701660156250e-04 7.342529296875000000e-02 -3.125000000000000000e-02 1.840209960937500000e-02 8.294677734375000000e-02 -1.907348632812500000e-02 -8.453369140625000000e-02 -8.160400390625000000e-02 -6.494140625000000000e-02 -1.538085937500000000e-02 -7.171630859375000000e-02 9.356689453125000000e-02 5.621337890625000000e-02 1.393127441406250000e-02 2.139282226562500000e-02 -7.885742187500000000e-02 3.985595703125000000e-02 3.839111328125000000e-02 -4.721069335937500000e-02 9.149169921875000000e-02 -1.995849609375000000e-02 2.471923828125000000e-02 -5.871582031250000000e-02 2.851867675781250000e-02 6.732177734375000000e-02 -1.812744140625000000e-02 -1.499176025390625000e-02 -4.702758789062500000e-02 -2.816772460937500000e-02 -3.108978271484375000e-03

-6.768798828125000000e-02 -7.647705078125000000e-02 9.283447265625000000e-02 5.743408203125000000e-02 3.753662109375000000e-02 5.731201171875000000e-02 -1.538085937500000000e-02 -4.373168945312500000e-02 -5.252075195312500000e-02 7.415771484375000000e-02 7.745361328125000000e-02 -5.288696289062500000e-02 -6.622314453125000000e-02 6.756591796875000000e-02 -9.350585937500000000e-02 -6.457519531250000000e-02 9.320068359375000000e-02 -6.149291992187500000e-02 -8.636474609375000000e-02 -7.958984375000000000e-02 8.380126953125000000e-02 2.709960937500000000e-02 -3.897094726562500000e-02 -6.958007812500000000e-03 5.560302734375000000e-02 -6.805419921875000000e-02 -5.856323242187500000e-02 -1.611328125000000000e-02 -1.446533203125000000e-02 -3.219604492187500000e-02 -7.666015625000000000e-02 -9.204101562500000000e-02 2.728271484375000000e-02 5.676269531250000000e-03 -8.489990234375000000e-02 9.155273437500000000e-03 -3.842163085937500000e-02 5.401611328125000000e-02

-2.464294433593750000e-02 6.473541259765625000e-03 -5.545043945312500000e-02 4.580688476562500000e-02 -9.368896484375000000e-02 5.343627929687500000e-02 5.950927734375000000e-02 3.985595703125000000e-02 -5.404663085937500000e-02 2.033996582031250000e-02 -3.518676757812500000e-02 -3.585815429687500000e-04 8.831787109375000000e-02 9.941101074218750000e-03 -3.668212890625000000e-02 -2.056884765625000000e-02 6.805419921875000000e-02 -5.447387695312500000e-02 -2.452087402343750000e-02 7.342529296875000000e-02 1.170349121093750000e-02 -8.654785156250000000e-02 -5.007934570312500000e-02 9.326171875000000000e-02 -5.160522460937500000e-02 8.105468750000000000e-02 3.167724609375000000e-02 3.073120117187500000e-02 -1.045227050781250000e-02 -2.706909179687500000e-02 3.948974609375000000e-02 -6.683349609375000000e-02 8.044433593750000000e-02 -4.951477050781250000e-03 -7.836914062500000000e-02 -7.098388671875000000e-02 -7.202148437500000000e-02 -7.171630859375000000e-02

-8.966064453125000000e-02 -7.171630859375000000e-02 -4.061889648437500000e-02 2.584838867187500000e-02 -2.799987792968750000e-02 7.690429687500000000e-03 -3.094482421875000000e-02 1.849365234375000000e-02 4.266357421875000000e-02 7.281494140625000000e-02 -8.277893066406250000e-03 -4.522705078125000000e-02 9.265136718750000000e-02 8.435058593750000000e-02 -8.404541015625000000e-02 -5.920410156250000000e-02 -6.652832031250000000e-03 4.748535156250000000e-02 7.348632812500000000e-02 -5.511474609375000000e-02 -8.197021484375000000e-02 -3.622436523437500000e-02 6.823730468750000000e-02 8.312988281250000000e-02 -2.984619140625000000e-02 -1.904296875000000000e-02 2.215576171875000000e-02 2.526855468750000000e-02 -6.439208984375000000e-02 -3.735351562500000000e-02 8.233642578125000000e-02 -6.155395507812500000e-02 -7.025146484375000000e-02 -2.124023437500000000e-02 -6.626129150390625000e-03 -3.845214843750000000e-03 -6.475830078125000000e-02 -5.386352539062500000e-02

1.280784606933593750e-03 -6.750488281250000000e-02 -6.402587890625000000e-02 -5.416870117187500000e-02 -4.409790039062500000e-02 8.331298828125000000e-02 4.864501953125000000e-02 -4.684448242187500000e-02 5.596923828125000000e-02 -5.471801757812500000e-02 -8.288574218750000000e-02 2.854919433593750000e-02 -5.361938476562500000e-02 2.270507812500000000e-02 8.746337890625000000e-02 -2.307128906250000000e-02 -2.105712890625000000e-02 2.618408203125000000e-02 -9.350585937500000000e-02 6.463623046875000000e-02 -1.190185546875000000e-02 -6.042480468750000000e-03 7.269287109375000000e-02 -7.537841796875000000e-02 7.794189453125000000e-02 2.325439453125000000e-02 2.252197265625000000e-02 -4.025268554687500000e-02 -7.812500000000000000e-02 -5.783081054687500000e-02 -3.677368164062500000e-02 7.086181640625000000e-02 -5.618286132812500000e-02 3.295898437500000000e-03 -7.226562500000000000e-02 -7.043457031250000000e-02 -2.288818359375000000e-02 4.644775390625000000e-02

1.147270202636718750e-03 5.072021484375000000e-02 -3.256225585937500000e-02 1.562500000000000000e-02 8.135986328125000000e-02 6.793212890625000000e-02 4.779052734375000000e-02 2.325439453125000000e-02 5.227661132812500000e-02 -6.045532226562500000e-02 9.197998046875000000e-02 -8.415222167968750000e-03 -2.098083496093750000e-02 9.130859375000000000e-02 9.149169921875000000e-02 -5.187988281250000000e-02 8.630371093750000000e-02 -7.114410400390625000e-03 -5.493164062500000000e-02 -2.159118652343750000e-02 7.165527343750000000e-02 -3.131103515625000000e-02 -6.634521484375000000e-02 7.501220703125000000e-02 -3.970336914062500000e-02 -1.097106933593750000e-02 6.896972656250000000e-02 -8.013916015625000000e-02 -2.911376953125000000e-02 -4.312133789062500000e-02 -5.865478515625000000e-02 -5.966186523437500000e-02 -7.647705078125000000e-02 4.742431640625000000e-02 -6.970214843750000000e-02 5.767822265625000000e-02 -7.025146484375000000e-02 1.266479492187500000e-02

-1.300048828125000000e-02 -6.439208984375000000e-02 4.974365234375000000e-02 6.958007812500000000e-03 -1.155090332031250000e-02 -3.201293945312500000e-02 -2.856445312500000000e-02 3.839111328125000000e-02 -7.812500000000000000e-02 1.393890380859375000e-02 5.816650390625000000e-02 5.493164062500000000e-03 7.891845703125000000e-02 -4.702758789062500000e-02 4.947662353515625000e-03 2.270507812500000000e-02 -3.076171875000000000e-02 8.087158203125000000e-02 -5.545043945312500000e-02 5.072021484375000000e-02 -4.402160644531250000e-03 -8.929443359375000000e-02 -1.245880126953125000e-02 1.646423339843750000e-02 -8.605957031250000000e-03 -6.185913085937500000e-02 -3.292846679687500000e-02 8.404541015625000000e-02 -4.574584960937500000e-02 8.782958984375000000e-02 2.709960937500000000e-02 -6.130981445312500000e-02 -2.014160156250000000e-03 -4.849243164062500000e-02 -6.384277343750000000e-02 -8.789062500000000000e-03 1.797676086425781250e-04 5.181884765625000000e-02

2.278137207031250000e-02 -5.856323242187500000e-02 -2.049255371093750000e-02 6.994628906250000000e-02 -7.257080078125000000e-02 8.013916015625000000e-02 -6.204223632812500000e-02 -1.556396484375000000e-02 6.027221679687500000e-02 7.064819335937500000e-03 4.525756835937500000e-02 -6.451416015625000000e-02 -5.050659179687500000e-02 6.057739257812500000e-02 2.868652343750000000e-02 2.612304687500000000e-02 -2.810668945312500000e-02 -1.255035400390625000e-02 5.950927734375000000e-02 9.136962890625000000e-02 5.294799804687500000e-02 -5.822753906250000000e-02 7.830810546875000000e-02 -5.761718750000000000e-02 -6.475830078125000000e-02 1.802062988281250000e-02 1.591444015502929688e-05 8.587646484375000000e-02 8.416748046875000000e-02 -6.610107421875000000e-02 -1.872253417968750000e-02 9.086608886718750000e-03 1.736450195312500000e-02 -1.501464843750000000e-02 -7.836914062500000000e-02 -4.464721679687500000e-02 2.200317382812500000e-02 -6.457519531250000000e-02

7.867431640625000000e-02 7.122802734375000000e-02 -8.160400390625000000e-02 3.289794921875000000e-02 -6.805419921875000000e-02 4.644775390625000000e-02 -9.002685546875000000e-02 -3.512573242187500000e-02 1.979064941406250000e-02 2.947998046875000000e-02 -9.204101562500000000e-02 -8.392333984375000000e-03 -6.640625000000000000e-02 5.889892578125000000e-02 8.990478515625000000e-02 4.278564453125000000e-02 5.670166015625000000e-02 -3.875732421875000000e-03 -3.164672851562500000e-02 -2.490234375000000000e-02 4.585266113281250000e-03 6.408691406250000000e-03 -1.576232910156250000e-02 1.284599304199218750e-03 5.145263671875000000e-02 -3.894805908203125000e-03 -2.345275878906250000e-02 5.889892578125000000e-02 1.499938964843750000e-02 3.092956542968750000e-02 -3.948211669921875000e-03 -7.025146484375000000e-02 3.399658203125000000e-02 6.060791015625000000e-02 3.289794921875000000e-02 -9.094238281250000000e-02 -7.794189453125000000e-02 2.738952636718750000e-03

-4.794311523437500000e-02 3.143310546875000000e-02 -7.940673828125000000e-02 6.646728515625000000e-02 -6.878662109375000000e-02 -4.354858398437500000e-02 8.087158203125000000e-02 -3.366088867187500000e-02 -6.185913085937500000e-02 2.893066406250000000e-02 -4.373168945312500000e-02 8.233642578125000000e-02 -1.186370849609375000e-02 -8.892822265625000000e-02 9.332275390625000000e-02 -6.622314453125000000e-02 2.288818359375000000e-02 1.300048828125000000e-02 6.256103515625000000e-02 -8.361816406250000000e-02 3.167724609375000000e-02 -8.654785156250000000e-02 3.582763671875000000e-02 6.512451171875000000e-02 3.350830078125000000e-02 6.536865234375000000e-02 -7.684326171875000000e-02 2.380371093750000000e-02 -9.338378906250000000e-03 1.794433593750000000e-02 -4.354858398437500000e-02 -7.794189453125000000e-02 -4.943847656250000000e-03 5.181884765625000000e-02 5.950927734375000000e-02 6.024169921875000000e-02 6.036376953125000000e-02 -8.343505859375000000e-02

4.339599609375000000e-02 5.560302734375000000e-02 -8.489990234375000000e-02 -1.940917968750000000e-02 -2.032470703125000000e-02 -8.361816406250000000e-02 6.536865234375000000e-02 -3.295898437500000000e-03 2.435302734375000000e-02 -3.604125976562500000e-02 -2.197265625000000000e-02 -3.002929687500000000e-02 8.184814453125000000e-02 8.709716796875000000e-02 -4.943847656250000000e-03 4.669189453125000000e-02 -4.318237304687500000e-02 -1.904296875000000000e-02 -7.775878906250000000e-02 -2.600097656250000000e-02 -6.896972656250000000e-02 4.211425781250000000e-03 -3.274536132812500000e-02 -1.263427734375000000e-02 -6.494140625000000000e-02 -5.105590820312500000e-02 -8.654785156250000000e-02 -5.105590820312500000e-02 -5.676269531250000000e-03 6.280517578125000000e-02 -6.222534179687500000e-02 -2.032470703125000000e-02 3.985595703125000000e-02 -3.842163085937500000e-02 8.306884765625000000e-02 3.112792968750000000e-03 -1.646041870117187500e-03 8.148193359375000000e-02

4.714965820312500000e-02 4.754638671875000000e-02 -3.549194335937500000e-02 -5.047607421875000000e-02 9.014892578125000000e-02 -4.647827148437500000e-02 2.032470703125000000e-02 4.302978515625000000e-02 -9.075927734375000000e-02 6.408691406250000000e-02 7.400512695312500000e-04 7.263183593750000000e-02 -2.671813964843750000e-02 4.772949218750000000e-02 7.501220703125000000e-02 -7.287597656250000000e-02 5.819702148437500000e-02 -7.629394531250000000e-02 -5.120849609375000000e-02 7.171630859375000000e-02 2.702331542968750000e-02 7.421875000000000000e-02 -2.468872070312500000e-02 6.616210937500000000e-02 6.402587890625000000e-02 -3.405761718750000000e-02 7.952880859375000000e-02 5.032348632812500000e-02 5.877685546875000000e-02 6.118774414062500000e-03 -7.220458984375000000e-02 4.937744140625000000e-02 -7.778167724609375000e-03 1.719665527343750000e-02 2.436828613281250000e-02 5.035400390625000000e-02 5.603027343750000000e-02 4.949951171875000000e-02

-1.914501190185546875e-04 -6.584167480468750000e-03 7.379150390625000000e-02 5.047607421875000000e-02 -5.578613281250000000e-02 -7.080078125000000000e-02 -5.911254882812500000e-02 -6.768798828125000000e-02 -6.694793701171875000e-03 1.295471191406250000e-02 -5.487060546875000000e-02 6.112670898437500000e-02 8.264160156250000000e-02 8.563232421875000000e-02 5.850219726562500000e-02 3.735351562500000000e-02 3.622436523437500000e-02 -6.274414062500000000e-02 7.537841796875000000e-02 -1.849365234375000000e-02 8.563232421875000000e-02 -3.640747070312500000e-02 6.167602539062500000e-02 -7.568359375000000000e-02 -3.057861328125000000e-02 7.818603515625000000e-02 5.325317382812500000e-02 -4.501342773437500000e-02 8.343505859375000000e-02 -2.888488769531250000e-02 -8.416748046875000000e-02 -4.138183593750000000e-02 -5.699157714843750000e-03 3.297805786132812500e-03 8.343505859375000000e-02 -2.288818359375000000e-02 1.219940185546875000e-02 -3.128051757812500000e-02

6.656646728515625000e-03 8.233642578125000000e-02 -6.805419921875000000e-02 -2.212524414062500000e-03 9.191894531250000000e-02 -5.087280273437500000e-02 -5.966186523437500000e-02 -8.325195312500000000e-02 -7.458496093750000000e-02 -8.361816406250000000e-02 -2.287292480468750000e-02 8.221435546875000000e-02 4.672241210937500000e-02 6.568908691406250000e-03 2.917480468750000000e-02 7.867431640625000000e-02 6.829833984375000000e-02 5.075073242187500000e-02 -2.293395996093750000e-02 9.063720703125000000e-02 -9.292602539062500000e-03 7.904052734375000000e-02 7.104492187500000000e-02 -7.804870605468750000e-03 -3.402709960937500000e-02 -1.573181152343750000e-02 -8.764648437500000000e-02 6.573486328125000000e-02 -6.204223632812500000e-02 2.925109863281250000e-02 -9.368896484375000000e-02 -7.244873046875000000e-02 9.149169921875000000e-02 8.526611328125000000e-02 -2.618408203125000000e-02 -4.153442382812500000e-02 6.182861328125000000e-02 -7.202148437500000000e-03

-7.739257812500000000e-02 -2.215576171875000000e-02 -7.153320312500000000e-02 3.457641601562500000e-02 -1.564025878906250000e-02 4.974365234375000000e-02 -2.252197265625000000e-02 2.453613281250000000e-02 -5.288696289062500000e-02 -2.698898315429687500e-04 -4.699707031250000000e-02 -4.428100585937500000e-02 4.783630371093750000e-03 -8.050537109375000000e-02 7.196044921875000000e-02 8.160400390625000000e-02 4.119873046875000000e-02 7.501220703125000000e-02 -3.282546997070312500e-03 5.801391601562500000e-02 -1.496124267578125000e-02 -2.490234375000000000e-02 9.143066406250000000e-02 2.085876464843750000e-02 -1.776123046875000000e-02 -4.464721679687500000e-02 8.087158203125000000e-02 3.399658203125000000e-02 4.193115234375000000e-02 2.197265625000000000e-02 3.536987304687500000e-02 -1.498222351074218750e-03 5.413818359375000000e-02 -6.021118164062500000e-02 7.281494140625000000e-02 6.317138671875000000e-02 2.091979980468750000e-02 7.244873046875000000e-02

3.253173828125000000e-02 7.562255859375000000e-02 -6.933593750000000000e-02 -2.398681640625000000e-02 -6.384277343750000000e-02 -6.185913085937500000e-02 -7.098388671875000000e-02 2.783203125000000000e-02 2.746582031250000000e-02 -4.849243164062500000e-02 -5.068969726562500000e-02 7.672119140625000000e-02 -5.100250244140625000e-03 -2.618408203125000000e-02 1.391601562500000000e-02 -6.572723388671875000e-03 5.194091796875000000e-02 -7.318115234375000000e-02 -6.076812744140625000e-03 5.780029296875000000e-02 -8.691406250000000000e-02 -7.690429687500000000e-03 -2.383422851562500000e-02 -3.787231445312500000e-02 -4.519653320312500000e-02 5.401611328125000000e-02 6.219482421875000000e-02 -7.391357421875000000e-02 9.155273437500000000e-03 -6.530761718750000000e-02 4.241943359375000000e-02 1.611328125000000000e-02 7.354736328125000000e-02 7.012939453125000000e-02 6.256103515625000000e-02 -7.116699218750000000e-02 -7.849121093750000000e-02 3.753662109375000000e-02

-4.226684570312500000e-02 5.596923828125000000e-02 -7.226562500000000000e-02 -1.412963867187500000e-02 -4.596710205078125000e-03 -2.380371093750000000e-02 8.966064453125000000e-02 -6.713867187500000000e-02 8.624267578125000000e-02 -5.178833007812500000e-02 -4.318237304687500000e-02 4.754638671875000000e-02 4.888916015625000000e-02 2.749633789062500000e-02 -7.739257812500000000e-02 4.452514648437500000e-02 7.232666015625000000e-02 -6.860351562500000000e-02 -6.420898437500000000e-02 -5.874633789062500000e-02 6.225585937500000000e-03 -2.380371093750000000e-02 7.865905761718750000e-03 1.979064941406250000e-02 3.039550781250000000e-02 -1.427459716796875000e-02 -8.160400390625000000e-02 3.912353515625000000e-02 -2.490234375000000000e-02 -4.577636718750000000e-03 -7.514953613281250000e-03 -2.215576171875000000e-02 -8.782958984375000000e-02 -9.075927734375000000e-02 1.776123046875000000e-02 -2.069091796875000000e-02 5.303955078125000000e-02 5.157470703125000000e-02

3.878784179687500000e-02 6.076049804687500000e-02 -8.416748046875000000e-02 -3.473758697509765625e-04 8.520507812500000000e-02 3.900146484375000000e-02 -6.076049804687500000e-02 7.507324218750000000e-03 7.104492187500000000e-02 -7.556152343750000000e-02 -1.705932617187500000e-02 7.403564453125000000e-02 2.128601074218750000e-03 7.482910156250000000e-02 -7.507324218750000000e-02 2.677917480468750000e-02 -4.281616210937500000e-02 2.906799316406250000e-02 5.395507812500000000e-02 -7.324218750000000000e-02 -5.096435546875000000e-02 -8.636474609375000000e-02 -5.273437500000000000e-02 -2.182006835937500000e-02 7.281494140625000000e-02 6.188964843750000000e-02 3.613281250000000000e-02 -5.563354492187500000e-02 -1.543998718261718750e-03 -6.185913085937500000e-02 -9.307861328125000000e-02 8.258056640625000000e-02 1.902770996093750000e-02 2.893066406250000000e-02 -5.615234375000000000e-02 3.167724609375000000e-02 7.281494140625000000e-02 -6.628417968750000000e-02

-2.325439453125000000e-02 -8.673095703125000000e-02 -4.354858398437500000e-02 -7.995605468750000000e-02 2.229309082031250000e-02 -3.970336914062500000e-02 -4.977416992187500000e-02 8.660888671875000000e-02 -3.512573242187500000e-02 -8.804321289062500000e-03 -6.896972656250000000e-02 1.882934570312500000e-02 9.002685546875000000e-02 -4.006958007812500000e-02 5.487060546875000000e-02 3.692626953125000000e-02 -2.378845214843750000e-02 4.570007324218750000e-03 -3.512573242187500000e-02 -8.445739746093750000e-03 -8.581542968750000000e-02 -6.039428710937500000e-02 -3.353881835937500000e-02 1.644897460937500000e-02 -2.783203125000000000e-02 -1.064300537109375000e-02 8.917236328125000000e-02 -8.691406250000000000e-02 9.356689453125000000e-02 4.827880859375000000e-02 5.621337890625000000e-02 -2.160644531250000000e-02 4.058837890625000000e-02 -6.595611572265625000e-03 -5.361938476562500000e-02 9.039306640625000000e-02 1.283264160156250000e-02 8.123779296875000000e-02

7.836914062500000000e-02 8.990478515625000000e-02 1.538085937500000000e-02 -6.933593750000000000e-02 -3.573608398437500000e-02 8.709716796875000000e-02 -5.471801757812500000e-02 -6.439208984375000000e-02 -9.094238281250000000e-02 -3.881835937500000000e-02 9.069824218750000000e-02 -8.142089843750000000e-02 6.984710693359375000e-03 5.252075195312500000e-02 -7.666015625000000000e-02 9.118652343750000000e-02 -4.882812500000000000e-02 1.158714294433593750e-03 -7.037353515625000000e-02 -4.772949218750000000e-02 -3.131103515625000000e-02 -1.099395751953125000e-02 8.190917968750000000e-02 -1.150512695312500000e-02 -7.189941406250000000e-02 3.619384765625000000e-02 6.439208984375000000e-02 2.052307128906250000e-03 -7.324218750000000000e-03 4.827880859375000000e-02 1.644897460937500000e-02 -5.361938476562500000e-02 -6.021118164062500000e-02 -9.313964843750000000e-02 -6.188964843750000000e-02 -4.849243164062500000e-02 2.027511596679687500e-03 -7.043457031250000000e-02

9.075927734375000000e-02 -2.986145019531250000e-02 6.072998046875000000e-02 2.804565429687500000e-02 4.722595214843750000e-03 7.025146484375000000e-02 -7.006835937500000000e-02 2.014160156250000000e-02 8.312988281250000000e-02 1.972961425781250000e-02 -3.854370117187500000e-02 -9.803771972656250000e-03 7.232666015625000000e-02 -4.678344726562500000e-02 -6.250000000000000000e-02 -8.459472656250000000e-02 -9.204101562500000000e-02 6.347656250000000000e-02 -7.189941406250000000e-02 1.701354980468750000e-02 2.507019042968750000e-02 1.027679443359375000e-02 -6.744384765625000000e-02 -5.709838867187500000e-02 -5.819702148437500000e-02 4.565429687500000000e-02 6.530761718750000000e-03 -9.204101562500000000e-02 9.222412109375000000e-02 2.220153808593750000e-02 3.680419921875000000e-02 -7.580566406250000000e-02 -4.135131835937500000e-02 -1.208496093750000000e-02 3.988647460937500000e-02 -6.768798828125000000e-02 5.230712890625000000e-02 -1.552581787109375000e-02

-3.585815429687500000e-02 8.929443359375000000e-02 -3.475952148437500000e-02 4.132080078125000000e-02 -7.647705078125000000e-02 -3.219604492187500000e-02 5.841064453125000000e-02 1.812744140625000000e-02 3.912353515625000000e-02 -7.446289062500000000e-02 8.990478515625000000e-02 6.353759765625000000e-02 -6.604003906250000000e-02 -3.384399414062500000e-02 -6.494140625000000000e-02 8.966064453125000000e-02 8.880615234375000000e-02 2.416992187500000000e-02 7.427978515625000000e-02 -2.178955078125000000e-02 2.197265625000000000e-02 -5.526733398437500000e-02 -7.666015625000000000e-02 9.320068359375000000e-02 1.354980468750000000e-02 -4.830932617187500000e-02 -1.831054687500000000e-02 1.812744140625000000e-02 -5.270385742187500000e-02 8.148193359375000000e-02 -1.281738281250000000e-02 1.666259765625000000e-02 1.190185546875000000e-02 -3.329467773437500000e-02 -4.006958007812500000e-02 2.288818359375000000e-02 -5.783081054687500000e-02 -3.366088867187500000e-02

6.719970703125000000e-02 -2.014160156250000000e-03 -1.446533203125000000e-02 7.269287109375000000e-02 -5.288696289062500000e-02 -6.094360351562500000e-02 -1.885986328125000000e-02 3.497314453125000000e-02 1.959228515625000000e-02 8.807373046875000000e-02 -5.668640136718750000e-03 7.611083984375000000e-02 3.936767578125000000e-02 -6.732177734375000000e-02 -3.292846679687500000e-02 3.948974609375000000e-02 2.947998046875000000e-02 -6.561279296875000000e-03 -2.893066406250000000e-02 3.936767578125000000e-02 5.523681640625000000e-02 -1.446533203125000000e-02 6.805419921875000000e-02 5.633544921875000000e-02 -8.819580078125000000e-02 7.684326171875000000e-02 4.266357421875000000e-02 4.339599609375000000e-02 4.388427734375000000e-02 4.058837890625000000e-02 -6.039428710937500000e-02 -4.263305664062500000e-02 -7.153320312500000000e-02 -6.823730468750000000e-02 3.680419921875000000e-02 8.343505859375000000e-02 -1.428222656250000000e-02 3.289794921875000000e-02

5.075073242187500000e-02 4.749298095703125000e-03 2.781677246093750000e-02 -6.100463867187500000e-02 -8.795166015625000000e-02 1.227569580078125000e-02 5.999755859375000000e-02 -6.677246093750000000e-02 2.896118164062500000e-02 -3.131103515625000000e-02 7.019042968750000000e-02 6.365966796875000000e-02 -4.098510742187500000e-02 3.744506835937500000e-02 -2.700805664062500000e-02 -3.936767578125000000e-02 -6.713867187500000000e-02 7.177734375000000000e-02 -6.738281250000000000e-02 -8.599853515625000000e-02 -4.504394531250000000e-02 6.439208984375000000e-02 -5.017089843750000000e-02 8.316040039062500000e-03 7.873535156250000000e-03 7.373046875000000000e-02 3.454589843750000000e-02 -1.203155517578125000e-02 -4.666137695312500000e-02 6.774902343750000000e-02 -2.458190917968750000e-02 5.139160156250000000e-02 -4.483032226562500000e-02 3.533935546875000000e-02 -9.265136718750000000e-02 -5.947875976562500000e-02 -7.354736328125000000e-02 7.379150390625000000e-02

3.292846679687500000e-02 -6.970214843750000000e-02 -6.860351562500000000e-02 6.951904296875000000e-02 -2.026367187500000000e-02 2.416992187500000000e-02 -1.062011718750000000e-02 -8.306884765625000000e-02 -7.299804687500000000e-02 -4.721069335937500000e-02 -6.396484375000000000e-02 4.492187500000000000e-02 -6.228637695312500000e-02 -5.683898925781250000e-03 8.819580078125000000e-03 -5.691528320312500000e-02 7.641601562500000000e-02 -7.501220703125000000e-02 -8.569335937500000000e-02 -1.113891601562500000e-02 1.133728027343750000e-02 -8.874511718750000000e-02 8.807373046875000000e-02 -2.281188964843750000e-02 8.160400390625000000e-02 2.346801757812500000e-02 -4.406738281250000000e-02 3.494262695312500000e-02 -5.618286132812500000e-02 -4.107952117919921875e-04 8.825683593750000000e-02 8.441162109375000000e-02 3.790283203125000000e-02 -7.611083984375000000e-02 -3.735351562500000000e-02 4.632568359375000000e-02 -8.416748046875000000e-02 -4.281616210937500000e-02

4.495239257812500000e-02 -2.241516113281250000e-02 -6.970214843750000000e-02 -6.903076171875000000e-02 3.076171875000000000e-02 4.315185546875000000e-02 -8.050537109375000000e-02 -7.208251953125000000e-02 -3.970336914062500000e-02 3.747558593750000000e-02 4.687500000000000000e-02 -2.114868164062500000e-02 1.033782958984375000e-02 -7.220458984375000000e-02 -7.911682128906250000e-03 -5.470275878906250000e-03 7.202148437500000000e-02 5.465698242187500000e-02 4.064941406250000000e-02 4.342651367187500000e-02 -6.335449218750000000e-02 8.782958984375000000e-02 5.276489257812500000e-02 -1.450347900390625000e-02 4.632568359375000000e-02 5.874633789062500000e-02 -8.398437500000000000e-02 -3.198242187500000000e-02 8.740234375000000000e-02 -5.805969238281250000e-03 8.459472656250000000e-02 -5.458831787109375000e-03 -7.061767578125000000e-02 -6.256103515625000000e-02 -2.238464355468750000e-02 -9.295654296875000000e-02 -2.061462402343750000e-02 2.378845214843750000e-02

-4.995727539062500000e-02 -1.446533203125000000e-02 -6.039428710937500000e-02 4.315185546875000000e-02 5.487060546875000000e-02 -4.739379882812500000e-02 -7.690429687500000000e-03 6.658935546875000000e-02 3.424072265625000000e-02 7.855224609375000000e-02 2.510070800781250000e-02 6.427001953125000000e-02 8.599853515625000000e-02 -6.384277343750000000e-02 4.010009765625000000e-02 -7.830810546875000000e-02 -6.222534179687500000e-02 1.153564453125000000e-02 -8.087158203125000000e-02 -3.146362304687500000e-02 3.022766113281250000e-02 3.436279296875000000e-02 9.872436523437500000e-03 -2.197265625000000000e-02 -2.966308593750000000e-02 9.356689453125000000e-02 6.256103515625000000e-02 3.350830078125000000e-02 8.966064453125000000e-02 -5.126953125000000000e-03 -3.585815429687500000e-02 -2.929687500000000000e-02 1.611328125000000000e-02 7.122802734375000000e-02 7.672119140625000000e-02 -2.673339843750000000e-02 5.450439453125000000e-02 6.280517578125000000e-02

-3.784179687500000000e-02 6.072998046875000000e-02 -5.398559570312500000e-02 -4.681396484375000000e-02 -3.646850585937500000e-02 -5.471801757812500000e-02 -8.874511718750000000e-02 -4.501342773437500000e-02 -6.567382812500000000e-02 2.825927734375000000e-02 -6.323242187500000000e-02 -3.967285156250000000e-02 -1.910400390625000000e-02 4.345703125000000000e-02 2.761840820312500000e-02 5.557250976562500000e-02 -5.850219726562500000e-02 8.258056640625000000e-02 1.734924316406250000e-02 2.014160156250000000e-02 -8.782958984375000000e-02 -9.002685546875000000e-02 -8.155822753906250000e-03 6.130218505859375000e-03 -2.636718750000000000e-02 -6.988525390625000000e-02 8.184814453125000000e-02 6.500244140625000000e-02 -1.354980468750000000e-02 -3.323364257812500000e-02 -8.032226562500000000e-02 -3.768920898437500000e-02 -8.471679687500000000e-02 -4.904174804687500000e-02 2.047729492187500000e-02 6.229400634765625000e-03 2.581787109375000000e-02 6.097412109375000000e-02

