-5.783081054687500000e-02 -4.666137695312500000e-02 -3.604125976562500000e-02 -6.778717041015625000e-03 6.170654296875000000e-02 1.135253906250000000e-02 5.126953125000000000e-03 -6.604003906250000000e-02 -3.457641601562500000e-02 -1.849365234375000000e-02 5.291748046875000000e-02 6.976318359375000000e-02 7.873535156250000000e-03 4.083251953125000000e-02 -2.569198608398437500e-03 -1.904296875000000000e-02 -5.859375000000000000e-03 2.453613281250000000e-02 -8.343505859375000000e-02 3.363037109375000000e-02 -8.422851562500000000e-03 -6.878662109375000000e-02 6.097412109375000000e-02 -8.819580078125000000e-02 -8.050537109375000000e-02 -6.167602539062500000e-02 -9.149169921875000000e-02 -2.893066406250000000e-02 2.709960937500000000e-02 7.244873046875000000e-02 1.556396484375000000e-02 7.025146484375000000e-02 -5.563354492187500000e-02 3.533935546875000000e-02 6.549072265625000000e-02 -4.153442382812500000e-02 4.522705078125000000e-02 2.124023437500000000e-02

-4.025268554687500000e-02 -2.197265625000000000e-02 -7.865905761718750000e-03 8.331298828125000000e-02 7.537841796875000000e-02 -6.112670898437500000e-02 2.893066406250000000e-02 -1.098632812500000000e-03 -7.727050781250000000e-02 8.880615234375000000e-02 -8.673095703125000000e-02 -4.620361328125000000e-02 -6.951904296875000000e-02 7.794189453125000000e-02 -7.891845703125000000e-02 -2.044677734375000000e-02 -2.429199218750000000e-02 -5.572509765625000000e-02 -1.721191406250000000e-02 -1.554870605468750000e-02 -2.690124511718750000e-02 7.611083984375000000e-02 2.809143066406250000e-02 -1.448059082031250000e-02 -7.940673828125000000e-02 -3.515625000000000000e-02 -2.546691894531250000e-02 5.120849609375000000e-02 8.422851562500000000e-03 -7.604980468750000000e-02 -5.343627929687500000e-02 -3.674316406250000000e-02 4.669189453125000000e-02 -7.208251953125000000e-02 -2.951049804687500000e-02 -8.197021484375000000e-02 -6.365966796875000000e-02 -2.487182617187500000e-02

5.168914794921875000e-03 6.027221679687500000e-02 3.570556640625000000e-02 -3.540039062500000000e-02 -8.172607421875000000e-02 -7.522583007812500000e-03 -4.299926757812500000e-02 -4.995727539062500000e-02 6.695556640625000000e-02 1.564025878906250000e-02 -2.490234375000000000e-02 2.719116210937500000e-02 -2.183532714843750000e-02 -5.877685546875000000e-02 -7.629394531250000000e-02 6.567382812500000000e-02 -5.831909179687500000e-02 1.409912109375000000e-02 1.609802246093750000e-03 -1.206970214843750000e-02 -8.007812500000000000e-02 -2.568054199218750000e-02 8.673095703125000000e-02 -6.118774414062500000e-02 -5.361938476562500000e-02 -6.263732910156250000e-03 2.447509765625000000e-02 3.350830078125000000e-02 -3.604125976562500000e-02 9.118652343750000000e-02 -4.876708984375000000e-02 -8.459472656250000000e-02 3.433227539062500000e-02 2.323913574218750000e-02 -7.800292968750000000e-02 1.924133300781250000e-02 2.165222167968750000e-02 3.390502929687500000e-02

1.211547851562500000e-02 3.887176513671875000e-03 -2.069091796875000000e-02 -8.026123046875000000e-02 9.057617187500000000e-02 4.412841796875000000e-02 -9.887695312500000000e-03 2.655029296875000000e-02 6.213378906250000000e-02 -1.668930053710937500e-03 2.079772949218750000e-02 -6.274414062500000000e-02 -2.468872070312500000e-02 -1.632690429687500000e-03 -2.679443359375000000e-02 7.031250000000000000e-02 7.672119140625000000e-02 -8.673095703125000000e-02 -9.167480468750000000e-02 2.603149414062500000e-02 4.080200195312500000e-02 7.464599609375000000e-02 1.867675781250000000e-02 -9.948730468750000000e-03 2.380371093750000000e-03 3.005981445312500000e-03 -8.929443359375000000e-02 -1.576232910156250000e-02 -5.270385742187500000e-02 3.210449218750000000e-02 -6.237792968750000000e-02 -4.629516601562500000e-02 -3.347778320312500000e-02 -1.885986328125000000e-02 5.633544921875000000e-02 -4.061889648437500000e-02 -2.362060546875000000e-02 6.292724609375000000e-02

-4.171752929687500000e-02 3.509521484375000000e-02 2.746582031250000000e-02 7.135009765625000000e-02 7.635498046875000000e-02 4.376220703125000000e-02 7.171630859375000000e-02 7.324218750000000000e-04 7.720947265625000000e-02 9.039306640625000000e-02 -8.465576171875000000e-02 9.075927734375000000e-02 6.463623046875000000e-02 -4.174804687500000000e-02 -5.966186523437500000e-02 -9.112548828125000000e-02 1.155853271484375000e-02 4.864501953125000000e-02 -7.720947265625000000e-03 -7.098388671875000000e-02 -3.256225585937500000e-02 -2.125549316406250000e-02 -3.283691406250000000e-02 4.849243164062500000e-02 1.245117187500000000e-02 -7.611083984375000000e-02 9.002685546875000000e-02 5.706787109375000000e-02 -3.237915039062500000e-02 -2.053833007812500000e-02 9.295654296875000000e-02 -7.849121093750000000e-02 -8.123779296875000000e-02 1.648902893066406250e-03 -8.526611328125000000e-02 -9.020996093750000000e-02 1.216888427734375000e-03 2.655029296875000000e-02

-6.118774414062500000e-02 9.173583984375000000e-02 4.928588867187500000e-03 1.481628417968750000e-02 -6.854248046875000000e-02 7.611083984375000000e-02 -8.618164062500000000e-02 -4.080200195312500000e-02 -5.068969726562500000e-02 8.262634277343750000e-03 -5.160522460937500000e-02 8.880615234375000000e-02 -2.015686035156250000e-02 -3.793334960937500000e-02 -8.038330078125000000e-02 -5.883789062500000000e-02 -6.195068359375000000e-02 -8.581542968750000000e-02 -1.792907714843750000e-02 5.987548828125000000e-02 9.628295898437500000e-03 -3.457641601562500000e-02 7.171630859375000000e-02 8.618164062500000000e-02 -6.658935546875000000e-02 -5.627441406250000000e-02 -5.432128906250000000e-02 -4.959106445312500000e-02 4.901123046875000000e-02 -6.292724609375000000e-02 -9.320068359375000000e-02 -4.660034179687500000e-02 5.621337890625000000e-02 -9.332275390625000000e-02 -2.568054199218750000e-02 -6.695556640625000000e-02 1.110076904296875000e-02 -3.283691406250000000e-02

-8.160400390625000000e-02 -2.439880371093750000e-02 -5.581665039062500000e-02 4.312133789062500000e-02 -2.232360839843750000e-02 -7.299804687500000000e-02 3.399658203125000000e-02 2.856445312500000000e-02 -3.701782226562500000e-02 8.874511718750000000e-02 4.519653320312500000e-02 -6.945800781250000000e-02 2.133178710937500000e-02 4.257202148437500000e-02 3.372192382812500000e-02 -5.084228515625000000e-02 4.824829101562500000e-02 -4.516601562500000000e-02 -9.712219238281250000e-03 -2.769470214843750000e-02 -1.094818115234375000e-02 -5.700683593750000000e-02 -3.007507324218750000e-02 -2.859497070312500000e-02 -4.592895507812500000e-02 -8.142089843750000000e-02 -8.514404296875000000e-02 3.723144531250000000e-02 -8.239746093750000000e-03 3.256225585937500000e-02 4.798889160156250000e-03 -5.358886718750000000e-02 -2.911376953125000000e-02 2.600097656250000000e-02 2.713012695312500000e-02 -7.849121093750000000e-02 4.708862304687500000e-02 -1.487731933593750000e-02

4.757690429687500000e-02 6.695556640625000000e-02 4.559326171875000000e-02 7.165527343750000000e-02 5.505371093750000000e-02 -6.755828857421875000e-03 2.819824218750000000e-02 1.226806640625000000e-02 8.685302734375000000e-02 1.992797851562500000e-02 -7.928466796875000000e-02 -2.850341796875000000e-02 9.045410156250000000e-02 7.849121093750000000e-02 1.332855224609375000e-02 -2.812194824218750000e-02 1.820373535156250000e-02 9.295654296875000000e-02 -1.080322265625000000e-02 8.935546875000000000e-02 6.195068359375000000e-02 6.286621093750000000e-02 -7.305908203125000000e-02 8.068847656250000000e-02 7.690429687500000000e-03 -6.457519531250000000e-02 4.916381835937500000e-02 7.513427734375000000e-02 3.802490234375000000e-02 8.331298828125000000e-02 2.281188964843750000e-02 9.246826171875000000e-02 -2.070617675781250000e-02 -1.539611816406250000e-02 8.074951171875000000e-02 7.818603515625000000e-02 -1.788330078125000000e-02 -5.166625976562500000e-02

5.734252929687500000e-02 -3.835678100585937500e-03 -1.702880859375000000e-02 5.725097656250000000e-02 -3.915405273437500000e-02 -5.032348632812500000e-02 -9.075927734375000000e-02 -5.618286132812500000e-02 -5.136108398437500000e-02 -7.208251953125000000e-02 -7.690429687500000000e-02 6.874084472656250000e-03 -6.359863281250000000e-02 1.100921630859375000e-02 8.392333984375000000e-02 2.613830566406250000e-02 -8.416748046875000000e-02 -8.685302734375000000e-02 -2.958679199218750000e-02 1.847839355468750000e-02 9.100341796875000000e-02 2.447509765625000000e-02 -4.071044921875000000e-02 -5.902099609375000000e-02 3.533935546875000000e-02 -2.468872070312500000e-02 -6.054687500000000000e-02 -4.211425781250000000e-02 -4.281616210937500000e-02 2.258300781250000000e-02 7.489013671875000000e-02 -9.857177734375000000e-03 -1.206970214843750000e-02 7.708740234375000000e-02 -3.278732299804687500e-03 -5.160522460937500000e-02 1.681518554687500000e-02 -9.069824218750000000e-02

-9.167480468750000000e-02 -1.282691955566406250e-03 -5.490112304687500000e-02 -4.647827148437500000e-02 -3.692626953125000000e-03 4.962158203125000000e-02 2.124023437500000000e-02 -1.354980468750000000e-02 -4.757690429687500000e-02 -3.841400146484375000e-03 6.063842773437500000e-02 -1.629638671875000000e-02 2.002716064453125000e-03 6.658935546875000000e-02 -5.197143554687500000e-02 -6.185913085937500000e-02 -5.050659179687500000e-02 -8.013916015625000000e-02 -9.094238281250000000e-02 5.218505859375000000e-02 -3.768920898437500000e-02 2.307128906250000000e-02 -6.988525390625000000e-02 -2.470397949218750000e-02 3.253173828125000000e-02 8.673095703125000000e-02 4.119873046875000000e-02 5.731201171875000000e-02 7.086181640625000000e-02 6.390380859375000000e-02 -7.427978515625000000e-02 7.562255859375000000e-02 -8.422851562500000000e-03 -7.684326171875000000e-02 5.670166015625000000e-02 -4.244995117187500000e-02 8.587646484375000000e-02 4.718017578125000000e-02

-5.654907226562500000e-02 -3.219604492187500000e-02 -2.728271484375000000e-02 7.830810546875000000e-02 7.855224609375000000e-02 -8.415222167968750000e-03 4.943847656250000000e-03 -5.160522460937500000e-02 -1.901626586914062500e-03 4.635620117187500000e-02 -3.912353515625000000e-02 -6.695556640625000000e-02 3.900146484375000000e-02 -1.023101806640625000e-02 3.656005859375000000e-02 2.605438232421875000e-03 8.380126953125000000e-02 -1.059722900390625000e-02 4.306030273437500000e-02 -8.325195312500000000e-02 5.181884765625000000e-02 5.194091796875000000e-02 -1.980590820312500000e-02 8.367919921875000000e-02 -8.746337890625000000e-02 -2.763366699218750000e-02 5.514526367187500000e-02 -8.581542968750000000e-02 -8.489990234375000000e-02 -5.197143554687500000e-02 9.039306640625000000e-02 2.906799316406250000e-02 -8.123779296875000000e-02 -2.215576171875000000e-02 7.318115234375000000e-02 7.720947265625000000e-02 -7.867431640625000000e-02 -7.171630859375000000e-02

3.643798828125000000e-02 6.591796875000000000e-03 -7.080078125000000000e-02 -8.215332031250000000e-02 -8.837890625000000000e-02 4.095458984375000000e-02 7.891845703125000000e-02 -7.482910156250000000e-02 -6.860351562500000000e-02 1.190185546875000000e-02 8.221435546875000000e-02 -2.618408203125000000e-02 -6.823730468750000000e-02 -6.204223632812500000e-02 2.142333984375000000e-02 -8.123779296875000000e-02 2.178955078125000000e-02 -4.830932617187500000e-02 -1.812744140625000000e-02 -3.640747070312500000e-02 3.314208984375000000e-02 1.959228515625000000e-02 7.745361328125000000e-02 5.676269531250000000e-03 3.656005859375000000e-02 8.917236328125000000e-02 8.673095703125000000e-02 -4.428100585937500000e-02 1.739501953125000000e-02 8.239746093750000000e-03 9.356689453125000000e-02 -3.112792968750000000e-02 5.401611328125000000e-02 6.610107421875000000e-02 -5.435180664062500000e-02 7.318115234375000000e-02 4.577636718750000000e-03 6.610107421875000000e-02

-3.250122070312500000e-02 -9.057617187500000000e-02 3.692626953125000000e-02 8.477783203125000000e-02 -6.919860839843750000e-03 2.235412597656250000e-02 -8.856201171875000000e-02 4.028320312500000000e-03 -5.438232421875000000e-02 1.339721679687500000e-02 -2.743530273437500000e-02 9.075927734375000000e-02 7.464599609375000000e-02 8.001708984375000000e-02 -5.068969726562500000e-02 6.198120117187500000e-02 -4.203796386718750000e-03 -8.026123046875000000e-02 7.775878906250000000e-02 5.683898925781250000e-03 -6.665039062500000000e-02 8.154296875000000000e-02 8.453369140625000000e-02 3.665924072265625000e-03 -3.662109375000000000e-03 9.063720703125000000e-02 4.061889648437500000e-02 6.585693359375000000e-02 6.842041015625000000e-02 8.361816406250000000e-02 3.479003906250000000e-02 -7.299804687500000000e-02 6.033325195312500000e-02 5.523681640625000000e-02 -8.056640625000000000e-03 -2.233886718750000000e-02 6.439208984375000000e-02 -5.453491210937500000e-02

-2.763366699218750000e-02 -4.208374023437500000e-02 5.487060546875000000e-02 -4.650878906250000000e-02 -6.481933593750000000e-02 8.697509765625000000e-02 2.307128906250000000e-02 9.246826171875000000e-02 2.188110351562500000e-02 -2.180480957031250000e-02 9.051513671875000000e-02 5.215454101562500000e-02 -4.400634765625000000e-02 -1.381683349609375000e-02 3.204345703125000000e-02 -6.176757812500000000e-02 -8.323669433593750000e-03 5.136108398437500000e-02 -1.406097412109375000e-02 7.977294921875000000e-02 -2.474975585937500000e-02 -3.805541992187500000e-02 6.618499755859375000e-03 8.064270019531250000e-03 6.976318359375000000e-02 -5.999755859375000000e-02 -7.647705078125000000e-02 9.173583984375000000e-02 -1.283645629882812500e-03 -6.793212890625000000e-02 6.439208984375000000e-02 7.415771484375000000e-02 -4.391479492187500000e-02 -9.259033203125000000e-02 3.186035156250000000e-02 -6.457519531250000000e-02 8.917236328125000000e-02 -7.202148437500000000e-02

-7.446289062500000000e-02 4.791259765625000000e-02 7.464599609375000000e-02 3.839111328125000000e-02 -2.526855468750000000e-02 -6.329345703125000000e-02 3.112792968750000000e-03 -6.057739257812500000e-02 7.537841796875000000e-02 8.258056640625000000e-02 -7.263183593750000000e-02 4.937744140625000000e-02 7.427978515625000000e-02 -1.959228515625000000e-02 -1.281738281250000000e-03 -3.952026367187500000e-02 4.669189453125000000e-02 -6.256103515625000000e-02 5.010986328125000000e-02 1.483154296875000000e-02 -7.061767578125000000e-02 -4.446411132812500000e-02 3.643798828125000000e-02 2.215576171875000000e-02 -7.794189453125000000e-02 -1.007080078125000000e-02 5.767822265625000000e-02 -2.764892578125000000e-02 -6.805419921875000000e-02 4.193115234375000000e-02 6.475830078125000000e-02 1.464843750000000000e-02 -8.782958984375000000e-02 4.974365234375000000e-02 9.021759033203125000e-04 -1.483154296875000000e-02 8.416748046875000000e-02 9.136962890625000000e-02

6.884765625000000000e-02 -4.922485351562500000e-02 -9.222412109375000000e-02 -9.185791015625000000e-02 1.403045654296875000e-02 6.585693359375000000e-02 6.512451171875000000e-02 -8.782958984375000000e-02 5.104064941406250000e-03 6.909179687500000000e-02 7.092285156250000000e-02 -4.089355468750000000e-02 5.813598632812500000e-02 4.010009765625000000e-02 -3.991699218750000000e-02 -6.463623046875000000e-02 -4.959106445312500000e-02 -5.588531494140625000e-03 8.941650390625000000e-02 4.928588867187500000e-02 7.922363281250000000e-02 6.903076171875000000e-02 -4.458618164062500000e-02 3.497314453125000000e-02 -6.130981445312500000e-02 2.405166625976562500e-03 5.334472656250000000e-02 6.587982177734375000e-03 -6.695556640625000000e-02 -2.888488769531250000e-02 5.587768554687500000e-02 8.966064453125000000e-02 6.390380859375000000e-02 4.203796386718750000e-03 1.863098144531250000e-02 -6.402587890625000000e-02 -8.197021484375000000e-02 -4.281616210937500000e-02

1.556396484375000000e-02 -1.611328125000000000e-02 1.246643066406250000e-02 1.867675781250000000e-02 -5.581665039062500000e-02 -4.702758789062500000e-02 5.780029296875000000e-02 8.880615234375000000e-02 -4.940795898437500000e-02 -3.094482421875000000e-02 2.014160156250000000e-02 -1.374816894531250000e-02 5.889892578125000000e-02 -7.464599609375000000e-02 -2.526855468750000000e-02 1.098632812500000000e-02 -2.142333984375000000e-02 3.326416015625000000e-02 6.988525390625000000e-02 -1.849365234375000000e-02 8.514404296875000000e-02 -3.146362304687500000e-02 6.939697265625000000e-02 2.616882324218750000e-02 -9.039306640625000000e-02 9.027099609375000000e-02 -3.530883789062500000e-02 -1.318359375000000000e-02 -5.801391601562500000e-02 6.878662109375000000e-02 7.694244384765625000e-03 -8.801269531250000000e-02 -5.947875976562500000e-02 -3.567504882812500000e-02 -6.167602539062500000e-02 7.415771484375000000e-02 1.135253906250000000e-02 -5.142211914062500000e-03

7.617187500000000000e-02 4.970550537109375000e-03 -7.775878906250000000e-02 6.222534179687500000e-02 6.549072265625000000e-02 -1.482391357421875000e-02 -5.676269531250000000e-03 4.278564453125000000e-02 5.136108398437500000e-02 -8.581542968750000000e-02 -7.745361328125000000e-02 -8.013916015625000000e-02 2.046203613281250000e-02 -8.758544921875000000e-02 2.148437500000000000e-02 -8.563232421875000000e-02 -7.781982421875000000e-03 -8.593750000000000000e-02 3.488159179687500000e-02 6.463623046875000000e-02 -1.325225830078125000e-02 -8.874511718750000000e-02 7.299804687500000000e-02 -1.597595214843750000e-02 2.380371093750000000e-02 7.098388671875000000e-02 6.866455078125000000e-02 -4.327392578125000000e-02 5.621337890625000000e-02 8.178710937500000000e-02 9.155273437500000000e-02 1.116943359375000000e-02 4.116821289062500000e-02 -2.201080322265625000e-03 -6.021118164062500000e-02 -3.039550781250000000e-02 6.744384765625000000e-03 -7.116699218750000000e-02

-6.397247314453125000e-03 3.912353515625000000e-02 6.951904296875000000e-02 -5.252075195312500000e-02 7.025146484375000000e-02 -5.746459960937500000e-02 7.635498046875000000e-02 -8.673095703125000000e-02 -7.427978515625000000e-02 -2.764892578125000000e-02 -6.229400634765625000e-03 6.329345703125000000e-02 -2.085876464843750000e-02 -1.797485351562500000e-02 -3.402709960937500000e-02 8.489990234375000000e-02 -1.187133789062500000e-02 1.007080078125000000e-02 -3.347778320312500000e-02 -4.135131835937500000e-02 -1.849365234375000000e-02 9.149169921875000000e-02 -4.061889648437500000e-02 2.162170410156250000e-02 -2.032470703125000000e-02 -9.130859375000000000e-02 7.232666015625000000e-02 1.025390625000000000e-02 -8.489990234375000000e-02 -5.142211914062500000e-02 -7.830810546875000000e-02 8.526611328125000000e-02 -2.201080322265625000e-03 6.353759765625000000e-02 -4.995727539062500000e-02 2.124023437500000000e-02 -3.256225585937500000e-02 2.874755859375000000e-02

-6.402587890625000000e-02 1.538085937500000000e-02 9.155273437500000000e-03 2.709960937500000000e-02 6.549072265625000000e-02 7.940673828125000000e-02 8.367919921875000000e-02 3.900146484375000000e-02 2.655029296875000000e-02 -8.251953125000000000e-02 -2.553939819335937500e-03 8.990478515625000000e-02 -3.567504882812500000e-02 6.500244140625000000e-02 -7.281494140625000000e-02 -5.398559570312500000e-02 -5.676269531250000000e-03 3.002929687500000000e-02 -1.226806640625000000e-02 5.987548828125000000e-02 -2.984619140625000000e-02 6.939697265625000000e-02 8.111572265625000000e-02 6.072998046875000000e-02 2.398681640625000000e-02 4.058837890625000000e-02 -6.002807617187500000e-02 6.353759765625000000e-02 -5.947875976562500000e-02 -2.525329589843750000e-03 -7.446289062500000000e-02 -9.295654296875000000e-02 7.757568359375000000e-02 1.483154296875000000e-02 4.486083984375000000e-02 4.302978515625000000e-02 -7.116699218750000000e-02 4.559326171875000000e-02

5.743408203125000000e-02 -2.655029296875000000e-02 -3.897094726562500000e-02 5.255126953125000000e-02 -9.039306640625000000e-02 4.132080078125000000e-02 2.252197265625000000e-02 7.171630859375000000e-02 -2.398681640625000000e-02 -5.325317382812500000e-02 3.717041015625000000e-02 2.600097656250000000e-02 3.790283203125000000e-02 -5.453491210937500000e-02 7.537841796875000000e-02 -1.702880859375000000e-02 -2.197265625000000000e-02 5.377197265625000000e-02 -8.343505859375000000e-02 4.888916015625000000e-02 5.523681640625000000e-02 -8.782958984375000000e-02 -1.849365234375000000e-02 -7.318115234375000000e-02 -6.622314453125000000e-02 6.353759765625000000e-02 -4.757690429687500000e-02 -1.354980468750000000e-02 -7.739257812500000000e-02 -6.130981445312500000e-02 -3.057861328125000000e-02 7.171630859375000000e-02 -3.732299804687500000e-02 -8.801269531250000000e-02 -5.545043945312500000e-02 6.866455078125000000e-02 8.599853515625000000e-02 9.145736694335937500e-04

6.835937500000000000e-02 -2.197265625000000000e-02 -8.801269531250000000e-02 8.453369140625000000e-02 2.714538574218750000e-02 -6.149291992187500000e-02 5.683898925781250000e-03 6.573486328125000000e-02 -1.860046386718750000e-02 -2.537536621093750000e-02 7.147216796875000000e-02 6.811523437500000000e-02 -2.906799316406250000e-02 3.836059570312500000e-02 -2.536010742187500000e-02 3.466796875000000000e-02 4.553222656250000000e-02 -1.939392089843750000e-02 -9.094238281250000000e-02 6.781005859375000000e-02 -9.033203125000000000e-03 8.435058593750000000e-02 -1.117706298828125000e-02 -8.544921875000000000e-02 8.746337890625000000e-02 7.415771484375000000e-02 2.668762207031250000e-02 -2.662658691406250000e-02 -2.966308593750000000e-02 -4.666137695312500000e-02 -3.436279296875000000e-02 8.947753906250000000e-02 -1.337051391601562500e-03 -4.940795898437500000e-02 8.593750000000000000e-02 3.753662109375000000e-02 7.513427734375000000e-02 -4.998779296875000000e-02

5.450439453125000000e-02 -3.732299804687500000e-02 -1.152801513671875000e-02 4.565429687500000000e-02 -5.551147460937500000e-02 -2.288818359375000000e-02 -6.896972656250000000e-02 -4.794311523437500000e-02 4.051208496093750000e-03 2.597045898437500000e-02 1.221466064453125000e-02 8.201599121093750000e-03 3.028869628906250000e-02 -2.232360839843750000e-02 -6.188964843750000000e-02 3.121948242187500000e-02 -4.110717773437500000e-02 3.976440429687500000e-02 6.057739257812500000e-02 -8.618164062500000000e-02 2.890014648437500000e-02 2.928161621093750000e-02 -6.854248046875000000e-02 6.616210937500000000e-02 -6.823730468750000000e-02 -4.336547851562500000e-02 -5.908203125000000000e-02 -6.149291992187500000e-02 -8.215332031250000000e-02 5.917358398437500000e-02 -9.057617187500000000e-02 -3.918457031250000000e-02 -6.412506103515625000e-03 1.263427734375000000e-02 -7.336425781250000000e-02 -9.350585937500000000e-02 -2.204895019531250000e-02 -7.702636718750000000e-02

-1.184844970703125000e-02 -3.274536132812500000e-02 3.936767578125000000e-02 -6.970214843750000000e-02 -4.470825195312500000e-02 -2.217292785644531250e-05 -4.501342773437500000e-02 -2.197265625000000000e-02 -5.218505859375000000e-02 -5.023193359375000000e-02 4.208374023437500000e-02 -6.994628906250000000e-02 3.152465820312500000e-02 -7.067871093750000000e-02 1.377868652343750000e-02 -4.745483398437500000e-02 -2.072143554687500000e-02 -3.271484375000000000e-02 -1.318359375000000000e-02 5.679321289062500000e-02 -3.570556640625000000e-02 3.910064697265625000e-03 8.905029296875000000e-02 6.149291992187500000e-02 -7.849121093750000000e-02 1.053619384765625000e-02 -7.629394531250000000e-02 -4.519653320312500000e-02 -4.577636718750000000e-03 -8.868408203125000000e-02 1.117706298828125000e-02 -2.270507812500000000e-02 3.080368041992187500e-03 -3.274536132812500000e-02 7.971191406250000000e-02 1.428222656250000000e-02 3.582763671875000000e-02 -7.794189453125000000e-02

-1.223754882812500000e-02 -1.190185546875000000e-02 -3.182983398437500000e-02 -7.720947265625000000e-02 2.134704589843750000e-02 5.267333984375000000e-02 -4.995727539062500000e-02 -4.354858398437500000e-02 -1.416015625000000000e-02 6.842041015625000000e-02 8.496093750000000000e-02 -6.640625000000000000e-02 3.540039062500000000e-02 -2.491760253906250000e-02 5.950927734375000000e-02 7.305908203125000000e-02 -4.604339599609375000e-03 -3.640747070312500000e-02 -1.051330566406250000e-02 8.270263671875000000e-02 4.901123046875000000e-02 -7.171630859375000000e-02 7.144927978515625000e-03 -3.349304199218750000e-03 8.197021484375000000e-02 -5.043029785156250000e-03 5.990600585937500000e-02 -7.025146484375000000e-02 2.691650390625000000e-02 1.979064941406250000e-02 -8.856201171875000000e-02 6.365966796875000000e-02 -8.984375000000000000e-02 6.170654296875000000e-02 5.007934570312500000e-02 -8.526611328125000000e-02 5.047607421875000000e-02 8.441162109375000000e-02

7.904052734375000000e-02 2.270507812500000000e-02 9.063720703125000000e-02 8.843994140625000000e-02 8.477783203125000000e-02 6.658935546875000000e-02 5.401611328125000000e-02 9.283447265625000000e-02 2.563476562500000000e-03 -2.581787109375000000e-02 7.940673828125000000e-02 6.512451171875000000e-02 -6.805419921875000000e-02 -6.494140625000000000e-02 -3.274536132812500000e-02 -1.209259033203125000e-02 1.537322998046875000e-02 7.867431640625000000e-02 -8.709716796875000000e-02 8.966064453125000000e-02 -9.185791015625000000e-02 9.149169921875000000e-02 5.181884765625000000e-02 -5.819702148437500000e-02 2.508544921875000000e-02 2.087402343750000000e-02 4.193115234375000000e-02 -1.083374023437500000e-03 -9.222412109375000000e-02 -3.112792968750000000e-02 -3.677368164062500000e-02 -8.654785156250000000e-02 8.306884765625000000e-02 -8.288574218750000000e-02 5.072021484375000000e-02 2.435302734375000000e-02 7.281494140625000000e-02 2.270507812500000000e-02

5.010986328125000000e-02 8.270263671875000000e-02 -1.391601562500000000e-02 6.463623046875000000e-02 -4.669189453125000000e-02 5.743408203125000000e-02 -5.014038085937500000e-02 -6.896972656250000000e-02 5.688476562500000000e-02 1.832008361816406250e-03 2.198791503906250000e-02 2.691650390625000000e-02 1.373291015625000000e-02 -7.775878906250000000e-02 -4.870605468750000000e-02 2.693176269531250000e-02 4.051208496093750000e-03 -9.057617187500000000e-02 9.210205078125000000e-02 -3.295898437500000000e-03 -5.767822265625000000e-02 3.002929687500000000e-02 9.283447265625000000e-02 5.587768554687500000e-02 7.537841796875000000e-02 2.435302734375000000e-02 -6.167602539062500000e-02 8.197021484375000000e-02 -1.776123046875000000e-02 -6.768798828125000000e-02 -8.613586425781250000e-03 3.179931640625000000e-02 -2.856445312500000000e-02 -3.164672851562500000e-02 7.881164550781250000e-03 7.873535156250000000e-03 -8.288574218750000000e-02 -2.252197265625000000e-02

6.915283203125000000e-02 -5.654907226562500000e-02 -7.263183593750000000e-02 -4.830932617187500000e-02 -7.511138916015625000e-03 -4.776000976562500000e-02 5.181884765625000000e-02 4.681396484375000000e-02 1.329421997070312500e-03 8.184814453125000000e-02 -6.988525390625000000e-02 7.641601562500000000e-02 -3.123474121093750000e-02 -8.880615234375000000e-03 -4.708862304687500000e-02 5.114746093750000000e-02 8.941650390625000000e-02 1.765441894531250000e-02 -2.207946777343750000e-02 -5.419921875000000000e-02 3.527832031250000000e-02 3.231811523437500000e-02 4.077148437500000000e-02 5.694580078125000000e-02 1.300048828125000000e-02 5.065917968750000000e-02 3.759384155273437500e-03 -5.581665039062500000e-02 2.929687500000000000e-02 -3.341674804687500000e-02 9.590148925781250000e-03 -2.117919921875000000e-02 -3.256225585937500000e-02 -2.691650390625000000e-02 -2.882385253906250000e-02 -6.167602539062500000e-02 7.633209228515625000e-03 1.304626464843750000e-02

1.922607421875000000e-02 -5.050659179687500000e-02 6.878662109375000000e-02 8.441162109375000000e-02 -8.551025390625000000e-02 -6.512451171875000000e-02 -1.281738281250000000e-02 -8.251953125000000000e-02 1.180267333984375000e-02 7.464599609375000000e-02 5.816650390625000000e-02 -8.728027343750000000e-02 6.988525390625000000e-02 -4.574584960937500000e-02 7.904052734375000000e-02 7.891845703125000000e-02 -8.325195312500000000e-02 3.912353515625000000e-02 -2.088928222656250000e-02 5.337524414062500000e-02 5.145263671875000000e-02 -4.116821289062500000e-02 4.275512695312500000e-02 4.339599609375000000e-02 5.621337890625000000e-02 -5.453491210937500000e-02 -6.329345703125000000e-02 2.197265625000000000e-02 9.210205078125000000e-02 7.464599609375000000e-02 -7.175445556640625000e-03 -4.281616210937500000e-02 3.002929687500000000e-02 2.984619140625000000e-02 9.330749511718750000e-03 2.178955078125000000e-02 5.731201171875000000e-02 -2.911376953125000000e-02

7.385253906250000000e-02 2.325439453125000000e-02 -2.801513671875000000e-02 -4.003906250000000000e-02 5.191040039062500000e-02 2.490234375000000000e-02 -8.819580078125000000e-02 -8.819580078125000000e-02 -6.744384765625000000e-02 -7.583618164062500000e-03 -5.810546875000000000e-02 3.543090820312500000e-02 4.383087158203125000e-03 6.427001953125000000e-02 3.679275512695312500e-03 3.576660156250000000e-02 -4.904174804687500000e-02 -8.837890625000000000e-02 9.020996093750000000e-02 3.140258789062500000e-02 4.669189453125000000e-03 -3.402709960937500000e-02 -2.311706542968750000e-02 -5.419921875000000000e-02 -5.325317382812500000e-02 2.082824707031250000e-02 2.515792846679687500e-03 -1.205444335937500000e-02 3.131103515625000000e-02 -8.984375000000000000e-02 -4.360961914062500000e-02 6.903076171875000000e-02 6.732177734375000000e-02 1.611328125000000000e-02 -7.653808593750000000e-02 -7.189941406250000000e-02 4.815673828125000000e-02 2.452087402343750000e-02

-5.563354492187500000e-02 -8.764648437500000000e-02 -9.350585937500000000e-02 8.377075195312500000e-03 -2.478027343750000000e-02 -6.640625000000000000e-02 -2.325439453125000000e-02 -4.244995117187500000e-02 -6.402587890625000000e-02 -5.368041992187500000e-02 -2.853393554687500000e-02 -4.970550537109375000e-03 -1.591491699218750000e-02 -3.451108932495117188e-05 8.734130859375000000e-02 5.456542968750000000e-02 -6.292724609375000000e-02 2.539062500000000000e-02 -1.425743103027343750e-03 -4.666137695312500000e-02 -8.453369140625000000e-02 -5.343627929687500000e-02 -3.628540039062500000e-02 -9.057617187500000000e-02 -3.842163085937500000e-02 -6.317138671875000000e-02 -1.779174804687500000e-02 -8.837890625000000000e-02 1.043701171875000000e-02 5.004882812500000000e-02 2.359390258789062500e-03 7.934570312500000000e-02 -6.970214843750000000e-02 2.193450927734375000e-03 3.515625000000000000e-02 7.867431640625000000e-02 8.380126953125000000e-02 6.311035156250000000e-02

-2.032470703125000000e-02 7.414817810058593750e-04 3.519058227539062500e-04 -5.984497070312500000e-02 -5.691528320312500000e-02 -4.409790039062500000e-02 4.449462890625000000e-02 -2.087402343750000000e-02 5.291748046875000000e-02 -5.581665039062500000e-02 7.598876953125000000e-02 6.759643554687500000e-03 4.168701171875000000e-02 2.471923828125000000e-02 7.663726806640625000e-03 3.472900390625000000e-02 8.843994140625000000e-02 -3.915405273437500000e-02 -4.354858398437500000e-02 7.574462890625000000e-02 7.745361328125000000e-02 8.197021484375000000e-02 2.177429199218750000e-02 8.782958984375000000e-02 1.812744140625000000e-02 -7.281494140625000000e-02 3.546142578125000000e-02 -6.842041015625000000e-02 1.171875000000000000e-02 6.719970703125000000e-02 -3.860473632812500000e-02 -7.409667968750000000e-02 -3.475952148437500000e-02 -1.959228515625000000e-02 -1.261901855468750000e-02 7.720947265625000000e-02 -9.057617187500000000e-02 -3.311157226562500000e-02

4.901123046875000000e-02 1.804828643798828125e-04 2.728271484375000000e-02 8.160400390625000000e-02 -6.130981445312500000e-02 -9.174346923828125000e-04 2.050781250000000000e-02 1.776123046875000000e-02 -6.149291992187500000e-02 8.587646484375000000e-02 6.475830078125000000e-02 1.922607421875000000e-02 -5.032348632812500000e-02 1.611328125000000000e-02 -7.025146484375000000e-02 -5.252075195312500000e-02 2.252197265625000000e-02 -1.433372497558593750e-03 -7.720947265625000000e-02 -2.050781250000000000e-02 -5.984497070312500000e-02 1.281738281250000000e-02 -1.355743408203125000e-02 5.767822265625000000e-02 -9.094238281250000000e-02 -3.988647460937500000e-02 9.112548828125000000e-02 3.240966796875000000e-02 -5.087280273437500000e-02 -5.160522460937500000e-02 6.768798828125000000e-02 -5.984497070312500000e-02 -2.471923828125000000e-02 -7.281494140625000000e-02 5.987548828125000000e-02 4.681396484375000000e-02 -7.629394531250000000e-02 -6.750488281250000000e-02

-3.344726562500000000e-02 7.873535156250000000e-03 -7.281494140625000000e-02 -8.654785156250000000e-02 -4.553222656250000000e-02 1.153564453125000000e-02 6.878662109375000000e-02 -4.666137695312500000e-02 -5.935668945312500000e-02 -8.819580078125000000e-02 5.242919921875000000e-02 2.593994140625000000e-02 2.691650390625000000e-02 -1.410675048828125000e-02 -1.289367675781250000e-02 4.437255859375000000e-02 4.364013671875000000e-02 -7.403564453125000000e-02 -8.660888671875000000e-02 -2.053833007812500000e-02 -8.013916015625000000e-02 3.253173828125000000e-02 -6.420898437500000000e-02 6.412506103515625000e-03 2.435302734375000000e-02 2.571105957031250000e-02 -5.828857421875000000e-02 3.732299804687500000e-02 -1.153564453125000000e-02 2.026367187500000000e-02 -1.765441894531250000e-02 2.534484863281250000e-02 -9.277343750000000000e-02 6.060791015625000000e-02 1.184844970703125000e-02 3.643798828125000000e-02 -8.209228515625000000e-03 -5.166625976562500000e-02

2.384948730468750000e-02 -3.787231445312500000e-02 9.136962890625000000e-02 -1.206970214843750000e-02 -8.142089843750000000e-02 -5.462646484375000000e-03 8.258056640625000000e-02 -7.995605468750000000e-02 9.075927734375000000e-02 4.055786132812500000e-02 -1.209259033203125000e-03 4.125976562500000000e-02 6.469726562500000000e-02 -8.995056152343750000e-03 -4.138183593750000000e-02 -1.791381835937500000e-02 6.958007812500000000e-02 7.019042968750000000e-02 -1.840209960937500000e-02 3.387451171875000000e-02 -7.427978515625000000e-02 6.549072265625000000e-02 -5.505371093750000000e-02 1.960754394531250000e-02 -4.647827148437500000e-02 1.620483398437500000e-02 7.489013671875000000e-02 5.706787109375000000e-02 -4.556274414062500000e-02 3.204345703125000000e-02 -4.971313476562500000e-02 7.049560546875000000e-02 1.244354248046875000e-02 6.683349609375000000e-02 6.988525390625000000e-02 -7.629394531250000000e-02 1.771545410156250000e-02 -8.618164062500000000e-02

-5.343627929687500000e-02 3.134155273437500000e-02 1.249313354492187500e-03 6.164550781250000000e-02 3.601074218750000000e-02 8.990478515625000000e-02 -7.684326171875000000e-02 -3.494262695312500000e-02 3.292846679687500000e-02 -4.117488861083984375e-04 -5.529785156250000000e-02 1.356506347656250000e-02 3.747558593750000000e-02 4.174804687500000000e-02 -6.076049804687500000e-02 2.011108398437500000e-02 4.730224609375000000e-02 3.793334960937500000e-02 8.331298828125000000e-02 5.966186523437500000e-02 4.598999023437500000e-02 1.202392578125000000e-02 -7.061767578125000000e-02 5.200195312500000000e-02 -2.380371093750000000e-03 -4.974365234375000000e-02 -1.683044433593750000e-02 -9.025573730468750000e-03 9.147644042968750000e-03 4.360961914062500000e-02 -4.776000976562500000e-02 -6.475830078125000000e-02 9.039306640625000000e-02 3.753662109375000000e-02 -2.128601074218750000e-02 5.255126953125000000e-02 3.149414062500000000e-02 3.265380859375000000e-02

-4.721069335937500000e-02 7.708740234375000000e-02 6.146240234375000000e-02 -3.475952148437500000e-02 3.387451171875000000e-02 -5.856323242187500000e-02 9.155273437500000000e-03 4.412841796875000000e-02 -4.244995117187500000e-02 5.474853515625000000e-02 -7.427978515625000000e-02 -2.202987670898437500e-03 8.590698242187500000e-03 -5.691528320312500000e-02 -8.691406250000000000e-02 4.425048828125000000e-02 3.460693359375000000e-02 -4.757690429687500000e-02 8.367919921875000000e-02 -1.466369628906250000e-02 -1.629638671875000000e-02 6.207275390625000000e-02 2.214050292968750000e-02 3.650665283203125000e-03 1.043701171875000000e-02 3.680419921875000000e-02 -7.940673828125000000e-02 6.866455078125000000e-02 8.587646484375000000e-02 1.794433593750000000e-02 5.120849609375000000e-02 -7.647705078125000000e-02 -8.251953125000000000e-02 4.205322265625000000e-02 5.267333984375000000e-02 -7.116699218750000000e-02 7.244873046875000000e-02 -3.457641601562500000e-02

3.915405273437500000e-02 7.965087890625000000e-02 4.791259765625000000e-02 -4.049682617187500000e-02 -8.648681640625000000e-02 4.278564453125000000e-02 -8.123779296875000000e-02 6.243896484375000000e-02 -5.545043945312500000e-02 4.043579101562500000e-02 6.396484375000000000e-02 -1.724243164062500000e-02 -3.582763671875000000e-02 7.049560546875000000e-02 6.622314453125000000e-02 2.355957031250000000e-02 8.990478515625000000e-02 4.391479492187500000e-02 -1.322937011718750000e-02 -6.475830078125000000e-02 2.580261230468750000e-02 6.170654296875000000e-02 1.994323730468750000e-02 -1.977920532226562500e-03 -7.556152343750000000e-02 -2.595520019531250000e-02 -1.794433593750000000e-02 7.342529296875000000e-02 3.076171875000000000e-02 5.807495117187500000e-02 -2.981567382812500000e-02 5.255126953125000000e-02 3.619384765625000000e-02 1.460075378417968750e-03 -1.985168457031250000e-02 5.999755859375000000e-02 4.159545898437500000e-02 9.210205078125000000e-02

