-9.295654296875000000e-02 -6.408691406250000000e-03 7.611083984375000000e-02 2.838134765625000000e-02 5.670166015625000000e-02 3.424072265625000000e-02 4.095458984375000000e-02 -5.325317382812500000e-02 -3.094482421875000000e-02 4.058837890625000000e-02 5.804443359375000000e-02 -9.094238281250000000e-02 -8.544921875000000000e-02 -3.640747070312500000e-02 -1.135253906250000000e-02 -5.252075195312500000e-02 5.680084228515625000e-03 -4.391479492187500000e-02 -5.215454101562500000e-02 -1.190185546875000000e-02 -7.354736328125000000e-02 3.790283203125000000e-02 -1.829147338867187500e-03 -6.042480468750000000e-03 -6.860351562500000000e-02 6.170654296875000000e-02 8.056640625000000000e-03 1.959228515625000000e-02 7.928466796875000000e-02 1.684570312500000000e-02 -5.233764648437500000e-02 1.519775390625000000e-02 5.914306640625000000e-02 -4.611206054687500000e-02 -8.325195312500000000e-02 -3.622436523437500000e-02 -4.263305664062500000e-02 -7.849121093750000000e-02

-1.007080078125000000e-02 -9.130859375000000000e-02 3.071594238281250000e-02 3.695678710937500000e-02 -8.953857421875000000e-02 6.427001953125000000e-02 2.087402343750000000e-02 8.380126953125000000e-02 1.176452636718750000e-02 -6.567382812500000000e-02 5.770874023437500000e-02 2.116394042968750000e-02 -1.538085937500000000e-02 7.928466796875000000e-02 8.728027343750000000e-02 8.508300781250000000e-02 4.687500000000000000e-02 -3.979492187500000000e-02 2.380371093750000000e-02 6.616210937500000000e-02 5.108642578125000000e-02 8.148193359375000000e-02 1.728820800781250000e-02 4.284667968750000000e-02 5.987548828125000000e-02 2.192687988281250000e-02 -8.087158203125000000e-02 -5.581665039062500000e-02 -6.329345703125000000e-02 -6.268310546875000000e-02 -3.329467773437500000e-02 -7.757568359375000000e-02 -3.146362304687500000e-02 -5.215454101562500000e-02 4.724121093750000000e-02 -9.521484375000000000e-03 -7.482910156250000000e-02 -1.832580566406250000e-02

-4.046630859375000000e-02 1.320838928222656250e-03 -4.205322265625000000e-02 -2.746582031250000000e-02 -1.620483398437500000e-02 -8.306884765625000000e-02 -2.947998046875000000e-02 -6.002807617187500000e-02 -9.350585937500000000e-02 7.000732421875000000e-02 9.155273437500000000e-02 -4.980468750000000000e-02 8.697509765625000000e-02 -2.421569824218750000e-02 5.142211914062500000e-02 6.829833984375000000e-02 3.543090820312500000e-02 5.154418945312500000e-02 7.604980468750000000e-02 4.071044921875000000e-02 6.204223632812500000e-02 8.947753906250000000e-02 6.726074218750000000e-02 -5.331420898437500000e-02 -8.508300781250000000e-02 -4.223632812500000000e-02 7.194519042968750000e-03 -7.198333740234375000e-03 -8.251953125000000000e-02 2.191162109375000000e-02 3.034973144531250000e-02 -3.872680664062500000e-02 -5.032348632812500000e-02 -3.494262695312500000e-02 -7.910156250000000000e-02 1.227569580078125000e-02 4.757690429687500000e-02 8.764648437500000000e-02

7.171630859375000000e-02 2.252197265625000000e-02 7.159423828125000000e-02 3.552246093750000000e-02 -4.049682617187500000e-02 4.376220703125000000e-02 2.215576171875000000e-02 -2.252197265625000000e-02 -1.353454589843750000e-02 7.086181640625000000e-02 -2.856445312500000000e-02 -7.482910156250000000e-02 -3.524780273437500000e-02 3.652572631835937500e-03 5.770874023437500000e-02 7.751464843750000000e-02 6.793212890625000000e-02 -8.526611328125000000e-02 4.922485351562500000e-02 -2.246093750000000000e-02 3.108215332031250000e-02 1.332092285156250000e-02 -2.912902832031250000e-02 -3.894042968750000000e-02 -3.897094726562500000e-02 3.393554687500000000e-02 -5.697631835937500000e-02 -5.856323242187500000e-02 5.502700805664062500e-04 6.106567382812500000e-02 5.404663085937500000e-02 3.656005859375000000e-02 4.608154296875000000e-02 -5.380249023437500000e-02 -2.491760253906250000e-02 3.753662109375000000e-02 -8.526611328125000000e-02 -1.794433593750000000e-02

3.179931640625000000e-02 -1.427459716796875000e-02 4.669189453125000000e-02 -3.056335449218750000e-02 -1.102447509765625000e-02 4.083251953125000000e-02 -7.995605468750000000e-02 3.039550781250000000e-02 -1.134490966796875000e-02 -8.636474609375000000e-02 7.904052734375000000e-02 -6.384277343750000000e-02 -6.274414062500000000e-02 -7.373046875000000000e-02 -6.896972656250000000e-02 -4.739379882812500000e-02 -1.244544982910156250e-03 -8.789062500000000000e-03 1.024627685546875000e-02 -6.622314453125000000e-02 -8.526611328125000000e-02 -9.178161621093750000e-03 7.641601562500000000e-02 8.697509765625000000e-02 -2.526855468750000000e-02 9.356689453125000000e-02 -2.362060546875000000e-02 9.320068359375000000e-02 4.577636718750000000e-03 9.112548828125000000e-02 -6.805419921875000000e-03 4.193115234375000000e-02 -2.746582031250000000e-02 -4.116821289062500000e-02 -5.325317382812500000e-02 3.546142578125000000e-02 -4.592895507812500000e-02 3.021240234375000000e-02

3.619384765625000000e-02 -1.374053955078125000e-02 -5.474853515625000000e-02 2.119445800781250000e-02 6.198120117187500000e-02 4.464721679687500000e-02 4.864501953125000000e-02 -6.604003906250000000e-02 -7.098388671875000000e-02 1.678466796875000000e-02 3.265380859375000000e-02 -6.506347656250000000e-02 -6.878662109375000000e-02 1.123046875000000000e-02 -1.690673828125000000e-02 -7.366943359375000000e-02 -4.183959960937500000e-02 5.810546875000000000e-02 7.336425781250000000e-02 -5.566406250000000000e-02 5.133056640625000000e-02 4.296875000000000000e-02 -7.122802734375000000e-02 7.000732421875000000e-02 9.136199951171875000e-04 7.250976562500000000e-02 2.964019775390625000e-03 -8.888244628906250000e-03 2.270507812500000000e-02 8.380126953125000000e-02 -6.683349609375000000e-02 5.161285400390625000e-03 -7.263183593750000000e-02 1.802444458007812500e-03 3.652954101562500000e-02 2.601623535156250000e-02 -9.658813476562500000e-03 -4.791259765625000000e-02

-2.319335937500000000e-02 8.160400390625000000e-02 3.717041015625000000e-02 3.817749023437500000e-02 3.903198242187500000e-02 4.827880859375000000e-02 -3.002929687500000000e-02 -1.153564453125000000e-02 -7.666015625000000000e-02 3.884887695312500000e-02 3.759765625000000000e-02 -2.142333984375000000e-02 -6.402587890625000000e-02 -5.892944335937500000e-02 2.111816406250000000e-02 3.778076171875000000e-02 -9.051513671875000000e-02 7.910156250000000000e-02 6.494140625000000000e-02 1.693725585937500000e-02 -8.551025390625000000e-02 8.361816406250000000e-02 -2.688598632812500000e-02 9.712219238281250000e-03 7.647705078125000000e-02 -3.906250000000000000e-02 6.469726562500000000e-02 -4.101562500000000000e-02 1.098632812500000000e-02 -6.176757812500000000e-02 4.779052734375000000e-02 5.908203125000000000e-02 -3.402709960937500000e-02 3.570556640625000000e-02 5.325317382812500000e-03 -2.362060546875000000e-02 -2.497863769531250000e-02 5.926513671875000000e-02

-2.787780761718750000e-02 5.416870117187500000e-02 4.794311523437500000e-02 -5.077362060546875000e-03 4.046630859375000000e-02 -3.326416015625000000e-02 -6.225585937500000000e-03 7.159423828125000000e-02 -6.091308593750000000e-02 4.922485351562500000e-02 3.114318847656250000e-02 6.604003906250000000e-02 5.352783203125000000e-02 6.884765625000000000e-02 -7.086181640625000000e-02 -4.919433593750000000e-02 6.439208984375000000e-02 6.475830078125000000e-02 9.002685546875000000e-02 -6.097412109375000000e-02 -7.196044921875000000e-02 -4.516601562500000000e-02 7.751464843750000000e-02 4.754638671875000000e-02 -8.325195312500000000e-02 -8.648681640625000000e-02 3.350830078125000000e-02 2.357482910156250000e-02 -4.666137695312500000e-02 3.019714355468750000e-02 5.874633789062500000e-02 -2.398681640625000000e-02 4.934692382812500000e-02 -1.559448242187500000e-02 -9.149169921875000000e-02 -8.407592773437500000e-03 -7.495117187500000000e-02 -7.904052734375000000e-02

7.574462890625000000e-02 -2.673339843750000000e-02 -4.959106445312500000e-02 -1.887512207031250000e-02 -3.326416015625000000e-02 5.291748046875000000e-02 1.812744140625000000e-02 7.159423828125000000e-02 -2.146911621093750000e-02 4.421997070312500000e-02 -4.690551757812500000e-02 -7.849121093750000000e-02 1.507568359375000000e-02 -1.959228515625000000e-02 -6.817626953125000000e-02 6.717681884765625000e-03 -6.567382812500000000e-02 -4.965209960937500000e-02 2.534484863281250000e-02 4.235839843750000000e-02 -9.452819824218750000e-03 9.069824218750000000e-02 -1.377105712890625000e-02 -4.020690917968750000e-03 8.673095703125000000e-02 -2.862548828125000000e-02 3.799438476562500000e-02 4.721069335937500000e-02 3.292083740234375000e-03 5.377197265625000000e-02 -3.808593750000000000e-02 -6.658935546875000000e-02 6.805419921875000000e-02 -8.270263671875000000e-02 6.311035156250000000e-02 3.460693359375000000e-02 3.598022460937500000e-02 -7.446289062500000000e-02

5.181884765625000000e-02 2.178955078125000000e-02 -5.215454101562500000e-02 -2.819824218750000000e-02 8.489990234375000000e-02 6.402587890625000000e-02 -3.347778320312500000e-02 5.511474609375000000e-02 -2.563476562500000000e-02 7.501220703125000000e-02 6.660461425781250000e-03 -3.604125976562500000e-02 7.464599609375000000e-02 -2.838134765625000000e-02 6.585693359375000000e-02 -6.204223632812500000e-02 5.670166015625000000e-02 -2.563476562500000000e-02 3.875732421875000000e-02 1.795959472656250000e-02 -5.783081054687500000e-02 9.222412109375000000e-02 2.691650390625000000e-02 -1.977539062500000000e-02 5.487060546875000000e-02 4.705810546875000000e-02 7.891845703125000000e-02 -1.483917236328125000e-02 -1.959228515625000000e-02 5.999755859375000000e-02 1.266479492187500000e-02 -7.098388671875000000e-02 3.326416015625000000e-02 7.354736328125000000e-02 4.925537109375000000e-02 3.546142578125000000e-02 2.709960937500000000e-02 -5.288696289062500000e-02

-5.087280273437500000e-02 3.204345703125000000e-02 -4.776000976562500000e-02 5.780029296875000000e-02 5.261230468750000000e-02 -8.105468750000000000e-02 4.058837890625000000e-02 -3.713989257812500000e-02 7.604980468750000000e-02 2.911376953125000000e-02 -7.843017578125000000e-02 -5.987548828125000000e-02 -1.547813415527343750e-03 -1.177215576171875000e-02 1.977539062500000000e-02 -6.896972656250000000e-02 -2.850341796875000000e-02 -7.373046875000000000e-02 5.596923828125000000e-02 5.361938476562500000e-02 2.949523925781250000e-02 -1.609802246093750000e-02 2.725219726562500000e-02 -1.577758789062500000e-02 5.706787109375000000e-02 -3.091430664062500000e-02 4.852294921875000000e-02 2.691650390625000000e-02 -8.087158203125000000e-02 2.107238769531250000e-02 -6.823730468750000000e-02 2.322387695312500000e-02 7.354736328125000000e-02 1.171875000000000000e-02 3.204345703125000000e-02 -1.464843750000000000e-02 7.196044921875000000e-02 3.497314453125000000e-02

-4.556274414062500000e-02 -6.130981445312500000e-02 6.915283203125000000e-02 -1.721191406250000000e-02 -2.783203125000000000e-02 -2.709960937500000000e-02 -2.581787109375000000e-02 -8.471679687500000000e-02 5.584716796875000000e-02 -1.647949218750000000e-03 8.563232421875000000e-02 3.900146484375000000e-02 8.605957031250000000e-03 -6.512451171875000000e-02 -8.270263671875000000e-02 -5.581665039062500000e-02 6.292724609375000000e-02 -7.098388671875000000e-02 6.390380859375000000e-02 7.122802734375000000e-02 5.523681640625000000e-02 5.596923828125000000e-02 2.343750000000000000e-02 4.760742187500000000e-03 -2.490234375000000000e-02 3.680419921875000000e-02 7.501220703125000000e-02 -5.764770507812500000e-02 -4.629516601562500000e-02 -1.281738281250000000e-02 -2.490234375000000000e-02 -1.922607421875000000e-02 -4.611206054687500000e-02 6.024169921875000000e-02 8.746337890625000000e-02 6.072998046875000000e-02 8.514404296875000000e-02 3.216552734375000000e-02

-6.033325195312500000e-02 9.027099609375000000e-02 -3.274536132812500000e-02 2.420043945312500000e-02 6.207275390625000000e-02 1.081085205078125000e-02 -5.676269531250000000e-03 8.197021484375000000e-02 3.649902343750000000e-02 4.812622070312500000e-02 -3.338623046875000000e-02 2.111816406250000000e-02 6.823730468750000000e-02 -1.972198486328125000e-03 -7.299804687500000000e-02 5.831909179687500000e-02 4.614257812500000000e-02 -8.831787109375000000e-02 -4.077148437500000000e-02 4.980468750000000000e-02 -2.574157714843750000e-02 -1.376342773437500000e-02 -3.121948242187500000e-02 -4.595947265625000000e-02 -3.475952148437500000e-02 1.731872558593750000e-02 -7.983398437500000000e-02 7.061767578125000000e-02 -2.032470703125000000e-02 4.049682617187500000e-02 4.721069335937500000e-02 -7.812500000000000000e-02 -2.367496490478515625e-04 -3.695678710937500000e-02 -1.505279541015625000e-02 3.143310546875000000e-02 -4.371643066406250000e-03 7.281494140625000000e-02

1.759338378906250000e-02 2.545166015625000000e-02 9.356689453125000000e-02 4.310607910156250000e-03 -1.074981689453125000e-02 4.351806640625000000e-02 9.338378906250000000e-03 -8.563232421875000000e-02 -8.856201171875000000e-02 1.173400878906250000e-02 -1.448822021484375000e-02 -2.738952636718750000e-02 -4.183959960937500000e-02 -6.677246093750000000e-02 -1.219940185546875000e-02 1.015472412109375000e-02 -3.384399414062500000e-02 3.421020507812500000e-02 1.158905029296875000e-02 8.094787597656250000e-03 -3.823852539062500000e-02 -7.830810546875000000e-02 3.997802734375000000e-02 -4.129028320312500000e-02 -5.709838867187500000e-02 1.132202148437500000e-02 -1.724243164062500000e-02 7.379150390625000000e-02 4.211425781250000000e-03 -8.795166015625000000e-02 -9.332275390625000000e-02 7.830810546875000000e-02 3.619384765625000000e-02 -8.966064453125000000e-02 5.975341796875000000e-02 -5.142211914062500000e-02 1.207733154296875000e-02 7.226562500000000000e-02

8.953857421875000000e-02 7.940673828125000000e-02 -2.966308593750000000e-02 -1.757812500000000000e-02 8.514404296875000000e-02 -2.380371093750000000e-02 6.353759765625000000e-02 -6.951904296875000000e-02 8.380126953125000000e-02 -6.954193115234375000e-03 6.207275390625000000e-02 2.728271484375000000e-02 -9.259033203125000000e-02 -5.874633789062500000e-02 4.022216796875000000e-02 1.281738281250000000e-02 4.315185546875000000e-02 8.367919921875000000e-02 -5.859375000000000000e-03 7.635498046875000000e-02 -2.801513671875000000e-02 -1.318359375000000000e-02 -3.292846679687500000e-02 -6.222534179687500000e-02 3.497314453125000000e-02 9.002685546875000000e-02 -5.855560302734375000e-03 1.721191406250000000e-02 8.551025390625000000e-02 1.464843750000000000e-02 4.046630859375000000e-02 -2.105712890625000000e-02 7.867431640625000000e-02 1.300048828125000000e-02 -5.966186523437500000e-02 -4.409790039062500000e-02 4.632568359375000000e-02 -9.346008300781250000e-03

-1.111602783203125000e-02 -8.416748046875000000e-02 3.985595703125000000e-02 -4.302978515625000000e-03 -1.286315917968750000e-02 4.168701171875000000e-02 -3.622436523437500000e-02 3.863525390625000000e-02 -7.553100585937500000e-03 2.680969238281250000e-02 -4.940795898437500000e-02 -1.359939575195312500e-03 -6.408691406250000000e-02 4.821777343750000000e-02 -6.604003906250000000e-02 1.751708984375000000e-02 -1.707458496093750000e-02 5.331420898437500000e-02 -3.515625000000000000e-02 8.691406250000000000e-02 -3.430175781250000000e-02 4.486083984375000000e-02 -6.854248046875000000e-02 -3.021240234375000000e-02 6.719970703125000000e-02 8.404541015625000000e-02 5.923461914062500000e-02 -4.219055175781250000e-03 -6.750488281250000000e-02 -2.088546752929687500e-03 -6.542968750000000000e-02 7.574462890625000000e-02 2.233886718750000000e-02 7.635498046875000000e-02 7.421875000000000000e-02 -6.774902343750000000e-03 4.096984863281250000e-03 1.716613769531250000e-05

1.009368896484375000e-02 -7.629394531250000000e-02 8.892822265625000000e-02 5.511474609375000000e-02 -5.072021484375000000e-02 3.460693359375000000e-02 -7.775878906250000000e-02 5.657958984375000000e-02 -7.519531250000000000e-02 5.914306640625000000e-02 4.779052734375000000e-02 6.805419921875000000e-02 4.559326171875000000e-02 4.742431640625000000e-02 -7.794189453125000000e-02 -5.130767822265625000e-03 6.072998046875000000e-03 5.877685546875000000e-02 6.915283203125000000e-02 -1.794433593750000000e-02 -9.277343750000000000e-02 1.555633544921875000e-02 -8.911132812500000000e-02 -7.885742187500000000e-02 -4.373168945312500000e-02 -9.313964843750000000e-02 5.596923828125000000e-02 9.155273437500000000e-03 -1.263427734375000000e-02 2.949523925781250000e-02 2.966308593750000000e-02 5.816650390625000000e-02 4.534912109375000000e-02 1.794433593750000000e-02 -3.860473632812500000e-02 -7.690429687500000000e-03 -6.311035156250000000e-02 7.830810546875000000e-02

-6.389617919921875000e-03 -8.526611328125000000e-02 3.863525390625000000e-02 -6.610107421875000000e-02 -3.103637695312500000e-02 -3.787231445312500000e-02 8.563232421875000000e-02 6.207275390625000000e-02 6.945800781250000000e-02 -3.433227539062500000e-02 4.989624023437500000e-02 -3.775024414062500000e-02 3.631591796875000000e-02 -2.960205078125000000e-02 -2.978515625000000000e-02 4.501342773437500000e-02 -8.215332031250000000e-02 -2.287292480468750000e-02 7.983398437500000000e-02 -2.064514160156250000e-02 -5.661010742187500000e-02 9.170532226562500000e-03 1.626586914062500000e-02 6.579589843750000000e-02 1.826286315917968750e-04 -5.877685546875000000e-02 -2.648925781250000000e-02 -2.584838867187500000e-02 4.266357421875000000e-02 3.585815429687500000e-02 -9.332275390625000000e-02 3.713989257812500000e-02 -1.375198364257812500e-03 -3.805541992187500000e-02 -7.666015625000000000e-02 -4.867553710937500000e-02 5.587768554687500000e-02 -3.585815429687500000e-02

-4.080200195312500000e-02 1.977539062500000000e-02 -1.556396484375000000e-02 -1.828002929687500000e-02 8.001708984375000000e-02 -6.732177734375000000e-02 -2.801513671875000000e-02 1.977539062500000000e-02 3.143310546875000000e-02 -7.171630859375000000e-02 4.681396484375000000e-02 -8.398437500000000000e-02 -4.281616210937500000e-02 2.090454101562500000e-03 7.114410400390625000e-04 6.170654296875000000e-02 8.221435546875000000e-02 -7.116699218750000000e-02 3.400802612304687500e-03 1.901245117187500000e-02 7.244873046875000000e-02 9.346008300781250000e-03 3.894042968750000000e-02 8.990478515625000000e-02 7.324218750000000000e-03 -4.336547851562500000e-02 6.439208984375000000e-02 7.818603515625000000e-02 -4.211425781250000000e-03 -3.406524658203125000e-03 -6.237792968750000000e-02 8.917236328125000000e-02 4.266357421875000000e-02 7.141113281250000000e-03 -1.922607421875000000e-02 7.354736328125000000e-02 8.441162109375000000e-02 -4.336547851562500000e-02

-3.128051757812500000e-02 -4.501342773437500000e-02 -2.325439453125000000e-02 4.449462890625000000e-02 2.325439453125000000e-02 -6.958007812500000000e-03 8.917236328125000000e-02 3.765869140625000000e-02 -8.691406250000000000e-02 4.241943359375000000e-02 1.702880859375000000e-02 5.816650390625000000e-02 7.269287109375000000e-02 2.600097656250000000e-02 5.804443359375000000e-02 -9.521484375000000000e-03 -2.636718750000000000e-02 -5.068969726562500000e-02 9.136962890625000000e-02 -2.490234375000000000e-02 9.259033203125000000e-02 4.449462890625000000e-02 -6.933593750000000000e-02 -3.512573242187500000e-02 3.533935546875000000e-02 -3.499984741210937500e-03 -9.259033203125000000e-02 -2.197265625000000000e-02 -6.457519531250000000e-02 2.014160156250000000e-02 -3.292846679687500000e-02 -6.274414062500000000e-02 6.170654296875000000e-02 3.131103515625000000e-02 5.120849609375000000e-02 8.819580078125000000e-02 5.401611328125000000e-02 5.291748046875000000e-02

-7.171630859375000000e-02 4.962158203125000000e-02 9.320068359375000000e-02 -6.768798828125000000e-02 -3.622436523437500000e-02 7.830810546875000000e-02 -1.098632812500000000e-03 -3.479003906250000000e-03 1.373291015625000000e-02 8.782958984375000000e-02 -4.756927490234375000e-03 -6.750488281250000000e-02 5.950927734375000000e-02 -2.197265625000000000e-02 8.416748046875000000e-02 -3.952026367187500000e-02 5.413818359375000000e-02 6.610107421875000000e-02 1.391601562500000000e-02 -7.320404052734375000e-03 2.233886718750000000e-02 -7.336425781250000000e-02 5.230712890625000000e-02 -8.618164062500000000e-02 2.691650390625000000e-02 5.230712890625000000e-02 -2.655029296875000000e-02 -9.368896484375000000e-02 -7.006835937500000000e-02 5.780029296875000000e-02 -3.295898437500000000e-03 7.537841796875000000e-02 8.056640625000000000e-03 -5.984497070312500000e-02 6.463623046875000000e-02 2.929687500000000000e-02 8.636474609375000000e-02 -2.838134765625000000e-02

3.594970703125000000e-02 3.936767578125000000e-02 -3.330230712890625000e-03 -6.555175781250000000e-02 -3.457641601562500000e-02 6.463623046875000000e-02 3.863525390625000000e-02 1.300048828125000000e-02 8.728027343750000000e-02 9.301757812500000000e-02 3.509521484375000000e-02 -1.338958740234375000e-02 -8.520507812500000000e-02 -6.701660156250000000e-02 -5.169677734375000000e-02 -7.339477539062500000e-03 1.213836669921875000e-02 7.238769531250000000e-02 3.140258789062500000e-02 8.740234375000000000e-02 3.448486328125000000e-02 1.675415039062500000e-02 6.555175781250000000e-02 -3.622436523437500000e-02 -3.732299804687500000e-02 5.856323242187500000e-02 -5.596923828125000000e-02 1.222991943359375000e-02 -7.647705078125000000e-02 1.840209960937500000e-02 -5.328369140625000000e-02 -6.567382812500000000e-02 -8.599853515625000000e-02 -1.191711425781250000e-02 4.086303710937500000e-02 2.931213378906250000e-02 -8.477783203125000000e-02 3.045654296875000000e-02

-2.470397949218750000e-02 3.607177734375000000e-02 5.816650390625000000e-02 1.435279846191406250e-03 4.327392578125000000e-02 4.119873046875000000e-02 -3.128051757812500000e-02 -7.098388671875000000e-02 7.781982421875000000e-02 -8.966064453125000000e-02 -1.215362548828125000e-02 -4.913330078125000000e-02 6.665039062500000000e-02 -3.936767578125000000e-02 -5.126953125000000000e-02 -1.074218750000000000e-02 3.543090820312500000e-02 3.878784179687500000e-02 4.473876953125000000e-02 -1.550674438476562500e-03 3.942871093750000000e-02 8.001708984375000000e-02 5.160522460937500000e-02 -3.092956542968750000e-02 -2.545166015625000000e-02 -8.306884765625000000e-02 -7.611083984375000000e-02 4.928588867187500000e-02 -5.123901367187500000e-02 3.225326538085937500e-03 -7.647705078125000000e-02 1.663208007812500000e-02 -9.313964843750000000e-02 4.669189453125000000e-02 6.683349609375000000e-02 9.320068359375000000e-02 3.399658203125000000e-02 8.111572265625000000e-02

-3.710937500000000000e-02 -4.244995117187500000e-02 4.571533203125000000e-02 -7.849121093750000000e-02 -8.715820312500000000e-02 -7.226562500000000000e-02 7.196044921875000000e-02 -7.098388671875000000e-02 -8.282470703125000000e-02 1.921081542968750000e-02 7.824707031250000000e-02 5.374145507812500000e-02 -1.131439208984375000e-02 -4.405975341796875000e-03 1.507568359375000000e-02 -5.416870117187500000e-02 1.875305175781250000e-02 -2.453613281250000000e-02 -7.305908203125000000e-02 -7.226562500000000000e-02 1.262664794921875000e-02 -9.902954101562500000e-03 2.795410156250000000e-02 6.512451171875000000e-02 -2.636718750000000000e-02 -7.519531250000000000e-02 2.139282226562500000e-02 -5.100250244140625000e-03 -6.021118164062500000e-02 8.312988281250000000e-02 -8.984375000000000000e-02 3.970336914062500000e-02 8.972167968750000000e-03 -4.299926757812500000e-02 -3.092956542968750000e-02 1.959228515625000000e-02 8.087158203125000000e-03 -5.288696289062500000e-02

8.636474609375000000e-02 -3.311157226562500000e-02 -3.094482421875000000e-02 -6.036376953125000000e-02 -9.301757812500000000e-02 -1.947879791259765625e-04 9.283447265625000000e-02 8.331298828125000000e-02 -8.979797363281250000e-03 -4.809570312500000000e-02 7.470703125000000000e-02 3.912353515625000000e-02 7.873535156250000000e-02 -8.094787597656250000e-03 6.536865234375000000e-02 5.639648437500000000e-02 -8.343505859375000000e-02 2.070617675781250000e-02 -5.496978759765625000e-03 4.968261718750000000e-02 6.988525390625000000e-02 -4.724121093750000000e-02 5.917549133300781250e-04 9.100341796875000000e-02 5.108642578125000000e-02 -5.526733398437500000e-02 1.846313476562500000e-02 7.672119140625000000e-02 9.136962890625000000e-02 -7.446289062500000000e-02 -6.915283203125000000e-02 4.534912109375000000e-02 6.951904296875000000e-02 -5.545043945312500000e-02 1.370239257812500000e-02 -5.416870117187500000e-02 8.953857421875000000e-02 5.230712890625000000e-02

-8.068847656250000000e-02 -3.292846679687500000e-02 -1.281738281250000000e-02 -1.319885253906250000e-03 -7.775878906250000000e-02 7.196044921875000000e-02 -8.105468750000000000e-02 -5.929565429687500000e-02 4.266357421875000000e-02 -9.338378906250000000e-03 -2.069091796875000000e-02 3.604888916015625000e-03 -3.494262695312500000e-02 4.461669921875000000e-02 6.365966796875000000e-02 7.427978515625000000e-02 4.046630859375000000e-02 7.098388671875000000e-02 -5.105590820312500000e-02 -6.130981445312500000e-02 1.943111419677734375e-04 -6.274414062500000000e-02 6.988525390625000000e-02 -6.329345703125000000e-02 -3.805541992187500000e-02 8.087158203125000000e-02 3.802490234375000000e-02 1.287460327148437500e-03 -3.182983398437500000e-02 8.013916015625000000e-02 6.976318359375000000e-02 -1.190185546875000000e-02 -6.457519531250000000e-02 5.859375000000000000e-03 -6.878662109375000000e-02 7.830810546875000000e-02 -9.887695312500000000e-03 -6.439208984375000000e-02

-2.929687500000000000e-02 -8.972167968750000000e-03 2.030944824218750000e-02 5.194091796875000000e-02 4.898071289062500000e-02 5.108642578125000000e-02 -7.226562500000000000e-02 -3.952026367187500000e-02 -2.985000610351562500e-03 4.412841796875000000e-02 9.887695312500000000e-03 1.441192626953125000e-02 -3.864288330078125000e-03 4.815673828125000000e-02 8.807373046875000000e-02 -3.750610351562500000e-02 2.876281738281250000e-02 -4.702758789062500000e-02 -4.757690429687500000e-02 7.501220703125000000e-02 -2.711486816406250000e-02 -8.599853515625000000e-02 -8.068847656250000000e-02 -3.823852539062500000e-02 9.155273437500000000e-04 2.561950683593750000e-02 -9.075927734375000000e-02 -6.732177734375000000e-02 -6.002807617187500000e-02 -8.380126953125000000e-02 8.734130859375000000e-02 -8.087158203125000000e-02 3.314208984375000000e-02 -6.402587890625000000e-02 2.618408203125000000e-02 -8.929443359375000000e-02 -2.453613281250000000e-02 2.526855468750000000e-02

-3.802490234375000000e-02 -2.304077148437500000e-02 8.599853515625000000e-02 8.489990234375000000e-02 -2.795410156250000000e-02 -3.402709960937500000e-02 -4.446411132812500000e-02 7.427978515625000000e-02 -9.465217590332031250e-04 -5.096435546875000000e-02 8.941650390625000000e-02 5.319213867187500000e-02 4.455566406250000000e-02 -2.473449707031250000e-02 7.641601562500000000e-02 -4.589080810546875000e-03 8.258056640625000000e-02 6.585693359375000000e-02 -1.835632324218750000e-02 2.670288085937500000e-02 -6.671142578125000000e-02 -7.061767578125000000e-02 5.783081054687500000e-02 8.569335937500000000e-02 3.692626953125000000e-02 -5.191040039062500000e-02 -5.352783203125000000e-02 4.702758789062500000e-02 3.973388671875000000e-02 2.333068847656250000e-02 1.265716552734375000e-02 -8.258056640625000000e-02 4.534912109375000000e-02 -1.336669921875000000e-02 -2.082824707031250000e-02 2.345275878906250000e-02 -1.893615722656250000e-02 9.173583984375000000e-02

4.669189453125000000e-02 -1.904296875000000000e-02 8.734130859375000000e-02 -4.904174804687500000e-02 8.892822265625000000e-02 1.226806640625000000e-02 -6.347656250000000000e-02 -2.069091796875000000e-02 7.171630859375000000e-02 -1.452636718750000000e-02 -2.705383300781250000e-02 1.225280761718750000e-02 4.705810546875000000e-02 -4.684448242187500000e-02 -3.915405273437500000e-02 -3.475952148437500000e-02 4.449462890625000000e-02 -3.952026367187500000e-02 -2.288818359375000000e-02 6.036376953125000000e-02 7.232666015625000000e-02 3.240966796875000000e-02 -5.053710937500000000e-02 2.766418457031250000e-02 -6.076049804687500000e-02 1.327514648437500000e-02 4.315185546875000000e-02 -8.819580078125000000e-02 4.577636718750000000e-03 -5.398559570312500000e-02 4.058837890625000000e-02 9.149169921875000000e-02 -2.600097656250000000e-02 4.595947265625000000e-02 3.137588500976562500e-03 1.300048828125000000e-02 -1.777648925781250000e-02 1.023864746093750000e-02

-6.475830078125000000e-02 -4.684448242187500000e-02 8.258056640625000000e-02 -6.823730468750000000e-02 7.702636718750000000e-02 -7.427978515625000000e-02 -5.856323242187500000e-02 -6.732177734375000000e-02 -1.534271240234375000e-02 -6.573486328125000000e-02 7.971191406250000000e-02 -2.764892578125000000e-02 7.067871093750000000e-02 -7.757568359375000000e-02 -1.427459716796875000e-02 4.614257812500000000e-02 -1.114654541015625000e-02 -7.043457031250000000e-02 4.882812500000000000e-02 3.976440429687500000e-02 -9.002685546875000000e-02 -6.768798828125000000e-02 3.564453125000000000e-02 2.252197265625000000e-02 -4.483032226562500000e-02 -8.361816406250000000e-02 -5.749511718750000000e-02 9.112548828125000000e-02 -2.087402343750000000e-02 -5.197143554687500000e-02 4.825592041015625000e-03 4.849243164062500000e-02 6.072998046875000000e-02 8.789062500000000000e-03 3.033447265625000000e-02 -7.226562500000000000e-02 5.987548828125000000e-02 4.278564453125000000e-02

2.966308593750000000e-02 4.229736328125000000e-02 9.185791015625000000e-02 6.057739257812500000e-02 8.529663085937500000e-03 -5.197143554687500000e-02 8.233642578125000000e-02 6.646728515625000000e-02 6.677246093750000000e-02 3.808593750000000000e-02 1.885986328125000000e-02 8.959960937500000000e-02 -3.582763671875000000e-02 3.598022460937500000e-02 -2.839660644531250000e-02 8.624267578125000000e-02 -4.510498046875000000e-02 -2.792358398437500000e-02 -7.885742187500000000e-02 -4.681396484375000000e-02 8.221435546875000000e-02 -5.233764648437500000e-02 -2.984619140625000000e-02 -8.746337890625000000e-02 6.842041015625000000e-02 1.861572265625000000e-02 6.915283203125000000e-02 1.286315917968750000e-02 6.695556640625000000e-02 7.350921630859375000e-03 3.680419921875000000e-02 -8.190917968750000000e-02 2.967834472656250000e-02 -4.794311523437500000e-02 -4.003906250000000000e-02 -1.556396484375000000e-02 1.797485351562500000e-02 2.835083007812500000e-02

5.303955078125000000e-02 -8.471679687500000000e-02 1.647949218750000000e-02 1.554107666015625000e-02 5.218505859375000000e-02 3.482818603515625000e-03 4.534912109375000000e-02 3.076171875000000000e-02 -7.080078125000000000e-02 7.379150390625000000e-02 1.209259033203125000e-02 2.381896972656250000e-02 -5.380249023437500000e-02 -3.256225585937500000e-02 2.159118652343750000e-02 4.962158203125000000e-02 3.826904296875000000e-02 2.618408203125000000e-02 3.497314453125000000e-02 -6.622314453125000000e-02 7.159423828125000000e-02 -1.116943359375000000e-02 -5.856323242187500000e-02 6.060791015625000000e-02 3.179931640625000000e-02 -5.197143554687500000e-02 1.245880126953125000e-02 -9.112548828125000000e-02 4.754638671875000000e-02 2.143859863281250000e-02 4.815673828125000000e-02 -4.849243164062500000e-02 6.878662109375000000e-02 -2.893066406250000000e-02 6.878662109375000000e-02 -2.783203125000000000e-02 2.032470703125000000e-02 4.376220703125000000e-02

-5.215454101562500000e-02 -2.124023437500000000e-02 -5.673217773437500000e-02 4.815673828125000000e-02 -3.145217895507812500e-03 2.014160156250000000e-02 -5.490112304687500000e-02 -2.874755859375000000e-02 -5.691528320312500000e-02 1.556396484375000000e-02 2.032470703125000000e-02 8.964538574218750000e-03 -1.812744140625000000e-02 2.801513671875000000e-02 -3.479003906250000000e-03 -6.805419921875000000e-02 2.014160156250000000e-02 -4.409790039062500000e-02 5.584716796875000000e-02 2.563476562500000000e-02 8.422851562500000000e-03 2.935409545898437500e-03 4.229736328125000000e-02 -6.750488281250000000e-02 -3.295898437500000000e-03 3.729248046875000000e-02 -2.362060546875000000e-02 1.391601562500000000e-02 1.080322265625000000e-02 -2.049255371093750000e-02 -3.530883789062500000e-02 -7.720947265625000000e-02 8.819580078125000000e-02 -9.020996093750000000e-02 2.920150756835937500e-03 5.877685546875000000e-02 -4.519653320312500000e-02 7.135009765625000000e-02

5.477905273437500000e-02 -6.713867187500000000e-02 1.138305664062500000e-02 6.701660156250000000e-02 4.125976562500000000e-02 -2.636718750000000000e-02 -8.874511718750000000e-02 -3.256225585937500000e-02 -4.067993164062500000e-02 -8.508300781250000000e-02 -6.687164306640625000e-03 -7.885742187500000000e-02 6.652832031250000000e-02 3.059387207031250000e-02 -6.634521484375000000e-02 5.325317382812500000e-02 -6.689453125000000000e-02 6.160736083984375000e-03 -6.463623046875000000e-02 3.155517578125000000e-02 -8.050537109375000000e-02 8.807373046875000000e-02 2.922058105468750000e-02 6.262207031250000000e-02 -3.952026367187500000e-02 -5.661010742187500000e-02 -6.015014648437500000e-02 7.391357421875000000e-02 -1.226806640625000000e-02 6.597900390625000000e-02 -6.280517578125000000e-02 8.819580078125000000e-02 4.022216796875000000e-02 2.233886718750000000e-02 -1.776123046875000000e-02 3.179931640625000000e-02 5.856323242187500000e-02 6.292724609375000000e-02

5.819702148437500000e-02 8.613586425781250000e-03 -5.288696289062500000e-02 4.550170898437500000e-02 -4.479980468750000000e-02 1.062011718750000000e-02 5.731201171875000000e-02 3.204345703125000000e-02 1.184844970703125000e-02 -8.111572265625000000e-02 -8.834838867187500000e-03 9.149169921875000000e-02 4.339599609375000000e-02 -6.103515625000000000e-02 5.117797851562500000e-02 5.722045898437500000e-02 -3.341674804687500000e-02 -4.772949218750000000e-02 1.744270324707031250e-03 3.454589843750000000e-02 -6.390380859375000000e-02 5.364990234375000000e-02 1.591491699218750000e-02 1.178741455078125000e-02 -6.439208984375000000e-02 7.171630859375000000e-02 9.356689453125000000e-02 5.917358398437500000e-02 5.914306640625000000e-02 -8.618164062500000000e-02 2.134704589843750000e-02 1.991271972656250000e-02 -6.677246093750000000e-02 8.422851562500000000e-03 7.489013671875000000e-02 -2.471923828125000000e-02 -5.944824218750000000e-02 2.836608886718750000e-02

-1.922607421875000000e-02 -4.959106445312500000e-02 -1.307678222656250000e-02 1.989746093750000000e-02 -9.478759765625000000e-02 -2.414703369140625000e-03 2.343750000000000000e-02 -2.819824218750000000e-02 8.026123046875000000e-02 -9.191894531250000000e-02 3.195190429687500000e-02 -5.191040039062500000e-02 -7.641601562500000000e-02 4.119873046875000000e-02 6.323242187500000000e-02 -3.973388671875000000e-02 7.122802734375000000e-02 -7.873535156250000000e-02 -2.471923828125000000e-02 -1.206970214843750000e-02 9.100341796875000000e-02 -6.774902343750000000e-02 -2.248764038085937500e-03 4.268646240234375000e-03 -8.056640625000000000e-03 -1.925659179687500000e-02 -4.711914062500000000e-02 2.793884277343750000e-02 -7.263183593750000000e-02 -4.583740234375000000e-02 -4.187011718750000000e-02 -4.336547851562500000e-02 2.780151367187500000e-02 -8.343505859375000000e-02 7.110595703125000000e-02 -1.373291015625000000e-02 -7.653808593750000000e-02 7.397460937500000000e-02

-2.049255371093750000e-02 8.605957031250000000e-03 8.123779296875000000e-02 -6.475830078125000000e-02 -5.490112304687500000e-02 8.782958984375000000e-02 6.591796875000000000e-03 2.838134765625000000e-02 7.232666015625000000e-02 3.753662109375000000e-02 -8.563232421875000000e-02 2.874755859375000000e-02 5.291748046875000000e-02 7.196044921875000000e-02 4.339599609375000000e-02 -1.025390625000000000e-02 -3.988647460937500000e-02 -2.508544921875000000e-02 4.010009765625000000e-02 -8.709716796875000000e-02 3.436279296875000000e-02 6.182861328125000000e-02 6.057739257812500000e-02 7.881164550781250000e-03 3.240966796875000000e-02 -8.984375000000000000e-02 -4.812622070312500000e-02 -9.149169921875000000e-02 6.958007812500000000e-03 4.461669921875000000e-02 -2.160644531250000000e-02 -2.966308593750000000e-02 -1.391601562500000000e-02 2.508544921875000000e-02 -6.365966796875000000e-02 5.780029296875000000e-02 7.318115234375000000e-02 -6.384277343750000000e-02

-1.406097412109375000e-02 -7.858276367187500000e-03 -2.197265625000000000e-02 4.821777343750000000e-02 4.676818847656250000e-03 -4.281616210937500000e-02 -1.318359375000000000e-02 -2.380371093750000000e-03 -2.239227294921875000e-03 -8.172607421875000000e-02 -4.235839843750000000e-02 -3.948974609375000000e-02 -8.703613281250000000e-02 4.730224609375000000e-02 8.013916015625000000e-02 -3.111267089843750000e-02 -6.347656250000000000e-02 -6.860351562500000000e-02 -5.725860595703125000e-03 -2.616882324218750000e-02 -4.705810546875000000e-02 -3.955078125000000000e-02 9.246826171875000000e-02 -6.170654296875000000e-02 2.178955078125000000e-02 -7.727050781250000000e-02 4.312133789062500000e-02 9.094238281250000000e-03 5.963134765625000000e-02 -6.732177734375000000e-02 -7.427978515625000000e-02 -2.359008789062500000e-02 5.560302734375000000e-02 3.143310546875000000e-02 4.199218750000000000e-02 3.839111328125000000e-02 1.826477050781250000e-02 4.718017578125000000e-02

