-5.068969726562500000e-02 4.962158203125000000e-02 4.852294921875000000e-02 -9.332275390625000000e-02 2.069091796875000000e-02 -1.391601562500000000e-02 -2.069091796875000000e-02 3.112792968750000000e-02 6.719970703125000000e-02 -1.373291015625000000e-02 -8.709716796875000000e-02 -4.226684570312500000e-02 3.021240234375000000e-02 -6.094360351562500000e-02 2.087402343750000000e-02 4.522705078125000000e-02 -9.368896484375000000e-02 -7.281494140625000000e-02 -5.361938476562500000e-02 -4.153442382812500000e-02 6.573486328125000000e-02 3.509521484375000000e-02 -8.398437500000000000e-02 6.402587890625000000e-02 -8.050537109375000000e-02 -2.032470703125000000e-02 8.856201171875000000e-02 -5.310058593750000000e-03 -6.347656250000000000e-02 3.509521484375000000e-02 7.745361328125000000e-02 -5.599975585937500000e-02 -5.508422851562500000e-02 -6.878662109375000000e-02 5.999755859375000000e-02 -7.324218750000000000e-03 -1.099586486816406250e-03 9.039306640625000000e-02

-4.043579101562500000e-02 5.767822265625000000e-02 9.185791015625000000e-02 -8.343505859375000000e-02 -2.090454101562500000e-02 3.167724609375000000e-02 8.056640625000000000e-03 1.940917968750000000e-02 5.624389648437500000e-02 -5.566406250000000000e-02 -4.098510742187500000e-02 -1.968383789062500000e-02 5.340576171875000000e-02 5.218505859375000000e-02 3.457641601562500000e-02 1.730346679687500000e-02 -9.094238281250000000e-02 7.489013671875000000e-02 7.171630859375000000e-02 -5.929565429687500000e-02 6.622314453125000000e-02 -2.032470703125000000e-02 6.945800781250000000e-02 -3.018188476562500000e-02 6.958007812500000000e-03 6.732177734375000000e-02 -1.135253906250000000e-02 8.270263671875000000e-02 -1.264953613281250000e-02 1.385688781738281250e-03 -1.247406005859375000e-03 6.240844726562500000e-02 -2.270507812500000000e-02 6.280517578125000000e-02 2.504348754882812500e-03 2.819824218750000000e-02 7.464599609375000000e-02 -2.156066894531250000e-02

-6.781005859375000000e-02 7.940673828125000000e-02 -3.265380859375000000e-02 -6.573486328125000000e-02 4.916381835937500000e-02 -1.957702636718750000e-02 -7.629394531250000000e-02 -4.577636718750000000e-03 -9.130859375000000000e-02 4.412841796875000000e-02 -1.637268066406250000e-02 -4.751586914062500000e-02 2.859497070312500000e-02 -7.696533203125000000e-02 5.072021484375000000e-02 -8.087158203125000000e-02 -3.369140625000000000e-02 1.309394836425781250e-03 7.214355468750000000e-02 4.766845703125000000e-02 -8.508300781250000000e-02 -5.532836914062500000e-02 6.634521484375000000e-02 6.500244140625000000e-02 -1.483154296875000000e-02 -9.336471557617187500e-04 2.008056640625000000e-02 -6.323242187500000000e-02 -8.306884765625000000e-02 -7.604980468750000000e-02 -8.642578125000000000e-02 5.932617187500000000e-02 7.196044921875000000e-02 -8.984375000000000000e-02 -1.089477539062500000e-02 -6.561279296875000000e-03 -2.883911132812500000e-03 -3.814697265625000000e-02

4.669189453125000000e-02 2.087402343750000000e-02 -2.343750000000000000e-02 -5.886840820312500000e-02 -2.661132812500000000e-02 -2.288818359375000000e-02 -6.622314453125000000e-02 5.804443359375000000e-02 -4.431152343750000000e-02 6.683349609375000000e-02 1.280212402343750000e-02 1.082611083984375000e-02 6.229400634765625000e-03 4.003906250000000000e-02 -8.306884765625000000e-02 -2.122497558593750000e-02 -9.167480468750000000e-02 3.842163085937500000e-02 5.764770507812500000e-02 -9.204101562500000000e-02 -7.653808593750000000e-02 8.660888671875000000e-02 1.972961425781250000e-02 -6.488037109375000000e-02 -7.409667968750000000e-02 9.167480468750000000e-02 7.843017578125000000e-02 7.904052734375000000e-02 1.757812500000000000e-02 -9.124755859375000000e-02 -4.440307617187500000e-02 8.013916015625000000e-02 -1.795959472656250000e-02 -8.654785156250000000e-02 1.519012451171875000e-02 -4.483032226562500000e-02 -1.737976074218750000e-02 -7.702636718750000000e-02

-5.636596679687500000e-02 1.940917968750000000e-02 3.112792968750000000e-02 6.988525390625000000e-03 -3.933715820312500000e-02 6.439208984375000000e-02 -6.112670898437500000e-02 -7.427978515625000000e-02 1.628112792968750000e-02 -4.443359375000000000e-02 1.869201660156250000e-02 -4.882812500000000000e-02 -4.959106445312500000e-02 -7.757568359375000000e-02 9.320068359375000000e-02 -2.856445312500000000e-02 -6.951904296875000000e-02 1.812744140625000000e-02 8.917236328125000000e-02 -9.689331054687500000e-03 1.264190673828125000e-02 3.839111328125000000e-02 -7.759094238281250000e-03 -8.117675781250000000e-03 -6.420898437500000000e-02 -9.565353393554687500e-04 1.829528808593750000e-02 -4.812622070312500000e-02 2.288818359375000000e-02 -3.182983398437500000e-02 -6.768798828125000000e-02 6.903076171875000000e-02 -4.153442382812500000e-02 5.126953125000000000e-03 -1.428222656250000000e-02 -9.204101562500000000e-02 8.953857421875000000e-02 -6.530761718750000000e-02

-6.304931640625000000e-02 2.873229980468750000e-02 4.379272460937500000e-02 3.784179687500000000e-02 -1.263427734375000000e-02 -2.836608886718750000e-02 -8.874511718750000000e-02 3.863525390625000000e-02 3.545761108398437500e-03 -8.511543273925781250e-04 -2.757263183593750000e-02 2.140808105468750000e-02 -8.422851562500000000e-02 -1.231384277343750000e-02 -4.156494140625000000e-02 6.927490234375000000e-02 -5.117797851562500000e-02 -2.676391601562500000e-02 -4.269409179687500000e-02 4.402160644531250000e-03 1.522064208984375000e-02 -4.916381835937500000e-02 5.410766601562500000e-02 -3.457641601562500000e-02 -8.215332031250000000e-02 4.046630859375000000e-02 -6.396484375000000000e-02 3.906250000000000000e-02 1.608276367187500000e-02 5.383300781250000000e-02 -7.049560546875000000e-02 -7.092285156250000000e-02 7.672119140625000000e-02 5.474853515625000000e-02 -8.471679687500000000e-02 8.660888671875000000e-02 -5.685424804687500000e-02 -3.805541992187500000e-02

2.153396606445312500e-03 3.839111328125000000e-02 -5.197143554687500000e-02 8.251953125000000000e-02 -1.808166503906250000e-02 9.002685546875000000e-02 8.367919921875000000e-02 -7.141113281250000000e-03 -3.167724609375000000e-02 -4.978179931640625000e-03 -5.592346191406250000e-03 -4.898071289062500000e-02 4.830932617187500000e-02 1.638793945312500000e-02 -3.732299804687500000e-02 8.898925781250000000e-02 -8.972167968750000000e-02 -8.776855468750000000e-02 -5.502319335937500000e-02 4.348754882812500000e-02 -7.769775390625000000e-02 1.643371582031250000e-02 8.947753906250000000e-02 8.105468750000000000e-02 1.826286315917968750e-04 2.397155761718750000e-02 2.639770507812500000e-02 5.816650390625000000e-02 6.530761718750000000e-03 5.545043945312500000e-02 7.470703125000000000e-02 3.585815429687500000e-02 3.616333007812500000e-02 4.937744140625000000e-02 3.399658203125000000e-02 8.184814453125000000e-02 -8.325195312500000000e-02 -3.414916992187500000e-02

-5.249023437500000000e-02 -1.473999023437500000e-02 4.995727539062500000e-02 8.996582031250000000e-02 7.789611816406250000e-03 -1.574707031250000000e-02 -2.929687500000000000e-03 -6.204223632812500000e-02 4.330444335937500000e-02 -5.053710937500000000e-02 8.056640625000000000e-02 9.246826171875000000e-02 -2.845764160156250000e-02 -6.420898437500000000e-02 7.049560546875000000e-02 2.186584472656250000e-02 8.813476562500000000e-02 7.659912109375000000e-02 8.129882812500000000e-02 -1.264953613281250000e-02 6.884765625000000000e-02 -7.360839843750000000e-02 2.410888671875000000e-02 -1.386642456054687500e-03 -1.190185546875000000e-02 7.623291015625000000e-02 6.542968750000000000e-02 2.616882324218750000e-02 -5.526733398437500000e-02 -6.124877929687500000e-02 -6.872558593750000000e-02 -8.898925781250000000e-02 -3.152465820312500000e-02 3.460693359375000000e-02 6.835937500000000000e-02 8.804321289062500000e-03 -6.634521484375000000e-02 -3.038406372070312500e-03

2.305603027343750000e-02 -2.550125122070312500e-03 3.436279296875000000e-02 3.900146484375000000e-02 -4.013061523437500000e-02 4.449462890625000000e-02 8.416748046875000000e-02 1.757812500000000000e-02 -8.441162109375000000e-02 1.531219482421875000e-02 3.753662109375000000e-03 8.343505859375000000e-02 -4.785156250000000000e-02 7.672119140625000000e-02 -1.994323730468750000e-02 8.471679687500000000e-02 -8.728027343750000000e-02 -7.183837890625000000e-02 8.735656738281250000e-03 -6.304931640625000000e-02 -2.256774902343750000e-02 1.671791076660156250e-03 3.393554687500000000e-02 -6.439208984375000000e-02 3.131103515625000000e-02 6.286621093750000000e-02 -2.615356445312500000e-02 -3.936767578125000000e-02 -5.123901367187500000e-02 1.336669921875000000e-02 -3.674316406250000000e-02 1.803588867187500000e-02 -2.618789672851562500e-03 -5.599975585937500000e-02 -6.008148193359375000e-03 9.895324707031250000e-03 -3.506469726562500000e-02 7.775878906250000000e-02

6.229400634765625000e-03 9.295654296875000000e-02 -6.222534179687500000e-02 -6.988525390625000000e-02 -2.912902832031250000e-02 -3.787231445312500000e-02 4.486083984375000000e-02 -1.647949218750000000e-02 9.259033203125000000e-02 4.669189453125000000e-02 -8.160400390625000000e-02 -8.581542968750000000e-02 -2.287292480468750000e-02 -4.629516601562500000e-02 7.354736328125000000e-02 2.969360351562500000e-02 -9.075927734375000000e-02 -1.372528076171875000e-02 -3.128051757812500000e-02 -5.691528320312500000e-02 5.841064453125000000e-02 -9.112548828125000000e-02 -4.266357421875000000e-02 -7.977294921875000000e-02 -9.240722656250000000e-02 -7.757568359375000000e-02 4.410743713378906250e-06 -1.117706298828125000e-02 -2.819824218750000000e-02 -7.775878906250000000e-02 7.196044921875000000e-02 -8.892822265625000000e-02 -9.167480468750000000e-02 1.391601562500000000e-02 -9.112548828125000000e-02 -3.256225585937500000e-02 -1.409149169921875000e-02 9.063720703125000000e-02

-6.365966796875000000e-02 -1.226806640625000000e-02 6.097412109375000000e-02 -6.365966796875000000e-02 -1.924133300781250000e-02 -7.858276367187500000e-03 -5.343627929687500000e-02 6.610107421875000000e-02 -5.541992187500000000e-02 4.229736328125000000e-02 -5.090332031250000000e-02 -2.522277832031250000e-02 -3.421020507812500000e-02 3.579711914062500000e-02 -5.233764648437500000e-02 5.963134765625000000e-02 7.464599609375000000e-02 -5.343627929687500000e-02 9.136962890625000000e-02 -1.597595214843750000e-02 -5.691528320312500000e-02 -4.006958007812500000e-02 -1.098632812500000000e-02 6.976318359375000000e-02 3.277587890625000000e-02 1.518249511718750000e-02 -7.153320312500000000e-02 8.160400390625000000e-02 -2.856445312500000000e-02 6.793212890625000000e-02 -6.915283203125000000e-02 1.392364501953125000e-02 -9.277343750000000000e-02 8.514404296875000000e-02 8.460998535156250000e-03 6.024169921875000000e-02 1.850891113281250000e-02 6.971359252929687500e-04

1.849365234375000000e-02 -5.859375000000000000e-03 -3.146362304687500000e-02 -3.366088867187500000e-02 -9.295654296875000000e-02 3.112792968750000000e-02 -1.501464843750000000e-02 7.324218750000000000e-04 7.708740234375000000e-02 -9.521484375000000000e-03 7.049560546875000000e-02 -4.211425781250000000e-03 -7.244873046875000000e-02 6.439208984375000000e-02 1.831054687500000000e-03 4.058837890625000000e-02 4.754638671875000000e-02 -2.581787109375000000e-02 2.673339843750000000e-02 3.948974609375000000e-02 1.171875000000000000e-02 4.571533203125000000e-02 -2.453613281250000000e-02 -2.819824218750000000e-02 8.746337890625000000e-02 -4.263305664062500000e-02 -5.252075195312500000e-02 -2.380371093750000000e-02 4.864501953125000000e-02 9.002685546875000000e-02 -7.281494140625000000e-02 2.819824218750000000e-02 2.362060546875000000e-02 7.232666015625000000e-02 -5.307006835937500000e-02 -7.141113281250000000e-03 3.765869140625000000e-02 -7.135009765625000000e-02

4.167556762695312500e-04 5.706787109375000000e-02 -3.237915039062500000e-02 1.551055908203125000e-02 -3.717041015625000000e-02 2.711486816406250000e-02 -6.274414062500000000e-02 2.380371093750000000e-02 2.691650390625000000e-02 -1.144409179687500000e-02 3.826904296875000000e-02 -9.059906005859375000e-05 -3.820800781250000000e-02 -2.096176147460937500e-03 -3.683471679687500000e-02 -3.909301757812500000e-02 5.493164062500000000e-02 -9.167480468750000000e-02 7.409667968750000000e-02 8.184814453125000000e-02 8.361816406250000000e-02 -4.449462890625000000e-02 1.322174072265625000e-02 -7.702636718750000000e-02 -8.435058593750000000e-02 -2.342224121093750000e-02 5.404663085937500000e-02 -7.775878906250000000e-02 -3.146362304687500000e-02 -9.136962890625000000e-02 -8.038330078125000000e-02 -3.753662109375000000e-02 -7.318115234375000000e-02 -3.094482421875000000e-02 2.462768554687500000e-02 3.497314453125000000e-02 3.906250000000000000e-02 6.768798828125000000e-02

1.904296875000000000e-02 3.460693359375000000e-02 1.220703125000000000e-02 -8.447265625000000000e-02 -4.037475585937500000e-02 -3.112792968750000000e-02 -5.874633789062500000e-02 -7.080078125000000000e-02 -6.767272949218750000e-03 -1.388549804687500000e-02 -6.341552734375000000e-02 3.427124023437500000e-02 -3.439331054687500000e-02 6.221771240234375000e-03 -2.816772460937500000e-02 6.317138671875000000e-02 -7.739257812500000000e-02 2.406311035156250000e-02 -4.211425781250000000e-02 8.972167968750000000e-02 -8.728027343750000000e-02 -1.466369628906250000e-02 -4.867553710937500000e-02 2.405166625976562500e-03 3.570556640625000000e-02 4.263305664062500000e-02 6.390380859375000000e-02 5.743408203125000000e-02 -5.718231201171875000e-03 1.809692382812500000e-02 2.114868164062500000e-02 -1.734924316406250000e-02 3.753662109375000000e-02 2.600097656250000000e-02 -5.889892578125000000e-02 -9.130859375000000000e-02 8.306884765625000000e-02 -7.086181640625000000e-02

-1.354980468750000000e-02 3.179931640625000000e-02 -8.782958984375000000e-02 -2.307128906250000000e-02 6.292724609375000000e-02 8.966064453125000000e-02 2.105712890625000000e-02 -7.208251953125000000e-02 5.816650390625000000e-02 7.427978515625000000e-02 5.145263671875000000e-02 8.148193359375000000e-02 -9.887695312500000000e-03 4.669189453125000000e-02 -5.764770507812500000e-02 5.999755859375000000e-02 6.500244140625000000e-02 -5.142211914062500000e-02 -6.549072265625000000e-02 -3.128051757812500000e-02 -5.398559570312500000e-02 -9.094238281250000000e-02 -3.640747070312500000e-02 2.526855468750000000e-02 7.159423828125000000e-02 -2.069091796875000000e-02 1.904296875000000000e-02 -1.172637939453125000e-02 2.801513671875000000e-02 -9.368896484375000000e-02 -8.087158203125000000e-02 8.123779296875000000e-02 3.717041015625000000e-02 -8.239746093750000000e-03 1.776123046875000000e-02 3.643798828125000000e-02 7.391357421875000000e-02 -8.636474609375000000e-02

-3.326416015625000000e-02 -1.136016845703125000e-02 7.196044921875000000e-02 -9.033203125000000000e-02 4.803466796875000000e-02 -2.764892578125000000e-02 1.300048828125000000e-02 -5.343627929687500000e-02 7.232666015625000000e-02 7.598876953125000000e-02 3.491210937500000000e-02 -3.237915039062500000e-02 -1.374816894531250000e-02 2.622985839843750000e-02 2.993774414062500000e-02 -3.628540039062500000e-02 -6.347656250000000000e-02 -5.984497070312500000e-02 3.437995910644531250e-04 -2.426147460937500000e-02 -7.080078125000000000e-02 -2.052307128906250000e-02 -2.998352050781250000e-02 -1.117706298828125000e-02 1.062011718750000000e-02 2.220153808593750000e-02 -7.763671875000000000e-02 -2.539062500000000000e-02 -6.604003906250000000e-02 -1.734924316406250000e-02 -4.766845703125000000e-02 -6.347656250000000000e-02 8.673095703125000000e-02 -1.776123046875000000e-02 -5.999755859375000000e-02 -1.519775390625000000e-02 6.573486328125000000e-02 -3.436279296875000000e-02

4.095458984375000000e-02 -2.838134765625000000e-02 6.475830078125000000e-02 9.361267089843750000e-03 -7.501220703125000000e-02 1.721191406250000000e-02 7.720947265625000000e-02 2.105712890625000000e-02 1.155090332031250000e-02 8.807373046875000000e-02 7.553100585937500000e-03 -2.362060546875000000e-02 -9.521484375000000000e-03 -4.947662353515625000e-03 -3.585815429687500000e-02 4.351806640625000000e-02 6.622314453125000000e-02 2.159118652343750000e-03 -1.666259765625000000e-02 6.243896484375000000e-02 -2.534866333007812500e-03 -7.666015625000000000e-02 4.461669921875000000e-02 4.498291015625000000e-02 8.599853515625000000e-02 4.193115234375000000e-02 6.475830078125000000e-02 -5.478858947753906250e-04 -3.823852539062500000e-02 3.546142578125000000e-02 -9.887695312500000000e-03 -6.094360351562500000e-02 1.721191406250000000e-02 6.134033203125000000e-02 -6.512451171875000000e-02 -6.774902343750000000e-03 7.701873779296875000e-03 -2.986145019531250000e-02

-7.403564453125000000e-02 -7.305145263671875000e-03 -3.878784179687500000e-02 -3.796386718750000000e-02 -4.119873046875000000e-02 1.099395751953125000e-02 -1.483154296875000000e-02 -5.709838867187500000e-02 -5.419921875000000000e-02 -7.122802734375000000e-02 -6.065368652343750000e-03 -3.518676757812500000e-02 6.628417968750000000e-02 -8.972167968750000000e-02 9.231567382812500000e-03 5.664062500000000000e-02 1.921081542968750000e-02 1.574707031250000000e-02 -9.161376953125000000e-02 5.187988281250000000e-02 5.233764648437500000e-02 8.984375000000000000e-02 9.234619140625000000e-02 -3.073120117187500000e-02 -8.032226562500000000e-02 -5.670166015625000000e-02 8.227539062500000000e-02 1.418304443359375000e-02 -7.519531250000000000e-02 -6.048583984375000000e-02 -8.984375000000000000e-02 -8.935546875000000000e-02 -4.614257812500000000e-02 -8.233642578125000000e-02 -7.592773437500000000e-02 -8.343505859375000000e-02 -6.036376953125000000e-02 1.940917968750000000e-02

-7.061767578125000000e-02 -1.684570312500000000e-02 8.892822265625000000e-02 -7.666015625000000000e-02 -3.805160522460937500e-03 4.238128662109375000e-03 4.681396484375000000e-02 4.119873046875000000e-02 1.042175292968750000e-02 -5.769729614257812500e-04 2.400207519531250000e-02 1.904296875000000000e-02 6.585693359375000000e-02 8.526611328125000000e-02 -4.904174804687500000e-02 2.987670898437500000e-02 -2.784729003906250000e-02 -8.306884765625000000e-02 5.889892578125000000e-02 9.039306640625000000e-02 6.842041015625000000e-02 7.562255859375000000e-02 -8.728027343750000000e-02 -1.500701904296875000e-02 5.218505859375000000e-02 -2.473449707031250000e-02 8.038330078125000000e-02 9.075927734375000000e-02 1.721191406250000000e-02 5.072021484375000000e-02 4.046630859375000000e-02 5.548095703125000000e-02 8.587646484375000000e-02 4.998779296875000000e-02 -3.201293945312500000e-02 -7.922363281250000000e-02 5.621337890625000000e-02 -7.208251953125000000e-02

-8.306884765625000000e-02 -5.838012695312500000e-02 2.567291259765625000e-03 1.574707031250000000e-02 8.514404296875000000e-02 1.190185546875000000e-02 2.581787109375000000e-02 -3.112792968750000000e-02 2.600097656250000000e-02 5.340576171875000000e-02 6.646728515625000000e-02 -1.336669921875000000e-02 -7.678985595703125000e-03 -8.728027343750000000e-02 2.966308593750000000e-02 5.841064453125000000e-02 -8.068847656250000000e-02 8.819580078125000000e-02 8.624267578125000000e-02 -4.629516601562500000e-02 -3.311157226562500000e-02 3.546142578125000000e-02 -4.226684570312500000e-02 1.318359375000000000e-02 5.047607421875000000e-02 -9.379386901855468750e-04 1.611328125000000000e-02 -1.428222656250000000e-02 6.182861328125000000e-02 -6.732177734375000000e-02 -6.640625000000000000e-02 7.598876953125000000e-02 4.974365234375000000e-02 8.477783203125000000e-02 -4.464721679687500000e-02 -8.636474609375000000e-02 2.600097656250000000e-02 -2.838134765625000000e-02

2.966308593750000000e-02 5.877685546875000000e-02 -1.153564453125000000e-02 -6.878662109375000000e-02 9.696960449218750000e-03 -8.142089843750000000e-02 5.560302734375000000e-02 1.794433593750000000e-02 8.880615234375000000e-02 1.593017578125000000e-02 -4.943847656250000000e-03 -1.318359375000000000e-02 2.105712890625000000e-02 2.856445312500000000e-02 -1.501464843750000000e-02 -7.556152343750000000e-02 -9.513854980468750000e-03 5.084228515625000000e-02 -2.325439453125000000e-02 -6.805419921875000000e-02 -2.270507812500000000e-02 3.289794921875000000e-02 -6.823730468750000000e-02 -3.146362304687500000e-02 -5.361938476562500000e-02 2.526855468750000000e-02 4.211425781250000000e-03 5.377197265625000000e-02 -6.951904296875000000e-02 -2.838134765625000000e-02 -1.098632812500000000e-02 5.291748046875000000e-02 -1.646041870117187500e-03 -9.020996093750000000e-02 -4.537963867187500000e-02 -5.068969726562500000e-02 -8.874511718750000000e-02 8.013916015625000000e-02

-1.352691650390625000e-02 -2.046585083007812500e-03 -7.214355468750000000e-02 -5.279541015625000000e-02 7.409667968750000000e-02 -5.816650390625000000e-02 -5.490112304687500000e-02 4.241943359375000000e-02 1.838684082031250000e-02 -3.317260742187500000e-02 3.469848632812500000e-02 -4.022216796875000000e-02 3.094482421875000000e-02 -6.854248046875000000e-02 -9.393310546875000000e-02 9.313964843750000000e-02 4.943847656250000000e-02 -8.056640625000000000e-03 9.696960449218750000e-03 -1.425933837890625000e-02 1.896667480468750000e-02 3.518676757812500000e-02 -6.021118164062500000e-02 6.518554687500000000e-02 -5.050659179687500000e-02 -3.552246093750000000e-02 8.172607421875000000e-02 -3.963470458984375000e-03 -9.112548828125000000e-02 -7.720947265625000000e-02 -1.332855224609375000e-02 1.366424560546875000e-02 -8.654785156250000000e-02 -4.391479492187500000e-02 -7.208251953125000000e-02 5.145263671875000000e-02 -6.890869140625000000e-02 -5.139160156250000000e-02

7.701873779296875000e-03 -7.885742187500000000e-02 4.901123046875000000e-02 -4.028320312500000000e-02 -5.743408203125000000e-02 8.148193359375000000e-02 4.901123046875000000e-02 -2.545166015625000000e-02 2.581787109375000000e-02 -4.013061523437500000e-03 -5.337524414062500000e-02 8.734130859375000000e-02 1.736450195312500000e-02 -1.085281372070312500e-03 4.352569580078125000e-03 -3.598022460937500000e-02 -2.532958984375000000e-02 6.858825683593750000e-03 -5.957031250000000000e-02 6.823730468750000000e-02 2.937316894531250000e-02 -6.823730468750000000e-02 1.089477539062500000e-02 8.923339843750000000e-02 1.391601562500000000e-02 9.020996093750000000e-02 1.184082031250000000e-02 -5.688476562500000000e-02 6.475830078125000000e-02 -8.929443359375000000e-02 7.794189453125000000e-02 5.340576171875000000e-02 5.926513671875000000e-02 3.167724609375000000e-02 -6.347656250000000000e-02 5.401611328125000000e-02 -8.819580078125000000e-02 -6.787109375000000000e-02

-1.811218261718750000e-02 -4.537963867187500000e-02 -7.137298583984375000e-03 -3.244400024414062500e-03 1.923561096191406250e-03 1.464843750000000000e-02 6.072998046875000000e-02 4.779052734375000000e-02 -7.336425781250000000e-02 -1.172637939453125000e-02 -5.609130859375000000e-02 2.983093261718750000e-02 7.092285156250000000e-02 6.329345703125000000e-02 4.046630859375000000e-02 1.274871826171875000e-02 -1.232147216796875000e-02 5.950927734375000000e-02 -3.002929687500000000e-02 -6.085205078125000000e-02 -6.512451171875000000e-02 2.433776855468750000e-02 -8.551025390625000000e-02 3.680419921875000000e-02 -7.043457031250000000e-02 8.032226562500000000e-02 -3.518676757812500000e-02 3.692626953125000000e-02 -5.490112304687500000e-02 3.118896484375000000e-02 7.545471191406250000e-03 6.951904296875000000e-02 -1.081085205078125000e-02 7.281494140625000000e-02 -4.971313476562500000e-02 -5.581665039062500000e-02 4.278564453125000000e-02 7.015228271484375000e-03

-6.896972656250000000e-02 2.911376953125000000e-02 -4.519653320312500000e-02 4.669189453125000000e-02 -7.635498046875000000e-02 2.197265625000000000e-02 -9.039306640625000000e-02 -8.306884765625000000e-02 4.888916015625000000e-02 -1.174163818359375000e-02 9.106445312500000000e-02 1.412963867187500000e-02 2.130126953125000000e-02 -5.165100097656250000e-03 -7.629394531250000000e-02 -7.263183593750000000e-02 -3.234863281250000000e-02 -6.530761718750000000e-02 -3.167724609375000000e-02 -6.896972656250000000e-02 3.909301757812500000e-02 -1.465606689453125000e-02 -5.038452148437500000e-02 4.342651367187500000e-02 5.120849609375000000e-02 9.094238281250000000e-02 -1.140594482421875000e-02 -2.474975585937500000e-02 2.933502197265625000e-03 -4.692077636718750000e-03 -8.489990234375000000e-02 -7.391357421875000000e-02 2.004623413085937500e-03 -7.519531250000000000e-02 -7.830810546875000000e-02 7.281494140625000000e-02 -4.611206054687500000e-02 9.210205078125000000e-02

1.611328125000000000e-02 -2.783203125000000000e-02 -6.329345703125000000e-02 -1.135253906250000000e-02 1.098632812500000000e-02 2.691650390625000000e-02 -1.226806640625000000e-02 -6.512451171875000000e-02 -2.748489379882812500e-03 7.305908203125000000e-02 -8.306884765625000000e-02 -7.556152343750000000e-02 -1.471519470214843750e-03 -3.988647460937500000e-02 4.791259765625000000e-02 -1.922607421875000000e-02 7.720947265625000000e-02 -1.831054687500000000e-02 -3.823852539062500000e-02 -7.299804687500000000e-02 4.278564453125000000e-02 -3.567504882812500000e-02 4.864501953125000000e-02 -5.911254882812500000e-02 8.056640625000000000e-03 -2.709960937500000000e-02 -3.823852539062500000e-02 -5.178833007812500000e-02 -1.831054687500000000e-03 6.170654296875000000e-02 -7.226562500000000000e-02 3.546142578125000000e-02 7.354736328125000000e-02 2.124023437500000000e-02 -3.695678710937500000e-02 3.131103515625000000e-02 -3.295898437500000000e-03 4.608154296875000000e-02

7.269287109375000000e-02 -2.783203125000000000e-02 -2.750396728515625000e-03 2.272033691406250000e-02 1.776123046875000000e-02 -6.915283203125000000e-02 -3.146362304687500000e-02 -3.988647460937500000e-02 -4.885864257812500000e-02 5.108642578125000000e-02 -5.453491210937500000e-02 3.179931640625000000e-02 -2.947998046875000000e-02 -4.467773437500000000e-02 -7.208251953125000000e-02 4.498291015625000000e-02 1.634597778320312500e-03 -7.446289062500000000e-02 2.952575683593750000e-03 6.976318359375000000e-02 7.928466796875000000e-02 -3.128051757812500000e-02 4.241943359375000000e-02 -5.709838867187500000e-02 1.831054687500000000e-04 1.940917968750000000e-02 -3.695678710937500000e-02 -7.025146484375000000e-02 1.556396484375000000e-02 -8.325195312500000000e-02 -2.655029296875000000e-02 -8.599853515625000000e-02 -2.819824218750000000e-02 4.943847656250000000e-03 -6.567382812500000000e-02 6.549072265625000000e-02 5.328369140625000000e-02 5.706787109375000000e-02

5.111694335937500000e-02 -6.567382812500000000e-02 1.565551757812500000e-02 -1.577758789062500000e-02 7.019042968750000000e-02 1.885986328125000000e-02 2.050781250000000000e-02 -5.252075195312500000e-02 -8.251953125000000000e-02 -1.110839843750000000e-02 2.911376953125000000e-02 -7.095336914062500000e-03 7.843017578125000000e-02 5.160522460937500000e-02 4.916381835937500000e-02 4.239082336425781250e-04 -8.428955078125000000e-02 3.085327148437500000e-02 3.619384765625000000e-02 6.292724609375000000e-02 -3.134155273437500000e-02 2.927780151367187500e-03 5.194091796875000000e-02 2.615356445312500000e-02 -7.171630859375000000e-02 8.319091796875000000e-02 -6.507873535156250000e-03 4.116821289062500000e-02 4.675292968750000000e-02 4.840087890625000000e-02 2.543640136718750000e-02 -7.586669921875000000e-02 8.123779296875000000e-02 1.354980468750000000e-02 3.005981445312500000e-02 8.221435546875000000e-02 -1.892089843750000000e-02 -8.905029296875000000e-02

-6.585693359375000000e-02 7.025146484375000000e-02 -1.354980468750000000e-02 -5.892944335937500000e-02 -9.332275390625000000e-02 -1.520538330078125000e-02 -2.673339843750000000e-02 6.829833984375000000e-02 -6.039428710937500000e-02 -1.355743408203125000e-02 -9.112358093261718750e-04 -8.947753906250000000e-02 1.649475097656250000e-02 -7.226562500000000000e-02 -4.702758789062500000e-02 3.793334960937500000e-02 -9.346008300781250000e-03 -8.032226562500000000e-02 8.270263671875000000e-02 4.559326171875000000e-02 2.507019042968750000e-02 -9.529113769531250000e-03 2.359008789062500000e-02 6.390380859375000000e-02 -3.933715820312500000e-02 1.022338867187500000e-02 -7.958984375000000000e-02 -9.295654296875000000e-02 -1.245117187500000000e-02 8.660888671875000000e-02 -6.530761718750000000e-02 -4.794311523437500000e-02 2.069091796875000000e-02 2.142333984375000000e-02 8.050537109375000000e-02 6.842041015625000000e-02 -6.365966796875000000e-02 3.002929687500000000e-02

1.794433593750000000e-02 -8.197021484375000000e-02 -6.878662109375000000e-02 5.490112304687500000e-02 5.911254882812500000e-02 2.435302734375000000e-02 -4.922485351562500000e-02 4.595947265625000000e-02 8.532714843750000000e-02 3.713989257812500000e-02 1.716613769531250000e-02 -7.647705078125000000e-02 -3.451538085937500000e-02 -1.196289062500000000e-02 2.233886718750000000e-02 6.768798828125000000e-02 -2.819824218750000000e-02 6.390380859375000000e-02 4.672241210937500000e-02 8.709716796875000000e-02 -3.164672851562500000e-02 2.581787109375000000e-02 4.586791992187500000e-02 3.616333007812500000e-02 -5.508422851562500000e-02 5.032348632812500000e-02 -5.267333984375000000e-02 -8.746337890625000000e-02 -6.002807617187500000e-02 5.337524414062500000e-02 7.324218750000000000e-02 6.427001953125000000e-02 8.892822265625000000e-02 8.422851562500000000e-03 3.948974609375000000e-02 2.105712890625000000e-02 4.306030273437500000e-02 8.489990234375000000e-02

-5.709838867187500000e-02 -7.885742187500000000e-02 1.844787597656250000e-02 5.615234375000000000e-03 2.362060546875000000e-02 -7.592773437500000000e-02 -8.453369140625000000e-02 -5.361938476562500000e-02 5.102539062500000000e-02 2.764892578125000000e-02 7.763671875000000000e-02 8.593750000000000000e-02 -7.396697998046875000e-03 -2.958679199218750000e-02 -4.309082031250000000e-02 8.020019531250000000e-02 4.776000976562500000e-02 8.990478515625000000e-02 -2.172851562500000000e-02 3.860473632812500000e-02 1.257324218750000000e-02 6.243896484375000000e-02 4.919433593750000000e-02 8.270263671875000000e-02 1.940917968750000000e-02 7.684326171875000000e-02 -6.027221679687500000e-03 5.966186523437500000e-03 -4.647827148437500000e-02 -4.342651367187500000e-02 1.689147949218750000e-02 -5.236816406250000000e-02 1.299285888671875000e-02 -4.776000976562500000e-02 -6.637573242187500000e-03 4.888916015625000000e-02 6.225585937500000000e-03 6.304931640625000000e-02

4.534912109375000000e-02 -3.721714019775390625e-04 6.658935546875000000e-02 8.404541015625000000e-02 -5.383300781250000000e-02 -7.373046875000000000e-02 9.332275390625000000e-02 5.126953125000000000e-03 -8.123779296875000000e-02 -6.039428710937500000e-02 -8.123779296875000000e-02 9.346008300781250000e-03 7.012939453125000000e-02 -2.252197265625000000e-02 6.170654296875000000e-02 8.929443359375000000e-02 -5.709838867187500000e-02 -6.767272949218750000e-03 -4.281616210937500000e-02 -4.446411132812500000e-02 8.514404296875000000e-02 9.259033203125000000e-02 -7.116699218750000000e-02 -4.171752929687500000e-02 -5.838012695312500000e-02 -5.160522460937500000e-02 -3.567504882812500000e-02 -3.256225585937500000e-02 3.216552734375000000e-02 -6.027221679687500000e-03 -8.544921875000000000e-02 -7.812500000000000000e-02 2.288818359375000000e-02 7.342529296875000000e-02 -1.812744140625000000e-02 -8.239746093750000000e-03 8.453369140625000000e-02 -7.336425781250000000e-02

2.050781250000000000e-02 -5.581665039062500000e-02 4.010009765625000000e-02 6.060791015625000000e-02 -5.307006835937500000e-02 -2.929687500000000000e-03 -6.204223632812500000e-02 -2.050781250000000000e-02 -1.538085937500000000e-02 7.379150390625000000e-02 7.574462890625000000e-02 -9.002685546875000000e-02 5.108642578125000000e-02 3.729248046875000000e-02 9.039306640625000000e-02 2.912902832031250000e-02 2.893066406250000000e-02 -5.343627929687500000e-02 7.379150390625000000e-02 8.514404296875000000e-02 3.240966796875000000e-02 3.094482421875000000e-02 -4.556274414062500000e-02 8.551025390625000000e-02 1.501464843750000000e-02 -1.574707031250000000e-02 3.387451171875000000e-02 -2.764892578125000000e-02 -6.439208984375000000e-02 2.325439453125000000e-02 1.062011718750000000e-02 -4.483032226562500000e-02 -1.098632812500000000e-02 -5.801391601562500000e-02 -3.845214843750000000e-03 -5.545043945312500000e-02 -1.995849609375000000e-02 3.863525390625000000e-02

4.306030273437500000e-02 5.743408203125000000e-02 1.664733886718750000e-02 6.161499023437500000e-02 4.116821289062500000e-02 -7.812500000000000000e-02 -6.842041015625000000e-02 -7.299804687500000000e-02 -2.896118164062500000e-02 5.813598632812500000e-02 5.053710937500000000e-02 -2.056884765625000000e-02 3.604125976562500000e-02 -8.032226562500000000e-02 3.680419921875000000e-02 6.787109375000000000e-02 -2.807617187500000000e-02 5.307006835937500000e-02 2.954101562500000000e-02 4.010009765625000000e-02 -8.880615234375000000e-02 -5.911254882812500000e-02 6.118774414062500000e-02 8.996582031250000000e-02 -7.666015625000000000e-02 6.713867187500000000e-02 -3.021240234375000000e-02 6.976318359375000000e-02 7.086181640625000000e-02 2.117919921875000000e-02 -1.533508300781250000e-02 -9.475708007812500000e-03 -2.345275878906250000e-02 -6.039428710937500000e-02 2.563476562500000000e-02 -9.368896484375000000e-02 -7.739257812500000000e-02 2.023315429687500000e-02

7.617187500000000000e-02 -9.681701660156250000e-03 6.244659423828125000e-03 7.328033447265625000e-03 -3.350830078125000000e-02 -6.384277343750000000e-02 5.126953125000000000e-03 7.305908203125000000e-02 2.862548828125000000e-02 -1.933288574218750000e-02 2.899169921875000000e-02 3.695678710937500000e-02 -7.324218750000000000e-02 -5.276489257812500000e-02 5.960083007812500000e-02 -6.408691406250000000e-03 5.496215820312500000e-02 8.453369140625000000e-02 -7.055664062500000000e-02 1.602172851562500000e-02 3.491210937500000000e-02 -7.849121093750000000e-02 -5.712890625000000000e-02 7.934570312500000000e-02 3.424072265625000000e-02 5.468750000000000000e-02 -8.926391601562500000e-03 -4.528045654296875000e-03 7.025146484375000000e-02 6.633758544921875000e-03 -3.228759765625000000e-02 7.244873046875000000e-02 -4.010009765625000000e-02 -5.126953125000000000e-03 3.900146484375000000e-02 4.754638671875000000e-02 7.977294921875000000e-02 7.318115234375000000e-02

-4.064941406250000000e-02 -9.002685546875000000e-02 -6.458282470703125000e-03 3.335571289062500000e-02 7.556152343750000000e-02 3.768920898437500000e-02 1.794433593750000000e-02 -7.611083984375000000e-02 -7.940673828125000000e-02 -2.923583984375000000e-02 -3.433227539062500000e-02 -6.112670898437500000e-02 -1.477050781250000000e-02 -8.154296875000000000e-02 4.066467285156250000e-03 -1.544189453125000000e-02 4.092407226562500000e-02 3.189086914062500000e-03 6.185913085937500000e-02 5.581665039062500000e-02 5.397796630859375000e-03 -3.070068359375000000e-02 2.415466308593750000e-02 7.098388671875000000e-02 6.475830078125000000e-02 3.015136718750000000e-02 3.588867187500000000e-02 -9.674072265625000000e-03 -1.585388183593750000e-02 5.603027343750000000e-02 -5.056762695312500000e-02 -1.084899902343750000e-02 -9.039306640625000000e-02 -9.094238281250000000e-02 7.305908203125000000e-02 -6.860351562500000000e-02 9.210205078125000000e-02 4.383087158203125000e-03

-1.684570312500000000e-02 -9.057617187500000000e-02 -5.783081054687500000e-02 -1.831054687500000000e-02 6.805419921875000000e-02 -4.922485351562500000e-02 -7.775878906250000000e-02 -3.494262695312500000e-02 -5.746459960937500000e-02 5.377197265625000000e-02 -7.556152343750000000e-02 -9.368896484375000000e-02 -2.362060546875000000e-02 -8.270263671875000000e-02 -7.006835937500000000e-02 5.584716796875000000e-02 5.670166015625000000e-02 -7.171630859375000000e-02 6.768798828125000000e-02 7.171630859375000000e-02 -2.380371093750000000e-02 3.216552734375000000e-02 -8.709716796875000000e-02 -3.823852539062500000e-02 -5.380249023437500000e-02 -2.618408203125000000e-02 8.880615234375000000e-02 7.720947265625000000e-02 7.025146484375000000e-02 -8.233642578125000000e-02 -7.391357421875000000e-02 9.704589843750000000e-03 6.170654296875000000e-02 -4.760742187500000000e-03 6.622314453125000000e-02 4.754638671875000000e-02 9.246826171875000000e-02 2.435302734375000000e-02

8.013916015625000000e-02 8.258056640625000000e-02 4.608154296875000000e-02 -3.762817382812500000e-02 -8.064270019531250000e-03 3.546142578125000000e-02 2.508544921875000000e-02 -7.995605468750000000e-02 -3.240966796875000000e-02 3.054809570312500000e-02 2.299499511718750000e-02 9.185791015625000000e-02 -7.330322265625000000e-02 -2.528381347656250000e-02 -1.298522949218750000e-02 -7.312011718750000000e-02 -2.487182617187500000e-02 -1.077270507812500000e-02 -9.075927734375000000e-02 -4.302978515625000000e-02 7.452392578125000000e-02 -5.160522460937500000e-02 3.063964843750000000e-02 1.002502441406250000e-02 5.816650390625000000e-02 -4.949951171875000000e-02 -4.013061523437500000e-02 -4.702758789062500000e-02 -2.764892578125000000e-02 6.549072265625000000e-02 2.291870117187500000e-02 3.538131713867187500e-03 5.963134765625000000e-02 -1.025390625000000000e-02 -2.381896972656250000e-02 -6.329345703125000000e-02 -8.325195312500000000e-02 -4.486083984375000000e-02

