2.581787109375000000e-02 1.280784606933593750e-03 -2.362060546875000000e-02 6.878662109375000000e-02 5.859375000000000000e-03 -6.640625000000000000e-02 3.875732421875000000e-02 -6.042480468750000000e-03 3.277587890625000000e-02 -4.849243164062500000e-02 4.266357421875000000e-02 6.402587890625000000e-02 1.318359375000000000e-02 -4.098510742187500000e-02 5.364418029785156250e-07 -4.666137695312500000e-02 3.643798828125000000e-02 5.743408203125000000e-02 4.449462890625000000e-02 -3.713989257812500000e-02 1.556396484375000000e-02 6.976318359375000000e-02 -9.112548828125000000e-02 8.056640625000000000e-03 -7.098388671875000000e-02 3.295898437500000000e-03 -7.482910156250000000e-02 -1.080322265625000000e-02 6.225585937500000000e-03 -2.874755859375000000e-02 -2.801513671875000000e-02 2.288818359375000000e-02 -8.636474609375000000e-02 -4.226684570312500000e-02 7.501220703125000000e-02 3.240966796875000000e-02 -1.062011718750000000e-02 1.300048828125000000e-02

-4.739379882812500000e-02 3.240966796875000000e-02 -1.762390136718750000e-02 -5.343627929687500000e-02 -6.591796875000000000e-02 -8.215332031250000000e-02 1.629638671875000000e-02 -6.329345703125000000e-02 -9.880065917968750000e-03 -5.032348632812500000e-02 6.149291992187500000e-02 -9.082031250000000000e-02 1.739501953125000000e-02 -4.446411132812500000e-02 3.421020507812500000e-02 3.381347656250000000e-02 1.426696777343750000e-03 -5.270385742187500000e-02 6.097412109375000000e-02 3.787231445312500000e-02 4.595947265625000000e-02 8.843994140625000000e-02 -7.818603515625000000e-02 1.544952392578125000e-03 9.027099609375000000e-02 3.720092773437500000e-02 -5.329132080078125000e-03 6.683349609375000000e-02 3.204345703125000000e-02 5.755615234375000000e-02 -8.032226562500000000e-02 -8.984375000000000000e-02 6.658935546875000000e-02 8.624267578125000000e-02 3.063964843750000000e-02 -9.338378906250000000e-03 -5.966186523437500000e-02 2.566528320312500000e-02

2.557373046875000000e-02 -2.680969238281250000e-02 -3.985595703125000000e-02 6.982421875000000000e-02 1.374053955078125000e-02 1.777648925781250000e-02 5.767822265625000000e-02 -6.878662109375000000e-02 5.221557617187500000e-02 -8.551025390625000000e-02 -3.137207031250000000e-02 2.770996093750000000e-02 -6.185913085937500000e-02 6.134033203125000000e-02 5.007934570312500000e-02 3.991699218750000000e-02 6.106567382812500000e-02 6.173706054687500000e-02 8.374023437500000000e-02 6.811523437500000000e-02 -6.756591796875000000e-02 -3.417968750000000000e-02 5.160522460937500000e-02 3.640747070312500000e-02 3.533935546875000000e-02 6.738281250000000000e-02 -7.629394531250000000e-02 2.593994140625000000e-02 7.940673828125000000e-02 7.659912109375000000e-02 7.312011718750000000e-02 -2.568054199218750000e-02 -7.427978515625000000e-02 5.108642578125000000e-02 -6.513595581054687500e-04 -6.457519531250000000e-02 -5.484008789062500000e-02 -5.081176757812500000e-02

-6.054687500000000000e-02 -3.439331054687500000e-02 -6.185913085937500000e-02 4.614257812500000000e-02 6.915283203125000000e-02 5.963134765625000000e-02 -7.409667968750000000e-02 9.246826171875000000e-02 3.833007812500000000e-02 7.537841796875000000e-03 1.690673828125000000e-02 8.703613281250000000e-02 -4.978179931640625000e-03 4.043579101562500000e-02 8.746337890625000000e-02 3.775024414062500000e-02 -1.776123046875000000e-02 -3.509521484375000000e-02 3.713607788085937500e-03 4.953002929687500000e-02 4.000854492187500000e-02 8.709716796875000000e-02 -8.685302734375000000e-02 -6.726074218750000000e-02 -6.494140625000000000e-02 5.908203125000000000e-02 6.856918334960937500e-04 3.765869140625000000e-02 -5.160522460937500000e-02 -1.508331298828125000e-02 8.929443359375000000e-02 1.413726806640625000e-02 -1.356506347656250000e-02 -4.904174804687500000e-02 -4.376220703125000000e-02 -1.735687255859375000e-04 -1.414489746093750000e-02 -2.726745605468750000e-02

-7.299804687500000000e-02 6.549072265625000000e-02 -3.402709960937500000e-02 -2.067565917968750000e-02 -8.563232421875000000e-02 1.922607421875000000e-02 8.917236328125000000e-02 8.294677734375000000e-02 -6.915283203125000000e-02 2.270507812500000000e-02 -4.003906250000000000e-02 -8.929443359375000000e-02 -8.856201171875000000e-02 -1.776123046875000000e-02 -1.446723937988281250e-03 8.843994140625000000e-02 -2.763366699218750000e-02 -9.240722656250000000e-02 9.506225585937500000e-03 -2.236938476562500000e-02 1.773071289062500000e-02 4.156494140625000000e-02 1.600265502929687500e-03 -5.911254882812500000e-02 -5.783081054687500000e-02 -8.911132812500000000e-02 1.554107666015625000e-02 -6.860351562500000000e-02 -2.783203125000000000e-02 3.167724609375000000e-02 -7.794189453125000000e-02 -2.070617675781250000e-02 -7.061767578125000000e-02 -5.032348632812500000e-02 4.718017578125000000e-02 -2.142333984375000000e-02 -3.057861328125000000e-02 1.611328125000000000e-02

-7.330322265625000000e-02 -5.801391601562500000e-02 3.460693359375000000e-02 -4.244995117187500000e-02 -1.924133300781250000e-02 -7.116699218750000000e-02 -2.929687500000000000e-02 3.021240234375000000e-02 2.984619140625000000e-02 9.864807128906250000e-03 -8.642578125000000000e-02 -1.143646240234375000e-02 -5.633544921875000000e-02 -8.752441406250000000e-02 -3.030395507812500000e-02 5.606079101562500000e-02 -3.704833984375000000e-02 6.719970703125000000e-02 -5.520629882812500000e-02 -2.139282226562500000e-02 -6.353759765625000000e-02 -3.469848632812500000e-02 5.554199218750000000e-02 3.433227539062500000e-02 -8.911132812500000000e-02 5.374145507812500000e-02 -5.053710937500000000e-02 8.038330078125000000e-02 -5.471801757812500000e-02 -6.927490234375000000e-02 6.890869140625000000e-02 -7.458496093750000000e-02 -1.358032226562500000e-02 -8.874511718750000000e-02 -2.568054199218750000e-02 -8.819580078125000000e-02 -4.818725585937500000e-02 -4.974365234375000000e-02

-3.125000000000000000e-02 4.339599609375000000e-02 -9.167480468750000000e-02 1.140594482421875000e-02 2.871704101562500000e-02 -2.287292480468750000e-02 -7.904052734375000000e-02 4.132080078125000000e-02 8.099365234375000000e-02 -2.021789550781250000e-02 -5.480957031250000000e-02 3.170776367187500000e-02 -1.108551025390625000e-02 -5.645751953125000000e-02 6.469726562500000000e-02 8.642578125000000000e-02 -5.761718750000000000e-02 1.286506652832031250e-03 -5.209350585937500000e-02 -8.612060546875000000e-02 -6.481933593750000000e-02 -5.609130859375000000e-02 8.447265625000000000e-02 -6.524658203125000000e-02 -4.409790039062500000e-02 2.587890625000000000e-02 4.035949707031250000e-03 4.409790039062500000e-02 -3.541946411132812500e-03 9.326171875000000000e-02 1.657104492187500000e-02 -2.760314941406250000e-02 -9.039306640625000000e-02 9.320068359375000000e-02 3.335571289062500000e-02 -3.494262695312500000e-02 5.459594726562500000e-02 -2.363586425781250000e-02

-8.642578125000000000e-02 -9.826660156250000000e-03 -9.039306640625000000e-02 -3.479003906250000000e-02 8.264160156250000000e-02 6.658935546875000000e-02 1.354980468750000000e-02 -9.368896484375000000e-02 -1.580810546875000000e-02 6.762695312500000000e-02 9.277343750000000000e-02 -4.699707031250000000e-02 5.172729492187500000e-03 -2.366638183593750000e-02 -3.546142578125000000e-02 -1.856994628906250000e-02 4.852294921875000000e-02 -6.217956542968750000e-04 -7.867431640625000000e-02 -6.246948242187500000e-02 -1.023864746093750000e-02 3.497314453125000000e-02 1.623535156250000000e-02 -5.634307861328125000e-03 -5.783081054687500000e-02 6.262207031250000000e-02 -5.331420898437500000e-02 -5.847167968750000000e-02 -1.232910156250000000e-02 -7.696533203125000000e-02 -8.166503906250000000e-02 4.678344726562500000e-02 7.116699218750000000e-02 -4.501342773437500000e-02 -5.142211914062500000e-02 9.353637695312500000e-03 6.060791015625000000e-02 5.053710937500000000e-02

9.301757812500000000e-02 2.030944824218750000e-02 2.891540527343750000e-02 4.129028320312500000e-02 1.226806640625000000e-02 -6.274414062500000000e-02 5.487060546875000000e-02 -7.739257812500000000e-02 2.780151367187500000e-02 -3.845214843750000000e-02 1.919555664062500000e-02 3.967285156250000000e-02 8.239746093750000000e-02 5.886840820312500000e-02 -5.044555664062500000e-02 2.328491210937500000e-02 -4.125976562500000000e-02 2.775573730468750000e-02 -8.166503906250000000e-02 -1.070404052734375000e-02 8.111572265625000000e-02 -9.323120117187500000e-03 -4.333496093750000000e-02 -5.038452148437500000e-02 -7.537841796875000000e-02 -6.658935546875000000e-02 3.433227539062500000e-02 -8.929443359375000000e-02 -3.182983398437500000e-02 7.397460937500000000e-02 5.639648437500000000e-02 7.098388671875000000e-02 -4.373168945312500000e-02 -2.233886718750000000e-02 -1.351928710937500000e-02 4.278564453125000000e-02 -4.837036132812500000e-02 -9.613037109375000000e-04

-7.775878906250000000e-02 3.680419921875000000e-02 -8.618164062500000000e-02 3.094482421875000000e-02 5.950927734375000000e-02 4.425048828125000000e-02 -4.760742187500000000e-03 3.839111328125000000e-02 -8.041381835937500000e-03 -1.264190673828125000e-02 1.832580566406250000e-02 7.025146484375000000e-02 1.538848876953125000e-02 6.207275390625000000e-02 -6.365966796875000000e-02 -7.189941406250000000e-02 7.342529296875000000e-02 3.656005859375000000e-02 4.168701171875000000e-02 8.074951171875000000e-02 2.378845214843750000e-02 1.317596435546875000e-02 -3.970336914062500000e-02 -2.656555175781250000e-02 2.819824218750000000e-02 -1.647949218750000000e-02 8.233642578125000000e-02 -6.365966796875000000e-02 9.039306640625000000e-02 5.450439453125000000e-02 -3.530883789062500000e-02 -7.922363281250000000e-02 2.673339843750000000e-02 1.043701171875000000e-02 -2.581787109375000000e-02 -4.995727539062500000e-02 1.611328125000000000e-02 3.131103515625000000e-02

7.598876953125000000e-02 4.119873046875000000e-02 -2.362060546875000000e-02 -7.464599609375000000e-02 3.427124023437500000e-02 2.803039550781250000e-02 5.584716796875000000e-02 5.780029296875000000e-02 -2.824401855468750000e-02 4.608154296875000000e-02 8.148193359375000000e-02 5.807495117187500000e-02 1.071166992187500000e-02 -7.122039794921875000e-03 5.123138427734375000e-03 7.232666015625000000e-02 -1.049804687500000000e-02 4.734039306640625000e-03 -4.904174804687500000e-02 6.646728515625000000e-02 -4.336547851562500000e-02 5.621337890625000000e-02 5.813598632812500000e-02 -5.175781250000000000e-02 3.765869140625000000e-02 1.554107666015625000e-02 -9.149169921875000000e-02 -6.805419921875000000e-03 -4.043579101562500000e-02 9.173583984375000000e-02 9.320068359375000000e-02 3.933715820312500000e-02 5.767822265625000000e-02 -7.666015625000000000e-02 -7.336425781250000000e-02 -5.361938476562500000e-02 4.376220703125000000e-02 -4.354858398437500000e-02

9.283447265625000000e-02 -6.774902343750000000e-03 1.647949218750000000e-03 -2.014160156250000000e-03 -1.464843750000000000e-02 9.039306640625000000e-02 -6.042480468750000000e-03 6.658935546875000000e-02 -2.215576171875000000e-02 -7.647705078125000000e-02 -1.409912109375000000e-02 7.122802734375000000e-02 -5.563354492187500000e-02 5.548095703125000000e-02 5.889892578125000000e-02 -8.380126953125000000e-02 -4.684448242187500000e-02 5.487060546875000000e-02 2.270507812500000000e-02 -1.226806640625000000e-02 6.402587890625000000e-02 -3.659057617187500000e-02 6.408691406250000000e-03 -7.904052734375000000e-02 -8.087158203125000000e-02 7.830810546875000000e-02 9.259033203125000000e-02 1.373291015625000000e-02 1.153564453125000000e-02 -7.098388671875000000e-02 4.022216796875000000e-02 -7.226562500000000000e-02 1.721191406250000000e-02 -2.197265625000000000e-02 8.843994140625000000e-02 4.718017578125000000e-02 4.302978515625000000e-02 4.644775390625000000e-02

5.087280273437500000e-02 2.436828613281250000e-02 -5.270385742187500000e-02 4.528045654296875000e-03 -6.225585937500000000e-03 -6.750488281250000000e-02 7.873535156250000000e-03 -8.819580078125000000e-02 -7.434082031250000000e-02 -5.725097656250000000e-02 -4.876708984375000000e-02 8.111572265625000000e-02 -3.918457031250000000e-02 6.683349609375000000e-02 1.753234863281250000e-02 7.891845703125000000e-02 -3.634643554687500000e-02 -4.202270507812500000e-02 8.935546875000000000e-02 5.105590820312500000e-02 6.420898437500000000e-02 -6.782531738281250000e-03 3.710937500000000000e-02 -5.480957031250000000e-02 -4.501342773437500000e-02 -9.155273437500000000e-02 1.806640625000000000e-02 3.961181640625000000e-02 -1.849365234375000000e-02 1.253509521484375000e-02 9.252929687500000000e-02 3.753662109375000000e-02 5.068969726562500000e-02 -8.892822265625000000e-02 -1.313781738281250000e-02 -6.347656250000000000e-02 1.617431640625000000e-02 -8.746337890625000000e-02

-7.153320312500000000e-02 2.325439453125000000e-02 5.804443359375000000e-02 7.025146484375000000e-02 -8.935546875000000000e-02 2.050781250000000000e-02 -5.453491210937500000e-02 -8.691406250000000000e-02 7.812500000000000000e-02 -2.687072753906250000e-02 -9.014892578125000000e-02 5.252075195312500000e-02 7.458496093750000000e-02 7.281494140625000000e-02 -9.088134765625000000e-02 7.531738281250000000e-02 -2.009582519531250000e-02 -6.768798828125000000e-02 -9.356689453125000000e-02 2.299499511718750000e-02 -2.201843261718750000e-02 1.461791992187500000e-02 -5.603027343750000000e-02 8.642578125000000000e-02 -5.856323242187500000e-02 9.167480468750000000e-02 -4.629516601562500000e-02 -3.292846679687500000e-02 5.303955078125000000e-02 -4.360961914062500000e-02 -8.636474609375000000e-02 3.433227539062500000e-02 8.270263671875000000e-02 -2.380371093750000000e-03 -4.058837890625000000e-02 -1.080322265625000000e-02 -6.750488281250000000e-02 -8.880615234375000000e-02

-6.225585937500000000e-03 -1.043701171875000000e-02 7.305908203125000000e-02 -5.728149414062500000e-02 9.332275390625000000e-02 -4.885864257812500000e-02 -6.878662109375000000e-02 7.830810546875000000e-02 5.548095703125000000e-02 6.939697265625000000e-02 1.209259033203125000e-02 -4.867553710937500000e-02 7.928466796875000000e-02 1.557159423828125000e-02 -6.112670898437500000e-02 -6.933593750000000000e-02 -1.152801513671875000e-02 2.069091796875000000e-02 4.760742187500000000e-03 -7.684326171875000000e-02 4.388427734375000000e-02 -3.823852539062500000e-02 -9.368896484375000000e-02 -5.014038085937500000e-02 9.887695312500000000e-03 1.391601562500000000e-02 2.014160156250000000e-02 -5.142211914062500000e-02 -1.464843750000000000e-03 -7.958984375000000000e-02 2.343750000000000000e-02 7.391357421875000000e-02 8.636474609375000000e-02 1.629638671875000000e-02 2.378463745117187500e-03 3.662109375000000000e-03 -8.435058593750000000e-02 -5.087280273437500000e-02

8.111572265625000000e-02 -6.736755371093750000e-03 4.559326171875000000e-02 6.951904296875000000e-02 4.110717773437500000e-02 5.303955078125000000e-02 9.002685546875000000e-02 7.269287109375000000e-02 1.074218750000000000e-02 -7.849121093750000000e-02 6.573486328125000000e-02 2.310180664062500000e-02 -1.097869873046875000e-02 1.136779785156250000e-02 3.158569335937500000e-02 -1.533508300781250000e-03 -6.250000000000000000e-02 5.780029296875000000e-02 9.628295898437500000e-03 -4.071044921875000000e-02 5.102539062500000000e-02 3.216552734375000000e-02 -4.107666015625000000e-02 -3.115844726562500000e-02 7.305908203125000000e-02 6.982421875000000000e-02 -8.642578125000000000e-02 -9.582519531250000000e-03 4.936218261718750000e-03 2.697753906250000000e-02 -1.210021972656250000e-02 -4.470825195312500000e-02 7.633209228515625000e-03 5.560302734375000000e-02 3.906250000000000000e-02 -1.042938232421875000e-02 3.939819335937500000e-02 -8.013916015625000000e-02

-7.482910156250000000e-02 -2.453613281250000000e-02 2.856445312500000000e-02 -3.970336914062500000e-02 1.333618164062500000e-02 6.402587890625000000e-02 -4.577636718750000000e-03 -3.787231445312500000e-02 8.929443359375000000e-02 4.376220703125000000e-02 -8.068847656250000000e-02 1.078033447265625000e-02 -5.105590820312500000e-02 9.185791015625000000e-02 -4.995727539062500000e-02 -1.300048828125000000e-02 -7.904052734375000000e-02 -6.457519531250000000e-02 2.416992187500000000e-02 -3.631591796875000000e-03 -1.904296875000000000e-02 -1.392364501953125000e-02 -8.380126953125000000e-02 -7.556152343750000000e-02 -4.867553710937500000e-02 5.413818359375000000e-02 -3.878784179687500000e-02 -7.061767578125000000e-02 4.669189453125000000e-02 3.973388671875000000e-02 -5.325317382812500000e-02 2.195739746093750000e-02 -2.376556396484375000e-03 3.240966796875000000e-02 -5.325317382812500000e-02 -2.947998046875000000e-02 -8.050537109375000000e-02 4.864501953125000000e-02

7.705688476562500000e-04 -5.984497070312500000e-02 6.829833984375000000e-02 5.889892578125000000e-02 -4.602050781250000000e-02 -9.075927734375000000e-02 -4.867553710937500000e-02 6.768798828125000000e-02 8.447265625000000000e-02 3.927612304687500000e-02 -7.598876953125000000e-02 -3.982543945312500000e-02 8.337402343750000000e-02 -2.537536621093750000e-02 6.027221679687500000e-02 -6.695556640625000000e-02 4.931640625000000000e-02 -3.237915039062500000e-02 7.629394531250000000e-02 -5.551147460937500000e-02 5.902099609375000000e-02 3.286743164062500000e-02 -5.380249023437500000e-02 -2.758789062500000000e-02 -5.288696289062500000e-02 6.011962890625000000e-02 8.215332031250000000e-02 -4.768371582031250000e-03 7.830810546875000000e-02 -3.051757812500000000e-02 -2.980041503906250000e-02 -6.420898437500000000e-02 5.545043945312500000e-02 -7.391357421875000000e-02 -3.835678100585937500e-03 -5.215454101562500000e-02 -6.878662109375000000e-02 -5.270385742187500000e-02

4.132080078125000000e-02 8.294677734375000000e-02 7.940673828125000000e-02 8.843994140625000000e-02 1.646041870117187500e-03 2.937316894531250000e-03 7.281494140625000000e-02 -6.076049804687500000e-02 1.171875000000000000e-02 -3.768920898437500000e-02 -8.288574218750000000e-02 -6.240844726562500000e-02 2.362060546875000000e-02 -9.222412109375000000e-02 3.656005859375000000e-02 8.660888671875000000e-02 -4.519653320312500000e-02 9.346008300781250000e-03 -4.464721679687500000e-02 -4.428100585937500000e-02 6.549072265625000000e-02 -3.856658935546875000e-03 -9.407043457031250000e-03 -4.849243164062500000e-02 6.976318359375000000e-02 -2.052307128906250000e-02 2.854919433593750000e-02 4.901123046875000000e-02 -4.830932617187500000e-02 4.156494140625000000e-02 4.415893554687500000e-02 5.984497070312500000e-02 -8.032226562500000000e-02 8.404541015625000000e-02 1.908874511718750000e-02 -8.728027343750000000e-02 -1.098632812500000000e-02 -3.112792968750000000e-02

-3.512573242187500000e-02 -4.061889648437500000e-02 -3.112792968750000000e-02 8.148193359375000000e-02 -7.720947265625000000e-02 7.318115234375000000e-02 -5.599975585937500000e-02 -8.654785156250000000e-02 -6.475830078125000000e-02 -3.897094726562500000e-02 -8.123779296875000000e-02 -4.006958007812500000e-02 -6.584167480468750000e-03 -8.819580078125000000e-02 3.692626953125000000e-02 7.928466796875000000e-02 -8.178710937500000000e-02 5.218505859375000000e-02 -1.959228515625000000e-02 1.062011718750000000e-02 4.559326171875000000e-02 -1.025390625000000000e-02 -2.143859863281250000e-02 7.452392578125000000e-02 4.461669921875000000e-02 -7.629394531250000000e-02 4.222869873046875000e-03 7.354736328125000000e-02 6.549072265625000000e-02 1.116943359375000000e-02 2.856445312500000000e-02 1.739501953125000000e-02 -6.591796875000000000e-03 -5.819702148437500000e-02 4.394531250000000000e-03 -6.951904296875000000e-02 7.379150390625000000e-02 -2.709960937500000000e-02

-6.622314453125000000e-02 1.977539062500000000e-02 -4.098510742187500000e-02 -1.483154296875000000e-02 6.256103515625000000e-02 2.508544921875000000e-02 4.058837890625000000e-02 4.425048828125000000e-02 5.072021484375000000e-02 8.477783203125000000e-02 2.893066406250000000e-02 4.058837890625000000e-02 -1.190185546875000000e-02 7.757568359375000000e-02 -5.325317382812500000e-02 -8.984375000000000000e-02 6.866455078125000000e-02 4.632568359375000000e-02 1.757812500000000000e-02 -7.299804687500000000e-02 -4.922485351562500000e-02 1.776123046875000000e-02 -1.483154296875000000e-02 -8.654785156250000000e-02 -5.416870117187500000e-02 -7.171630859375000000e-02 -1.812744140625000000e-02 -8.801269531250000000e-02 -3.457641601562500000e-02 -1.446533203125000000e-02 3.436279296875000000e-02 2.178955078125000000e-02 1.192092895507812500e-07 -6.311035156250000000e-02 -4.959106445312500000e-02 4.241943359375000000e-02 3.460693359375000000e-02 2.398681640625000000e-02

3.628540039062500000e-02 -2.658081054687500000e-02 1.447296142578125000e-02 -6.561279296875000000e-02 -2.035522460937500000e-02 -2.543640136718750000e-02 -7.629394531250000000e-02 2.032470703125000000e-02 7.183837890625000000e-02 -1.073837280273437500e-03 -5.761718750000000000e-02 -7.543945312500000000e-02 -9.313964843750000000e-02 -5.841064453125000000e-02 7.794189453125000000e-02 1.643371582031250000e-02 5.267333984375000000e-02 6.988525390625000000e-02 9.002685546875000000e-02 -2.772521972656250000e-02 -4.763793945312500000e-02 3.573608398437500000e-02 4.895019531250000000e-02 -8.618164062500000000e-02 -9.057617187500000000e-02 -3.628540039062500000e-02 -5.606079101562500000e-02 1.895141601562500000e-02 7.672119140625000000e-02 3.808975219726562500e-03 -2.694702148437500000e-02 -8.160400390625000000e-02 5.081176757812500000e-02 9.872436523437500000e-03 8.258056640625000000e-02 7.745361328125000000e-02 -1.654052734375000000e-02 -2.166748046875000000e-02

-2.818298339843750000e-02 -8.544921875000000000e-02 -3.305435180664062500e-03 -4.531860351562500000e-02 4.074096679687500000e-02 7.830810546875000000e-02 4.718017578125000000e-02 -2.105712890625000000e-02 -6.439208984375000000e-02 -6.732177734375000000e-02 2.763366699218750000e-02 -8.508300781250000000e-02 -2.033996582031250000e-02 -8.453369140625000000e-02 6.756591796875000000e-02 4.870605468750000000e-02 -8.087158203125000000e-02 8.233642578125000000e-02 -1.759338378906250000e-02 5.108642578125000000e-02 1.576232910156250000e-02 4.188537597656250000e-03 1.412200927734375000e-02 5.016326904296875000e-03 2.014160156250000000e-03 -7.507324218750000000e-02 3.384399414062500000e-02 7.867431640625000000e-02 -3.439331054687500000e-02 8.160400390625000000e-02 -6.915283203125000000e-02 -3.442382812500000000e-02 7.562255859375000000e-02 8.160400390625000000e-02 2.767944335937500000e-02 7.391357421875000000e-02 7.904052734375000000e-02 5.194091796875000000e-02

-2.360534667968750000e-02 9.185791015625000000e-02 -2.928161621093750000e-02 7.794189453125000000e-02 7.511138916015625000e-03 7.379150390625000000e-02 6.024169921875000000e-02 -1.263427734375000000e-02 3.704833984375000000e-02 -3.298950195312500000e-02 2.041625976562500000e-02 -5.929565429687500000e-02 3.182983398437500000e-02 -8.956909179687500000e-03 8.682250976562500000e-03 -8.166503906250000000e-02 -6.756591796875000000e-02 6.370544433593750000e-04 6.579589843750000000e-02 -3.323364257812500000e-02 -5.197143554687500000e-02 1.976013183593750000e-02 -6.628417968750000000e-02 3.480911254882812500e-04 -2.215576171875000000e-02 2.435302734375000000e-02 -9.437561035156250000e-03 -8.398437500000000000e-02 -5.032348632812500000e-02 1.588439941406250000e-02 -7.733154296875000000e-02 8.038330078125000000e-02 5.047607421875000000e-02 8.404541015625000000e-02 7.092285156250000000e-02 6.756591796875000000e-02 5.438232421875000000e-02 5.760192871093750000e-03

1.996994018554687500e-03 4.425048828125000000e-02 -8.380126953125000000e-02 -8.471679687500000000e-02 -1.089477539062500000e-02 -4.336547851562500000e-02 4.241943359375000000e-02 4.888916015625000000e-02 9.773254394531250000e-03 -1.285552978515625000e-02 -5.538940429687500000e-02 4.566192626953125000e-03 -3.692626953125000000e-02 5.438232421875000000e-02 4.852294921875000000e-02 3.976440429687500000e-02 -1.864624023437500000e-02 -4.556274414062500000e-02 -5.068969726562500000e-02 -1.006317138671875000e-02 3.909301757812500000e-02 -9.075927734375000000e-02 -2.264404296875000000e-02 -9.986877441406250000e-03 2.929687500000000000e-02 9.259033203125000000e-02 4.409790039062500000e-02 3.216552734375000000e-02 7.781982421875000000e-02 -1.939392089843750000e-02 1.762390136718750000e-03 -7.281494140625000000e-02 -3.677368164062500000e-02 -6.842041015625000000e-02 -5.471801757812500000e-02 -3.494262695312500000e-02 1.649475097656250000e-02 8.551025390625000000e-02

-6.222534179687500000e-02 -2.911376953125000000e-02 -8.636474609375000000e-02 -1.885986328125000000e-02 3.094482421875000000e-02 9.259033203125000000e-02 -9.240722656250000000e-02 -6.225585937500000000e-03 7.196044921875000000e-02 -5.618286132812500000e-02 -6.896972656250000000e-02 4.388427734375000000e-02 -8.489990234375000000e-02 8.441162109375000000e-02 9.112548828125000000e-02 -7.629394531250000000e-02 -3.164672851562500000e-02 -7.574462890625000000e-02 5.731201171875000000e-02 4.498291015625000000e-02 -2.746582031250000000e-02 -2.471923828125000000e-02 -5.471801757812500000e-02 -1.704692840576171875e-05 -7.263183593750000000e-02 -1.629638671875000000e-02 -2.490234375000000000e-02 -3.659057617187500000e-02 3.619384765625000000e-02 1.831054687500000000e-02 6.243896484375000000e-02 -5.160522460937500000e-02 3.039550781250000000e-02 -1.190185546875000000e-02 -9.204101562500000000e-02 3.387451171875000000e-02 6.719970703125000000e-02 1.226806640625000000e-02

-7.446289062500000000e-02 -2.801513671875000000e-02 4.791259765625000000e-02 -1.704406738281250000e-02 -4.046630859375000000e-02 5.487060546875000000e-02 -8.422851562500000000e-03 4.974365234375000000e-02 -7.977294921875000000e-02 8.551025390625000000e-02 -4.354858398437500000e-02 -7.519531250000000000e-02 5.450439453125000000e-02 -6.475830078125000000e-02 7.708740234375000000e-02 -4.373168945312500000e-02 -8.984375000000000000e-02 -4.299926757812500000e-02 -6.039428710937500000e-02 3.692626953125000000e-02 7.457733154296875000e-03 4.742431640625000000e-02 -1.686096191406250000e-02 -3.384399414062500000e-02 -8.984375000000000000e-02 7.305908203125000000e-02 3.839111328125000000e-02 -7.574462890625000000e-02 -1.318359375000000000e-02 6.219482421875000000e-02 -7.596015930175781250e-04 8.477783203125000000e-02 -5.838012695312500000e-02 3.277587890625000000e-02 -5.947875976562500000e-02 -5.966186523437500000e-02 3.150939941406250000e-03 -7.318115234375000000e-02

1.850891113281250000e-02 5.181884765625000000e-02 -4.373168945312500000e-02 -4.080200195312500000e-02 -6.964111328125000000e-02 -4.318237304687500000e-02 -8.929443359375000000e-02 -7.189941406250000000e-02 8.209228515625000000e-02 -3.558349609375000000e-02 -5.138397216796875000e-03 -6.481933593750000000e-02 6.945800781250000000e-02 3.866577148437500000e-02 -7.232666015625000000e-02 -7.800292968750000000e-02 -9.197998046875000000e-02 -5.722045898437500000e-02 4.052734375000000000e-02 8.489990234375000000e-02 -6.618499755859375000e-04 3.762817382812500000e-02 1.577758789062500000e-02 5.715942382812500000e-02 -6.750488281250000000e-02 5.493164062500000000e-02 -3.955078125000000000e-02 -7.611083984375000000e-02 6.683349609375000000e-02 8.184814453125000000e-02 5.075073242187500000e-02 4.251098632812500000e-02 -1.512527465820312500e-03 -6.057739257812500000e-02 -5.275726318359375000e-03 -3.787231445312500000e-02 -3.588867187500000000e-02 -1.526641845703125000e-02

4.032135009765625000e-03 5.672454833984375000e-03 4.083251953125000000e-02 6.805419921875000000e-02 7.086181640625000000e-02 7.635498046875000000e-02 -9.039306640625000000e-02 -5.471801757812500000e-02 -9.020996093750000000e-02 7.757568359375000000e-02 -3.472900390625000000e-02 4.937744140625000000e-02 -3.933715820312500000e-02 6.182861328125000000e-02 1.954650878906250000e-02 7.830810546875000000e-02 5.596923828125000000e-02 -2.769470214843750000e-03 -2.781677246093750000e-02 -2.655029296875000000e-02 2.928161621093750000e-02 8.050537109375000000e-02 -4.672241210937500000e-02 -2.986145019531250000e-02 1.391601562500000000e-02 2.066040039062500000e-02 6.390380859375000000e-02 -8.453369140625000000e-02 6.353759765625000000e-02 -6.112670898437500000e-02 6.097412109375000000e-02 -3.494262695312500000e-02 -3.512573242187500000e-02 -4.263305664062500000e-02 -8.197021484375000000e-02 -3.768920898437500000e-02 3.619384765625000000e-02 1.171112060546875000e-02

8.599853515625000000e-02 -7.592773437500000000e-02 7.281494140625000000e-02 8.148193359375000000e-02 4.406738281250000000e-02 -1.043701171875000000e-02 7.891845703125000000e-02 6.109619140625000000e-02 9.143066406250000000e-02 7.592773437500000000e-02 8.312988281250000000e-02 -7.702636718750000000e-02 -1.520538330078125000e-02 6.652832031250000000e-02 5.633544921875000000e-02 -3.265380859375000000e-02 -6.842041015625000000e-02 -8.416748046875000000e-02 -6.488037109375000000e-02 3.347778320312500000e-02 8.197021484375000000e-02 -2.733230590820312500e-03 4.150390625000000000e-02 4.678344726562500000e-02 5.963134765625000000e-02 -1.399993896484375000e-02 -7.501220703125000000e-02 8.636474609375000000e-02 -3.421020507812500000e-02 -1.337432861328125000e-02 2.159118652343750000e-02 5.560302734375000000e-02 8.964538574218750000e-03 7.415771484375000000e-02 4.142761230468750000e-03 -5.325317382812500000e-02 -8.343505859375000000e-02 5.303955078125000000e-02

5.511474609375000000e-02 9.185791015625000000e-02 -2.037048339843750000e-02 -6.762695312500000000e-02 6.573486328125000000e-02 2.740859985351562500e-03 4.241943359375000000e-02 -4.394531250000000000e-03 6.494140625000000000e-02 -8.105468750000000000e-02 -9.063720703125000000e-02 -2.639770507812500000e-02 -3.216552734375000000e-02 -8.691406250000000000e-02 8.587646484375000000e-02 7.452392578125000000e-02 -1.788330078125000000e-02 3.283691406250000000e-02 -1.075744628906250000e-03 -7.141113281250000000e-02 3.494262695312500000e-02 -2.784729003906250000e-02 -4.412841796875000000e-02 7.499694824218750000e-03 -3.295898437500000000e-03 -7.061767578125000000e-02 3.652954101562500000e-02 -2.871704101562500000e-02 8.186340332031250000e-03 -6.268310546875000000e-02 2.088928222656250000e-02 6.799316406250000000e-02 7.342529296875000000e-02 4.095458984375000000e-02 -5.453491210937500000e-02 -5.490112304687500000e-02 4.022216796875000000e-02 -3.781127929687500000e-02

5.401611328125000000e-02 1.825332641601562500e-03 -6.585693359375000000e-02 2.288818359375000000e-02 -1.705932617187500000e-02 5.496978759765625000e-03 -1.428222656250000000e-02 5.010986328125000000e-02 -8.544921875000000000e-02 4.974365234375000000e-02 7.635498046875000000e-02 9.704589843750000000e-03 6.988525390625000000e-02 5.108642578125000000e-02 -5.618286132812500000e-02 3.619384765625000000e-02 -2.085876464843750000e-02 2.345275878906250000e-02 -3.112792968750000000e-02 4.937744140625000000e-02 -9.112548828125000000e-02 2.142333984375000000e-02 7.208251953125000000e-02 2.343750000000000000e-02 -1.647949218750000000e-03 6.243896484375000000e-02 -6.805419921875000000e-02 6.500244140625000000e-02 -4.098510742187500000e-02 4.229736328125000000e-02 6.146240234375000000e-02 1.831054687500000000e-02 -6.585693359375000000e-02 -4.354858398437500000e-02 4.193115234375000000e-02 -1.574707031250000000e-02 -8.160400390625000000e-02 -8.709716796875000000e-02

-7.720947265625000000e-02 -1.226806640625000000e-02 1.904296875000000000e-02 6.829833984375000000e-02 -4.208374023437500000e-02 -6.750488281250000000e-02 -5.984497070312500000e-02 6.060791015625000000e-02 -6.512451171875000000e-02 6.622314453125000000e-02 4.095458984375000000e-02 -8.438110351562500000e-03 1.446533203125000000e-02 -5.654907226562500000e-02 6.256103515625000000e-02 3.204345703125000000e-02 -8.422851562500000000e-03 3.167724609375000000e-02 -1.464843750000000000e-02 4.412841796875000000e-02 -7.922363281250000000e-02 -6.512451171875000000e-02 4.937744140625000000e-02 6.732177734375000000e-02 -5.783081054687500000e-02 -8.270263671875000000e-02 1.208496093750000000e-02 -9.338378906250000000e-03 -5.618286132812500000e-02 2.162170410156250000e-02 -3.002929687500000000e-02 6.646728515625000000e-02 8.013916015625000000e-02 7.598876953125000000e-02 6.573486328125000000e-02 6.390380859375000000e-02 3.436279296875000000e-02 5.364990234375000000e-02

-1.190185546875000000e-03 1.411437988281250000e-02 5.560302734375000000e-02 -4.211425781250000000e-02 4.565429687500000000e-02 -1.464080810546875000e-02 -3.201293945312500000e-02 4.376220703125000000e-02 6.124877929687500000e-02 -7.666015625000000000e-02 -1.622009277343750000e-02 5.801391601562500000e-02 6.057739257812500000e-02 6.329345703125000000e-02 9.161376953125000000e-02 -6.365966796875000000e-02 -7.556152343750000000e-02 3.253936767578125000e-03 -9.191894531250000000e-02 2.020263671875000000e-02 -1.494598388671875000e-02 3.570556640625000000e-02 3.189086914062500000e-02 -5.413818359375000000e-02 -2.764892578125000000e-02 -2.035522460937500000e-02 6.915283203125000000e-02 -4.940795898437500000e-02 -5.929565429687500000e-02 5.688476562500000000e-02 7.977294921875000000e-02 -5.255126953125000000e-02 -8.471679687500000000e-02 -3.182983398437500000e-02 6.970214843750000000e-02 -6.076049804687500000e-02 -9.020996093750000000e-02 3.103637695312500000e-02

1.361083984375000000e-02 7.904052734375000000e-02 -7.137298583984375000e-03 8.343505859375000000e-02 1.699829101562500000e-02 -4.592895507812500000e-02 7.818603515625000000e-02 5.523681640625000000e-02 -7.635498046875000000e-02 -4.598999023437500000e-02 8.160400390625000000e-02 1.655578613281250000e-03 -8.258056640625000000e-02 -5.130004882812500000e-02 5.847167968750000000e-02 -4.379272460937500000e-02 2.651214599609375000e-03 -7.537841796875000000e-02 8.447265625000000000e-02 3.787231445312500000e-02 -6.335449218750000000e-02 -5.838012695312500000e-02 -6.732177734375000000e-02 -1.753234863281250000e-02 -1.519775390625000000e-02 -8.471679687500000000e-02 8.404541015625000000e-02 5.072021484375000000e-02 -4.263305664062500000e-02 1.837730407714843750e-03 -9.344482421875000000e-02 -6.512451171875000000e-02 7.501220703125000000e-02 -3.329467773437500000e-02 -2.951049804687500000e-02 -1.335906982421875000e-02 -7.995605468750000000e-02 -8.728027343750000000e-02

4.125976562500000000e-02 -2.375793457031250000e-02 -7.867431640625000000e-02 6.011962890625000000e-02 4.797363281250000000e-02 -7.592773437500000000e-02 4.205322265625000000e-02 -1.845359802246093750e-04 -7.714843750000000000e-02 5.767822265625000000e-02 7.708740234375000000e-02 -1.500701904296875000e-02 1.205444335937500000e-02 7.789611816406250000e-03 4.782104492187500000e-02 -4.876708984375000000e-02 -4.543304443359375000e-03 -4.919433593750000000e-02 -8.636474609375000000e-02 7.513427734375000000e-02 -5.093383789062500000e-02 -6.137084960937500000e-02 3.125000000000000000e-02 4.351806640625000000e-02 6.060791015625000000e-02 -1.277160644531250000e-02 4.946899414062500000e-02 -9.057617187500000000e-02 6.579589843750000000e-02 -8.728027343750000000e-02 -5.123901367187500000e-02 4.052734375000000000e-02 2.064514160156250000e-02 -2.947998046875000000e-02 -6.122589111328125000e-04 -7.080078125000000000e-02 9.252929687500000000e-02 3.723144531250000000e-02

8.416748046875000000e-02 -9.521484375000000000e-03 9.338378906250000000e-03 -9.094238281250000000e-02 5.596923828125000000e-02 -2.343750000000000000e-02 -7.171630859375000000e-02 -8.929443359375000000e-02 -4.794311523437500000e-02 -4.592895507812500000e-02 -8.816719055175781250e-04 5.755424499511718750e-04 -3.842163085937500000e-02 -3.860473632812500000e-02 4.827880859375000000e-02 -8.508300781250000000e-02 9.210205078125000000e-02 3.057861328125000000e-02 -7.482910156250000000e-02 7.208251953125000000e-02 -7.409667968750000000e-02 1.666259765625000000e-02 8.697509765625000000e-02 -8.911132812500000000e-02 4.974365234375000000e-02 -2.801513671875000000e-02 7.647705078125000000e-02 -5.233764648437500000e-02 7.537841796875000000e-02 -2.746582031250000000e-02 -4.611206054687500000e-02 1.483154296875000000e-02 -5.526733398437500000e-02 6.072998046875000000e-02 7.830810546875000000e-02 6.976318359375000000e-02 -3.842163085937500000e-02 -5.233764648437500000e-02

9.149169921875000000e-02 -2.195739746093750000e-02 8.453369140625000000e-02 -8.233642578125000000e-02 5.718994140625000000e-02 2.142333984375000000e-02 -8.764648437500000000e-02 -8.453369140625000000e-02 6.945800781250000000e-02 -5.828857421875000000e-03 6.616210937500000000e-02 -8.538818359375000000e-02 4.278564453125000000e-02 2.485656738281250000e-02 -6.640625000000000000e-02 -1.121520996093750000e-02 -1.806640625000000000e-02 -1.919555664062500000e-02 8.050537109375000000e-02 3.567504882812500000e-02 -3.570556640625000000e-02 6.463623046875000000e-02 4.080200195312500000e-02 -7.830810546875000000e-02 -6.130981445312500000e-02 -6.536865234375000000e-02 9.173583984375000000e-02 9.259033203125000000e-02 6.842041015625000000e-02 -5.068969726562500000e-02 4.617309570312500000e-02 2.929687500000000000e-02 -8.489990234375000000e-02 2.199172973632812500e-03 5.911254882812500000e-02 6.965637207031250000e-03 -5.947875976562500000e-02 -4.025268554687500000e-02

