1.702880859375000000e-02 1.831054687500000000e-02 6.042480468750000000e-03 -2.124023437500000000e-02 -1.226806640625000000e-02 7.672119140625000000e-02 -7.775878906250000000e-02 6.225585937500000000e-03 9.183883666992187500e-04 -4.647827148437500000e-02 2.893066406250000000e-02 -5.801391601562500000e-02 3.660202026367187500e-03 -4.244995117187500000e-02 3.863525390625000000e-02 1.831054687500000000e-03 8.599853515625000000e-02 7.244873046875000000e-02 5.230712890625000000e-02 -2.563476562500000000e-03 -3.021240234375000000e-02 3.717041015625000000e-02 5.303955078125000000e-02 1.354980468750000000e-02 -6.512451171875000000e-02 9.063720703125000000e-02 4.595947265625000000e-02 4.827880859375000000e-02 4.791259765625000000e-02 -5.764770507812500000e-02 -3.549194335937500000e-02 6.329345703125000000e-02 -8.123779296875000000e-02 6.500244140625000000e-02 4.559326171875000000e-02 -2.288818359375000000e-02 8.819580078125000000e-02 -8.599853515625000000e-02

-2.746582031250000000e-02 -4.464721679687500000e-02 -8.544921875000000000e-02 1.607894897460937500e-03 9.143066406250000000e-02 2.288818359375000000e-02 -9.002685546875000000e-02 -8.251953125000000000e-02 -4.071044921875000000e-02 8.306884765625000000e-02 5.258178710937500000e-02 7.080078125000000000e-02 -4.263305664062500000e-02 3.472900390625000000e-02 1.928329467773437500e-03 7.236480712890625000e-03 3.799438476562500000e-02 -4.837036132812500000e-03 2.636718750000000000e-02 7.708740234375000000e-02 -9.222412109375000000e-02 -9.020996093750000000e-02 7.812500000000000000e-02 -9.075927734375000000e-02 3.253173828125000000e-02 -7.153320312500000000e-02 -4.647827148437500000e-02 -7.189941406250000000e-02 8.477783203125000000e-02 5.680084228515625000e-03 -7.702636718750000000e-02 -7.305145263671875000e-03 -3.750610351562500000e-02 -6.311035156250000000e-02 -9.017944335937500000e-03 7.452392578125000000e-02 -1.364898681640625000e-02 -2.760314941406250000e-02

8.966064453125000000e-02 -6.439208984375000000e-02 8.874511718750000000e-02 6.051635742187500000e-02 1.730346679687500000e-02 5.804443359375000000e-02 -8.068847656250000000e-02 -9.521484375000000000e-03 6.161499023437500000e-02 2.604675292968750000e-02 -8.129882812500000000e-02 -6.323242187500000000e-02 -4.226684570312500000e-02 -5.410766601562500000e-02 4.495239257812500000e-02 -1.124572753906250000e-02 5.676269531250000000e-02 6.896972656250000000e-02 4.989624023437500000e-02 2.801513671875000000e-02 -5.029296875000000000e-02 -4.217529296875000000e-02 -9.155273437500000000e-02 7.037353515625000000e-02 -9.240722656250000000e-02 -3.332519531250000000e-02 -3.903198242187500000e-02 4.309082031250000000e-02 -3.397464752197265625e-06 -9.307861328125000000e-02 4.357910156250000000e-02 -7.446289062500000000e-02 4.815673828125000000e-02 1.794433593750000000e-02 -6.051635742187500000e-02 -2.983093261718750000e-02 7.745361328125000000e-02 7.073974609375000000e-02

2.546691894531250000e-02 -6.039428710937500000e-02 2.069091796875000000e-02 -8.758544921875000000e-02 -2.047729492187500000e-02 -1.660346984863281250e-03 -3.384399414062500000e-02 -8.636474609375000000e-02 7.873535156250000000e-03 -9.368896484375000000e-02 -2.723693847656250000e-02 5.398559570312500000e-02 -1.788330078125000000e-02 7.373809814453125000e-03 -6.787109375000000000e-02 -9.173583984375000000e-02 -5.746459960937500000e-02 -8.746337890625000000e-02 1.296997070312500000e-02 -3.010559082031250000e-02 1.350402832031250000e-02 -9.002685546875000000e-02 -1.158142089843750000e-02 2.801513671875000000e-02 5.126953125000000000e-03 -6.536865234375000000e-02 -1.525878906250000000e-02 6.439208984375000000e-02 -2.160644531250000000e-02 -7.110595703125000000e-02 -2.416992187500000000e-02 7.928466796875000000e-02 -4.354858398437500000e-02 -7.629394531250000000e-02 -3.878784179687500000e-02 3.658294677734375000e-03 -8.837890625000000000e-02 4.153442382812500000e-02

6.756591796875000000e-02 -2.911376953125000000e-02 -2.600097656250000000e-02 5.120849609375000000e-02 -6.567382812500000000e-02 6.475830078125000000e-02 5.181884765625000000e-02 -2.014160156250000000e-03 -3.750610351562500000e-02 6.463623046875000000e-02 -5.911254882812500000e-02 7.794189453125000000e-02 7.501220703125000000e-02 -7.189941406250000000e-02 6.756591796875000000e-02 9.170532226562500000e-03 -2.105712890625000000e-02 5.255126953125000000e-02 5.108642578125000000e-02 -2.342224121093750000e-02 -4.119873046875000000e-02 -2.784729003906250000e-02 -3.822326660156250000e-03 6.130981445312500000e-02 -2.526855468750000000e-02 9.063720703125000000e-02 -3.164672851562500000e-02 6.038665771484375000e-03 -7.299804687500000000e-02 5.877685546875000000e-02 -1.834106445312500000e-02 6.500244140625000000e-02 6.365966796875000000e-02 7.049560546875000000e-02 -1.557159423828125000e-02 8.270263671875000000e-02 3.424072265625000000e-02 4.791259765625000000e-02

-8.091926574707031250e-04 1.098632812500000000e-02 5.627441406250000000e-02 2.132415771484375000e-03 7.958984375000000000e-02 8.404541015625000000e-02 -4.995727539062500000e-02 -7.574462890625000000e-02 -1.719665527343750000e-02 -2.058410644531250000e-02 -5.838012695312500000e-02 3.482055664062500000e-02 -6.042480468750000000e-02 2.510070800781250000e-02 2.986907958984375000e-03 -3.108215332031250000e-02 3.736495971679687500e-03 -7.452392578125000000e-02 -9.197998046875000000e-02 -4.626464843750000000e-02 1.354980468750000000e-02 -6.628417968750000000e-02 -1.885986328125000000e-02 1.385688781738281250e-03 -6.021118164062500000e-02 -4.165649414062500000e-02 8.953857421875000000e-02 -3.155517578125000000e-02 8.270263671875000000e-02 -5.108642578125000000e-02 -8.319091796875000000e-02 -2.400207519531250000e-02 3.753662109375000000e-02 5.072021484375000000e-02 -5.429077148437500000e-02 4.608154296875000000e-03 -4.486083984375000000e-02 -8.905029296875000000e-02

-4.754638671875000000e-02 -4.190063476562500000e-02 -7.885742187500000000e-02 -8.316040039062500000e-03 3.225708007812500000e-02 5.474090576171875000e-03 -3.384399414062500000e-02 5.889892578125000000e-02 3.353881835937500000e-02 4.464721679687500000e-02 -4.412841796875000000e-02 9.094238281250000000e-02 -2.987670898437500000e-02 4.412841796875000000e-02 6.658935546875000000e-02 -3.099060058593750000e-02 8.258056640625000000e-02 -4.299163818359375000e-03 -9.094238281250000000e-02 -2.412414550781250000e-02 2.481079101562500000e-02 1.071929931640625000e-02 8.862304687500000000e-02 -5.432128906250000000e-02 3.253173828125000000e-02 5.023193359375000000e-02 4.263305664062500000e-02 -4.501342773437500000e-02 -7.702636718750000000e-02 1.313018798828125000e-02 -8.599853515625000000e-02 -6.878662109375000000e-02 8.049011230468750000e-03 -8.984375000000000000e-02 -3.146362304687500000e-02 -6.384277343750000000e-02 4.699707031250000000e-02 -9.399414062500000000e-02

-6.304931640625000000e-02 -5.285644531250000000e-02 -4.067993164062500000e-02 -6.750488281250000000e-02 -2.046203613281250000e-02 1.850891113281250000e-02 -7.556152343750000000e-02 -5.288696289062500000e-02 5.279541015625000000e-02 -2.604675292968750000e-02 5.426025390625000000e-02 7.025146484375000000e-02 8.349609375000000000e-02 -4.116058349609375000e-03 -1.272583007812500000e-02 3.619384765625000000e-02 -1.522064208984375000e-02 -2.043151855468750000e-02 6.726074218750000000e-02 7.940673828125000000e-02 3.601074218750000000e-02 3.198242187500000000e-02 -6.931304931640625000e-03 5.126953125000000000e-02 -1.281738281250000000e-02 1.481628417968750000e-02 -1.190948486328125000e-02 4.608154296875000000e-03 -8.746337890625000000e-02 -6.219482421875000000e-02 6.118774414062500000e-02 6.286621093750000000e-02 -9.039306640625000000e-02 8.734130859375000000e-02 1.687622070312500000e-02 -3.656005859375000000e-02 6.152343750000000000e-02 3.784179687500000000e-02

-3.897094726562500000e-02 -6.094360351562500000e-02 -4.354858398437500000e-02 -6.488037109375000000e-02 6.646728515625000000e-02 -5.435180664062500000e-02 5.999755859375000000e-02 -5.105590820312500000e-02 -5.880737304687500000e-02 -5.764770507812500000e-02 -4.031372070312500000e-02 -3.164672851562500000e-02 -5.230712890625000000e-02 -3.155517578125000000e-02 -1.055908203125000000e-02 2.096557617187500000e-02 4.403686523437500000e-02 3.086853027343750000e-02 1.707458496093750000e-02 -8.349609375000000000e-02 6.127929687500000000e-02 3.176879882812500000e-02 2.896118164062500000e-02 -8.502197265625000000e-02 -4.061889648437500000e-02 -1.730346679687500000e-02 -6.933593750000000000e-02 5.438232421875000000e-02 5.859375000000000000e-03 -5.493164062500000000e-02 4.449462890625000000e-02 3.619384765625000000e-02 -8.874511718750000000e-02 -4.702758789062500000e-02 5.288696289062500000e-02 -1.427459716796875000e-02 8.343505859375000000e-02 -8.215332031250000000e-02

-5.388259887695312500e-04 1.940917968750000000e-02 4.779052734375000000e-02 8.416748046875000000e-02 5.731201171875000000e-02 2.581787109375000000e-02 -5.493164062500000000e-04 4.425048828125000000e-02 2.160644531250000000e-02 -2.307128906250000000e-02 -6.904602050781250000e-03 8.111572265625000000e-02 -1.628112792968750000e-02 -4.024505615234375000e-03 -3.823852539062500000e-02 6.463623046875000000e-02 -3.457641601562500000e-02 -3.439331054687500000e-02 6.365966796875000000e-02 7.598876953125000000e-02 8.734130859375000000e-02 -2.343750000000000000e-02 -8.247375488281250000e-03 3.039550781250000000e-02 -4.977416992187500000e-02 -5.307006835937500000e-02 -8.032226562500000000e-02 -7.144927978515625000e-03 -4.830932617187500000e-02 9.210205078125000000e-02 -5.032348632812500000e-02 -1.704406738281250000e-02 5.194091796875000000e-02 4.888916015625000000e-02 8.477783203125000000e-02 -1.684570312500000000e-02 -6.970214843750000000e-02 7.171630859375000000e-02

-1.335906982421875000e-02 1.904296875000000000e-02 -6.076049804687500000e-02 -9.112548828125000000e-02 -8.551025390625000000e-02 4.962158203125000000e-02 -9.338378906250000000e-03 6.988525390625000000e-02 7.025146484375000000e-02 3.826904296875000000e-02 -7.202148437500000000e-02 -7.922363281250000000e-02 -6.000518798828125000e-03 4.492187500000000000e-02 -3.860473632812500000e-02 7.684326171875000000e-02 5.438232421875000000e-02 7.318115234375000000e-02 6.216430664062500000e-02 5.435180664062500000e-02 -1.977539062500000000e-02 -1.784324645996093750e-03 3.320312500000000000e-02 4.730224609375000000e-03 4.351806640625000000e-02 8.929443359375000000e-02 -7.977294921875000000e-02 3.326416015625000000e-02 7.574462890625000000e-02 3.695678710937500000e-02 7.342529296875000000e-02 -2.717590332031250000e-02 1.959228515625000000e-02 -5.581665039062500000e-02 -6.095886230468750000e-03 5.694580078125000000e-02 -7.189941406250000000e-02 -2.195739746093750000e-02

-1.629638671875000000e-02 -3.768920898437500000e-02 -6.002807617187500000e-02 -6.274414062500000000e-02 2.178955078125000000e-02 -3.823852539062500000e-02 8.453369140625000000e-02 -8.013916015625000000e-02 8.087158203125000000e-02 -7.794189453125000000e-02 6.097412109375000000e-02 7.598876953125000000e-02 2.581787109375000000e-02 -8.764648437500000000e-02 9.002685546875000000e-02 4.156494140625000000e-02 2.124023437500000000e-02 6.732177734375000000e-02 -5.270385742187500000e-02 7.324218750000000000e-04 -1.922607421875000000e-02 6.573486328125000000e-02 -3.845214843750000000e-03 3.692626953125000000e-02 -7.006835937500000000e-02 4.962158203125000000e-02 5.487060546875000000e-02 6.805419921875000000e-02 -6.076049804687500000e-02 -8.874511718750000000e-02 8.880615234375000000e-02 5.303955078125000000e-02 -8.654785156250000000e-02 6.353759765625000000e-02 1.831054687500000000e-03 -4.501342773437500000e-02 -8.947753906250000000e-02 6.439208984375000000e-02

6.689453125000000000e-02 -2.708435058593750000e-02 -3.564357757568359375e-04 -2.040100097656250000e-02 2.984619140625000000e-02 -3.805541992187500000e-02 8.038330078125000000e-02 -2.343750000000000000e-02 2.607727050781250000e-02 6.005859375000000000e-02 4.266357421875000000e-02 -1.133728027343750000e-02 9.246826171875000000e-02 -4.675292968750000000e-02 -9.185791015625000000e-02 -3.436279296875000000e-02 2.453613281250000000e-02 -5.099487304687500000e-02 -3.292846679687500000e-02 4.183959960937500000e-02 -2.893066406250000000e-02 -2.220153808593750000e-02 9.283447265625000000e-02 -5.914306640625000000e-02 3.839111328125000000e-02 -6.793212890625000000e-02 7.843017578125000000e-03 -3.149414062500000000e-02 -3.384399414062500000e-02 -5.172729492187500000e-02 1.139831542968750000e-02 7.354736328125000000e-02 -2.110290527343750000e-02 -6.240844726562500000e-03 2.493286132812500000e-02 -2.214050292968750000e-02 2.391052246093750000e-02 7.427978515625000000e-02

-7.153320312500000000e-02 -5.526733398437500000e-02 3.164672851562500000e-02 3.472900390625000000e-02 4.913330078125000000e-03 -2.819824218750000000e-02 1.446533203125000000e-02 -6.604003906250000000e-02 5.361938476562500000e-02 4.003906250000000000e-02 -2.157592773437500000e-02 1.675415039062500000e-02 -3.158569335937500000e-02 -9.020996093750000000e-02 -6.707763671875000000e-02 -2.845764160156250000e-02 -1.010131835937500000e-02 3.640747070312500000e-02 -5.767822265625000000e-02 -9.313964843750000000e-02 -8.837890625000000000e-02 1.591491699218750000e-02 -4.147338867187500000e-02 -7.312011718750000000e-02 -3.094482421875000000e-02 1.453399658203125000e-02 -7.409667968750000000e-02 2.275085449218750000e-02 7.196044921875000000e-02 5.404663085937500000e-02 -1.939392089843750000e-02 -8.444786071777343750e-04 -7.226562500000000000e-02 3.216552734375000000e-02 9.320068359375000000e-02 1.828193664550781250e-03 -8.471679687500000000e-02 1.867675781250000000e-02

5.841064453125000000e-02 9.356689453125000000e-02 -4.830932617187500000e-02 -7.885742187500000000e-02 7.525634765625000000e-02 -2.490234375000000000e-02 2.838134765625000000e-02 5.194091796875000000e-02 7.611083984375000000e-02 6.585693359375000000e-02 7.781982421875000000e-02 -2.673339843750000000e-02 8.416748046875000000e-02 7.324218750000000000e-03 -3.457641601562500000e-02 -3.787231445312500000e-02 7.098388671875000000e-02 7.391357421875000000e-02 3.717041015625000000e-02 2.838134765625000000e-02 5.194091796875000000e-02 -6.658935546875000000e-02 -8.856201171875000000e-02 1.299285888671875000e-02 8.587646484375000000e-02 1.812744140625000000e-02 -1.519775390625000000e-02 4.046630859375000000e-02 -1.959228515625000000e-02 7.855224609375000000e-02 -8.306884765625000000e-02 4.632568359375000000e-02 -3.970336914062500000e-02 -4.611206054687500000e-02 -6.021118164062500000e-02 -8.599853515625000000e-02 -1.776123046875000000e-02 -2.490234375000000000e-02

-7.958984375000000000e-02 -8.599853515625000000e-02 -6.896972656250000000e-02 -1.335144042968750000e-02 -7.808685302734375000e-03 -7.995605468750000000e-02 -6.860351562500000000e-02 -2.160644531250000000e-02 6.768798828125000000e-02 -9.277343750000000000e-02 2.742004394531250000e-02 -4.083251953125000000e-02 2.033996582031250000e-02 3.756713867187500000e-02 5.258178710937500000e-02 -1.256561279296875000e-02 -7.000732421875000000e-02 -8.544921875000000000e-02 -5.969238281250000000e-02 6.793212890625000000e-02 -7.269287109375000000e-02 -6.768798828125000000e-02 3.665161132812500000e-02 3.201293945312500000e-02 -8.160400390625000000e-02 3.851318359375000000e-02 6.477355957031250000e-03 7.281494140625000000e-02 -3.384399414062500000e-02 8.001708984375000000e-02 2.864074707031250000e-02 8.221435546875000000e-02 3.497314453125000000e-02 -2.416992187500000000e-02 7.751464843750000000e-02 -7.611083984375000000e-02 5.859375000000000000e-02 -7.006835937500000000e-02

-6.408691406250000000e-03 -4.281616210937500000e-02 2.508544921875000000e-02 -8.251953125000000000e-02 5.838012695312500000e-02 -1.702880859375000000e-02 7.122802734375000000e-02 -2.673339843750000000e-02 -8.837890625000000000e-02 1.099395751953125000e-02 8.892822265625000000e-02 -7.116699218750000000e-02 8.221435546875000000e-02 3.952026367187500000e-02 4.486083984375000000e-02 -9.002685546875000000e-02 8.258056640625000000e-02 9.173583984375000000e-02 4.669189453125000000e-02 7.904052734375000000e-02 5.706787109375000000e-02 -5.270385742187500000e-02 8.598327636718750000e-03 2.151489257812500000e-03 6.072998046875000000e-02 -5.435180664062500000e-02 2.925872802734375000e-03 9.246826171875000000e-02 8.050537109375000000e-02 -7.226562500000000000e-02 -7.226562500000000000e-02 -8.746337890625000000e-02 -1.794433593750000000e-02 -4.757690429687500000e-02 5.181884765625000000e-02 -2.929687500000000000e-02 4.681396484375000000e-02 8.892822265625000000e-02

1.302337646484375000e-02 -5.856323242187500000e-02 -8.435058593750000000e-02 -7.891845703125000000e-02 6.359863281250000000e-02 2.453613281250000000e-02 -8.746337890625000000e-02 -1.373291015625000000e-02 -2.900695800781250000e-02 3.591918945312500000e-02 2.365112304687500000e-02 -2.299499511718750000e-02 -6.628417968750000000e-02 -2.703857421875000000e-02 7.269287109375000000e-02 5.072021484375000000e-02 -6.616210937500000000e-02 2.272033691406250000e-02 -5.149841308593750000e-03 8.865356445312500000e-03 -7.910156250000000000e-02 6.256103515625000000e-02 1.930236816406250000e-02 7.495117187500000000e-02 5.493164062500000000e-03 1.132965087890625000e-02 5.548095703125000000e-02 -2.923583984375000000e-02 1.062011718750000000e-02 -2.226257324218750000e-02 7.904052734375000000e-02 -1.116180419921875000e-02 1.663208007812500000e-02 9.075927734375000000e-02 -2.734375000000000000e-02 2.821350097656250000e-02 2.420043945312500000e-02 -9.368896484375000000e-02

7.138252258300781250e-04 -9.887695312500000000e-03 5.364990234375000000e-02 -7.043457031250000000e-02 7.208251953125000000e-02 3.839111328125000000e-02 -8.325195312500000000e-02 -2.178955078125000000e-02 1.426696777343750000e-02 -4.318237304687500000e-02 -2.432250976562500000e-02 -6.222534179687500000e-02 9.332275390625000000e-02 -3.860473632812500000e-02 7.159423828125000000e-02 -8.416748046875000000e-02 -6.640625000000000000e-02 -6.229400634765625000e-03 8.734130859375000000e-02 7.281494140625000000e-02 -9.513854980468750000e-03 2.655029296875000000e-02 5.804443359375000000e-02 -8.288574218750000000e-02 -7.537841796875000000e-02 3.424072265625000000e-02 9.149169921875000000e-02 8.953857421875000000e-02 -5.123901367187500000e-02 7.098388671875000000e-02 -3.146362304687500000e-02 3.201293945312500000e-02 7.232666015625000000e-02 -6.695556640625000000e-02 -8.032226562500000000e-02 5.926513671875000000e-02 -8.544921875000000000e-02 3.240966796875000000e-02

2.178955078125000000e-02 6.915283203125000000e-02 -1.739501953125000000e-02 -8.605957031250000000e-03 6.146240234375000000e-02 -3.732299804687500000e-02 -9.277343750000000000e-02 6.719970703125000000e-02 4.571533203125000000e-02 -8.911132812500000000e-02 -5.068969726562500000e-02 -9.259033203125000000e-02 -4.611206054687500000e-02 4.681396484375000000e-02 -4.959106445312500000e-02 -6.256103515625000000e-02 4.815673828125000000e-02 3.619384765625000000e-02 6.549072265625000000e-02 -5.014038085937500000e-02 6.280517578125000000e-02 -7.171630859375000000e-02 7.061767578125000000e-02 -5.673217773437500000e-02 4.351806640625000000e-02 -4.025268554687500000e-02 -7.812500000000000000e-02 -1.702880859375000000e-02 3.802490234375000000e-02 4.022216796875000000e-02 2.783203125000000000e-02 -2.453613281250000000e-02 4.681396484375000000e-02 7.171630859375000000e-02 -3.182983398437500000e-02 4.962158203125000000e-02 -8.801269531250000000e-02 1.831054687500000000e-02

-3.952026367187500000e-02 3.002929687500000000e-02 -5.966186523437500000e-02 3.179931640625000000e-02 -4.812622070312500000e-02 -9.350585937500000000e-02 3.656005859375000000e-02 -5.380249023437500000e-02 -5.673217773437500000e-02 -3.201293945312500000e-02 -8.892822265625000000e-02 -6.021118164062500000e-02 6.719970703125000000e-02 -6.970214843750000000e-02 -1.062011718750000000e-02 5.364990234375000000e-02 -6.768798828125000000e-02 -1.922607421875000000e-02 4.534912109375000000e-02 2.087402343750000000e-02 -1.190185546875000000e-02 8.917236328125000000e-02 -1.645088195800781250e-03 2.636718750000000000e-02 5.450439453125000000e-02 -5.654907226562500000e-02 -1.867675781250000000e-02 -9.167480468750000000e-02 6.463623046875000000e-02 -5.966186523437500000e-02 8.563232421875000000e-02 -6.604003906250000000e-02 5.596923828125000000e-02 -1.043701171875000000e-02 5.047607421875000000e-02 5.072021484375000000e-02 6.439208984375000000e-02 -1.647949218750000000e-03

2.520751953125000000e-02 -3.060913085937500000e-02 -3.955841064453125000e-03 7.824707031250000000e-02 5.682373046875000000e-02 4.708862304687500000e-02 6.768798828125000000e-02 1.739501953125000000e-02 9.757995605468750000e-03 5.233764648437500000e-02 1.866149902343750000e-02 -3.042602539062500000e-02 2.438354492187500000e-02 3.680419921875000000e-02 -8.477783203125000000e-02 -3.598022460937500000e-02 -1.121520996093750000e-02 6.039428710937500000e-02 -6.500244140625000000e-03 -7.531738281250000000e-02 -9.132385253906250000e-03 -3.369140625000000000e-02 2.813720703125000000e-02 2.671813964843750000e-02 8.050537109375000000e-02 2.645874023437500000e-02 -5.377197265625000000e-02 8.874511718750000000e-02 -5.746459960937500000e-02 3.692626953125000000e-02 8.197021484375000000e-02 -8.984375000000000000e-02 6.256103515625000000e-02 8.807373046875000000e-02 -3.824234008789062500e-04 2.636718750000000000e-02 8.575439453125000000e-02 6.872558593750000000e-02

3.985595703125000000e-02 -9.368896484375000000e-02 6.610107421875000000e-02 -5.226135253906250000e-03 -5.892944335937500000e-02 -8.966064453125000000e-02 8.972167968750000000e-03 5.401611328125000000e-02 -5.526733398437500000e-02 -8.544921875000000000e-02 7.755279541015625000e-03 -5.209350585937500000e-02 8.567810058593750000e-03 2.135038375854492188e-04 -6.695556640625000000e-02 -4.818725585937500000e-02 6.878662109375000000e-02 7.881164550781250000e-03 -1.551055908203125000e-02 -1.991271972656250000e-02 -5.288124084472656250e-04 1.628112792968750000e-02 8.953857421875000000e-02 -6.311035156250000000e-02 -3.860473632812500000e-02 -1.965332031250000000e-02 -7.830810546875000000e-02 6.473541259765625000e-03 6.182861328125000000e-02 4.135131835937500000e-02 -1.972961425781250000e-02 4.779052734375000000e-02 -7.006835937500000000e-02 4.779052734375000000e-02 -6.567382812500000000e-02 -4.135131835937500000e-02 -4.354858398437500000e-02 -2.380371093750000000e-02

1.044464111328125000e-02 7.904052734375000000e-02 -5.050659179687500000e-02 -2.050781250000000000e-02 7.843017578125000000e-02 4.119873046875000000e-02 -5.032348632812500000e-02 9.173583984375000000e-02 -7.354736328125000000e-02 4.489135742187500000e-02 3.762817382812500000e-02 6.097412109375000000e-02 -6.964111328125000000e-02 3.784179687500000000e-02 -9.315490722656250000e-03 7.904052734375000000e-02 -5.374908447265625000e-03 -7.037353515625000000e-02 4.968261718750000000e-02 -5.484008789062500000e-02 -4.232788085937500000e-02 -7.482910156250000000e-02 -4.864501953125000000e-02 1.187133789062500000e-02 -7.226562500000000000e-02 1.626968383789062500e-03 -5.178833007812500000e-02 -5.307006835937500000e-02 -1.281738281250000000e-02 -3.784179687500000000e-02 5.416870117187500000e-02 -5.561828613281250000e-03 -4.592895507812500000e-03 -9.185791015625000000e-02 -7.806396484375000000e-02 -8.197021484375000000e-02 -5.911254882812500000e-02 2.629089355468750000e-02

5.917358398437500000e-02 -8.068847656250000000e-02 1.153564453125000000e-02 -3.024291992187500000e-02 -6.140136718750000000e-02 5.767822265625000000e-02 -1.116943359375000000e-02 7.507324218750000000e-03 -4.760742187500000000e-02 4.498291015625000000e-02 8.093261718750000000e-02 -7.244873046875000000e-02 -8.361816406250000000e-03 4.238891601562500000e-02 -2.233886718750000000e-02 -6.213378906250000000e-02 -1.128387451171875000e-02 -3.402709960937500000e-02 6.762695312500000000e-02 -8.605957031250000000e-02 4.531860351562500000e-02 1.461029052734375000e-02 -4.342651367187500000e-02 7.232666015625000000e-02 5.999755859375000000e-02 5.731201171875000000e-02 1.719665527343750000e-02 -1.939392089843750000e-02 -5.984497070312500000e-02 1.705932617187500000e-02 7.489013671875000000e-02 -7.629394531250000000e-02 1.702880859375000000e-02 5.328369140625000000e-02 -4.226684570312500000e-02 4.083251953125000000e-02 -6.204223632812500000e-02 3.289794921875000000e-02

5.108642578125000000e-02 6.756591796875000000e-02 -7.519531250000000000e-02 9.039306640625000000e-02 -1.849365234375000000e-02 -8.984375000000000000e-02 4.241943359375000000e-02 -4.721069335937500000e-02 -5.801391601562500000e-02 -7.629394531250000000e-02 6.878662109375000000e-02 -7.153320312500000000e-02 -4.611206054687500000e-02 -2.893066406250000000e-02 3.533935546875000000e-02 3.985595703125000000e-02 -8.837890625000000000e-02 9.210205078125000000e-02 -3.402709960937500000e-02 7.318115234375000000e-02 -7.739257812500000000e-02 4.754638671875000000e-02 -7.647705078125000000e-02 -4.281616210937500000e-02 -1.849365234375000000e-02 -5.676269531250000000e-03 -4.025268554687500000e-02 -3.182983398437500000e-02 1.593017578125000000e-02 6.182861328125000000e-02 5.859375000000000000e-03 7.598876953125000000e-02 2.545166015625000000e-02 -8.325195312500000000e-02 -2.618408203125000000e-02 7.379150390625000000e-02 -9.020996093750000000e-02 4.901123046875000000e-02

-8.636474609375000000e-02 1.574707031250000000e-02 -8.215332031250000000e-02 1.574707031250000000e-02 -3.863525390625000000e-02 -2.581787109375000000e-02 -2.471923828125000000e-02 8.123779296875000000e-02 3.111267089843750000e-02 5.138397216796875000e-03 1.593017578125000000e-02 9.332275390625000000e-02 -3.512573242187500000e-02 -8.033752441406250000e-03 -8.262634277343750000e-03 -9.130859375000000000e-02 -8.563232421875000000e-02 -1.885986328125000000e-02 -5.673217773437500000e-02 -3.039550781250000000e-02 5.633544921875000000e-02 1.445007324218750000e-02 5.545043945312500000e-02 4.464721679687500000e-02 6.903076171875000000e-02 1.097106933593750000e-02 -8.947753906250000000e-02 1.261901855468750000e-02 -8.453369140625000000e-02 -4.080200195312500000e-02 -7.519531250000000000e-02 -7.156372070312500000e-03 -2.673339843750000000e-02 4.962158203125000000e-02 7.342529296875000000e-02 -2.893066406250000000e-02 -8.160400390625000000e-02 -2.563476562500000000e-02

-6.988525390625000000e-02 2.894592285156250000e-02 -2.740478515625000000e-02 5.453491210937500000e-02 1.358032226562500000e-02 -8.105468750000000000e-02 6.622314453125000000e-02 4.351806640625000000e-02 9.020996093750000000e-02 -3.930664062500000000e-02 8.587646484375000000e-02 3.607177734375000000e-02 5.496215820312500000e-02 9.307861328125000000e-03 5.935668945312500000e-03 -2.824401855468750000e-02 4.959106445312500000e-02 -7.092285156250000000e-02 -7.952880859375000000e-02 7.629394531250000000e-02 4.107666015625000000e-02 -1.084136962890625000e-02 1.094055175781250000e-02 -6.225585937500000000e-02 4.864501953125000000e-02 2.188110351562500000e-02 -2.235412597656250000e-02 8.123779296875000000e-02 -7.611083984375000000e-02 5.120849609375000000e-02 -7.678222656250000000e-02 -3.448486328125000000e-02 -8.416748046875000000e-02 -2.384185791015625000e-03 -8.160400390625000000e-02 7.135009765625000000e-02 5.569458007812500000e-02 7.989501953125000000e-02

5.731201171875000000e-02 6.622314453125000000e-02 4.742431640625000000e-02 -5.691528320312500000e-02 7.061767578125000000e-02 -2.069091796875000000e-02 -3.164672851562500000e-02 -5.947875976562500000e-02 -7.666015625000000000e-02 2.378845214843750000e-02 -6.661415100097656250e-04 8.697509765625000000e-02 -2.143859863281250000e-03 -7.171630859375000000e-02 1.263427734375000000e-02 -5.563354492187500000e-02 -9.222412109375000000e-02 -4.354858398437500000e-02 -7.820129394531250000e-04 -1.208496093750000000e-02 8.123779296875000000e-02 7.525634765625000000e-02 -4.669189453125000000e-02 -7.977294921875000000e-02 5.497932434082031250e-04 5.435180664062500000e-02 9.210205078125000000e-02 1.305580139160156250e-03 1.318359375000000000e-02 -1.041412353515625000e-02 9.259033203125000000e-02 8.746337890625000000e-02 -2.801513671875000000e-02 -2.490234375000000000e-02 5.181884765625000000e-02 2.453613281250000000e-02 -2.436828613281250000e-02 -4.409790039062500000e-02

-1.791381835937500000e-02 -6.112670898437500000e-02 -6.970214843750000000e-02 6.829833984375000000e-02 -1.232910156250000000e-02 -8.508300781250000000e-02 8.050537109375000000e-02 -6.457519531250000000e-02 -9.307861328125000000e-02 4.592895507812500000e-02 -1.638793945312500000e-02 7.595062255859375000e-03 -1.794433593750000000e-02 1.678466796875000000e-02 -8.233642578125000000e-02 -8.590698242187500000e-03 5.816650390625000000e-02 -8.288574218750000000e-02 -9.045410156250000000e-02 -8.445739746093750000e-03 5.108642578125000000e-02 -7.324218750000000000e-03 -7.617187500000000000e-02 3.128051757812500000e-02 -3.329467773437500000e-02 -8.917236328125000000e-02 8.697509765625000000e-02 -7.940673828125000000e-02 -8.544921875000000000e-02 3.547668457031250000e-03 -8.660888671875000000e-02 -2.296447753906250000e-02 -6.222534179687500000e-02 4.852294921875000000e-02 7.977294921875000000e-02 7.598876953125000000e-02 -8.856201171875000000e-02 8.734130859375000000e-02

4.132080078125000000e-02 -3.549194335937500000e-02 -2.365112304687500000e-02 7.858276367187500000e-03 4.162597656250000000e-02 3.460693359375000000e-02 -9.155273437500000000e-03 -4.611206054687500000e-02 7.476806640625000000e-02 5.621337890625000000e-02 5.197143554687500000e-02 -7.534027099609375000e-03 -4.187011718750000000e-02 4.843139648437500000e-02 7.153320312500000000e-02 7.086181640625000000e-02 -7.469177246093750000e-03 -7.128906250000000000e-02 -6.170654296875000000e-02 -8.758544921875000000e-02 -1.160430908203125000e-02 7.098388671875000000e-02 -7.556152343750000000e-02 -4.665374755859375000e-03 -1.647949218750000000e-03 7.604980468750000000e-02 -8.416748046875000000e-02 -2.615356445312500000e-02 4.058837890625000000e-02 5.450439453125000000e-02 -3.549194335937500000e-02 -8.285522460937500000e-03 -6.915283203125000000e-02 -9.350585937500000000e-02 -6.567382812500000000e-02 3.094482421875000000e-02 5.084228515625000000e-02 9.265136718750000000e-02

9.283447265625000000e-02 -4.519653320312500000e-02 5.855560302734375000e-03 2.195739746093750000e-02 -6.024169921875000000e-02 -8.380126953125000000e-02 7.830810546875000000e-02 2.600097656250000000e-02 -2.969360351562500000e-02 5.511474609375000000e-02 5.328369140625000000e-02 -1.066589355468750000e-02 8.123779296875000000e-02 2.125549316406250000e-02 5.328369140625000000e-02 5.950927734375000000e-02 -2.583312988281250000e-02 5.157470703125000000e-02 4.351806640625000000e-02 -7.958984375000000000e-02 1.190948486328125000e-02 -1.276016235351562500e-03 -3.768920898437500000e-02 7.611083984375000000e-02 3.295898437500000000e-03 -6.933593750000000000e-02 -4.394531250000000000e-03 6.427001953125000000e-02 8.123779296875000000e-02 -1.959228515625000000e-02 -4.080200195312500000e-02 -2.746582031250000000e-02 -5.126953125000000000e-03 -9.155273437500000000e-04 -9.167480468750000000e-02 1.831054687500000000e-02 -8.453369140625000000e-02 -8.123779296875000000e-02

1.391601562500000000e-02 6.829833984375000000e-02 8.416748046875000000e-02 -7.519531250000000000e-02 4.315185546875000000e-02 2.142333984375000000e-02 -3.421020507812500000e-02 -8.032226562500000000e-02 -3.842163085937500000e-02 8.526611328125000000e-02 2.197265625000000000e-02 -3.512573242187500000e-02 1.593017578125000000e-02 -3.494262695312500000e-02 -1.300048828125000000e-02 -6.039428710937500000e-02 2.563476562500000000e-02 -8.837890625000000000e-02 7.501220703125000000e-02 5.926513671875000000e-02 -3.057861328125000000e-02 -4.244995117187500000e-02 4.852294921875000000e-02 -5.087280273437500000e-02 1.519775390625000000e-02 -4.190063476562500000e-02 -7.208251953125000000e-02 4.498291015625000000e-02 2.618408203125000000e-02 5.853271484375000000e-02 -1.519775390625000000e-02 1.043701171875000000e-02 -1.977539062500000000e-02 -6.585693359375000000e-02 3.057861328125000000e-02 -3.237915039062500000e-02 -1.446533203125000000e-02 1.080322265625000000e-02

2.546691894531250000e-02 7.891845703125000000e-02 -5.096435546875000000e-03 -5.929565429687500000e-02 5.395507812500000000e-02 -6.915283203125000000e-02 4.577636718750000000e-03 4.010009765625000000e-02 -2.476501464843750000e-02 6.573486328125000000e-02 6.292724609375000000e-02 -8.453369140625000000e-02 1.809692382812500000e-02 -5.218505859375000000e-02 6.610107421875000000e-02 -7.849121093750000000e-02 1.177215576171875000e-02 -4.943847656250000000e-02 8.441162109375000000e-02 -5.868530273437500000e-02 3.747558593750000000e-02 -7.464599609375000000e-02 -4.858398437500000000e-02 6.353759765625000000e-02 -3.677368164062500000e-02 3.086853027343750000e-02 3.054809570312500000e-02 6.976318359375000000e-02 -3.842163085937500000e-02 1.404571533203125000e-02 -5.337524414062500000e-02 -1.802062988281250000e-02 3.717041015625000000e-02 -7.647705078125000000e-02 -6.112670898437500000e-02 -4.995727539062500000e-02 6.980895996093750000e-03 1.119232177734375000e-02

5.184936523437500000e-02 -4.959106445312500000e-02 -3.274536132812500000e-02 -5.059814453125000000e-02 1.712036132812500000e-02 6.170654296875000000e-02 -5.636596679687500000e-02 8.843994140625000000e-02 6.866455078125000000e-02 -5.462646484375000000e-02 8.135986328125000000e-02 -4.794311523437500000e-02 6.634521484375000000e-02 1.466751098632812500e-03 8.184814453125000000e-02 -8.972167968750000000e-02 -8.605957031250000000e-03 1.959228515625000000e-02 -5.657958984375000000e-02 8.190917968750000000e-02 1.841735839843750000e-02 8.949279785156250000e-03 -7.116699218750000000e-02 -6.652832031250000000e-02 7.232666015625000000e-02 6.170654296875000000e-02 -5.572509765625000000e-02 -5.840301513671875000e-03 -2.636718750000000000e-02 7.208251953125000000e-02 8.557128906250000000e-02 2.246093750000000000e-02 -7.189941406250000000e-02 6.512451171875000000e-02 -3.610229492187500000e-02 7.501220703125000000e-02 3.802490234375000000e-02 -2.674865722656250000e-02

-9.362792968750000000e-02 4.974365234375000000e-02 3.601074218750000000e-02 -1.918029785156250000e-02 8.557128906250000000e-02 -7.446289062500000000e-02 -9.094238281250000000e-02 -8.654785156250000000e-02 6.451416015625000000e-02 7.190704345703125000e-03 8.178710937500000000e-03 -8.282470703125000000e-02 1.609802246093750000e-02 3.997802734375000000e-03 -2.711486816406250000e-02 4.702758789062500000e-02 -8.087158203125000000e-03 -2.447509765625000000e-02 -4.696655273437500000e-02 -8.758544921875000000e-02 4.193115234375000000e-02 -1.880645751953125000e-03 4.766845703125000000e-02 -8.703613281250000000e-02 -1.867675781250000000e-02 1.858520507812500000e-02 7.403564453125000000e-02 4.446411132812500000e-02 -6.970214843750000000e-02 7.556152343750000000e-02 3.137207031250000000e-02 9.320068359375000000e-02 -6.860351562500000000e-02 7.269287109375000000e-02 1.875305175781250000e-02 -3.384399414062500000e-02 -3.253173828125000000e-02 8.111572265625000000e-02

6.402587890625000000e-02 5.340576171875000000e-02 1.300048828125000000e-02 -2.380371093750000000e-03 6.988525390625000000e-02 1.940917968750000000e-02 8.453369140625000000e-02 3.277587890625000000e-02 -2.160644531250000000e-02 -7.709503173828125000e-03 -1.390075683593750000e-02 -8.856201171875000000e-02 8.453369140625000000e-02 2.002716064453125000e-03 -7.666015625000000000e-02 -7.647705078125000000e-02 -4.354858398437500000e-02 4.046630859375000000e-02 5.780029296875000000e-02 5.584716796875000000e-02 8.013916015625000000e-02 2.453613281250000000e-02 -5.895996093750000000e-02 -4.757690429687500000e-02 7.690429687500000000e-03 -2.208709716796875000e-03 -9.521484375000000000e-03 -2.752304077148437500e-03 3.131103515625000000e-02 -5.087280273437500000e-02 -3.256225585937500000e-02 7.904052734375000000e-02 -4.574584960937500000e-02 -8.416748046875000000e-02 6.658935546875000000e-02 6.353759765625000000e-02 6.463623046875000000e-02 -6.292724609375000000e-02

8.477783203125000000e-02 -6.946563720703125000e-03 7.452392578125000000e-02 4.653930664062500000e-02 5.657958984375000000e-02 8.380126953125000000e-02 -6.225585937500000000e-03 6.317138671875000000e-02 3.250122070312500000e-02 -1.911163330078125000e-03 -5.105590820312500000e-02 2.775192260742187500e-04 -4.718017578125000000e-02 1.544952392578125000e-02 7.904052734375000000e-02 -1.901245117187500000e-02 -1.843261718750000000e-02 -6.256103515625000000e-02 -7.495117187500000000e-02 -5.395507812500000000e-02 6.683349609375000000e-02 5.081176757812500000e-02 8.026123046875000000e-03 8.551025390625000000e-02 5.010986328125000000e-02 -1.322937011718750000e-02 7.501220703125000000e-02 4.302978515625000000e-02 -7.720947265625000000e-02 -8.361816406250000000e-02 -4.776000976562500000e-02 8.934020996093750000e-03 -2.233886718750000000e-02 -3.112792968750000000e-02 7.244873046875000000e-02 -1.260757446289062500e-03 3.878784179687500000e-02 3.582763671875000000e-02

