5.987548828125000000e-02 -6.329345703125000000e-02 8.038330078125000000e-02 1.318359375000000000e-02 1.043701171875000000e-02 -1.684570312500000000e-02 8.416748046875000000e-02 -4.208374023437500000e-02 -3.622436523437500000e-02 -1.885986328125000000e-02 -6.961822509765625000e-03 -9.167480468750000000e-02 -4.794311523437500000e-02 -4.556274414062500000e-02 2.197265625000000000e-03 -2.600097656250000000e-02 1.757812500000000000e-02 2.545166015625000000e-02 -3.677368164062500000e-02 2.984619140625000000e-02 -8.380126953125000000e-02 6.219482421875000000e-02 -5.087280273437500000e-02 9.112548828125000000e-02 7.208251953125000000e-02 -8.544921875000000000e-02 1.464843750000000000e-03 -5.105590820312500000e-02 -1.245117187500000000e-02 1.776123046875000000e-02 -5.673217773437500000e-02 2.233886718750000000e-02 -6.365966796875000000e-02 -1.043701171875000000e-02 -5.416870117187500000e-02 2.288818359375000000e-02 5.853271484375000000e-02 3.021240234375000000e-02

5.584716796875000000e-02 3.533935546875000000e-02 4.022216796875000000e-02 -1.557922363281250000e-02 6.231689453125000000e-02 -8.343505859375000000e-02 5.487060546875000000e-02 5.310058593750000000e-03 -7.470703125000000000e-02 -4.190063476562500000e-02 -7.427978515625000000e-02 6.536865234375000000e-02 -5.453491210937500000e-02 8.087158203125000000e-02 -3.866577148437500000e-02 -8.001708984375000000e-02 -4.623413085937500000e-02 -1.287841796875000000e-02 8.966064453125000000e-02 -4.357910156250000000e-02 3.019714355468750000e-02 -8.947753906250000000e-02 -6.701660156250000000e-02 8.038330078125000000e-02 -5.105590820312500000e-02 -7.775878906250000000e-02 7.427978515625000000e-02 7.025146484375000000e-02 5.010986328125000000e-02 5.267333984375000000e-02 3.936767578125000000e-02 3.384399414062500000e-02 9.521484375000000000e-03 -7.381439208984375000e-04 1.243352890014648438e-04 -4.098510742187500000e-02 5.877685546875000000e-02 -1.958847045898437500e-03

-3.561401367187500000e-02 -1.370239257812500000e-02 1.256561279296875000e-02 -6.134033203125000000e-03 7.409667968750000000e-02 1.060485839843750000e-02 -5.545043945312500000e-02 -3.347778320312500000e-02 7.330322265625000000e-02 2.557373046875000000e-02 -6.538391113281250000e-03 4.257202148437500000e-02 5.062866210937500000e-02 -6.179809570312500000e-02 -3.817749023437500000e-02 7.849121093750000000e-02 3.515625000000000000e-02 -8.203125000000000000e-02 -9.320068359375000000e-02 -8.160400390625000000e-02 4.684925079345703125e-04 -6.048583984375000000e-02 -6.524658203125000000e-02 -4.937744140625000000e-02 -5.819702148437500000e-02 5.197143554687500000e-02 -1.536560058593750000e-02 -1.251220703125000000e-02 8.782958984375000000e-02 2.865600585937500000e-02 -8.964538574218750000e-03 -6.970214843750000000e-02 6.280517578125000000e-02 -4.035949707031250000e-03 7.647705078125000000e-02 -5.523681640625000000e-02 -6.512451171875000000e-02 3.982543945312500000e-02

-7.244873046875000000e-02 -8.270263671875000000e-02 1.516723632812500000e-02 -3.964233398437500000e-02 -9.265136718750000000e-02 6.732177734375000000e-02 7.977294921875000000e-02 -4.577636718750000000e-03 -9.173583984375000000e-02 2.658843994140625000e-03 -3.286743164062500000e-02 8.807373046875000000e-02 -7.073974609375000000e-02 2.770996093750000000e-02 5.465698242187500000e-02 -1.972961425781250000e-02 2.957153320312500000e-02 7.012939453125000000e-02 7.116699218750000000e-02 -2.058410644531250000e-02 5.368041992187500000e-02 6.878662109375000000e-02 -1.375198364257812500e-03 3.369140625000000000e-02 4.962158203125000000e-02 4.446411132812500000e-02 -6.591796875000000000e-02 -2.105712890625000000e-02 -8.068847656250000000e-02 -3.652954101562500000e-02 -1.393890380859375000e-02 4.110717773437500000e-02 4.083251953125000000e-02 -8.380126953125000000e-02 -5.050659179687500000e-02 -6.057739257812500000e-02 7.408142089843750000e-03 6.210327148437500000e-03

8.416748046875000000e-02 -2.947998046875000000e-02 5.230712890625000000e-02 3.973388671875000000e-02 2.597045898437500000e-02 6.774902343750000000e-03 9.002685546875000000e-02 -1.098632812500000000e-02 -8.407592773437500000e-03 1.319122314453125000e-02 2.456665039062500000e-02 -7.003784179687500000e-03 8.949279785156250000e-03 4.092407226562500000e-02 -2.453613281250000000e-02 -5.874633789062500000e-02 7.061767578125000000e-02 -3.530883789062500000e-02 8.770751953125000000e-02 2.708435058593750000e-02 6.726074218750000000e-02 8.160400390625000000e-02 -4.598999023437500000e-02 7.489013671875000000e-02 4.534912109375000000e-02 1.666259765625000000e-02 2.030944824218750000e-02 -3.057861328125000000e-02 3.973388671875000000e-02 -8.453369140625000000e-02 -7.080078125000000000e-02 -6.222534179687500000e-02 -3.311157226562500000e-02 9.222412109375000000e-02 4.852294921875000000e-02 3.399658203125000000e-02 -9.094238281250000000e-02 2.270507812500000000e-02

4.794311523437500000e-02 4.095458984375000000e-02 -2.702331542968750000e-02 6.060791015625000000e-02 -5.642700195312500000e-02 1.505613327026367188e-04 1.281738281250000000e-02 -1.080322265625000000e-02 -7.165527343750000000e-02 2.021789550781250000e-02 -2.987670898437500000e-02 7.409667968750000000e-02 -5.017089843750000000e-02 -3.701782226562500000e-02 -7.214355468750000000e-02 7.769775390625000000e-02 -2.052307128906250000e-02 2.442932128906250000e-02 -3.118515014648437500e-03 -1.985168457031250000e-02 8.392333984375000000e-02 5.737304687500000000e-02 -3.610229492187500000e-02 2.792358398437500000e-03 -4.537963867187500000e-02 5.194091796875000000e-02 6.604003906250000000e-02 -7.806396484375000000e-02 7.708740234375000000e-02 -8.740234375000000000e-02 8.612060546875000000e-02 7.263183593750000000e-02 -6.530761718750000000e-02 8.038330078125000000e-02 -2.674102783203125000e-03 1.502227783203125000e-02 -2.500915527343750000e-02 3.887939453125000000e-02

6.463623046875000000e-02 4.827880859375000000e-02 5.035400390625000000e-02 9.100341796875000000e-02 3.756713867187500000e-02 3.452301025390625000e-03 -8.160400390625000000e-02 9.173583984375000000e-02 5.822753906250000000e-02 -6.234741210937500000e-02 2.398681640625000000e-02 9.063720703125000000e-02 -7.922363281250000000e-02 6.860351562500000000e-02 1.316070556640625000e-02 -7.000732421875000000e-02 -5.773925781250000000e-02 -3.948974609375000000e-02 3.848266601562500000e-02 -4.333496093750000000e-03 2.023315429687500000e-02 -4.965209960937500000e-02 3.652954101562500000e-02 -3.265380859375000000e-02 -5.471801757812500000e-02 -6.372070312500000000e-02 2.885437011718750000e-02 3.168106079101562500e-03 8.294677734375000000e-02 6.896972656250000000e-03 -8.905029296875000000e-02 3.405761718750000000e-02 5.435180664062500000e-02 -1.794433593750000000e-02 3.894042968750000000e-02 2.436828613281250000e-02 8.993148803710937500e-04 -6.976318359375000000e-02

-4.312133789062500000e-02 5.813598632812500000e-02 1.795959472656250000e-02 1.774597167968750000e-02 1.811218261718750000e-02 -5.783081054687500000e-02 1.428222656250000000e-02 5.438232421875000000e-02 4.244995117187500000e-02 3.863525390625000000e-02 -6.652832031250000000e-02 7.171630859375000000e-02 3.646850585937500000e-02 -2.351379394531250000e-02 6.268310546875000000e-02 -1.557922363281250000e-02 -8.862304687500000000e-02 3.817749023437500000e-02 8.355712890625000000e-02 -1.496887207031250000e-02 -6.130981445312500000e-02 4.040527343750000000e-02 -5.226135253906250000e-03 -6.976318359375000000e-02 1.794433593750000000e-02 -1.681518554687500000e-02 8.532714843750000000e-02 -3.140258789062500000e-02 3.494262695312500000e-02 2.124023437500000000e-02 6.396484375000000000e-02 9.204101562500000000e-02 4.623413085937500000e-02 -2.783203125000000000e-02 6.622314453125000000e-02 1.229095458984375000e-02 -8.349609375000000000e-02 -7.177734375000000000e-02

7.129669189453125000e-03 2.764892578125000000e-02 7.232666015625000000e-02 -4.376220703125000000e-02 3.610229492187500000e-02 -5.856323242187500000e-02 7.928466796875000000e-02 -5.746459960937500000e-02 3.448486328125000000e-02 -8.013916015625000000e-02 -9.124755859375000000e-02 -1.141357421875000000e-02 -2.827453613281250000e-02 -8.862304687500000000e-02 -6.050109863281250000e-03 9.344482421875000000e-02 -3.140258789062500000e-02 -8.007812500000000000e-02 -8.033752441406250000e-03 -8.111572265625000000e-02 5.590820312500000000e-02 6.179809570312500000e-02 -2.346801757812500000e-02 6.143188476562500000e-02 -7.720947265625000000e-02 3.536987304687500000e-02 -3.298950195312500000e-02 3.826904296875000000e-02 2.531051635742187500e-03 3.366088867187500000e-02 6.555175781250000000e-02 5.148315429687500000e-02 -3.094482421875000000e-02 -2.343750000000000000e-02 -8.319091796875000000e-02 -8.929443359375000000e-02 8.343505859375000000e-02 6.329345703125000000e-02

8.782958984375000000e-02 9.155273437500000000e-03 1.263427734375000000e-02 8.001708984375000000e-02 -2.288818359375000000e-02 6.402587890625000000e-02 -9.185791015625000000e-02 -3.604125976562500000e-02 -6.896972656250000000e-02 -7.025146484375000000e-02 -8.032226562500000000e-02 4.095458984375000000e-02 8.111572265625000000e-02 5.084228515625000000e-02 -2.362060546875000000e-02 4.559326171875000000e-02 -6.240844726562500000e-02 2.764892578125000000e-02 -5.618286132812500000e-02 3.790283203125000000e-02 -9.167480468750000000e-02 1.336669921875000000e-02 5.706787109375000000e-02 -4.885864257812500000e-02 -6.970214843750000000e-02 -4.080200195312500000e-02 -7.080078125000000000e-02 -8.599853515625000000e-02 1.867675781250000000e-02 -4.244995117187500000e-02 4.302978515625000000e-02 1.024627685546875000e-02 1.189422607421875000e-02 6.622314453125000000e-02 -9.162902832031250000e-03 6.402587890625000000e-02 -7.775878906250000000e-02 -2.746582031250000000e-03

4.525756835937500000e-02 -2.508544921875000000e-02 -7.464599609375000000e-02 -2.479553222656250000e-03 8.807373046875000000e-02 7.122802734375000000e-02 -4.428100585937500000e-02 3.863525390625000000e-02 -7.501220703125000000e-02 7.830810546875000000e-02 3.829956054687500000e-02 7.855224609375000000e-02 4.669189453125000000e-02 6.237792968750000000e-02 -1.631164550781250000e-02 -9.240722656250000000e-02 -6.005859375000000000e-02 -2.658081054687500000e-02 4.486083984375000000e-02 -3.222656250000000000e-02 -4.611206054687500000e-02 -3.329467773437500000e-02 -7.080078125000000000e-02 -3.289794921875000000e-02 -5.599975585937500000e-02 5.703735351562500000e-02 8.734130859375000000e-02 -7.794189453125000000e-02 -3.787231445312500000e-02 -3.077697753906250000e-02 -4.296875000000000000e-02 -3.059387207031250000e-02 6.878662109375000000e-02 -6.591796875000000000e-03 -3.622436523437500000e-02 -5.398559570312500000e-02 2.050781250000000000e-02 -6.786346435546875000e-03

-8.398437500000000000e-02 -3.604125976562500000e-02 4.388427734375000000e-02 8.270263671875000000e-02 -3.970336914062500000e-02 2.362060546875000000e-02 4.315185546875000000e-02 5.670166015625000000e-02 3.131103515625000000e-02 7.940673828125000000e-02 -8.544921875000000000e-02 -8.288574218750000000e-02 5.230712890625000000e-02 -1.812744140625000000e-02 8.587646484375000000e-02 4.241943359375000000e-02 -7.354736328125000000e-02 7.940673828125000000e-02 -2.966308593750000000e-02 -7.354736328125000000e-02 -7.867431640625000000e-02 1.831054687500000000e-03 -6.002807617187500000e-02 -5.947875976562500000e-02 -1.007080078125000000e-02 -1.556396484375000000e-02 -5.068969726562500000e-02 -4.684448242187500000e-02 9.246826171875000000e-02 -6.039428710937500000e-02 2.709960937500000000e-02 5.157470703125000000e-02 -8.911132812500000000e-02 6.292724609375000000e-02 -3.146362304687500000e-02 2.362060546875000000e-02 1.464843750000000000e-02 5.340576171875000000e-02

8.264160156250000000e-02 8.050537109375000000e-02 -5.783081054687500000e-02 2.909851074218750000e-02 -6.036376953125000000e-02 1.704406738281250000e-02 6.768798828125000000e-02 -5.709838867187500000e-02 1.043701171875000000e-02 5.139160156250000000e-02 6.658935546875000000e-02 6.965637207031250000e-03 -2.503967285156250000e-02 4.861450195312500000e-02 1.034545898437500000e-02 4.833984375000000000e-02 -3.463745117187500000e-02 -7.318115234375000000e-02 -8.740234375000000000e-02 -5.328369140625000000e-02 4.629516601562500000e-02 -4.324340820312500000e-02 -8.407592773437500000e-03 -3.619384765625000000e-02 3.076171875000000000e-02 5.413818359375000000e-02 7.910156250000000000e-02 2.375793457031250000e-02 3.607177734375000000e-02 -2.064514160156250000e-02 -2.192687988281250000e-02 4.626464843750000000e-02 -5.053710937500000000e-02 -8.239746093750000000e-03 1.895141601562500000e-02 6.109619140625000000e-02 4.379272460937500000e-02 -1.371002197265625000e-02

6.100463867187500000e-02 -7.135009765625000000e-02 -1.396942138671875000e-02 -2.972412109375000000e-02 -6.228637695312500000e-02 3.570556640625000000e-02 4.742431640625000000e-02 -4.318237304687500000e-02 -7.714843750000000000e-02 1.675415039062500000e-02 4.434204101562500000e-02 2.944946289062500000e-02 -3.546142578125000000e-02 6.805419921875000000e-02 7.733154296875000000e-02 8.471679687500000000e-02 -5.361938476562500000e-02 8.380126953125000000e-02 -6.744384765625000000e-02 -3.765869140625000000e-02 8.489990234375000000e-02 -6.787109375000000000e-02 3.857421875000000000e-02 -4.638671875000000000e-02 -6.842041015625000000e-02 8.264160156250000000e-02 -4.412841796875000000e-02 -4.138183593750000000e-02 3.790283203125000000e-02 6.854248046875000000e-02 4.196166992187500000e-02 -8.123779296875000000e-02 5.987548828125000000e-02 -6.240844726562500000e-02 -7.916259765625000000e-02 -8.288574218750000000e-02 -7.702636718750000000e-02 5.206298828125000000e-02

-1.464843750000000000e-02 2.215576171875000000e-02 -1.757812500000000000e-02 7.855224609375000000e-02 7.281494140625000000e-02 -6.595611572265625000e-03 -9.002685546875000000e-02 2.215576171875000000e-02 -1.446533203125000000e-02 -8.966064453125000000e-02 8.343505859375000000e-02 3.240966796875000000e-02 -1.556396484375000000e-02 9.039306640625000000e-02 -1.557159423828125000e-02 1.684570312500000000e-02 -1.583099365234375000e-04 3.985595703125000000e-02 5.487060546875000000e-02 -3.347778320312500000e-02 4.608154296875000000e-02 -3.842163085937500000e-02 -5.947875976562500000e-02 -6.549072265625000000e-02 1.318359375000000000e-02 8.294677734375000000e-02 5.694580078125000000e-02 2.307128906250000000e-02 -3.475952148437500000e-02 8.843994140625000000e-02 5.194091796875000000e-02 -1.391601562500000000e-02 -9.332275390625000000e-02 -8.789062500000000000e-03 6.778717041015625000e-03 -3.585815429687500000e-02 -8.068847656250000000e-02 6.549072265625000000e-02

4.794311523437500000e-02 -1.902770996093750000e-02 -5.761718750000000000e-02 -5.374145507812500000e-02 4.510498046875000000e-02 -2.208709716796875000e-03 -8.984375000000000000e-02 1.281738281250000000e-02 2.555847167968750000e-02 3.540039062500000000e-02 6.768798828125000000e-02 7.409667968750000000e-02 3.762817382812500000e-02 7.263183593750000000e-02 3.781127929687500000e-02 -6.372070312500000000e-02 -2.844238281250000000e-02 -6.677246093750000000e-02 2.716064453125000000e-02 -3.206729888916015625e-04 -2.990722656250000000e-02 -3.604125976562500000e-02 3.594970703125000000e-02 -9.332275390625000000e-02 -1.959228515625000000e-02 -3.955078125000000000e-02 3.338623046875000000e-02 6.683349609375000000e-02 -8.343505859375000000e-02 6.689453125000000000e-02 -3.836059570312500000e-02 -4.669189453125000000e-02 -5.709838867187500000e-02 -7.958984375000000000e-02 5.895996093750000000e-02 2.691650390625000000e-02 -6.365966796875000000e-02 5.853271484375000000e-02

-1.354980468750000000e-02 -5.123901367187500000e-02 2.655029296875000000e-02 -8.041381835937500000e-03 -6.915283203125000000e-02 8.184814453125000000e-02 -8.618164062500000000e-02 -4.409790039062500000e-02 8.343505859375000000e-02 -6.750488281250000000e-02 -4.626464843750000000e-02 -3.219604492187500000e-02 -9.155273437500000000e-03 5.743408203125000000e-02 -5.453491210937500000e-02 7.135009765625000000e-02 -7.537841796875000000e-02 6.463623046875000000e-02 8.160400390625000000e-02 3.216552734375000000e-02 9.259033203125000000e-02 -8.239746093750000000e-03 -1.594543457031250000e-02 6.170654296875000000e-02 8.148193359375000000e-02 7.891845703125000000e-02 2.453613281250000000e-02 8.892822265625000000e-02 5.963134765625000000e-02 -3.475952148437500000e-02 2.380371093750000000e-02 -1.153564453125000000e-02 8.197021484375000000e-02 6.408691406250000000e-03 -8.911132812500000000e-02 9.063720703125000000e-02 -7.446289062500000000e-02 -6.185913085937500000e-02

4.052734375000000000e-02 2.874755859375000000e-02 8.148193359375000000e-02 2.874755859375000000e-02 4.486083984375000000e-02 3.057861328125000000e-02 -6.512451171875000000e-02 -8.142089843750000000e-02 -1.715087890625000000e-02 -6.094360351562500000e-02 1.687622070312500000e-02 1.661682128906250000e-02 -3.317260742187500000e-02 8.441162109375000000e-02 -1.294612884521484375e-04 2.589416503906250000e-02 5.850219726562500000e-02 3.240966796875000000e-02 8.135986328125000000e-02 6.167602539062500000e-02 2.343750000000000000e-02 7.659912109375000000e-03 -4.232788085937500000e-02 -2.839660644531250000e-02 -2.618408203125000000e-02 -6.298828125000000000e-02 1.965332031250000000e-02 -1.574707031250000000e-02 -5.691528320312500000e-02 5.752563476562500000e-02 8.813476562500000000e-02 8.410644531250000000e-02 6.536865234375000000e-02 8.880615234375000000e-02 -7.564544677734375000e-03 7.781982421875000000e-02 3.005981445312500000e-03 -2.323913574218750000e-02

5.731201171875000000e-02 9.155273437500000000e-03 -6.384277343750000000e-02 7.855224609375000000e-02 -7.812500000000000000e-02 6.229400634765625000e-03 -5.178833007812500000e-02 -8.544921875000000000e-02 6.060791015625000000e-02 -3.897094726562500000e-02 -7.720947265625000000e-02 6.282806396484375000e-03 -1.137542724609375000e-02 1.005554199218750000e-02 3.143310546875000000e-02 -4.556274414062500000e-02 6.622314453125000000e-02 -1.373291015625000000e-02 -3.128051757812500000e-02 -2.986145019531250000e-02 7.891845703125000000e-02 6.109619140625000000e-02 7.135009765625000000e-02 6.097412109375000000e-02 -6.896972656250000000e-02 -6.787109375000000000e-02 3.875732421875000000e-02 4.776000976562500000e-03 -2.618408203125000000e-02 -4.922485351562500000e-02 -3.182983398437500000e-02 -3.533935546875000000e-02 5.283355712890625000e-03 -7.501220703125000000e-02 -6.130981445312500000e-02 2.142333984375000000e-02 9.712219238281250000e-03 2.288818359375000000e-02

-2.655029296875000000e-02 -7.519531250000000000e-02 6.768798828125000000e-02 -6.640625000000000000e-02 -2.270507812500000000e-02 7.415771484375000000e-02 3.424072265625000000e-02 7.086181640625000000e-02 -5.526733398437500000e-02 -4.959106445312500000e-02 6.756591796875000000e-02 -9.313964843750000000e-02 -3.768920898437500000e-02 3.826904296875000000e-02 -4.922485351562500000e-02 -5.105590820312500000e-02 7.647705078125000000e-02 8.233642578125000000e-02 2.160644531250000000e-02 4.449462890625000000e-02 -3.149414062500000000e-02 -7.324218750000000000e-03 -6.076049804687500000e-02 5.999755859375000000e-02 1.300048828125000000e-02 -8.691406250000000000e-02 7.904052734375000000e-02 5.743408203125000000e-02 -7.409667968750000000e-02 6.658935546875000000e-02 -9.020996093750000000e-02 5.230712890625000000e-02 2.032470703125000000e-02 -4.537963867187500000e-02 5.676269531250000000e-03 9.320068359375000000e-02 8.966064453125000000e-02 -1.791715621948242188e-04

9.100341796875000000e-02 -1.190185546875000000e-02 -8.599853515625000000e-02 -4.318237304687500000e-02 -6.274414062500000000e-02 4.394531250000000000e-03 8.746337890625000000e-02 -1.629638671875000000e-02 -6.384277343750000000e-02 -3.567504882812500000e-02 -4.812622070312500000e-02 2.744674682617187500e-03 -1.519775390625000000e-02 -3.640747070312500000e-02 -7.244873046875000000e-02 8.917236328125000000e-02 3.253173828125000000e-02 -2.490234375000000000e-02 4.022216796875000000e-02 -4.629516601562500000e-02 -8.380126953125000000e-02 6.683349609375000000e-02 -1.821517944335937500e-04 9.222412109375000000e-02 -1.135253906250000000e-02 -6.222534179687500000e-02 -1.702880859375000000e-02 -2.252197265625000000e-02 -1.391601562500000000e-02 7.867431640625000000e-02 -2.193450927734375000e-03 -6.042480468750000000e-03 7.427978515625000000e-02 8.331298828125000000e-02 6.610107421875000000e-02 5.340576171875000000e-02 3.326416015625000000e-02 -7.684326171875000000e-02

5.343627929687500000e-02 -8.673095703125000000e-02 -5.929565429687500000e-02 -3.652954101562500000e-02 5.288696289062500000e-02 -2.433776855468750000e-02 -5.673217773437500000e-02 -8.050537109375000000e-02 8.941650390625000000e-02 7.484436035156250000e-03 -2.845764160156250000e-02 8.575439453125000000e-02 5.438232421875000000e-02 7.373046875000000000e-02 5.697631835937500000e-02 7.385253906250000000e-02 -6.970214843750000000e-02 7.629394531250000000e-02 -4.528045654296875000e-03 3.659057617187500000e-02 8.003234863281250000e-03 -4.470825195312500000e-02 6.921386718750000000e-02 8.209228515625000000e-02 -8.068847656250000000e-02 -8.508300781250000000e-02 2.857971191406250000e-02 -3.005981445312500000e-03 -4.995727539062500000e-02 4.901123046875000000e-02 3.961181640625000000e-02 -2.606201171875000000e-02 -9.039306640625000000e-02 1.316070556640625000e-02 -5.838012695312500000e-02 2.563476562500000000e-02 2.534484863281250000e-02 6.396484375000000000e-02

-5.102539062500000000e-02 3.692626953125000000e-02 -6.988525390625000000e-02 7.281494140625000000e-02 -2.980041503906250000e-02 -8.398437500000000000e-02 8.001708984375000000e-02 9.039306640625000000e-02 5.667114257812500000e-02 -2.897644042968750000e-02 -6.744384765625000000e-02 -1.720428466796875000e-03 7.800292968750000000e-02 5.761718750000000000e-02 3.613281250000000000e-02 2.397155761718750000e-02 3.427124023437500000e-02 6.842041015625000000e-02 -2.216339111328125000e-03 -1.809692382812500000e-02 4.379272460937500000e-02 -8.819580078125000000e-02 -5.865478515625000000e-02 -4.461669921875000000e-02 9.173583984375000000e-02 -8.697509765625000000e-02 1.049804687500000000e-02 3.475952148437500000e-02 -4.373168945312500000e-02 4.791259765625000000e-02 5.361938476562500000e-02 5.374145507812500000e-02 -7.717132568359375000e-03 4.864501953125000000e-02 -5.241394042968750000e-03 -1.664733886718750000e-02 -2.708435058593750000e-02 6.109619140625000000e-02

-2.874755859375000000e-02 8.660888671875000000e-02 8.587646484375000000e-02 -2.242326736450195312e-04 -5.538940429687500000e-02 5.145263671875000000e-02 4.571533203125000000e-02 7.690429687500000000e-03 4.348754882812500000e-02 4.379272460937500000e-02 5.667114257812500000e-02 9.057617187500000000e-02 1.335906982421875000e-02 -7.031250000000000000e-02 7.458496093750000000e-02 3.808593750000000000e-02 -3.713989257812500000e-02 -1.349639892578125000e-02 7.086181640625000000e-02 8.953857421875000000e-02 5.996704101562500000e-02 2.690124511718750000e-02 7.700920104980468750e-05 3.805160522460937500e-04 7.196044921875000000e-02 2.296447753906250000e-02 -7.360839843750000000e-02 2.635192871093750000e-02 -7.958984375000000000e-02 8.239746093750000000e-02 -9.197998046875000000e-02 1.931762695312500000e-02 -5.892944335937500000e-02 7.757568359375000000e-02 2.363586425781250000e-02 -9.277343750000000000e-02 -5.255126953125000000e-02 -1.507568359375000000e-02

2.911376953125000000e-02 6.805419921875000000e-02 3.179931640625000000e-02 -1.557922363281250000e-02 -8.258056640625000000e-02 -8.789062500000000000e-03 -1.959228515625000000e-02 -6.622314453125000000e-02 -9.020996093750000000e-02 -2.691650390625000000e-02 8.687973022460937500e-04 8.111572265625000000e-02 9.191894531250000000e-02 -5.105590820312500000e-02 -8.911132812500000000e-02 7.647705078125000000e-02 -2.342224121093750000e-02 -4.519653320312500000e-02 8.316040039062500000e-03 -6.801605224609375000e-03 7.958984375000000000e-02 -2.618408203125000000e-02 -7.580566406250000000e-02 -3.564453125000000000e-02 4.888916015625000000e-02 2.285766601562500000e-02 -7.757568359375000000e-02 4.867553710937500000e-02 -1.776123046875000000e-02 3.802490234375000000e-02 9.210205078125000000e-02 -1.009368896484375000e-02 2.433776855468750000e-02 -6.915283203125000000e-02 -5.435180664062500000e-02 2.252197265625000000e-02 -4.158020019531250000e-03 -5.819702148437500000e-02

5.816650390625000000e-02 -4.812622070312500000e-02 5.963134765625000000e-02 -7.666015625000000000e-02 4.412841796875000000e-02 -7.482910156250000000e-02 -5.493164062500000000e-03 7.391357421875000000e-02 -9.350585937500000000e-02 -1.629638671875000000e-02 4.559326171875000000e-02 8.489990234375000000e-02 2.563476562500000000e-02 8.917236328125000000e-02 -7.336425781250000000e-02 -1.922607421875000000e-02 -7.537841796875000000e-02 2.856445312500000000e-02 4.559326171875000000e-02 -1.152801513671875000e-02 2.893066406250000000e-02 -7.427978515625000000e-02 7.904052734375000000e-02 -7.556152343750000000e-02 9.185791015625000000e-02 -5.416870117187500000e-02 3.126144409179687500e-03 -9.185791015625000000e-02 -5.654907226562500000e-02 2.618408203125000000e-02 3.292083740234375000e-03 -4.995727539062500000e-02 -3.676414489746093750e-04 -2.362060546875000000e-02 3.057861328125000000e-02 -7.061767578125000000e-02 1.922607421875000000e-02 4.315185546875000000e-02

-8.380126953125000000e-02 7.318115234375000000e-02 6.585693359375000000e-02 -1.171112060546875000e-02 7.708740234375000000e-02 3.039550781250000000e-02 5.145263671875000000e-02 -8.636474609375000000e-02 -3.988647460937500000e-02 7.537841796875000000e-02 5.004882812500000000e-03 5.364990234375000000e-02 -2.270507812500000000e-02 6.797790527343750000e-03 -1.267242431640625000e-02 7.244873046875000000e-02 3.790283203125000000e-02 -3.549194335937500000e-02 -4.428100585937500000e-02 -2.204895019531250000e-03 -8.380126953125000000e-02 -4.025268554687500000e-02 -6.530761718750000000e-02 5.258178710937500000e-02 5.108642578125000000e-02 -9.020996093750000000e-02 2.453613281250000000e-02 3.289794921875000000e-02 -1.654624938964843750e-03 8.038330078125000000e-02 -9.002685546875000000e-02 8.306884765625000000e-02 4.864501953125000000e-02 -1.831054687500000000e-02 -3.695678710937500000e-02 -9.295654296875000000e-02 -9.185791015625000000e-02 2.748489379882812500e-03

2.162170410156250000e-02 -6.512451171875000000e-02 7.751464843750000000e-02 -5.062866210937500000e-02 -8.801269531250000000e-02 2.746582031250000000e-02 2.362060546875000000e-02 -6.774902343750000000e-03 -6.969451904296875000e-03 7.232666015625000000e-02 3.536224365234375000e-03 4.177856445312500000e-02 -3.347778320312500000e-02 1.036834716796875000e-02 8.013916015625000000e-02 -3.515625000000000000e-02 2.861022949218750000e-02 6.597900390625000000e-02 -4.531860351562500000e-02 7.464599609375000000e-02 7.080078125000000000e-02 -2.661132812500000000e-02 4.248046875000000000e-02 1.690673828125000000e-02 -8.489990234375000000e-02 2.098083496093750000e-02 -1.116943359375000000e-02 2.049255371093750000e-02 2.084350585937500000e-02 -5.328369140625000000e-02 -4.791259765625000000e-02 -2.055358886718750000e-02 7.196044921875000000e-02 -3.439331054687500000e-02 5.558013916015625000e-03 5.670166015625000000e-02 -9.271240234375000000e-02 3.051757812500000000e-03

-2.087402343750000000e-02 -6.475830078125000000e-02 -8.563232421875000000e-02 9.295654296875000000e-02 -5.804443359375000000e-02 -7.775878906250000000e-02 -9.185791015625000000e-02 -1.135253906250000000e-02 3.839111328125000000e-02 -1.867675781250000000e-02 -4.974365234375000000e-02 -4.425048828125000000e-02 -8.728027343750000000e-03 8.880615234375000000e-02 1.663208007812500000e-02 2.110290527343750000e-02 8.807373046875000000e-02 6.565093994140625000e-03 3.619384765625000000e-02 -4.779052734375000000e-02 4.714965820312500000e-02 -4.768371582031250000e-03 -5.551147460937500000e-02 -5.157470703125000000e-02 -8.471679687500000000e-02 1.994323730468750000e-02 -6.420898437500000000e-02 -9.295654296875000000e-02 8.770751953125000000e-02 3.610610961914062500e-03 -4.537963867187500000e-02 6.024169921875000000e-02 3.387451171875000000e-02 1.776123046875000000e-02 -2.508544921875000000e-02 -3.970336914062500000e-02 -9.655952453613281250e-06 4.925537109375000000e-02

-7.867431640625000000e-02 -4.519653320312500000e-02 -6.475830078125000000e-02 -5.120849609375000000e-02 5.139160156250000000e-02 -2.416992187500000000e-02 2.764892578125000000e-02 1.885986328125000000e-02 -6.622314453125000000e-02 8.435058593750000000e-02 7.727050781250000000e-02 -8.929443359375000000e-02 -6.506347656250000000e-02 -6.384277343750000000e-02 -2.853393554687500000e-02 6.732177734375000000e-02 -6.567382812500000000e-02 -7.492065429687500000e-03 2.650451660156250000e-02 -2.415466308593750000e-02 -9.010314941406250000e-03 -2.233886718750000000e-02 -2.699279785156250000e-02 -4.156494140625000000e-02 8.013916015625000000e-02 -5.273437500000000000e-02 4.449462890625000000e-02 1.664733886718750000e-02 -8.013916015625000000e-02 -2.656936645507812500e-03 -8.959960937500000000e-02 -3.164672851562500000e-02 1.611328125000000000e-02 -8.581542968750000000e-02 7.427978515625000000e-02 -3.732299804687500000e-02 7.720947265625000000e-02 -7.006835937500000000e-02

-8.361816406250000000e-02 2.819824218750000000e-02 -1.965332031250000000e-02 -3.640747070312500000e-02 6.204223632812500000e-02 8.819580078125000000e-02 8.587646484375000000e-02 -7.446289062500000000e-02 8.508300781250000000e-02 -5.694580078125000000e-02 -6.628417968750000000e-02 -2.296447753906250000e-02 -4.315185546875000000e-02 8.966064453125000000e-02 -1.308441162109375000e-02 2.226257324218750000e-02 9.173583984375000000e-02 1.073837280273437500e-03 7.025146484375000000e-02 -4.373168945312500000e-02 6.549072265625000000e-02 -4.794311523437500000e-02 3.656005859375000000e-02 2.124023437500000000e-02 7.208251953125000000e-02 -5.673217773437500000e-02 -5.126953125000000000e-02 -2.134704589843750000e-02 -5.142211914062500000e-02 5.368041992187500000e-02 -8.123779296875000000e-02 -4.376220703125000000e-02 -7.299804687500000000e-02 -8.966064453125000000e-02 2.572631835937500000e-02 -7.501220703125000000e-02 -9.193420410156250000e-03 3.298950195312500000e-02

3.790283203125000000e-02 7.135009765625000000e-02 5.267333984375000000e-02 -2.911376953125000000e-02 1.225280761718750000e-02 8.819580078125000000e-02 6.842041015625000000e-02 1.647949218750000000e-02 4.864501953125000000e-02 5.804443359375000000e-02 5.836486816406250000e-03 -5.746459960937500000e-02 8.856201171875000000e-02 8.697509765625000000e-02 2.471923828125000000e-02 -8.398437500000000000e-02 -3.256225585937500000e-02 -9.057617187500000000e-02 3.314208984375000000e-02 -3.114700317382812500e-03 6.658935546875000000e-02 1.135253906250000000e-02 5.328369140625000000e-02 -6.094360351562500000e-02 4.608154296875000000e-02 -9.094238281250000000e-02 8.489990234375000000e-02 -3.585815429687500000e-02 9.295654296875000000e-02 2.545166015625000000e-02 3.656005859375000000e-02 8.709716796875000000e-02 -5.691528320312500000e-02 3.253173828125000000e-02 5.181884765625000000e-02 2.508544921875000000e-02 -8.325195312500000000e-02 3.467559814453125000e-03

1.025390625000000000e-02 5.859375000000000000e-03 -1.263427734375000000e-02 1.669883728027343750e-03 -2.017974853515625000e-03 -3.662109375000000000e-03 6.280517578125000000e-02 7.232666015625000000e-02 -7.873535156250000000e-03 -1.996994018554687500e-03 4.705810546875000000e-02 -4.885864257812500000e-02 -4.190063476562500000e-02 1.355743408203125000e-02 -4.849243164062500000e-02 -8.654785156250000000e-02 -4.446411132812500000e-02 -2.690124511718750000e-02 3.656005859375000000e-02 5.926513671875000000e-02 -6.677246093750000000e-02 4.888916015625000000e-02 1.921081542968750000e-02 4.925537109375000000e-02 -7.629394531250000000e-02 6.256103515625000000e-02 -6.585693359375000000e-02 -6.732177734375000000e-02 -2.032470703125000000e-02 -3.465652465820312500e-03 3.863525390625000000e-02 -5.050659179687500000e-02 -2.838134765625000000e-02 -5.068969726562500000e-02 2.343750000000000000e-02 1.757812500000000000e-02 -5.087280273437500000e-02 -6.039428710937500000e-02

-4.260253906250000000e-02 7.904052734375000000e-02 -3.823852539062500000e-02 4.550170898437500000e-02 5.838012695312500000e-02 9.162902832031250000e-03 -1.281738281250000000e-02 8.782958984375000000e-02 -8.721923828125000000e-02 1.322174072265625000e-02 1.286506652832031250e-03 7.415771484375000000e-02 -4.507446289062500000e-02 8.746337890625000000e-02 4.815673828125000000e-02 -6.124877929687500000e-02 5.633544921875000000e-02 1.088714599609375000e-02 -1.634216308593750000e-02 -5.392456054687500000e-02 1.748657226562500000e-02 -7.318115234375000000e-02 3.869628906250000000e-02 2.090454101562500000e-02 1.464843750000000000e-02 -5.802154541015625000e-03 6.240844726562500000e-03 -3.573608398437500000e-02 -6.567382812500000000e-02 -6.060791015625000000e-02 2.784729003906250000e-03 7.122802734375000000e-02 3.533935546875000000e-02 -5.508422851562500000e-02 1.664733886718750000e-02 9.259033203125000000e-02 3.244018554687500000e-02 4.702758789062500000e-02

3.007507324218750000e-02 -7.464599609375000000e-02 8.416748046875000000e-02 6.207275390625000000e-02 8.026123046875000000e-02 5.816650390625000000e-02 5.364990234375000000e-02 1.391601562500000000e-02 -1.947021484375000000e-02 1.352691650390625000e-02 -5.236816406250000000e-02 6.512451171875000000e-02 7.403564453125000000e-02 1.120758056640625000e-02 -6.860351562500000000e-02 -7.055664062500000000e-02 7.714843750000000000e-02 7.464599609375000000e-02 2.941894531250000000e-02 -4.992675781250000000e-02 6.384277343750000000e-02 5.780029296875000000e-02 -7.720947265625000000e-02 7.861328125000000000e-02 2.050781250000000000e-02 2.641296386718750000e-02 8.917236328125000000e-02 -4.241943359375000000e-02 -3.837585449218750000e-03 -7.464599609375000000e-02 2.864074707031250000e-02 -8.728027343750000000e-02 2.964782714843750000e-02 -1.409912109375000000e-02 -8.728027343750000000e-02 6.365966796875000000e-02 -6.112670898437500000e-02 8.489990234375000000e-02

-1.557159423828125000e-02 -9.112548828125000000e-02 1.516723632812500000e-02 -2.302551269531250000e-02 -4.199218750000000000e-02 -5.010986328125000000e-02 -8.599853515625000000e-02 1.629638671875000000e-02 7.196044921875000000e-02 7.727050781250000000e-02 -1.018524169921875000e-03 3.680419921875000000e-02 5.172729492187500000e-02 1.924133300781250000e-02 -1.013946533203125000e-02 6.317138671875000000e-02 9.252929687500000000e-02 6.030273437500000000e-02 1.594543457031250000e-02 -8.050537109375000000e-02 -4.855346679687500000e-02 8.923339843750000000e-02 -5.920410156250000000e-02 -7.330322265625000000e-02 -4.116821289062500000e-02 1.495361328125000000e-02 -5.816650390625000000e-02 3.775024414062500000e-02 -6.228637695312500000e-02 -7.757568359375000000e-02 8.081054687500000000e-02 6.988525390625000000e-02 -5.639648437500000000e-02 -2.217102050781250000e-02 3.268432617187500000e-02 -6.604003906250000000e-02 5.514526367187500000e-02 -5.648803710937500000e-02

2.069091796875000000e-02 -8.929443359375000000e-02 2.490234375000000000e-02 -4.647827148437500000e-02 7.415771484375000000e-02 -7.537841796875000000e-02 1.922607421875000000e-02 6.463623046875000000e-02 8.892822265625000000e-02 -3.750610351562500000e-02 3.582763671875000000e-02 1.721191406250000000e-02 3.042221069335937500e-04 5.816650390625000000e-02 -8.178710937500000000e-02 -6.860351562500000000e-02 5.084228515625000000e-02 -1.409912109375000000e-02 2.526855468750000000e-02 -4.849243164062500000e-02 -2.929687500000000000e-02 4.449462890625000000e-02 6.549072265625000000e-02 -2.983093261718750000e-02 -3.970336914062500000e-02 3.143310546875000000e-02 2.911376953125000000e-02 -8.471679687500000000e-02 -3.659057617187500000e-02 -8.471679687500000000e-02 7.904052734375000000e-02 -1.190185546875000000e-02 -5.929565429687500000e-02 -8.489990234375000000e-02 2.490234375000000000e-02 -4.577636718750000000e-03 4.644775390625000000e-02 7.940673828125000000e-02

-8.105468750000000000e-02 -3.585815429687500000e-02 -2.764892578125000000e-02 -2.627563476562500000e-02 -8.557128906250000000e-02 9.098052978515625000e-04 7.318115234375000000e-02 -1.647949218750000000e-03 7.012939453125000000e-02 3.500366210937500000e-02 1.231384277343750000e-02 -8.636474609375000000e-02 6.372070312500000000e-02 -7.287597656250000000e-02 -6.805419921875000000e-02 3.108215332031250000e-02 4.888916015625000000e-02 -2.964782714843750000e-02 6.646728515625000000e-02 -1.085662841796875000e-02 1.533508300781250000e-02 5.484008789062500000e-02 1.647949218750000000e-02 -8.654785156250000000e-02 -5.892944335937500000e-02 4.000854492187500000e-02 -7.647705078125000000e-02 -2.053833007812500000e-02 5.816650390625000000e-02 -6.793212890625000000e-02 -3.823852539062500000e-02 2.838134765625000000e-02 -8.343505859375000000e-02 6.170654296875000000e-02 -6.127929687500000000e-02 8.526611328125000000e-02 8.294677734375000000e-02 -3.823852539062500000e-02

