2.106933593750000000e-01

-2.365722656250000000e-01

-1.268310546875000000e-01

-3.295898437500000000e-02

-1.130371093750000000e-01

9.277343750000000000e-02

-1.442871093750000000e-01

1.564941406250000000e-01

1.262207031250000000e-01

-9.167480468750000000e-02

9.228515625000000000e-02

8.447265625000000000e-02

1.789550781250000000e-01

-2.102050781250000000e-01

1.425781250000000000e-01

-3.344726562500000000e-02

-1.251220703125000000e-01

-1.059570312500000000e-01

-1.827392578125000000e-01

-2.590332031250000000e-01

2.106933593750000000e-01

3.344726562500000000e-02

2.370605468750000000e-01

7.299804687500000000e-02

-1.514892578125000000e-01

7.568359375000000000e-02

2.761230468750000000e-01

1.425781250000000000e-01

-2.141113281250000000e-01

-5.053710937500000000e-02

2.375488281250000000e-01

1.948242187500000000e-01

-1.855468750000000000e-02

2.197265625000000000e-02

2.380371093750000000e-01

-1.635742187500000000e-01

2.321777343750000000e-01

-1.098632812500000000e-02

