-3.356933593750000000e-02 3.741455078125000000e-02 5.117797851562500000e-02 -9.197998046875000000e-02 2.148437500000000000e-02 -6.268310546875000000e-02 8.892822265625000000e-02 6.115722656250000000e-02 -4.174804687500000000e-02 2.189636230468750000e-03 3.007507324218750000e-02 7.855224609375000000e-02 2.655029296875000000e-02 9.075927734375000000e-02 1.489257812500000000e-02 -9.503173828125000000e-02 7.476806640625000000e-02 2.888488769531250000e-02 -2.166748046875000000e-02 7.354736328125000000e-02 -8.013916015625000000e-02 7.989501953125000000e-02 4.364013671875000000e-02 -1.084136962890625000e-02 -4.577636718750000000e-02 8.331298828125000000e-02 4.315185546875000000e-02 -1.678466796875000000e-02 2.447509765625000000e-02 -7.775878906250000000e-02 6.207275390625000000e-02 -9.240722656250000000e-02 -8.679199218750000000e-02 6.149291992187500000e-02 9.405517578125000000e-02 -4.342651367187500000e-02 9.625244140625000000e-02 -9.222412109375000000e-02

4.254150390625000000e-02 8.064270019531250000e-03 -9.118652343750000000e-02 6.988525390625000000e-02 2.994537353515625000e-03 1.971435546875000000e-02 4.803466796875000000e-02 2.325439453125000000e-02 -9.460449218750000000e-02 6.451416015625000000e-02 -8.056640625000000000e-03 2.813720703125000000e-02 -9.582519531250000000e-02 -6.628417968750000000e-02 2.972412109375000000e-02 -3.936767578125000000e-02 -9.783935546875000000e-02 -7.513427734375000000e-02 8.441162109375000000e-02 1.287841796875000000e-02 -1.464843750000000000e-02 3.277587890625000000e-02 -5.611419677734375000e-03 -6.027221679687500000e-02 -4.580688476562500000e-02 6.671142578125000000e-02 8.612060546875000000e-02 -8.337402343750000000e-02 7.232666015625000000e-02 7.012939453125000000e-02 -9.082031250000000000e-02 -7.531738281250000000e-02 -4.541015625000000000e-02 6.048583984375000000e-02 4.034423828125000000e-02 1.342773437500000000e-02 -5.798339843750000000e-03 6.866455078125000000e-02

6.768798828125000000e-02 5.145263671875000000e-02 -5.303955078125000000e-02 -8.807373046875000000e-02 -1.644897460937500000e-02 -4.251098632812500000e-02 6.072998046875000000e-02 5.883789062500000000e-02 8.026123046875000000e-02 3.463745117187500000e-02 6.234741210937500000e-02 5.432128906250000000e-03 -5.581665039062500000e-02 3.362655639648437500e-03 -7.373046875000000000e-02 1.018676757812500000e-01 -4.138183593750000000e-02 2.851867675781250000e-02 -9.820556640625000000e-02 -1.867675781250000000e-02 -5.343627929687500000e-02 -5.654907226562500000e-02 -3.375244140625000000e-02 1.131439208984375000e-02 -5.297851562500000000e-02 -7.629394531250000000e-02 -9.741210937500000000e-02 4.928588867187500000e-02 -1.306152343750000000e-02 9.906005859375000000e-02 -2.127075195312500000e-02 3.057861328125000000e-02 -8.659362792968750000e-03 -3.607177734375000000e-02 1.085281372070312500e-03 7.885742187500000000e-02 -5.773925781250000000e-02 -2.325439453125000000e-02

3.436279296875000000e-02 -3.271484375000000000e-02 5.728149414062500000e-02 7.891845703125000000e-02 1.065063476562500000e-02 -1.678466796875000000e-03 1.009521484375000000e-01 2.865600585937500000e-02 -7.067871093750000000e-02 -2.453613281250000000e-02 8.050537109375000000e-02 -6.530761718750000000e-02 2.071380615234375000e-03 9.484863281250000000e-02 9.259033203125000000e-02 9.838867187500000000e-02 -3.131103515625000000e-02 9.130859375000000000e-02 4.898071289062500000e-02 -1.386642456054687500e-03 9.223937988281250000e-03 3.155517578125000000e-02 8.203125000000000000e-02 2.520751953125000000e-02 -5.470275878906250000e-03 -2.770996093750000000e-02 -8.618164062500000000e-02 -1.058959960937500000e-02 8.673095703125000000e-02 -6.268310546875000000e-02 9.216308593750000000e-02 5.892944335937500000e-02 3.074645996093750000e-02 9.753417968750000000e-02 6.280517578125000000e-02 4.919433593750000000e-02 -6.994628906250000000e-02 -2.143859863281250000e-02

-2.349853515625000000e-02 -1.745605468750000000e-02 1.788330078125000000e-02 -6.970214843750000000e-02 -1.411437988281250000e-03 3.070068359375000000e-02 -7.971191406250000000e-02 -1.004638671875000000e-01 -4.174709320068359375e-04 5.670166015625000000e-02 1.745605468750000000e-02 -9.783935546875000000e-02 -6.707763671875000000e-02 7.513427734375000000e-02 9.857177734375000000e-02 2.691650390625000000e-02 9.478759765625000000e-02 -1.028442382812500000e-01 -5.001831054687500000e-02 4.718017578125000000e-02 -5.966186523437500000e-02 4.425048828125000000e-02 3.778076171875000000e-02 -1.028442382812500000e-01 -1.867675781250000000e-02 9.747314453125000000e-02 6.304931640625000000e-02 1.122283935546875000e-02 8.843994140625000000e-02 1.647949218750000000e-02 6.243896484375000000e-02 7.818603515625000000e-02 -7.373046875000000000e-02 9.033203125000000000e-03 -3.997802734375000000e-02 8.514404296875000000e-02 6.390380859375000000e-02 4.901123046875000000e-02

7.257080078125000000e-02 6.805419921875000000e-02 -7.952880859375000000e-02 4.644775390625000000e-02 6.229400634765625000e-03 -2.008056640625000000e-02 -9.680175781250000000e-02 5.584716796875000000e-02 8.422851562500000000e-03 -2.392578125000000000e-02 -8.496093750000000000e-02 -3.515625000000000000e-02 -7.995605468750000000e-02 3.435134887695312500e-03 4.718017578125000000e-02 2.789306640625000000e-02 -1.018676757812500000e-01 6.304931640625000000e-02 5.902099609375000000e-02 1.323699951171875000e-02 -2.954101562500000000e-02 -6.848144531250000000e-02 3.460693359375000000e-02 5.743408203125000000e-02 6.268310546875000000e-02 -9.881591796875000000e-02 7.086181640625000000e-02 -5.422973632812500000e-02 8.380126953125000000e-02 -1.420021057128906250e-03 9.478759765625000000e-02 6.890869140625000000e-02 -8.312988281250000000e-02 2.655029296875000000e-02 1.257896423339843750e-03 2.130126953125000000e-02 -5.422973632812500000e-02 -9.722900390625000000e-02

7.629394531250000000e-03 5.145263671875000000e-02 -3.494262695312500000e-02 5.300903320312500000e-02 -6.939697265625000000e-02 1.884460449218750000e-02 8.813476562500000000e-02 2.903747558593750000e-02 -4.660034179687500000e-02 -3.033447265625000000e-02 -8.355712890625000000e-02 -7.232666015625000000e-02 -4.051208496093750000e-03 -4.071044921875000000e-02 -5.404663085937500000e-02 9.313964843750000000e-02 -6.027221679687500000e-02 -3.955841064453125000e-03 4.531860351562500000e-02 -5.740356445312500000e-02 5.328369140625000000e-02 8.255004882812500000e-03 7.598876953125000000e-02 -8.593750000000000000e-02 -3.108215332031250000e-02 1.924133300781250000e-02 -7.855224609375000000e-02 1.099395751953125000e-02 9.002685546875000000e-02 6.420898437500000000e-02 8.050537109375000000e-02 -5.261230468750000000e-02 -6.027221679687500000e-02 -5.908203125000000000e-02 5.130004882812500000e-02 5.203247070312500000e-02 -7.916259765625000000e-02 1.238250732421875000e-02

-8.496093750000000000e-02 3.607177734375000000e-02 -8.709716796875000000e-02 8.111572265625000000e-02 1.165008544921875000e-02 8.325195312500000000e-02 6.858825683593750000e-03 3.897094726562500000e-02 1.022949218750000000e-01 5.096435546875000000e-02 -9.887695312500000000e-02 4.815673828125000000e-02 1.823425292968750000e-02 -1.323699951171875000e-02 -9.478759765625000000e-02 -2.642822265625000000e-02 -4.620361328125000000e-02 2.105712890625000000e-02 9.075927734375000000e-02 8.197021484375000000e-02 -2.429199218750000000e-02 2.763366699218750000e-02 5.963134765625000000e-02 3.939819335937500000e-02 -3.259277343750000000e-02 -5.102539062500000000e-02 -4.638671875000000000e-02 -1.009368896484375000e-02 -9.582519531250000000e-02 3.677368164062500000e-02 1.893615722656250000e-02 2.500915527343750000e-02 -9.002685546875000000e-02 6.210327148437500000e-02 2.812194824218750000e-02 1.586914062500000000e-02 -8.135986328125000000e-02 -9.307861328125000000e-02

-8.917236328125000000e-02 -6.945800781250000000e-02 2.917480468750000000e-02 -8.380126953125000000e-02 -2.326965332031250000e-02 -2.911376953125000000e-02 -7.714843750000000000e-02 9.289550781250000000e-02 -6.094360351562500000e-02 1.901245117187500000e-02 -6.524658203125000000e-02 7.733154296875000000e-02 4.898071289062500000e-02 8.966064453125000000e-02 -3.875732421875000000e-02 4.739379882812500000e-02 -6.323242187500000000e-02 5.273437500000000000e-02 -1.015014648437500000e-01 -7.647705078125000000e-02 -6.848144531250000000e-02 -1.776123046875000000e-02 3.094482421875000000e-02 -9.857177734375000000e-02 -8.361816406250000000e-03 7.617187500000000000e-02 -9.948730468750000000e-03 8.172607421875000000e-02 8.593750000000000000e-02 7.373046875000000000e-02 -7.019042968750000000e-02 -5.783081054687500000e-02 4.083251953125000000e-02 6.079101562500000000e-02 8.758544921875000000e-02 -1.022338867187500000e-01 -1.026611328125000000e-01 1.872253417968750000e-02

-6.829833984375000000e-02 -9.040832519531250000e-03 1.045989990234375000e-02 -1.591491699218750000e-02 1.994323730468750000e-02 3.477096557617187500e-03 -9.188652038574218750e-04 4.611968994140625000e-03 -1.171875000000000000e-02 -2.647399902343750000e-02 -8.074951171875000000e-02 -4.821777343750000000e-02 2.455139160156250000e-02 -9.313964843750000000e-02 -9.802246093750000000e-02 -5.999755859375000000e-02 -4.922485351562500000e-02 9.899902343750000000e-02 1.759338378906250000e-02 -1.029205322265625000e-02 6.805419921875000000e-02 -3.207397460937500000e-02 8.673095703125000000e-02 -7.293701171875000000e-02 -3.698730468750000000e-02 6.549072265625000000e-02 -7.713317871093750000e-03 -2.081298828125000000e-02 -9.338378906250000000e-02 -4.446411132812500000e-02 7.226562500000000000e-02 -5.001831054687500000e-02 -9.503173828125000000e-02 -8.227539062500000000e-02 9.631347656250000000e-02 -1.004028320312500000e-01 -6.628417968750000000e-02 2.374649047851562500e-03

9.722900390625000000e-02 -3.918457031250000000e-02 -4.547119140625000000e-02 -7.873535156250000000e-02 -9.503173828125000000e-02 -4.745483398437500000e-02 8.508300781250000000e-02 -8.251953125000000000e-02 1.332092285156250000e-02 2.965927124023437500e-03 -7.312011718750000000e-02 5.865478515625000000e-02 -9.680175781250000000e-02 5.691528320312500000e-02 1.085662841796875000e-02 -2.096557617187500000e-02 4.815673828125000000e-02 -9.362792968750000000e-02 -7.067871093750000000e-02 -4.257202148437500000e-02 -1.244354248046875000e-02 3.143310546875000000e-02 4.846191406250000000e-02 -5.950927734375000000e-03 3.845214843750000000e-02 4.925537109375000000e-02 -5.422973632812500000e-02 -8.880615234375000000e-02 -8.349418640136718750e-04 -7.312011718750000000e-02 9.075927734375000000e-02 -9.246826171875000000e-03 3.192138671875000000e-02 5.343627929687500000e-02 -1.251220703125000000e-02 -5.941772460937500000e-02 4.473876953125000000e-02 3.619384765625000000e-02

6.585693359375000000e-02 -6.707763671875000000e-02 -7.751464843750000000e-02 -4.840087890625000000e-02 -3.936767578125000000e-02 8.978271484375000000e-02 -7.434082031250000000e-02 -1.930236816406250000e-02 -9.162902832031250000e-03 2.986907958984375000e-03 -5.041503906250000000e-02 -4.638671875000000000e-02 6.402587890625000000e-02 -9.259033203125000000e-02 2.935791015625000000e-02 -4.039764404296875000e-03 4.193115234375000000e-02 -7.330322265625000000e-02 -6.427001953125000000e-02 2.775573730468750000e-02 7.073974609375000000e-02 8.502197265625000000e-02 -6.909179687500000000e-02 -5.303955078125000000e-02 1.866149902343750000e-02 -9.908676147460937500e-04 9.539794921875000000e-02 -8.251953125000000000e-02 9.197998046875000000e-02 3.802490234375000000e-02 -3.613281250000000000e-02 -9.985351562500000000e-02 1.245117187500000000e-02 -7.971191406250000000e-02 -1.808166503906250000e-02 -4.238891601562500000e-02 -1.184844970703125000e-02 5.364990234375000000e-02

7.366943359375000000e-02 -9.899902343750000000e-02 -3.393554687500000000e-02 1.224517822265625000e-02 7.922363281250000000e-02 6.384277343750000000e-02 7.293701171875000000e-02 -5.609130859375000000e-02 -1.609802246093750000e-02 1.165008544921875000e-02 4.644775390625000000e-02 7.232666015625000000e-02 5.828857421875000000e-02 3.747558593750000000e-02 -7.836914062500000000e-02 3.677368164062500000e-02 2.630615234375000000e-02 -5.044555664062500000e-02 9.075927734375000000e-02 1.649475097656250000e-02 -6.530761718750000000e-02 4.797363281250000000e-02 2.286911010742187500e-03 -2.949523925781250000e-02 -4.376220703125000000e-02 -4.156494140625000000e-02 -3.314208984375000000e-02 8.880615234375000000e-02 -1.201629638671875000e-02 -8.013916015625000000e-02 -6.246948242187500000e-02 4.376220703125000000e-02 -2.288818359375000000e-02 6.738281250000000000e-02 -3.497314453125000000e-02 -3.860473632812500000e-02 6.140136718750000000e-02 2.938842773437500000e-02

7.232666015625000000e-02 -7.214355468750000000e-02 2.037048339843750000e-02 -9.338378906250000000e-02 -2.477645874023437500e-03 -8.404541015625000000e-02 6.994628906250000000e-02 3.591918945312500000e-02 -3.942871093750000000e-02 -8.837890625000000000e-02 9.252929687500000000e-02 -8.435058593750000000e-02 3.796386718750000000e-02 1.002807617187500000e-01 -7.049560546875000000e-02 -2.468872070312500000e-02 -1.012573242187500000e-01 4.165649414062500000e-02 8.544921875000000000e-02 -9.722900390625000000e-02 8.857727050781250000e-03 5.862426757812500000e-02 2.166748046875000000e-02 -7.788085937500000000e-02 -8.746337890625000000e-02 4.217529296875000000e-02 -6.628417968750000000e-02 -1.832008361816406250e-03 -1.018524169921875000e-02 4.861450195312500000e-02 -1.602172851562500000e-02 2.914428710937500000e-02 -9.551048278808593750e-04 -7.519531250000000000e-02 -9.222412109375000000e-02 -5.392456054687500000e-02 -7.775878906250000000e-02 3.900146484375000000e-02

-6.384277343750000000e-02 -1.019287109375000000e-01 4.241943359375000000e-02 5.740356445312500000e-02 6.732177734375000000e-02 4.083251953125000000e-02 9.826660156250000000e-02 -6.304931640625000000e-02 3.500366210937500000e-02 7.086181640625000000e-02 -5.529785156250000000e-02 -6.530761718750000000e-02 6.188964843750000000e-02 -9.747314453125000000e-02 1.708984375000000000e-02 9.484863281250000000e-02 3.009033203125000000e-02 9.545898437500000000e-02 6.964111328125000000e-02 6.555175781250000000e-02 -9.899902343750000000e-02 9.655761718750000000e-02 5.337524414062500000e-02 -4.507446289062500000e-02 -7.482910156250000000e-02 6.167602539062500000e-02 8.599853515625000000e-02 5.020141601562500000e-02 -3.311157226562500000e-02 -9.506225585937500000e-03 5.331420898437500000e-02 -6.744384765625000000e-02 -1.306152343750000000e-02 -8.422851562500000000e-03 8.898925781250000000e-02 -4.379272460937500000e-02 5.453491210937500000e-02 3.692626953125000000e-02

-9.399414062500000000e-02 -2.958297729492187500e-03 7.208251953125000000e-02 8.789062500000000000e-02 -1.355171203613281250e-03 -6.756591796875000000e-02 5.426025390625000000e-02 9.075927734375000000e-02 -5.545043945312500000e-02 7.879638671875000000e-02 -1.105499267578125000e-02 1.727294921875000000e-02 5.744934082031250000e-03 4.264831542968750000e-03 -4.739379882812500000e-02 2.239990234375000000e-02 -2.811431884765625000e-03 -2.682495117187500000e-02 1.911926269531250000e-02 8.337402343750000000e-02 4.315185546875000000e-02 1.663208007812500000e-02 -6.353759765625000000e-02 -2.256774902343750000e-02 -9.167480468750000000e-02 8.135986328125000000e-02 8.514404296875000000e-02 2.348327636718750000e-02 -1.026611328125000000e-01 2.031326293945312500e-03 -1.292419433593750000e-02 -3.573608398437500000e-02 -9.924316406250000000e-02 9.130859375000000000e-02 -2.140808105468750000e-02 -5.868530273437500000e-02 -2.109527587890625000e-03 7.641601562500000000e-02

-7.733154296875000000e-02 4.544067382812500000e-02 5.990600585937500000e-02 9.277343750000000000e-02 -6.915283203125000000e-02 -8.959960937500000000e-02 6.726074218750000000e-02 -8.105468750000000000e-02 -1.363372802734375000e-02 6.390380859375000000e-02 -3.256225585937500000e-02 8.636474609375000000e-02 9.597778320312500000e-03 -9.545898437500000000e-02 -7.511138916015625000e-03 1.319122314453125000e-02 6.402587890625000000e-02 7.409667968750000000e-02 -7.537841796875000000e-02 7.696533203125000000e-02 -7.995605468750000000e-02 -9.344482421875000000e-02 2.413940429687500000e-02 8.227539062500000000e-02 3.860473632812500000e-02 -1.971435546875000000e-02 1.976013183593750000e-02 6.500244140625000000e-02 1.719665527343750000e-02 -1.186370849609375000e-02 4.101562500000000000e-02 1.844787597656250000e-02 -8.255004882812500000e-03 -4.312133789062500000e-02 -7.476806640625000000e-02 4.190063476562500000e-02 3.222656250000000000e-02 8.734130859375000000e-02

2.728271484375000000e-02 3.811645507812500000e-02 -6.695556640625000000e-02 1.427459716796875000e-02 -1.028442382812500000e-01 -8.898925781250000000e-02 -8.233642578125000000e-02 -8.239746093750000000e-02 9.289550781250000000e-02 -7.373046875000000000e-02 6.024169921875000000e-02 2.630615234375000000e-02 5.328369140625000000e-02 -1.600646972656250000e-02 2.777099609375000000e-02 1.002807617187500000e-01 1.165771484375000000e-02 -4.199218750000000000e-02 -7.232666015625000000e-02 3.631591796875000000e-02 -4.357910156250000000e-02 -5.950927734375000000e-02 1.294708251953125000e-02 -4.718780517578125000e-03 6.573486328125000000e-02 5.706787109375000000e-02 3.802490234375000000e-02 8.374023437500000000e-02 -1.613616943359375000e-03 8.294677734375000000e-02 6.909179687500000000e-02 -4.275512695312500000e-02 -5.703735351562500000e-02 8.197021484375000000e-02 5.636215209960937500e-04 9.619140625000000000e-02 -6.656646728515625000e-03 2.758789062500000000e-02

-9.666442871093750000e-03 2.359008789062500000e-02 -3.125000000000000000e-02 -9.790039062500000000e-02 9.515380859375000000e-02 -1.701354980468750000e-02 -9.643554687500000000e-02 -6.237792968750000000e-02 -6.433105468750000000e-02 -3.814697265625000000e-02 -5.563354492187500000e-02 5.206298828125000000e-02 5.645751953125000000e-02 9.942626953125000000e-02 5.926513671875000000e-02 4.605102539062500000e-02 -5.303955078125000000e-02 -4.769897460937500000e-02 -4.440307617187500000e-02 -1.145935058593750000e-02 7.012939453125000000e-02 9.991455078125000000e-02 2.755737304687500000e-02 3.796386718750000000e-02 -3.598022460937500000e-02 -9.259033203125000000e-02 -1.030731201171875000e-02 -7.855224609375000000e-02 1.558685302734375000e-02 -9.783935546875000000e-02 7.183837890625000000e-02 1.016845703125000000e-01 6.759643554687500000e-03 -4.360961914062500000e-02 -6.585693359375000000e-02 -8.752441406250000000e-02 2.726745605468750000e-02 6.646728515625000000e-02

-8.880615234375000000e-02 2.087402343750000000e-02 3.511428833007812500e-03 -6.750488281250000000e-02 -5.325317382812500000e-02 -3.860473632812500000e-02 7.128906250000000000e-02 -2.299499511718750000e-02 -9.155273437500000000e-02 -3.038406372070312500e-03 -2.311706542968750000e-03 -6.750488281250000000e-02 2.523422241210937500e-03 -2.416610717773437500e-03 5.157470703125000000e-02 -4.412841796875000000e-02 -9.628295898437500000e-03 -9.197998046875000000e-02 -6.250000000000000000e-02 -3.796386718750000000e-02 -1.847839355468750000e-02 -1.021728515625000000e-01 -9.661865234375000000e-02 4.037475585937500000e-02 -3.971099853515625000e-03 -9.301757812500000000e-02 9.625244140625000000e-02 -4.901123046875000000e-02 -7.911682128906250000e-03 -7.110595703125000000e-02 -2.330017089843750000e-02 5.560302734375000000e-02 -9.277343750000000000e-02 8.764648437500000000e-02 7.330322265625000000e-02 2.593994140625000000e-02 5.081176757812500000e-02 -3.012084960937500000e-02

-7.049560546875000000e-02 1.258850097656250000e-02 -1.774597167968750000e-02 3.007507324218750000e-02 -1.870727539062500000e-02 -9.790039062500000000e-02 -3.927612304687500000e-02 3.726196289062500000e-02 -6.317138671875000000e-02 -5.697631835937500000e-02 -1.001586914062500000e-01 1.831054687500000000e-03 5.969238281250000000e-02 -6.579589843750000000e-02 1.022338867187500000e-01 -7.928466796875000000e-02 1.004028320312500000e-01 2.796936035156250000e-02 2.769470214843750000e-02 -9.014892578125000000e-02 -6.591796875000000000e-02 -2.676391601562500000e-02 -4.330444335937500000e-02 -2.822875976562500000e-03 7.019042968750000000e-02 -5.838012695312500000e-02 6.988525390625000000e-02 -5.895996093750000000e-02 4.187011718750000000e-02 -9.472656250000000000e-02 -7.318115234375000000e-02 1.087188720703125000e-02 -1.770019531250000000e-02 8.044433593750000000e-02 -1.366424560546875000e-02 9.716796875000000000e-02 2.876281738281250000e-02 6.262207031250000000e-02

4.986572265625000000e-02 5.203247070312500000e-02 -9.631347656250000000e-02 8.441162109375000000e-02 6.365966796875000000e-02 3.533935546875000000e-02 -1.734924316406250000e-02 -3.012084960937500000e-02 -8.007812500000000000e-02 -7.835388183593750000e-03 8.880615234375000000e-02 -4.559326171875000000e-02 -7.495117187500000000e-02 -2.422332763671875000e-03 -3.857421875000000000e-02 -7.183837890625000000e-02 2.210998535156250000e-02 7.684326171875000000e-02 1.247406005859375000e-02 -8.093261718750000000e-02 -4.479980468750000000e-02 -3.475952148437500000e-02 -7.061767578125000000e-02 -2.912902832031250000e-02 3.732299804687500000e-02 6.229400634765625000e-03 5.093383789062500000e-02 -1.924133300781250000e-02 1.327514648437500000e-02 1.060485839843750000e-02 3.105163574218750000e-02 -2.134323120117187500e-03 -3.945922851562500000e-02 5.670166015625000000e-02 8.654785156250000000e-02 1.271057128906250000e-02 3.570556640625000000e-02 -7.464599609375000000e-02

-2.809524536132812500e-03 -5.798339843750000000e-03 2.716064453125000000e-02 1.586914062500000000e-02 1.544189453125000000e-02 1.013793945312500000e-01 6.768798828125000000e-02 8.551025390625000000e-02 5.096435546875000000e-02 -4.660034179687500000e-02 1.788330078125000000e-02 -2.569580078125000000e-02 -5.102539062500000000e-02 3.631591796875000000e-02 8.258056640625000000e-02 -9.582519531250000000e-02 9.747314453125000000e-02 7.025146484375000000e-02 -7.873535156250000000e-02 -4.681396484375000000e-02 -1.020507812500000000e-01 2.874755859375000000e-02 6.488037109375000000e-02 -8.697509765625000000e-02 -6.207275390625000000e-02 4.742431640625000000e-02 -1.287841796875000000e-02 5.328369140625000000e-02 2.166748046875000000e-02 -1.006469726562500000e-01 -4.498291015625000000e-02 -2.990722656250000000e-02 2.435302734375000000e-02 -7.952880859375000000e-02 -5.484008789062500000e-02 -7.574462890625000000e-02 9.283447265625000000e-02 5.462646484375000000e-02

6.964111328125000000e-02 -8.251953125000000000e-02 -2.630615234375000000e-02 -8.520507812500000000e-02 -5.142211914062500000e-02 1.585960388183593750e-03 3.912353515625000000e-02 3.839111328125000000e-02 7.171630859375000000e-02 9.173583984375000000e-02 4.705810546875000000e-02 -9.521484375000000000e-02 9.033203125000000000e-03 -8.312988281250000000e-02 -7.690429687500000000e-02 -1.147460937500000000e-02 -1.367187500000000000e-02 7.208251953125000000e-02 4.034423828125000000e-02 1.885986328125000000e-02 -4.278564453125000000e-02 6.573486328125000000e-02 -5.163574218750000000e-02 -2.331542968750000000e-02 7.391357421875000000e-02 -3.845214843750000000e-03 4.779052734375000000e-02 -7.690429687500000000e-02 -5.545043945312500000e-02 3.350830078125000000e-02 -8.422851562500000000e-03 -2.471923828125000000e-02 9.503173828125000000e-02 -9.301757812500000000e-02 -4.541015625000000000e-02 -4.024505615234375000e-03 1.006469726562500000e-01 -9.582519531250000000e-02

-3.112792968750000000e-02 4.718017578125000000e-02 7.257080078125000000e-02 9.344482421875000000e-02 -7.452392578125000000e-02 4.937744140625000000e-02 -6.658935546875000000e-02 6.866455078125000000e-02 3.216552734375000000e-02 -3.253173828125000000e-02 5.618286132812500000e-02 8.502197265625000000e-02 2.873229980468750000e-02 -8.679199218750000000e-02 -6.384277343750000000e-02 6.805419921875000000e-02 7.269287109375000000e-02 2.832412719726562500e-04 -5.361938476562500000e-02 -9.643554687500000000e-02 7.598876953125000000e-02 -4.901123046875000000e-02 7.354736328125000000e-02 -1.006469726562500000e-01 1.069641113281250000e-02 1.385498046875000000e-02 1.002807617187500000e-01 8.551025390625000000e-02 7.086181640625000000e-02 -9.539794921875000000e-02 -5.523681640625000000e-02 -1.788330078125000000e-02 2.716064453125000000e-02 3.561401367187500000e-02 -7.189941406250000000e-02 -1.847839355468750000e-02 -5.987548828125000000e-02 -6.628417968750000000e-02

