4.864501953125000000e-02 2.665710449218750000e-02 2.128601074218750000e-02 -5.743408203125000000e-02 3.936767578125000000e-02 9.173583984375000000e-02 -5.984497070312500000e-02 -5.487060546875000000e-02 8.660888671875000000e-02 6.121826171875000000e-02 6.243896484375000000e-02 -6.909179687500000000e-02 2.067565917968750000e-02 2.598571777343750000e-02 5.020141601562500000e-03 8.892822265625000000e-02 9.661865234375000000e-02 2.777099609375000000e-02 6.207275390625000000e-02 3.155517578125000000e-02 4.642486572265625000e-03 9.234619140625000000e-02 -8.715820312500000000e-02 9.605407714843750000e-03 7.415771484375000000e-02 -2.770996093750000000e-02 -1.010131835937500000e-01 3.049850463867187500e-03 6.268310546875000000e-02 -1.002197265625000000e-01 -8.117675781250000000e-02 2.412414550781250000e-02 -3.955078125000000000e-02 -9.539794921875000000e-02 -3.717041015625000000e-02 8.636474609375000000e-02 -8.056640625000000000e-03 -6.488037109375000000e-02

-5.004882812500000000e-03 9.643554687500000000e-03 2.209472656250000000e-02 -3.155517578125000000e-02 -7.269287109375000000e-02 4.986572265625000000e-02 4.339599609375000000e-02 1.022338867187500000e-01 1.708984375000000000e-02 -6.872558593750000000e-02 7.635498046875000000e-02 -2.874755859375000000e-02 1.388549804687500000e-03 -7.409667968750000000e-02 2.972412109375000000e-02 -9.899902343750000000e-02 -7.690429687500000000e-02 5.401611328125000000e-02 1.002807617187500000e-01 -9.460449218750000000e-03 5.706787109375000000e-02 4.193115234375000000e-02 8.197021484375000000e-02 -8.996582031250000000e-02 -7.171630859375000000e-02 1.008911132812500000e-01 -2.809524536132812500e-03 3.118896484375000000e-02 -7.019042968750000000e-03 -9.503173828125000000e-02 9.637451171875000000e-02 -5.221557617187500000e-02 7.708740234375000000e-02 2.996826171875000000e-02 3.411865234375000000e-02 2.909851074218750000e-02 5.377197265625000000e-02 4.302978515625000000e-02

-1.928710937500000000e-02 -5.081176757812500000e-02 2.359008789062500000e-02 3.713989257812500000e-02 -7.153320312500000000e-02 -9.063720703125000000e-02 3.805541992187500000e-02 -8.346557617187500000e-03 2.803039550781250000e-02 7.818603515625000000e-02 7.482910156250000000e-02 5.718994140625000000e-02 -9.552001953125000000e-02 6.951904296875000000e-02 -7.855224609375000000e-02 -9.832763671875000000e-02 4.364013671875000000e-02 -4.614257812500000000e-02 4.983520507812500000e-02 -5.703735351562500000e-02 -4.077148437500000000e-02 8.673095703125000000e-02 -2.931213378906250000e-02 -5.703735351562500000e-02 -9.332275390625000000e-02 1.745605468750000000e-02 -4.058837890625000000e-02 -8.079528808593750000e-03 -3.079223632812500000e-02 7.635498046875000000e-02 1.322937011718750000e-02 -2.929687500000000000e-02 -9.820556640625000000e-02 1.000976562500000000e-01 -1.032257080078125000e-02 6.475830078125000000e-02 8.453369140625000000e-02 7.232666015625000000e-02

-7.171630859375000000e-02 2.992248535156250000e-02 -8.789062500000000000e-02 2.194213867187500000e-02 7.812500000000000000e-02 4.553222656250000000e-02 -9.130859375000000000e-02 -1.283264160156250000e-02 1.834106445312500000e-02 -7.214355468750000000e-02 4.879760742187500000e-02 -8.056640625000000000e-02 -6.221771240234375000e-03 -7.519531250000000000e-02 7.635498046875000000e-02 3.562927246093750000e-03 -4.437255859375000000e-02 -5.957031250000000000e-02 4.986572265625000000e-02 -6.372070312500000000e-02 6.231689453125000000e-02 2.691650390625000000e-02 7.824707031250000000e-02 2.459716796875000000e-02 6.167602539062500000e-02 5.364990234375000000e-02 4.779052734375000000e-02 -7.098388671875000000e-02 -7.855224609375000000e-02 -3.051757812500000000e-02 8.441162109375000000e-02 6.153106689453125000e-03 -4.608154296875000000e-02 -5.807495117187500000e-02 -5.612182617187500000e-02 -5.331420898437500000e-02 3.131103515625000000e-02 4.132080078125000000e-02

-4.357910156250000000e-02 9.918212890625000000e-02 -2.772521972656250000e-02 4.437255859375000000e-02 -8.251953125000000000e-02 -4.219055175781250000e-03 1.146697998046875000e-02 -4.760742187500000000e-02 -5.523681640625000000e-02 -8.154296875000000000e-02 2.813720703125000000e-02 4.595947265625000000e-02 -4.116821289062500000e-02 8.674621582031250000e-03 7.049560546875000000e-02 -1.947021484375000000e-02 6.683349609375000000e-02 -5.984497070312500000e-02 6.549072265625000000e-02 -5.249023437500000000e-03 1.010131835937500000e-01 8.917236328125000000e-02 4.193115234375000000e-02 -3.393554687500000000e-02 7.952880859375000000e-02 -9.460449218750000000e-02 -7.836914062500000000e-02 9.826660156250000000e-03 3.574371337890625000e-03 -2.770996093750000000e-02 -8.697509765625000000e-02 -5.798339843750000000e-03 2.911376953125000000e-02 4.119873046875000000e-02 7.830810546875000000e-02 -8.898925781250000000e-02 4.803466796875000000e-02 2.026367187500000000e-02

4.315185546875000000e-02 9.442138671875000000e-02 9.722900390625000000e-02 -6.240844726562500000e-03 -5.743408203125000000e-02 1.184844970703125000e-02 3.594970703125000000e-02 7.550048828125000000e-02 9.722900390625000000e-02 -5.743408203125000000e-02 8.697509765625000000e-02 2.593994140625000000e-02 -5.303955078125000000e-02 7.415771484375000000e-02 1.123046875000000000e-02 7.196044921875000000e-02 -3.955078125000000000e-02 -2.305603027343750000e-02 -3.007888793945312500e-03 -7.019042968750000000e-03 3.314208984375000000e-02 -7.269287109375000000e-02 -1.263427734375000000e-02 1.464080810546875000e-02 -2.787780761718750000e-02 -8.135986328125000000e-02 -4.699707031250000000e-02 9.259033203125000000e-02 8.331298828125000000e-02 -9.161376953125000000e-02 9.216308593750000000e-03 -2.307128906250000000e-02 5.426025390625000000e-02 3.117370605468750000e-02 -3.411865234375000000e-02 4.986572265625000000e-02 -8.178710937500000000e-02 -5.484008789062500000e-02

-8.557128906250000000e-02 4.681396484375000000e-02 -1.022338867187500000e-01 3.053283691406250000e-02 9.155273437500000000e-02 4.144287109375000000e-02 -8.764648437500000000e-02 -1.019287109375000000e-01 8.477783203125000000e-02 -8.374023437500000000e-02 9.844970703125000000e-02 -7.916259765625000000e-02 7.135009765625000000e-02 8.827209472656250000e-03 -4.580688476562500000e-02 2.624511718750000000e-02 5.609130859375000000e-02 -3.732299804687500000e-02 1.022338867187500000e-01 9.039306640625000000e-02 8.660888671875000000e-02 5.776977539062500000e-02 2.998352050781250000e-02 7.257080078125000000e-02 9.863281250000000000e-02 1.564025878906250000e-02 -5.779266357421875000e-04 -2.531433105468750000e-02 9.844970703125000000e-02 -2.149963378906250000e-02 6.829833984375000000e-02 7.635498046875000000e-02 -8.880615234375000000e-02 5.676269531250000000e-03 1.002807617187500000e-01 7.602691650390625000e-03 8.941650390625000000e-02 3.273010253906250000e-03

2.325439453125000000e-02 -3.567504882812500000e-02 1.599121093750000000e-02 5.831909179687500000e-02 3.970336914062500000e-02 4.275512695312500000e-02 5.322265625000000000e-02 -6.732177734375000000e-02 -5.126953125000000000e-02 -8.398437500000000000e-02 1.237869262695312500e-03 -1.184082031250000000e-02 4.025268554687500000e-02 -4.417419433593750000e-03 -5.062866210937500000e-02 -4.016113281250000000e-02 -4.577636718750000000e-02 -5.438232421875000000e-02 3.741455078125000000e-02 -7.049560546875000000e-02 -7.775878906250000000e-02 6.860351562500000000e-02 5.328369140625000000e-02 4.129028320312500000e-02 -4.647827148437500000e-02 -2.954101562500000000e-02 -2.674865722656250000e-02 7.397460937500000000e-02 -1.062393188476562500e-03 8.441162109375000000e-02 -3.454589843750000000e-02 -7.104492187500000000e-02 -5.206298828125000000e-02 1.011352539062500000e-01 -2.095031738281250000e-02 7.965087890625000000e-02 9.002685546875000000e-02 5.444335937500000000e-02

5.828857421875000000e-02 -5.886840820312500000e-02 6.982421875000000000e-02 -7.775878906250000000e-02 -7.775878906250000000e-02 8.666992187500000000e-02 6.805419921875000000e-02 1.861572265625000000e-02 6.707763671875000000e-02 3.265380859375000000e-02 2.548217773437500000e-02 3.753662109375000000e-02 9.002685546875000000e-02 -6.396484375000000000e-02 -7.812500000000000000e-02 -8.949279785156250000e-03 1.568603515625000000e-02 5.194091796875000000e-02 3.259277343750000000e-02 -2.912521362304687500e-03 -7.759094238281250000e-03 9.735107421875000000e-02 6.085205078125000000e-02 2.154541015625000000e-02 -1.350402832031250000e-02 -6.912231445312500000e-03 -8.398437500000000000e-02 -9.967041015625000000e-02 3.491210937500000000e-02 8.209228515625000000e-02 2.783203125000000000e-02 3.155517578125000000e-02 4.644775390625000000e-02 -4.821777343750000000e-02 -9.140014648437500000e-03 1.837158203125000000e-02 8.660888671875000000e-02 7.073974609375000000e-02

3.936767578125000000e-02 5.670166015625000000e-02 3.228759765625000000e-02 4.437255859375000000e-02 1.168060302734375000e-02 -8.160400390625000000e-02 7.659912109375000000e-02 -1.023101806640625000e-02 5.395507812500000000e-02 3.717041015625000000e-02 9.313964843750000000e-02 1.684570312500000000e-02 3.768920898437500000e-02 6.671142578125000000e-02 9.283447265625000000e-02 -8.624267578125000000e-02 5.047607421875000000e-02 -5.733489990234375000e-03 -2.734375000000000000e-02 1.304626464843750000e-02 -9.442138671875000000e-02 6.033325195312500000e-02 -6.628417968750000000e-02 6.268310546875000000e-02 -6.481933593750000000e-02 -5.603027343750000000e-02 3.594970703125000000e-02 -7.360839843750000000e-02 -2.915954589843750000e-02 2.853393554687500000e-02 -1.708984375000000000e-02 1.040649414062500000e-02 -8.801269531250000000e-02 9.930419921875000000e-02 -7.788085937500000000e-02 4.397583007812500000e-02 -7.611083984375000000e-02 2.244567871093750000e-02

9.405517578125000000e-02 -2.787780761718750000e-02 8.734130859375000000e-02 -2.490234375000000000e-02 4.812622070312500000e-02 1.844787597656250000e-02 -4.425048828125000000e-02 2.778625488281250000e-02 7.116699218750000000e-02 9.967041015625000000e-02 5.271911621093750000e-03 7.232666015625000000e-02 -1.455688476562500000e-02 -6.243896484375000000e-02 -4.037475585937500000e-02 -2.465820312500000000e-02 1.629638671875000000e-02 -4.440307617187500000e-02 1.708984375000000000e-02 -7.470703125000000000e-02 7.452392578125000000e-02 5.041503906250000000e-02 -1.391601562500000000e-02 4.598999023437500000e-02 -6.698608398437500000e-03 -3.472900390625000000e-02 7.160186767578125000e-03 8.178710937500000000e-02 3.509521484375000000e-02 -5.825805664062500000e-02 -5.056762695312500000e-02 -1.027679443359375000e-02 9.722900390625000000e-02 -2.288818359375000000e-02 -1.730346679687500000e-02 -8.703613281250000000e-02 4.437255859375000000e-02 -3.607177734375000000e-02

2.606201171875000000e-02 -6.628417968750000000e-02 -1.570129394531250000e-02 4.534912109375000000e-02 -9.118652343750000000e-02 -9.057617187500000000e-02 6.915283203125000000e-02 -8.337402343750000000e-02 5.931854248046875000e-04 -4.821777343750000000e-03 -2.929687500000000000e-02 1.342773437500000000e-02 -2.191543579101562500e-03 -1.666259765625000000e-02 -7.373046875000000000e-02 -4.879760742187500000e-02 4.498291015625000000e-02 6.829833984375000000e-02 -1.008300781250000000e-01 4.425048828125000000e-02 -9.320068359375000000e-02 3.131103515625000000e-02 -5.123901367187500000e-02 5.508422851562500000e-03 -1.561737060546875000e-02 -8.697509765625000000e-02 9.747314453125000000e-02 9.979248046875000000e-02 -6.372070312500000000e-02 6.610107421875000000e-02 -1.202392578125000000e-02 8.758544921875000000e-02 -4.257202148437500000e-02 8.721923828125000000e-02 -8.178710937500000000e-02 -1.018676757812500000e-01 7.939338684082031250e-04 9.600830078125000000e-02

6.488037109375000000e-02 -6.970214843750000000e-02 -6.372070312500000000e-02 2.964782714843750000e-02 7.611083984375000000e-02 7.019042968750000000e-02 5.889892578125000000e-02 -5.474853515625000000e-02 7.116699218750000000e-02 -9.020996093750000000e-02 8.941650390625000000e-03 9.643554687500000000e-03 1.776123046875000000e-02 2.598571777343750000e-02 6.646728515625000000e-02 -6.597900390625000000e-02 1.947021484375000000e-02 2.171325683593750000e-02 2.688598632812500000e-02 -5.886840820312500000e-02 8.673095703125000000e-02 -3.985595703125000000e-02 -2.571105957031250000e-02 9.967041015625000000e-02 1.009521484375000000e-01 7.769775390625000000e-02 -6.469726562500000000e-02 3.564453125000000000e-02 4.458618164062500000e-02 -2.307128906250000000e-02 -3.204345703125000000e-03 8.782958984375000000e-02 -4.016113281250000000e-02 -6.161499023437500000e-02 8.477783203125000000e-02 1.026000976562500000e-01 -9.863281250000000000e-02 -3.378295898437500000e-02

8.636474609375000000e-02 -8.496093750000000000e-02 -2.845764160156250000e-02 2.595520019531250000e-02 -4.037475585937500000e-02 2.149963378906250000e-02 2.122497558593750000e-02 -6.982421875000000000e-02 -5.807495117187500000e-02 5.438232421875000000e-02 2.462768554687500000e-02 7.202148437500000000e-03 -2.160644531250000000e-02 3.225708007812500000e-02 -9.101867675781250000e-03 1.467895507812500000e-02 3.997802734375000000e-02 -7.409667968750000000e-02 -5.868530273437500000e-02 -8.312988281250000000e-02 -8.898925781250000000e-02 -2.276611328125000000e-02 -7.312011718750000000e-02 7.141113281250000000e-02 -4.809570312500000000e-02 -6.469726562500000000e-02 -7.812500000000000000e-02 3.726196289062500000e-02 -9.265136718750000000e-02 -6.469726562500000000e-02 9.960937500000000000e-02 -3.485107421875000000e-02 2.653503417968750000e-02 1.963806152343750000e-02 -5.007934570312500000e-02 -4.531860351562500000e-03 -4.821777343750000000e-02 2.478027343750000000e-02

-9.399414062500000000e-02 1.167297363281250000e-02 -1.905822753906250000e-02 4.613399505615234375e-04 1.551818847656250000e-02 6.015014648437500000e-02 9.417724609375000000e-02 6.604003906250000000e-02 3.053283691406250000e-02 -3.674316406250000000e-02 6.701660156250000000e-02 4.278564453125000000e-02 -6.188964843750000000e-02 3.185272216796875000e-04 -2.471923828125000000e-02 8.483886718750000000e-02 8.270263671875000000e-02 5.935668945312500000e-02 -3.536987304687500000e-02 -7.675170898437500000e-03 2.655029296875000000e-02 -2.320861816406250000e-02 4.351806640625000000e-02 3.390502929687500000e-02 5.374145507812500000e-02 -9.174346923828125000e-04 2.777099609375000000e-02 -1.376342773437500000e-02 2.755737304687500000e-02 -6.848144531250000000e-02 -4.418945312500000000e-02 -7.525634765625000000e-02 7.196044921875000000e-02 5.581665039062500000e-02 -2.737045288085937500e-03 2.853393554687500000e-02 7.128906250000000000e-02 7.556152343750000000e-02

9.637451171875000000e-02 -8.294677734375000000e-02 9.020996093750000000e-02 3.793334960937500000e-02 4.794311523437500000e-02 -1.785278320312500000e-02 -6.752014160156250000e-03 -3.277587890625000000e-02 6.414794921875000000e-02 -6.549072265625000000e-02 6.298828125000000000e-02 9.783935546875000000e-02 4.821777343750000000e-02 -5.016326904296875000e-03 -6.933593750000000000e-02 -4.931640625000000000e-02 1.246643066406250000e-02 -9.283447265625000000e-02 -2.626037597656250000e-02 -8.410644531250000000e-02 8.712768554687500000e-03 -8.203125000000000000e-02 5.470275878906250000e-03 9.161376953125000000e-02 -1.058197021484375000e-02 4.895019531250000000e-02 6.292724609375000000e-02 9.136962890625000000e-02 -6.939697265625000000e-02 -6.213378906250000000e-02 -5.596923828125000000e-02 -3.918457031250000000e-02 -3.613281250000000000e-02 7.781982421875000000e-04 -6.652832031250000000e-02 -1.000366210937500000e-01 1.438903808593750000e-02 -7.672119140625000000e-02

-6.311035156250000000e-02 -6.994628906250000000e-02 3.369140625000000000e-02 -2.828979492187500000e-02 -5.035400390625000000e-02 7.684326171875000000e-02 -6.114959716796875000e-03 8.154296875000000000e-02 1.495361328125000000e-02 -5.664062500000000000e-02 -4.373168945312500000e-02 4.620361328125000000e-02 -8.041381835937500000e-03 -1.436614990234375000e-02 -5.282592773437500000e-02 -6.585693359375000000e-02 9.124755859375000000e-02 -8.691406250000000000e-02 6.573486328125000000e-02 -8.758544921875000000e-02 -1.542663574218750000e-02 4.269409179687500000e-02 1.013183593750000000e-01 9.643554687500000000e-02 9.790039062500000000e-02 -8.093261718750000000e-02 4.803466796875000000e-02 2.537536621093750000e-02 4.681396484375000000e-02 -7.110595703125000000e-02 3.541946411132812500e-03 7.958984375000000000e-02 -2.926635742187500000e-02 -3.369140625000000000e-02 -8.404541015625000000e-02 -5.410766601562500000e-02 -3.314208984375000000e-02 3.973388671875000000e-02

-1.287841796875000000e-02 1.383972167968750000e-02 2.017211914062500000e-02 -9.600830078125000000e-02 -1.446533203125000000e-02 5.358886718750000000e-02 6.079101562500000000e-02 -8.203125000000000000e-02 1.359558105468750000e-02 2.911376953125000000e-02 -1.928710937500000000e-02 -7.592773437500000000e-02 6.524658203125000000e-02 5.184936523437500000e-02 1.006469726562500000e-01 -1.020507812500000000e-01 5.401611328125000000e-02 2.595520019531250000e-02 -6.167602539062500000e-02 8.892822265625000000e-02 4.156494140625000000e-02 3.735351562500000000e-02 -2.349853515625000000e-02 -6.124877929687500000e-02 -9.320068359375000000e-02 -2.709960937500000000e-02 -8.251953125000000000e-02 6.420898437500000000e-02 3.509521484375000000e-02 -9.179687500000000000e-02 8.056640625000000000e-03 -2.305603027343750000e-02 -9.478759765625000000e-02 1.802062988281250000e-02 -7.055664062500000000e-02 5.175781250000000000e-02 1.202392578125000000e-02 -7.391357421875000000e-02

-3.778076171875000000e-02 -8.337402343750000000e-02 7.214355468750000000e-02 -3.933715820312500000e-02 -2.049255371093750000e-02 3.005981445312500000e-02 5.038452148437500000e-02 5.984497070312500000e-02 -1.442718505859375000e-02 -7.835388183593750000e-03 2.275085449218750000e-02 2.972412109375000000e-02 3.372192382812500000e-02 -5.871582031250000000e-02 7.513427734375000000e-02 9.271240234375000000e-02 6.246948242187500000e-02 5.139160156250000000e-02 2.949523925781250000e-02 1.002807617187500000e-01 7.012939453125000000e-02 9.167480468750000000e-02 4.537963867187500000e-02 -4.232788085937500000e-02 -7.104492187500000000e-02 -2.508544921875000000e-02 -8.819580078125000000e-02 -6.713867187500000000e-02 3.625488281250000000e-02 -1.545715332031250000e-02 -4.013061523437500000e-03 -5.710601806640625000e-03 5.169677734375000000e-02 7.806396484375000000e-02 7.067871093750000000e-02 1.018066406250000000e-01 -1.165008544921875000e-02 1.032257080078125000e-02

-2.490234375000000000e-02 4.251098632812500000e-02 -5.572509765625000000e-02 -4.299926757812500000e-02 -8.197021484375000000e-02 -1.812744140625000000e-02 5.740356445312500000e-02 7.189941406250000000e-02 -5.401611328125000000e-02 1.319885253906250000e-02 9.655761718750000000e-02 7.794189453125000000e-02 6.549072265625000000e-02 3.010559082031250000e-02 4.217529296875000000e-02 6.445312500000000000e-02 1.050567626953125000e-02 -8.496093750000000000e-02 -3.939819335937500000e-02 3.814697265625000000e-02 9.483337402343750000e-03 6.298065185546875000e-03 -3.329467773437500000e-02 -6.002807617187500000e-02 -2.388000488281250000e-02 6.170654296875000000e-02 -6.384277343750000000e-02 -5.508422851562500000e-02 5.084228515625000000e-02 -6.506347656250000000e-02 1.016235351562500000e-01 3.436279296875000000e-02 6.365966796875000000e-02 -4.901123046875000000e-02 -1.024169921875000000e-01 5.420684814453125000e-03 1.042175292968750000e-02 3.625488281250000000e-02

-3.454589843750000000e-02 3.216552734375000000e-02 3.720092773437500000e-02 5.056762695312500000e-02 -2.871704101562500000e-02 1.093292236328125000e-02 1.661682128906250000e-02 9.210205078125000000e-02 -6.494140625000000000e-02 9.234619140625000000e-02 2.746582031250000000e-02 -9.960937500000000000e-02 3.704833984375000000e-02 5.450439453125000000e-02 2.227783203125000000e-02 7.208251953125000000e-02 -3.778076171875000000e-02 -9.582519531250000000e-02 5.612182617187500000e-02 -1.015625000000000000e-01 -6.082153320312500000e-02 9.924316406250000000e-02 -8.416748046875000000e-02 -3.013610839843750000e-03 4.400634765625000000e-02 -8.135986328125000000e-02 -8.093261718750000000e-02 5.798339843750000000e-03 -6.353759765625000000e-02 9.503173828125000000e-02 -4.006958007812500000e-02 -5.120849609375000000e-02 -7.812500000000000000e-02 7.934570312500000000e-02 2.055358886718750000e-02 -5.267333984375000000e-02 -9.893798828125000000e-02 -4.623413085937500000e-02

-2.770996093750000000e-02 -1.679992675781250000e-02 4.315185546875000000e-02 -5.651855468750000000e-02 3.631591796875000000e-02 -4.690551757812500000e-02 7.806396484375000000e-02 8.935546875000000000e-02 -6.923675537109375000e-04 -3.112792968750000000e-02 7.461547851562500000e-03 -8.715820312500000000e-02 -7.740020751953125000e-03 -1.351928710937500000e-02 7.366943359375000000e-02 9.008789062500000000e-02 -3.027343750000000000e-02 1.741409301757812500e-03 -3.573608398437500000e-02 -7.733154296875000000e-02 -1.646423339843750000e-02 9.252929687500000000e-02 1.219177246093750000e-02 4.168701171875000000e-02 8.264160156250000000e-02 -8.276367187500000000e-02 5.084228515625000000e-02 2.424621582031250000e-02 -2.639770507812500000e-02 8.734130859375000000e-02 -3.047180175781250000e-02 1.177978515625000000e-02 -2.313232421875000000e-02 -9.075927734375000000e-02 -5.941772460937500000e-02 7.470703125000000000e-02 3.692626953125000000e-02 -5.850219726562500000e-02

-3.253173828125000000e-02 8.721923828125000000e-02 4.998779296875000000e-02 1.022338867187500000e-01 -8.459472656250000000e-02 4.083251953125000000e-02 -7.391357421875000000e-02 -6.311035156250000000e-02 2.667236328125000000e-02 -6.185913085937500000e-02 6.671142578125000000e-02 -9.301757812500000000e-02 -2.813720703125000000e-02 6.854248046875000000e-02 2.016067504882812500e-03 2.614974975585937500e-03 -2.954101562500000000e-02 5.828857421875000000e-02 3.594970703125000000e-02 -3.576660156250000000e-02 5.157470703125000000e-02 4.644775390625000000e-02 2.264404296875000000e-02 3.875732421875000000e-02 7.598876953125000000e-02 -2.990722656250000000e-02 -7.629394531250000000e-02 1.543426513671875000e-02 -8.013916015625000000e-02 5.767822265625000000e-02 5.645751953125000000e-02 -7.751464843750000000e-02 7.391357421875000000e-02 -2.874755859375000000e-02 8.782958984375000000e-02 -3.857421875000000000e-02 6.768798828125000000e-02 -8.654785156250000000e-02

-9.136962890625000000e-02 7.818603515625000000e-02 -5.786132812500000000e-02 6.243896484375000000e-02 -3.735351562500000000e-02 -3.155517578125000000e-02 1.367950439453125000e-02 7.797241210937500000e-03 -6.167602539062500000e-02 1.446533203125000000e-02 4.742431640625000000e-02 -4.739379882812500000e-02 -9.661865234375000000e-02 -6.750488281250000000e-02 -5.984497070312500000e-02 8.319091796875000000e-02 -8.819580078125000000e-02 -1.004638671875000000e-01 -9.741210937500000000e-02 6.121826171875000000e-02 -6.604003906250000000e-02 4.425048828125000000e-02 6.927490234375000000e-02 8.917236328125000000e-02 1.490020751953125000e-02 4.241943359375000000e-02 -8.233642578125000000e-02 -3.050231933593750000e-02 -2.227783203125000000e-02 -3.576660156250000000e-02 -5.502319335937500000e-02 5.621337890625000000e-02 -2.380371093750000000e-03 3.216552734375000000e-02 3.131103515625000000e-02 -5.484008789062500000e-02 -3.515625000000000000e-02 -2.471923828125000000e-02

-6.408691406250000000e-03 -5.563354492187500000e-02 -2.456665039062500000e-02 -5.361938476562500000e-02 4.364013671875000000e-02 5.279541015625000000e-02 9.124755859375000000e-02 1.362609863281250000e-02 4.119873046875000000e-02 -1.002197265625000000e-01 -6.591796875000000000e-02 -4.782104492187500000e-02 -2.635955810546875000e-03 -9.863281250000000000e-02 1.971435546875000000e-02 -2.473449707031250000e-02 8.599853515625000000e-02 -3.533935546875000000e-02 -5.966186523437500000e-02 -8.197021484375000000e-02 8.673095703125000000e-02 -6.045532226562500000e-02 1.958847045898437500e-03 1.448059082031250000e-02 -9.552001953125000000e-02 -8.355712890625000000e-02 6.121826171875000000e-02 -7.574462890625000000e-02 -8.496093750000000000e-02 -5.142211914062500000e-02 4.425048828125000000e-02 -3.454589843750000000e-02 -4.299926757812500000e-02 -7.916259765625000000e-02 -1.022338867187500000e-01 6.768798828125000000e-02 -4.821777343750000000e-02 5.023193359375000000e-02

