4.876708984375000000e-02 8.880615234375000000e-02 -1.028442382812500000e-01 -4.721069335937500000e-02 6.988525390625000000e-02 -5.624389648437500000e-02 9.906005859375000000e-02 -5.322265625000000000e-02 4.098510742187500000e-02 -1.004638671875000000e-01 -3.077697753906250000e-02 -6.909179687500000000e-02 9.234619140625000000e-02 1.165008544921875000e-02 -9.460449218750000000e-03 5.398559570312500000e-02 -8.557128906250000000e-02 -8.477783203125000000e-02 -6.127929687500000000e-02 2.148437500000000000e-02 -8.294677734375000000e-02 -2.787780761718750000e-02 9.014892578125000000e-02 6.707763671875000000e-02 3.076171875000000000e-02 7.366943359375000000e-02 7.643699645996093750e-04 -5.722045898437500000e-03 -5.120849609375000000e-02 8.038330078125000000e-02 9.478759765625000000e-02 1.991271972656250000e-02 -4.620361328125000000e-02 3.997802734375000000e-02 4.522705078125000000e-02 4.373168945312500000e-02 2.250671386718750000e-02 8.135986328125000000e-02

-1.004638671875000000e-01 5.023193359375000000e-02 3.509521484375000000e-02 1.366424560546875000e-02 6.964111328125000000e-02 8.612060546875000000e-02 1.004028320312500000e-01 -8.135986328125000000e-02 5.622863769531250000e-03 5.218505859375000000e-02 6.585693359375000000e-02 -3.131103515625000000e-02 5.718994140625000000e-02 4.022216796875000000e-02 9.283447265625000000e-02 -6.404876708984375000e-03 1.666259765625000000e-02 7.427978515625000000e-02 -6.185913085937500000e-02 8.270263671875000000e-02 3.973388671875000000e-02 8.233642578125000000e-02 6.268310546875000000e-02 -3.076171875000000000e-02 2.130126953125000000e-02 7.391357421875000000e-02 2.288818359375000000e-02 7.305908203125000000e-02 5.963134765625000000e-02 -6.970214843750000000e-02 5.242919921875000000e-02 2.809524536132812500e-03 9.442138671875000000e-02 -1.910400390625000000e-02 -4.418945312500000000e-02 5.902099609375000000e-02 -8.435058593750000000e-02 -3.796386718750000000e-02

2.552032470703125000e-03 -1.631164550781250000e-02 -4.248046875000000000e-02 -8.154296875000000000e-02 2.031326293945312500e-03 6.475830078125000000e-02 -1.734924316406250000e-02 -5.960083007812500000e-02 -8.044433593750000000e-02 -6.945800781250000000e-02 4.183959960937500000e-02 -1.507568359375000000e-02 8.862304687500000000e-02 3.921508789062500000e-02 -2.087402343750000000e-02 -1.251697540283203125e-04 -1.745605468750000000e-02 -1.985168457031250000e-02 6.365966796875000000e-02 8.038330078125000000e-02 -4.397583007812500000e-02 1.681518554687500000e-02 -1.325988769531250000e-02 3.591918945312500000e-02 2.706527709960937500e-03 2.166748046875000000e-02 -6.146240234375000000e-02 -8.880615234375000000e-02 -4.864501953125000000e-02 7.293701171875000000e-02 -4.598999023437500000e-02 -3.173828125000000000e-02 4.022216796875000000e-02 5.529785156250000000e-02 1.571655273437500000e-02 -8.441162109375000000e-02 -8.935546875000000000e-02 -6.604003906250000000e-02

9.722900390625000000e-02 -4.024505615234375000e-03 -7.666015625000000000e-02 -5.065917968750000000e-03 6.294250488281250000e-03 3.155517578125000000e-02 -8.624267578125000000e-02 6.390380859375000000e-02 7.159423828125000000e-02 -4.580688476562500000e-02 8.941650390625000000e-02 -9.881591796875000000e-02 -6.701660156250000000e-02 -7.501220703125000000e-02 -2.590942382812500000e-02 -6.182861328125000000e-02 -3.637695312500000000e-02 -6.610107421875000000e-02 -4.318237304687500000e-02 -9.924316406250000000e-02 -7.330322265625000000e-02 1.015625000000000000e-01 -1.548767089843750000e-02 -6.855010986328125000e-03 9.606933593750000000e-02 -7.611083984375000000e-02 4.998779296875000000e-02 -9.686279296875000000e-02 -6.750488281250000000e-02 -7.031250000000000000e-02 1.222610473632812500e-03 2.442932128906250000e-02 -9.301757812500000000e-02 6.866455078125000000e-02 -1.037597656250000000e-02 2.231597900390625000e-03 -1.006469726562500000e-01 1.322937011718750000e-02

5.145263671875000000e-02 1.629638671875000000e-02 -8.312988281250000000e-02 -2.752685546875000000e-02 7.625579833984375000e-03 -8.917236328125000000e-02 -3.613281250000000000e-02 -7.531738281250000000e-02 -9.240722656250000000e-02 3.570556640625000000e-02 -1.544189453125000000e-02 -9.765625000000000000e-04 4.180908203125000000e-02 -1.020507812500000000e-01 8.013916015625000000e-02 2.947998046875000000e-02 6.024169921875000000e-02 -3.112792968750000000e-02 4.681396484375000000e-02 -7.067871093750000000e-02 -2.893066406250000000e-02 5.120849609375000000e-02 2.655029296875000000e-02 4.681396484375000000e-02 7.489013671875000000e-02 6.024169921875000000e-02 5.767822265625000000e-02 4.180908203125000000e-02 -1.745605468750000000e-02 -2.612304687500000000e-02 -5.523681640625000000e-02 6.048583984375000000e-02 2.410888671875000000e-02 -5.966186523437500000e-02 -3.838539123535156250e-04 -9.661865234375000000e-02 6.964111328125000000e-02 -9.759521484375000000e-02

7.427978515625000000e-02 -1.018676757812500000e-01 -5.743408203125000000e-02 -2.929687500000000000e-02 1.570129394531250000e-02 -6.628417968750000000e-02 -9.722900390625000000e-02 -6.829833984375000000e-02 5.718994140625000000e-02 -1.024169921875000000e-01 7.839202880859375000e-04 8.477783203125000000e-02 2.375793457031250000e-02 6.048583984375000000e-02 -5.685424804687500000e-02 -2.816772460937500000e-02 -9.680175781250000000e-02 1.849365234375000000e-02 -7.592773437500000000e-02 3.631591796875000000e-02 5.004882812500000000e-03 7.452392578125000000e-02 6.423950195312500000e-03 1.928710937500000000e-02 -1.306915283203125000e-02 8.270263671875000000e-02 5.804443359375000000e-02 1.004028320312500000e-01 -2.410888671875000000e-02 -6.066894531250000000e-02 -8.758544921875000000e-02 -2.130126953125000000e-02 -3.033447265625000000e-02 -1.000366210937500000e-01 3.289794921875000000e-02 5.987548828125000000e-02 4.644775390625000000e-02 -5.502319335937500000e-02

5.416870117187500000e-03 3.094482421875000000e-02 -3.555297851562500000e-02 -5.307006835937500000e-02 7.209777832031250000e-03 -4.348754882812500000e-02 4.650878906250000000e-02 -1.889038085937500000e-02 5.734252929687500000e-02 -3.393554687500000000e-02 9.820556640625000000e-02 0.000000000000000000e+00 5.744934082031250000e-03 -8.232116699218750000e-03 -9.985351562500000000e-02 9.283447265625000000e-02 -9.582519531250000000e-02 -2.362060546875000000e-02 -9.924316406250000000e-02 -6.567382812500000000e-02 -2.331542968750000000e-02 4.478454589843750000e-03 -3.652954101562500000e-02 -4.863739013671875000e-03 9.326171875000000000e-02 5.249023437500000000e-03 2.639770507812500000e-03 2.252197265625000000e-02 6.805419921875000000e-02 -5.004882812500000000e-02 9.698486328125000000e-02 5.206298828125000000e-02 -8.398437500000000000e-02 7.489013671875000000e-02 -3.283691406250000000e-02 -5.847167968750000000e-02 -3.924560546875000000e-02 9.197998046875000000e-02

-2.008056640625000000e-02 2.671813964843750000e-02 3.338623046875000000e-02 -8.721923828125000000e-02 1.971435546875000000e-02 -2.361297607421875000e-03 1.532745361328125000e-02 9.545898437500000000e-02 -5.041503906250000000e-02 -7.556152343750000000e-02 7.507324218750000000e-02 -9.783935546875000000e-02 7.434082031250000000e-02 -5.661010742187500000e-02 3.167724609375000000e-02 -1.641845703125000000e-02 -7.495117187500000000e-02 -5.239868164062500000e-02 -9.802246093750000000e-02 -6.427001953125000000e-02 -6.549072265625000000e-02 -1.024780273437500000e-01 -2.644348144531250000e-02 -3.104209899902343750e-04 -1.382446289062500000e-02 -4.922485351562500000e-02 9.576416015625000000e-02 -1.937866210937500000e-02 9.039306640625000000e-02 -6.091308593750000000e-02 -6.359863281250000000e-02 5.209350585937500000e-02 3.329467773437500000e-02 8.056640625000000000e-02 -8.294677734375000000e-02 8.721923828125000000e-02 1.512908935546875000e-02 2.732849121093750000e-02

5.621337890625000000e-02 -2.270507812500000000e-02 -8.251953125000000000e-02 -6.161499023437500000e-02 -2.162170410156250000e-02 9.356689453125000000e-02 4.702758789062500000e-02 8.453369140625000000e-02 7.269287109375000000e-02 2.508544921875000000e-02 9.417724609375000000e-02 1.586914062500000000e-03 -2.114868164062500000e-02 -3.579711914062500000e-02 -4.458618164062500000e-02 -9.796142578125000000e-02 -8.837890625000000000e-02 7.550048828125000000e-02 -3.216552734375000000e-02 -3.570556640625000000e-02 7.952880859375000000e-02 6.323242187500000000e-02 9.228515625000000000e-02 4.660034179687500000e-02 9.692382812500000000e-02 -6.408691406250000000e-02 2.232360839843750000e-02 1.253509521484375000e-02 8.691406250000000000e-02 -2.503967285156250000e-02 7.507324218750000000e-02 3.696441650390625000e-03 5.181884765625000000e-02 3.121948242187500000e-02 -6.852149963378906250e-04 1.974487304687500000e-02 -7.989501953125000000e-02 -7.055664062500000000e-02

-1.745605468750000000e-02 -6.408691406250000000e-02 6.768798828125000000e-02 4.870605468750000000e-02 8.935546875000000000e-02 3.973388671875000000e-02 -1.454925537109375000e-02 -4.507446289062500000e-02 -4.562377929687500000e-02 -9.197998046875000000e-02 -7.629394531250000000e-02 1.708984375000000000e-02 -3.738403320312500000e-02 8.789062500000000000e-02 7.080078125000000000e-03 -3.494262695312500000e-02 -3.735351562500000000e-02 -6.645202636718750000e-03 7.916259765625000000e-02 4.627227783203125000e-03 -7.812500000000000000e-02 -5.636596679687500000e-02 3.985595703125000000e-02 3.680419921875000000e-02 5.975341796875000000e-02 -9.475708007812500000e-03 -5.242919921875000000e-02 2.188110351562500000e-02 5.715942382812500000e-02 -6.134033203125000000e-02 -4.498291015625000000e-02 -1.201629638671875000e-02 -9.643554687500000000e-02 4.680633544921875000e-03 -3.633499145507812500e-03 8.166503906250000000e-02 9.857177734375000000e-02 -7.446289062500000000e-03

-8.758544921875000000e-02 -3.033447265625000000e-02 1.010131835937500000e-01 -2.056884765625000000e-02 -1.002197265625000000e-01 1.823425292968750000e-02 1.142120361328125000e-02 5.261230468750000000e-02 9.790039062500000000e-02 1.866149902343750000e-02 -9.649658203125000000e-02 1.568603515625000000e-02 -9.881591796875000000e-02 2.996826171875000000e-02 4.779052734375000000e-02 3.967285156250000000e-02 9.466552734375000000e-02 7.476806640625000000e-02 -8.416748046875000000e-02 8.258056640625000000e-02 6.634521484375000000e-02 -7.098388671875000000e-02 -1.783752441406250000e-02 7.739067077636718750e-04 2.549743652343750000e-02 -2.349853515625000000e-02 6.170654296875000000e-02 -9.442138671875000000e-02 4.959106445312500000e-02 -6.829833984375000000e-02 6.488037109375000000e-02 9.515380859375000000e-02 -2.008056640625000000e-02 5.929565429687500000e-02 -6.372070312500000000e-02 2.774047851562500000e-02 -8.959960937500000000e-02 2.215576171875000000e-02

3.472900390625000000e-02 4.876708984375000000e-02 -4.642486572265625000e-03 1.004028320312500000e-01 9.661865234375000000e-02 -1.000366210937500000e-01 7.635498046875000000e-02 9.039306640625000000e-02 1.372528076171875000e-02 -3.674316406250000000e-02 5.804443359375000000e-02 -6.225585937500000000e-03 5.145263671875000000e-02 -5.142211914062500000e-02 -9.118652343750000000e-02 -1.630783081054687500e-04 2.050781250000000000e-02 1.389312744140625000e-02 9.466552734375000000e-02 1.747131347656250000e-02 5.841064453125000000e-02 -3.076171875000000000e-02 -2.387762069702148438e-04 -5.725097656250000000e-02 6.732177734375000000e-02 6.268310546875000000e-02 -8.398437500000000000e-02 -5.041503906250000000e-02 -6.637573242187500000e-03 -8.538818359375000000e-02 1.342010498046875000e-02 -4.800415039062500000e-02 6.024169921875000000e-02 9.478759765625000000e-02 4.217529296875000000e-02 -6.530761718750000000e-02 -6.384277343750000000e-02 -9.231567382812500000e-03

1.684570312500000000e-02 -5.615234375000000000e-03 -3.915405273437500000e-02 4.748535156250000000e-02 1.016235351562500000e-01 -2.185821533203125000e-03 9.808349609375000000e-02 -5.378723144531250000e-03 -4.531860351562500000e-02 -6.225585937500000000e-02 -1.850891113281250000e-02 -3.558349609375000000e-02 -6.182861328125000000e-02 -7.128906250000000000e-02 4.095458984375000000e-02 4.736328125000000000e-02 1.788330078125000000e-02 6.707763671875000000e-02 -2.471923828125000000e-02 6.618499755859375000e-03 -4.980468750000000000e-02 5.709838867187500000e-02 -6.351470947265625000e-03 -2.061462402343750000e-02 -7.293701171875000000e-02 6.951904296875000000e-02 5.145263671875000000e-02 -9.283447265625000000e-02 -3.051757812500000000e-02 -3.616333007812500000e-02 -8.666992187500000000e-03 -7.153320312500000000e-02 -6.085205078125000000e-02 2.904891967773437500e-03 -6.027221679687500000e-02 4.080200195312500000e-02 4.580688476562500000e-02 -8.093261718750000000e-02

4.400634765625000000e-02 -4.360961914062500000e-02 -3.091430664062500000e-02 -5.197143554687500000e-02 -8.776855468750000000e-02 1.728820800781250000e-02 6.677246093750000000e-02 -6.866455078125000000e-02 4.272460937500000000e-02 -6.604003906250000000e-02 -2.162170410156250000e-02 -6.384277343750000000e-02 3.289794921875000000e-02 -6.439208984375000000e-02 4.681396484375000000e-02 1.004638671875000000e-01 -5.239868164062500000e-02 1.009368896484375000e-02 6.320953369140625000e-03 -3.440856933593750000e-03 3.228759765625000000e-02 -3.372192382812500000e-02 1.017456054687500000e-01 8.166503906250000000e-02 -8.190917968750000000e-02 9.918212890625000000e-02 -3.982543945312500000e-02 4.965209960937500000e-02 1.856994628906250000e-02 4.129028320312500000e-02 -1.203155517578125000e-02 -7.623291015625000000e-02 6.185913085937500000e-02 5.816650390625000000e-02 4.220581054687500000e-02 -2.712249755859375000e-03 2.529907226562500000e-02 -2.972412109375000000e-02

-1.491546630859375000e-02 -1.828002929687500000e-02 8.367919921875000000e-02 -2.832031250000000000e-02 -8.659362792968750000e-03 6.732177734375000000e-02 -4.696655273437500000e-02 5.734252929687500000e-02 -3.314208984375000000e-02 -1.506805419921875000e-02 -4.745483398437500000e-02 -5.062866210937500000e-02 -3.265380859375000000e-02 -9.790039062500000000e-02 9.259033203125000000e-02 -5.944824218750000000e-02 -1.708984375000000000e-02 -8.827209472656250000e-03 -7.128906250000000000e-02 -1.640319824218750000e-03 -5.142211914062500000e-02 -1.022338867187500000e-01 9.228515625000000000e-02 -9.045410156250000000e-02 -9.814453125000000000e-02 -5.581665039062500000e-02 -8.880615234375000000e-02 1.019287109375000000e-01 -2.079772949218750000e-02 -6.671142578125000000e-02 1.244354248046875000e-02 4.562377929687500000e-02 3.573608398437500000e-02 -2.584838867187500000e-02 -5.798339843750000000e-03 6.695556640625000000e-02 -1.324462890625000000e-02 -3.646850585937500000e-02

-4.058837890625000000e-02 3.314208984375000000e-02 4.849243164062500000e-02 -5.531311035156250000e-03 -4.367065429687500000e-02 8.905029296875000000e-02 8.868408203125000000e-02 3.692626953125000000e-02 7.049560546875000000e-02 -1.007080078125000000e-02 -1.022949218750000000e-01 3.375244140625000000e-02 1.117706298828125000e-02 3.472900390625000000e-02 7.647705078125000000e-02 4.040527343750000000e-02 -1.305389404296875000e-02 6.323242187500000000e-02 8.233642578125000000e-02 -3.512573242187500000e-02 4.428100585937500000e-02 -8.953857421875000000e-02 -2.316284179687500000e-02 6.610107421875000000e-02 3.250122070312500000e-02 7.196044921875000000e-02 5.120849609375000000e-02 -4.159545898437500000e-02 -7.598876953125000000e-02 -4.116821289062500000e-02 2.503967285156250000e-02 -6.127929687500000000e-02 3.009033203125000000e-02 3.108215332031250000e-02 8.105468750000000000e-02 6.921386718750000000e-02 -4.034423828125000000e-02 9.356689453125000000e-02

2.148437500000000000e-02 3.445434570312500000e-02 -4.028320312500000000e-02 9.149169921875000000e-02 -1.882934570312500000e-02 6.805419921875000000e-02 -4.589843750000000000e-02 -1.950073242187500000e-02 8.392333984375000000e-02 2.252197265625000000e-02 6.057739257812500000e-02 2.996826171875000000e-02 2.070617675781250000e-02 -1.019287109375000000e-01 -5.545043945312500000e-02 6.896972656250000000e-02 -1.538848876953125000e-02 -7.720947265625000000e-02 3.503417968750000000e-02 -8.178710937500000000e-02 -5.966186523437500000e-02 6.106567382812500000e-02 -1.022338867187500000e-01 2.947998046875000000e-02 2.926635742187500000e-02 -2.699279785156250000e-02 -2.513885498046875000e-03 5.593872070312500000e-02 -3.720092773437500000e-02 8.380126953125000000e-02 -3.015136718750000000e-02 8.959960937500000000e-02 9.979248046875000000e-02 -5.758666992187500000e-02 -9.527587890625000000e-02 -3.001403808593750000e-02 7.574462890625000000e-02 -2.819824218750000000e-02

-3.918457031250000000e-02 -8.575439453125000000e-02 8.312988281250000000e-02 1.016235351562500000e-01 -1.806640625000000000e-02 8.892822265625000000e-02 -7.629394531250000000e-02 8.270263671875000000e-02 1.208496093750000000e-02 -9.082031250000000000e-02 1.445007324218750000e-02 3.656005859375000000e-02 8.294677734375000000e-02 -6.039428710937500000e-02 4.595947265625000000e-02 -1.049041748046875000e-02 -1.212120056152343750e-03 -2.229309082031250000e-02 -2.024841308593750000e-02 -9.759521484375000000e-02 7.025146484375000000e-02 6.292724609375000000e-02 -4.699707031250000000e-02 -8.384704589843750000e-03 9.686279296875000000e-02 1.006469726562500000e-01 -3.778076171875000000e-02 3.527832031250000000e-02 2.308654785156250000e-02 -2.569580078125000000e-02 8.264160156250000000e-02 -1.683044433593750000e-02 7.855224609375000000e-02 8.172607421875000000e-02 -1.156616210937500000e-02 4.708862304687500000e-02 7.916259765625000000e-02 9.283447265625000000e-02

-4.580688476562500000e-02 -2.726745605468750000e-02 7.574462890625000000e-02 1.509857177734375000e-02 -1.742553710937500000e-02 5.883789062500000000e-02 1.021118164062500000e-01 -2.873229980468750000e-02 -2.754211425781250000e-02 4.962158203125000000e-02 -8.880615234375000000e-02 5.841064453125000000e-02 2.665710449218750000e-02 4.486083984375000000e-02 1.157379150390625000e-02 9.635925292968750000e-03 -6.591796875000000000e-02 -1.771545410156250000e-02 -7.000732421875000000e-02 4.193115234375000000e-02 -6.872558593750000000e-02 1.011962890625000000e-01 -5.377197265625000000e-02 1.951599121093750000e-02 -2.038574218750000000e-02 -9.539794921875000000e-02 9.564208984375000000e-02 2.267456054687500000e-02 -6.106567382812500000e-02 -1.345062255859375000e-02 -5.631446838378906250e-04 5.691528320312500000e-02 1.022338867187500000e-01 -1.006469726562500000e-01 1.154327392578125000e-02 1.004638671875000000e-01 5.340576171875000000e-02 -6.011962890625000000e-02

8.099365234375000000e-02 -3.817749023437500000e-02 -4.443359375000000000e-02 -9.179687500000000000e-02 -8.013916015625000000e-02 -6.854248046875000000e-02 -5.943298339843750000e-03 -3.240966796875000000e-02 1.172637939453125000e-02 -8.416748046875000000e-02 2.928161621093750000e-02 -7.629394531250000000e-02 6.463623046875000000e-02 9.295654296875000000e-02 9.475708007812500000e-03 7.794189453125000000e-02 -6.707763671875000000e-02 6.323242187500000000e-02 9.259033203125000000e-02 7.672119140625000000e-02 -3.637695312500000000e-02 -4.583740234375000000e-02 1.002807617187500000e-01 4.309082031250000000e-02 9.869384765625000000e-02 -5.786132812500000000e-02 -7.952880859375000000e-02 9.973144531250000000e-02 9.698486328125000000e-02 -5.886840820312500000e-02 8.856201171875000000e-02 -7.011413574218750000e-03 -9.100341796875000000e-02 -2.467346191406250000e-02 7.574462890625000000e-02 8.496093750000000000e-02 -9.820556640625000000e-02 -9.613037109375000000e-03

-8.056640625000000000e-02 1.054763793945312500e-03 3.915405273437500000e-02 -1.004638671875000000e-01 -4.144287109375000000e-02 3.698730468750000000e-02 3.723144531250000000e-02 8.245849609375000000e-02 -3.082275390625000000e-02 6.408691406250000000e-02 7.904052734375000000e-02 -8.654785156250000000e-02 9.411621093750000000e-02 -1.008300781250000000e-01 -2.334594726562500000e-03 -8.148193359375000000e-02 -7.232666015625000000e-02 8.734130859375000000e-02 -6.378173828125000000e-02 -5.599975585937500000e-02 -9.619140625000000000e-02 -1.148223876953125000e-02 2.059936523437500000e-02 8.996582031250000000e-02 -6.524658203125000000e-02 -4.898071289062500000e-02 8.319091796875000000e-02 9.564208984375000000e-02 -9.002685546875000000e-02 -5.920410156250000000e-02 -9.301757812500000000e-02 -1.771545410156250000e-02 -6.768798828125000000e-02 3.906250000000000000e-02 9.271240234375000000e-02 4.379272460937500000e-02 -3.105163574218750000e-02 -2.301025390625000000e-02

3.277587890625000000e-02 -4.742145538330078125e-04 -8.221435546875000000e-02 -5.703735351562500000e-02 -3.053283691406250000e-02 3.350830078125000000e-02 7.238769531250000000e-02 -4.785156250000000000e-02 3.607177734375000000e-02 2.166748046875000000e-02 8.666992187500000000e-02 -8.117675781250000000e-02 -6.066894531250000000e-02 1.831054687500000000e-02 3.339767456054687500e-03 -8.087158203125000000e-02 1.453399658203125000e-02 -6.341552734375000000e-02 -6.585693359375000000e-02 -9.521484375000000000e-02 8.050537109375000000e-02 8.868408203125000000e-02 -1.027221679687500000e-01 4.730224609375000000e-02 -1.719665527343750000e-02 -8.538818359375000000e-02 -2.507019042968750000e-02 -9.326171875000000000e-02 2.940368652343750000e-02 1.042175292968750000e-02 -5.172729492187500000e-02 -5.062866210937500000e-02 4.211425781250000000e-02 -2.085876464843750000e-02 -7.635498046875000000e-02 7.434082031250000000e-02 -4.739379882812500000e-02 2.940368652343750000e-02

3.841400146484375000e-03 -8.496093750000000000e-02 8.135986328125000000e-02 -9.338378906250000000e-02 -6.848144531250000000e-02 2.935791015625000000e-02 9.014892578125000000e-02 -1.554489135742187500e-04 7.427978515625000000e-02 -7.891845703125000000e-02 6.683349609375000000e-02 -3.112792968750000000e-02 -3.839111328125000000e-02 -6.628417968750000000e-02 -3.411865234375000000e-02 -7.434082031250000000e-02 -7.373046875000000000e-02 3.741455078125000000e-02 -2.805709838867187500e-03 2.447509765625000000e-02 -6.787109375000000000e-02 -4.379272460937500000e-02 -6.945800781250000000e-02 -5.439758300781250000e-03 -1.385498046875000000e-02 -9.619140625000000000e-02 4.425048828125000000e-02 -1.568603515625000000e-02 -6.567382812500000000e-02 -3.192138671875000000e-02 8.453369140625000000e-02 7.550048828125000000e-02 3.533935546875000000e-02 -3.613281250000000000e-02 8.319091796875000000e-02 8.538818359375000000e-02 4.522705078125000000e-02 -1.910400390625000000e-02

9.844970703125000000e-02 6.390380859375000000e-02 -7.836914062500000000e-02 -1.368713378906250000e-02 2.191162109375000000e-02 -8.850097656250000000e-03 -9.136962890625000000e-02 -3.155517578125000000e-02 -1.008300781250000000e-01 -7.513427734375000000e-02 6.048583984375000000e-02 -5.422973632812500000e-02 -3.356933593750000000e-02 -4.238891601562500000e-02 9.967041015625000000e-02 -2.473449707031250000e-02 8.917236328125000000e-02 -9.619140625000000000e-02 1.010131835937500000e-01 -9.057617187500000000e-02 -7.971191406250000000e-02 9.136962890625000000e-02 4.400634765625000000e-02 3.472900390625000000e-02 -8.496093750000000000e-02 -4.357910156250000000e-02 1.202392578125000000e-02 9.942626953125000000e-02 -4.940795898437500000e-02 8.319091796875000000e-02 -8.398437500000000000e-02 -9.643554687500000000e-02 2.111816406250000000e-02 6.768798828125000000e-02 2.069091796875000000e-02 -4.782104492187500000e-02 -7.775878906250000000e-02 5.499267578125000000e-02

7.598876953125000000e-02 -7.592773437500000000e-02 -1.200103759765625000e-02 7.550048828125000000e-02 2.252197265625000000e-02 -5.664062500000000000e-02 -4.782104492187500000e-02 8.978271484375000000e-02 2.691650390625000000e-02 1.586914062500000000e-02 5.886840820312500000e-02 -5.703735351562500000e-02 -9.414672851562500000e-03 1.535034179687500000e-02 2.447509765625000000e-02 -1.008300781250000000e-01 -5.786132812500000000e-02 4.241943359375000000e-02 5.218505859375000000e-02 2.838134765625000000e-02 -2.874755859375000000e-02 9.906005859375000000e-02 5.771636962890625000e-03 -7.171630859375000000e-02 5.090332031250000000e-02 -2.954101562500000000e-02 -2.227783203125000000e-02 5.706787109375000000e-02 5.767822265625000000e-03 -2.307128906250000000e-02 -4.379272460937500000e-02 9.478759765625000000e-02 -2.569580078125000000e-02 -1.383972167968750000e-02 5.221557617187500000e-02 -3.778076171875000000e-02 9.881591796875000000e-02 -4.861450195312500000e-02

