4.925537109375000000e-02 -8.935546875000000000e-02 5.439758300781250000e-03 7.891845703125000000e-02 -7.952880859375000000e-02 3.652954101562500000e-02 7.513427734375000000e-02 1.403808593750000000e-02 -1.502990722656250000e-02 -2.691650390625000000e-02 -1.525115966796875000e-02 4.028320312500000000e-03 -4.721069335937500000e-02 6.793212890625000000e-02 8.575439453125000000e-02 1.139831542968750000e-02 8.013916015625000000e-02 8.233642578125000000e-02 7.019042968750000000e-03 -9.381103515625000000e-02 1.526641845703125000e-02 4.837036132812500000e-02 -3.216552734375000000e-02 6.744384765625000000e-02 -3.440856933593750000e-03 -8.074951171875000000e-02 -9.820556640625000000e-02 7.348632812500000000e-02 -9.423828125000000000e-02 7.257080078125000000e-02 7.757568359375000000e-02 -2.452087402343750000e-02 -8.233642578125000000e-02 9.747314453125000000e-02 3.472900390625000000e-02 4.641723632812500000e-02 4.402160644531250000e-03 -8.197021484375000000e-02

-1.428222656250000000e-02 -8.618164062500000000e-02 -6.167602539062500000e-02 7.855224609375000000e-02 -4.699707031250000000e-02 6.964111328125000000e-02 8.880615234375000000e-02 1.742839813232421875e-04 3.350830078125000000e-02 8.850097656250000000e-03 -6.311035156250000000e-02 -1.489257812500000000e-02 -6.994628906250000000e-02 -5.966186523437500000e-02 4.559326171875000000e-02 -7.637023925781250000e-03 9.002685546875000000e-02 -6.506347656250000000e-02 -3.192138671875000000e-02 5.462646484375000000e-02 2.667236328125000000e-02 -7.611083984375000000e-02 -6.890869140625000000e-02 -5.844116210937500000e-02 8.843994140625000000e-02 -3.875732421875000000e-02 -7.495117187500000000e-02 8.416748046875000000e-02 -8.294677734375000000e-02 1.192092895507812500e-06 -8.496093750000000000e-02 6.329345703125000000e-02 -7.934570312500000000e-02 -6.567382812500000000e-02 7.916259765625000000e-02 5.889892578125000000e-02 8.892822265625000000e-02 8.892822265625000000e-02

-2.708435058593750000e-02 -3.192138671875000000e-02 -6.130981445312500000e-02 -6.842041015625000000e-02 -3.155517578125000000e-02 -8.190917968750000000e-02 -5.612182617187500000e-02 7.818603515625000000e-02 9.086608886718750000e-03 6.149291992187500000e-02 1.770019531250000000e-02 8.941650390625000000e-02 3.970336914062500000e-02 5.972290039062500000e-02 -5.984497070312500000e-02 -2.047729492187500000e-02 -1.042938232421875000e-02 7.489013671875000000e-02 8.673095703125000000e-02 -3.613281250000000000e-02 7.171630859375000000e-02 -3.349304199218750000e-03 -8.801269531250000000e-02 -2.514648437500000000e-02 3.762817382812500000e-02 2.166748046875000000e-02 -2.250671386718750000e-02 7.513427734375000000e-02 5.059814453125000000e-02 -7.266998291015625000e-03 5.737304687500000000e-03 8.160400390625000000e-02 -2.508544921875000000e-02 5.334472656250000000e-02 7.489013671875000000e-02 -3.695678710937500000e-02 8.032226562500000000e-02 -1.683044433593750000e-02

-6.652832031250000000e-02 -5.847167968750000000e-02 8.746337890625000000e-02 -5.554199218750000000e-02 -7.678222656250000000e-02 8.538818359375000000e-02 -8.666992187500000000e-02 5.651855468750000000e-02 -9.881591796875000000e-02 -3.637695312500000000e-02 6.951904296875000000e-02 1.062011718750000000e-02 7.989501953125000000e-02 5.654907226562500000e-02 -5.261230468750000000e-02 -8.691406250000000000e-02 4.254150390625000000e-02 8.721923828125000000e-02 6.829833984375000000e-02 9.002685546875000000e-02 8.782958984375000000e-02 -6.640625000000000000e-02 -3.085327148437500000e-02 3.082275390625000000e-02 -3.031921386718750000e-02 9.625244140625000000e-02 -2.276611328125000000e-02 8.807373046875000000e-02 -3.796386718750000000e-02 -8.654785156250000000e-02 -2.433776855468750000e-02 2.754211425781250000e-02 -3.619384765625000000e-02 7.269287109375000000e-02 -3.469848632812500000e-02 -2.749633789062500000e-02 1.805305480957031250e-03 -9.173583984375000000e-02

2.508544921875000000e-02 4.840087890625000000e-02 1.464080810546875000e-02 7.808685302734375000e-03 -7.049560546875000000e-02 2.049255371093750000e-02 9.025573730468750000e-03 2.630615234375000000e-02 -6.427001953125000000e-02 -7.250976562500000000e-02 3.814697265625000000e-02 -5.001831054687500000e-02 3.167724609375000000e-02 8.514404296875000000e-02 6.951904296875000000e-02 -7.836914062500000000e-02 7.916259765625000000e-02 -3.778076171875000000e-02 8.319091796875000000e-02 -8.978271484375000000e-02 -4.821777343750000000e-03 -1.010131835937500000e-01 8.221435546875000000e-02 -2.789306640625000000e-02 8.258056640625000000e-02 6.524658203125000000e-02 -3.637695312500000000e-02 1.464843750000000000e-02 -9.057617187500000000e-02 -3.875732421875000000e-02 -7.373046875000000000e-02 -4.638671875000000000e-03 1.226806640625000000e-02 -4.559326171875000000e-02 -1.165008544921875000e-02 7.269287109375000000e-02 -2.111816406250000000e-02 -1.086425781250000000e-02

-6.591796875000000000e-02 -5.444335937500000000e-02 -1.885986328125000000e-02 8.941650390625000000e-02 8.636474609375000000e-02 -9.960937500000000000e-02 8.660888671875000000e-02 -1.000366210937500000e-01 -5.984497070312500000e-02 3.753662109375000000e-02 -2.069091796875000000e-02 1.885986328125000000e-02 8.233642578125000000e-02 9.661865234375000000e-02 2.026367187500000000e-02 8.441162109375000000e-02 -4.962158203125000000e-02 4.192352294921875000e-03 3.289794921875000000e-02 1.342773437500000000e-02 2.166748046875000000e-02 6.170654296875000000e-02 7.025146484375000000e-02 -6.660461425781250000e-03 1.008605957031250000e-02 1.263427734375000000e-02 -6.726074218750000000e-02 7.769775390625000000e-02 8.538818359375000000e-02 9.381103515625000000e-02 -9.197998046875000000e-02 -7.348632812500000000e-02 -5.261230468750000000e-02 9.844970703125000000e-02 5.438232421875000000e-02 9.686279296875000000e-02 4.644775390625000000e-02 -3.597259521484375000e-03

9.722900390625000000e-02 7.110595703125000000e-02 7.293701171875000000e-02 5.609130859375000000e-02 7.226562500000000000e-02 -7.410049438476562500e-04 8.837890625000000000e-02 9.960937500000000000e-02 6.195068359375000000e-02 4.315185546875000000e-02 -6.488037109375000000e-02 9.161376953125000000e-02 -1.867675781250000000e-02 -4.898071289062500000e-02 -2.752685546875000000e-02 -1.477050781250000000e-02 -5.404663085937500000e-02 2.032470703125000000e-02 2.206420898437500000e-02 9.466552734375000000e-02 -7.574462890625000000e-02 5.395507812500000000e-02 7.507324218750000000e-02 -1.197052001953125000e-02 -1.065063476562500000e-02 6.024169921875000000e-02 -2.990722656250000000e-02 8.697509765625000000e-02 -4.843139648437500000e-02 -9.063720703125000000e-02 1.008911132812500000e-01 -7.409667968750000000e-02 4.925537109375000000e-02 3.155517578125000000e-02 4.131317138671875000e-03 2.246093750000000000e-02 2.494812011718750000e-02 2.432250976562500000e-02

2.838134765625000000e-02 4.812622070312500000e-02 5.773925781250000000e-02 1.393127441406250000e-02 4.116821289062500000e-02 -5.346679687500000000e-02 6.182861328125000000e-02 4.183959960937500000e-02 1.951599121093750000e-02 -8.520507812500000000e-02 1.759338378906250000e-02 -2.954101562500000000e-02 -3.610229492187500000e-02 -9.674072265625000000e-03 -5.741119384765625000e-03 1.172637939453125000e-02 4.476928710937500000e-02 4.385375976562500000e-02 1.111602783203125000e-02 -7.574462890625000000e-02 -8.618164062500000000e-02 6.179809570312500000e-02 -5.877685546875000000e-02 3.111267089843750000e-02 3.479003906250000000e-02 -9.600830078125000000e-02 9.942626953125000000e-02 -6.143188476562500000e-02 3.912353515625000000e-02 2.593994140625000000e-02 -5.807495117187500000e-02 8.105468750000000000e-02 2.560424804687500000e-02 3.466796875000000000e-02 -2.491760253906250000e-02 -4.629516601562500000e-02 -4.879760742187500000e-02 1.024169921875000000e-01

-5.435943603515625000e-03 -5.685424804687500000e-02 2.412796020507812500e-03 -4.226684570312500000e-03 2.670288085937500000e-02 2.156066894531250000e-02 -7.434082031250000000e-02 9.796142578125000000e-02 -6.561279296875000000e-02 -9.350585937500000000e-02 -6.860351562500000000e-02 -4.681396484375000000e-02 7.623291015625000000e-02 8.135986328125000000e-02 2.264404296875000000e-02 2.428054809570312500e-03 6.304931640625000000e-02 -2.033996582031250000e-02 -5.236816406250000000e-02 6.750488281250000000e-02 -8.398437500000000000e-02 3.927612304687500000e-02 4.925537109375000000e-02 -9.576416015625000000e-02 -3.857421875000000000e-02 -7.647705078125000000e-02 4.534912109375000000e-02 7.989501953125000000e-02 6.390380859375000000e-02 9.689331054687500000e-03 -5.380249023437500000e-02 7.818603515625000000e-02 -7.775878906250000000e-02 2.740478515625000000e-02 -2.796936035156250000e-02 8.282470703125000000e-02 1.010742187500000000e-01 5.322265625000000000e-02

3.585815429687500000e-03 1.538085937500000000e-02 5.087280273437500000e-02 1.712036132812500000e-02 -4.142761230468750000e-03 -1.882934570312500000e-02 6.561279296875000000e-02 3.123474121093750000e-02 2.287292480468750000e-02 -8.654785156250000000e-02 -7.581710815429687500e-04 -6.005859375000000000e-02 -6.143188476562500000e-02 -8.709716796875000000e-02 -7.873535156250000000e-02 8.264160156250000000e-02 -2.392578125000000000e-02 -4.663085937500000000e-02 -2.630615234375000000e-02 1.981735229492187500e-03 -5.444335937500000000e-02 2.833557128906250000e-02 4.251098632812500000e-02 2.368164062500000000e-02 5.508422851562500000e-02 4.364013671875000000e-02 -4.541015625000000000e-02 -8.831787109375000000e-02 1.309967041015625000e-02 4.183959960937500000e-02 -6.744384765625000000e-03 2.627563476562500000e-02 4.278564453125000000e-02 -4.977416992187500000e-02 4.391479492187500000e-02 -7.513427734375000000e-02 1.001739501953125000e-02 6.185913085937500000e-02

-5.844116210937500000e-02 2.325439453125000000e-02 3.594970703125000000e-02 -8.041381835937500000e-03 -4.238891601562500000e-02 9.576416015625000000e-02 -6.069946289062500000e-02 -8.843994140625000000e-02 4.531860351562500000e-02 3.009033203125000000e-02 -8.654785156250000000e-02 3.411865234375000000e-02 7.135009765625000000e-02 6.069946289062500000e-02 2.728271484375000000e-02 4.833984375000000000e-02 3.717041015625000000e-02 -8.125305175781250000e-03 2.053833007812500000e-02 4.779052734375000000e-02 -2.050781250000000000e-02 -2.313232421875000000e-02 4.876708984375000000e-02 4.440307617187500000e-02 5.047607421875000000e-02 1.745605468750000000e-02 8.673095703125000000e-02 4.238891601562500000e-02 6.573486328125000000e-02 3.912353515625000000e-02 1.310729980468750000e-02 -3.593444824218750000e-03 1.406860351562500000e-02 8.740234375000000000e-02 -2.951622009277343750e-04 -1.002197265625000000e-01 -4.158020019531250000e-04 -6.085205078125000000e-02

4.534912109375000000e-02 -6.098747253417968750e-04 6.488037109375000000e-02 -1.300811767578125000e-03 -1.000366210937500000e-01 -4.440307617187500000e-02 6.768798828125000000e-02 -7.531738281250000000e-02 7.025146484375000000e-02 -2.990722656250000000e-02 7.635498046875000000e-02 -1.745605468750000000e-02 7.012939453125000000e-02 9.820556640625000000e-02 8.795166015625000000e-02 3.155517578125000000e-02 -9.136962890625000000e-02 3.753662109375000000e-02 2.252197265625000000e-02 -3.558349609375000000e-02 1.971435546875000000e-02 -3.674316406250000000e-02 4.800415039062500000e-02 8.441162109375000000e-02 -2.821350097656250000e-02 -2.087402343750000000e-02 -9.942626953125000000e-02 8.575439453125000000e-02 8.978271484375000000e-02 -2.992248535156250000e-02 -3.875732421875000000e-02 -2.227783203125000000e-02 -1.086425781250000000e-02 3.411865234375000000e-02 -5.203247070312500000e-02 -5.001831054687500000e-02 -5.764770507812500000e-02 8.111572265625000000e-02

1.024780273437500000e-01 9.942626953125000000e-02 -8.294677734375000000e-02 -1.574707031250000000e-02 8.068847656250000000e-02 -1.425933837890625000e-02 1.150512695312500000e-02 6.701660156250000000e-02 -7.690429687500000000e-02 -7.110595703125000000e-02 8.233642578125000000e-02 -8.520507812500000000e-02 -5.279541015625000000e-02 7.989501953125000000e-02 -1.568603515625000000e-02 9.692382812500000000e-02 -9.521484375000000000e-02 5.484008789062500000e-02 -6.652832031250000000e-02 6.185913085937500000e-02 6.268310546875000000e-02 -2.114868164062500000e-02 8.813476562500000000e-02 -4.299163818359375000e-03 4.547119140625000000e-02 9.437561035156250000e-03 6.365966796875000000e-02 -4.998779296875000000e-02 9.661865234375000000e-02 -3.292846679687500000e-02 -3.131103515625000000e-02 -2.226257324218750000e-02 1.221656799316406250e-03 -6.469726562500000000e-02 8.660888671875000000e-02 9.722900390625000000e-02 -6.225585937500000000e-02 -4.943847656250000000e-02

-7.153320312500000000e-02 4.312133789062500000e-02 -1.171875000000000000e-02 7.672119140625000000e-02 -8.142089843750000000e-02 -4.901123046875000000e-02 9.313964843750000000e-02 5.917358398437500000e-02 6.008911132812500000e-02 -6.127929687500000000e-02 -4.354858398437500000e-02 1.220703125000000000e-03 9.405517578125000000e-02 -5.916595458984375000e-03 -6.488037109375000000e-02 9.826660156250000000e-02 -4.257202148437500000e-02 -2.897262573242187500e-03 5.136108398437500000e-02 5.160522460937500000e-02 1.245117187500000000e-02 -5.175781250000000000e-02 -3.771972656250000000e-02 -6.304931640625000000e-02 -8.306884765625000000e-02 6.329345703125000000e-02 -4.174804687500000000e-02 -6.329345703125000000e-02 -9.539794921875000000e-02 -3.237915039062500000e-02 8.166503906250000000e-02 -4.681396484375000000e-02 -1.506042480468750000e-02 -2.024841308593750000e-02 -2.793884277343750000e-02 1.013183593750000000e-01 -4.098510742187500000e-02 8.233642578125000000e-02

-2.427673339843750000e-02 -3.013610839843750000e-02 8.245849609375000000e-02 -1.693725585937500000e-02 -2.055358886718750000e-02 -2.192687988281250000e-02 -4.364013671875000000e-02 5.294799804687500000e-02 6.744384765625000000e-02 -9.600830078125000000e-02 1.015625000000000000e-01 -4.299926757812500000e-02 5.404663085937500000e-02 3.341674804687500000e-02 -4.800415039062500000e-02 3.466796875000000000e-02 6.866455078125000000e-02 -1.520538330078125000e-02 8.880615234375000000e-02 8.740234375000000000e-02 -3.698730468750000000e-02 -8.874511718750000000e-02 3.851318359375000000e-02 1.802062988281250000e-02 -2.398681640625000000e-02 -6.445312500000000000e-02 -8.575439453125000000e-02 -7.598876953125000000e-02 1.450347900390625000e-02 2.970886230468750000e-02 -8.489990234375000000e-02 5.895996093750000000e-02 -2.900695800781250000e-02 8.648681640625000000e-02 1.795959472656250000e-02 2.662658691406250000e-02 -4.528808593750000000e-02 2.053833007812500000e-02

-2.873229980468750000e-02 -2.660751342773437500e-03 1.936340332031250000e-02 -8.154296875000000000e-02 -4.226684570312500000e-02 -4.232788085937500000e-02 3.805541992187500000e-02 -2.029418945312500000e-02 -9.527587890625000000e-02 -4.034423828125000000e-02 -4.333496093750000000e-02 -3.497314453125000000e-02 -4.071044921875000000e-02 2.201843261718750000e-02 -2.349853515625000000e-02 4.617309570312500000e-02 7.757568359375000000e-02 2.067565917968750000e-02 -4.924774169921875000e-03 3.417968750000000000e-02 4.665374755859375000e-03 -6.774902343750000000e-02 -4.330444335937500000e-02 -2.984619140625000000e-02 -7.983398437500000000e-02 1.296234130859375000e-02 7.537841796875000000e-02 -2.558898925781250000e-02 -4.306030273437500000e-02 -3.298950195312500000e-02 3.054809570312500000e-02 3.680419921875000000e-02 -4.760742187500000000e-02 -5.378723144531250000e-04 5.416870117187500000e-02 8.032226562500000000e-02 8.630371093750000000e-02 4.101562500000000000e-02

3.221511840820312500e-03 -2.571105957031250000e-02 1.695251464843750000e-02 9.442138671875000000e-02 -1.644897460937500000e-02 2.525329589843750000e-02 3.952026367187500000e-02 -6.494140625000000000e-02 -3.393554687500000000e-02 3.009033203125000000e-02 6.451416015625000000e-02 8.978271484375000000e-02 5.300903320312500000e-02 7.324218750000000000e-02 -6.066894531250000000e-02 -5.029296875000000000e-02 1.008911132812500000e-01 -4.129028320312500000e-02 8.323669433593750000e-03 2.633666992187500000e-02 -4.239082336425781250e-04 6.231689453125000000e-02 2.784729003906250000e-02 -9.863281250000000000e-02 8.764648437500000000e-02 -8.636474609375000000e-02 5.865478515625000000e-02 4.966735839843750000e-03 -4.721069335937500000e-02 1.544952392578125000e-02 2.464294433593750000e-03 -6.903076171875000000e-02 -8.612060546875000000e-02 -9.643554687500000000e-02 8.117675781250000000e-02 -3.854370117187500000e-02 -8.776855468750000000e-02 5.245208740234375000e-03

4.681396484375000000e-02 -2.769470214843750000e-02 9.191894531250000000e-02 -3.698730468750000000e-02 6.225585937500000000e-03 -5.227661132812500000e-02 -6.591796875000000000e-02 -5.728149414062500000e-02 2.703857421875000000e-02 -9.460449218750000000e-02 8.880615234375000000e-02 2.148437500000000000e-02 9.124755859375000000e-02 -2.526855468750000000e-02 1.666259765625000000e-02 8.964538574218750000e-03 4.400634765625000000e-02 6.890869140625000000e-02 5.990600585937500000e-02 -3.431320190429687500e-03 3.118896484375000000e-02 2.062988281250000000e-02 4.522705078125000000e-02 -8.575439453125000000e-02 8.892822265625000000e-02 3.375244140625000000e-02 5.865478515625000000e-02 6.222534179687500000e-02 -2.673339843750000000e-02 -7.049560546875000000e-02 -1.942443847656250000e-02 -3.872680664062500000e-02 8.050537109375000000e-02 -2.653503417968750000e-02 -6.658935546875000000e-02 8.007812500000000000e-02 4.821777343750000000e-03 -7.153320312500000000e-02

3.912353515625000000e-02 9.375000000000000000e-02 -2.819824218750000000e-02 -9.216308593750000000e-02 8.221435546875000000e-02 9.460449218750000000e-02 -7.647705078125000000e-02 -6.561279296875000000e-02 -4.098510742187500000e-02 -9.277343750000000000e-02 -9.521484375000000000e-02 -4.440307617187500000e-02 -2.699279785156250000e-02 -4.074096679687500000e-03 -9.039306640625000000e-02 -1.332855224609375000e-02 -3.231811523437500000e-02 -3.329467773437500000e-02 -2.058029174804687500e-03 -4.803466796875000000e-02 -1.286315917968750000e-02 -9.259033203125000000e-02 -1.837158203125000000e-02 3.585815429687500000e-02 -8.702278137207031250e-04 -1.464843750000000000e-02 -3.669738769531250000e-03 7.904052734375000000e-02 9.637451171875000000e-02 8.106231689453125000e-04 -2.053833007812500000e-02 5.084228515625000000e-02 7.952880859375000000e-02 -4.077148437500000000e-02 -2.006530761718750000e-02 2.908325195312500000e-02 -2.929687500000000000e-02 -4.400634765625000000e-02

2.008056640625000000e-02 -6.246948242187500000e-02 7.305908203125000000e-02 1.002807617187500000e-01 5.361938476562500000e-02 8.715820312500000000e-02 -3.927612304687500000e-02 -3.622436523437500000e-02 -8.569335937500000000e-02 -5.264282226562500000e-03 3.293991088867187500e-03 -1.002197265625000000e-01 -8.215332031250000000e-02 7.116699218750000000e-02 -9.783935546875000000e-02 9.808349609375000000e-02 1.010131835937500000e-01 -2.249145507812500000e-02 9.417724609375000000e-02 1.887512207031250000e-02 9.014892578125000000e-02 9.747314453125000000e-02 -8.740234375000000000e-02 -2.067565917968750000e-02 -9.436035156250000000e-02 6.707763671875000000e-02 4.302978515625000000e-02 9.320068359375000000e-02 -6.246948242187500000e-02 -1.629638671875000000e-02 9.063720703125000000e-02 6.732177734375000000e-02 6.292724609375000000e-02 7.928466796875000000e-02 -1.649475097656250000e-02 2.609252929687500000e-02 7.086181640625000000e-02 1.163482666015625000e-03

-2.488708496093750000e-02 -2.911376953125000000e-02 8.398437500000000000e-02 8.258056640625000000e-02 -8.399963378906250000e-03 -4.379272460937500000e-02 1.183319091796875000e-02 9.686279296875000000e-02 3.634643554687500000e-02 5.630493164062500000e-02 1.108169555664062500e-03 -1.647949218750000000e-02 5.169677734375000000e-02 -7.061767578125000000e-02 8.074951171875000000e-02 3.817749023437500000e-02 -8.697509765625000000e-02 4.467773437500000000e-02 1.792907714843750000e-02 6.335449218750000000e-02 -1.563072204589843750e-03 -3.512573242187500000e-02 -2.378845214843750000e-02 9.529113769531250000e-03 4.501342773437500000e-02 -1.006469726562500000e-01 -4.943847656250000000e-02 2.027893066406250000e-02 -9.167480468750000000e-02 9.771728515625000000e-02 -1.785278320312500000e-02 -3.271484375000000000e-02 -7.171630859375000000e-02 -5.443572998046875000e-03 7.501220703125000000e-02 6.884765625000000000e-02 -6.005859375000000000e-02 -8.502197265625000000e-02

-8.374023437500000000e-02 -3.944396972656250000e-03 9.741210937500000000e-02 3.114318847656250000e-02 -2.426147460937500000e-02 -1.972961425781250000e-02 -4.412841796875000000e-02 7.318115234375000000e-02 -8.044433593750000000e-02 3.912353515625000000e-02 3.372192382812500000e-02 -5.645751953125000000e-02 -8.477783203125000000e-02 -1.142883300781250000e-02 -4.156494140625000000e-02 -1.365661621093750000e-02 9.405517578125000000e-02 7.373046875000000000e-02 1.399230957031250000e-02 -6.427001953125000000e-02 -1.145935058593750000e-02 8.459472656250000000e-02 -2.484130859375000000e-02 -9.118652343750000000e-02 4.370117187500000000e-02 -6.909179687500000000e-02 -3.314208984375000000e-02 1.850891113281250000e-02 -2.772521972656250000e-02 5.584716796875000000e-02 7.641601562500000000e-02 1.498222351074218750e-03 9.674072265625000000e-02 5.599975585937500000e-02 -2.502441406250000000e-02 7.751464843750000000e-02 -5.245208740234375000e-03 2.500915527343750000e-02

-9.197998046875000000e-02 3.155517578125000000e-02 -5.926513671875000000e-02 -4.840087890625000000e-02 -8.740234375000000000e-02 -7.672119140625000000e-02 -5.703735351562500000e-02 -1.367187500000000000e-02 4.681396484375000000e-02 -3.234863281250000000e-02 3.973388671875000000e-02 -1.428222656250000000e-02 -7.751464843750000000e-02 -1.605224609375000000e-02 -6.872558593750000000e-02 9.625244140625000000e-02 -5.282592773437500000e-02 2.728271484375000000e-02 2.252197265625000000e-02 -3.656005859375000000e-02 2.069091796875000000e-02 4.473876953125000000e-02 -5.703735351562500000e-02 -8.416748046875000000e-02 8.453369140625000000e-02 5.023193359375000000e-02 4.473876953125000000e-02 2.264404296875000000e-02 2.813720703125000000e-02 7.452392578125000000e-02 2.874755859375000000e-02 5.926513671875000000e-02 -6.311035156250000000e-02 -1.429748535156250000e-02 3.961181640625000000e-02 3.741455078125000000e-02 5.987548828125000000e-02 -2.874755859375000000e-02

-8.276367187500000000e-02 3.692626953125000000e-02 -4.821777343750000000e-02 -2.954101562500000000e-02 7.427978515625000000e-02 1.806640625000000000e-02 -3.215789794921875000e-03 -4.681396484375000000e-02 8.865356445312500000e-03 -6.207275390625000000e-02 8.197021484375000000e-02 -6.167602539062500000e-02 6.585693359375000000e-02 1.631164550781250000e-02 -7.214355468750000000e-02 1.885986328125000000e-02 -8.837890625000000000e-02 -5.242919921875000000e-02 -8.337402343750000000e-02 -1.104736328125000000e-02 -1.012573242187500000e-01 3.227233886718750000e-03 3.118896484375000000e-02 9.234619140625000000e-02 7.952880859375000000e-02 6.634521484375000000e-02 2.313232421875000000e-02 -2.990722656250000000e-02 -2.209472656250000000e-02 4.156494140625000000e-02 7.354736328125000000e-02 -2.911376953125000000e-02 -8.575439453125000000e-02 4.215240478515625000e-03 2.288818359375000000e-02 7.196044921875000000e-02 -4.559326171875000000e-02 8.941650390625000000e-02

9.033203125000000000e-03 7.672119140625000000e-02 5.178833007812500000e-02 4.815673828125000000e-02 8.099365234375000000e-02 1.022338867187500000e-01 -1.011657714843750000e-02 7.012939453125000000e-02 7.073974609375000000e-02 -3.436279296875000000e-02 5.755424499511718750e-04 9.967041015625000000e-02 8.209228515625000000e-03 -5.020141601562500000e-02 -8.056640625000000000e-02 -8.154296875000000000e-02 -3.390502929687500000e-02 -1.522827148437500000e-02 8.430480957031250000e-03 -7.794189453125000000e-02 -3.839111328125000000e-02 -3.356933593750000000e-02 -1.004638671875000000e-01 -9.240722656250000000e-02 -5.923461914062500000e-02 -5.282592773437500000e-02 9.906005859375000000e-02 4.083251953125000000e-02 1.727294921875000000e-02 4.302978515625000000e-02 -5.584716796875000000e-02 4.937744140625000000e-02 5.328369140625000000e-02 8.270263671875000000e-02 1.006469726562500000e-01 -6.530761718750000000e-02 -3.796386718750000000e-02 6.121826171875000000e-02

