-8.679199218750000000e-02 7.891845703125000000e-02 -6.427001953125000000e-02 4.986572265625000000e-02 9.442138671875000000e-02 -1.937866210937500000e-03 -3.796386718750000000e-02 -4.501342773437500000e-02 -6.628417968750000000e-02 7.611083984375000000e-02 7.012939453125000000e-02 6.793212890625000000e-02 -1.163482666015625000e-02 2.598571777343750000e-02 8.502197265625000000e-02 4.873657226562500000e-02 -6.652832031250000000e-03 -5.743408203125000000e-02 6.744384765625000000e-02 -4.379272460937500000e-02 5.802154541015625000e-03 -9.773254394531250000e-03 -3.076171875000000000e-02 -6.591796875000000000e-02 -7.031250000000000000e-02 -6.945800781250000000e-02 3.851318359375000000e-02 -9.722900390625000000e-02 5.743408203125000000e-02 7.269287109375000000e-02 -5.825805664062500000e-02 1.004028320312500000e-01 -1.100158691406250000e-02 8.380126953125000000e-02 2.386474609375000000e-02 -7.672119140625000000e-02 7.757568359375000000e-02 2.194213867187500000e-02

8.721923828125000000e-02 5.096435546875000000e-02 2.372741699218750000e-03 2.380371093750000000e-03 -7.110595703125000000e-02 -9.985351562500000000e-02 -4.058837890625000000e-02 -9.033203125000000000e-03 -9.600830078125000000e-02 -1.165771484375000000e-02 -6.347656250000000000e-02 2.325439453125000000e-02 5.865478515625000000e-02 -4.681396484375000000e-02 -6.005859375000000000e-02 8.331298828125000000e-02 2.813720703125000000e-02 4.315185546875000000e-02 9.643554687500000000e-03 -1.224517822265625000e-03 -2.809524536132812500e-03 -7.452392578125000000e-02 8.660888671875000000e-02 -1.860618591308593750e-03 -6.106567382812500000e-02 -4.156494140625000000e-02 -5.584716796875000000e-02 -1.022338867187500000e-01 3.033447265625000000e-02 -5.203247070312500000e-02 1.183319091796875000e-02 -6.106567382812500000e-02 -8.117675781250000000e-02 4.656982421875000000e-02 -5.422973632812500000e-02 5.462646484375000000e-02 -8.837890625000000000e-02 -7.409667968750000000e-02

3.741455078125000000e-02 -2.453613281250000000e-02 -7.788085937500000000e-02 7.720947265625000000e-02 -6.149291992187500000e-02 1.969909667968750000e-02 -6.414794921875000000e-02 -2.896118164062500000e-02 6.353759765625000000e-02 5.221557617187500000e-02 2.395629882812500000e-02 -9.259033203125000000e-02 8.203125000000000000e-02 9.881591796875000000e-02 9.918212890625000000e-02 5.670166015625000000e-02 7.696533203125000000e-02 -4.516601562500000000e-02 -5.926513671875000000e-02 -3.778076171875000000e-02 -4.016113281250000000e-02 -9.118652343750000000e-02 -3.393554687500000000e-02 5.104064941406250000e-03 3.818511962890625000e-03 -5.502319335937500000e-02 1.629638671875000000e-02 -2.424621582031250000e-02 -7.971191406250000000e-02 -2.300739288330078125e-04 5.377197265625000000e-02 -8.197021484375000000e-02 -3.131103515625000000e-02 -9.613037109375000000e-02 -2.299499511718750000e-02 2.011108398437500000e-02 -3.787231445312500000e-02 1.171875000000000000e-02

-6.768798828125000000e-02 9.173583984375000000e-02 -9.307861328125000000e-02 1.643371582031250000e-02 -2.223205566406250000e-02 -4.364013671875000000e-03 9.741210937500000000e-02 8.934020996093750000e-03 5.789184570312500000e-02 4.400634765625000000e-02 4.421997070312500000e-02 -7.629394531250000000e-02 -1.879882812500000000e-02 -4.783630371093750000e-03 -3.114318847656250000e-02 -6.634521484375000000e-02 -6.665039062500000000e-02 7.385253906250000000e-02 -6.488037109375000000e-02 -5.905151367187500000e-02 -1.022338867187500000e-01 -1.252746582031250000e-02 -9.082031250000000000e-02 -9.637451171875000000e-02 9.167480468750000000e-02 -4.016113281250000000e-02 6.060791015625000000e-02 7.666015625000000000e-02 -8.056640625000000000e-02 9.808349609375000000e-02 3.585815429687500000e-02 7.702636718750000000e-02 -7.061004638671875000e-03 -6.151199340820312500e-04 9.388923645019531250e-04 3.053665161132812500e-03 -2.229309082031250000e-02 1.957702636718750000e-02

-7.373046875000000000e-02 9.906005859375000000e-02 2.380371093750000000e-03 3.338623046875000000e-02 8.856201171875000000e-02 2.752685546875000000e-02 -4.980468750000000000e-02 -4.660034179687500000e-02 -2.410888671875000000e-02 -7.812500000000000000e-02 -1.202392578125000000e-02 1.727294921875000000e-02 3.228759765625000000e-02 9.637451171875000000e-02 8.355712890625000000e-02 7.757568359375000000e-02 5.328369140625000000e-02 1.123046875000000000e-02 -3.637695312500000000e-02 9.844970703125000000e-02 4.742431640625000000e-02 -7.611083984375000000e-02 9.478759765625000000e-02 5.794525146484375000e-03 1.026000976562500000e-01 -1.428222656250000000e-02 5.615234375000000000e-03 5.926513671875000000e-02 7.696533203125000000e-02 9.747314453125000000e-02 5.865478515625000000e-02 5.841064453125000000e-02 -3.594970703125000000e-02 6.890869140625000000e-02 -8.294677734375000000e-02 2.191162109375000000e-02 6.866455078125000000e-02 5.621337890625000000e-02

-9.161376953125000000e-02 5.157470703125000000e-02 -9.222412109375000000e-02 -4.638671875000000000e-02 7.232666015625000000e-02 9.600830078125000000e-02 -2.990722656250000000e-02 8.232116699218750000e-03 -9.899902343750000000e-02 8.697509765625000000e-02 -1.790523529052734375e-04 -1.024169921875000000e-01 -1.605224609375000000e-02 -3.936767578125000000e-02 1.016235351562500000e-01 9.075927734375000000e-02 -5.444335937500000000e-02 4.876708984375000000e-02 -1.824951171875000000e-02 6.365966796875000000e-02 -2.111816406250000000e-02 -4.739379882812500000e-02 9.820556640625000000e-02 -1.002197265625000000e-01 7.269287109375000000e-02 8.782958984375000000e-02 7.147216796875000000e-02 4.620361328125000000e-02 7.391357421875000000e-02 -2.130126953125000000e-02 3.216552734375000000e-02 -3.314208984375000000e-02 9.783935546875000000e-02 6.671142578125000000e-02 5.145263671875000000e-02 7.196044921875000000e-02 4.034423828125000000e-02 -2.069091796875000000e-02

3.680419921875000000e-02 -9.539794921875000000e-02 6.964111328125000000e-02 -2.983093261718750000e-02 4.876708984375000000e-02 1.963806152343750000e-02 -4.281616210937500000e-02 9.759521484375000000e-02 -5.590820312500000000e-02 9.539794921875000000e-02 -8.837890625000000000e-02 7.513427734375000000e-02 -8.557128906250000000e-02 2.108764648437500000e-02 -3.375244140625000000e-02 -8.642578125000000000e-02 4.217529296875000000e-02 -6.137847900390625000e-03 9.478759765625000000e-02 3.463745117187500000e-02 -5.203247070312500000e-02 1.059722900390625000e-02 -8.184814453125000000e-02 5.926513671875000000e-02 -4.370117187500000000e-02 -8.557128906250000000e-02 4.815673828125000000e-02 -2.061843872070312500e-03 -3.616333007812500000e-02 3.527832031250000000e-02 6.060791015625000000e-02 8.758544921875000000e-02 -2.008056640625000000e-02 2.630233764648437500e-03 8.319091796875000000e-02 -5.044555664062500000e-02 -9.503173828125000000e-02 7.751464843750000000e-02

2.069091796875000000e-02 4.714965820312500000e-02 8.941650390625000000e-02 1.015625000000000000e-01 4.983520507812500000e-02 -2.607727050781250000e-02 1.001586914062500000e-01 2.357482910156250000e-02 1.387786865234375000e-02 -9.820556640625000000e-02 8.569335937500000000e-02 -1.184082031250000000e-02 -5.700683593750000000e-02 2.932739257812500000e-02 9.231567382812500000e-03 1.518249511718750000e-02 -6.347656250000000000e-02 9.497070312500000000e-02 4.031372070312500000e-02 2.532958984375000000e-02 7.550048828125000000e-02 5.606079101562500000e-02 -3.295898437500000000e-03 -3.231811523437500000e-02 9.246826171875000000e-03 -7.373046875000000000e-02 -4.970550537109375000e-03 9.899902343750000000e-02 -1.000366210937500000e-01 -6.268310546875000000e-02 -7.080078125000000000e-02 -4.757690429687500000e-02 2.778625488281250000e-02 -3.393554687500000000e-02 -6.173706054687500000e-02 -2.067565917968750000e-02 -4.519653320312500000e-02 -9.197998046875000000e-02

-1.427459716796875000e-02 -9.100341796875000000e-02 2.015686035156250000e-02 -3.005981445312500000e-02 4.690551757812500000e-02 6.707763671875000000e-02 -6.628417968750000000e-02 -1.424407958984375000e-02 -5.542755126953125000e-03 8.850097656250000000e-03 -6.458282470703125000e-03 -4.077148437500000000e-02 -6.115722656250000000e-02 1.222229003906250000e-02 -5.786132812500000000e-02 8.917236328125000000e-02 -3.831863403320312500e-03 -5.825805664062500000e-02 -5.163574218750000000e-02 -3.726196289062500000e-02 8.795166015625000000e-02 1.596069335937500000e-02 1.890182495117187500e-03 -2.162170410156250000e-02 5.645751953125000000e-02 8.081054687500000000e-02 -9.240722656250000000e-02 4.504394531250000000e-02 1.770019531250000000e-02 3.059387207031250000e-02 3.149414062500000000e-02 8.111572265625000000e-02 -6.005859375000000000e-02 -4.086303710937500000e-02 1.016845703125000000e-01 -9.222412109375000000e-02 -4.544067382812500000e-02 -1.774597167968750000e-02

7.110595703125000000e-02 -6.787109375000000000e-02 -4.602050781250000000e-02 5.065917968750000000e-02 -5.062103271484375000e-03 -6.390380859375000000e-02 6.823730468750000000e-02 -3.259277343750000000e-02 -1.853942871093750000e-03 -5.743408203125000000e-02 7.611083984375000000e-02 -5.545043945312500000e-02 4.525756835937500000e-02 4.266357421875000000e-02 6.793212890625000000e-02 -5.490112304687500000e-02 -3.356933593750000000e-02 8.837890625000000000e-02 -8.697509765625000000e-03 -3.591918945312500000e-02 3.375244140625000000e-02 -5.514526367187500000e-02 -8.422851562500000000e-02 -2.302551269531250000e-02 3.457641601562500000e-02 -4.357910156250000000e-02 1.010131835937500000e-01 1.025390625000000000e-01 -3.176879882812500000e-02 -8.071899414062500000e-03 -3.335571289062500000e-02 -6.469726562500000000e-02 4.095458984375000000e-02 5.197143554687500000e-02 -3.918457031250000000e-02 6.884765625000000000e-02 4.131317138671875000e-03 -3.007507324218750000e-02

9.503173828125000000e-02 -8.477783203125000000e-02 -9.643554687500000000e-02 7.457733154296875000e-03 -7.348632812500000000e-02 -6.890869140625000000e-02 4.553222656250000000e-02 7.452392578125000000e-02 -1.934814453125000000e-02 5.001068115234375000e-03 -6.042480468750000000e-03 3.814697265625000000e-02 -8.135986328125000000e-02 -2.566528320312500000e-02 5.706787109375000000e-02 -9.027099609375000000e-02 8.477783203125000000e-02 4.995727539062500000e-02 3.656005859375000000e-02 6.060791015625000000e-02 6.048583984375000000e-02 -2.758789062500000000e-02 -8.093261718750000000e-02 7.196044921875000000e-02 -1.106262207031250000e-02 -5.404663085937500000e-02 -6.299018859863281250e-04 8.959960937500000000e-02 -7.891845703125000000e-02 -8.758544921875000000e-02 -9.323120117187500000e-03 -6.268310546875000000e-02 3.778076171875000000e-02 8.544921875000000000e-02 2.935791015625000000e-02 -5.508422851562500000e-02 7.171630859375000000e-02 -9.020996093750000000e-02

-6.933593750000000000e-02 4.821777343750000000e-03 -1.002197265625000000e-01 -8.758544921875000000e-02 -7.470703125000000000e-02 -2.650451660156250000e-02 1.401519775390625000e-02 7.025146484375000000e-02 7.147216796875000000e-02 2.850341796875000000e-02 4.193115234375000000e-02 1.043701171875000000e-02 7.415771484375000000e-02 -7.785797119140625000e-03 -2.331542968750000000e-02 9.452819824218750000e-03 6.121826171875000000e-02 -5.624389648437500000e-02 -9.057617187500000000e-02 6.182861328125000000e-02 -3.472900390625000000e-02 -5.926513671875000000e-02 -5.364990234375000000e-02 -3.436279296875000000e-02 -8.801269531250000000e-02 8.294677734375000000e-02 9.819030761718750000e-03 -2.632141113281250000e-02 3.094482421875000000e-02 -8.215332031250000000e-02 -5.603027343750000000e-02 1.849365234375000000e-02 9.466552734375000000e-02 4.400634765625000000e-02 -3.778076171875000000e-02 -1.023864746093750000e-02 8.673095703125000000e-02 -2.954101562500000000e-02

9.161376953125000000e-02 1.000366210937500000e-01 9.381103515625000000e-02 -2.613830566406250000e-02 8.410644531250000000e-02 7.507324218750000000e-02 -3.015136718750000000e-02 8.978271484375000000e-02 -6.106567382812500000e-02 -1.586914062500000000e-02 7.171630859375000000e-02 2.935791015625000000e-02 1.258087158203125000e-02 5.688476562500000000e-02 -2.148437500000000000e-02 1.982116699218750000e-02 -2.832031250000000000e-02 -3.781127929687500000e-02 3.447532653808593750e-04 5.831909179687500000e-02 -5.444335937500000000e-02 -1.097106933593750000e-02 1.773071289062500000e-02 7.012939453125000000e-02 7.086181640625000000e-02 8.193969726562500000e-03 5.836486816406250000e-03 1.008911132812500000e-01 8.099365234375000000e-02 2.836608886718750000e-02 -1.010131835937500000e-01 -8.355712890625000000e-02 -5.786132812500000000e-02 2.731323242187500000e-02 3.710937500000000000e-02 -2.676010131835937500e-03 -1.712036132812500000e-02 -5.364990234375000000e-02

-9.658813476562500000e-03 4.318237304687500000e-03 -5.117797851562500000e-02 -1.008300781250000000e-01 1.560974121093750000e-02 8.935546875000000000e-02 6.549072265625000000e-02 9.246826171875000000e-02 6.439208984375000000e-02 -8.093261718750000000e-02 5.545043945312500000e-02 -4.922485351562500000e-02 9.466552734375000000e-02 -5.550384521484375000e-03 -8.496093750000000000e-02 4.928588867187500000e-02 -1.542663574218750000e-02 -5.395507812500000000e-02 -1.420593261718750000e-02 -2.087402343750000000e-02 6.463623046875000000e-02 -4.604339599609375000e-03 4.382324218750000000e-02 5.831909179687500000e-02 1.747608184814453125e-04 -8.355712890625000000e-02 -8.294677734375000000e-02 6.939697265625000000e-02 -9.924316406250000000e-02 -7.513427734375000000e-02 -2.612304687500000000e-02 3.616333007812500000e-02 -5.947875976562500000e-02 1.635742187500000000e-02 -7.031250000000000000e-02 7.165527343750000000e-02 -7.611083984375000000e-02 9.442138671875000000e-02

2.836608886718750000e-02 7.910156250000000000e-02 -4.010009765625000000e-02 9.686279296875000000e-02 -2.290344238281250000e-02 3.622436523437500000e-02 7.092285156250000000e-02 6.118774414062500000e-02 4.696655273437500000e-02 1.948547363281250000e-02 -6.091308593750000000e-02 -3.076171875000000000e-02 -9.320068359375000000e-02 1.159667968750000000e-02 -1.016235351562500000e-01 -8.215332031250000000e-02 -1.605224609375000000e-02 2.990722656250000000e-02 7.476806640625000000e-02 9.582519531250000000e-02 7.820129394531250000e-03 6.939697265625000000e-02 3.100585937500000000e-02 4.040527343750000000e-02 -2.281188964843750000e-02 4.660034179687500000e-02 1.293182373046875000e-02 4.064941406250000000e-02 5.886077880859375000e-03 -6.106567382812500000e-02 1.323699951171875000e-02 -6.439208984375000000e-02 -1.472473144531250000e-02 -8.734130859375000000e-02 -5.606079101562500000e-02 -2.967834472656250000e-02 1.652526855468750000e-02 -1.745605468750000000e-02

-5.725097656250000000e-02 -9.478759765625000000e-02 8.038330078125000000e-02 2.651214599609375000e-03 7.647705078125000000e-02 -1.322174072265625000e-02 -1.638793945312500000e-02 -6.848144531250000000e-02 -6.994628906250000000e-02 9.002685546875000000e-02 -5.511474609375000000e-02 -7.513427734375000000e-02 6.677246093750000000e-02 -8.605957031250000000e-02 2.325439453125000000e-02 5.062866210937500000e-02 -1.024169921875000000e-01 2.297973632812500000e-02 3.530883789062500000e-02 4.647827148437500000e-02 5.245971679687500000e-02 -1.631164550781250000e-02 9.631347656250000000e-02 8.331298828125000000e-02 -6.799316406250000000e-02 8.172607421875000000e-02 5.218505859375000000e-02 -9.136962890625000000e-02 -3.320312500000000000e-02 1.015625000000000000e-01 7.287597656250000000e-02 4.498291015625000000e-02 3.802490234375000000e-02 -2.143859863281250000e-02 -4.562377929687500000e-02 4.171752929687500000e-02 9.039306640625000000e-02 -9.991455078125000000e-02

2.342224121093750000e-03 -1.081085205078125000e-02 -2.552795410156250000e-02 -3.594970703125000000e-02 -4.760742187500000000e-02 4.733276367187500000e-02 -7.208251953125000000e-02 9.136962890625000000e-02 1.617431640625000000e-02 -9.197998046875000000e-02 -7.696533203125000000e-02 -8.233642578125000000e-02 -3.512573242187500000e-02 -3.793334960937500000e-02 1.013793945312500000e-01 -1.499176025390625000e-02 -1.004638671875000000e-01 4.721069335937500000e-02 5.044555664062500000e-02 -1.686096191406250000e-02 4.083251953125000000e-02 5.212402343750000000e-02 8.068847656250000000e-02 1.422882080078125000e-02 -5.175781250000000000e-02 -5.743408203125000000e-02 5.648803710937500000e-02 -1.152038574218750000e-02 -5.725097656250000000e-02 -8.074951171875000000e-02 -5.841064453125000000e-02 3.656005859375000000e-02 -1.007690429687500000e-01 1.713562011718750000e-02 4.794311523437500000e-02 8.776855468750000000e-02 -6.530761718750000000e-02 -9.252929687500000000e-02

8.514404296875000000e-02 -6.260871887207031250e-04 -5.718231201171875000e-03 -5.099487304687500000e-02 -1.012573242187500000e-01 1.419067382812500000e-02 -9.899902343750000000e-02 4.812622070312500000e-02 9.606933593750000000e-02 3.228759765625000000e-02 -6.210327148437500000e-03 -7.513427734375000000e-02 -1.586914062500000000e-02 2.670288085937500000e-02 -1.684570312500000000e-02 -8.416748046875000000e-02 -1.000366210937500000e-01 2.911376953125000000e-02 4.000854492187500000e-02 9.503173828125000000e-02 -5.984497070312500000e-02 -5.828857421875000000e-02 -8.056640625000000000e-02 -6.042480468750000000e-02 1.991271972656250000e-02 4.559326171875000000e-02 -5.303955078125000000e-02 5.117797851562500000e-02 -1.467132568359375000e-02 -8.557128906250000000e-02 -5.634307861328125000e-03 5.307006835937500000e-02 -2.542114257812500000e-02 3.054809570312500000e-02 7.025146484375000000e-02 5.374145507812500000e-02 -1.123046875000000000e-02 1.027679443359375000e-02

-5.181884765625000000e-02 7.635498046875000000e-02 -1.138305664062500000e-02 -2.021789550781250000e-02 9.417724609375000000e-02 3.791809082031250000e-03 6.860351562500000000e-02 3.527832031250000000e-02 4.461669921875000000e-02 3.350830078125000000e-02 8.721923828125000000e-02 6.549072265625000000e-02 -4.479980468750000000e-02 6.927490234375000000e-02 9.503173828125000000e-02 -6.750488281250000000e-02 -4.962158203125000000e-02 1.177978515625000000e-02 -4.110717773437500000e-02 -3.234863281250000000e-02 -5.081176757812500000e-02 -3.283691406250000000e-02 -3.033447265625000000e-02 -4.000854492187500000e-02 -1.805305480957031250e-03 9.515380859375000000e-02 4.623413085937500000e-02 2.174377441406250000e-02 8.171081542968750000e-03 5.145263671875000000e-02 1.004638671875000000e-01 2.500915527343750000e-02 -2.519226074218750000e-02 -1.248931884765625000e-02 3.065490722656250000e-02 1.449584960937500000e-02 -3.356933593750000000e-02 -7.213592529296875000e-03

5.206298828125000000e-02 -4.699707031250000000e-02 -6.923675537109375000e-03 9.857177734375000000e-02 -2.207946777343750000e-02 8.654785156250000000e-02 -4.870605468750000000e-02 -3.079223632812500000e-02 8.325195312500000000e-02 8.355712890625000000e-02 1.013793945312500000e-01 5.401611328125000000e-02 2.409362792968750000e-02 -1.744079589843750000e-02 -9.811401367187500000e-03 -4.632568359375000000e-02 7.415771484375000000e-02 -5.343627929687500000e-02 -7.189941406250000000e-02 -9.521484375000000000e-02 -1.220703125000000000e-03 -2.566528320312500000e-02 -4.214477539062500000e-02 -8.709716796875000000e-02 -3.044128417968750000e-02 -2.850341796875000000e-02 -2.536010742187500000e-02 -4.443359375000000000e-02 2.064514160156250000e-02 9.722900390625000000e-02 3.125000000000000000e-02 -2.595520019531250000e-02 7.415771484375000000e-02 -8.355712890625000000e-02 -1.126861572265625000e-02 -5.505371093750000000e-02 5.398559570312500000e-02 8.441162109375000000e-02

2.754211425781250000e-02 -1.570129394531250000e-02 -8.892822265625000000e-02 -7.759094238281250000e-03 -8.929443359375000000e-02 -8.068847656250000000e-02 -1.715087890625000000e-02 3.558349609375000000e-02 5.346679687500000000e-02 -2.521514892578125000e-03 8.746337890625000000e-02 7.147216796875000000e-02 7.025146484375000000e-02 -7.480621337890625000e-03 -6.185913085937500000e-02 -5.960083007812500000e-02 4.400634765625000000e-02 3.332519531250000000e-02 1.008300781250000000e-01 1.811027526855468750e-03 -1.016235351562500000e-01 8.013916015625000000e-02 8.491516113281250000e-03 -3.634643554687500000e-02 4.522705078125000000e-02 -8.215332031250000000e-02 7.574462890625000000e-02 -2.746582031250000000e-02 -9.729003906250000000e-02 3.433227539062500000e-02 -1.991271972656250000e-02 -4.559326171875000000e-02 4.534912109375000000e-02 6.420135498046875000e-03 -6.811523437500000000e-02 -5.322265625000000000e-02 -2.960205078125000000e-02 5.660057067871093750e-04

6.488037109375000000e-02 -8.587646484375000000e-02 4.342651367187500000e-02 2.999877929687500000e-02 -2.847290039062500000e-02 1.016235351562500000e-01 -6.002807617187500000e-02 2.500534057617187500e-03 4.330444335937500000e-02 7.135009765625000000e-02 -9.179687500000000000e-02 9.765625000000000000e-04 2.934265136718750000e-02 3.900146484375000000e-02 -7.470703125000000000e-02 -9.771728515625000000e-02 2.171325683593750000e-02 -5.282592773437500000e-02 3.231811523437500000e-02 6.292724609375000000e-02 -4.739379882812500000e-02 6.591796875000000000e-02 9.594726562500000000e-02 6.518554687500000000e-02 1.916503906250000000e-02 8.056640625000000000e-03 3.713989257812500000e-02 6.458282470703125000e-03 -6.597900390625000000e-02 -7.031250000000000000e-02 3.704833984375000000e-02 -6.481933593750000000e-02 -7.640838623046875000e-03 -2.340316772460937500e-03 1.022338867187500000e-01 9.924316406250000000e-02 -1.370239257812500000e-02 -1.002197265625000000e-01

-6.933593750000000000e-02 9.216308593750000000e-03 -5.383300781250000000e-02 8.721923828125000000e-02 -6.005859375000000000e-02 2.386474609375000000e-02 -2.832031250000000000e-02 -1.014404296875000000e-01 5.401611328125000000e-02 -6.750488281250000000e-02 7.019042968750000000e-03 9.344482421875000000e-02 -2.691650390625000000e-02 7.977294921875000000e-02 -9.844970703125000000e-02 7.025146484375000000e-02 4.656982421875000000e-02 -6.066894531250000000e-02 1.605224609375000000e-02 4.718017578125000000e-02 -9.643554687500000000e-03 -4.217529296875000000e-02 -3.515625000000000000e-02 5.426025390625000000e-02 -9.216308593750000000e-03 9.283447265625000000e-02 2.691650390625000000e-02 -3.411865234375000000e-02 3.839492797851562500e-03 5.767822265625000000e-02 -6.045532226562500000e-02 -5.383300781250000000e-02 -1.928710937500000000e-02 1.557350158691406250e-03 -1.220703125000000000e-03 -8.520507812500000000e-02 -1.885986328125000000e-02 -4.394531250000000000e-03

-3.918457031250000000e-02 -7.128906250000000000e-02 -3.875732421875000000e-02 -1.006469726562500000e-01 7.147216796875000000e-02 -7.891845703125000000e-02 -5.825805664062500000e-02 -3.155517578125000000e-02 -6.427001953125000000e-02 -9.381103515625000000e-02 -9.020996093750000000e-02 6.341552734375000000e-02 4.058837890625000000e-02 -5.120849609375000000e-02 -9.619140625000000000e-02 -9.539794921875000000e-02 -4.318237304687500000e-02 -3.936767578125000000e-02 6.402587890625000000e-02 2.386474609375000000e-02 1.647949218750000000e-02 8.917236328125000000e-02 -1.770019531250000000e-02 2.667236328125000000e-02 2.410888671875000000e-02 4.742431640625000000e-02 -4.116821289062500000e-02 -2.227783203125000000e-02 9.466552734375000000e-02 9.442138671875000000e-02 -4.058837890625000000e-02 7.855224609375000000e-02 -2.453613281250000000e-02 7.733154296875000000e-02 -8.856201171875000000e-02 -9.057617187500000000e-02 -5.584716796875000000e-02 -2.349853515625000000e-02

-9.558105468750000000e-02 3.973388671875000000e-02 3.997802734375000000e-02 -4.840087890625000000e-02 7.647705078125000000e-02 8.819580078125000000e-03 -5.145263671875000000e-02 -1.687622070312500000e-02 1.045989990234375000e-02 -7.293701171875000000e-02 3.851318359375000000e-02 3.417968750000000000e-03 9.747314453125000000e-02 4.754638671875000000e-02 4.559326171875000000e-02 6.231689453125000000e-02 -1.927185058593750000e-02 5.706787109375000000e-02 -8.978271484375000000e-02 -7.952880859375000000e-02 4.277229309082031250e-04 1.633644104003906250e-03 -3.852844238281250000e-03 -2.191162109375000000e-02 7.995605468750000000e-02 -7.775878906250000000e-02 3.509521484375000000e-02 -9.136962890625000000e-02 4.119873046875000000e-02 -9.423828125000000000e-02 2.790832519531250000e-02 -9.704589843750000000e-02 -6.933593750000000000e-02 -6.652832031250000000e-02 -5.023193359375000000e-02 2.349853515625000000e-02 1.505279541015625000e-02 6.512451171875000000e-02

