-5.502319335937500000e-02 6.329345703125000000e-02 8.551025390625000000e-02 4.754638671875000000e-02 -3.574371337890625000e-03 6.683349609375000000e-02 -7.293701171875000000e-02 -2.818298339843750000e-02 -5.541992187500000000e-02 -1.385498046875000000e-02 3.570556640625000000e-02 -8.636474609375000000e-02 7.110595703125000000e-02 -4.844665527343750000e-03 -3.778076171875000000e-02 3.594970703125000000e-02 6.268310546875000000e-02 -1.910400390625000000e-02 4.937744140625000000e-02 6.652832031250000000e-03 6.170654296875000000e-02 -3.753662109375000000e-02 -7.794189453125000000e-02 6.451416015625000000e-02 -1.702880859375000000e-02 5.865478515625000000e-02 8.111572265625000000e-02 4.119873046875000000e-02 9.344482421875000000e-02 8.892822265625000000e-02 9.173583984375000000e-02 -1.585388183593750000e-02 -1.303100585937500000e-02 -4.476928710937500000e-02 8.258056640625000000e-02 6.446838378906250000e-04 3.056335449218750000e-02 -1.907348632812500000e-02

-8.996582031250000000e-02 6.573486328125000000e-02 9.405517578125000000e-02 5.767822265625000000e-02 -3.515625000000000000e-02 -7.312011718750000000e-02 4.211425781250000000e-03 -6.872558593750000000e-02 9.564208984375000000e-02 -9.197998046875000000e-02 -1.971435546875000000e-02 -8.654785156250000000e-02 -8.477783203125000000e-02 -2.026367187500000000e-02 6.292724609375000000e-02 9.942626953125000000e-02 3.057861328125000000e-02 8.917236328125000000e-02 -2.691650390625000000e-02 -5.502319335937500000e-02 -1.202392578125000000e-02 1.568603515625000000e-02 9.405517578125000000e-02 1.022338867187500000e-01 1.211166381835937500e-03 2.069091796875000000e-02 -5.303955078125000000e-02 6.243896484375000000e-02 1.165771484375000000e-02 -7.808685302734375000e-03 -3.472900390625000000e-02 1.022338867187500000e-01 2.166748046875000000e-02 -1.367187500000000000e-02 -9.423828125000000000e-02 9.295654296875000000e-02 9.857177734375000000e-02 -3.112792968750000000e-02

5.364990234375000000e-02 7.208251953125000000e-02 -3.050231933593750000e-02 9.509277343750000000e-02 -1.083374023437500000e-02 -9.307861328125000000e-02 7.183837890625000000e-02 -4.669189453125000000e-02 -2.250671386718750000e-02 -7.531738281250000000e-02 3.890991210937500000e-02 -6.042480468750000000e-03 -3.747558593750000000e-02 4.122924804687500000e-02 5.120849609375000000e-02 3.765869140625000000e-02 -8.856201171875000000e-02 5.383300781250000000e-02 -1.523494720458984375e-04 -6.469726562500000000e-02 -1.727294921875000000e-02 5.212402343750000000e-02 -3.356933593750000000e-02 6.286621093750000000e-02 -9.536743164062500000e-06 2.606201171875000000e-02 9.466552734375000000e-02 4.360961914062500000e-02 6.744384765625000000e-02 1.861572265625000000e-02 1.605224609375000000e-02 2.128601074218750000e-02 -9.082031250000000000e-02 -5.337524414062500000e-02 7.885742187500000000e-02 3.092956542968750000e-02 7.324218750000000000e-02 -8.880615234375000000e-02

5.645751953125000000e-02 1.794433593750000000e-02 2.471923828125000000e-02 1.780700683593750000e-02 7.110595703125000000e-02 -6.341552734375000000e-02 -1.329803466796875000e-02 -1.319122314453125000e-02 5.145263671875000000e-02 -6.416320800781250000e-03 6.179809570312500000e-02 8.856201171875000000e-02 -7.305908203125000000e-02 -5.834960937500000000e-02 8.355712890625000000e-02 4.455566406250000000e-03 -3.855228424072265625e-04 9.289550781250000000e-02 -2.082824707031250000e-03 4.925537109375000000e-02 -7.873535156250000000e-02 8.428955078125000000e-02 3.408813476562500000e-02 6.024169921875000000e-02 -4.638671875000000000e-03 6.048583984375000000e-02 2.093315124511718750e-04 3.958129882812500000e-02 -6.187438964843750000e-03 1.382446289062500000e-02 8.306884765625000000e-02 3.976440429687500000e-02 9.478759765625000000e-02 -8.355712890625000000e-02 -4.382324218750000000e-02 -6.842041015625000000e-02 -2.613830566406250000e-02 -9.082031250000000000e-02

2.496337890625000000e-02 3.411865234375000000e-02 6.463623046875000000e-02 -4.721069335937500000e-02 4.718017578125000000e-02 -4.821777343750000000e-02 -2.593994140625000000e-02 -2.691650390625000000e-02 -8.837890625000000000e-02 -1.507568359375000000e-02 -1.989746093750000000e-02 7.452392578125000000e-02 -7.006835937500000000e-02 7.891845703125000000e-02 8.135986328125000000e-02 -6.408691406250000000e-02 1.568603515625000000e-02 -7.348632812500000000e-02 2.850341796875000000e-02 -2.850341796875000000e-02 -2.307128906250000000e-02 -4.879760742187500000e-02 -5.664062500000000000e-02 -1.008300781250000000e-01 -4.598999023437500000e-02 -3.314208984375000000e-02 9.222412109375000000e-02 -1.885986328125000000e-02 8.270263671875000000e-02 -2.270507812500000000e-02 9.637451171875000000e-02 -8.398437500000000000e-02 -6.828308105468750000e-03 4.876708984375000000e-02 -9.478759765625000000e-02 2.789306640625000000e-02 3.973388671875000000e-02 3.814697265625000000e-02

4.376220703125000000e-02 9.857177734375000000e-02 5.218505859375000000e-02 1.087188720703125000e-02 3.460693359375000000e-02 9.942626953125000000e-02 1.104736328125000000e-02 -4.724121093750000000e-02 -8.959960937500000000e-02 -1.788330078125000000e-02 -3.849029541015625000e-03 1.403808593750000000e-02 5.780029296875000000e-02 5.841064453125000000e-02 -9.844970703125000000e-02 -7.629394531250000000e-02 -6.488037109375000000e-02 5.621337890625000000e-02 -5.966186523437500000e-02 -6.207275390625000000e-02 -5.886840820312500000e-02 -8.416748046875000000e-02 -4.024505615234375000e-03 -6.689453125000000000e-02 -7.092285156250000000e-02 4.473876953125000000e-02 -2.569580078125000000e-02 -2.088928222656250000e-02 -6.268310546875000000e-02 -5.523681640625000000e-02 -6.286621093750000000e-02 7.537841796875000000e-02 -1.525115966796875000e-02 8.477783203125000000e-02 8.221435546875000000e-02 2.113342285156250000e-02 2.349853515625000000e-02 -7.293701171875000000e-02

-2.593994140625000000e-02 -8.575439453125000000e-02 5.142211914062500000e-02 2.770996093750000000e-02 9.277343750000000000e-02 5.889892578125000000e-02 -8.160400390625000000e-02 -4.766845703125000000e-02 1.544952392578125000e-02 -4.541015625000000000e-02 -6.195068359375000000e-02 -6.549072265625000000e-02 5.191802978515625000e-03 -8.050537109375000000e-02 -7.153320312500000000e-02 -3.396606445312500000e-02 7.391357421875000000e-02 5.987548828125000000e-02 -8.898925781250000000e-02 5.563354492187500000e-02 7.830810546875000000e-02 9.417724609375000000e-02 -9.710693359375000000e-02 -7.031250000000000000e-02 -8.288574218750000000e-02 1.623535156250000000e-02 -5.984497070312500000e-02 -5.804443359375000000e-02 -4.339599609375000000e-02 9.155273437500000000e-02 1.380157470703125000e-02 2.264404296875000000e-02 9.452819824218750000e-03 -4.559326171875000000e-02 -6.311035156250000000e-02 4.092407226562500000e-02 9.162902832031250000e-03 6.292724609375000000e-02

9.222412109375000000e-02 8.892822265625000000e-02 -8.642578125000000000e-02 -8.312988281250000000e-02 -1.803588867187500000e-02 3.176879882812500000e-02 8.361816406250000000e-02 -9.741210937500000000e-02 -9.222412109375000000e-02 -1.710510253906250000e-02 -5.291748046875000000e-02 -5.584716796875000000e-02 -4.876708984375000000e-02 5.334472656250000000e-02 9.503173828125000000e-02 -9.820556640625000000e-02 9.564208984375000000e-02 2.900695800781250000e-02 1.019897460937500000e-01 -2.008056640625000000e-02 -4.217529296875000000e-02 9.742736816406250000e-03 -1.458740234375000000e-02 -6.329345703125000000e-02 -7.647705078125000000e-02 -8.689880371093750000e-03 5.377197265625000000e-02 -1.596069335937500000e-02 7.507324218750000000e-02 9.967041015625000000e-02 4.956054687500000000e-02 -8.190917968750000000e-02 -1.024169921875000000e-01 -7.885742187500000000e-02 1.664733886718750000e-02 7.971191406250000000e-02 -4.141235351562500000e-02 -9.893798828125000000e-02

-2.131652832031250000e-02 -2.461671829223632812e-05 2.598571777343750000e-02 -8.300781250000000000e-02 4.660034179687500000e-02 9.118652343750000000e-02 -3.369140625000000000e-02 7.440185546875000000e-02 -2.932548522949218750e-04 5.279541015625000000e-02 1.707077026367187500e-04 -6.469726562500000000e-02 8.056640625000000000e-02 8.628845214843750000e-03 9.063720703125000000e-02 -2.815246582031250000e-03 -9.277343750000000000e-02 -1.009521484375000000e-01 2.236938476562500000e-02 -3.411865234375000000e-02 -7.348632812500000000e-02 8.026123046875000000e-02 6.584167480468750000e-03 -5.960083007812500000e-02 -8.598327636718750000e-03 7.611083984375000000e-02 -7.916259765625000000e-02 6.359863281250000000e-02 -7.801055908203125000e-03 -5.767822265625000000e-03 1.089477539062500000e-02 -2.745056152343750000e-02 -2.508544921875000000e-02 4.165649414062500000e-02 -9.442138671875000000e-02 2.357482910156250000e-02 9.497070312500000000e-02 5.679321289062500000e-02

-1.366424560546875000e-02 6.243896484375000000e-02 -2.975463867187500000e-02 7.183837890625000000e-02 3.466796875000000000e-02 -8.782958984375000000e-02 8.471679687500000000e-02 -6.683349609375000000e-02 2.703857421875000000e-02 -7.293701171875000000e-02 8.789062500000000000e-02 -9.863281250000000000e-02 9.307861328125000000e-02 -5.519866943359375000e-03 9.100341796875000000e-02 -2.343750000000000000e-02 4.425048828125000000e-02 -3.497314453125000000e-02 -4.879760742187500000e-02 1.004028320312500000e-01 8.441162109375000000e-02 9.552001953125000000e-03 -5.462646484375000000e-03 -7.116699218750000000e-02 6.689453125000000000e-02 7.305908203125000000e-02 6.683349609375000000e-02 8.050537109375000000e-02 3.494262695312500000e-02 -6.695556640625000000e-02 7.104492187500000000e-02 -1.026611328125000000e-01 -7.232666015625000000e-02 3.906250000000000000e-02 -5.484008789062500000e-02 4.208374023437500000e-02 3.909301757812500000e-02 -4.156494140625000000e-02

-5.361938476562500000e-02 -3.173828125000000000e-02 -1.719665527343750000e-02 5.878448486328125000e-03 2.326965332031250000e-02 8.551025390625000000e-02 -6.555175781250000000e-02 -1.007080078125000000e-01 4.284667968750000000e-02 -4.339599609375000000e-02 4.089355468750000000e-02 2.569580078125000000e-02 4.095458984375000000e-02 8.441162109375000000e-02 -2.149581909179687500e-03 8.215332031250000000e-02 4.684448242187500000e-02 -1.171875000000000000e-02 -3.114318847656250000e-02 3.555297851562500000e-02 -2.929687500000000000e-02 -1.444244384765625000e-02 -6.488037109375000000e-02 3.778076171875000000e-02 2.551269531250000000e-02 -1.831054687500000000e-03 8.197021484375000000e-02 -1.452636718750000000e-02 -2.595520019531250000e-02 -4.699707031250000000e-02 8.953857421875000000e-02 1.596450805664062500e-03 3.851318359375000000e-02 -9.576416015625000000e-02 1.006469726562500000e-01 -7.476806640625000000e-02 8.441162109375000000e-02 4.193115234375000000e-02

-7.891845703125000000e-02 -4.257202148437500000e-02 8.074951171875000000e-02 -3.436279296875000000e-02 -1.165771484375000000e-02 -6.530761718750000000e-02 4.595947265625000000e-02 -9.680175781250000000e-02 -3.295898437500000000e-02 -8.856201171875000000e-02 -9.844970703125000000e-02 5.926513671875000000e-02 8.575439453125000000e-02 -8.215332031250000000e-02 -4.861450195312500000e-02 4.821777343750000000e-03 -4.037475585937500000e-02 5.523681640625000000e-02 3.411865234375000000e-02 3.619384765625000000e-02 -2.209472656250000000e-02 -1.387786865234375000e-02 6.329345703125000000e-02 6.488037109375000000e-02 -9.179687500000000000e-02 3.289794921875000000e-02 -6.445312500000000000e-02 9.942626953125000000e-02 2.593994140625000000e-02 6.179809570312500000e-04 -5.221557617187500000e-02 8.258056640625000000e-02 -2.752685546875000000e-02 -4.980468750000000000e-02 6.512451171875000000e-02 5.487060546875000000e-02 -7.812500000000000000e-02 -3.698730468750000000e-02

6.146240234375000000e-02 -5.203247070312500000e-02 4.595947265625000000e-02 -5.877685546875000000e-02 -7.592773437500000000e-02 -3.219604492187500000e-02 6.335449218750000000e-02 -9.423828125000000000e-02 3.372192382812500000e-02 -6.106567382812500000e-02 2.525329589843750000e-02 3.253173828125000000e-02 7.049560546875000000e-02 -1.049995422363281250e-03 -3.955078125000000000e-02 -4.104614257812500000e-03 9.661865234375000000e-02 7.647705078125000000e-02 -8.654785156250000000e-02 -8.251953125000000000e-02 -7.312011718750000000e-02 -9.338378906250000000e-02 -1.029052734375000000e-01 -3.007507324218750000e-02 -3.427124023437500000e-02 -6.323242187500000000e-02 4.119873046875000000e-02 -5.706787109375000000e-02 3.680419921875000000e-02 4.458618164062500000e-02 -6.530761718750000000e-02 8.551025390625000000e-02 -5.081176757812500000e-02 -6.005859375000000000e-02 5.117797851562500000e-02 -1.118469238281250000e-02 3.347778320312500000e-02 -6.311035156250000000e-02

-2.026367187500000000e-02 -4.919433593750000000e-02 1.197814941406250000e-02 7.720947265625000000e-02 4.688262939453125000e-03 -2.853393554687500000e-02 -1.901245117187500000e-02 -8.941650390625000000e-02 4.116821289062500000e-02 -9.741210937500000000e-02 8.270263671875000000e-02 6.835937500000000000e-03 -8.521080017089843750e-04 -5.453491210937500000e-02 -5.703735351562500000e-02 2.597045898437500000e-02 4.000854492187500000e-02 2.127075195312500000e-02 4.687500000000000000e-02 -4.443359375000000000e-02 -3.216552734375000000e-02 -8.770751953125000000e-02 -5.413818359375000000e-02 -2.581787109375000000e-02 6.896972656250000000e-02 7.147216796875000000e-02 -6.323242187500000000e-02 -6.903076171875000000e-02 8.532714843750000000e-02 -2.037048339843750000e-03 4.336547851562500000e-02 -1.924133300781250000e-02 -1.742553710937500000e-02 -1.541137695312500000e-02 -9.301757812500000000e-02 4.458618164062500000e-02 3.167724609375000000e-02 5.422973632812500000e-02

6.207275390625000000e-02 2.723693847656250000e-03 6.323242187500000000e-02 9.906005859375000000e-02 5.722045898437500000e-02 2.810668945312500000e-02 -9.625244140625000000e-02 1.280212402343750000e-02 -1.701354980468750000e-03 6.634521484375000000e-02 -1.002807617187500000e-01 -2.832031250000000000e-02 7.177734375000000000e-02 -4.501342773437500000e-02 -4.707336425781250000e-03 -7.055664062500000000e-02 -6.750488281250000000e-02 -2.976989746093750000e-02 -8.312988281250000000e-02 7.818603515625000000e-02 8.502197265625000000e-02 -4.351806640625000000e-02 -8.964538574218750000e-04 6.313323974609375000e-03 2.676391601562500000e-02 2.647399902343750000e-02 -8.337402343750000000e-02 9.680175781250000000e-02 5.517578125000000000e-02 3.894042968750000000e-02 1.834106445312500000e-02 2.781677246093750000e-02 -4.464721679687500000e-02 6.750488281250000000e-02 7.324218750000000000e-02 4.089355468750000000e-02 -2.868652343750000000e-02 -9.472656250000000000e-02

8.599853515625000000e-02 5.477905273437500000e-03 6.622314453125000000e-02 9.777832031250000000e-02 -3.829956054687500000e-03 6.030273437500000000e-02 -1.810073852539062500e-03 5.435180664062500000e-02 4.580688476562500000e-02 -8.697509765625000000e-02 1.232910156250000000e-02 7.574462890625000000e-02 -6.683349609375000000e-02 -9.466552734375000000e-02 6.024169921875000000e-02 1.022949218750000000e-01 -5.655288696289062500e-04 2.464294433593750000e-02 -1.016235351562500000e-01 1.010131835937500000e-01 1.026000976562500000e-01 5.688476562500000000e-02 -7.891845703125000000e-02 7.537841796875000000e-03 -8.459472656250000000e-02 -7.751464843750000000e-02 -2.551269531250000000e-02 -6.250000000000000000e-02 -5.108642578125000000e-02 -7.940673828125000000e-02 5.764770507812500000e-02 2.052307128906250000e-02 1.464843750000000000e-02 9.729003906250000000e-02 -7.128906250000000000e-02 5.577087402343750000e-03 -3.768920898437500000e-02 8.666992187500000000e-02

-2.850341796875000000e-02 -7.672119140625000000e-02 1.020507812500000000e-01 2.067565917968750000e-02 -1.399040222167968750e-03 6.359863281250000000e-02 -6.958007812500000000e-02 -6.085205078125000000e-02 -9.436035156250000000e-02 -8.758544921875000000e-02 6.524658203125000000e-02 9.643554687500000000e-03 -7.904052734375000000e-02 -9.143066406250000000e-02 6.109619140625000000e-02 4.910278320312500000e-02 -3.839111328125000000e-02 4.782104492187500000e-02 -1.472473144531250000e-02 1.160430908203125000e-02 -3.591918945312500000e-02 2.232360839843750000e-02 8.703613281250000000e-02 3.945922851562500000e-02 -7.205963134765625000e-03 -7.330322265625000000e-02 8.782958984375000000e-02 8.477783203125000000e-02 -3.375244140625000000e-02 -1.570129394531250000e-02 1.374816894531250000e-02 -9.417724609375000000e-02 -2.874755859375000000e-02 -8.715820312500000000e-02 2.016067504882812500e-03 1.496124267578125000e-02 -8.215332031250000000e-02 6.320953369140625000e-03

4.376220703125000000e-02 -9.338378906250000000e-02 -3.429412841796875000e-03 -1.808166503906250000e-02 -7.031250000000000000e-02 7.208251953125000000e-02 6.292724609375000000e-02 1.290893554687500000e-02 7.434082031250000000e-02 6.512451171875000000e-02 -6.202697753906250000e-03 -9.942626953125000000e-02 -4.739379882812500000e-02 3.842163085937500000e-02 5.828857421875000000e-03 1.198577880859375000e-02 -2.471923828125000000e-02 3.070068359375000000e-02 8.599853515625000000e-02 -1.245117187500000000e-02 -8.398437500000000000e-02 -5.126953125000000000e-02 4.620361328125000000e-02 -2.629089355468750000e-02 7.452392578125000000e-02 8.422851562500000000e-03 -8.801269531250000000e-02 -4.162597656250000000e-02 -2.931213378906250000e-02 9.478759765625000000e-02 -9.558105468750000000e-02 -3.128051757812500000e-02 4.022216796875000000e-02 9.283447265625000000e-02 9.039306640625000000e-02 4.211425781250000000e-02 -2.551269531250000000e-02 1.263427734375000000e-02

5.767822265625000000e-02 -2.818298339843750000e-02 -7.934570312500000000e-02 -1.204681396484375000e-02 -1.014404296875000000e-01 5.444335937500000000e-02 3.431320190429687500e-03 -3.277587890625000000e-02 -8.886718750000000000e-02 -4.638671875000000000e-02 -7.153320312500000000e-02 6.042480468750000000e-03 -5.212402343750000000e-02 -1.204681396484375000e-02 -1.901245117187500000e-02 -3.384399414062500000e-02 -2.345275878906250000e-02 -4.165649414062500000e-02 -4.333496093750000000e-02 9.539794921875000000e-02 8.319091796875000000e-02 7.531738281250000000e-02 -5.202293395996093750e-04 1.116180419921875000e-02 -8.850097656250000000e-02 -7.556152343750000000e-02 -3.472900390625000000e-02 -3.120422363281250000e-02 -2.310180664062500000e-02 -4.418945312500000000e-02 -7.110595703125000000e-02 2.534389495849609375e-04 3.515625000000000000e-02 7.928466796875000000e-02 1.003417968750000000e-01 -5.007934570312500000e-02 -6.707763671875000000e-02 -4.251098632812500000e-02

2.471923828125000000e-02 -5.624389648437500000e-02 -3.765869140625000000e-02 -1.919555664062500000e-02 -2.069091796875000000e-02 3.491210937500000000e-02 7.482910156250000000e-02 1.021728515625000000e-01 -7.489013671875000000e-02 -8.538818359375000000e-02 -3.472900390625000000e-02 -1.489257812500000000e-02 6.524658203125000000e-02 8.056640625000000000e-02 3.778076171875000000e-02 2.415466308593750000e-02 -4.375457763671875000e-03 5.996704101562500000e-02 7.879638671875000000e-02 2.593994140625000000e-02 -6.750488281250000000e-02 5.944824218750000000e-02 9.295654296875000000e-02 -5.142211914062500000e-02 3.979492187500000000e-02 5.096435546875000000e-02 -1.306152343750000000e-02 3.817749023437500000e-02 -7.820129394531250000e-03 1.951599121093750000e-02 -3.921508789062500000e-02 6.390380859375000000e-02 -2.553939819335937500e-03 -8.573532104492187500e-04 -4.684448242187500000e-02 2.909851074218750000e-02 3.775024414062500000e-02 -5.700683593750000000e-02

-5.563354492187500000e-02 3.228759765625000000e-02 -5.413818359375000000e-02 1.989746093750000000e-02 -3.247070312500000000e-02 3.762817382812500000e-02 -1.030883789062500000e-01 -6.359863281250000000e-02 6.274414062500000000e-02 -7.489013671875000000e-02 -2.394104003906250000e-02 -5.615234375000000000e-03 -5.715942382812500000e-02 6.828308105468750000e-03 1.910400390625000000e-02 -7.922363281250000000e-02 1.568603515625000000e-02 3.494262695312500000e-02 1.834106445312500000e-02 -3.591918945312500000e-02 -4.058837890625000000e-02 9.753417968750000000e-02 7.232666015625000000e-02 8.319091796875000000e-02 -8.447265625000000000e-02 -7.727050781250000000e-02 3.071594238281250000e-02 5.611419677734375000e-03 9.460449218750000000e-02 3.280639648437500000e-02 -1.705932617187500000e-02 -3.173828125000000000e-02 8.575439453125000000e-02 -1.020050048828125000e-02 9.841918945312500000e-03 -6.097412109375000000e-02 -7.049560546875000000e-02 -7.397460937500000000e-02

-1.631164550781250000e-02 -1.164245605468750000e-02 1.009521484375000000e-01 -9.088134765625000000e-02 -1.869201660156250000e-02 5.776977539062500000e-02 -5.514526367187500000e-02 2.101898193359375000e-03 6.610107421875000000e-02 -1.989746093750000000e-02 1.325225830078125000e-02 -4.318237304687500000e-02 -1.008300781250000000e-01 4.632568359375000000e-02 -1.004638671875000000e-01 9.490966796875000000e-03 1.034545898437500000e-02 -6.823730468750000000e-02 -7.672119140625000000e-02 5.145263671875000000e-02 -7.495117187500000000e-02 1.261138916015625000e-02 3.762817382812500000e-02 -6.080627441406250000e-03 -9.490966796875000000e-02 -4.580688476562500000e-02 8.392333984375000000e-02 5.859375000000000000e-02 6.384277343750000000e-02 5.361938476562500000e-02 7.928466796875000000e-02 1.009521484375000000e-01 -3.048706054687500000e-02 6.036376953125000000e-02 4.489135742187500000e-02 -6.732177734375000000e-02 -7.916259765625000000e-02 5.636596679687500000e-02

3.232955932617187500e-03 1.342773437500000000e-02 -2.532958984375000000e-02 -9.179687500000000000e-02 8.795166015625000000e-02 7.269287109375000000e-02 3.167724609375000000e-02 4.779052734375000000e-02 4.498291015625000000e-02 -5.926513671875000000e-02 -3.613281250000000000e-02 5.157470703125000000e-02 4.367828369140625000e-04 -9.582519531250000000e-02 -5.944824218750000000e-02 3.594970703125000000e-02 -3.558349609375000000e-02 -3.717041015625000000e-02 -8.679199218750000000e-02 -6.811523437500000000e-02 -9.960937500000000000e-02 6.839752197265625000e-03 -3.843307495117187500e-03 2.996826171875000000e-02 2.508544921875000000e-02 7.305908203125000000e-02 3.900146484375000000e-02 9.760856628417968750e-04 -6.246948242187500000e-02 4.278564453125000000e-02 -6.994628906250000000e-02 -3.875732421875000000e-02 2.752685546875000000e-02 8.172607421875000000e-02 -3.814697265625000000e-02 9.452819824218750000e-03 -2.850341796875000000e-02 -2.429199218750000000e-02

9.283447265625000000e-02 6.915283203125000000e-02 1.148986816406250000e-02 -8.056640625000000000e-02 9.442138671875000000e-02 9.445190429687500000e-03 -1.060485839843750000e-02 -8.801269531250000000e-02 7.452392578125000000e-02 -4.339599609375000000e-02 -4.962158203125000000e-02 -1.004638671875000000e-01 -7.672119140625000000e-02 7.208251953125000000e-02 9.808349609375000000e-02 -5.523681640625000000e-02 1.192092895507812500e-06 -5.926513671875000000e-02 1.647949218750000000e-02 5.767822265625000000e-02 -4.211425781250000000e-03 1.306152343750000000e-02 9.136962890625000000e-02 9.295654296875000000e-02 -2.027893066406250000e-02 1.489257812500000000e-02 5.841064453125000000e-02 -8.758544921875000000e-02 -6.811523437500000000e-02 1.545715332031250000e-02 1.226806640625000000e-02 -2.008056640625000000e-02 -1.043701171875000000e-02 -8.209228515625000000e-03 3.964900970458984375e-04 -1.165771484375000000e-02 8.453369140625000000e-02 -5.163574218750000000e-02

1.971435546875000000e-02 4.718017578125000000e-02 -9.924316406250000000e-02 -5.081176757812500000e-02 4.681396484375000000e-02 -3.411865234375000000e-02 8.041381835937500000e-03 2.624511718750000000e-02 -4.310607910156250000e-03 4.428863525390625000e-03 1.475524902343750000e-02 -1.016235351562500000e-01 9.661865234375000000e-02 -5.303955078125000000e-02 4.211425781250000000e-03 4.559326171875000000e-02 -4.418945312500000000e-02 8.514404296875000000e-02 1.061248779296875000e-02 2.008056640625000000e-02 1.019897460937500000e-01 -6.225585937500000000e-02 3.741455078125000000e-02 6.427001953125000000e-02 -1.441955566406250000e-02 -4.199218750000000000e-02 -6.999969482421875000e-03 -6.945800781250000000e-02 8.477783203125000000e-02 4.400634765625000000e-02 -7.214355468750000000e-02 -4.299926757812500000e-02 -5.743408203125000000e-02 -7.348632812500000000e-02 1.228332519531250000e-03 -4.577636718750000000e-02 -4.077148437500000000e-02 -6.408691406250000000e-02

