-7.653808593750000000e-02 -8.856201171875000000e-02 -4.785156250000000000e-02 -2.149963378906250000e-02 -1.464843750000000000e-02 -3.393554687500000000e-02 -6.939697265625000000e-02 -2.340698242187500000e-02 4.708862304687500000e-02 7.232666015625000000e-02 -8.013916015625000000e-02 8.038330078125000000e-02 -1.014404296875000000e-01 2.938842773437500000e-02 4.986572265625000000e-02 -1.748657226562500000e-02 -9.826660156250000000e-03 3.338623046875000000e-02 -7.574462890625000000e-02 2.614974975585937500e-03 3.851318359375000000e-02 4.592895507812500000e-03 -7.312011718750000000e-02 6.683349609375000000e-02 -1.864624023437500000e-02 -3.076171875000000000e-02 -3.155517578125000000e-02 -6.106567382812500000e-02 -7.775878906250000000e-02 -2.752685546875000000e-02 2.433776855468750000e-02 -4.037475585937500000e-02 9.686279296875000000e-02 9.283447265625000000e-02 2.758789062500000000e-02 -1.202392578125000000e-02 3.131103515625000000e-02 -8.618164062500000000e-02

2.496337890625000000e-02 1.788330078125000000e-02 9.686279296875000000e-02 6.829833984375000000e-02 -3.847122192382812500e-03 -9.643554687500000000e-03 8.978271484375000000e-02 -6.530761718750000000e-02 -7.006835937500000000e-02 6.793212890625000000e-02 -3.314208984375000000e-02 1.727294921875000000e-02 -3.472900390625000000e-02 1.024627685546875000e-02 5.364990234375000000e-02 -8.978271484375000000e-02 -3.698730468750000000e-02 -7.891845703125000000e-02 1.025390625000000000e-02 -4.922485351562500000e-02 -5.502319335937500000e-02 8.441162109375000000e-02 6.829833984375000000e-02 1.123809814453125000e-02 -2.288818359375000000e-02 -7.611083984375000000e-02 -5.926513671875000000e-02 -2.368164062500000000e-02 -8.776855468750000000e-02 -2.429199218750000000e-02 3.155517578125000000e-02 1.780986785888671875e-04 6.109619140625000000e-02 1.188278198242187500e-03 -6.408691406250000000e-02 -4.901123046875000000e-02 2.111816406250000000e-02 5.328369140625000000e-02

5.841064453125000000e-02 -4.638671875000000000e-03 3.176879882812500000e-02 -7.299804687500000000e-02 3.677368164062500000e-02 -4.248046875000000000e-02 -8.905029296875000000e-02 -6.170654296875000000e-02 9.674072265625000000e-02 -4.437255859375000000e-02 2.639770507812500000e-02 -2.270507812500000000e-02 4.205322265625000000e-02 -7.995605468750000000e-02 -8.636474609375000000e-02 -7.202148437500000000e-02 -1.666259765625000000e-02 1.061248779296875000e-02 -1.528167724609375000e-02 -6.085205078125000000e-02 -9.661865234375000000e-02 1.284790039062500000e-02 -5.081176757812500000e-02 8.886718750000000000e-02 3.042602539062500000e-02 5.084228515625000000e-02 -7.531738281250000000e-02 -2.315521240234375000e-03 3.680419921875000000e-02 3.991699218750000000e-02 4.022216796875000000e-02 -6.183624267578125000e-03 4.681396484375000000e-02 3.466796875000000000e-02 -2.622985839843750000e-02 1.963806152343750000e-02 2.984619140625000000e-02 3.228759765625000000e-02

-8.056640625000000000e-03 7.879638671875000000e-02 3.631591796875000000e-02 -6.782531738281250000e-03 -3.640747070312500000e-02 -6.665039062500000000e-02 -1.325225830078125000e-02 7.409667968750000000e-02 7.720947265625000000e-02 -1.228332519531250000e-02 -9.960937500000000000e-02 2.252197265625000000e-02 -5.426025390625000000e-02 4.993438720703125000e-03 3.753662109375000000e-02 2.420043945312500000e-02 -4.116821289062500000e-02 -2.528381347656250000e-02 2.861022949218750000e-03 6.231689453125000000e-02 3.753662109375000000e-02 5.169677734375000000e-02 3.076171875000000000e-02 7.269287109375000000e-02 6.964111328125000000e-02 -4.357910156250000000e-02 9.942626953125000000e-02 -9.967041015625000000e-02 -8.776855468750000000e-02 -1.022338867187500000e-01 9.997558593750000000e-02 7.263183593750000000e-02 -5.340576171875000000e-02 5.267333984375000000e-02 4.849243164062500000e-02 3.900146484375000000e-02 -2.577209472656250000e-02 9.301757812500000000e-02

-9.899902343750000000e-02 -6.027221679687500000e-02 -8.337402343750000000e-02 -6.372070312500000000e-02 8.514404296875000000e-02 5.804443359375000000e-02 -1.024169921875000000e-01 3.631591796875000000e-02 -2.929687500000000000e-02 5.889892578125000000e-02 9.625244140625000000e-02 4.254150390625000000e-02 -3.997802734375000000e-02 -9.082031250000000000e-02 -5.634307861328125000e-03 5.596160888671875000e-03 4.364013671875000000e-02 -4.620361328125000000e-02 -2.148437500000000000e-02 6.512451171875000000e-02 -3.717041015625000000e-02 2.653503417968750000e-02 -9.136962890625000000e-02 9.637451171875000000e-02 6.292724609375000000e-02 4.180908203125000000e-02 8.880615234375000000e-02 -3.295898437500000000e-02 4.437255859375000000e-02 9.820556640625000000e-02 2.026367187500000000e-02 8.453369140625000000e-02 2.886962890625000000e-02 6.927490234375000000e-02 4.498291015625000000e-02 -1.647949218750000000e-02 -7.006835937500000000e-02 -5.703735351562500000e-02

3.408432006835937500e-03 3.802490234375000000e-02 -9.960937500000000000e-02 -9.033203125000000000e-03 9.320068359375000000e-02 -1.022338867187500000e-01 8.978271484375000000e-02 -2.650451660156250000e-02 1.010131835937500000e-01 2.148437500000000000e-02 -1.971435546875000000e-02 6.011962890625000000e-02 9.478759765625000000e-02 -6.707763671875000000e-02 2.435302734375000000e-02 8.258056640625000000e-02 2.593994140625000000e-02 -9.460449218750000000e-02 -1.043701171875000000e-02 3.350830078125000000e-02 8.294677734375000000e-02 -5.804443359375000000e-02 -1.002197265625000000e-01 -2.848815917968750000e-02 -9.020996093750000000e-02 5.615234375000000000e-03 -8.312988281250000000e-02 6.292724609375000000e-02 -8.740234375000000000e-02 4.461669921875000000e-02 -2.620697021484375000e-03 -3.814697265625000000e-02 2.386474609375000000e-02 2.375793457031250000e-02 8.441162109375000000e-02 7.635498046875000000e-02 3.338623046875000000e-02 -7.952880859375000000e-02

-2.691650390625000000e-02 -9.301757812500000000e-02 9.979248046875000000e-02 -2.032470703125000000e-02 -4.479980468750000000e-02 9.619140625000000000e-02 6.542968750000000000e-02 -4.797363281250000000e-02 4.745483398437500000e-02 -7.092285156250000000e-02 -6.628417968750000000e-02 9.826660156250000000e-03 -8.074951171875000000e-02 -7.873535156250000000e-02 5.181884765625000000e-02 -8.099365234375000000e-02 2.911376953125000000e-02 6.109619140625000000e-02 3.399658203125000000e-02 -4.598999023437500000e-02 4.400634765625000000e-02 -2.690124511718750000e-02 -8.163452148437500000e-03 -3.314208984375000000e-02 7.519531250000000000e-02 9.075927734375000000e-02 7.891845703125000000e-02 -4.602050781250000000e-02 -7.556152343750000000e-02 5.017089843750000000e-02 -1.433563232421875000e-02 -4.962158203125000000e-02 6.329345703125000000e-02 -1.133918762207031250e-03 -4.370117187500000000e-02 -2.911376953125000000e-02 6.732177734375000000e-02 -8.679199218750000000e-02

-6.604003906250000000e-02 -5.349731445312500000e-02 2.357482910156250000e-02 3.735351562500000000e-02 -5.908203125000000000e-02 3.182983398437500000e-02 -1.690673828125000000e-02 8.703613281250000000e-02 -9.887695312500000000e-02 -2.290344238281250000e-02 -5.590820312500000000e-02 -2.069091796875000000e-02 8.477783203125000000e-02 6.021118164062500000e-02 -7.006835937500000000e-02 -7.910156250000000000e-02 -5.603027343750000000e-02 -3.204345703125000000e-02 -2.542114257812500000e-02 -9.161376953125000000e-02 -8.837890625000000000e-02 2.825927734375000000e-02 8.544921875000000000e-02 8.258056640625000000e-02 -9.422302246093750000e-03 -1.666259765625000000e-02 1.333618164062500000e-02 1.542663574218750000e-02 -7.911682128906250000e-03 1.020812988281250000e-02 -8.441162109375000000e-02 -6.370544433593750000e-03 7.757568359375000000e-02 -5.438232421875000000e-02 3.805541992187500000e-02 2.912902832031250000e-02 -8.740234375000000000e-02 -2.268981933593750000e-02

-9.057617187500000000e-02 2.310180664062500000e-02 -1.545715332031250000e-02 1.010742187500000000e-01 3.924560546875000000e-02 5.499267578125000000e-02 -9.692382812500000000e-02 -3.601074218750000000e-02 8.563232421875000000e-02 -5.306243896484375000e-03 -8.081054687500000000e-02 -2.191162109375000000e-02 -1.284027099609375000e-02 -1.013946533203125000e-02 -8.715820312500000000e-02 7.189941406250000000e-02 -1.165771484375000000e-02 1.371765136718750000e-02 4.067993164062500000e-02 8.203125000000000000e-02 -5.401611328125000000e-03 8.010864257812500000e-03 -2.687454223632812500e-03 6.890869140625000000e-02 9.667968750000000000e-02 7.275390625000000000e-02 3.216552734375000000e-02 -9.399414062500000000e-02 4.104614257812500000e-02 3.671264648437500000e-02 -3.440856933593750000e-03 -1.481628417968750000e-02 -4.199218750000000000e-02 -9.997558593750000000e-02 -2.423095703125000000e-02 6.088256835937500000e-02 7.604980468750000000e-02 5.706787109375000000e-02

-2.630615234375000000e-02 1.033782958984375000e-02 6.365966796875000000e-02 -1.026611328125000000e-01 -6.763458251953125000e-03 8.380126953125000000e-02 7.073974609375000000e-02 -4.385375976562500000e-02 -3.356933593750000000e-02 -9.619140625000000000e-02 5.264282226562500000e-02 6.268310546875000000e-02 -7.006835937500000000e-02 5.776977539062500000e-02 -8.135986328125000000e-02 -7.278442382812500000e-03 4.051208496093750000e-03 -4.812622070312500000e-02 1.354217529296875000e-03 -7.653808593750000000e-02 2.149963378906250000e-02 4.498291015625000000e-02 -2.246093750000000000e-02 -9.844970703125000000e-02 -2.250671386718750000e-02 2.542114257812500000e-02 -9.722900390625000000e-02 9.338378906250000000e-02 6.793212890625000000e-02 1.718139648437500000e-02 -6.530761718750000000e-02 -5.804443359375000000e-02 -5.416870117187500000e-03 6.530761718750000000e-02 9.466552734375000000e-02 7.531738281250000000e-02 -2.778625488281250000e-02 -9.082031250000000000e-02

-8.837890625000000000e-02 -9.600830078125000000e-02 -9.515380859375000000e-02 -5.523681640625000000e-02 9.722900390625000000e-02 -7.897949218750000000e-02 -1.002807617187500000e-01 5.172729492187500000e-02 1.549530029296875000e-02 6.866455078125000000e-02 1.085662841796875000e-02 -1.684570312500000000e-02 -8.636474609375000000e-02 -9.136962890625000000e-02 2.111816406250000000e-02 6.628417968750000000e-02 2.471923828125000000e-02 -9.722900390625000000e-02 5.670166015625000000e-02 6.121826171875000000e-02 7.450103759765625000e-03 -4.058837890625000000e-03 -6.567382812500000000e-02 8.294677734375000000e-02 6.034851074218750000e-03 4.203796386718750000e-03 1.770019531250000000e-02 -3.704833984375000000e-02 2.380371093750000000e-02 4.986572265625000000e-02 1.023864746093750000e-02 -5.865478515625000000e-02 -9.057617187500000000e-02 7.397460937500000000e-02 -1.454925537109375000e-02 2.200317382812500000e-02 -5.905151367187500000e-02 -9.863281250000000000e-02

-9.960937500000000000e-02 4.339599609375000000e-02 8.575439453125000000e-02 -1.004638671875000000e-01 3.619384765625000000e-02 1.947021484375000000e-02 -8.215332031250000000e-02 8.599853515625000000e-02 -5.560302734375000000e-02 -2.789306640625000000e-02 -2.832031250000000000e-02 3.631591796875000000e-02 1.928710937500000000e-02 -8.374023437500000000e-02 -7.171630859375000000e-02 -7.110595703125000000e-02 -3.576660156250000000e-02 -2.429199218750000000e-02 8.917236328125000000e-02 1.223564147949218750e-03 -5.886840820312500000e-02 7.537841796875000000e-02 -3.332519531250000000e-02 4.432678222656250000e-03 8.819580078125000000e-02 8.160400390625000000e-02 -4.782104492187500000e-02 -1.806640625000000000e-02 -5.023193359375000000e-02 1.026000976562500000e-01 -1.507568359375000000e-02 7.672119140625000000e-02 3.851318359375000000e-02 3.134155273437500000e-02 -4.397583007812500000e-02 5.992889404296875000e-03 -9.558105468750000000e-02 -6.604003906250000000e-02

-8.776855468750000000e-02 5.804443359375000000e-02 -1.655578613281250000e-02 -9.490966796875000000e-03 -5.065917968750000000e-02 6.286621093750000000e-02 -6.378173828125000000e-02 -7.354736328125000000e-02 9.509277343750000000e-02 -6.604003906250000000e-02 -2.793884277343750000e-02 2.130126953125000000e-02 8.111572265625000000e-02 4.843139648437500000e-02 -4.940795898437500000e-02 1.498413085937500000e-02 -6.628417968750000000e-02 -1.259613037109375000e-02 -9.100341796875000000e-02 7.427215576171875000e-03 3.802490234375000000e-02 -5.987548828125000000e-02 4.376220703125000000e-02 4.901123046875000000e-02 -7.244873046875000000e-02 5.157470703125000000e-02 -1.383972167968750000e-02 -4.260253906250000000e-02 3.314208984375000000e-02 -4.443359375000000000e-02 -8.697509765625000000e-02 6.048583984375000000e-02 9.503173828125000000e-02 -9.619140625000000000e-02 -4.650878906250000000e-02 6.768798828125000000e-02 4.022216796875000000e-02 5.606079101562500000e-02

2.085876464843750000e-02 2.920532226562500000e-02 3.791809082031250000e-03 -4.763793945312500000e-02 -5.545043945312500000e-02 -1.202392578125000000e-02 2.363586425781250000e-02 2.502441406250000000e-03 -7.537841796875000000e-02 -3.051757812500000000e-02 -7.135009765625000000e-02 -5.102539062500000000e-02 -5.499267578125000000e-02 -8.178710937500000000e-02 4.437255859375000000e-02 -9.689331054687500000e-03 5.218505859375000000e-02 -7.226562500000000000e-02 -4.776000976562500000e-02 -3.419876098632812500e-03 -8.459472656250000000e-02 2.630615234375000000e-02 2.866744995117187500e-03 5.630493164062500000e-02 -1.172637939453125000e-02 -2.709960937500000000e-02 -9.680175781250000000e-02 2.738952636718750000e-02 4.183959960937500000e-02 -8.898925781250000000e-02 -3.137207031250000000e-02 3.964233398437500000e-02 -6.506347656250000000e-02 3.488159179687500000e-02 1.232147216796875000e-02 -2.830505371093750000e-02 -2.574157714843750000e-02 2.897644042968750000e-02

-4.879760742187500000e-02 1.383972167968750000e-02 1.899719238281250000e-03 7.061767578125000000e-02 -9.765625000000000000e-02 2.813720703125000000e-02 7.934570312500000000e-02 3.930664062500000000e-02 6.524658203125000000e-02 3.497314453125000000e-02 4.455566406250000000e-02 -2.069091796875000000e-02 -8.813476562500000000e-02 7.385253906250000000e-02 8.050537109375000000e-02 4.309082031250000000e-02 -7.156372070312500000e-03 8.398437500000000000e-02 -8.087158203125000000e-03 7.147216796875000000e-02 1.789855957031250000e-02 1.038360595703125000e-02 -6.530761718750000000e-02 -1.542663574218750000e-02 -1.016845703125000000e-01 -7.232666015625000000e-02 -4.440307617187500000e-02 5.471801757812500000e-02 8.392333984375000000e-02 3.991127014160156250e-04 -2.754211425781250000e-03 -4.251098632812500000e-02 4.998779296875000000e-02 -2.752685546875000000e-02 -3.665161132812500000e-02 -2.330017089843750000e-02 -3.387451171875000000e-02 7.916259765625000000e-02

5.401611328125000000e-02 -9.020996093750000000e-02 -5.761718750000000000e-02 -8.038330078125000000e-02 -6.140136718750000000e-02 -1.387786865234375000e-02 7.397460937500000000e-02 -4.891967773437500000e-02 7.562255859375000000e-02 -3.833007812500000000e-02 -3.092956542968750000e-02 -8.538818359375000000e-02 4.544067382812500000e-02 -9.069824218750000000e-02 -2.510070800781250000e-02 3.100585937500000000e-02 2.050781250000000000e-02 2.317810058593750000e-02 -2.323913574218750000e-02 -9.960937500000000000e-02 -1.026611328125000000e-01 -6.021118164062500000e-02 -2.333068847656250000e-02 5.212402343750000000e-02 -6.329345703125000000e-02 -9.899902343750000000e-02 -8.880615234375000000e-02 -2.796936035156250000e-02 -9.088134765625000000e-02 3.613281250000000000e-02 2.065658569335937500e-03 5.499267578125000000e-02 3.533935546875000000e-02 -9.112548828125000000e-02 1.477813720703125000e-02 8.044433593750000000e-02 -9.716796875000000000e-02 -9.484863281250000000e-02

6.585693359375000000e-02 8.355712890625000000e-02 8.843994140625000000e-02 -6.323242187500000000e-02 -6.634521484375000000e-02 2.705383300781250000e-02 9.722900390625000000e-02 -8.917236328125000000e-02 6.988525390625000000e-02 9.100341796875000000e-02 -7.659912109375000000e-02 3.216552734375000000e-02 9.332275390625000000e-02 3.765869140625000000e-02 -2.700805664062500000e-02 2.333068847656250000e-02 -3.234863281250000000e-02 4.913330078125000000e-02 -8.740234375000000000e-02 3.031921386718750000e-02 6.512451171875000000e-02 -9.332275390625000000e-02 -5.104064941406250000e-03 -7.891845703125000000e-02 -2.239990234375000000e-02 6.890869140625000000e-02 2.554321289062500000e-02 1.001586914062500000e-01 8.227539062500000000e-02 8.477783203125000000e-02 -9.069824218750000000e-02 -5.419921875000000000e-02 6.683349609375000000e-02 6.240844726562500000e-02 1.563072204589843750e-03 -7.745361328125000000e-02 3.305053710937500000e-02 6.149291992187500000e-02

4.278564453125000000e-02 8.502197265625000000e-02 1.005859375000000000e-01 -9.197998046875000000e-02 2.624511718750000000e-03 2.590179443359375000e-03 -2.273559570312500000e-02 1.525115966796875000e-02 -2.933502197265625000e-03 -2.349853515625000000e-02 -8.251953125000000000e-02 7.733154296875000000e-02 -2.734375000000000000e-02 9.643554687500000000e-02 1.043701171875000000e-02 2.433776855468750000e-02 -8.758544921875000000e-02 3.399658203125000000e-02 1.252174377441406250e-03 -9.960937500000000000e-02 1.947021484375000000e-02 6.439208984375000000e-03 -6.246948242187500000e-02 -6.909179687500000000e-02 -3.295898437500000000e-02 8.013916015625000000e-02 5.340576171875000000e-02 9.838867187500000000e-02 -3.698730468750000000e-02 -9.704589843750000000e-02 -8.978271484375000000e-02 -4.214477539062500000e-02 5.377197265625000000e-02 -7.391357421875000000e-02 -7.995605468750000000e-02 3.444671630859375000e-03 6.146240234375000000e-02 5.865478515625000000e-02

-2.955627441406250000e-02 5.847167968750000000e-02 7.666015625000000000e-02 -4.888916015625000000e-02 -8.978271484375000000e-02 7.354736328125000000e-02 -4.928588867187500000e-02 -4.199981689453125000e-03 8.587646484375000000e-02 7.855224609375000000e-02 -9.155273437500000000e-03 5.499267578125000000e-02 4.965209960937500000e-02 9.088134765625000000e-02 9.344482421875000000e-02 9.246826171875000000e-02 -6.207275390625000000e-02 -5.157470703125000000e-02 9.063720703125000000e-02 -5.081176757812500000e-02 -1.014404296875000000e-01 5.487060546875000000e-02 -7.177734375000000000e-02 6.774902343750000000e-02 -9.643554687500000000e-03 -3.436279296875000000e-02 -4.314422607421875000e-03 -9.460449218750000000e-02 -8.142089843750000000e-02 -5.502319335937500000e-02 -9.405517578125000000e-02 2.458190917968750000e-02 -2.223205566406250000e-02 -9.173583984375000000e-02 -2.412414550781250000e-02 6.027221679687500000e-02 -3.034973144531250000e-02 1.348114013671875000e-02

5.462646484375000000e-02 -5.825805664062500000e-02 -4.891967773437500000e-02 3.918457031250000000e-02 7.769775390625000000e-02 -3.259277343750000000e-02 -1.342773437500000000e-02 7.635498046875000000e-02 -3.659057617187500000e-02 8.514404296875000000e-02 -5.126953125000000000e-02 -6.085205078125000000e-02 -2.093505859375000000e-02 -3.747558593750000000e-02 -7.293701171875000000e-02 -6.323242187500000000e-02 -8.996582031250000000e-02 -3.878784179687500000e-02 8.380126953125000000e-02 4.156494140625000000e-02 9.834289550781250000e-03 -8.355712890625000000e-02 -7.942199707031250000e-03 -4.336547851562500000e-02 -6.896972656250000000e-02 -6.945800781250000000e-02 7.550048828125000000e-02 8.453369140625000000e-02 7.421875000000000000e-02 5.673217773437500000e-02 7.415771484375000000e-02 -9.503173828125000000e-02 2.752685546875000000e-02 -7.092285156250000000e-02 7.360839843750000000e-02 4.116821289062500000e-02 -5.407714843750000000e-02 -9.582519531250000000e-02

8.050537109375000000e-02 -1.728820800781250000e-02 1.008911132812500000e-01 3.747558593750000000e-02 -8.178710937500000000e-02 9.454345703125000000e-02 1.204681396484375000e-02 6.573486328125000000e-02 -9.802246093750000000e-02 -9.033203125000000000e-02 6.561279296875000000e-02 -9.100341796875000000e-02 8.734130859375000000e-02 9.295654296875000000e-02 -5.502319335937500000e-02 1.264953613281250000e-02 -3.271484375000000000e-02 -8.453369140625000000e-02 9.759521484375000000e-02 9.136962890625000000e-02 -3.375244140625000000e-02 9.814453125000000000e-02 -6.091308593750000000e-02 2.508544921875000000e-02 -4.064941406250000000e-02 -4.764556884765625000e-03 -8.197021484375000000e-02 3.768920898437500000e-02 -4.910278320312500000e-02 6.915283203125000000e-02 5.145263671875000000e-02 -8.715820312500000000e-02 -5.984497070312500000e-02 6.311035156250000000e-02 3.713989257812500000e-02 -6.091308593750000000e-02 -7.189941406250000000e-02 5.458831787109375000e-03

-4.844665527343750000e-03 6.927490234375000000e-02 -7.550048828125000000e-02 7.122802734375000000e-02 2.995300292968750000e-02 1.531219482421875000e-02 3.051757812500000000e-02 1.062774658203125000e-02 -4.165649414062500000e-03 3.741455078125000000e-02 -4.803466796875000000e-02 5.670166015625000000e-02 7.733154296875000000e-02 -5.126953125000000000e-02 4.000854492187500000e-02 -6.604003906250000000e-02 -3.558349609375000000e-02 6.646728515625000000e-02 5.749511718750000000e-02 -6.549072265625000000e-02 -7.409667968750000000e-02 -3.952026367187500000e-02 6.689453125000000000e-02 4.815673828125000000e-02 1.013793945312500000e-01 3.411865234375000000e-02 -5.307006835937500000e-02 -8.911132812500000000e-02 9.570312500000000000e-02 -1.000366210937500000e-01 6.909179687500000000e-02 -9.295654296875000000e-02 -8.746337890625000000e-02 -6.109619140625000000e-02 -6.945800781250000000e-02 -7.775878906250000000e-02 -2.275085449218750000e-02 8.404541015625000000e-02

1.806640625000000000e-02 -1.024169921875000000e-01 -1.012573242187500000e-01 6.805419921875000000e-02 -1.666259765625000000e-02 -7.442474365234375000e-03 1.824951171875000000e-02 3.289794921875000000e-02 9.844970703125000000e-02 1.790523529052734375e-04 7.012939453125000000e-02 -4.016113281250000000e-02 -7.348632812500000000e-02 5.023193359375000000e-02 -1.385498046875000000e-02 -7.330322265625000000e-02 6.402587890625000000e-02 6.427001953125000000e-02 6.951904296875000000e-02 7.537841796875000000e-02 -7.092285156250000000e-02 4.400634765625000000e-02 -9.759521484375000000e-02 -6.323242187500000000e-02 -9.442138671875000000e-02 -5.523681640625000000e-02 7.073974609375000000e-02 -9.960937500000000000e-02 -1.928710937500000000e-02 -1.788330078125000000e-02 -3.955078125000000000e-02 -6.689453125000000000e-02 -2.532958984375000000e-02 1.012573242187500000e-01 6.634521484375000000e-02 -4.598999023437500000e-02 9.686279296875000000e-02 -1.028442382812500000e-01

-6.268310546875000000e-02 -4.901123046875000000e-02 3.460693359375000000e-02 -2.008056640625000000e-02 1.019897460937500000e-01 -2.894592285156250000e-02 -8.917236328125000000e-02 9.014892578125000000e-02 -8.013916015625000000e-02 -6.848144531250000000e-02 8.697509765625000000e-02 6.793212890625000000e-02 7.330322265625000000e-02 9.881591796875000000e-02 -2.551269531250000000e-02 -6.311035156250000000e-02 -2.288818359375000000e-02 1.947021484375000000e-02 8.135986328125000000e-02 -7.775878906250000000e-02 -4.379272460937500000e-02 -8.776855468750000000e-02 6.634521484375000000e-02 2.728271484375000000e-02 8.721923828125000000e-02 -8.996582031250000000e-02 2.349853515625000000e-02 5.670166015625000000e-02 -2.008056640625000000e-02 6.585693359375000000e-02 9.857177734375000000e-02 8.258056640625000000e-02 -4.821777343750000000e-03 -3.533935546875000000e-02 6.121826171875000000e-02 7.354736328125000000e-02 2.667236328125000000e-02 4.219055175781250000e-03

-5.203247070312500000e-02 -4.418945312500000000e-02 6.204223632812500000e-02 -2.989196777343750000e-02 -6.591796875000000000e-02 1.227569580078125000e-02 6.982421875000000000e-02 1.538848876953125000e-02 -2.078247070312500000e-02 -1.544952392578125000e-02 9.967041015625000000e-02 6.390380859375000000e-02 -5.691528320312500000e-03 6.707763671875000000e-02 5.963134765625000000e-02 -5.563354492187500000e-02 1.022338867187500000e-01 6.008911132812500000e-02 -4.199218750000000000e-02 7.952880859375000000e-02 2.313232421875000000e-02 5.841064453125000000e-02 2.940368652343750000e-02 9.136962890625000000e-02 -4.336547851562500000e-02 9.747314453125000000e-02 3.900146484375000000e-02 -7.495117187500000000e-02 4.055786132812500000e-02 -6.750488281250000000e-02 -4.721069335937500000e-02 2.593994140625000000e-02 3.558349609375000000e-02 -8.514404296875000000e-02 3.070068359375000000e-02 -1.026611328125000000e-01 1.022338867187500000e-01 -5.102539062500000000e-02

