3.594970703125000000e-02 -4.058837890625000000e-02 -7.916259765625000000e-02 9.100341796875000000e-02 6.304931640625000000e-02 8.233642578125000000e-02 7.804870605468750000e-03 -1.475334167480468750e-03 -1.016235351562500000e-01 2.593994140625000000e-02 4.873657226562500000e-02 4.119873046875000000e-02 -9.100341796875000000e-02 4.406738281250000000e-02 -7.891845703125000000e-02 -6.856918334960937500e-04 4.962158203125000000e-02 -7.916259765625000000e-02 -4.940795898437500000e-02 1.012573242187500000e-01 8.843994140625000000e-02 1.019897460937500000e-01 -6.652832031250000000e-02 -2.330017089843750000e-02 9.014892578125000000e-02 -1.403808593750000000e-02 -4.922485351562500000e-02 9.625244140625000000e-02 1.008911132812500000e-01 -7.794189453125000000e-02 1.012573242187500000e-01 7.476806640625000000e-02 4.644775390625000000e-02 -3.652954101562500000e-02 2.111816406250000000e-02 -3.640747070312500000e-02 7.073974609375000000e-02 9.967041015625000000e-02

-7.952880859375000000e-02 9.857177734375000000e-02 5.120849609375000000e-02 -9.179687500000000000e-02 1.043701171875000000e-02 7.794189453125000000e-02 8.721923828125000000e-02 4.534912109375000000e-02 -8.251953125000000000e-02 1.629638671875000000e-02 9.405517578125000000e-02 -7.611083984375000000e-02 6.233215332031250000e-03 -8.538818359375000000e-02 1.342773437500000000e-02 -7.653808593750000000e-02 -1.727294921875000000e-02 1.342773437500000000e-02 5.987548828125000000e-02 -4.559326171875000000e-02 6.225585937500000000e-03 1.867675781250000000e-02 9.686279296875000000e-02 7.794189453125000000e-02 -3.253173828125000000e-02 2.996826171875000000e-02 -2.453613281250000000e-02 8.819580078125000000e-02 3.753662109375000000e-02 -6.427001953125000000e-02 -3.613281250000000000e-02 -5.261230468750000000e-02 -5.645751953125000000e-02 -5.023193359375000000e-02 -5.142211914062500000e-02 -8.776855468750000000e-02 2.014160156250000000e-03 -5.422973632812500000e-02

4.400634765625000000e-02 -3.271484375000000000e-02 -1.895141601562500000e-02 4.995727539062500000e-02 -1.188278198242187500e-03 -7.055664062500000000e-02 9.533691406250000000e-02 9.753417968750000000e-02 2.435302734375000000e-02 5.807495117187500000e-02 2.642822265625000000e-02 1.629638671875000000e-02 -5.517578125000000000e-02 -8.477783203125000000e-02 -3.533935546875000000e-02 7.910156250000000000e-02 -3.375244140625000000e-02 3.915405273437500000e-02 3.692626953125000000e-02 -7.794189453125000000e-02 -6.445312500000000000e-02 8.532714843750000000e-02 -2.815246582031250000e-02 -6.750488281250000000e-02 2.079772949218750000e-02 -8.117675781250000000e-02 -9.899902343750000000e-02 -3.276824951171875000e-03 -2.685546875000000000e-02 1.280212402343750000e-02 -4.678344726562500000e-02 -3.613281250000000000e-02 7.513427734375000000e-02 -4.150390625000000000e-02 -7.586669921875000000e-02 -1.994323730468750000e-02 1.812744140625000000e-02 -3.173828125000000000e-02

-6.445312500000000000e-02 -5.545043945312500000e-02 -4.974365234375000000e-02 2.897644042968750000e-02 -9.405517578125000000e-02 -1.020507812500000000e-01 5.117797851562500000e-02 7.141113281250000000e-02 2.355957031250000000e-02 1.018676757812500000e-01 -1.028442382812500000e-01 -4.980468750000000000e-02 8.386230468750000000e-02 1.918029785156250000e-02 -4.177856445312500000e-02 -8.477783203125000000e-02 -1.745605468750000000e-02 2.738952636718750000e-02 7.977294921875000000e-02 -4.721069335937500000e-02 -3.533935546875000000e-02 -9.814453125000000000e-02 4.873657226562500000e-02 -8.996582031250000000e-02 -9.008789062500000000e-02 2.026367187500000000e-02 -5.584716796875000000e-02 6.524658203125000000e-02 -2.415466308593750000e-02 -1.007843017578125000e-02 5.950927734375000000e-03 -1.296997070312500000e-02 -8.032226562500000000e-02 3.564453125000000000e-02 4.589843750000000000e-02 -6.481933593750000000e-02 9.039306640625000000e-02 1.009521484375000000e-01

1.287078857421875000e-02 -4.156494140625000000e-02 -9.722900390625000000e-02 8.660888671875000000e-02 2.789306640625000000e-02 6.951904296875000000e-02 -8.117675781250000000e-02 1.666259765625000000e-02 -6.604003906250000000e-02 9.173583984375000000e-02 5.364990234375000000e-02 1.104736328125000000e-02 -2.429199218750000000e-02 -7.812500000000000000e-02 1.062011718750000000e-02 1.647949218750000000e-02 -4.013061523437500000e-03 2.752685546875000000e-02 5.718994140625000000e-02 2.050781250000000000e-02 2.026367187500000000e-02 -4.660034179687500000e-02 3.778076171875000000e-02 -7.312011718750000000e-02 4.534912109375000000e-02 -7.031250000000000000e-02 -1.002197265625000000e-01 4.681396484375000000e-02 -1.708984375000000000e-02 8.514404296875000000e-02 9.783935546875000000e-02 -7.995605468750000000e-02 -6.027221679687500000e-02 2.809524536132812500e-03 9.222412109375000000e-02 8.477783203125000000e-02 8.660888671875000000e-02 -1.647949218750000000e-02

-7.531738281250000000e-02 -6.185913085937500000e-02 5.206298828125000000e-02 -1.849365234375000000e-02 1.022338867187500000e-01 -3.576660156250000000e-02 5.780029296875000000e-02 -5.725097656250000000e-02 -8.776855468750000000e-02 5.779266357421875000e-04 2.812194824218750000e-02 -5.203247070312500000e-02 6.890869140625000000e-02 -8.520507812500000000e-02 -5.001831054687500000e-02 4.243850708007812500e-04 1.006469726562500000e-01 5.645751953125000000e-02 7.190704345703125000e-03 -6.022453308105468750e-04 -9.985351562500000000e-02 1.588821411132812500e-03 6.671142578125000000e-02 5.706787109375000000e-02 -5.502319335937500000e-02 4.864501953125000000e-02 -9.643554687500000000e-02 2.665710449218750000e-02 -6.909179687500000000e-02 8.953857421875000000e-02 -1.123809814453125000e-02 -5.944824218750000000e-02 8.892822265625000000e-02 -1.987457275390625000e-03 6.011962890625000000e-02 2.227783203125000000e-02 -8.374023437500000000e-02 7.537841796875000000e-02

7.366943359375000000e-02 7.012939453125000000e-02 -7.348632812500000000e-02 -6.170654296875000000e-02 9.356689453125000000e-02 3.326416015625000000e-03 1.247406005859375000e-03 -3.427124023437500000e-02 7.299804687500000000e-02 8.111572265625000000e-02 -5.657196044921875000e-03 -2.734375000000000000e-02 4.241943359375000000e-02 -5.032348632812500000e-02 1.855850219726562500e-03 -5.489349365234375000e-03 -8.819580078125000000e-02 -2.392578125000000000e-02 -6.488037109375000000e-02 4.962158203125000000e-02 9.405517578125000000e-02 -2.748107910156250000e-02 2.808570861816406250e-04 9.503173828125000000e-02 6.198120117187500000e-02 6.854248046875000000e-02 1.124572753906250000e-02 1.005859375000000000e-01 -8.880615234375000000e-02 -5.969238281250000000e-02 6.451416015625000000e-02 -9.759521484375000000e-02 2.325439453125000000e-02 4.055786132812500000e-02 8.355712890625000000e-02 6.018066406250000000e-02 7.928466796875000000e-02 -9.399414062500000000e-02

-1.002197265625000000e-01 5.313110351562500000e-02 1.229095458984375000e-02 1.982116699218750000e-02 -2.552795410156250000e-02 -1.947021484375000000e-02 -2.070617675781250000e-02 4.675292968750000000e-02 -5.352783203125000000e-02 5.413055419921875000e-03 -5.770874023437500000e-02 1.263427734375000000e-02 -4.714965820312500000e-02 8.898925781250000000e-02 -5.383300781250000000e-02 1.852416992187500000e-02 -9.338378906250000000e-02 5.386352539062500000e-02 -3.475952148437500000e-02 -6.167602539062500000e-02 9.979248046875000000e-02 -5.743408203125000000e-02 -2.120971679687500000e-02 -3.007507324218750000e-02 -2.339172363281250000e-02 -4.940795898437500000e-02 -4.314422607421875000e-03 1.004638671875000000e-01 -7.177734375000000000e-02 8.050537109375000000e-02 -7.098388671875000000e-02 5.343627929687500000e-02 -7.409667968750000000e-02 -5.459594726562500000e-02 -3.131103515625000000e-02 1.914978027343750000e-02 -3.659057617187500000e-02 -3.692626953125000000e-02

9.063720703125000000e-02 4.644775390625000000e-02 7.635498046875000000e-02 9.429931640625000000e-02 1.562500000000000000e-02 -2.960205078125000000e-02 -1.847839355468750000e-02 6.530761718750000000e-02 -2.563476562500000000e-02 6.246948242187500000e-02 -7.755279541015625000e-03 -5.484008789062500000e-02 1.076507568359375000e-02 8.020019531250000000e-02 -9.741210937500000000e-02 -5.822753906250000000e-02 -4.016113281250000000e-02 -6.546020507812500000e-03 -5.340576171875000000e-02 7.275390625000000000e-02 -2.549743652343750000e-02 9.197998046875000000e-02 -1.821899414062500000e-02 1.018066406250000000e-01 1.004638671875000000e-01 4.971313476562500000e-02 -7.556152343750000000e-02 -2.476501464843750000e-02 -6.451416015625000000e-02 2.706909179687500000e-02 -1.730346679687500000e-02 -8.979797363281250000e-03 -1.403808593750000000e-02 1.474761962890625000e-02 4.885864257812500000e-02 5.166625976562500000e-02 7.238769531250000000e-02 3.775024414062500000e-02

-5.221557617187500000e-02 8.795166015625000000e-02 -2.877807617187500000e-02 7.318115234375000000e-02 -5.099487304687500000e-02 9.552001953125000000e-03 6.848144531250000000e-02 2.972412109375000000e-02 6.475830078125000000e-02 -9.161376953125000000e-02 3.372192382812500000e-02 1.013793945312500000e-01 7.983398437500000000e-02 -3.845214843750000000e-02 -5.577087402343750000e-03 1.087784767150878906e-04 2.667236328125000000e-02 3.213500976562500000e-02 6.805419921875000000e-02 4.192352294921875000e-03 -8.312988281250000000e-02 -6.353759765625000000e-02 2.232360839843750000e-02 7.666015625000000000e-02 5.090332031250000000e-02 2.590942382812500000e-02 -2.470397949218750000e-02 -5.471801757812500000e-02 4.776000976562500000e-02 -1.207733154296875000e-02 -6.671142578125000000e-02 -7.128906250000000000e-02 -5.886840820312500000e-02 -6.848144531250000000e-02 9.017944335937500000e-03 -3.471374511718750000e-03 -7.232666015625000000e-02 -1.004638671875000000e-01

-5.012512207031250000e-03 -7.452392578125000000e-02 6.945800781250000000e-02 5.279541015625000000e-02 -4.498291015625000000e-02 -5.926513671875000000e-02 -4.525756835937500000e-02 7.830810546875000000e-02 7.403564453125000000e-02 1.200103759765625000e-02 1.530456542968750000e-02 -5.181884765625000000e-02 -8.056640625000000000e-02 -1.280975341796875000e-02 -8.056640625000000000e-02 3.958129882812500000e-02 -6.066894531250000000e-02 1.019897460937500000e-01 -3.013610839843750000e-02 6.136894226074218750e-04 -3.412246704101562500e-03 -5.050659179687500000e-02 -9.423828125000000000e-02 -9.381103515625000000e-02 -4.470825195312500000e-02 -1.147460937500000000e-02 -5.703735351562500000e-02 5.545043945312500000e-02 3.802490234375000000e-02 7.164001464843750000e-03 7.171630859375000000e-02 -7.026672363281250000e-03 -9.423828125000000000e-02 -5.175781250000000000e-02 -2.456665039062500000e-02 4.315185546875000000e-02 -4.519653320312500000e-02 7.366943359375000000e-02

2.691650390625000000e-02 8.697509765625000000e-02 -6.246948242187500000e-02 2.410888671875000000e-02 8.221435546875000000e-02 1.021575927734375000e-02 -5.443572998046875000e-03 -1.913452148437500000e-02 -9.020996093750000000e-02 -4.379272460937500000e-02 -4.058837890625000000e-02 3.472900390625000000e-02 -8.416748046875000000e-02 -4.177856445312500000e-02 6.512451171875000000e-02 6.951904296875000000e-02 -7.128906250000000000e-02 -5.886840820312500000e-02 2.288818359375000000e-02 2.850341796875000000e-02 8.856201171875000000e-02 -7.373046875000000000e-02 -1.667785644531250000e-02 4.864501953125000000e-02 -3.936767578125000000e-02 2.349853515625000000e-02 -4.940795898437500000e-02 1.462554931640625000e-02 -8.819580078125000000e-02 4.864501953125000000e-02 7.202148437500000000e-03 -7.312011718750000000e-02 7.427978515625000000e-02 -6.185913085937500000e-02 -6.207275390625000000e-02 -1.087951660156250000e-02 -3.034973144531250000e-02 -9.582519531250000000e-02

-3.576660156250000000e-02 -8.978271484375000000e-02 8.551025390625000000e-02 8.782958984375000000e-02 -4.119873046875000000e-02 1.232147216796875000e-02 -7.092285156250000000e-02 -6.002807617187500000e-02 -7.403564453125000000e-02 -5.865478515625000000e-02 2.729797363281250000e-02 -7.373046875000000000e-02 -2.249145507812500000e-02 9.045410156250000000e-02 -7.751464843750000000e-02 -1.823425292968750000e-02 3.253173828125000000e-02 7.647705078125000000e-02 -8.880615234375000000e-02 9.356689453125000000e-02 7.891845703125000000e-02 1.441955566406250000e-02 8.895874023437500000e-03 4.022216796875000000e-02 -2.680969238281250000e-02 -5.645751953125000000e-02 8.392333984375000000e-02 -7.269287109375000000e-02 -7.812500000000000000e-02 4.390716552734375000e-03 1.000366210937500000e-01 5.242919921875000000e-02 -8.374023437500000000e-02 9.605407714843750000e-03 5.899047851562500000e-02 9.356689453125000000e-02 7.293701171875000000e-02 -5.363464355468750000e-03

1.800537109375000000e-03 6.988525390625000000e-02 8.758544921875000000e-02 -1.024169921875000000e-01 5.043029785156250000e-03 -4.937744140625000000e-02 -3.506469726562500000e-02 6.121826171875000000e-02 -4.760742187500000000e-02 4.705810546875000000e-02 5.438232421875000000e-02 -3.454589843750000000e-02 5.142211914062500000e-02 4.763793945312500000e-02 1.597595214843750000e-02 -2.905273437500000000e-02 4.703521728515625000e-03 -1.544189453125000000e-02 -2.784729003906250000e-02 -4.638671875000000000e-02 9.320068359375000000e-02 -7.373046875000000000e-02 9.941101074218750000e-03 -7.366943359375000000e-02 3.640747070312500000e-02 -5.685424804687500000e-02 9.698486328125000000e-02 8.258056640625000000e-02 -3.561401367187500000e-02 6.204223632812500000e-02 9.674072265625000000e-02 -5.798339843750000000e-02 -5.487060546875000000e-02 3.747558593750000000e-02 -4.946899414062500000e-02 8.532714843750000000e-02 2.505493164062500000e-02 2.061462402343750000e-02

-1.626968383789062500e-03 9.661865234375000000e-02 8.441162109375000000e-02 4.251098632812500000e-02 2.896118164062500000e-02 -3.155517578125000000e-02 -8.837890625000000000e-02 6.567382812500000000e-02 -2.795410156250000000e-02 -5.428314208984375000e-03 -4.364013671875000000e-02 -1.745605468750000000e-02 9.283447265625000000e-02 6.658935546875000000e-02 -2.970886230468750000e-02 5.386352539062500000e-02 4.132080078125000000e-02 -3.637695312500000000e-02 -5.242919921875000000e-02 -8.410644531250000000e-02 -7.293701171875000000e-02 -3.533935546875000000e-02 -4.016113281250000000e-02 6.488037109375000000e-02 3.408813476562500000e-02 -1.832580566406250000e-02 4.302978515625000000e-02 2.119064331054687500e-03 6.640625000000000000e-02 -6.433105468750000000e-02 -1.860046386718750000e-02 6.689453125000000000e-02 3.210067749023437500e-03 -7.861328125000000000e-02 -8.831787109375000000e-02 2.783203125000000000e-02 -1.724243164062500000e-02 3.231048583984375000e-03

-3.393554687500000000e-02 -6.084442138671875000e-03 8.856201171875000000e-02 -5.288696289062500000e-02 9.399414062500000000e-02 1.864624023437500000e-02 -2.323913574218750000e-02 -8.465576171875000000e-02 5.749511718750000000e-02 5.828857421875000000e-02 8.099365234375000000e-02 2.380371093750000000e-03 -5.294799804687500000e-02 3.414916992187500000e-02 8.477783203125000000e-02 9.515380859375000000e-02 -2.911376953125000000e-02 6.921386718750000000e-02 -5.203247070312500000e-02 -6.719970703125000000e-02 2.790832519531250000e-02 8.258056640625000000e-02 5.963134765625000000e-02 6.463623046875000000e-02 8.135986328125000000e-02 5.477905273437500000e-02 2.595520019531250000e-02 -6.976318359375000000e-02 5.984497070312500000e-02 9.124755859375000000e-03 6.427001953125000000e-02 5.307006835937500000e-02 -4.379272460937500000e-02 -3.067016601562500000e-03 -5.252075195312500000e-02 -2.853393554687500000e-02 6.951904296875000000e-02 -1.100158691406250000e-02

5.084228515625000000e-02 7.879638671875000000e-02 -7.087707519531250000e-03 -3.068542480468750000e-02 -3.280639648437500000e-03 -3.665161132812500000e-02 4.586791992187500000e-02 -2.818298339843750000e-02 5.377197265625000000e-02 -2.537536621093750000e-02 -9.368896484375000000e-02 -5.523681640625000000e-02 -1.053810119628906250e-03 5.764770507812500000e-02 -5.878448486328125000e-03 1.417541503906250000e-02 -6.323242187500000000e-02 -2.313232421875000000e-02 5.145263671875000000e-02 1.522064208984375000e-02 1.526641845703125000e-02 5.355834960937500000e-02 3.579711914062500000e-02 -7.165527343750000000e-02 -1.425170898437500000e-02 -9.381103515625000000e-02 2.262878417968750000e-02 7.513427734375000000e-02 8.471679687500000000e-02 -8.337402343750000000e-02 -2.406311035156250000e-02 -7.989501953125000000e-02 5.300903320312500000e-02 -7.397460937500000000e-02 2.735900878906250000e-02 -9.411621093750000000e-02 5.111694335937500000e-02 -3.201293945312500000e-02

-5.102539062500000000e-02 1.651000976562500000e-02 -6.610107421875000000e-02 -1.789855957031250000e-02 -9.844970703125000000e-02 -5.809783935546875000e-03 3.771972656250000000e-02 -5.813598632812500000e-02 4.437255859375000000e-02 -6.372070312500000000e-02 -4.879760742187500000e-02 1.147460937500000000e-02 -2.811431884765625000e-03 -8.804321289062500000e-03 3.314208984375000000e-02 -1.000366210937500000e-01 2.391815185546875000e-03 -9.820556640625000000e-02 -8.013916015625000000e-02 -4.394531250000000000e-03 4.864501953125000000e-02 2.185058593750000000e-02 1.235961914062500000e-03 3.659057617187500000e-02 3.903198242187500000e-02 -2.813720703125000000e-02 9.173583984375000000e-02 2.429199218750000000e-02 -1.000366210937500000e-01 3.118896484375000000e-02 -6.219482421875000000e-02 -1.647949218750000000e-02 4.803466796875000000e-02 4.193115234375000000e-02 -7.534027099609375000e-03 -6.152343750000000000e-02 -4.299926757812500000e-02 1.325225830078125000e-02

-1.289367675781250000e-02 4.336547851562500000e-02 9.509277343750000000e-02 -6.536865234375000000e-02 -1.288604736328125000e-02 -1.342010498046875000e-02 2.049255371093750000e-02 -8.445739746093750000e-03 3.384399414062500000e-02 1.806640625000000000e-02 -7.861328125000000000e-02 -8.355712890625000000e-02 -2.642822265625000000e-02 -9.039306640625000000e-02 -4.522705078125000000e-02 9.783935546875000000e-02 -6.366729736328125000e-03 -7.128906250000000000e-02 6.408691406250000000e-02 1.324462890625000000e-02 5.438232421875000000e-02 -1.247406005859375000e-02 8.654785156250000000e-02 -4.245758056640625000e-03 -9.185791015625000000e-02 -5.703735351562500000e-02 5.429077148437500000e-02 -5.966186523437500000e-02 8.551025390625000000e-02 1.018676757812500000e-01 4.229736328125000000e-02 -8.781433105468750000e-03 -2.140808105468750000e-02 8.489990234375000000e-02 9.605407714843750000e-03 5.409240722656250000e-03 7.073974609375000000e-02 -1.022338867187500000e-01

-3.997802734375000000e-02 -3.134155273437500000e-02 8.032226562500000000e-02 -7.373046875000000000e-02 4.705810546875000000e-02 9.124755859375000000e-02 -6.414794921875000000e-02 5.444335937500000000e-02 7.556152343750000000e-02 2.310180664062500000e-02 -4.602050781250000000e-02 -5.041503906250000000e-02 -2.995300292968750000e-02 -9.082031250000000000e-02 1.404571533203125000e-02 4.013061523437500000e-02 7.041931152343750000e-03 8.728027343750000000e-02 -8.276367187500000000e-02 -7.855224609375000000e-02 4.656982421875000000e-02 -9.063720703125000000e-02 -9.399414062500000000e-02 -6.890869140625000000e-02 7.061767578125000000e-02 7.781982421875000000e-03 5.619049072265625000e-03 -6.945800781250000000e-02 3.616333007812500000e-02 -7.434082031250000000e-02 -7.916259765625000000e-02 -6.652832031250000000e-02 -5.242919921875000000e-02 -9.674072265625000000e-02 6.927490234375000000e-02 -9.178161621093750000e-03 4.458618164062500000e-02 7.427978515625000000e-02

-8.679199218750000000e-02 -6.127929687500000000e-02 3.756713867187500000e-02 2.499389648437500000e-02 -1.014709472656250000e-02 -5.023956298828125000e-03 -1.015014648437500000e-01 7.568359375000000000e-02 -3.268432617187500000e-02 3.601074218750000000e-02 -3.573608398437500000e-02 3.472900390625000000e-02 -5.239868164062500000e-02 9.710693359375000000e-02 3.619384765625000000e-02 8.807373046875000000e-02 -1.386260986328125000e-02 1.424407958984375000e-02 9.497070312500000000e-02 -6.768798828125000000e-02 -7.714843750000000000e-02 -6.329345703125000000e-02 2.549743652343750000e-02 -8.825683593750000000e-02 -4.412841796875000000e-02 3.134155273437500000e-02 -3.295898437500000000e-02 6.246948242187500000e-02 2.713012695312500000e-02 1.150512695312500000e-02 -8.599853515625000000e-02 2.209472656250000000e-02 7.879638671875000000e-02 -1.754760742187500000e-02 -2.873229980468750000e-02 2.264404296875000000e-02 -4.400634765625000000e-02 6.237792968750000000e-02

-7.971191406250000000e-02 3.140258789062500000e-02 -6.256103515625000000e-02 8.660888671875000000e-02 -8.935546875000000000e-02 -9.289550781250000000e-02 -1.011352539062500000e-01 -3.161621093750000000e-02 3.259277343750000000e-02 -6.427001953125000000e-02 -1.770019531250000000e-02 -3.112792968750000000e-02 -9.559631347656250000e-03 4.769897460937500000e-02 -3.173828125000000000e-02 -5.871582031250000000e-02 1.606750488281250000e-02 3.105163574218750000e-02 4.306030273437500000e-02 -5.443572998046875000e-03 5.499267578125000000e-02 -6.292724609375000000e-02 -6.149291992187500000e-02 -1.355171203613281250e-03 8.404541015625000000e-02 6.927490234375000000e-02 2.885818481445312500e-03 2.230834960937500000e-02 -1.914978027343750000e-02 -7.648468017578125000e-03 2.058410644531250000e-02 1.708984375000000000e-02 6.549835205078125000e-03 1.956176757812500000e-02 8.087158203125000000e-02 7.623291015625000000e-02 -4.803466796875000000e-02 -1.005859375000000000e-01

8.666992187500000000e-03 -1.829147338867187500e-03 4.779052734375000000e-02 8.612060546875000000e-02 2.447509765625000000e-02 1.629638671875000000e-02 6.634521484375000000e-02 3.167724609375000000e-02 -1.323699951171875000e-02 7.257080078125000000e-02 -5.764770507812500000e-02 2.197265625000000000e-03 9.014892578125000000e-02 8.575439453125000000e-02 -8.032226562500000000e-02 -7.470703125000000000e-02 7.366943359375000000e-02 7.012939453125000000e-02 4.437255859375000000e-02 3.070068359375000000e-02 7.672119140625000000e-02 9.698486328125000000e-02 -3.814697265625000000e-02 1.019897460937500000e-01 -8.758544921875000000e-02 3.570556640625000000e-02 -7.629394531250000000e-02 -8.251953125000000000e-02 2.911376953125000000e-02 -1.428222656250000000e-02 -1.910400390625000000e-02 -5.502319335937500000e-02 1.586914062500000000e-02 -4.541015625000000000e-02 -1.598358154296875000e-03 5.963134765625000000e-02 -2.288818359375000000e-02 -6.042480468750000000e-03

1.245117187500000000e-02 -8.374023437500000000e-02 2.195358276367187500e-03 3.338623046875000000e-02 -1.028442382812500000e-01 -4.222869873046875000e-03 5.499267578125000000e-02 5.401611328125000000e-02 -5.685424804687500000e-02 6.793212890625000000e-02 -6.408691406250000000e-02 -3.173828125000000000e-02 -1.264190673828125000e-02 -2.850341796875000000e-02 3.839111328125000000e-02 5.328369140625000000e-02 -1.020507812500000000e-01 -1.447296142578125000e-02 -6.689453125000000000e-02 -7.019042968750000000e-03 -4.077148437500000000e-02 5.828857421875000000e-02 3.011703491210937500e-03 -6.207275390625000000e-02 -9.057617187500000000e-02 -9.820556640625000000e-02 7.794189453125000000e-02 7.366943359375000000e-02 4.986572265625000000e-02 -8.959960937500000000e-02 -1.165771484375000000e-02 -3.356933593750000000e-02 7.135009765625000000e-02 3.202438354492187500e-03 6.610107421875000000e-02 4.522705078125000000e-02 -4.394531250000000000e-03 -7.153320312500000000e-02

-6.652832031250000000e-03 -9.222412109375000000e-02 -8.740234375000000000e-02 3.059387207031250000e-02 -1.165008544921875000e-02 -1.287078857421875000e-02 -7.922363281250000000e-02 5.712890625000000000e-02 4.864501953125000000e-02 8.502197265625000000e-02 -2.290344238281250000e-02 -8.117675781250000000e-02 8.782958984375000000e-02 -1.788330078125000000e-02 -1.586914062500000000e-02 2.948760986328125000e-03 -6.246948242187500000e-02 5.117797851562500000e-02 -6.268310546875000000e-02 9.643554687500000000e-03 -5.645751953125000000e-02 -8.496093750000000000e-02 -6.372070312500000000e-02 -7.733154296875000000e-02 5.187988281250000000e-02 6.304931640625000000e-02 2.009582519531250000e-02 7.354736328125000000e-02 7.049560546875000000e-02 -4.417419433593750000e-03 5.865478515625000000e-02 -8.355712890625000000e-02 -5.502319335937500000e-02 8.264160156250000000e-02 5.905151367187500000e-02 -6.506347656250000000e-02 6.463623046875000000e-02 -9.985351562500000000e-02

