4.876708984375000000e-02 7.391357421875000000e-02 4.931640625000000000e-02 -1.631164550781250000e-02 4.656982421875000000e-02 1.217651367187500000e-02 7.232666015625000000e-02 -2.052307128906250000e-02 6.488037109375000000e-02 -4.116821289062500000e-02 4.901123046875000000e-02 -9.863281250000000000e-02 5.828857421875000000e-02 -4.092407226562500000e-02 1.224517822265625000e-03 5.279541015625000000e-02 -6.146240234375000000e-02 1.002807617187500000e-01 -4.238891601562500000e-02 -9.680175781250000000e-02 9.637451171875000000e-02 -9.301757812500000000e-02 8.050537109375000000e-02 -2.226257324218750000e-02 2.729797363281250000e-02 5.023193359375000000e-02 -6.665039062500000000e-02 -2.914428710937500000e-02 3.619384765625000000e-02 5.303955078125000000e-02 -6.945800781250000000e-02 1.710510253906250000e-02 4.998779296875000000e-02 4.705810546875000000e-02 -9.240722656250000000e-02 -8.538818359375000000e-02 8.074951171875000000e-02 -5.563354492187500000e-02

8.099365234375000000e-02 9.503173828125000000e-02 4.095458984375000000e-02 9.826660156250000000e-03 -9.881591796875000000e-02 -2.832031250000000000e-02 -4.638671875000000000e-02 8.843994140625000000e-02 -4.379272460937500000e-02 -7.049560546875000000e-02 -3.497314453125000000e-02 4.394531250000000000e-03 9.661865234375000000e-02 8.697509765625000000e-02 -7.031250000000000000e-02 2.667236328125000000e-02 -9.423828125000000000e-02 -1.165771484375000000e-02 5.865478515625000000e-02 7.733154296875000000e-02 -3.515625000000000000e-02 -6.045532226562500000e-02 -9.899902343750000000e-02 -6.127929687500000000e-02 -8.654785156250000000e-02 -7.128906250000000000e-02 -1.086425781250000000e-02 -8.679199218750000000e-02 -5.584716796875000000e-02 6.451416015625000000e-02 -7.971191406250000000e-02 -9.643554687500000000e-02 3.570556640625000000e-02 -2.508544921875000000e-02 -9.082031250000000000e-02 -1.788330078125000000e-02 -1.062011718750000000e-02 -2.709960937500000000e-02

3.839111328125000000e-02 -7.672119140625000000e-02 8.276367187500000000e-02 6.106567382812500000e-02 -3.598022460937500000e-02 3.771972656250000000e-02 6.982421875000000000e-02 -4.043579101562500000e-02 -5.212402343750000000e-02 -3.695678710937500000e-02 5.319213867187500000e-02 -9.582519531250000000e-02 -5.197143554687500000e-02 -9.460449218750000000e-02 -5.786132812500000000e-02 6.112670898437500000e-02 -9.844970703125000000e-02 2.160644531250000000e-02 -1.381683349609375000e-02 7.550048828125000000e-02 6.768798828125000000e-02 -1.428222656250000000e-02 8.074951171875000000e-02 -1.305389404296875000e-02 3.262329101562500000e-02 5.084228515625000000e-02 6.463623046875000000e-02 -1.591682434082031250e-03 9.075927734375000000e-02 -9.722900390625000000e-02 -2.987670898437500000e-02 6.999969482421875000e-03 4.937744140625000000e-02 7.897949218750000000e-02 9.320068359375000000e-02 2.546691894531250000e-02 -7.293701171875000000e-02 5.160522460937500000e-02

-3.717041015625000000e-02 -2.453613281250000000e-02 -8.868408203125000000e-02 -3.485107421875000000e-02 -1.387023925781250000e-02 6.542968750000000000e-02 2.290344238281250000e-02 5.944824218750000000e-02 -8.355712890625000000e-02 7.989501953125000000e-02 1.615524291992187500e-03 5.462646484375000000e-02 -5.899047851562500000e-02 -3.372192382812500000e-02 1.885986328125000000e-02 3.762817382812500000e-02 6.341552734375000000e-02 -6.652832031250000000e-02 -4.602050781250000000e-02 -3.250122070312500000e-02 -7.067871093750000000e-02 -2.108764648437500000e-02 7.476806640625000000e-02 -3.350830078125000000e-02 -5.368041992187500000e-02 -6.787109375000000000e-02 5.828857421875000000e-02 -9.063720703125000000e-02 8.538818359375000000e-02 -7.855224609375000000e-02 -6.021118164062500000e-02 4.376220703125000000e-02 8.099365234375000000e-02 4.650878906250000000e-02 -8.886718750000000000e-02 8.782958984375000000e-02 6.999969482421875000e-03 3.582763671875000000e-02

8.538818359375000000e-02 -8.416748046875000000e-02 3.338623046875000000e-02 2.569580078125000000e-02 -5.603027343750000000e-02 -1.587867736816406250e-03 7.989501953125000000e-02 -4.217529296875000000e-02 1.727294921875000000e-02 6.744384765625000000e-02 -5.444335937500000000e-02 8.892822265625000000e-02 1.708984375000000000e-02 8.233642578125000000e-02 -7.171630859375000000e-02 6.451416015625000000e-02 9.161376953125000000e-02 -5.944824218750000000e-02 6.146240234375000000e-02 -7.391357421875000000e-02 -2.307128906250000000e-02 8.319091796875000000e-02 3.717041015625000000e-02 1.647949218750000000e-02 8.064270019531250000e-03 -5.966186523437500000e-02 -6.506347656250000000e-02 -9.277343750000000000e-02 1.403808593750000000e-02 -6.750488281250000000e-02 9.173583984375000000e-02 8.074951171875000000e-02 7.928466796875000000e-02 5.499267578125000000e-02 7.025146484375000000e-02 -9.161376953125000000e-02 5.487060546875000000e-02 -2.920627593994140625e-06

3.472900390625000000e-02 -7.128906250000000000e-02 -1.991271972656250000e-02 -3.594970703125000000e-02 5.157470703125000000e-02 1.708984375000000000e-02 -8.996582031250000000e-02 -3.900527954101562500e-03 -9.960937500000000000e-02 -4.940795898437500000e-02 6.182861328125000000e-02 2.716064453125000000e-02 -8.056640625000000000e-02 -1.403045654296875000e-02 1.010131835937500000e-01 2.050781250000000000e-02 -5.703735351562500000e-02 -9.960937500000000000e-02 -1.343536376953125000e-02 2.805709838867187500e-03 3.601074218750000000e-03 9.686279296875000000e-02 5.706787109375000000e-02 7.794189453125000000e-02 2.754211425781250000e-02 7.354736328125000000e-02 2.069091796875000000e-02 5.780029296875000000e-02 7.427978515625000000e-02 1.788330078125000000e-02 -6.707763671875000000e-02 3.070068359375000000e-02 8.416748046875000000e-02 1.805114746093750000e-02 9.295654296875000000e-02 6.427001953125000000e-02 -8.215332031250000000e-02 -1.004638671875000000e-01

-2.471923828125000000e-02 1.867675781250000000e-02 -1.384735107421875000e-02 -9.417724609375000000e-02 -8.197021484375000000e-02 6.866455078125000000e-02 8.972167968750000000e-02 -1.606750488281250000e-02 1.918792724609375000e-03 6.573486328125000000e-02 -1.102447509765625000e-02 3.851318359375000000e-02 2.033996582031250000e-02 2.793884277343750000e-02 -4.177856445312500000e-02 1.522064208984375000e-02 -5.081176757812500000e-02 1.760864257812500000e-02 1.018676757812500000e-01 4.367065429687500000e-02 1.910400390625000000e-02 7.922363281250000000e-02 4.642486572265625000e-03 -8.538818359375000000e-02 -3.552246093750000000e-02 -4.519653320312500000e-02 1.989746093750000000e-02 4.421997070312500000e-02 -9.863281250000000000e-02 1.605987548828125000e-03 8.819580078125000000e-02 -2.163696289062500000e-02 -9.946823120117187500e-04 -3.189086914062500000e-02 -9.100341796875000000e-02 -4.788208007812500000e-02 5.239868164062500000e-02 -4.721069335937500000e-02

-3.497314453125000000e-02 1.372528076171875000e-02 6.216430664062500000e-02 -2.857971191406250000e-02 2.998352050781250000e-02 -4.956054687500000000e-02 2.624511718750000000e-02 -9.844970703125000000e-02 -1.132202148437500000e-02 -2.874755859375000000e-02 4.043579101562500000e-02 -9.924316406250000000e-02 5.102157592773437500e-04 9.509277343750000000e-02 -5.764770507812500000e-02 5.343627929687500000e-02 7.025146484375000000e-02 6.365966796875000000e-02 -4.479980468750000000e-02 6.977081298828125000e-03 -3.076171875000000000e-02 1.177215576171875000e-02 1.425170898437500000e-02 8.898925781250000000e-02 4.888916015625000000e-02 2.193450927734375000e-03 -3.091430664062500000e-02 -4.513549804687500000e-02 -8.776855468750000000e-02 5.621337890625000000e-02 -9.582519531250000000e-02 6.494140625000000000e-02 -9.320068359375000000e-02 -2.331542968750000000e-02 5.352783203125000000e-02 8.441162109375000000e-02 -2.754211425781250000e-03 -8.465576171875000000e-02

1.907348632812500000e-02 -8.251953125000000000e-02 2.664184570312500000e-02 1.628112792968750000e-02 3.204345703125000000e-02 5.722045898437500000e-03 -3.308105468750000000e-02 2.027893066406250000e-02 -3.890991210937500000e-03 6.069946289062500000e-02 -5.487060546875000000e-02 -2.050781250000000000e-02 5.938720703125000000e-02 -3.094482421875000000e-02 4.583740234375000000e-02 -1.089477539062500000e-02 1.105499267578125000e-02 4.675292968750000000e-02 2.429199218750000000e-02 -1.960754394531250000e-02 4.342651367187500000e-02 4.062652587890625000e-03 5.740356445312500000e-02 -8.636474609375000000e-02 -1.280212402343750000e-02 -4.040527343750000000e-02 -1.254272460937500000e-02 3.100585937500000000e-02 2.769470214843750000e-02 -1.019897460937500000e-01 -5.691528320312500000e-02 -4.782104492187500000e-02 -7.348632812500000000e-02 8.361816406250000000e-02 -7.562255859375000000e-02 -1.852416992187500000e-02 2.244567871093750000e-02 3.015136718750000000e-02

-1.028442382812500000e-01 6.854248046875000000e-02 -6.707763671875000000e-02 -6.179809570312500000e-03 9.130859375000000000e-02 -5.838012695312500000e-02 7.073974609375000000e-02 1.786804199218750000e-02 -7.098388671875000000e-02 3.216552734375000000e-02 -6.634521484375000000e-02 -7.629394531250000000e-02 -4.325866699218750000e-03 -8.740234375000000000e-02 5.706787109375000000e-02 5.664062500000000000e-02 -4.440307617187500000e-02 4.919433593750000000e-02 -5.001831054687500000e-02 -2.192687988281250000e-02 -6.066894531250000000e-02 -7.104492187500000000e-02 -2.374267578125000000e-02 7.942199707031250000e-03 -1.882934570312500000e-02 5.609130859375000000e-02 7.696533203125000000e-02 -1.476287841796875000e-02 7.489013671875000000e-02 -6.848144531250000000e-02 6.994628906250000000e-02 -1.505279541015625000e-02 -1.365661621093750000e-02 -1.014404296875000000e-01 4.070281982421875000e-03 -9.820556640625000000e-02 4.992675781250000000e-02 8.544921875000000000e-02

9.826660156250000000e-03 -5.322265625000000000e-02 -8.293151855468750000e-03 3.411865234375000000e-02 8.380126953125000000e-02 2.932739257812500000e-02 -1.612854003906250000e-02 6.506347656250000000e-02 3.198242187500000000e-02 4.986572265625000000e-02 7.672119140625000000e-02 1.867675781250000000e-02 -6.488800048828125000e-03 -1.112365722656250000e-02 5.804443359375000000e-02 2.720642089843750000e-02 8.673095703125000000e-02 -1.583862304687500000e-02 4.473876953125000000e-02 -3.155517578125000000e-02 -6.207275390625000000e-02 6.726074218750000000e-02 8.233642578125000000e-02 2.510070800781250000e-02 7.397460937500000000e-02 -4.681396484375000000e-02 -9.231567382812500000e-03 -8.575439453125000000e-02 1.511573791503906250e-04 -1.290130615234375000e-02 -4.095458984375000000e-02 1.202392578125000000e-02 6.121826171875000000e-02 5.889892578125000000e-02 -1.504516601562500000e-02 5.667114257812500000e-02 1.190185546875000000e-03 -4.867553710937500000e-02

-3.015136718750000000e-02 -4.962158203125000000e-02 4.803466796875000000e-02 1.008911132812500000e-01 6.048583984375000000e-02 -8.374023437500000000e-02 -3.717041015625000000e-02 -5.102539062500000000e-02 3.558349609375000000e-02 8.172607421875000000e-02 5.487060546875000000e-02 8.270263671875000000e-02 -1.770019531250000000e-02 -9.161376953125000000e-02 -6.185913085937500000e-02 -2.391052246093750000e-02 5.609130859375000000e-02 7.354736328125000000e-02 3.802490234375000000e-02 5.670166015625000000e-02 -4.278564453125000000e-02 -5.844116210937500000e-02 2.372741699218750000e-02 -6.933593750000000000e-02 7.830810546875000000e-02 6.341552734375000000e-02 5.670166015625000000e-02 6.085205078125000000e-02 2.471923828125000000e-02 -6.591796875000000000e-02 -2.569580078125000000e-02 -7.629394531250000000e-02 9.637451171875000000e-02 -8.276367187500000000e-02 3.619384765625000000e-02 -6.384277343750000000e-02 -2.148437500000000000e-02 7.808685302734375000e-03

5.645751953125000000e-02 -3.314208984375000000e-02 9.356689453125000000e-02 -3.250122070312500000e-02 8.734130859375000000e-02 -5.184936523437500000e-02 -9.509277343750000000e-02 6.768798828125000000e-02 4.852294921875000000e-02 -2.392578125000000000e-02 -8.837890625000000000e-02 8.843994140625000000e-02 -7.470703125000000000e-02 9.906005859375000000e-02 -3.814697265625000000e-02 -5.282592773437500000e-02 -6.127929687500000000e-02 -2.549743652343750000e-02 -6.146240234375000000e-02 -2.131652832031250000e-02 4.400634765625000000e-02 -4.284667968750000000e-02 -5.023193359375000000e-02 3.170776367187500000e-02 -1.373291015625000000e-02 8.660888671875000000e-02 -9.442138671875000000e-02 -3.007507324218750000e-02 -6.591796875000000000e-02 3.631591796875000000e-03 -1.991271972656250000e-02 -4.922485351562500000e-02 9.857177734375000000e-02 2.965927124023437500e-03 1.995849609375000000e-02 3.047180175781250000e-02 -2.713012695312500000e-02 9.460449218750000000e-02

-9.197998046875000000e-02 2.287292480468750000e-02 3.643798828125000000e-02 9.118652343750000000e-02 5.195617675781250000e-03 3.988647460937500000e-02 7.244873046875000000e-02 1.448631286621093750e-03 2.738952636718750000e-02 8.660888671875000000e-02 -4.400634765625000000e-02 -7.019042968750000000e-03 -7.629394531250000000e-02 6.805419921875000000e-02 -2.302551269531250000e-02 -6.750488281250000000e-02 1.002807617187500000e-01 -6.158447265625000000e-02 2.670288085937500000e-02 8.819580078125000000e-02 -9.201049804687500000e-03 1.010131835937500000e-01 -9.704589843750000000e-02 -1.404571533203125000e-02 5.012512207031250000e-03 -5.584716796875000000e-02 -7.452392578125000000e-02 3.140258789062500000e-02 -8.117675781250000000e-02 -5.184936523437500000e-02 -6.115436553955078125e-05 -6.420898437500000000e-02 2.804565429687500000e-02 -1.381683349609375000e-02 -6.573486328125000000e-02 -4.882812500000000000e-03 -8.262634277343750000e-03 2.311706542968750000e-02

6.683349609375000000e-02 7.678985595703125000e-03 -1.809692382812500000e-02 -7.659912109375000000e-02 3.137207031250000000e-02 9.405517578125000000e-02 8.990478515625000000e-02 -5.191040039062500000e-02 -7.659912109375000000e-02 9.906005859375000000e-02 -8.522033691406250000e-03 4.058837890625000000e-02 -3.278732299804687500e-03 -2.694702148437500000e-02 6.304931640625000000e-02 2.462768554687500000e-02 -8.575439453125000000e-02 -7.873535156250000000e-02 -4.479980468750000000e-02 -9.155273437500000000e-02 3.997802734375000000e-02 -4.632568359375000000e-02 -3.573608398437500000e-02 5.346679687500000000e-02 8.062744140625000000e-02 -1.885986328125000000e-02 -1.022338867187500000e-01 6.774902343750000000e-02 -9.039306640625000000e-02 -6.231689453125000000e-02 -4.391479492187500000e-02 5.157470703125000000e-02 -8.435058593750000000e-02 -3.106689453125000000e-02 9.637451171875000000e-02 3.231811523437500000e-02 3.244018554687500000e-02 9.283447265625000000e-02

-1.226806640625000000e-02 -3.436279296875000000e-02 -8.325195312500000000e-02 -2.635955810546875000e-03 7.556915283203125000e-03 6.799316406250000000e-02 9.387207031250000000e-02 -5.551147460937500000e-02 1.705932617187500000e-02 -2.166748046875000000e-02 -1.134490966796875000e-02 -4.598999023437500000e-02 1.103210449218750000e-02 5.108642578125000000e-02 -5.703735351562500000e-02 2.445983886718750000e-02 -7.092285156250000000e-02 -2.929687500000000000e-02 -9.741210937500000000e-02 6.127929687500000000e-02 1.010131835937500000e-01 9.680175781250000000e-02 7.293701171875000000e-02 8.955001831054687500e-04 9.387207031250000000e-02 -7.148742675781250000e-03 1.850891113281250000e-02 -8.892822265625000000e-02 -5.195617675781250000e-03 8.911132812500000000e-02 -9.332275390625000000e-02 -4.620361328125000000e-02 1.747608184814453125e-04 -7.397460937500000000e-02 3.720092773437500000e-02 4.098510742187500000e-02 -4.232788085937500000e-02 7.537841796875000000e-02

-4.458618164062500000e-02 3.424072265625000000e-02 -7.952880859375000000e-02 1.480865478515625000e-02 7.067871093750000000e-02 -9.680175781250000000e-02 1.044464111328125000e-02 7.067871093750000000e-02 5.657958984375000000e-02 -2.651214599609375000e-03 -2.308654785156250000e-02 -9.960937500000000000e-02 -1.116180419921875000e-02 6.030273437500000000e-02 -4.257202148437500000e-02 -8.850097656250000000e-02 -8.819580078125000000e-02 4.722595214843750000e-03 -2.516174316406250000e-02 -7.171630859375000000e-02 8.856201171875000000e-02 5.883789062500000000e-02 -3.099060058593750000e-02 -8.471679687500000000e-02 5.511474609375000000e-02 4.681396484375000000e-02 -7.836914062500000000e-02 -2.388000488281250000e-02 8.093261718750000000e-02 6.744384765625000000e-02 -1.438903808593750000e-02 1.441955566406250000e-02 -3.317260742187500000e-02 8.233642578125000000e-02 3.826904296875000000e-02 4.644775390625000000e-02 -7.794189453125000000e-02 5.004882812500000000e-02

-8.935546875000000000e-02 9.637451171875000000e-02 -1.802062988281250000e-02 5.670166015625000000e-02 -7.775878906250000000e-02 2.877807617187500000e-02 1.658630371093750000e-02 1.823425292968750000e-02 -7.208251953125000000e-02 -8.593750000000000000e-02 -2.734375000000000000e-02 -6.408691406250000000e-02 -5.383300781250000000e-02 -7.553100585937500000e-03 6.365966796875000000e-02 -4.159545898437500000e-02 -1.745605468750000000e-02 7.171630859375000000e-02 -9.619140625000000000e-02 -7.213592529296875000e-03 -8.117675781250000000e-02 6.549072265625000000e-02 -8.865356445312500000e-03 1.581192016601562500e-03 2.838134765625000000e-02 -7.812500000000000000e-02 -1.568603515625000000e-02 8.435058593750000000e-02 -4.615783691406250000e-03 -1.043701171875000000e-02 2.209472656250000000e-02 -3.695678710937500000e-02 -3.192138671875000000e-02 -9.136962890625000000e-02 8.972167968750000000e-02 -6.896972656250000000e-02 -1.367187500000000000e-02 3.594970703125000000e-02

-8.477783203125000000e-02 9.411621093750000000e-02 -1.860046386718750000e-02 6.164550781250000000e-02 7.012939453125000000e-02 -3.900146484375000000e-02 -4.910278320312500000e-02 -5.911254882812500000e-02 2.539062500000000000e-02 -8.178710937500000000e-02 1.094818115234375000e-02 1.605224609375000000e-02 -7.232666015625000000e-02 7.733154296875000000e-02 -1.393127441406250000e-02 -2.226257324218750000e-02 9.906005859375000000e-02 -2.850341796875000000e-02 8.110046386718750000e-03 8.233642578125000000e-02 -8.636474609375000000e-02 9.112548828125000000e-02 -4.711914062500000000e-02 3.099060058593750000e-02 -7.153320312500000000e-02 -1.727294921875000000e-02 -3.692626953125000000e-02 -4.983520507812500000e-02 -4.815673828125000000e-02 8.721923828125000000e-02 5.087280273437500000e-02 -5.783081054687500000e-02 9.814453125000000000e-02 8.715820312500000000e-02 3.381347656250000000e-02 2.751159667968750000e-02 -7.873535156250000000e-02 4.077148437500000000e-02

-4.418945312500000000e-02 2.149963378906250000e-02 2.432250976562500000e-02 7.269287109375000000e-02 -9.582519531250000000e-02 9.155273437500000000e-02 -5.572509765625000000e-02 -4.589843750000000000e-02 8.605957031250000000e-02 5.401611328125000000e-02 7.635498046875000000e-02 4.815673828125000000e-02 -2.728271484375000000e-02 -4.898071289062500000e-02 -5.361938476562500000e-02 -8.258056640625000000e-02 -1.786804199218750000e-02 -3.787231445312500000e-02 -6.726074218750000000e-02 7.989501953125000000e-02 9.468078613281250000e-03 -8.325195312500000000e-02 -3.074645996093750000e-02 5.929565429687500000e-02 1.243591308593750000e-03 1.342773437500000000e-02 -6.469726562500000000e-02 8.447265625000000000e-02 1.196289062500000000e-02 5.065917968750000000e-02 -2.673339843750000000e-02 4.119873046875000000e-02 7.208251953125000000e-02 2.906799316406250000e-02 5.902099609375000000e-02 -3.530883789062500000e-02 -7.672119140625000000e-02 -5.157470703125000000e-03

-7.049560546875000000e-02 -2.552795410156250000e-02 2.891540527343750000e-02 -4.446411132812500000e-02 5.212402343750000000e-02 -1.986694335937500000e-02 5.514526367187500000e-02 1.456451416015625000e-02 2.903747558593750000e-02 -7.226562500000000000e-02 2.108764648437500000e-02 6.951904296875000000e-02 -9.436035156250000000e-02 1.543426513671875000e-02 -1.162719726562500000e-02 5.670166015625000000e-02 -6.970214843750000000e-02 9.063720703125000000e-02 -7.397460937500000000e-02 -6.781005859375000000e-02 9.259033203125000000e-02 8.489990234375000000e-02 -8.886718750000000000e-02 -9.423828125000000000e-02 -2.038574218750000000e-02 -2.255249023437500000e-02 -7.452392578125000000e-02 -8.642578125000000000e-02 -5.130004882812500000e-02 -6.469726562500000000e-02 -5.618286132812500000e-02 -4.321289062500000000e-02 2.532958984375000000e-02 -1.759338378906250000e-02 9.252929687500000000e-02 8.673095703125000000e-02 8.862304687500000000e-02 -4.946899414062500000e-02

-6.689453125000000000e-02 -9.613037109375000000e-02 -1.879882812500000000e-02 5.126953125000000000e-02 1.941680908203125000e-03 5.908966064453125000e-03 6.378173828125000000e-02 6.094360351562500000e-02 6.890869140625000000e-02 9.857177734375000000e-02 -3.460693359375000000e-02 -9.661865234375000000e-02 -2.731323242187500000e-02 1.962280273437500000e-02 -3.918457031250000000e-02 5.734252929687500000e-02 9.346008300781250000e-03 7.458496093750000000e-02 -6.970214843750000000e-02 1.338958740234375000e-02 -1.811981201171875000e-03 -3.375244140625000000e-02 -3.775024414062500000e-02 -8.569335937500000000e-02 1.020812988281250000e-02 3.841400146484375000e-03 -9.179687500000000000e-02 2.180099487304687500e-03 9.826660156250000000e-02 4.193115234375000000e-02 8.654785156250000000e-02 -7.025146484375000000e-02 6.805419921875000000e-02 7.653808593750000000e-02 9.960937500000000000e-02 4.708862304687500000e-02 2.069091796875000000e-02 1.201629638671875000e-02

-8.032226562500000000e-02 -6.372070312500000000e-02 6.707763671875000000e-02 1.770019531250000000e-02 -1.024169921875000000e-01 -5.008697509765625000e-03 -8.459472656250000000e-02 1.885986328125000000e-02 -7.995605468750000000e-02 2.026367187500000000e-02 6.011962890625000000e-02 -7.916259765625000000e-02 1.104736328125000000e-02 -8.276367187500000000e-02 5.889892578125000000e-02 5.401611328125000000e-02 -5.023193359375000000e-02 -8.715820312500000000e-02 -6.890869140625000000e-02 9.344482421875000000e-02 5.340576171875000000e-02 2.148437500000000000e-02 -3.594970703125000000e-02 -5.523681640625000000e-02 6.377696990966796875e-06 -4.660034179687500000e-02 -9.539794921875000000e-02 -7.934570312500000000e-02 -4.299926757812500000e-02 -2.832031250000000000e-02 -3.414154052734375000e-03 -5.221557617187500000e-02 2.972412109375000000e-02 -8.837890625000000000e-02 -1.849365234375000000e-02 3.118896484375000000e-02 -3.253173828125000000e-02 -1.010131835937500000e-01

9.460449218750000000e-03 -3.845214843750000000e-03 8.734130859375000000e-02 8.416748046875000000e-02 5.328369140625000000e-02 7.830810546875000000e-02 -7.714843750000000000e-02 9.967041015625000000e-02 -7.153320312500000000e-02 1.263427734375000000e-02 -7.031250000000000000e-02 5.670166015625000000e-02 -7.971191406250000000e-02 6.549072265625000000e-02 -7.470703125000000000e-02 -3.112792968750000000e-02 -3.497314453125000000e-02 -8.654785156250000000e-02 6.964111328125000000e-02 2.374267578125000000e-02 -6.042480468750000000e-03 4.315185546875000000e-02 7.513427734375000000e-02 -5.484008789062500000e-02 1.379966735839843750e-03 -7.049560546875000000e-02 -3.417968750000000000e-03 -1.231193542480468750e-03 -3.613281250000000000e-02 3.167724609375000000e-02 7.442474365234375000e-03 -5.966186523437500000e-02 -4.440307617187500000e-02 -9.924316406250000000e-02 -5.203247070312500000e-02 1.771545410156250000e-02 8.538818359375000000e-02 -1.556396484375000000e-03

-5.685424804687500000e-02 -3.918457031250000000e-02 9.098052978515625000e-04 4.583740234375000000e-02 9.478759765625000000e-02 -1.402282714843750000e-02 1.485443115234375000e-02 -8.233642578125000000e-02 -7.031250000000000000e-02 7.635498046875000000e-02 -3.192138671875000000e-02 2.496337890625000000e-02 8.355712890625000000e-02 -2.388000488281250000e-02 -5.865478515625000000e-02 7.610321044921875000e-03 9.658813476562500000e-03 3.570556640625000000e-02 -7.442474365234375000e-03 8.270263671875000000e-02 -2.165222167968750000e-02 8.819580078125000000e-02 -7.006835937500000000e-02 4.339599609375000000e-02 4.989624023437500000e-02 4.394531250000000000e-03 -7.751464843750000000e-02 -4.904174804687500000e-02 -3.053283691406250000e-02 -8.374023437500000000e-02 2.534484863281250000e-02 7.452392578125000000e-02 -3.221511840820312500e-03 -8.538818359375000000e-02 -2.580642700195312500e-03 -5.258178710937500000e-02 -8.898925781250000000e-02 -3.993988037109375000e-03

