9.350585937500000000e-02

-2.434082031250000000e-01

1.916503906250000000e-01

-2.498779296875000000e-01

-1.831054687500000000e-02

-6.958007812500000000e-02

2.080078125000000000e-01

2.500000000000000000e-01

-2.000732421875000000e-01

1.289062500000000000e-01

-5.346679687500000000e-02

2.651367187500000000e-01

1.879882812500000000e-02

2.558593750000000000e-01

2.075195312500000000e-01

-2.658691406250000000e-01

-5.029296875000000000e-02

8.618164062500000000e-02

2.685546875000000000e-02

-9.252929687500000000e-02

-1.995849609375000000e-01

2.329101562500000000e-01

2.436523437500000000e-01

2.204589843750000000e-01

-1.021728515625000000e-01

8.081054687500000000e-02

1.386718750000000000e-01

-2.617187500000000000e-01

-1.845703125000000000e-01

-6.469726562500000000e-02

-1.075439453125000000e-01

1.193847656250000000e-01

-3.686523437500000000e-02

-1.749267578125000000e-01

1.123046875000000000e-01

-1.711425781250000000e-01

-2.312011718750000000e-01

-1.701660156250000000e-01

-1.160888671875000000e-01

3.662109375000000000e-03

