-2.349853515625000000e-02 4.620361328125000000e-02 -8.056640625000000000e-02 9.223937988281250000e-03 -9.478759765625000000e-02 -6.530761718750000000e-02 -6.591796875000000000e-02 -8.056640625000000000e-02 2.349853515625000000e-02 5.963134765625000000e-02 6.427001953125000000e-02 -8.538818359375000000e-02 5.560302734375000000e-02 -7.556152343750000000e-02 -7.470703125000000000e-02 1.489257812500000000e-02 3.997802734375000000e-02 -1.199340820312500000e-02 -3.894042968750000000e-02 3.738403320312500000e-02 2.252197265625000000e-02 4.656982421875000000e-02 -6.549072265625000000e-02 9.283447265625000000e-02 -8.251953125000000000e-02

-4.739379882812500000e-02 5.619049072265625000e-03 9.025573730468750000e-03 9.783935546875000000e-02 -5.905151367187500000e-02 -1.028442382812500000e-01 -1.289367675781250000e-02 -6.488037109375000000e-02 1.344299316406250000e-02 1.002807617187500000e-01 -5.422973632812500000e-02 -4.541015625000000000e-02 -6.146240234375000000e-02 -7.812500000000000000e-03 9.466552734375000000e-02 6.146240234375000000e-02 4.644775390625000000e-02 -4.379272460937500000e-02 5.242919921875000000e-02 1.008911132812500000e-01 4.058837890625000000e-02 7.415771484375000000e-02 8.636474609375000000e-02 7.427978515625000000e-02 7.598876953125000000e-02

-2.789306640625000000e-02 1.928710937500000000e-02 -7.495117187500000000e-02 -5.221557617187500000e-02 -4.177856445312500000e-02 -1.014404296875000000e-01 -1.911926269531250000e-02 1.062774658203125000e-02 -3.411865234375000000e-02 6.915283203125000000e-02 1.104736328125000000e-02 2.206802368164062500e-03 4.742431640625000000e-02 3.033447265625000000e-02 9.643554687500000000e-03 5.828857421875000000e-02 5.718994140625000000e-02 -4.058837890625000000e-02 1.427459716796875000e-02 8.697509765625000000e-02 1.447296142578125000e-02 -2.148437500000000000e-02 1.022338867187500000e-01 9.564208984375000000e-02 -4.922485351562500000e-02

-3.436279296875000000e-02 -3.753662109375000000e-02 -9.600830078125000000e-02 -6.689453125000000000e-02 -1.019287109375000000e-02 1.020812988281250000e-02 -9.338378906250000000e-02 3.328323364257812500e-03 -5.178833007812500000e-02 -9.667968750000000000e-02 -4.385375976562500000e-02 6.870269775390625000e-03 -5.435180664062500000e-02 1.188659667968750000e-02 -9.075927734375000000e-02 -5.120849609375000000e-02 -5.560302734375000000e-02 -4.171752929687500000e-02 -9.014892578125000000e-02 -6.097412109375000000e-02 1.197052001953125000e-02 -7.739257812500000000e-02 3.723144531250000000e-02 -1.537322998046875000e-02 2.368164062500000000e-02

2.194213867187500000e-02 3.472900390625000000e-02 1.191711425781250000e-02 7.672119140625000000e-02 8.215332031250000000e-02 1.300048828125000000e-02 -5.911254882812500000e-02 -3.271484375000000000e-02 3.332519531250000000e-02 7.702636718750000000e-02 2.105712890625000000e-02 4.522705078125000000e-02 -8.154296875000000000e-02 -7.391357421875000000e-02 -5.630493164062500000e-02 -9.039306640625000000e-02 -4.617309570312500000e-02 9.082031250000000000e-02 -6.469726562500000000e-02 1.318359375000000000e-02 2.912902832031250000e-02 2.304077148437500000e-02 -3.845214843750000000e-03 5.722045898437500000e-02 6.988525390625000000e-02

-7.891845703125000000e-02 9.564208984375000000e-02 4.583740234375000000e-02 -6.787109375000000000e-02 -1.202392578125000000e-02 4.925537109375000000e-02 -8.056640625000000000e-02 6.488037109375000000e-02 -8.917236328125000000e-02 -8.575439453125000000e-02 3.875732421875000000e-02 1.464843750000000000e-02 -5.062866210937500000e-02 8.673095703125000000e-02 -1.007080078125000000e-02 8.795166015625000000e-02 8.355712890625000000e-02 6.042480468750000000e-03 -2.050781250000000000e-02 -7.995605468750000000e-02 -7.232666015625000000e-02 5.523681640625000000e-02 -3.454589843750000000e-02 9.759521484375000000e-02 -1.306152343750000000e-02

1.489257812500000000e-02 -8.093261718750000000e-02 3.228759765625000000e-02 -1.184082031250000000e-02 3.741455078125000000e-02 -2.813720703125000000e-02 -7.714843750000000000e-02 -7.128906250000000000e-02 7.366943359375000000e-02 -8.013916015625000000e-02 4.376220703125000000e-02 -1.006469726562500000e-01 -6.225585937500000000e-03 -8.197021484375000000e-02 -4.211425781250000000e-03 -7.611083984375000000e-02 8.953857421875000000e-02 -1.544189453125000000e-02 -7.873535156250000000e-02 -6.835937500000000000e-03 -1.745605468750000000e-02 2.569580078125000000e-02 -8.312988281250000000e-02 -4.962158203125000000e-02 -3.234863281250000000e-02

-6.347656250000000000e-02 5.963134765625000000e-02 8.331298828125000000e-02 -1.007080078125000000e-02 9.967041015625000000e-02 -5.545043945312500000e-02 -7.495117187500000000e-02 2.191162109375000000e-02 -4.660034179687500000e-02 -1.489257812500000000e-02 -5.062866210937500000e-02 -4.962158203125000000e-02 -3.839111328125000000e-02 1.263427734375000000e-02 -1.306152343750000000e-02 9.576416015625000000e-02 3.338623046875000000e-02 3.338623046875000000e-02 -7.672119140625000000e-02 5.963134765625000000e-02 -7.891845703125000000e-02 -3.253173828125000000e-02 -9.039306640625000000e-02 3.289794921875000000e-02 2.935791015625000000e-02

5.270385742187500000e-02 5.181884765625000000e-02 -8.593750000000000000e-02 -1.788330078125000000e-02 4.638671875000000000e-02 -5.349731445312500000e-02 7.165527343750000000e-02 -8.978271484375000000e-02 -1.462554931640625000e-02 -6.671142578125000000e-02 1.864624023437500000e-02 8.746337890625000000e-02 -2.484130859375000000e-02 1.751708984375000000e-02 9.106445312500000000e-02 -1.519012451171875000e-02 3.952026367187500000e-02 -6.134033203125000000e-02 7.647705078125000000e-02 9.796142578125000000e-02 8.654785156250000000e-02 -9.570312500000000000e-02 -4.162597656250000000e-02 -9.918212890625000000e-02 5.572509765625000000e-02

-8.996582031250000000e-02 7.672119140625000000e-02 -1.219177246093750000e-02 9.857177734375000000e-02 7.916259765625000000e-02 2.153396606445312500e-03 6.732177734375000000e-02 -9.619140625000000000e-02 -8.538818359375000000e-02 -8.764648437500000000e-02 -6.530761718750000000e-02 5.206298828125000000e-02 6.793212890625000000e-02 -1.908874511718750000e-02 -5.841064453125000000e-02 -4.879760742187500000e-02 -8.557128906250000000e-02 5.703735351562500000e-02 -3.427124023437500000e-02 5.630493164062500000e-02 -3.079223632812500000e-02 -1.115417480468750000e-02 6.252288818359375000e-03 7.647705078125000000e-02 2.069473266601562500e-04

-1.849365234375000000e-02 -4.922485351562500000e-02 8.819580078125000000e-02 -4.257202148437500000e-02 -5.844116210937500000e-02 -8.819580078125000000e-02 6.176757812500000000e-02 5.609130859375000000e-02 6.002807617187500000e-02 -8.209228515625000000e-02 2.578735351562500000e-02 4.352569580078125000e-03 3.631591796875000000e-02 -8.776855468750000000e-02 -2.822875976562500000e-02 -2.632141113281250000e-02 5.963134765625000000e-02 -4.342651367187500000e-02 4.418945312500000000e-02 3.817749023437500000e-02 3.583908081054687500e-03 -6.134033203125000000e-02 5.776977539062500000e-02 -8.905029296875000000e-02 -6.216430664062500000e-02

-6.549072265625000000e-02 -8.197021484375000000e-02 -7.910156250000000000e-02 -2.067565917968750000e-02 -6.216430664062500000e-02 -7.617187500000000000e-02 -6.568908691406250000e-03 3.152465820312500000e-02 -4.104614257812500000e-03 -9.429931640625000000e-02 8.476257324218750000e-03 1.479339599609375000e-02 -9.307861328125000000e-02 -7.031250000000000000e-02 3.561401367187500000e-02 -1.417398452758789062e-04 -7.489013671875000000e-02 7.580566406250000000e-02 -7.238769531250000000e-02 2.960205078125000000e-02 -9.130859375000000000e-02 8.416748046875000000e-02 5.444335937500000000e-02 7.495117187500000000e-02 7.281494140625000000e-02

4.644775390625000000e-02 -8.233642578125000000e-02 2.948760986328125000e-03 -2.189636230468750000e-02 -5.178833007812500000e-02 6.008911132812500000e-02 1.147270202636718750e-03 -9.020996093750000000e-02 7.812500000000000000e-02 4.888916015625000000e-02 5.798339843750000000e-02 6.011962890625000000e-02 6.809234619140625000e-03 -7.952880859375000000e-02 2.290725708007812500e-03 -3.814697265625000000e-02 -7.250976562500000000e-02 5.337524414062500000e-02 6.054687500000000000e-02 9.393310546875000000e-02 -2.502441406250000000e-02 2.993774414062500000e-02 2.059936523437500000e-02 -8.514404296875000000e-02 7.125854492187500000e-03

-1.542663574218750000e-02 1.539611816406250000e-02 -7.452392578125000000e-02 9.576416015625000000e-02 -7.836914062500000000e-02 1.537322998046875000e-02 6.567382812500000000e-02 2.786636352539062500e-03 -8.966064453125000000e-02 8.630371093750000000e-02 3.784179687500000000e-02 -7.452392578125000000e-02 7.507324218750000000e-02 -1.583862304687500000e-02 9.265136718750000000e-02 -5.502319335937500000e-02 -8.374023437500000000e-02 8.489990234375000000e-02 9.002685546875000000e-02 2.659606933593750000e-02 8.163452148437500000e-03 -7.470703125000000000e-02 -4.934692382812500000e-02 9.173583984375000000e-02 -1.302337646484375000e-02

-1.788330078125000000e-02 -6.246948242187500000e-02 9.539794921875000000e-02 7.696533203125000000e-02 -3.594970703125000000e-02 -2.813720703125000000e-02 2.450561523437500000e-02 4.339599609375000000e-02 -8.459472656250000000e-02 -5.271911621093750000e-03 8.834838867187500000e-03 -1.000366210937500000e-01 3.875732421875000000e-02 -2.612304687500000000e-02 -3.594970703125000000e-02 -5.615234375000000000e-03 2.127075195312500000e-02 -8.740234375000000000e-02 4.519653320312500000e-02 4.586791992187500000e-02 -2.694702148437500000e-02 -7.214355468750000000e-02 3.778076171875000000e-02 3.570556640625000000e-02 3.219604492187500000e-02

-5.764770507812500000e-02 2.508544921875000000e-02 -7.171630859375000000e-02 3.958129882812500000e-02 -9.240722656250000000e-02 8.232116699218750000e-03 9.376525878906250000e-03 9.576416015625000000e-02 1.264953613281250000e-02 9.973144531250000000e-02 -4.949951171875000000e-02 4.193115234375000000e-02 3.799438476562500000e-02 -9.796142578125000000e-03 -1.279115676879882812e-04 -6.084442138671875000e-03 9.918212890625000000e-03 9.295654296875000000e-02 -9.808349609375000000e-02 -7.556152343750000000e-02 4.666137695312500000e-02 1.869201660156250000e-02 -1.657104492187500000e-02 1.527404785156250000e-02 -1.445770263671875000e-02

-1.018676757812500000e-01 6.683349609375000000e-02 7.885742187500000000e-02 -1.867675781250000000e-02 -8.740234375000000000e-02 -1.611328125000000000e-02 7.879638671875000000e-02 -4.199218750000000000e-02 2.023696899414062500e-03 -5.841064453125000000e-02 8.471679687500000000e-02 -3.890991210937500000e-02 -9.307861328125000000e-02 5.841064453125000000e-02 4.916381835937500000e-02 1.224517822265625000e-02 8.529663085937500000e-03 -3.817749023437500000e-02 1.016845703125000000e-01 -7.812500000000000000e-02 -6.744384765625000000e-02 -5.682373046875000000e-02 -3.034591674804687500e-03 6.243896484375000000e-02 3.890991210937500000e-02

-5.462646484375000000e-02 -8.856201171875000000e-02 -5.361938476562500000e-02 -8.856201171875000000e-02 9.478759765625000000e-02 -3.918457031250000000e-02 5.477905273437500000e-02 -6.933593750000000000e-02 -4.138183593750000000e-02 4.058837890625000000e-02 8.917236328125000000e-02 -8.178710937500000000e-02 3.131103515625000000e-02 1.770019531250000000e-02 -6.970214843750000000e-02 4.394531250000000000e-03 -2.032470703125000000e-02 8.416748046875000000e-02 -5.389404296875000000e-02 3.744506835937500000e-02 6.463623046875000000e-02 3.988647460937500000e-02 -4.156494140625000000e-02 4.559326171875000000e-02 -6.469726562500000000e-02

9.216308593750000000e-03 -2.130126953125000000e-02 -8.135986328125000000e-02 1.344299316406250000e-02 -1.824951171875000000e-02 7.330322265625000000e-02 1.765441894531250000e-02 5.499267578125000000e-02 7.000732421875000000e-02 3.729248046875000000e-02 1.858520507812500000e-02 -4.443359375000000000e-02 -9.600830078125000000e-02 9.637451171875000000e-02 -2.909851074218750000e-02 6.763458251953125000e-03 2.810668945312500000e-02 -4.724121093750000000e-02 -9.143066406250000000e-02 4.025268554687500000e-02 -6.848144531250000000e-02 4.763793945312500000e-02 -3.240966796875000000e-02 -7.684326171875000000e-02 5.880737304687500000e-02

5.929565429687500000e-02 4.309082031250000000e-02 -5.627441406250000000e-02 2.355957031250000000e-02 6.829833984375000000e-02 9.533691406250000000e-02 -8.795166015625000000e-02 -1.006469726562500000e-01 9.747314453125000000e-02 -1.022338867187500000e-01 -6.664276123046875000e-03 -8.630371093750000000e-02 3.396606445312500000e-02 -8.880615234375000000e-02 -2.729797363281250000e-02 2.282714843750000000e-02 -3.091430664062500000e-02 6.372070312500000000e-02 -1.845359802246093750e-04 5.487060546875000000e-02 4.794311523437500000e-02 -4.098510742187500000e-02 4.559326171875000000e-02 8.068847656250000000e-02 -5.877685546875000000e-02

3.460693359375000000e-02 -3.656005859375000000e-02 1.081085205078125000e-02 -4.254150390625000000e-02 -2.107238769531250000e-02 6.573486328125000000e-02 3.533935546875000000e-02 -9.259033203125000000e-02 1.015625000000000000e-01 4.864501953125000000e-02 7.586669921875000000e-02 9.722900390625000000e-02 7.763671875000000000e-02 -5.239868164062500000e-02 7.891845703125000000e-02 -6.066894531250000000e-02 -3.897094726562500000e-02 -5.126953125000000000e-02 -8.978271484375000000e-02 8.105468750000000000e-02 1.013183593750000000e-01 5.142211914062500000e-02 9.094238281250000000e-02 9.515380859375000000e-02 3.261566162109375000e-03

-2.270507812500000000e-02 -2.227783203125000000e-02 9.173583984375000000e-02 -1.910400390625000000e-02 5.718994140625000000e-02 -2.399444580078125000e-03 7.916259765625000000e-02 5.841064453125000000e-02 1.526641845703125000e-02 4.656982421875000000e-02 4.742431640625000000e-02 9.844970703125000000e-02 -1.342773437500000000e-02 -8.459472656250000000e-02 -2.148437500000000000e-02 -3.857421875000000000e-02 -9.423828125000000000e-02 1.008911132812500000e-01 -9.704589843750000000e-02 -1.343536376953125000e-02 -7.006835937500000000e-02 -5.383300781250000000e-02 -5.465698242187500000e-02 -6.591796875000000000e-02 3.913879394531250000e-03

6.866455078125000000e-02 -5.645751953125000000e-02 -2.926635742187500000e-02 -3.411865234375000000e-02 -1.013793945312500000e-01 -9.643554687500000000e-02 8.392333984375000000e-02 -6.372070312500000000e-02 -4.019165039062500000e-02 5.487060546875000000e-02 -9.747314453125000000e-02 7.672119140625000000e-02 -7.733154296875000000e-02 -7.812500000000000000e-02 2.656555175781250000e-02 -4.760742187500000000e-02 -4.360961914062500000e-02 6.160736083984375000e-03 -3.469848632812500000e-02 -3.784179687500000000e-02 -4.431152343750000000e-02 3.948974609375000000e-02 9.472656250000000000e-02 7.409667968750000000e-02 4.067993164062500000e-02

-8.538818359375000000e-02 2.410888671875000000e-02 2.807617187500000000e-02 -6.427001953125000000e-02 -8.209228515625000000e-02 -5.087280273437500000e-02 -9.686279296875000000e-02 -3.459930419921875000e-03 -7.977294921875000000e-02 1.951599121093750000e-02 6.268310546875000000e-02 -9.423828125000000000e-02 -9.448242187500000000e-02 -7.373046875000000000e-02 -8.276367187500000000e-02 7.818603515625000000e-02 5.526733398437500000e-02 -1.242828369140625000e-02 1.010131835937500000e-02 3.649902343750000000e-02 -7.702636718750000000e-02 -8.215332031250000000e-02 9.429931640625000000e-02 4.364013671875000000e-03 -1.557159423828125000e-02

-1.568603515625000000e-02 5.084228515625000000e-02 6.805419921875000000e-02 6.427001953125000000e-02 -2.893066406250000000e-02 -8.276367187500000000e-02 -4.519653320312500000e-02 9.539794921875000000e-02 1.666259765625000000e-02 5.548095703125000000e-02 3.619384765625000000e-02 -8.374023437500000000e-02 -8.477783203125000000e-02 3.033447265625000000e-02 -6.707763671875000000e-02 9.197998046875000000e-02 4.302978515625000000e-02 1.727294921875000000e-02 9.600830078125000000e-02 1.367187500000000000e-02 6.170654296875000000e-02 -8.337402343750000000e-02 -2.593994140625000000e-02 -6.768798828125000000e-02 -5.343627929687500000e-02

8.892822265625000000e-02 1.846313476562500000e-02 5.989074707031250000e-03 -8.557128906250000000e-02 -5.288696289062500000e-02 7.196044921875000000e-02 3.561401367187500000e-02 -9.320068359375000000e-02 7.641601562500000000e-02 -9.649658203125000000e-02 -2.326965332031250000e-02 -6.872558593750000000e-02 -6.390380859375000000e-02 -6.445312500000000000e-02 3.976440429687500000e-02 -5.252075195312500000e-02 -5.535888671875000000e-02 4.370117187500000000e-02 6.896972656250000000e-02 -3.799438476562500000e-02 -3.639221191406250000e-03 8.203125000000000000e-02 1.809692382812500000e-02 -2.543640136718750000e-02 3.820800781250000000e-02

3.131103515625000000e-02 2.833557128906250000e-02 3.411865234375000000e-02 -3.594970703125000000e-02 2.377319335937500000e-02 -5.908203125000000000e-02 6.982421875000000000e-02 -7.848739624023437500e-04 7.019042968750000000e-02 7.879638671875000000e-02 -8.666992187500000000e-02 -2.910614013671875000e-03 -7.629394531250000000e-02 9.625244140625000000e-02 1.836776733398437500e-03 -3.894042968750000000e-02 -6.347656250000000000e-02 6.121826171875000000e-02 7.476806640625000000e-02 -5.249023437500000000e-02 8.825683593750000000e-02 -4.977416992187500000e-02 -5.590820312500000000e-02 8.166503906250000000e-02 3.332519531250000000e-02

-7.653808593750000000e-02 -9.503173828125000000e-02 -1.020507812500000000e-01 4.620361328125000000e-02 -5.343627929687500000e-02 -8.056640625000000000e-02 -5.355834960937500000e-02 1.343536376953125000e-02 6.768798828125000000e-02 6.787109375000000000e-02 -1.401519775390625000e-02 5.468750000000000000e-02 8.172607421875000000e-02 -1.945495605468750000e-02 -8.850097656250000000e-02 -3.253173828125000000e-02 4.193115234375000000e-02 1.995849609375000000e-02 1.216125488281250000e-02 8.691406250000000000e-02 -2.543640136718750000e-02 2.478027343750000000e-02 2.377319335937500000e-02 -4.748535156250000000e-02 -8.888244628906250000e-03

9.283447265625000000e-02 -9.680175781250000000e-02 -6.146240234375000000e-02 -3.234863281250000000e-02 1.947021484375000000e-02 6.927490234375000000e-02 6.671142578125000000e-02 -9.802246093750000000e-02 -4.016113281250000000e-02 -4.821777343750000000e-02 1.848220825195312500e-03 -1.004638671875000000e-01 7.147216796875000000e-02 3.839111328125000000e-02 -4.901123046875000000e-02 -3.637695312500000000e-02 -6.970214843750000000e-02 1.788330078125000000e-02 -1.428222656250000000e-02 9.381103515625000000e-02 -5.181884765625000000e-02 8.612060546875000000e-02 6.707763671875000000e-02 6.060791015625000000e-02 -9.820556640625000000e-02

8.270263671875000000e-02 -3.857421875000000000e-02 4.061889648437500000e-02 -5.984497070312500000e-02 1.024627685546875000e-02 -6.793212890625000000e-02 -1.466369628906250000e-02 3.973388671875000000e-02 8.155822753906250000e-03 2.105712890625000000e-02 1.168060302734375000e-02 -5.786132812500000000e-02 -3.158569335937500000e-02 -7.812500000000000000e-02 1.022338867187500000e-01 3.375244140625000000e-02 1.522064208984375000e-03 6.860351562500000000e-02 -5.953979492187500000e-02 -8.526611328125000000e-02 3.277587890625000000e-02 -1.928710937500000000e-02 5.035400390625000000e-02 -7.916259765625000000e-02 3.771972656250000000e-02

-3.753662109375000000e-02 2.508544921875000000e-02 -6.127929687500000000e-02 -9.100341796875000000e-02 6.671142578125000000e-02 8.258056640625000000e-02 3.375244140625000000e-02 -4.840087890625000000e-02 -6.726074218750000000e-02 -2.355957031250000000e-02 -6.023406982421875000e-03 6.170654296875000000e-02 -2.874755859375000000e-02 1.123809814453125000e-02 -9.924316406250000000e-02 3.961181640625000000e-02 8.538818359375000000e-02 -8.715820312500000000e-02 3.530883789062500000e-02 -7.653808593750000000e-02 4.998779296875000000e-02 4.174804687500000000e-02 3.750610351562500000e-02 -8.597373962402343750e-04 5.239868164062500000e-02

-5.282592773437500000e-02 2.935791015625000000e-02 8.160400390625000000e-02 7.916259765625000000e-02 -8.312988281250000000e-02 -8.312988281250000000e-02 -5.560302734375000000e-02 2.972412109375000000e-02 -2.709960937500000000e-02 4.522705078125000000e-02 1.933288574218750000e-02 6.512451171875000000e-02 -1.404762268066406250e-03 -5.444335937500000000e-02 3.756713867187500000e-02 -9.881591796875000000e-02 -4.782104492187500000e-02 4.653930664062500000e-02 8.972167968750000000e-02 2.215576171875000000e-02 -7.513427734375000000e-02 -8.917236328125000000e-02 8.856201171875000000e-02 -5.893707275390625000e-03 5.468750000000000000e-02

9.259033203125000000e-02 -3.497314453125000000e-02 -8.538818359375000000e-02 -3.955078125000000000e-02 9.747314453125000000e-02 -8.801269531250000000e-02 -4.580688476562500000e-02 1.013793945312500000e-01 -8.355712890625000000e-02 1.565933227539062500e-03 8.856201171875000000e-02 9.259033203125000000e-02 9.759521484375000000e-02 -5.764770507812500000e-02 -5.282592773437500000e-02 -1.024169921875000000e-01 -5.603027343750000000e-02 2.693176269531250000e-02 2.690124511718750000e-02 7.452392578125000000e-02 -9.338378906250000000e-02 -3.997802734375000000e-02 6.207275390625000000e-02 -3.436279296875000000e-02 4.400634765625000000e-02

-3.558349609375000000e-02 7.629394531250000000e-03 -1.004638671875000000e-01 5.401611328125000000e-02 6.103515625000000000e-04 1.147460937500000000e-02 -2.691650390625000000e-02 -6.207275390625000000e-02 -6.106567382812500000e-02 -3.613281250000000000e-02 -1.684570312500000000e-02 -5.764770507812500000e-02 -4.638671875000000000e-03 1.184082031250000000e-02 -9.619140625000000000e-02 -6.372070312500000000e-02 1.263427734375000000e-02 -9.844970703125000000e-02 -7.929801940917968750e-04 1.647949218750000000e-02 7.086181640625000000e-02 8.056640625000000000e-03 9.124755859375000000e-02 1.507568359375000000e-02 -3.131103515625000000e-02

4.339599609375000000e-02 -7.409667968750000000e-02 -3.108215332031250000e-02 6.207275390625000000e-02 5.267333984375000000e-02 -5.383300781250000000e-02 4.474639892578125000e-03 -7.592773437500000000e-02 5.056762695312500000e-02 6.634521484375000000e-02 -4.074096679687500000e-02 -6.567382812500000000e-02 -4.940795898437500000e-02 5.950927734375000000e-02 -6.829833984375000000e-02 -2.691650390625000000e-02 -3.454589843750000000e-02 -5.621337890625000000e-02 2.783203125000000000e-02 -7.855224609375000000e-02 -1.994323730468750000e-02 1.805114746093750000e-02 -5.728149414062500000e-02 -4.135131835937500000e-02 -1.943969726562500000e-02

-9.399414062500000000e-02 2.471923828125000000e-02 1.885986328125000000e-02 -9.600830078125000000e-02 -7.312011718750000000e-02 -1.544189453125000000e-02 -8.837890625000000000e-02 3.009033203125000000e-02 7.202148437500000000e-03 3.814697265625000000e-02 5.249023437500000000e-03 6.402587890625000000e-02 -9.899902343750000000e-02 1.770019531250000000e-02 -5.303955078125000000e-02 -9.197998046875000000e-02 8.319091796875000000e-02 -2.227783203125000000e-02 -1.024169921875000000e-01 1.002807617187500000e-01 7.446289062500000000e-03 9.808349609375000000e-02 -4.177856445312500000e-02 -7.202148437500000000e-03 -4.394531250000000000e-03

1.006469726562500000e-01 4.559326171875000000e-02 -2.272033691406250000e-02 3.802490234375000000e-02 -8.935546875000000000e-02 -1.006126403808593750e-03 -6.506347656250000000e-02 7.808685302734375000e-03 -4.699707031250000000e-02 -8.477783203125000000e-02 -8.178710937500000000e-02 6.524658203125000000e-02 9.100341796875000000e-02 2.050781250000000000e-02 -4.962158203125000000e-02 -2.673339843750000000e-02 -5.685424804687500000e-02 9.223937988281250000e-03 8.477783203125000000e-02 6.292724609375000000e-02 5.584716796875000000e-02 3.842163085937500000e-02 4.034423828125000000e-02 5.181884765625000000e-02 -1.154899597167968750e-03

-8.056640625000000000e-03 7.944107055664062500e-04 7.855224609375000000e-02 9.124755859375000000e-02 -9.277343750000000000e-02 -9.643554687500000000e-03 2.601623535156250000e-02 -9.942626953125000000e-02 9.417724609375000000e-02 -2.026367187500000000e-02 5.377197265625000000e-02 -3.796386718750000000e-02 -1.166534423828125000e-02 1.647949218750000000e-02 -7.611083984375000000e-02 8.850097656250000000e-03 -7.891845703125000000e-02 7.196044921875000000e-02 5.718994140625000000e-02 6.143188476562500000e-02 -6.604003906250000000e-02 -1.570129394531250000e-02 -9.136962890625000000e-02 1.863479614257812500e-03 -2.815246582031250000e-02

