6.304931640625000000e-02 -1.228332519531250000e-03 2.087402343750000000e-02 -1.042938232421875000e-02 -2.191162109375000000e-02 6.109619140625000000e-02 7.830810546875000000e-02 8.673095703125000000e-02 -1.893997192382812500e-03 -7.873535156250000000e-02 -1.002197265625000000e-01 -5.184936523437500000e-02 4.119873046875000000e-02 8.734130859375000000e-02 -3.836059570312500000e-02 -3.411865234375000000e-02 4.095458984375000000e-02 -1.362609863281250000e-02 7.830810546875000000e-02 -6.994628906250000000e-02 -7.330322265625000000e-02 -1.707458496093750000e-02 -1.850891113281250000e-02 2.349853515625000000e-02 8.038330078125000000e-02

1.008911132812500000e-01 -2.508544921875000000e-02 -6.665039062500000000e-02 -8.337402343750000000e-02 6.512451171875000000e-02 -9.582519531250000000e-02 7.391357421875000000e-02 7.073974609375000000e-02 7.427978515625000000e-02 -2.025604248046875000e-03 7.696533203125000000e-02 -9.759521484375000000e-02 6.744384765625000000e-02 -2.008056640625000000e-02 4.315185546875000000e-02 -7.446289062500000000e-03 7.073974609375000000e-02 -7.067871093750000000e-02 -2.272033691406250000e-02 1.227569580078125000e-02 9.686279296875000000e-02 7.708740234375000000e-02 3.936767578125000000e-02 -5.142211914062500000e-02 -3.875732421875000000e-02

-8.697509765625000000e-02 -9.197998046875000000e-02 3.848075866699218750e-04 -4.394531250000000000e-03 -2.148437500000000000e-02 1.708984375000000000e-02 5.267333984375000000e-02 5.096435546875000000e-02 7.550048828125000000e-02 8.050537109375000000e-02 2.911376953125000000e-02 -8.135986328125000000e-02 -2.166748046875000000e-02 8.422851562500000000e-03 1.947021484375000000e-02 3.155517578125000000e-02 1.402282714843750000e-02 3.570556640625000000e-02 -3.112792968750000000e-02 4.705810546875000000e-02 -8.593750000000000000e-02 -3.192138671875000000e-02 7.208251953125000000e-02 9.539794921875000000e-02 9.405517578125000000e-02

1.945495605468750000e-02 -9.924316406250000000e-02 -5.004882812500000000e-02 -7.531738281250000000e-02 3.125000000000000000e-02 1.565551757812500000e-02 -6.286621093750000000e-02 -5.624389648437500000e-02 -5.950927734375000000e-02 -3.329467773437500000e-02 -1.727294921875000000e-02 -3.606796264648437500e-03 -3.405761718750000000e-02 -2.267456054687500000e-02 1.443481445312500000e-02 6.244659423828125000e-03 -5.985260009765625000e-03 -7.189941406250000000e-02 -5.084228515625000000e-02 6.768798828125000000e-02 -2.600097656250000000e-02 -3.930664062500000000e-02 -1.278686523437500000e-02 -6.282806396484375000e-03 -8.068847656250000000e-02

-9.338378906250000000e-02 -4.922485351562500000e-02 -2.452087402343750000e-02 -1.771545410156250000e-02 7.171630859375000000e-02 4.108428955078125000e-03 -1.023559570312500000e-01 -6.085205078125000000e-02 7.057189941406250000e-03 2.613830566406250000e-02 -5.307006835937500000e-02 -9.704589843750000000e-02 7.263183593750000000e-02 -1.644897460937500000e-02 8.789062500000000000e-02 3.839111328125000000e-02 -3.016662597656250000e-02 -8.282470703125000000e-02 3.125000000000000000e-02 9.930419921875000000e-02 -5.303955078125000000e-02 -7.137298583984375000e-03 5.447387695312500000e-02 3.268432617187500000e-02 6.439208984375000000e-02

-8.654785156250000000e-02 1.971435546875000000e-02 -1.745605468750000000e-02 7.427978515625000000e-02 6.683349609375000000e-02 -8.398437500000000000e-02 -9.033203125000000000e-03 -4.278564453125000000e-02 -4.699707031250000000e-02 8.697509765625000000e-02 -4.782104492187500000e-02 -8.251953125000000000e-02 -1.104736328125000000e-02 4.595947265625000000e-02 -5.764770507812500000e-02 -3.594970703125000000e-02 -5.844116210937500000e-02 -2.429199218750000000e-02 2.545166015625000000e-02 -1.788330078125000000e-02 8.941650390625000000e-02 1.399040222167968750e-03 -8.355712890625000000e-02 -3.698730468750000000e-02 6.988525390625000000e-02

7.513427734375000000e-02 7.452392578125000000e-02 -3.271484375000000000e-02 -7.293701171875000000e-02 5.249023437500000000e-03 6.048583984375000000e-02 2.850341796875000000e-02 -4.138183593750000000e-02 2.716064453125000000e-02 -8.758544921875000000e-02 2.508544921875000000e-02 -3.955078125000000000e-02 -7.971191406250000000e-02 -4.418945312500000000e-02 4.815673828125000000e-02 -2.008056640625000000e-02 8.441162109375000000e-02 -8.538818359375000000e-02 9.539794921875000000e-02 -4.760742187500000000e-02 -9.844970703125000000e-02 -7.775878906250000000e-02 5.706787109375000000e-02 4.083251953125000000e-02 3.802490234375000000e-02

-1.989746093750000000e-02 -8.239746093750000000e-03 -8.959960937500000000e-02 8.233642578125000000e-02 -8.850097656250000000e-03 -4.721069335937500000e-02 -2.087402343750000000e-02 6.488037109375000000e-02 8.355712890625000000e-02 -5.422973632812500000e-02 -3.753662109375000000e-02 -9.240722656250000000e-02 -7.934570312500000000e-04 -5.041503906250000000e-02 4.620361328125000000e-02 5.609130859375000000e-02 -8.013916015625000000e-02 -7.348632812500000000e-02 -4.559326171875000000e-02 9.344482421875000000e-02 -5.041503906250000000e-02 7.293701171875000000e-02 -6.146240234375000000e-02 -6.347656250000000000e-02 -1.226806640625000000e-02

3.594970703125000000e-02 -3.295898437500000000e-02 6.427001953125000000e-02 -1.014404296875000000e-01 6.536865234375000000e-02 -6.759643554687500000e-03 -6.549072265625000000e-02 3.030395507812500000e-02 9.643554687500000000e-02 -7.348632812500000000e-02 3.836059570312500000e-02 2.464294433593750000e-03 -4.086303710937500000e-02 1.980590820312500000e-02 -5.172729492187500000e-02 9.356689453125000000e-02 4.737854003906250000e-03 -4.238891601562500000e-02 -5.541992187500000000e-02 3.097534179687500000e-02 8.703613281250000000e-02 -8.740234375000000000e-02 4.776000976562500000e-02 -1.371765136718750000e-02 9.448242187500000000e-02

4.742431640625000000e-02 -4.699707031250000000e-02 8.264160156250000000e-02 6.854248046875000000e-02 -3.195190429687500000e-02 3.970336914062500000e-02 3.561401367187500000e-02 2.728271484375000000e-02 6.512451171875000000e-02 -2.938842773437500000e-02 8.453369140625000000e-02 7.708740234375000000e-02 -5.807495117187500000e-02 -6.005859375000000000e-02 2.264404296875000000e-02 6.768798828125000000e-02 -3.753662109375000000e-02 1.649475097656250000e-02 9.429931640625000000e-02 2.615356445312500000e-02 2.778625488281250000e-02 9.490966796875000000e-02 -7.366180419921875000e-03 6.726074218750000000e-02 1.586914062500000000e-03

2.668762207031250000e-02 8.477783203125000000e-02 -3.735351562500000000e-02 5.401611328125000000e-02 -9.020996093750000000e-02 -2.027893066406250000e-02 -9.210205078125000000e-02 -1.166534423828125000e-02 4.583740234375000000e-02 -6.719970703125000000e-02 -3.286743164062500000e-02 -5.545043945312500000e-02 9.918212890625000000e-02 3.131103515625000000e-02 7.086181640625000000e-02 8.172607421875000000e-02 -4.238891601562500000e-02 4.009246826171875000e-03 -5.276489257812500000e-02 9.197998046875000000e-02 3.912353515625000000e-02 3.884887695312500000e-02 2.587890625000000000e-02 -9.869384765625000000e-02 -2.432250976562500000e-02

-2.551269531250000000e-02 -5.102539062500000000e-02 4.412841796875000000e-02 -3.997802734375000000e-02 -9.112548828125000000e-02 3.588867187500000000e-02 8.355712890625000000e-02 -7.836914062500000000e-02 5.926513671875000000e-02 7.996559143066406250e-04 -7.757568359375000000e-02 -8.624267578125000000e-02 -9.088134765625000000e-02 4.464721679687500000e-02 -2.143859863281250000e-02 -6.450653076171875000e-03 -5.084228515625000000e-02 -9.167480468750000000e-02 4.183959960937500000e-02 -4.174804687500000000e-02 4.248046875000000000e-02 -1.016845703125000000e-01 -1.928710937500000000e-02 8.740234375000000000e-02 2.319335937500000000e-02

-5.282592773437500000e-02 -7.855224609375000000e-02 4.791259765625000000e-02 4.708862304687500000e-02 -2.348327636718750000e-02 -7.022857666015625000e-03 -3.799438476562500000e-02 9.686279296875000000e-02 -7.586669921875000000e-02 -5.670166015625000000e-02 -3.878784179687500000e-02 -2.427673339843750000e-02 -1.054763793945312500e-03 1.654624938964843750e-03 -2.481079101562500000e-02 6.524658203125000000e-02 6.866455078125000000e-02 -1.245880126953125000e-02 -8.831787109375000000e-02 -4.428863525390625000e-03 8.276367187500000000e-02 3.738403320312500000e-02 -4.220581054687500000e-02 1.242828369140625000e-02 5.703735351562500000e-02

6.646728515625000000e-02 9.442138671875000000e-02 6.616210937500000000e-02 -9.844970703125000000e-02 -3.778076171875000000e-02 -6.854248046875000000e-02 9.814453125000000000e-02 -7.250976562500000000e-02 -3.421020507812500000e-02 -1.062774658203125000e-02 3.610229492187500000e-02 2.815246582031250000e-03 5.081176757812500000e-02 2.841186523437500000e-02 4.226684570312500000e-02 1.013793945312500000e-01 2.444458007812500000e-02 1.023559570312500000e-01 -4.821777343750000000e-02 4.797363281250000000e-02 -8.935546875000000000e-02 1.829528808593750000e-02 -7.165527343750000000e-02 -4.687500000000000000e-02 -2.484130859375000000e-02

-4.962158203125000000e-02 -9.741210937500000000e-02 8.660888671875000000e-02 3.851318359375000000e-02 -1.066589355468750000e-02 3.070068359375000000e-02 6.115722656250000000e-02 1.026000976562500000e-01 4.714965820312500000e-02 7.269287109375000000e-02 4.234313964843750000e-03 9.722900390625000000e-02 1.387023925781250000e-02 -1.885986328125000000e-02 4.620361328125000000e-02 5.593299865722656250e-04 4.400634765625000000e-02 5.093383789062500000e-02 7.305908203125000000e-02 -1.789855957031250000e-02 7.696533203125000000e-02 8.050537109375000000e-02 -5.361938476562500000e-02 -2.409362792968750000e-02 6.988525390625000000e-02

6.304931640625000000e-02 -4.580688476562500000e-02 9.881591796875000000e-02 -6.427001953125000000e-02 -3.083801269531250000e-02 8.441162109375000000e-02 -1.699829101562500000e-02 -6.146240234375000000e-02 4.119873046875000000e-02 5.093383789062500000e-02 -4.742431640625000000e-02 8.477783203125000000e-02 -2.792358398437500000e-02 8.172607421875000000e-02 -8.917236328125000000e-02 -6.702423095703125000e-03 7.518768310546875000e-03 -7.092285156250000000e-02 -4.965209960937500000e-02 -8.099365234375000000e-02 -3.167724609375000000e-02 1.434326171875000000e-02 5.392456054687500000e-02 1.641845703125000000e-02 2.720642089843750000e-02

2.569580078125000000e-02 -8.135986328125000000e-02 -9.330749511718750000e-03 -5.502319335937500000e-02 -8.197021484375000000e-02 2.082824707031250000e-02 4.537963867187500000e-02 -2.059936523437500000e-03 -3.579711914062500000e-02 -2.261352539062500000e-02 6.695556640625000000e-02 -9.405517578125000000e-02 -5.767822265625000000e-02 -2.490234375000000000e-02 2.981567382812500000e-02 9.039306640625000000e-02 -2.272033691406250000e-02 -9.051513671875000000e-02 -7.818603515625000000e-02 -6.329345703125000000e-02 -8.197021484375000000e-02 7.366943359375000000e-02 -4.684448242187500000e-02 2.229309082031250000e-02 -3.268432617187500000e-02

7.708740234375000000e-02 -7.574462890625000000e-02 -8.355712890625000000e-02 -5.062866210937500000e-02 -6.506347656250000000e-02 -4.519653320312500000e-02 3.610229492187500000e-02 6.048583984375000000e-02 -5.926513671875000000e-02 9.564208984375000000e-02 8.865356445312500000e-03 -4.238891601562500000e-02 3.009033203125000000e-02 3.533935546875000000e-02 7.696533203125000000e-02 -6.652832031250000000e-03 5.950927734375000000e-02 -4.037475585937500000e-02 -8.557128906250000000e-02 -5.755615234375000000e-02 -9.680175781250000000e-02 1.840591430664062500e-04 2.050781250000000000e-02 -4.837512969970703125e-04 -1.024169921875000000e-01

-8.618164062500000000e-02 -2.593994140625000000e-02 -1.810073852539062500e-03 -2.975463867187500000e-03 -4.818725585937500000e-02 -1.016235351562500000e-01 7.104492187500000000e-02 -2.210998535156250000e-02 8.685302734375000000e-02 -9.283447265625000000e-02 7.305908203125000000e-02 -2.067565917968750000e-02 -7.214355468750000000e-02 -3.857421875000000000e-02 5.058288574218750000e-03 1.707458496093750000e-02 -6.750488281250000000e-02 -8.099365234375000000e-02 -4.318237304687500000e-02 -9.704589843750000000e-02 9.515380859375000000e-02 7.385253906250000000e-02 5.239868164062500000e-02 -2.113342285156250000e-02 5.535888671875000000e-02

2.877807617187500000e-02 4.953002929687500000e-02 -7.489013671875000000e-02 3.192138671875000000e-02 3.350830078125000000e-02 -6.717681884765625000e-03 -1.261901855468750000e-02 -2.549743652343750000e-02 -8.129882812500000000e-02 -1.148986816406250000e-02 4.742431640625000000e-02 -6.137847900390625000e-03 -9.448242187500000000e-02 4.876708984375000000e-02 8.811950683593750000e-03 -7.232666015625000000e-02 3.811645507812500000e-02 5.294799804687500000e-02 9.930419921875000000e-02 9.088134765625000000e-02 1.368713378906250000e-02 9.210205078125000000e-02 4.660034179687500000e-02 4.776000976562500000e-02 4.391479492187500000e-02

6.683349609375000000e-02 6.683349609375000000e-02 6.677246093750000000e-02 9.075927734375000000e-02 -4.415893554687500000e-02 -4.598999023437500000e-02 8.203125000000000000e-02 -3.253173828125000000e-02 -2.487182617187500000e-03 -4.403686523437500000e-02 -3.979492187500000000e-02 6.179809570312500000e-04 8.691406250000000000e-02 -9.539794921875000000e-02 -6.372070312500000000e-02 6.134033203125000000e-03 1.036071777343750000e-02 -6.951904296875000000e-02 -7.282257080078125000e-03 2.978515625000000000e-02 -2.684020996093750000e-02 2.574157714843750000e-02 -4.241943359375000000e-02 1.044464111328125000e-02 -7.812500000000000000e-02

5.401611328125000000e-02 4.718017578125000000e-02 -3.314208984375000000e-02 -1.026611328125000000e-01 -9.082031250000000000e-02 2.653503417968750000e-02 -9.881591796875000000e-02 -6.649017333984375000e-03 1.507568359375000000e-02 -1.447296142578125000e-02 -1.805114746093750000e-02 -3.475952148437500000e-02 6.304931640625000000e-02 -1.026611328125000000e-01 1.345062255859375000e-02 6.198883056640625000e-04 -1.849365234375000000e-02 -4.440307617187500000e-02 -9.619140625000000000e-02 -5.664062500000000000e-02 -7.873535156250000000e-02 2.130126953125000000e-02 6.118774414062500000e-02 -5.462646484375000000e-02 5.462646484375000000e-02

-2.111816406250000000e-02 4.814147949218750000e-03 5.584716796875000000e-02 -6.347656250000000000e-02 1.020507812500000000e-01 -4.043579101562500000e-03 -3.179931640625000000e-02 3.094482421875000000e-02 -1.994323730468750000e-02 5.050659179687500000e-02 -8.483886718750000000e-02 8.660888671875000000e-02 -1.496124267578125000e-02 1.806640625000000000e-02 -2.326965332031250000e-02 2.191162109375000000e-02 -8.956909179687500000e-03 7.910156250000000000e-02 -1.016845703125000000e-01 1.264953613281250000e-02 3.182983398437500000e-02 4.785156250000000000e-02 -6.051635742187500000e-02 -6.076049804687500000e-02 6.829833984375000000e-02

-2.531433105468750000e-02 -2.593994140625000000e-02 -6.130981445312500000e-02 -4.254150390625000000e-02 -7.623291015625000000e-02 -4.867553710937500000e-02 -2.433776855468750000e-02 3.533935546875000000e-02 -2.710342407226562500e-03 5.072021484375000000e-02 -2.114868164062500000e-02 3.578186035156250000e-03 -2.818298339843750000e-02 -9.600830078125000000e-02 8.575439453125000000e-02 -6.604003906250000000e-02 9.506225585937500000e-03 -4.647827148437500000e-02 -1.031494140625000000e-02 8.331298828125000000e-02 4.040527343750000000e-02 1.421356201171875000e-02 -1.088976860046386719e-04 4.708862304687500000e-02 -1.137542724609375000e-02

2.050781250000000000e-02 3.839111328125000000e-02 -9.643554687500000000e-03 7.427978515625000000e-02 7.269287109375000000e-02 2.313232421875000000e-02 4.180908203125000000e-02 -5.825805664062500000e-02 1.006469726562500000e-01 2.606201171875000000e-02 -2.380371093750000000e-03 -3.936767578125000000e-02 9.283447265625000000e-02 1.605224609375000000e-02 -4.541015625000000000e-02 5.865478515625000000e-02 -3.216552734375000000e-02 9.197998046875000000e-02 -1.586914062500000000e-03 6.866455078125000000e-02 -3.271484375000000000e-02 1.263427734375000000e-02 4.315185546875000000e-02 -4.418945312500000000e-02 7.629394531250000000e-03

-9.283447265625000000e-02 -1.068878173828125000e-02 -1.099395751953125000e-02 5.685424804687500000e-02 1.367950439453125000e-02 4.150390625000000000e-02 -7.232666015625000000e-02 -8.679199218750000000e-02 -4.583740234375000000e-02 9.527587890625000000e-02 -7.299804687500000000e-02 2.200317382812500000e-02 3.396606445312500000e-02 1.422119140625000000e-02 -9.350585937500000000e-02 -3.228759765625000000e-02 -3.164672851562500000e-02 -7.678222656250000000e-02 7.690429687500000000e-02 9.597778320312500000e-03 -1.026000976562500000e-01 -2.900695800781250000e-02 -6.732177734375000000e-02 6.616210937500000000e-02 -1.003417968750000000e-01

-5.062866210937500000e-02 -4.821777343750000000e-02 -2.001953125000000000e-02 -2.671813964843750000e-02 1.828002929687500000e-02 -3.918457031250000000e-02 -9.185791015625000000e-02 -1.525878906250000000e-02 2.987670898437500000e-02 -1.699829101562500000e-02 -9.094238281250000000e-02 -7.391357421875000000e-02 -8.294677734375000000e-02 2.151489257812500000e-02 -6.707763671875000000e-02 2.338409423828125000e-03 -1.341247558593750000e-02 -5.541992187500000000e-02 2.786254882812500000e-02 -4.833984375000000000e-02 3.228759765625000000e-02 -4.086303710937500000e-02 1.256561279296875000e-02 -2.755737304687500000e-02 -7.482910156250000000e-02

-7.775878906250000000e-02 3.912353515625000000e-02 6.088256835937500000e-02 -9.259033203125000000e-02 1.246643066406250000e-02 3.909301757812500000e-02 9.832763671875000000e-02 -5.484008789062500000e-02 -3.038024902343750000e-02 -5.136108398437500000e-02 6.597900390625000000e-02 -2.084350585937500000e-02 -3.298950195312500000e-02 -7.625579833984375000e-03 -9.193420410156250000e-03 3.216552734375000000e-02 -3.375244140625000000e-02 -3.086853027343750000e-02 -4.446411132812500000e-02 -5.245971679687500000e-02 9.265136718750000000e-02 -2.659606933593750000e-02 3.671264648437500000e-02 -9.155273437500000000e-02 -5.712890625000000000e-02

-1.062011718750000000e-02 5.364990234375000000e-02 1.586914062500000000e-02 -4.638671875000000000e-02 -9.960937500000000000e-02 -4.058837890625000000e-02 -4.440307617187500000e-02 -4.638671875000000000e-02 5.206298828125000000e-02 2.386474609375000000e-02 7.305908203125000000e-02 2.777099609375000000e-02 4.211425781250000000e-03 -4.077148437500000000e-02 -4.498291015625000000e-02 7.366943359375000000e-02 -8.898925781250000000e-02 -7.775878906250000000e-02 2.264404296875000000e-02 -6.750488281250000000e-02 -9.985351562500000000e-02 2.288818359375000000e-02 5.682373046875000000e-02 1.885986328125000000e-02 -2.130126953125000000e-02

-9.643554687500000000e-02 -6.408691406250000000e-02 -5.926513671875000000e-02 8.074951171875000000e-02 1.179695129394531250e-03 -5.029296875000000000e-02 9.259033203125000000e-02 -2.648925781250000000e-02 -2.613830566406250000e-02 -1.533508300781250000e-02 -4.809570312500000000e-02 8.916854858398437500e-04 4.577636718750000000e-03 3.536987304687500000e-02 4.562377929687500000e-02 1.628112792968750000e-02 -6.829833984375000000e-02 6.768798828125000000e-02 -4.632568359375000000e-02 -5.270385742187500000e-02 1.007080078125000000e-01 -7.495117187500000000e-02 -1.798629760742187500e-03 8.258056640625000000e-02 -1.965332031250000000e-02

-8.337402343750000000e-02 6.768798828125000000e-02 -4.598999023437500000e-02 -6.872558593750000000e-02 9.478759765625000000e-02 4.718017578125000000e-02 -5.551147460937500000e-02 -4.257202148437500000e-02 -8.277893066406250000e-03 -1.664733886718750000e-02 -1.327514648437500000e-02 -2.911376953125000000e-02 -5.645751953125000000e-02 -4.541015625000000000e-02 5.901336669921875000e-03 -2.008056640625000000e-02 5.584716796875000000e-02 -2.397537231445312500e-03 2.081298828125000000e-02 2.876281738281250000e-02 -1.768493652343750000e-02 1.736450195312500000e-02 6.744384765625000000e-02 7.916259765625000000e-02 5.215454101562500000e-02

6.427001953125000000e-02 -8.801269531250000000e-02 -2.470397949218750000e-02 -4.379272460937500000e-02 -9.100341796875000000e-02 -7.891845703125000000e-02 -1.940917968750000000e-02 3.680419921875000000e-02 6.866455078125000000e-02 6.427001953125000000e-02 -1.026611328125000000e-01 9.259033203125000000e-02 9.259033203125000000e-02 -5.685424804687500000e-02 9.100341796875000000e-02 -2.490234375000000000e-02 -6.945800781250000000e-02 7.708740234375000000e-02 6.262207031250000000e-02 9.686279296875000000e-02 9.539794921875000000e-02 9.014892578125000000e-02 -1.789855957031250000e-02 -7.095336914062500000e-04 -3.872680664062500000e-02

4.705810546875000000e-02 -1.004638671875000000e-01 -2.268981933593750000e-02 -6.469726562500000000e-02 -7.714843750000000000e-02 4.302978515625000000e-02 1.821899414062500000e-02 1.708984375000000000e-02 -3.216552734375000000e-02 -4.980468750000000000e-02 5.428314208984375000e-03 7.305908203125000000e-02 8.239746093750000000e-03 9.625244140625000000e-02 1.018676757812500000e-01 1.647949218750000000e-02 -3.839111328125000000e-02 9.460449218750000000e-03 9.216308593750000000e-03 1.385498046875000000e-02 -7.952880859375000000e-02 -6.246948242187500000e-02 8.666992187500000000e-03 -2.427673339843750000e-02 5.242919921875000000e-02

-5.041503906250000000e-02 9.686279296875000000e-02 -7.391357421875000000e-02 -3.558349609375000000e-02 9.686279296875000000e-02 5.084228515625000000e-02 -8.978271484375000000e-02 -1.708984375000000000e-02 9.515380859375000000e-02 6.805419921875000000e-02 -8.276367187500000000e-02 -9.240722656250000000e-02 -4.980468750000000000e-02 1.287841796875000000e-02 4.376220703125000000e-02 3.399658203125000000e-02 6.231689453125000000e-02 2.166748046875000000e-02 6.463623046875000000e-02 -6.628417968750000000e-02 8.856201171875000000e-02 1.202392578125000000e-02 1.165771484375000000e-02 -6.994628906250000000e-02 -6.567382812500000000e-02

-3.033447265625000000e-02 3.070068359375000000e-02 -4.119873046875000000e-03 7.672119140625000000e-02 4.275512695312500000e-02 -5.322265625000000000e-02 -4.858398437500000000e-02 -7.592773437500000000e-02 8.135986328125000000e-02 -6.787109375000000000e-02 -1.582336425781250000e-02 -4.239082336425781250e-04 3.619384765625000000e-02 1.947021484375000000e-02 6.585693359375000000e-02 -8.593750000000000000e-02 5.380249023437500000e-02 9.265136718750000000e-02 -2.062988281250000000e-02 7.678222656250000000e-02 -6.939697265625000000e-02 -7.328033447265625000e-03 4.959106445312500000e-02 2.333068847656250000e-02 1.025390625000000000e-01

6.060791015625000000e-02 -4.394531250000000000e-03 -5.102539062500000000e-02 9.857177734375000000e-02 7.049560546875000000e-02 4.742431640625000000e-02 -8.575439453125000000e-02 2.435302734375000000e-02 5.249023437500000000e-03 -4.138183593750000000e-02 -9.899902343750000000e-02 -5.603027343750000000e-02 -6.750488281250000000e-02 -5.001831054687500000e-02 4.742431640625000000e-02 2.148437500000000000e-02 -3.015136718750000000e-02 5.340576171875000000e-02 -4.498291015625000000e-02 -6.372070312500000000e-02 4.394531250000000000e-03 -9.643554687500000000e-03 2.716064453125000000e-02 -2.368164062500000000e-02 -2.453613281250000000e-02

1.788330078125000000e-02 -2.734375000000000000e-02 2.384948730468750000e-02 6.585693359375000000e-02 -1.867675781250000000e-02 1.342010498046875000e-02 -7.971191406250000000e-02 5.499267578125000000e-02 6.744384765625000000e-02 -1.568603515625000000e-02 -9.020996093750000000e-02 7.513427734375000000e-02 -3.112792968750000000e-02 -8.093261718750000000e-02 8.441162109375000000e-02 -6.933593750000000000e-02 9.600830078125000000e-02 -6.246948242187500000e-02 1.162719726562500000e-02 -7.495117187500000000e-02 3.118896484375000000e-02 2.290344238281250000e-02 6.390380859375000000e-02 -7.183074951171875000e-03 7.708740234375000000e-02

-9.722900390625000000e-02 -8.496093750000000000e-02 1.663208007812500000e-02 3.973388671875000000e-02 6.683349609375000000e-02 -8.801269531250000000e-02 -7.818603515625000000e-02 6.768798828125000000e-02 -2.307128906250000000e-02 6.964111328125000000e-02 4.184722900390625000e-03 4.754638671875000000e-02 9.722900390625000000e-02 -3.753662109375000000e-02 -4.760742187500000000e-02 -2.429199218750000000e-02 -2.270507812500000000e-02 -9.960937500000000000e-02 3.250122070312500000e-02 -9.539794921875000000e-02 8.721923828125000000e-02 9.759521484375000000e-02 9.576416015625000000e-02 -5.764770507812500000e-02 2.004623413085937500e-03

