8.551025390625000000e-02 2.886962890625000000e-02 -6.689453125000000000e-02 8.416748046875000000e-02 -3.454589843750000000e-02 -2.612304687500000000e-02 9.259033203125000000e-02 -7.391357421875000000e-02 7.442474365234375000e-03 1.341247558593750000e-02 6.964111328125000000e-02 -1.167297363281250000e-02 -2.392578125000000000e-02 8.514404296875000000e-02 1.006469726562500000e-01 -2.734375000000000000e-02 6.121826171875000000e-02 -8.978271484375000000e-02 -2.455139160156250000e-02 -5.163574218750000000e-02 5.279541015625000000e-02 3.353881835937500000e-02 -5.422973632812500000e-02 6.951904296875000000e-02 -9.582519531250000000e-02

-7.531738281250000000e-02 9.161376953125000000e-02 9.039306640625000000e-02 -7.775878906250000000e-02 -7.312011718750000000e-02 6.207275390625000000e-02 -5.825805664062500000e-02 -6.106567382812500000e-02 8.673095703125000000e-02 -2.019882202148437500e-03 4.034423828125000000e-02 -5.203247070312500000e-02 -9.863281250000000000e-02 -8.880615234375000000e-02 6.225585937500000000e-03 -7.128906250000000000e-02 9.381103515625000000e-02 -8.520507812500000000e-02 5.328369140625000000e-02 7.928466796875000000e-02 3.973388671875000000e-02 -3.753662109375000000e-02 8.502197265625000000e-02 -9.082031250000000000e-02 -2.288818359375000000e-02

-5.221557617187500000e-02 5.438232421875000000e-02 1.013793945312500000e-01 -3.515625000000000000e-02 4.156494140625000000e-02 1.018676757812500000e-01 1.022338867187500000e-01 7.452392578125000000e-02 -5.386352539062500000e-02 -7.733154296875000000e-02 7.391357421875000000e-02 -3.436279296875000000e-02 8.941650390625000000e-02 -6.445312500000000000e-02 4.681396484375000000e-02 5.059814453125000000e-02 9.844970703125000000e-02 -9.741210937500000000e-02 1.871585845947265625e-04 7.598876953125000000e-02 2.226257324218750000e-02 -7.873535156250000000e-02 -6.427001953125000000e-02 -9.643554687500000000e-03 7.891845703125000000e-02

8.538818359375000000e-02 -3.016662597656250000e-02 -3.674316406250000000e-02 -9.460449218750000000e-02 -1.977539062500000000e-02 9.375000000000000000e-02 1.802062988281250000e-02 2.667236328125000000e-02 2.433776855468750000e-02 -1.313781738281250000e-02 -5.578613281250000000e-02 -5.090332031250000000e-02 2.825927734375000000e-02 9.075927734375000000e-02 4.815673828125000000e-02 9.234619140625000000e-02 1.491546630859375000e-02 -2.445983886718750000e-02 2.339172363281250000e-02 -6.112670898437500000e-02 3.259277343750000000e-02 -5.572509765625000000e-02 6.457519531250000000e-02 3.427124023437500000e-02 4.867553710937500000e-02

-1.006317138671875000e-02 2.626037597656250000e-02 2.995300292968750000e-02 -1.619338989257812500e-03 -3.763198852539062500e-03 -5.410766601562500000e-02 -4.437255859375000000e-02 8.538818359375000000e-02 9.497070312500000000e-02 4.342651367187500000e-02 -8.673667907714843750e-04 -6.884765625000000000e-02 -5.963134765625000000e-02 -3.512573242187500000e-02 3.125000000000000000e-02 -2.473449707031250000e-02 -2.009582519531250000e-02 -6.829833984375000000e-02 1.020507812500000000e-01 -2.957153320312500000e-02 4.479980468750000000e-02 1.094055175781250000e-02 4.665374755859375000e-03 -4.208374023437500000e-02 5.679321289062500000e-02

-2.111816406250000000e-02 5.328369140625000000e-02 -6.384277343750000000e-02 -5.725097656250000000e-02 1.464843750000000000e-02 4.656982421875000000e-02 -6.469726562500000000e-02 -1.428222656250000000e-02 5.120849609375000000e-02 -7.495117187500000000e-02 8.575439453125000000e-02 -4.318237304687500000e-02 1.971435546875000000e-02 6.329345703125000000e-02 4.083251953125000000e-02 -9.039306640625000000e-02 -4.458618164062500000e-02 9.460449218750000000e-03 6.866455078125000000e-02 1.727294921875000000e-02 -5.664062500000000000e-02 -7.934570312500000000e-02 9.759521484375000000e-02 -7.916259765625000000e-02 -5.120849609375000000e-02

9.515380859375000000e-02 -5.685424804687500000e-02 7.733154296875000000e-02 -6.787109375000000000e-02 -6.408691406250000000e-02 2.813720703125000000e-02 6.585693359375000000e-02 -2.752685546875000000e-02 6.304931640625000000e-02 9.222412109375000000e-02 -5.001831054687500000e-02 -6.750488281250000000e-02 -3.173828125000000000e-02 1.226806640625000000e-02 8.953857421875000000e-02 -2.673339843750000000e-02 -1.544189453125000000e-02 -2.752685546875000000e-02 -1.367187500000000000e-02 -5.004882812500000000e-03 8.099365234375000000e-02 -7.019042968750000000e-03 2.227783203125000000e-02 1.123046875000000000e-02 -5.462646484375000000e-02

1.867675781250000000e-02 -3.997802734375000000e-02 -2.630615234375000000e-02 -6.488037109375000000e-02 8.013916015625000000e-02 -7.794189453125000000e-02 -2.954101562500000000e-02 5.364990234375000000e-02 -9.277343750000000000e-02 7.989501953125000000e-02 8.197021484375000000e-02 -3.295898437500000000e-02 8.636474609375000000e-02 -1.605224609375000000e-02 8.734130859375000000e-02 -6.225585937500000000e-02 9.564208984375000000e-02 -1.016235351562500000e-01 -2.191162109375000000e-02 1.885986328125000000e-02 -1.586914062500000000e-02 -7.714843750000000000e-02 -2.050781250000000000e-02 7.232666015625000000e-02 9.283447265625000000e-02

-9.193420410156250000e-03 -5.169677734375000000e-02 -1.777648925781250000e-02 -1.261901855468750000e-02 -3.347778320312500000e-02 8.935546875000000000e-02 -6.420898437500000000e-02 1.026000976562500000e-01 6.164550781250000000e-02 -9.429931640625000000e-02 -7.751464843750000000e-02 -3.402709960937500000e-02 -2.400207519531250000e-02 -7.653808593750000000e-02 7.763671875000000000e-02 -7.794189453125000000e-02 1.443481445312500000e-02 1.021728515625000000e-01 -3.228759765625000000e-02 7.379150390625000000e-02 -3.259277343750000000e-02 9.747314453125000000e-02 2.619934082031250000e-02 -3.988647460937500000e-02 -4.385375976562500000e-02

7.489013671875000000e-02 1.004028320312500000e-01 1.544952392578125000e-02 -9.863281250000000000e-02 -2.735900878906250000e-02 -5.346679687500000000e-02 5.487060546875000000e-02 -7.470703125000000000e-02 7.531738281250000000e-02 5.273437500000000000e-02 -6.076049804687500000e-02 9.906005859375000000e-02 -8.618164062500000000e-02 -3.857421875000000000e-02 4.840850830078125000e-03 8.258056640625000000e-02 7.110595703125000000e-02 4.043579101562500000e-02 7.133483886718750000e-04 9.201049804687500000e-03 8.142089843750000000e-02 4.971313476562500000e-02 8.308410644531250000e-03 -5.340576171875000000e-02 -8.184814453125000000e-02

6.292724609375000000e-02 2.406311035156250000e-02 -5.804443359375000000e-02 7.977294921875000000e-02 1.532745361328125000e-02 -7.574462890625000000e-02 -1.071929931640625000e-02 6.549072265625000000e-02 6.604003906250000000e-02 4.302978515625000000e-02 2.001953125000000000e-02 -1.040649414062500000e-02 -5.242919921875000000e-02 -5.023193359375000000e-02 3.964233398437500000e-02 -6.347656250000000000e-02 5.743408203125000000e-02 8.447265625000000000e-02 3.668212890625000000e-02 -5.371093750000000000e-03 -3.741455078125000000e-02 -1.008911132812500000e-01 -1.021118164062500000e-01 7.751464843750000000e-02 3.628540039062500000e-02

-7.330322265625000000e-02 -2.116394042968750000e-02 8.349609375000000000e-02 -6.909179687500000000e-02 -8.746337890625000000e-02 4.330444335937500000e-02 -7.055664062500000000e-02 -1.885986328125000000e-02 4.910278320312500000e-02 2.929687500000000000e-02 -1.702880859375000000e-02 5.892944335937500000e-02 1.023101806640625000e-02 7.019042968750000000e-02 5.575561523437500000e-02 -8.575439453125000000e-02 -2.830505371093750000e-03 -1.725769042968750000e-02 -5.633544921875000000e-02 3.317260742187500000e-02 4.241943359375000000e-02 -1.007690429687500000e-01 4.592895507812500000e-02 -3.207397460937500000e-02 -8.648681640625000000e-02

3.228759765625000000e-02 8.697509765625000000e-02 7.196044921875000000e-02 -2.648925781250000000e-02 -1.115417480468750000e-02 8.789062500000000000e-02 7.043457031250000000e-02 -1.427459716796875000e-02 -1.477813720703125000e-02 -9.375000000000000000e-02 -9.729003906250000000e-02 -2.224731445312500000e-02 -8.496093750000000000e-02 -6.933593750000000000e-02 -1.007690429687500000e-01 5.487060546875000000e-02 2.548217773437500000e-02 -7.055664062500000000e-02 -5.187988281250000000e-02 -1.004028320312500000e-01 2.525329589843750000e-02 4.464721679687500000e-02 -4.525756835937500000e-02 -6.158447265625000000e-02 -3.555297851562500000e-02

5.279541015625000000e-02 -5.645751953125000000e-03 5.099487304687500000e-02 1.407623291015625000e-02 8.172607421875000000e-02 -9.606933593750000000e-02 -5.593872070312500000e-02 -3.979492187500000000e-02 7.629394531250000000e-02 -1.968383789062500000e-02 -3.256225585937500000e-02 5.493164062500000000e-02 -9.326171875000000000e-02 3.475952148437500000e-02 5.374145507812500000e-02 -1.516723632812500000e-02 -8.776855468750000000e-02 -8.685302734375000000e-02 5.358886718750000000e-02 -5.731201171875000000e-02 -4.913330078125000000e-02 9.008789062500000000e-02 -5.734252929687500000e-02 -6.597900390625000000e-02 -4.666137695312500000e-02

7.928466796875000000e-02 2.130126953125000000e-02 1.750183105468750000e-02 4.034423828125000000e-02 3.375244140625000000e-02 -7.092285156250000000e-02 7.080078125000000000e-02 9.320068359375000000e-02 2.322387695312500000e-02 -2.171325683593750000e-02 -7.348632812500000000e-02 -6.938934326171875000e-03 -6.167602539062500000e-02 -7.250976562500000000e-02 -5.239868164062500000e-02 -8.355712890625000000e-02 -1.028442382812500000e-01 -8.581542968750000000e-02 -1.398468017578125000e-02 4.861450195312500000e-02 9.965896606445312500e-04 -1.018676757812500000e-01 4.302978515625000000e-02 -1.708984375000000000e-02 9.590148925781250000e-03

8.074951171875000000e-02 9.356689453125000000e-02 -3.750610351562500000e-02 -9.960937500000000000e-02 2.627563476562500000e-02 9.625244140625000000e-02 -6.118774414062500000e-02 -5.242919921875000000e-02 -9.313964843750000000e-02 -9.729003906250000000e-02 9.635925292968750000e-03 9.788513183593750000e-03 4.934692382812500000e-02 8.233642578125000000e-02 -4.681396484375000000e-02 2.876281738281250000e-02 7.751464843750000000e-02 4.162597656250000000e-02 -5.090332031250000000e-02 4.699707031250000000e-02 -2.488708496093750000e-02 -7.995605468750000000e-02 -7.720947265625000000e-02 1.284027099609375000e-02 -9.973144531250000000e-02

3.656005859375000000e-02 -7.873535156250000000e-02 1.664733886718750000e-02 9.515380859375000000e-02 8.197021484375000000e-02 4.431152343750000000e-02 5.413818359375000000e-02 7.635498046875000000e-02 -3.814697265625000000e-02 -7.257080078125000000e-02 9.857177734375000000e-02 -3.713607788085937500e-03 -4.119873046875000000e-02 -6.614685058593750000e-03 9.570312500000000000e-02 6.463623046875000000e-02 -9.783935546875000000e-02 -3.713989257812500000e-02 -5.047607421875000000e-02 1.042938232421875000e-02 4.367065429687500000e-02 -1.251220703125000000e-02 5.050659179687500000e-02 5.963134765625000000e-02 2.381896972656250000e-02

-9.381103515625000000e-02 -4.901123046875000000e-02 -2.210998535156250000e-02 -8.996582031250000000e-02 -8.117675781250000000e-02 2.069091796875000000e-02 7.574462890625000000e-02 1.824951171875000000e-02 -5.545043945312500000e-02 -7.916259765625000000e-02 1.215362548828125000e-02 -6.146240234375000000e-02 -8.435058593750000000e-02 -5.944824218750000000e-02 -9.960937500000000000e-02 1.165771484375000000e-02 -1.317596435546875000e-02 4.661560058593750000e-03 1.774597167968750000e-02 2.247619628906250000e-02 6.854248046875000000e-02 2.499389648437500000e-02 -5.242919921875000000e-02 7.171630859375000000e-02 -6.408691406250000000e-02

3.594970703125000000e-02 2.493286132812500000e-02 5.029296875000000000e-02 -6.045532226562500000e-02 2.435302734375000000e-02 2.543640136718750000e-02 -2.648830413818359375e-04 4.925537109375000000e-02 1.074981689453125000e-02 -5.676269531250000000e-02 7.745361328125000000e-02 -5.699157714843750000e-03 6.683349609375000000e-02 4.754638671875000000e-02 5.844116210937500000e-02 -6.726074218750000000e-02 -3.454589843750000000e-02 -5.038452148437500000e-02 8.941650390625000000e-02 -3.771972656250000000e-02 6.015014648437500000e-02 -2.986145019531250000e-02 -9.283447265625000000e-02 4.467773437500000000e-02 -9.729003906250000000e-02

-4.455566406250000000e-02 6.234741210937500000e-02 -5.395507812500000000e-02 -6.488037109375000000e-02 -7.232666015625000000e-03 4.276275634765625000e-03 7.342529296875000000e-02 2.668762207031250000e-02 8.465576171875000000e-02 -8.850097656250000000e-04 -5.630493164062500000e-02 -5.145263671875000000e-02 -4.220581054687500000e-02 -1.476287841796875000e-02 1.983642578125000000e-02 -2.511978149414062500e-03 -5.966186523437500000e-02 -5.273437500000000000e-02 -2.127075195312500000e-02 -1.055908203125000000e-02 -1.305389404296875000e-02 6.094360351562500000e-02 3.216552734375000000e-02 -3.704833984375000000e-02 -1.878356933593750000e-02

6.427001953125000000e-02 3.961181640625000000e-02 -2.799987792968750000e-02 -5.303955078125000000e-02 -1.366424560546875000e-02 -5.798339843750000000e-03 -3.402233123779296875e-04 -4.217529296875000000e-02 -1.573181152343750000e-02 7.910156250000000000e-02 -4.385375976562500000e-02 9.442138671875000000e-02 7.690429687500000000e-02 5.990600585937500000e-02 4.437255859375000000e-02 3.228759765625000000e-02 -1.074981689453125000e-02 9.539794921875000000e-02 7.362365722656250000e-03 5.831909179687500000e-02 -8.270263671875000000e-02 4.629516601562500000e-02 2.330017089843750000e-02 -1.465797424316406250e-03 7.940673828125000000e-02

5.328369140625000000e-02 6.744384765625000000e-02 -6.372070312500000000e-02 1.428222656250000000e-02 2.716064453125000000e-02 3.570556640625000000e-02 -5.603027343750000000e-02 8.453369140625000000e-02 9.063720703125000000e-02 -5.764770507812500000e-02 6.088256835937500000e-02 -6.088256835937500000e-02 -7.153320312500000000e-02 3.350830078125000000e-02 7.476806640625000000e-02 6.451416015625000000e-02 2.624511718750000000e-03 -4.613399505615234375e-04 7.977294921875000000e-02 -5.664062500000000000e-02 7.952880859375000000e-02 -8.837890625000000000e-02 4.864501953125000000e-02 9.466552734375000000e-02 7.415771484375000000e-02

-4.559326171875000000e-02 5.426025390625000000e-02 -3.558349609375000000e-02 1.403808593750000000e-02 -3.051757812500000000e-02 3.396606445312500000e-02 2.555847167968750000e-02 -2.166748046875000000e-02 -4.782104492187500000e-02 -1.399040222167968750e-03 -9.912109375000000000e-02 6.243896484375000000e-02 7.641601562500000000e-02 6.646728515625000000e-02 1.989746093750000000e-02 7.611083984375000000e-02 4.070281982421875000e-03 -2.992248535156250000e-02 3.918457031250000000e-02 -8.898925781250000000e-02 -5.633544921875000000e-02 -3.050231933593750000e-02 3.335571289062500000e-02 -5.160522460937500000e-02 -2.754211425781250000e-02

-1.026611328125000000e-01 7.073974609375000000e-02 9.124755859375000000e-02 1.022338867187500000e-01 -8.172607421875000000e-02 -1.274871826171875000e-02 -2.954101562500000000e-02 9.063720703125000000e-02 8.367919921875000000e-02 -3.210449218750000000e-02 4.333496093750000000e-02 6.156921386718750000e-03 -9.027099609375000000e-02 1.008911132812500000e-01 6.732177734375000000e-02 -9.503173828125000000e-02 -7.952880859375000000e-02 -1.515960693359375000e-02 2.307128906250000000e-02 -7.281494140625000000e-02 -6.512451171875000000e-02 -8.038330078125000000e-02 3.833007812500000000e-02 4.794311523437500000e-02 1.852416992187500000e-02

-5.361938476562500000e-02 6.207275390625000000e-02 -5.844116210937500000e-02 -9.179687500000000000e-02 6.890869140625000000e-02 1.428222656250000000e-02 -1.928710937500000000e-02 5.401611328125000000e-02 -7.556152343750000000e-02 -5.422973632812500000e-02 1.605224609375000000e-02 9.783935546875000000e-02 4.461669921875000000e-02 9.234619140625000000e-02 -1.123046875000000000e-02 4.803466796875000000e-02 -2.368164062500000000e-02 4.211425781250000000e-03 -6.225585937500000000e-02 8.856201171875000000e-02 -7.574462890625000000e-02 -3.717041015625000000e-02 -9.783935546875000000e-02 -7.250976562500000000e-02 -6.127929687500000000e-02

7.581710815429687500e-04 -1.251220703125000000e-02 1.269531250000000000e-02 -4.051208496093750000e-03 -9.045410156250000000e-02 6.222534179687500000e-02 -6.347656250000000000e-02 -7.995605468750000000e-02 -1.003417968750000000e-01 6.823730468750000000e-02 -9.222412109375000000e-02 4.848480224609375000e-03 -4.556274414062500000e-02 -5.456542968750000000e-02 -6.481933593750000000e-02 8.044433593750000000e-02 -5.084228515625000000e-02 9.252929687500000000e-02 -8.056640625000000000e-02 4.373168945312500000e-02 -3.829956054687500000e-02 -8.685302734375000000e-02 2.215576171875000000e-02 -5.493164062500000000e-02 2.479553222656250000e-02

6.146240234375000000e-02 -3.892898559570312500e-03 4.264831542968750000e-03 -3.314208984375000000e-02 -3.576660156250000000e-02 3.189086914062500000e-02 8.918762207031250000e-03 -5.926513671875000000e-02 6.076049804687500000e-02 -7.598876953125000000e-02 -9.460449218750000000e-02 -3.576660156250000000e-02 -9.277343750000000000e-02 7.598876953125000000e-02 9.173583984375000000e-02 3.228759765625000000e-02 -1.010131835937500000e-01 9.912109375000000000e-02 -8.883476257324218750e-04 9.466552734375000000e-02 -6.204223632812500000e-02 8.508300781250000000e-02 9.851074218750000000e-02 7.116699218750000000e-02 -2.740478515625000000e-02

-3.215789794921875000e-03 -8.575439453125000000e-02 6.112670898437500000e-02 4.022216796875000000e-02 4.665851593017578125e-04 6.323242187500000000e-02 -8.892822265625000000e-02 4.522705078125000000e-02 5.149841308593750000e-03 -5.187988281250000000e-02 -2.349853515625000000e-02 1.992797851562500000e-02 8.453369140625000000e-02 1.289367675781250000e-02 -7.324218750000000000e-02 -9.600830078125000000e-02 5.880737304687500000e-02 3.007507324218750000e-02 7.525634765625000000e-02 -9.057617187500000000e-02 -2.401733398437500000e-02 -8.007812500000000000e-02 -5.031585693359375000e-03 3.231811523437500000e-02 -2.536010742187500000e-02

-6.042480468750000000e-03 -7.031250000000000000e-02 7.757568359375000000e-02 -4.681396484375000000e-02 8.221435546875000000e-02 3.436279296875000000e-02 -5.804443359375000000e-02 1.104736328125000000e-02 -2.166748046875000000e-02 -9.759521484375000000e-02 6.707763671875000000e-02 7.110595703125000000e-02 3.753662109375000000e-02 2.569580078125000000e-02 -5.422973632812500000e-02 8.660888671875000000e-02 -8.337402343750000000e-02 -7.495117187500000000e-02 1.016235351562500000e-01 9.283447265625000000e-02 -3.533935546875000000e-02 -1.428222656250000000e-02 -4.940795898437500000e-02 -1.006469726562500000e-01 -6.106567382812500000e-02

8.682250976562500000e-03 -9.100341796875000000e-02 1.094055175781250000e-02 -1.028442382812500000e-01 1.137542724609375000e-02 -8.941650390625000000e-02 -5.760192871093750000e-03 4.754638671875000000e-02 -3.997802734375000000e-02 2.243041992187500000e-02 2.590942382812500000e-02 3.416061401367187500e-03 -3.921508789062500000e-02 -3.216552734375000000e-02 1.143646240234375000e-02 1.026916503906250000e-02 -8.312988281250000000e-02 5.371093750000000000e-02 3.048706054687500000e-02 -2.795410156250000000e-02 -6.378173828125000000e-02 4.748535156250000000e-02 2.934265136718750000e-02 -2.537536621093750000e-02 1.091003417968750000e-02

3.997802734375000000e-02 -6.689453125000000000e-02 -2.368164062500000000e-02 -3.753662109375000000e-02 8.551025390625000000e-02 5.786895751953125000e-03 -9.478759765625000000e-02 -9.924316406250000000e-02 -9.246826171875000000e-03 3.973388671875000000e-02 7.769775390625000000e-02 -6.167602539062500000e-02 3.558349609375000000e-02 -1.403808593750000000e-02 9.564208984375000000e-02 9.637451171875000000e-02 4.437255859375000000e-02 -1.930236816406250000e-02 -2.893447875976562500e-03 -4.095458984375000000e-02 5.426025390625000000e-02 8.258056640625000000e-02 -1.264953613281250000e-02 -2.307128906250000000e-02 7.757568359375000000e-02

8.538818359375000000e-02 -1.010131835937500000e-01 4.595947265625000000e-02 8.416748046875000000e-02 7.330322265625000000e-02 6.793212890625000000e-02 9.094238281250000000e-02 -7.775878906250000000e-02 -8.374023437500000000e-02 -3.551483154296875000e-03 -9.082031250000000000e-02 3.656005859375000000e-02 5.987548828125000000e-02 -2.209472656250000000e-02 5.099487304687500000e-02 6.732177734375000000e-02 6.060791015625000000e-02 -8.056640625000000000e-02 4.174804687500000000e-02 -1.022338867187500000e-01 -2.407073974609375000e-03 3.741455078125000000e-02 -6.874084472656250000e-03 -7.409667968750000000e-02 5.776977539062500000e-02

-4.339599609375000000e-02 2.374267578125000000e-02 -8.593750000000000000e-02 -3.753662109375000000e-02 -6.890869140625000000e-02 -6.286621093750000000e-02 8.380126953125000000e-02 5.432128906250000000e-03 -1.022338867187500000e-01 6.085205078125000000e-02 -5.664062500000000000e-02 -6.628417968750000000e-02 4.364013671875000000e-02 -3.955078125000000000e-02 8.880615234375000000e-02 -1.568603515625000000e-02 9.942626953125000000e-02 -7.006835937500000000e-02 4.400634765625000000e-02 -7.714843750000000000e-02 -1.403808593750000000e-02 -6.347656250000000000e-02 -1.024169921875000000e-01 -3.857421875000000000e-02 -2.893066406250000000e-02

-2.197265625000000000e-03 2.252197265625000000e-02 8.636474609375000000e-02 1.367187500000000000e-02 -6.768798828125000000e-02 5.145263671875000000e-02 9.417724609375000000e-02 -6.372070312500000000e-02 3.057861328125000000e-02 -3.698730468750000000e-02 -8.154296875000000000e-02 -1.910400390625000000e-02 -3.515625000000000000e-02 -5.804443359375000000e-02 -6.909179687500000000e-02 6.524658203125000000e-02 7.366943359375000000e-02 -4.519653320312500000e-02 -6.085205078125000000e-02 -4.357910156250000000e-02 -6.146240234375000000e-02 -1.184082031250000000e-02 -2.490234375000000000e-02 3.509521484375000000e-02 2.050781250000000000e-02

1.019897460937500000e-01 -9.558105468750000000e-02 -2.359008789062500000e-02 -1.403808593750000000e-02 4.604339599609375000e-03 -8.557128906250000000e-02 -3.521728515625000000e-02 2.593994140625000000e-02 -3.921508789062500000e-02 -8.740234375000000000e-02 1.066589355468750000e-02 -7.714843750000000000e-02 -8.074951171875000000e-02 -1.014404296875000000e-01 1.869201660156250000e-02 5.617141723632812500e-04 1.868247985839843750e-03 9.564208984375000000e-02 5.709838867187500000e-02 -1.357269287109375000e-02 4.440307617187500000e-02 4.675292968750000000e-02 8.941650390625000000e-02 -3.836059570312500000e-02 -8.465576171875000000e-02

1.788330078125000000e-02 -9.863281250000000000e-02 7.550048828125000000e-02 7.366943359375000000e-02 2.349853515625000000e-02 3.778076171875000000e-02 -4.660034179687500000e-02 -2.380371093750000000e-03 1.770019531250000000e-02 4.156494140625000000e-02 8.551025390625000000e-02 -4.541015625000000000e-02 4.302978515625000000e-02 -8.520507812500000000e-02 1.824951171875000000e-02 4.315185546875000000e-02 -9.057617187500000000e-02 -7.775878906250000000e-02 9.808349609375000000e-02 1.684570312500000000e-02 3.435134887695312500e-03 3.912353515625000000e-02 8.599853515625000000e-02 -8.276367187500000000e-02 9.259033203125000000e-02

-4.077148437500000000e-02 4.718017578125000000e-02 4.083251953125000000e-02 -6.066894531250000000e-02 5.523681640625000000e-02 7.086181640625000000e-02 -4.016113281250000000e-02 6.768798828125000000e-02 6.304931640625000000e-02 3.460693359375000000e-02 -5.984497070312500000e-02 -7.629394531250000000e-02 1.012573242187500000e-01 -7.775878906250000000e-02 -7.531738281250000000e-02 -1.020507812500000000e-01 -1.012573242187500000e-01 5.047607421875000000e-02 -2.090454101562500000e-02 3.057861328125000000e-02 -1.847839355468750000e-02 7.110595703125000000e-02 -4.357910156250000000e-02 -1.766204833984375000e-03 -5.603027343750000000e-02

-6.652832031250000000e-02 3.802490234375000000e-02 9.747314453125000000e-02 5.950927734375000000e-02 2.995300292968750000e-02 -9.362792968750000000e-02 7.952880859375000000e-02 3.117370605468750000e-02 9.197998046875000000e-02 6.292724609375000000e-02 8.892822265625000000e-02 3.750610351562500000e-02 -4.840087890625000000e-02 1.849365234375000000e-02 -9.497070312500000000e-02 -2.508544921875000000e-02 6.951904296875000000e-02 -3.512573242187500000e-02 -4.260253906250000000e-02 -2.635955810546875000e-03 9.063720703125000000e-02 -5.825042724609375000e-03 -4.202270507812500000e-02 1.947021484375000000e-02 6.118774414062500000e-02

