2.789306640625000000e-02 8.978271484375000000e-02 4.901123046875000000e-02 4.644775390625000000e-02 -2.770996093750000000e-02 -1.684570312500000000e-02 -3.155517578125000000e-02 2.716064453125000000e-02 8.842468261718750000e-03 -2.250671386718750000e-02 4.583740234375000000e-02 3.753662109375000000e-02 8.660888671875000000e-02 -5.905151367187500000e-02 9.661865234375000000e-02 6.915283203125000000e-02 -6.567382812500000000e-02 4.815673828125000000e-02 -9.619140625000000000e-02 9.429931640625000000e-03 -2.008056640625000000e-02 -6.066894531250000000e-02 5.303955078125000000e-02 -4.397583007812500000e-02 3.802490234375000000e-02

4.473876953125000000e-02 -7.202148437500000000e-03 7.550048828125000000e-02 -6.665039062500000000e-02 1.745605468750000000e-02 1.022338867187500000e-01 5.841064453125000000e-02 1.947021484375000000e-02 -5.563354492187500000e-02 -7.110595703125000000e-02 -7.217407226562500000e-03 4.180908203125000000e-02 8.477783203125000000e-02 -1.006469726562500000e-01 -9.899902343750000000e-02 6.512451171875000000e-02 5.340576171875000000e-02 -9.301757812500000000e-02 5.963134765625000000e-02 -2.508544921875000000e-02 4.473876953125000000e-02 -5.584716796875000000e-02 6.573486328125000000e-02 -1.020507812500000000e-01 -6.890869140625000000e-02

9.442138671875000000e-02 -4.760742187500000000e-02 -8.178710937500000000e-02 3.601074218750000000e-03 7.598876953125000000e-02 -5.462646484375000000e-02 -5.242919921875000000e-02 -6.311035156250000000e-02 2.728271484375000000e-02 -9.277343750000000000e-02 7.818603515625000000e-02 6.573486328125000000e-02 -5.261230468750000000e-02 1.016235351562500000e-01 4.473876953125000000e-02 2.166748046875000000e-02 9.637451171875000000e-02 7.733154296875000000e-02 -8.355712890625000000e-02 -7.873535156250000000e-02 6.463623046875000000e-02 -3.698730468750000000e-02 -6.530761718750000000e-02 9.002685546875000000e-02 5.584716796875000000e-02

-4.721069335937500000e-02 5.548095703125000000e-02 6.750488281250000000e-02 -7.891845703125000000e-02 7.800292968750000000e-02 -3.335571289062500000e-02 9.631347656250000000e-02 3.555297851562500000e-02 7.135009765625000000e-02 -9.991455078125000000e-02 3.762817382812500000e-02 -6.084442138671875000e-03 -7.922363281250000000e-02 -4.928588867187500000e-03 7.214355468750000000e-02 -3.674316406250000000e-02 -2.465820312500000000e-02 1.153564453125000000e-02 9.259033203125000000e-02 -4.251098632812500000e-02 3.912353515625000000e-02 7.006835937500000000e-02 -9.429931640625000000e-02 -5.422973632812500000e-02 6.854248046875000000e-02

-7.373046875000000000e-02 -6.567382812500000000e-02 -6.921386718750000000e-02 6.732177734375000000e-02 -5.346679687500000000e-02 -9.381103515625000000e-02 4.440307617187500000e-02 4.217529296875000000e-02 3.887939453125000000e-02 7.684326171875000000e-02 -8.599853515625000000e-02 8.111572265625000000e-02 -3.256225585937500000e-02 -2.931594848632812500e-03 1.096343994140625000e-02 4.876708984375000000e-02 -9.466552734375000000e-02 7.663726806640625000e-03 7.061767578125000000e-02 -4.333496093750000000e-03 1.931762695312500000e-02 6.677246093750000000e-02 -1.541137695312500000e-02 6.121826171875000000e-02 6.341552734375000000e-02

-9.826660156250000000e-03 1.464843750000000000e-02 -1.708984375000000000e-02 4.022216796875000000e-02 -9.600830078125000000e-02 -2.990722656250000000e-03 -3.698730468750000000e-02 1.885986328125000000e-02 7.330322265625000000e-02 3.597259521484375000e-03 2.935791015625000000e-02 -4.901123046875000000e-02 -5.886840820312500000e-02 -6.549072265625000000e-02 -4.418945312500000000e-02 6.964111328125000000e-02 3.033447265625000000e-02 3.338623046875000000e-02 -1.020507812500000000e-01 6.646728515625000000e-02 -2.349853515625000000e-02 -1.008300781250000000e-01 3.094482421875000000e-02 -8.740234375000000000e-02 4.583740234375000000e-02

7.855224609375000000e-02 1.947021484375000000e-02 8.843994140625000000e-02 -6.445312500000000000e-02 -8.477783203125000000e-02 8.172607421875000000e-02 7.855224609375000000e-02 2.655029296875000000e-02 -1.263427734375000000e-02 9.234619140625000000e-02 -8.850097656250000000e-03 -2.789306640625000000e-02 -6.530761718750000000e-02 -7.672119140625000000e-02 5.548095703125000000e-02 -4.394531250000000000e-03 -4.739379882812500000e-02 -5.282592773437500000e-02 9.722900390625000000e-02 4.058837890625000000e-02 -9.844970703125000000e-02 7.537841796875000000e-02 -3.076171875000000000e-02 5.059814453125000000e-02 8.270263671875000000e-02

7.891845703125000000e-02 7.611083984375000000e-02 -3.332519531250000000e-02 -1.287841796875000000e-02 -9.381103515625000000e-02 4.937744140625000000e-02 -2.166748046875000000e-02 -2.752685546875000000e-02 3.009033203125000000e-02 -1.586914062500000000e-02 8.666992187500000000e-03 9.826660156250000000e-03 5.798339843750000000e-03 -4.177856445312500000e-02 -2.014160156250000000e-03 -9.643554687500000000e-02 -4.598999023437500000e-02 -3.796386718750000000e-02 2.313232421875000000e-02 -5.615234375000000000e-03 -6.106567382812500000e-02 -9.643554687500000000e-03 -4.028320312500000000e-03 6.646728515625000000e-02 -3.674316406250000000e-02

-5.862426757812500000e-02 -8.435058593750000000e-02 5.346679687500000000e-02 8.197021484375000000e-02 9.210205078125000000e-02 -1.791381835937500000e-02 1.008300781250000000e-01 2.725219726562500000e-02 6.240844726562500000e-03 6.591796875000000000e-02 -7.824707031250000000e-02 8.593750000000000000e-02 5.664062500000000000e-02 -7.751464843750000000e-02 -1.734924316406250000e-02 9.356689453125000000e-02 -9.405517578125000000e-02 8.471679687500000000e-02 1.539611816406250000e-02 -7.922363281250000000e-02 1.930236816406250000e-02 7.458496093750000000e-02 7.073974609375000000e-02 8.007812500000000000e-02 -1.261138916015625000e-02

4.083251953125000000e-02 -3.080749511718750000e-02 -4.275512695312500000e-02 9.466552734375000000e-02 -8.093261718750000000e-02 3.680419921875000000e-02 -1.117706298828125000e-03 4.937744140625000000e-02 1.775741577148437500e-03 -4.428100585937500000e-02 4.623413085937500000e-02 -7.324218750000000000e-03 8.697509765625000000e-02 8.416748046875000000e-02 -9.985351562500000000e-02 -4.339599609375000000e-02 5.056762695312500000e-02 7.702636718750000000e-02 6.280517578125000000e-02 1.132965087890625000e-02 -9.936523437500000000e-02 1.843261718750000000e-02 -5.526733398437500000e-02 -6.136894226074218750e-04 1.306152343750000000e-02

-7.189941406250000000e-02 -5.422973632812500000e-02 -9.820556640625000000e-02 5.523681640625000000e-02 -7.855224609375000000e-02 4.461669921875000000e-02 8.422851562500000000e-03 -4.379272460937500000e-02 6.504058837890625000e-03 5.529785156250000000e-02 1.006469726562500000e-01 2.879333496093750000e-02 5.630493164062500000e-03 -6.628417968750000000e-02 9.942626953125000000e-02 8.074951171875000000e-02 -3.216552734375000000e-02 5.541992187500000000e-02 -4.803466796875000000e-02 9.130859375000000000e-02 -1.927185058593750000e-02 -8.209228515625000000e-02 -3.140258789062500000e-02 8.197021484375000000e-02 -9.545898437500000000e-02

-4.199218750000000000e-02 -3.356933593750000000e-02 2.261352539062500000e-02 7.987976074218750000e-03 1.024780273437500000e-01 -9.185791015625000000e-02 8.807373046875000000e-02 -5.310058593750000000e-02 5.767822265625000000e-02 9.613037109375000000e-03 9.716796875000000000e-02 -5.886840820312500000e-02 5.639648437500000000e-02 4.022216796875000000e-02 6.054687500000000000e-02 -3.656005859375000000e-02 8.093261718750000000e-02 1.005249023437500000e-01 -7.653808593750000000e-02 -7.250976562500000000e-02 2.508544921875000000e-02 -1.400756835937500000e-02 2.307128906250000000e-02 4.544067382812500000e-02 1.036071777343750000e-02

1.106262207031250000e-02 3.114318847656250000e-02 9.014892578125000000e-02 8.612060546875000000e-02 -6.082153320312500000e-02 -7.110595703125000000e-02 -9.332275390625000000e-02 2.912902832031250000e-02 -7.202148437500000000e-02 4.779052734375000000e-02 -3.588867187500000000e-02 4.968261718750000000e-02 -6.027221679687500000e-02 -9.881591796875000000e-02 -8.740234375000000000e-02 -6.970214843750000000e-02 5.548095703125000000e-02 -1.010742187500000000e-01 -5.590820312500000000e-02 -3.851318359375000000e-02 4.528045654296875000e-03 6.951904296875000000e-02 -2.062988281250000000e-02 -9.649658203125000000e-02 -5.383300781250000000e-02

-7.531738281250000000e-02 -7.916259765625000000e-02 8.734130859375000000e-02 -6.829833984375000000e-02 -3.004455566406250000e-02 -9.545898437500000000e-02 -7.855224609375000000e-02 4.193115234375000000e-02 -9.017944335937500000e-03 4.708862304687500000e-02 9.820556640625000000e-02 5.569458007812500000e-02 2.748107910156250000e-02 4.925537109375000000e-02 6.683349609375000000e-02 -9.197998046875000000e-02 -9.521484375000000000e-02 -1.080322265625000000e-02 -1.215362548828125000e-02 5.899047851562500000e-02 -5.154418945312500000e-02 9.771728515625000000e-02 4.855346679687500000e-02 -1.263618469238281250e-03 -9.118652343750000000e-02

4.646301269531250000e-03 9.722900390625000000e-02 -8.557128906250000000e-02 7.415771484375000000e-02 9.661865234375000000e-02 6.048583984375000000e-02 3.674316406250000000e-02 6.927490234375000000e-02 2.164840698242187500e-03 4.815673828125000000e-02 -7.611083984375000000e-02 -7.778167724609375000e-03 -9.802246093750000000e-02 -5.563354492187500000e-02 -7.348632812500000000e-02 8.953857421875000000e-02 7.513427734375000000e-02 5.168914794921875000e-03 -1.016235351562500000e-01 1.011962890625000000e-01 -8.575439453125000000e-02 -8.776855468750000000e-02 -3.173828125000000000e-02 -7.006835937500000000e-02 8.508300781250000000e-02

-8.154296875000000000e-02 -1.185607910156250000e-02 5.950927734375000000e-02 7.513427734375000000e-02 2.915954589843750000e-02 6.207275390625000000e-02 -9.509277343750000000e-02 -9.582519531250000000e-02 -7.720947265625000000e-02 -4.147338867187500000e-02 4.205322265625000000e-02 3.607177734375000000e-02 -7.916259765625000000e-02 -4.580688476562500000e-02 -6.210327148437500000e-02 9.635925292968750000e-03 -6.018066406250000000e-02 -3.927612304687500000e-02 3.234863281250000000e-02 6.781005859375000000e-02 2.928161621093750000e-02 4.388427734375000000e-02 -9.353637695312500000e-03 -4.934692382812500000e-02 -1.550292968750000000e-02

-4.035949707031250000e-03 -4.660034179687500000e-02 4.223632812500000000e-02 4.180908203125000000e-02 -3.857421875000000000e-02 -2.291870117187500000e-02 -1.791381835937500000e-02 -1.806640625000000000e-02 4.525756835937500000e-02 -7.196044921875000000e-02 -5.422973632812500000e-02 -2.194213867187500000e-02 -1.008987426757812500e-03 8.538818359375000000e-02 6.640625000000000000e-02 4.998779296875000000e-02 -1.105499267578125000e-02 2.713012695312500000e-02 1.035308837890625000e-02 4.199218750000000000e-02 1.197814941406250000e-02 -9.637451171875000000e-02 -1.043701171875000000e-02 -5.712890625000000000e-02 2.792358398437500000e-02

-7.556152343750000000e-02 1.446533203125000000e-02 6.854248046875000000e-02 9.881591796875000000e-02 -3.173828125000000000e-02 -1.020507812500000000e-01 6.018066406250000000e-02 -5.523681640625000000e-02 1.969909667968750000e-02 -4.199218750000000000e-02 1.328277587890625000e-02 -3.997802734375000000e-02 -3.271484375000000000e-02 7.952880859375000000e-02 -4.257202148437500000e-02 8.331298828125000000e-02 2.909851074218750000e-02 -3.839111328125000000e-02 -7.812500000000000000e-02 3.028869628906250000e-02 -7.812500000000000000e-02 -3.118896484375000000e-02 3.839111328125000000e-02 7.269287109375000000e-02 6.390380859375000000e-02

5.120849609375000000e-02 -6.787109375000000000e-02 6.051635742187500000e-02 9.686279296875000000e-02 8.673095703125000000e-02 8.319091796875000000e-02 4.351806640625000000e-02 3.094482421875000000e-02 2.935791015625000000e-02 4.263305664062500000e-02 5.996704101562500000e-02 2.944946289062500000e-02 -5.466461181640625000e-03 2.325439453125000000e-02 4.595947265625000000e-02 1.927185058593750000e-02 -3.982543945312500000e-03 1.314544677734375000e-02 -7.183837890625000000e-02 1.371765136718750000e-02 -7.495117187500000000e-02 -8.636474609375000000e-02 6.542968750000000000e-02 7.257080078125000000e-02 9.289550781250000000e-02

-2.145385742187500000e-02 -7.518768310546875000e-03 -7.617187500000000000e-02 -5.883789062500000000e-02 1.026000976562500000e-01 -1.950073242187500000e-02 -1.878356933593750000e-02 -5.865478515625000000e-02 1.440048217773437500e-03 8.001708984375000000e-02 3.332138061523437500e-03 8.673095703125000000e-02 -3.381347656250000000e-02 7.415771484375000000e-02 6.201171875000000000e-02 -3.375244140625000000e-02 -8.312988281250000000e-02 -5.691528320312500000e-02 3.894042968750000000e-02 -5.734252929687500000e-02 4.348754882812500000e-02 8.068847656250000000e-02 1.487731933593750000e-02 2.055358886718750000e-02 -5.734252929687500000e-02

-4.379272460937500000e-02 -3.594970703125000000e-02 -2.671813964843750000e-02 8.441162109375000000e-02 -3.631591796875000000e-02 -4.278564453125000000e-02 3.114700317382812500e-03 -1.928710937500000000e-02 -1.419067382812500000e-03 4.470825195312500000e-02 -1.358032226562500000e-02 -8.013916015625000000e-02 9.167480468750000000e-02 -2.767944335937500000e-02 -5.459594726562500000e-02 2.146911621093750000e-02 7.293701171875000000e-02 -9.606933593750000000e-02 -6.811523437500000000e-02 8.166503906250000000e-02 -5.374145507812500000e-02 -7.354736328125000000e-02 -3.533935546875000000e-02 1.367950439453125000e-02 -7.513427734375000000e-02

-5.984497070312500000e-02 -5.886840820312500000e-02 2.290344238281250000e-02 -8.740234375000000000e-02 -1.489257812500000000e-02 1.786804199218750000e-02 -1.009368896484375000e-02 5.426025390625000000e-02 -2.392578125000000000e-02 -7.592773437500000000e-02 7.556152343750000000e-02 -6.707763671875000000e-02 8.160400390625000000e-02 -3.454589843750000000e-02 -2.670288085937500000e-02 -9.826660156250000000e-03 -3.416061401367187500e-03 -5.743408203125000000e-02 -3.717041015625000000e-02 -6.286621093750000000e-02 7.977294921875000000e-02 -7.855224609375000000e-02 -7.049560546875000000e-02 1.947021484375000000e-02 9.783935546875000000e-02

-8.422851562500000000e-03 -8.679199218750000000e-02 -4.595947265625000000e-02 -6.072998046875000000e-03 1.753234863281250000e-02 -5.361938476562500000e-02 1.504516601562500000e-02 7.952880859375000000e-02 2.841186523437500000e-02 -9.448242187500000000e-02 -5.273437500000000000e-02 5.130004882812500000e-02 7.952880859375000000e-02 6.866455078125000000e-02 -7.391357421875000000e-02 -9.399414062500000000e-02 -2.220153808593750000e-02 -8.544921875000000000e-02 8.062744140625000000e-02 3.016662597656250000e-02 -3.028869628906250000e-03 8.477783203125000000e-02 -6.347656250000000000e-03 -9.912109375000000000e-02 4.238891601562500000e-02

-3.831863403320312500e-03 7.977294921875000000e-02 4.708862304687500000e-02 1.889038085937500000e-02 -1.134490966796875000e-02 1.683044433593750000e-02 -5.706787109375000000e-02 -4.580688476562500000e-02 -5.413818359375000000e-02 7.000732421875000000e-02 9.710693359375000000e-02 4.403686523437500000e-02 7.348632812500000000e-02 3.802490234375000000e-02 7.830810546875000000e-02 1.003265380859375000e-02 1.226043701171875000e-02 -2.255249023437500000e-02 -8.666992187500000000e-02 4.583740234375000000e-02 9.484863281250000000e-02 -8.435058593750000000e-02 1.582336425781250000e-02 7.672119140625000000e-02 -9.246826171875000000e-02

5.682373046875000000e-02 4.437255859375000000e-02 -9.985351562500000000e-02 -3.997802734375000000e-02 -1.708984375000000000e-02 -1.525878906250000000e-02 -3.314208984375000000e-02 6.024169921875000000e-02 3.228759765625000000e-02 7.952880859375000000e-02 5.267333984375000000e-02 1.385498046875000000e-02 -9.136962890625000000e-02 -8.093261718750000000e-02 -3.192138671875000000e-02 8.843994140625000000e-02 -1.014404296875000000e-01 1.745605468750000000e-02 -2.410888671875000000e-02 -9.863281250000000000e-02 2.349853515625000000e-02 -6.106567382812500000e-02 -8.074951171875000000e-02 4.241943359375000000e-02 -1.020507812500000000e-01

-1.265716552734375000e-02 -6.689453125000000000e-02 5.581665039062500000e-02 -5.444335937500000000e-02 5.459594726562500000e-02 -1.015014648437500000e-01 -8.270263671875000000e-02 5.178833007812500000e-02 -9.027099609375000000e-02 -4.049682617187500000e-02 3.701782226562500000e-02 -2.360534667968750000e-02 2.476501464843750000e-02 -2.381896972656250000e-02 -8.972167968750000000e-02 3.790283203125000000e-02 2.865600585937500000e-02 5.212402343750000000e-02 9.973144531250000000e-02 -3.332519531250000000e-02 -5.111694335937500000e-02 -7.305145263671875000e-03 -3.024291992187500000e-02 3.335952758789062500e-03 -9.246826171875000000e-03

-2.832031250000000000e-02 6.671142578125000000e-02 -2.268981933593750000e-02 3.573608398437500000e-02 -7.348632812500000000e-02 -3.094482421875000000e-02 5.619049072265625000e-03 -7.812500000000000000e-02 -7.861328125000000000e-02 2.041625976562500000e-02 6.553649902343750000e-03 2.951049804687500000e-02 -8.758544921875000000e-02 9.452819824218750000e-03 -3.509521484375000000e-02 8.331298828125000000e-02 3.231048583984375000e-03 8.258056640625000000e-02 3.485107421875000000e-02 7.995605468750000000e-02 9.606933593750000000e-02 4.623413085937500000e-02 9.361267089843750000e-03 9.918212890625000000e-02 9.490966796875000000e-02

-2.227783203125000000e-02 -7.794189453125000000e-02 5.612182617187500000e-02 -4.156494140625000000e-02 -1.543426513671875000e-02 -5.268096923828125000e-03 -8.323669433593750000e-03 -1.028442382812500000e-01 -6.433105468750000000e-02 8.935546875000000000e-02 3.534317016601562500e-03 4.421234130859375000e-03 -4.302978515625000000e-02 5.401611328125000000e-02 -6.201171875000000000e-02 -9.020996093750000000e-02 -7.672119140625000000e-02 -7.177734375000000000e-02 3.268432617187500000e-02 1.022949218750000000e-01 8.056640625000000000e-02 -8.831787109375000000e-02 -3.680419921875000000e-02 8.697509765625000000e-02 1.290893554687500000e-02

1.629638671875000000e-02 -1.684570312500000000e-02 -4.940795898437500000e-02 -6.652832031250000000e-03 -8.337402343750000000e-02 -9.277343750000000000e-02 -7.672119140625000000e-02 -7.916259765625000000e-02 5.548095703125000000e-02 4.821777343750000000e-03 8.422851562500000000e-03 4.937744140625000000e-02 4.241943359375000000e-02 8.074951171875000000e-02 4.217529296875000000e-02 9.295654296875000000e-02 2.227783203125000000e-02 -5.703735351562500000e-02 5.096435546875000000e-02 9.405517578125000000e-02 -2.612304687500000000e-02 -7.092285156250000000e-02 3.961181640625000000e-02 7.550048828125000000e-02 -8.459472656250000000e-02

6.829833984375000000e-02 -1.989746093750000000e-02 7.482910156250000000e-02 -7.330322265625000000e-02 8.880615234375000000e-02 4.776000976562500000e-02 4.808902740478515625e-04 -5.545043945312500000e-02 -2.483367919921875000e-03 7.147789001464843750e-04 -8.020019531250000000e-02 5.813598632812500000e-02 -6.347656250000000000e-02 4.302978515625000000e-02 5.786132812500000000e-02 2.374267578125000000e-02 -5.242919921875000000e-02 9.356689453125000000e-02 -2.412796020507812500e-03 2.098083496093750000e-02 -4.171752929687500000e-02 8.740234375000000000e-02 3.933715820312500000e-02 1.768493652343750000e-02 5.477905273437500000e-02

3.057861328125000000e-02 -3.656005859375000000e-02 -1.010131835937500000e-01 -5.944824218750000000e-02 6.060791015625000000e-02 -5.563354492187500000e-02 -1.635742187500000000e-02 -7.629394531250000000e-02 -5.444335937500000000e-02 9.814453125000000000e-02 6.573486328125000000e-02 4.315185546875000000e-02 1.989746093750000000e-02 -5.545043945312500000e-02 -6.359100341796875000e-03 -6.244659423828125000e-03 -1.243591308593750000e-02 -8.178710937500000000e-02 -8.819580078125000000e-02 9.967041015625000000e-02 -3.390502929687500000e-02 4.998779296875000000e-02 -3.839111328125000000e-02 3.341674804687500000e-02 7.305908203125000000e-02

-2.850341796875000000e-02 -4.418945312500000000e-02 -2.853393554687500000e-02 -4.077148437500000000e-02 -9.020996093750000000e-02 4.217529296875000000e-02 9.313964843750000000e-02 9.826660156250000000e-03 -9.619140625000000000e-02 2.691650390625000000e-02 7.141113281250000000e-03 8.673095703125000000e-02 -4.498291015625000000e-02 -1.022338867187500000e-01 -8.233642578125000000e-02 -1.788330078125000000e-02 4.595947265625000000e-02 2.629089355468750000e-02 -2.899169921875000000e-02 2.391052246093750000e-02 -7.855224609375000000e-02 -5.709838867187500000e-02 -8.135986328125000000e-02 -7.855224609375000000e-02 -3.775024414062500000e-02

-9.924316406250000000e-02 -2.850341796875000000e-02 -6.445312500000000000e-02 4.864501953125000000e-02 7.647705078125000000e-02 -3.076171875000000000e-02 2.067565917968750000e-02 5.865478515625000000e-02 6.292724609375000000e-02 7.110595703125000000e-02 6.744384765625000000e-02 9.478759765625000000e-02 -1.226806640625000000e-02 -8.093261718750000000e-02 -1.165771484375000000e-02 7.598876953125000000e-02 -4.418945312500000000e-02 9.651184082031250000e-03 -4.199218750000000000e-02 -4.879760742187500000e-02 -8.819580078125000000e-02 6.645202636718750000e-03 -7.006835937500000000e-02 -1.012573242187500000e-01 7.757568359375000000e-02

-4.156494140625000000e-02 2.264404296875000000e-02 -8.294677734375000000e-02 -4.397583007812500000e-02 1.220703125000000000e-03 8.331298828125000000e-02 -3.015136718750000000e-02 -9.381103515625000000e-02 -8.459472656250000000e-02 -3.033447265625000000e-02 2.886962890625000000e-02 -3.295898437500000000e-02 -4.339599609375000000e-02 6.042480468750000000e-03 3.814697265625000000e-02 -9.600830078125000000e-02 1.806640625000000000e-02 3.900146484375000000e-02 -1.489257812500000000e-02 1.007080078125000000e-02 -2.734375000000000000e-02 5.804443359375000000e-02 -8.337402343750000000e-02 -2.612304687500000000e-02 -3.216552734375000000e-02

9.906005859375000000e-02 -3.558349609375000000e-02 -3.390502929687500000e-02 -9.118652343750000000e-02 4.238128662109375000e-03 -1.850891113281250000e-02 -6.304931640625000000e-02 6.610870361328125000e-03 -6.091308593750000000e-02 2.485656738281250000e-02 -2.677917480468750000e-02 -6.106567382812500000e-02 -8.679199218750000000e-02 -5.926513671875000000e-02 -1.317596435546875000e-02 -6.665039062500000000e-02 -2.763366699218750000e-02 -4.333496093750000000e-02 2.598571777343750000e-02 -9.576416015625000000e-02 -5.474853515625000000e-02 5.340576171875000000e-02 -8.496093750000000000e-02 2.124786376953125000e-03 -8.911132812500000000e-02

1.910400390625000000e-02 -5.502319335937500000e-02 -5.484008789062500000e-02 1.867675781250000000e-02 -3.558349609375000000e-02 -9.521484375000000000e-02 -1.245117187500000000e-02 -5.523681640625000000e-02 2.807617187500000000e-03 4.376220703125000000e-02 7.489013671875000000e-02 -2.734375000000000000e-02 2.288818359375000000e-02 6.835937500000000000e-03 -7.629394531250000000e-02 -1.849365234375000000e-02 -3.576660156250000000e-02 7.391357421875000000e-02 6.182861328125000000e-02 7.019042968750000000e-03 1.008911132812500000e-01 -6.665039062500000000e-02 -2.532958984375000000e-02 2.728271484375000000e-02 -6.567382812500000000e-02

-7.812500000000000000e-02 8.477783203125000000e-02 -8.880615234375000000e-02 7.257080078125000000e-02 1.464843750000000000e-02 -1.342773437500000000e-02 7.025146484375000000e-02 -4.519653320312500000e-02 1.012573242187500000e-01 -9.442138671875000000e-02 9.442138671875000000e-02 2.850341796875000000e-02 3.570556640625000000e-02 -4.156494140625000000e-02 8.099365234375000000e-02 -5.062866210937500000e-02 -7.873535156250000000e-02 2.726745605468750000e-02 -3.561401367187500000e-02 3.753662109375000000e-02 -9.881591796875000000e-02 -4.721069335937500000e-02 -1.228332519531250000e-02 7.794189453125000000e-02 1.008911132812500000e-01

-9.057617187500000000e-02 -1.263427734375000000e-02 2.410888671875000000e-02 -6.549072265625000000e-02 9.918212890625000000e-02 7.354736328125000000e-02 -1.948547363281250000e-02 7.574462890625000000e-02 -6.323242187500000000e-02 -1.510620117187500000e-02 5.804443359375000000e-02 8.819580078125000000e-02 -4.620361328125000000e-02 6.463623046875000000e-02 1.018676757812500000e-01 6.225585937500000000e-03 7.611083984375000000e-02 -8.074951171875000000e-02 5.902099609375000000e-02 9.661865234375000000e-02 3.094482421875000000e-02 -9.259033203125000000e-02 6.011962890625000000e-02 4.180908203125000000e-02 -8.917236328125000000e-02

