8.331298828125000000e-02 -7.452392578125000000e-02 -4.739379882812500000e-02 -7.592773437500000000e-02 -7.592773437500000000e-02 -4.721069335937500000e-02 -5.502319335937500000e-02 4.583740234375000000e-02 -5.825805664062500000e-02 3.068542480468750000e-02 -7.160186767578125000e-03 -9.362792968750000000e-02 -5.926513671875000000e-02 -6.023406982421875000e-03 7.045745849609375000e-03 -5.844116210937500000e-02 -3.015136718750000000e-02 -6.567382812500000000e-02 2.348327636718750000e-02 1.181030273437500000e-02 9.124755859375000000e-02 8.477783203125000000e-02 -9.136962890625000000e-02 -3.717041015625000000e-02 -4.116821289062500000e-02

3.680419921875000000e-02 1.086425781250000000e-02 -8.636474609375000000e-02 5.743408203125000000e-02 9.826660156250000000e-03 4.241943359375000000e-02 -1.028442382812500000e-01 -9.643554687500000000e-02 7.537841796875000000e-02 -6.787109375000000000e-02 -9.924316406250000000e-02 3.338623046875000000e-02 -6.652832031250000000e-03 4.962158203125000000e-02 -9.680175781250000000e-02 3.680419921875000000e-02 3.167724609375000000e-02 9.576416015625000000e-02 2.130126953125000000e-02 7.794189453125000000e-02 8.636474609375000000e-02 -4.318237304687500000e-02 -4.318237304687500000e-02 7.989501953125000000e-02 -4.962158203125000000e-02

7.025146484375000000e-02 5.560302734375000000e-02 -1.747608184814453125e-04 4.022216796875000000e-02 4.925537109375000000e-02 2.545166015625000000e-02 3.068542480468750000e-02 1.016235351562500000e-01 -5.163574218750000000e-02 -4.016113281250000000e-02 -5.783081054687500000e-03 -1.563072204589843750e-03 -5.142211914062500000e-02 3.961181640625000000e-02 2.716064453125000000e-02 -3.497314453125000000e-02 9.466552734375000000e-02 -9.643554687500000000e-02 -3.155517578125000000e-02 -1.020507812500000000e-01 5.462646484375000000e-02 -4.760742187500000000e-02 -2.429199218750000000e-02 -9.362792968750000000e-02 -3.778076171875000000e-02

7.489013671875000000e-02 -5.786132812500000000e-02 3.601074218750000000e-02 -8.117675781250000000e-02 -6.204223632812500000e-02 7.562255859375000000e-02 7.489013671875000000e-02 2.143859863281250000e-02 -5.355834960937500000e-02 -2.722167968750000000e-02 -1.561737060546875000e-02 9.223937988281250000e-03 8.044433593750000000e-02 3.158569335937500000e-02 -3.358840942382812500e-03 -4.260253906250000000e-02 -4.690551757812500000e-02 5.123901367187500000e-02 -5.642700195312500000e-02 1.009521484375000000e-01 -2.850341796875000000e-02 -8.630371093750000000e-02 -2.015686035156250000e-02 -4.553222656250000000e-02 4.614257812500000000e-02

-2.249145507812500000e-02 -8.233642578125000000e-02 4.981994628906250000e-03 1.446533203125000000e-02 5.258178710937500000e-02 1.055908203125000000e-02 2.415466308593750000e-02 -7.733154296875000000e-02 5.749511718750000000e-02 8.514404296875000000e-02 9.655761718750000000e-02 5.041503906250000000e-02 9.875488281250000000e-02 5.047607421875000000e-02 2.667236328125000000e-02 -7.690429687500000000e-02 -7.067871093750000000e-02 -5.621337890625000000e-02 6.213378906250000000e-02 2.984619140625000000e-02 6.781005859375000000e-02 7.482910156250000000e-02 8.288574218750000000e-02 -7.672119140625000000e-02 -3.903198242187500000e-02

7.812500000000000000e-03 -6.127929687500000000e-02 3.814697265625000000e-02 2.008056640625000000e-02 1.568603515625000000e-02 6.652832031250000000e-03 8.660888671875000000e-02 4.425048828125000000e-02 3.533935546875000000e-02 2.545166015625000000e-02 6.671142578125000000e-02 -8.459472656250000000e-02 5.084228515625000000e-02 -2.803802490234375000e-03 1.507568359375000000e-02 -1.605224609375000000e-02 6.011962890625000000e-02 -1.025390625000000000e-02 -5.664062500000000000e-02 4.962158203125000000e-02 -8.538818359375000000e-02 -2.551269531250000000e-02 -2.050781250000000000e-02 -7.995605468750000000e-02 2.185821533203125000e-03

-8.618164062500000000e-02 1.024780273437500000e-01 -3.411865234375000000e-02 4.083251953125000000e-02 -9.020996093750000000e-02 5.462646484375000000e-02 -9.399414062500000000e-02 -1.014404296875000000e-01 6.512451171875000000e-02 -4.077148437500000000e-02 -4.278564453125000000e-02 8.697509765625000000e-02 -9.619140625000000000e-02 1.342773437500000000e-02 3.155517578125000000e-02 -4.199218750000000000e-02 2.935791015625000000e-02 3.033447265625000000e-02 2.752685546875000000e-02 5.218505859375000000e-02 9.643554687500000000e-03 -5.926513671875000000e-02 6.048583984375000000e-02 -1.025390625000000000e-02 9.918212890625000000e-02

6.408691406250000000e-03 1.586914062500000000e-02 3.009033203125000000e-02 6.427001953125000000e-02 4.815673828125000000e-02 -1.367187500000000000e-02 -4.660034179687500000e-02 -2.410888671875000000e-02 3.680419921875000000e-02 -1.043701171875000000e-02 2.288818359375000000e-02 -9.216308593750000000e-03 -1.000366210937500000e-01 -2.874755859375000000e-02 3.375244140625000000e-02 4.315185546875000000e-02 -1.605224609375000000e-02 -1.666259765625000000e-02 3.167724609375000000e-02 -9.765625000000000000e-04 -7.452392578125000000e-02 -1.586914062500000000e-03 -4.922485351562500000e-02 -1.666259765625000000e-02 6.365966796875000000e-02

-1.020507812500000000e-01 7.354736328125000000e-02 -5.264282226562500000e-02 -6.372070312500000000e-02 8.062744140625000000e-02 -6.518554687500000000e-02 5.200195312500000000e-02 -2.474975585937500000e-02 -3.201293945312500000e-02 9.820556640625000000e-02 8.032226562500000000e-02 -4.724121093750000000e-02 2.189636230468750000e-02 -6.567382812500000000e-02 3.555297851562500000e-02 -4.721069335937500000e-02 5.682373046875000000e-02 -5.606079101562500000e-02 3.710937500000000000e-02 -9.826660156250000000e-02 -8.630371093750000000e-02 8.459472656250000000e-02 -4.629516601562500000e-02 -9.429931640625000000e-02 -9.509277343750000000e-02

-1.243591308593750000e-02 9.017944335937500000e-03 -9.875488281250000000e-02 5.426025390625000000e-02 -8.074951171875000000e-02 7.641601562500000000e-02 1.165390014648437500e-03 -9.161376953125000000e-02 8.758544921875000000e-02 1.589965820312500000e-02 2.125549316406250000e-02 2.822875976562500000e-02 -3.979492187500000000e-02 -8.416748046875000000e-02 -4.415893554687500000e-02 5.364990234375000000e-02 -1.007080078125000000e-02 -6.256103515625000000e-02 -6.262207031250000000e-02 1.704406738281250000e-02 4.306030273437500000e-02 4.544067382812500000e-02 6.323242187500000000e-02 9.436035156250000000e-02 -9.509277343750000000e-02

6.707763671875000000e-02 7.232666015625000000e-02 -3.253173828125000000e-02 -3.375244140625000000e-02 9.906005859375000000e-02 -4.119873046875000000e-02 7.867431640625000000e-02 -3.843307495117187500e-03 8.447265625000000000e-02 -2.851867675781250000e-02 9.179687500000000000e-02 9.039306640625000000e-02 -3.219604492187500000e-03 7.049560546875000000e-02 1.873779296875000000e-02 -2.270507812500000000e-02 5.218505859375000000e-02 -3.640747070312500000e-02 -3.350830078125000000e-02 -2.847290039062500000e-02 1.016845703125000000e-01 2.529907226562500000e-02 2.586364746093750000e-02 -5.358886718750000000e-02 7.849121093750000000e-02

-5.981445312500000000e-02 -5.261230468750000000e-02 -8.367919921875000000e-02 9.857177734375000000e-02 9.466552734375000000e-02 -6.982421875000000000e-02 1.457214355468750000e-02 -9.759521484375000000e-02 -2.435302734375000000e-02 8.502197265625000000e-02 7.153320312500000000e-02 1.000366210937500000e-01 1.012573242187500000e-01 3.065490722656250000e-02 8.679199218750000000e-02 -8.538818359375000000e-02 -8.453369140625000000e-03 2.478027343750000000e-02 5.313110351562500000e-02 9.832763671875000000e-02 4.257202148437500000e-03 1.264190673828125000e-02 2.851867675781250000e-02 -1.676940917968750000e-02 -5.371093750000000000e-02

-5.120849609375000000e-02 2.932739257812500000e-02 -2.360534667968750000e-02 5.889892578125000000e-02 4.598999023437500000e-02 -6.756591796875000000e-02 -9.167480468750000000e-02 5.120849609375000000e-02 -8.203125000000000000e-02 8.026123046875000000e-02 8.648681640625000000e-02 -7.269287109375000000e-02 -9.197998046875000000e-02 -7.470703125000000000e-02 1.947021484375000000e-02 -7.470703125000000000e-02 4.241943359375000000e-02 -7.098388671875000000e-02 4.837036132812500000e-02 -3.635406494140625000e-03 7.434082031250000000e-02 2.729797363281250000e-02 -1.019287109375000000e-02 3.372192382812500000e-02 1.486968994140625000e-02

-5.163574218750000000e-02 -4.156494140625000000e-02 4.647827148437500000e-02 4.244995117187500000e-02 2.293395996093750000e-02 -5.691528320312500000e-03 -8.746337890625000000e-02 5.023193359375000000e-02 -3.942871093750000000e-02 9.497070312500000000e-02 -4.385375976562500000e-02 -4.611206054687500000e-02 -3.100585937500000000e-02 8.795166015625000000e-02 -7.366943359375000000e-02 2.787780761718750000e-02 -2.206420898437500000e-02 6.303787231445312500e-04 5.752563476562500000e-02 -7.598876953125000000e-02 8.477783203125000000e-02 -2.726745605468750000e-02 8.349609375000000000e-02 5.114746093750000000e-02 -5.084228515625000000e-02

9.014892578125000000e-02 -4.238891601562500000e-02 -5.599975585937500000e-03 -6.106567382812500000e-02 -5.221557617187500000e-02 5.718994140625000000e-02 5.615234375000000000e-02 -1.489257812500000000e-02 2.005004882812500000e-02 2.629089355468750000e-02 -6.146240234375000000e-02 4.281616210937500000e-02 -6.384277343750000000e-02 -8.422851562500000000e-03 8.978271484375000000e-02 3.619384765625000000e-02 8.221435546875000000e-02 4.617309570312500000e-02 3.677368164062500000e-02 6.768798828125000000e-02 6.646728515625000000e-02 4.034423828125000000e-02 -9.259033203125000000e-02 -8.215332031250000000e-02 -3.102111816406250000e-02

-4.217529296875000000e-02 -9.521484375000000000e-02 9.887695312500000000e-02 8.953857421875000000e-02 9.222412109375000000e-02 -4.141235351562500000e-02 -9.179687500000000000e-02 -8.959960937500000000e-02 8.306884765625000000e-02 7.824707031250000000e-02 4.122924804687500000e-02 -2.473831176757812500e-03 6.390380859375000000e-02 -1.646423339843750000e-02 4.132080078125000000e-02 2.655029296875000000e-02 -8.819580078125000000e-02 4.632568359375000000e-02 -4.141235351562500000e-02 -3.033447265625000000e-02 7.835388183593750000e-03 8.489990234375000000e-02 -1.580810546875000000e-02 1.206207275390625000e-02 3.619384765625000000e-02

-4.980468750000000000e-02 9.826660156250000000e-03 -1.009521484375000000e-01 6.231689453125000000e-02 2.410888671875000000e-02 6.237792968750000000e-02 8.508300781250000000e-02 -7.820129394531250000e-03 -7.031250000000000000e-02 2.388000488281250000e-02 -7.879638671875000000e-02 3.219604492187500000e-02 -2.325773239135742188e-04 6.427764892578125000e-03 9.851074218750000000e-02 5.645751953125000000e-02 -2.531433105468750000e-02 9.069824218750000000e-02 2.265930175781250000e-02 -2.191162109375000000e-02 3.594970703125000000e-02 7.330322265625000000e-02 2.372741699218750000e-02 2.232360839843750000e-02 -5.651855468750000000e-02

4.034423828125000000e-02 9.283447265625000000e-02 -7.855224609375000000e-02 6.671142578125000000e-02 2.630233764648437500e-03 -1.028442382812500000e-01 -7.348632812500000000e-02 1.525878906250000000e-02 8.514404296875000000e-02 7.196044921875000000e-02 8.697509765625000000e-02 -9.802246093750000000e-02 -1.605224609375000000e-02 7.550048828125000000e-02 6.024169921875000000e-02 -9.460449218750000000e-03 1.782226562500000000e-02 2.795410156250000000e-02 9.405517578125000000e-02 -8.984375000000000000e-02 5.548095703125000000e-02 -3.643798828125000000e-02 -4.620361328125000000e-02 5.306243896484375000e-03 -1.020507812500000000e-01

2.622604370117187500e-03 8.172607421875000000e-02 3.631591796875000000e-02 5.523681640625000000e-02 8.160400390625000000e-02 4.922485351562500000e-02 -4.940795898437500000e-02 1.010131835937500000e-01 2.369689941406250000e-02 6.567382812500000000e-02 -6.372070312500000000e-02 1.461029052734375000e-02 2.812194824218750000e-02 -6.445312500000000000e-02 -6.805419921875000000e-02 1.012573242187500000e-01 -4.940795898437500000e-02 3.842163085937500000e-02 -6.668090820312500000e-03 9.625244140625000000e-02 7.397460937500000000e-02 3.567504882812500000e-02 3.442764282226562500e-03 -9.924316406250000000e-02 9.686279296875000000e-02

-9.844970703125000000e-02 7.452392578125000000e-02 3.152465820312500000e-02 -8.837890625000000000e-02 -1.387023925781250000e-02 8.770751953125000000e-02 1.223754882812500000e-02 1.823425292968750000e-02 4.244995117187500000e-02 -6.494140625000000000e-02 1.023101806640625000e-02 1.128387451171875000e-02 -4.180908203125000000e-02 6.451416015625000000e-02 4.539489746093750000e-03 -1.811218261718750000e-02 8.953857421875000000e-02 7.019042968750000000e-02 -3.173828125000000000e-02 6.094360351562500000e-02 -9.069824218750000000e-02 3.944396972656250000e-03 8.837890625000000000e-02 -6.359863281250000000e-02 7.879638671875000000e-02

-4.977416992187500000e-02 1.016235351562500000e-01 -2.813720703125000000e-02 8.660888671875000000e-02 -9.661865234375000000e-02 9.436035156250000000e-02 -8.612060546875000000e-02 -4.217529296875000000e-02 -3.860473632812500000e-02 2.568054199218750000e-02 -3.707885742187500000e-02 9.323120117187500000e-03 7.360839843750000000e-02 3.781127929687500000e-02 -6.628417968750000000e-02 -9.118652343750000000e-02 4.733276367187500000e-02 -4.907226562500000000e-02 7.720947265625000000e-02 3.976440429687500000e-02 -9.506225585937500000e-03 4.888916015625000000e-02 5.322265625000000000e-02 4.751586914062500000e-02 3.607177734375000000e-02

2.630615234375000000e-02 -4.840087890625000000e-02 4.705810546875000000e-02 -4.037475585937500000e-02 4.803466796875000000e-02 -7.637023925781250000e-03 -6.323242187500000000e-02 -6.829833984375000000e-02 9.747314453125000000e-02 9.002685546875000000e-02 -9.082031250000000000e-02 -3.216552734375000000e-02 7.633209228515625000e-03 9.844970703125000000e-02 8.331298828125000000e-02 -1.006469726562500000e-01 9.698486328125000000e-02 -1.306152343750000000e-02 4.211425781250000000e-03 7.012939453125000000e-02 9.295654296875000000e-02 5.682373046875000000e-02 9.539794921875000000e-02 9.539794921875000000e-02 -3.735351562500000000e-02

-1.367187500000000000e-02 6.243896484375000000e-02 -5.798339843750000000e-02 -2.197027206420898438e-04 -8.013916015625000000e-02 -5.123901367187500000e-02 6.579589843750000000e-02 -1.264190673828125000e-02 1.002807617187500000e-01 5.633544921875000000e-02 7.183837890625000000e-02 5.151367187500000000e-02 -4.019165039062500000e-02 -6.393432617187500000e-03 9.564208984375000000e-02 -3.314208984375000000e-02 7.330322265625000000e-02 9.118652343750000000e-02 4.644775390625000000e-02 7.696533203125000000e-02 -9.729003906250000000e-02 7.977294921875000000e-02 -5.947875976562500000e-02 -5.633544921875000000e-02 -4.312133789062500000e-02

-7.269287109375000000e-02 9.637451171875000000e-02 2.310180664062500000e-02 3.034973144531250000e-02 -7.745361328125000000e-02 4.415893554687500000e-02 5.151367187500000000e-02 7.257080078125000000e-02 -4.669189453125000000e-02 -7.250976562500000000e-02 -8.255004882812500000e-03 8.929443359375000000e-02 6.384277343750000000e-02 -5.771636962890625000e-03 -6.057739257812500000e-02 8.099365234375000000e-02 -8.801269531250000000e-02 -1.026153564453125000e-02 7.076263427734375000e-03 7.812500000000000000e-02 7.873535156250000000e-02 -6.561279296875000000e-02 6.713867187500000000e-02 -9.289550781250000000e-02 -3.762817382812500000e-02

-2.197265625000000000e-03 2.410888671875000000e-02 3.851318359375000000e-02 -8.032226562500000000e-02 4.779052734375000000e-02 4.962158203125000000e-02 5.181884765625000000e-02 9.979248046875000000e-02 9.808349609375000000e-02 -3.601074218750000000e-03 -1.489257812500000000e-02 -4.318237304687500000e-02 -5.361938476562500000e-02 -7.855224609375000000e-02 -1.586914062500000000e-02 -1.008300781250000000e-01 -6.027221679687500000e-02 3.228759765625000000e-02 6.488037109375000000e-02 -7.952880859375000000e-02 4.241943359375000000e-02 -4.699707031250000000e-02 -1.629638671875000000e-02 -1.016235351562500000e-01 -9.783935546875000000e-02

6.683349609375000000e-02 -1.029205322265625000e-02 5.624389648437500000e-02 2.719116210937500000e-02 -5.329132080078125000e-03 -5.119323730468750000e-03 5.886840820312500000e-02 -1.645088195800781250e-03 -4.541015625000000000e-02 6.970214843750000000e-02 2.287292480468750000e-02 -4.364013671875000000e-02 -4.287719726562500000e-02 3.280639648437500000e-02 6.872558593750000000e-02 9.515380859375000000e-02 3.488159179687500000e-02 7.641601562500000000e-02 7.543945312500000000e-02 7.763671875000000000e-02 -4.022216796875000000e-02 3.952026367187500000e-02 -6.259918212890625000e-03 8.367919921875000000e-02 7.537841796875000000e-02

9.759521484375000000e-02 7.411956787109375000e-03 -1.018676757812500000e-01 -3.295898437500000000e-02 -8.679199218750000000e-02 -7.897949218750000000e-02 7.843017578125000000e-02 9.967041015625000000e-02 -1.593017578125000000e-02 3.552246093750000000e-02 2.688598632812500000e-02 2.027893066406250000e-02 9.686279296875000000e-02 -5.480957031250000000e-02 -5.798339843750000000e-02 5.889892578125000000e-02 8.416748046875000000e-02 1.438140869140625000e-02 -1.336669921875000000e-02 1.591491699218750000e-02 -4.937744140625000000e-02 -1.078796386718750000e-02 1.002197265625000000e-01 2.684020996093750000e-02 -7.525634765625000000e-02

-5.343627929687500000e-02 -8.445739746093750000e-03 -7.153320312500000000e-02 -8.135986328125000000e-02 4.904174804687500000e-02 -6.451416015625000000e-02 7.727050781250000000e-02 5.780029296875000000e-02 2.279281616210937500e-03 4.830932617187500000e-02 -9.509277343750000000e-02 -4.382324218750000000e-02 -6.787109375000000000e-02 -5.545043945312500000e-02 8.581542968750000000e-02 1.666259765625000000e-02 -7.775878906250000000e-02 1.571655273437500000e-03 4.696655273437500000e-02 -7.942199707031250000e-03 9.240722656250000000e-02 -1.940917968750000000e-02 -7.696533203125000000e-02 -8.428955078125000000e-02 -2.946472167968750000e-02

7.769775390625000000e-02 -2.648925781250000000e-02 6.488037109375000000e-02 -7.470703125000000000e-02 -6.408691406250000000e-02 -4.559326171875000000e-02 -1.928710937500000000e-02 1.000366210937500000e-01 -8.215332031250000000e-02 7.427978515625000000e-02 -2.569580078125000000e-02 -1.464843750000000000e-02 1.226806640625000000e-02 5.926513671875000000e-02 7.629394531250000000e-03 6.243896484375000000e-02 -8.715820312500000000e-02 -2.111816406250000000e-02 -6.506347656250000000e-02 2.838134765625000000e-02 -3.051757812500000000e-02 9.942626953125000000e-02 2.410888671875000000e-02 4.986572265625000000e-02 7.696533203125000000e-02

-1.486968994140625000e-02 -7.348632812500000000e-02 -5.023193359375000000e-02 -2.207946777343750000e-02 2.391052246093750000e-02 -6.556510925292968750e-04 -3.256225585937500000e-02 9.417724609375000000e-02 -7.714843750000000000e-02 -1.175689697265625000e-02 -9.384155273437500000e-03 3.338623046875000000e-02 -8.398437500000000000e-02 4.818725585937500000e-02 -8.032226562500000000e-02 -2.970886230468750000e-02 2.316284179687500000e-02 -4.071044921875000000e-02 -7.389068603515625000e-03 -8.721923828125000000e-02 -5.062866210937500000e-02 -3.973388671875000000e-02 -1.698303222656250000e-02 -1.082611083984375000e-02 -9.704589843750000000e-02

6.412506103515625000e-03 -4.219055175781250000e-03 -7.873535156250000000e-02 -2.288818359375000000e-02 1.024780273437500000e-01 4.739379882812500000e-02 -3.656005859375000000e-02 5.718994140625000000e-02 -2.552795410156250000e-02 9.222412109375000000e-02 6.958007812500000000e-02 -4.681396484375000000e-02 1.062011718750000000e-02 -4.203796386718750000e-03 3.659057617187500000e-02 -3.023147583007812500e-03 4.595947265625000000e-02 -7.110595703125000000e-02 -5.789184570312500000e-02 -2.006530761718750000e-02 9.259033203125000000e-02 7.147216796875000000e-02 2.950668334960937500e-03 -1.022338867187500000e-01 -1.149749755859375000e-02

-1.808166503906250000e-03 -7.733154296875000000e-02 9.283447265625000000e-02 -4.699707031250000000e-02 1.012573242187500000e-01 1.969909667968750000e-02 -6.768798828125000000e-02 -4.379272460937500000e-02 -5.142211914062500000e-02 8.361816406250000000e-03 9.576416015625000000e-02 -7.545471191406250000e-03 -9.100341796875000000e-02 -1.306152343750000000e-02 9.503173828125000000e-02 -5.743408203125000000e-02 -8.398437500000000000e-02 -9.582519531250000000e-02 8.917236328125000000e-02 8.343505859375000000e-02 9.576416015625000000e-02 -1.217842102050781250e-03 -5.041503906250000000e-02 -9.442138671875000000e-02 -8.697509765625000000e-02

-3.955078125000000000e-02 1.007080078125000000e-02 6.768798828125000000e-02 3.680419921875000000e-02 -2.893066406250000000e-02 -3.875732421875000000e-02 -1.016235351562500000e-01 -1.489257812500000000e-02 -6.549072265625000000e-02 7.647705078125000000e-02 -5.120849609375000000e-02 -2.429199218750000000e-02 -3.955078125000000000e-02 7.269287109375000000e-02 -4.339599609375000000e-02 -1.025390625000000000e-02 6.231689453125000000e-02 4.522705078125000000e-02 3.802490234375000000e-02 -7.672119140625000000e-02 7.830810546875000000e-02 7.049560546875000000e-02 -5.905151367187500000e-02 3.778076171875000000e-02 -7.214355468750000000e-02

7.757568359375000000e-02 -6.445312500000000000e-02 2.569580078125000000e-02 -6.488037109375000000e-02 -9.033203125000000000e-03 1.367187500000000000e-02 8.477783203125000000e-02 1.013793945312500000e-01 9.759521484375000000e-02 -1.202392578125000000e-02 5.523681640625000000e-02 2.624511718750000000e-03 -1.947021484375000000e-02 -3.997802734375000000e-02 9.295654296875000000e-02 5.004882812500000000e-03 -2.069091796875000000e-02 4.840087890625000000e-02 9.014892578125000000e-02 -8.636474609375000000e-02 9.722900390625000000e-02 1.019897460937500000e-01 8.294677734375000000e-02 -9.460449218750000000e-03 -9.619140625000000000e-02

-4.997253417968750000e-03 7.232666015625000000e-02 -6.768798828125000000e-02 5.706787109375000000e-02 -2.954101562500000000e-02 -6.909179687500000000e-02 -3.720092773437500000e-02 9.942626953125000000e-02 8.781433105468750000e-03 9.637451171875000000e-02 -3.164672851562500000e-02 2.629089355468750000e-02 -1.445770263671875000e-02 -7.855224609375000000e-02 -9.338378906250000000e-02 -4.800415039062500000e-02 9.100341796875000000e-02 -1.007690429687500000e-01 -5.868530273437500000e-02 3.878784179687500000e-02 -7.453918457031250000e-03 1.333618164062500000e-02 -7.217407226562500000e-03 -8.618164062500000000e-02 -3.900146484375000000e-02

-1.446533203125000000e-02 6.231689453125000000e-02 4.620361328125000000e-02 4.400634765625000000e-02 2.264404296875000000e-02 3.533935546875000000e-02 9.600830078125000000e-02 -5.624389648437500000e-02 9.747314453125000000e-02 -4.479980468750000000e-02 -5.944824218750000000e-02 8.734130859375000000e-02 1.885986328125000000e-02 -9.478759765625000000e-02 5.865478515625000000e-02 4.022216796875000000e-02 4.437255859375000000e-02 3.094482421875000000e-02 -2.471923828125000000e-02 6.304931640625000000e-02 -3.393554687500000000e-02 9.025573730468750000e-03 8.172607421875000000e-02 -1.708984375000000000e-02 3.778076171875000000e-02

7.022857666015625000e-03 1.849365234375000000e-02 6.024169921875000000e-02 3.033447265625000000e-02 4.962158203125000000e-02 7.513427734375000000e-02 -1.002197265625000000e-01 -3.411865234375000000e-02 -8.715820312500000000e-02 1.286506652832031250e-03 -9.244680404663085938e-05 9.405517578125000000e-02 -9.179687500000000000e-02 8.050537109375000000e-02 9.381103515625000000e-02 6.549072265625000000e-02 -1.016235351562500000e-01 -5.383300781250000000e-02 8.917236328125000000e-02 2.310180664062500000e-02 5.401611328125000000e-02 8.758544921875000000e-02 1.753807067871093750e-03 -2.508544921875000000e-02 -4.379272460937500000e-02

-9.600830078125000000e-02 8.197021484375000000e-02 6.610107421875000000e-02 4.436969757080078125e-04 9.466552734375000000e-02 -3.674316406250000000e-02 7.879638671875000000e-02 5.743408203125000000e-02 -8.013916015625000000e-02 8.239746093750000000e-03 -8.459472656250000000e-02 8.074951171875000000e-02 -8.880615234375000000e-02 3.228759765625000000e-02 3.753662109375000000e-02 6.427001953125000000e-02 6.671142578125000000e-02 3.059387207031250000e-02 -6.384277343750000000e-02 7.513427734375000000e-02 8.111572265625000000e-02 1.196861267089843750e-03 7.801055908203125000e-03 3.070068359375000000e-02 -1.606750488281250000e-02

