1.221656799316406250e-03 -5.142211914062500000e-02 3.070068359375000000e-02 -5.944824218750000000e-02 -4.077148437500000000e-02 -3.332519531250000000e-02 9.417724609375000000e-02 2.947998046875000000e-02 4.315185546875000000e-02 -7.690429687500000000e-02 -8.978271484375000000e-02 -3.717041015625000000e-02 -8.416748046875000000e-02 -9.033203125000000000e-03 -4.077148437500000000e-02 7.171630859375000000e-02 -3.613281250000000000e-02 -8.416748046875000000e-02 -1.367950439453125000e-02 4.193115234375000000e-02 -4.299926757812500000e-02 -6.549072265625000000e-02 -1.589965820312500000e-02 5.059814453125000000e-02 2.024173736572265625e-04

-8.819580078125000000e-02 6.304931640625000000e-02 -4.458618164062500000e-02 7.147216796875000000e-02 7.574462890625000000e-02 -7.409667968750000000e-02 1.885986328125000000e-02 -4.821777343750000000e-03 9.826660156250000000e-03 -2.630615234375000000e-02 3.594970703125000000e-02 -8.154296875000000000e-02 -9.619140625000000000e-02 8.355712890625000000e-02 -8.740234375000000000e-02 9.124755859375000000e-02 -8.618164062500000000e-02 -3.875732421875000000e-02 4.815673828125000000e-02 -2.026367187500000000e-02 1.166534423828125000e-02 5.621337890625000000e-02 -6.404876708984375000e-03 1.384735107421875000e-02 6.170654296875000000e-02

9.234619140625000000e-02 8.782958984375000000e-02 1.367187500000000000e-02 -2.209472656250000000e-02 2.911376953125000000e-02 2.227783203125000000e-02 -5.383300781250000000e-02 -2.368164062500000000e-02 8.978271484375000000e-02 -1.244354248046875000e-02 -2.178192138671875000e-03 -3.356933593750000000e-02 -1.232147216796875000e-03 -9.582519531250000000e-02 4.437255859375000000e-02 -5.484008789062500000e-02 8.575439453125000000e-02 7.550048828125000000e-02 8.856201171875000000e-02 -1.947021484375000000e-02 -4.825592041015625000e-03 -8.618164062500000000e-02 -9.600830078125000000e-02 -3.111267089843750000e-02 -8.917236328125000000e-02

2.262878417968750000e-02 6.610107421875000000e-02 9.991455078125000000e-02 -9.802246093750000000e-02 -8.264160156250000000e-02 3.344726562500000000e-02 7.958984375000000000e-02 -1.043701171875000000e-02 -2.801513671875000000e-02 -5.146026611328125000e-03 6.390380859375000000e-02 -6.463623046875000000e-02 -4.348754882812500000e-02 -7.794189453125000000e-02 -9.582519531250000000e-02 4.421997070312500000e-02 -2.481079101562500000e-02 7.501220703125000000e-02 3.326416015625000000e-02 9.344482421875000000e-02 -2.584838867187500000e-02 -9.838867187500000000e-02 4.104614257812500000e-02 9.228515625000000000e-02 -1.467895507812500000e-02

-6.665039062500000000e-02 4.901123046875000000e-02 -7.189941406250000000e-02 7.672119140625000000e-02 1.294708251953125000e-02 5.639648437500000000e-02 7.769775390625000000e-02 -6.858825683593750000e-03 -5.993652343750000000e-02 7.275390625000000000e-02 -1.018066406250000000e-01 4.736328125000000000e-02 -4.980468750000000000e-02 8.782958984375000000e-02 -1.814270019531250000e-02 -2.473449707031250000e-02 2.301025390625000000e-02 7.007598876953125000e-03 1.481056213378906250e-03 4.995727539062500000e-02 -1.444816589355468750e-03 6.274414062500000000e-02 -8.079528808593750000e-03 7.165527343750000000e-02 6.015014648437500000e-02

-7.934570312500000000e-04 3.131103515625000000e-02 -1.403808593750000000e-02 -3.778076171875000000e-02 1.708984375000000000e-02 9.356689453125000000e-02 -4.098510742187500000e-02 6.964111328125000000e-02 8.160400390625000000e-02 1.062011718750000000e-02 8.221435546875000000e-02 -5.844116210937500000e-02 -6.027221679687500000e-02 -8.459472656250000000e-02 1.841545104980468750e-03 6.408691406250000000e-03 2.288818359375000000e-02 -2.648925781250000000e-02 -1.489257812500000000e-02 4.315185546875000000e-02 -1.007080078125000000e-02 7.916259765625000000e-02 -6.829833984375000000e-02 -5.966186523437500000e-02 2.288818359375000000e-02

-4.559326171875000000e-02 7.696533203125000000e-02 -4.559326171875000000e-02 -9.643554687500000000e-02 2.789306640625000000e-02 2.667236328125000000e-02 1.062011718750000000e-02 -9.100341796875000000e-02 1.403808593750000000e-02 -1.446533203125000000e-02 9.539794921875000000e-02 6.732177734375000000e-02 -2.270507812500000000e-02 3.216552734375000000e-02 7.147216796875000000e-02 3.167724609375000000e-02 7.025146484375000000e-02 -9.741210937500000000e-02 -3.375244140625000000e-02 -3.839111328125000000e-02 3.533935546875000000e-02 -5.685424804687500000e-02 6.341552734375000000e-02 -3.234863281250000000e-02 1.831054687500000000e-04

-8.593750000000000000e-02 9.405517578125000000e-02 4.180908203125000000e-02 -6.427001953125000000e-02 6.964111328125000000e-02 3.253173828125000000e-02 -7.067871093750000000e-02 2.380371093750000000e-03 -8.679199218750000000e-02 -2.227783203125000000e-02 -4.479980468750000000e-02 7.452392578125000000e-02 -4.821777343750000000e-03 -1.028442382812500000e-01 -4.559326171875000000e-02 7.366943359375000000e-02 9.906005859375000000e-02 -1.012573242187500000e-01 -8.251953125000000000e-02 -8.654785156250000000e-02 8.660888671875000000e-02 6.512451171875000000e-02 9.906005859375000000e-02 2.667236328125000000e-02 4.394531250000000000e-03

-1.044464111328125000e-02 -3.781127929687500000e-02 -8.044433593750000000e-02 -8.071899414062500000e-03 8.044433593750000000e-02 4.492187500000000000e-02 7.122802734375000000e-02 -5.142211914062500000e-02 -7.061767578125000000e-02 -5.395507812500000000e-02 -8.074951171875000000e-02 -5.851745605468750000e-03 9.533691406250000000e-02 -6.707763671875000000e-02 -2.743530273437500000e-02 -3.198242187500000000e-02 -4.995727539062500000e-02 -7.095336914062500000e-03 5.209350585937500000e-02 2.613830566406250000e-02 6.909179687500000000e-02 -6.274414062500000000e-02 -9.228515625000000000e-02 7.159423828125000000e-02 4.431152343750000000e-02

-3.515625000000000000e-02 -6.408691406250000000e-02 6.768798828125000000e-02 4.876708984375000000e-02 -6.945800781250000000e-02 7.043457031250000000e-02 -6.604003906250000000e-02 -1.263427734375000000e-02 2.429199218750000000e-02 -3.909301757812500000e-02 9.039306640625000000e-02 2.796936035156250000e-02 9.979248046875000000e-02 -8.294677734375000000e-02 2.098083496093750000e-02 8.172607421875000000e-02 -3.271484375000000000e-02 3.323364257812500000e-02 -2.153015136718750000e-02 1.084899902343750000e-02 9.686279296875000000e-02 4.974365234375000000e-02 6.384277343750000000e-02 -3.952026367187500000e-02 1.194763183593750000e-02

-7.461547851562500000e-03 3.114318847656250000e-02 2.416992187500000000e-02 1.327514648437500000e-02 1.710510253906250000e-02 5.093383789062500000e-02 -7.684326171875000000e-02 5.487060546875000000e-02 4.330444335937500000e-02 9.130859375000000000e-02 5.194091796875000000e-02 9.136962890625000000e-02 6.182861328125000000e-02 -6.127929687500000000e-02 -1.453399658203125000e-02 1.363372802734375000e-02 -1.505279541015625000e-02 -6.622314453125000000e-02 1.623535156250000000e-02 1.279830932617187500e-03 1.692199707031250000e-02 -7.617187500000000000e-02 5.944824218750000000e-02 -3.350830078125000000e-02 -1.989746093750000000e-02

-3.924560546875000000e-02 -1.002197265625000000e-01 -1.100540161132812500e-03 -9.478759765625000000e-02 8.892822265625000000e-02 -1.021118164062500000e-01 2.290344238281250000e-02 -7.330322265625000000e-02 -6.323242187500000000e-02 5.459594726562500000e-02 5.252075195312500000e-02 -6.268310546875000000e-02 1.013183593750000000e-01 -4.678344726562500000e-02 -7.189941406250000000e-02 7.946777343750000000e-02 5.960083007812500000e-02 -3.881835937500000000e-02 -1.229095458984375000e-02 -6.396484375000000000e-02 9.259033203125000000e-02 -4.843139648437500000e-02 -1.001586914062500000e-01 8.033752441406250000e-03 4.559326171875000000e-02

9.283447265625000000e-02 9.600830078125000000e-02 -2.099990844726562500e-03 -5.361938476562500000e-02 3.695678710937500000e-02 -8.526611328125000000e-02 1.966857910156250000e-02 1.727294921875000000e-02 8.911132812500000000e-02 8.184814453125000000e-02 -6.585693359375000000e-02 3.619384765625000000e-02 -9.503173828125000000e-02 9.039306640625000000e-02 -6.124877929687500000e-02 -6.127929687500000000e-02 -2.189636230468750000e-02 -4.000854492187500000e-02 -5.203247070312500000e-02 -3.613281250000000000e-02 3.080749511718750000e-02 -4.342651367187500000e-02 -1.021118164062500000e-01 9.228515625000000000e-02 -9.197998046875000000e-02

-8.056640625000000000e-03 -3.997802734375000000e-02 -1.430511474609375000e-02 -9.479522705078125000e-04 -6.079101562500000000e-02 1.102447509765625000e-02 -7.214355468750000000e-02 -4.379272460937500000e-02 5.554199218750000000e-02 -3.106689453125000000e-02 3.308105468750000000e-02 -3.430175781250000000e-02 -4.321289062500000000e-02 -2.267456054687500000e-02 3.341674804687500000e-02 -5.929565429687500000e-02 -2.835083007812500000e-02 7.672119140625000000e-02 -9.747314453125000000e-02 4.553222656250000000e-02 -6.292724609375000000e-02 1.271057128906250000e-02 3.610229492187500000e-02 1.025390625000000000e-02 5.990600585937500000e-02

2.209472656250000000e-02 5.987548828125000000e-02 -3.936767578125000000e-02 -4.760742187500000000e-02 -1.971435546875000000e-02 -2.551269531250000000e-02 3.506469726562500000e-02 8.953857421875000000e-02 -8.460998535156250000e-03 -1.288604736328125000e-02 -2.145385742187500000e-02 -1.314163208007812500e-03 2.886962890625000000e-02 9.216308593750000000e-03 7.611083984375000000e-02 9.136962890625000000e-02 8.917236328125000000e-02 -9.722900390625000000e-02 -1.977539062500000000e-02 -3.079223632812500000e-02 -7.269287109375000000e-02 -4.461669921875000000e-02 -1.014404296875000000e-01 7.257080078125000000e-02 -5.102539062500000000e-02

-9.844970703125000000e-02 6.927490234375000000e-02 7.421875000000000000e-02 7.696533203125000000e-02 1.936340332031250000e-02 -7.480621337890625000e-03 9.057617187500000000e-02 -8.233642578125000000e-02 5.072021484375000000e-02 -7.299804687500000000e-02 8.020019531250000000e-02 -4.458618164062500000e-02 -4.281616210937500000e-02 -5.603027343750000000e-02 1.000366210937500000e-01 -3.472900390625000000e-02 -2.551269531250000000e-02 -9.191894531250000000e-02 -6.372070312500000000e-02 -3.561401367187500000e-02 3.375244140625000000e-02 2.070617675781250000e-02 -7.379150390625000000e-02 -9.863281250000000000e-02 4.907226562500000000e-02

-9.301757812500000000e-02 5.267333984375000000e-02 -2.398681640625000000e-02 -8.255004882812500000e-03 -5.682373046875000000e-02 3.088378906250000000e-02 -8.081054687500000000e-02 9.661865234375000000e-02 -8.776855468750000000e-02 2.308654785156250000e-02 -6.900787353515625000e-03 -1.387023925781250000e-02 -1.309967041015625000e-02 -5.229949951171875000e-03 4.727172851562500000e-02 -9.619140625000000000e-02 9.136962890625000000e-02 2.670288085937500000e-02 5.599975585937500000e-03 9.813308715820312500e-04 -6.286621093750000000e-02 -7.196044921875000000e-02 3.369140625000000000e-02 2.183914184570312500e-03 -9.112548828125000000e-02

5.328369140625000000e-02 -5.404663085937500000e-02 1.457214355468750000e-02 9.576416015625000000e-02 -4.541015625000000000e-02 -7.916259765625000000e-02 -8.435058593750000000e-02 1.104736328125000000e-02 5.084228515625000000e-02 8.721923828125000000e-02 -9.259033203125000000e-02 -1.240539550781250000e-02 2.630615234375000000e-02 1.245117187500000000e-02 4.278564453125000000e-02 -4.699707031250000000e-02 7.073974609375000000e-02 -5.462646484375000000e-02 -8.917236328125000000e-02 -6.250000000000000000e-02 1.002807617187500000e-01 -2.035522460937500000e-02 -6.323242187500000000e-02 9.661865234375000000e-02 -8.880615234375000000e-02

-5.343627929687500000e-02 -1.022338867187500000e-01 -1.806640625000000000e-02 -9.338378906250000000e-02 -5.078125000000000000e-02 -1.345825195312500000e-02 4.370117187500000000e-02 -3.875732421875000000e-02 8.018493652343750000e-03 1.019287109375000000e-01 -5.758666992187500000e-02 4.459381103515625000e-03 8.294677734375000000e-02 -9.863281250000000000e-02 7.110595703125000000e-02 -4.660034179687500000e-02 -4.901123046875000000e-02 8.789062500000000000e-02 8.660888671875000000e-02 -6.384277343750000000e-02 -3.068542480468750000e-02 6.385803222656250000e-03 3.186035156250000000e-02 5.404663085937500000e-02 -2.192687988281250000e-02

6.744384765625000000e-02 -8.154296875000000000e-02 -2.458190917968750000e-02 -4.016113281250000000e-02 6.365966796875000000e-02 6.799316406250000000e-02 1.445007324218750000e-02 -7.269287109375000000e-02 -9.814453125000000000e-02 2.668762207031250000e-02 4.452514648437500000e-02 -9.362792968750000000e-02 7.568359375000000000e-02 -1.638793945312500000e-02 -4.722595214843750000e-03 -4.498291015625000000e-02 -3.637695312500000000e-02 8.956909179687500000e-03 8.453369140625000000e-02 -1.206970214843750000e-02 8.966064453125000000e-02 -3.555297851562500000e-02 -7.091522216796875000e-03 -9.529113769531250000e-03 -8.813476562500000000e-02

-6.408691406250000000e-02 -3.253173828125000000e-02 -4.928588867187500000e-02 -6.401062011718750000e-03 -2.951049804687500000e-02 7.794189453125000000e-02 3.115844726562500000e-02 3.839111328125000000e-02 9.222412109375000000e-02 -9.008789062500000000e-02 -9.643554687500000000e-02 -3.857421875000000000e-02 -1.381683349609375000e-02 -1.006469726562500000e-01 3.018188476562500000e-02 -8.056640625000000000e-02 3.564453125000000000e-02 -3.744125366210937500e-03 -5.282592773437500000e-02 5.249023437500000000e-03 9.753417968750000000e-02 8.758544921875000000e-02 1.226806640625000000e-02 -9.529113769531250000e-03 -1.186370849609375000e-02

8.819580078125000000e-02 1.684570312500000000e-02 8.099365234375000000e-02 7.635498046875000000e-02 8.416748046875000000e-02 3.436279296875000000e-02 5.987548828125000000e-02 -5.203247070312500000e-02 -8.232116699218750000e-03 -2.612304687500000000e-02 -9.863281250000000000e-02 7.452392578125000000e-02 -5.563354492187500000e-02 4.058837890625000000e-02 6.524658203125000000e-02 5.364990234375000000e-02 7.891845703125000000e-02 -5.364990234375000000e-02 -7.995605468750000000e-02 9.698486328125000000e-02 -7.629394531250000000e-02 -2.066040039062500000e-02 7.629394531250000000e-02 -4.940795898437500000e-02 -4.821777343750000000e-02

-4.821777343750000000e-02 8.013916015625000000e-02 6.024169921875000000e-02 5.426025390625000000e-02 -7.391357421875000000e-02 6.268310546875000000e-02 3.314208984375000000e-02 7.012939453125000000e-02 -5.764770507812500000e-02 5.084228515625000000e-02 -1.266479492187500000e-02 -5.926513671875000000e-02 -3.298950195312500000e-02 4.302978515625000000e-02 -1.986694335937500000e-02 -1.061248779296875000e-02 -9.259033203125000000e-02 -2.496337890625000000e-02 8.990478515625000000e-02 -7.244873046875000000e-02 7.696533203125000000e-02 8.837890625000000000e-02 5.548095703125000000e-02 8.380126953125000000e-02 7.586669921875000000e-02

-9.179687500000000000e-02 -7.891845703125000000e-02 5.688476562500000000e-02 5.426025390625000000e-02 5.081176757812500000e-03 2.307128906250000000e-02 -5.291748046875000000e-02 6.050109863281250000e-03 3.521728515625000000e-02 7.244873046875000000e-02 -8.764648437500000000e-02 6.033325195312500000e-02 -6.353759765625000000e-02 -9.582519531250000000e-02 -8.801269531250000000e-02 3.872680664062500000e-02 6.707763671875000000e-02 -2.221679687500000000e-02 -4.476928710937500000e-02 -4.208374023437500000e-02 -4.791259765625000000e-03 2.955627441406250000e-02 -9.475708007812500000e-03 -8.277893066406250000e-03 1.000366210937500000e-01

-4.418945312500000000e-02 2.728271484375000000e-02 8.673095703125000000e-02 -1.043701171875000000e-02 1.947021484375000000e-02 -7.049560546875000000e-02 -4.440307617187500000e-02 -3.393554687500000000e-02 -2.270507812500000000e-02 8.538818359375000000e-02 -8.618164062500000000e-02 -3.997802734375000000e-02 8.636474609375000000e-02 -6.787109375000000000e-02 -3.436279296875000000e-02 8.233642578125000000e-02 3.839111328125000000e-02 -3.753662109375000000e-02 -8.154296875000000000e-02 1.806640625000000000e-02 -7.409667968750000000e-02 4.498291015625000000e-02 9.808349609375000000e-02 -8.880615234375000000e-02 -9.704589843750000000e-02

1.018676757812500000e-01 -3.936767578125000000e-02 -2.931213378906250000e-02 9.387207031250000000e-02 -3.964233398437500000e-02 -6.951904296875000000e-02 6.420898437500000000e-02 6.341552734375000000e-02 9.658813476562500000e-03 7.904052734375000000e-03 6.237792968750000000e-02 -1.014404296875000000e-01 -8.868408203125000000e-02 6.298828125000000000e-02 1.361083984375000000e-02 7.324218750000000000e-02 7.122802734375000000e-02 -1.009521484375000000e-01 2.305603027343750000e-02 2.508544921875000000e-02 6.750488281250000000e-02 7.446289062500000000e-02 -1.782226562500000000e-02 5.584716796875000000e-02 -7.385253906250000000e-02

-4.415893554687500000e-02 6.805419921875000000e-02 2.824401855468750000e-02 -6.689453125000000000e-02 2.136230468750000000e-02 5.862426757812500000e-02 3.717041015625000000e-02 1.947021484375000000e-02 5.664062500000000000e-02 -9.387207031250000000e-02 5.957031250000000000e-02 5.844116210937500000e-02 -5.767822265625000000e-02 8.575439453125000000e-02 9.173583984375000000e-02 -8.557128906250000000e-02 4.034423828125000000e-02 -6.951904296875000000e-02 -9.820556640625000000e-02 9.808349609375000000e-02 -4.714965820312500000e-02 -8.319091796875000000e-02 3.271484375000000000e-02 4.440307617187500000e-02 7.873535156250000000e-02

3.619384765625000000e-02 3.411865234375000000e-02 -7.830810546875000000e-02 6.275177001953125000e-04 -6.890869140625000000e-02 1.142120361328125000e-02 -9.741210937500000000e-02 1.203155517578125000e-02 8.155822753906250000e-03 9.753417968750000000e-02 9.234619140625000000e-02 -1.000213623046875000e-02 -1.407623291015625000e-02 5.706787109375000000e-02 9.124755859375000000e-02 9.906005859375000000e-02 -4.486083984375000000e-02 -2.416992187500000000e-02 5.828857421875000000e-03 -8.837890625000000000e-02 -3.674316406250000000e-02 1.219940185546875000e-02 -7.135009765625000000e-02 7.434082031250000000e-02 6.634521484375000000e-02

-9.362792968750000000e-02 -6.945800781250000000e-02 8.331298828125000000e-02 6.182861328125000000e-02 -4.262924194335937500e-04 -2.392578125000000000e-02 -1.324462890625000000e-02 -2.197265625000000000e-03 5.401611328125000000e-02 9.002685546875000000e-02 -4.940795898437500000e-02 7.208251953125000000e-02 -1.008300781250000000e-01 8.233642578125000000e-02 -4.440307617187500000e-02 -3.094482421875000000e-02 1.489257812500000000e-02 -6.268310546875000000e-02 7.928466796875000000e-02 3.497314453125000000e-02 -2.630615234375000000e-02 3.289794921875000000e-02 4.718017578125000000e-02 -5.563354492187500000e-02 1.806640625000000000e-02

7.696533203125000000e-02 -7.434844970703125000e-03 -5.401611328125000000e-02 -9.362792968750000000e-02 1.055908203125000000e-02 -1.345825195312500000e-02 -7.580566406250000000e-02 -2.734375000000000000e-02 2.384948730468750000e-02 -4.544067382812500000e-02 5.694580078125000000e-02 -7.526397705078125000e-03 -1.712036132812500000e-02 5.645751953125000000e-02 -5.859375000000000000e-03 -3.436279296875000000e-02 -4.382324218750000000e-02 -9.808349609375000000e-02 3.247070312500000000e-02 -8.929443359375000000e-02 -5.383300781250000000e-02 -4.885864257812500000e-02 6.262207031250000000e-02 -1.936340332031250000e-02 -3.025817871093750000e-02

-3.497314453125000000e-02 -4.077148437500000000e-02 5.303955078125000000e-02 -6.408691406250000000e-02 6.268310546875000000e-02 -9.759521484375000000e-02 -1.170349121093750000e-02 -6.488037109375000000e-02 -3.997802734375000000e-02 1.256561279296875000e-02 4.428100585937500000e-02 3.870010375976562500e-03 -3.436279296875000000e-02 7.659912109375000000e-03 1.156616210937500000e-02 3.399658203125000000e-02 8.416748046875000000e-02 -9.844970703125000000e-02 5.044555664062500000e-02 -7.672119140625000000e-02 2.851867675781250000e-02 8.187294006347656250e-04 -8.801269531250000000e-02 3.463745117187500000e-02 -1.463317871093750000e-02

-2.874755859375000000e-02 2.349853515625000000e-02 -5.926513671875000000e-02 3.375244140625000000e-02 -1.144409179687500000e-02 9.259033203125000000e-02 8.789062500000000000e-02 4.034423828125000000e-02 2.085876464843750000e-02 -5.044555664062500000e-02 6.048583984375000000e-02 7.073974609375000000e-02 9.442138671875000000e-02 9.808349609375000000e-02 1.345825195312500000e-02 -4.238891601562500000e-02 3.411865234375000000e-02 -4.180908203125000000e-02 -5.023193359375000000e-02 -7.153320312500000000e-02 3.402709960937500000e-02 -4.959106445312500000e-02 -6.909370422363281250e-04 6.170654296875000000e-02 -1.568603515625000000e-02

5.926513671875000000e-02 6.854248046875000000e-02 -3.375244140625000000e-02 9.637451171875000000e-02 -3.997802734375000000e-02 -5.282592773437500000e-02 -8.618164062500000000e-02 7.989501953125000000e-02 -2.569580078125000000e-02 4.803466796875000000e-02 8.331298828125000000e-02 -2.087402343750000000e-02 -7.373046875000000000e-02 -3.515625000000000000e-02 -9.802246093750000000e-02 -5.303955078125000000e-02 -5.142211914062500000e-02 7.391357421875000000e-02 -1.022338867187500000e-01 -3.875732421875000000e-02 -6.970214843750000000e-02 4.254150390625000000e-02 -5.322265625000000000e-02 -5.545043945312500000e-02 -8.679199218750000000e-02

-4.922485351562500000e-02 -5.624389648437500000e-02 -3.955078125000000000e-02 3.692626953125000000e-02 8.819580078125000000e-02 2.850341796875000000e-02 -4.238891601562500000e-02 4.473876953125000000e-02 8.514404296875000000e-02 1.263427734375000000e-02 8.111572265625000000e-02 1.007080078125000000e-02 9.576416015625000000e-02 3.289794921875000000e-02 8.197021484375000000e-02 -7.812500000000000000e-02 -5.303955078125000000e-02 -8.056640625000000000e-03 -1.006469726562500000e-01 2.166748046875000000e-02 -2.990722656250000000e-02 5.645751953125000000e-02 -1.010131835937500000e-01 -6.347656250000000000e-02 -5.764770507812500000e-02

-8.557128906250000000e-02 -6.652832031250000000e-02 3.402709960937500000e-02 -4.037475585937500000e-02 -8.654785156250000000e-02 8.221435546875000000e-02 -3.594970703125000000e-02 6.011962890625000000e-02 8.453369140625000000e-02 -5.151367187500000000e-02 6.271362304687500000e-03 4.278564453125000000e-02 6.634521484375000000e-02 7.537841796875000000e-02 -3.253173828125000000e-02 -4.217529296875000000e-02 -5.502319335937500000e-02 9.002685546875000000e-02 6.445312500000000000e-02 -1.554489135742187500e-03 -3.056335449218750000e-02 -9.246826171875000000e-02 -6.445312500000000000e-02 2.703857421875000000e-02 8.093261718750000000e-02

2.191162109375000000e-02 -1.367187500000000000e-02 8.953857421875000000e-02 8.111572265625000000e-02 -8.959960937500000000e-02 8.111572265625000000e-02 2.111816406250000000e-02 -7.391357421875000000e-02 -2.850341796875000000e-02 -9.582519531250000000e-02 -3.814697265625000000e-02 2.069091796875000000e-02 -4.760742187500000000e-02 -8.276367187500000000e-02 -8.618164062500000000e-02 5.218505859375000000e-02 -3.674316406250000000e-02 4.962158203125000000e-02 2.947998046875000000e-02 -3.674316406250000000e-02 1.202392578125000000e-02 3.533935546875000000e-02 -3.753662109375000000e-02 3.497314453125000000e-02 7.757568359375000000e-02

-2.288818359375000000e-02 2.264404296875000000e-02 4.642486572265625000e-03 4.962158203125000000e-02 -3.234863281250000000e-02 -1.228332519531250000e-02 7.574462890625000000e-02 -8.197021484375000000e-02 5.621337890625000000e-02 -4.598999023437500000e-02 -9.320068359375000000e-02 8.782958984375000000e-02 7.606506347656250000e-03 -5.645751953125000000e-02 -5.422973632812500000e-02 2.728271484375000000e-02 7.598876953125000000e-02 1.687622070312500000e-02 5.715942382812500000e-02 9.747314453125000000e-02 2.510070800781250000e-02 6.768798828125000000e-02 -8.740234375000000000e-02 -3.933715820312500000e-02 -9.100341796875000000e-02

5.804443359375000000e-02 -2.087402343750000000e-02 3.007507324218750000e-02 -5.502319335937500000e-02 7.232666015625000000e-02 4.254150390625000000e-02 4.806518554687500000e-03 -6.005859375000000000e-02 5.142211914062500000e-02 -8.996582031250000000e-02 -7.812500000000000000e-02 -2.555847167968750000e-03 -4.016113281250000000e-02 -3.411865234375000000e-02 -6.408691406250000000e-02 -1.788330078125000000e-02 -8.715820312500000000e-02 1.013183593750000000e-01 -8.184814453125000000e-02 2.940368652343750000e-02 -8.135986328125000000e-02 9.802246093750000000e-02 8.026123046875000000e-03 -6.567382812500000000e-02 -9.057617187500000000e-02

