-5.120849609375000000e-02 -7.794189453125000000e-02 -4.821777343750000000e-02 -1.122283935546875000e-02 1.684570312500000000e-02 -4.098510742187500000e-02 -9.423828125000000000e-02 -9.863281250000000000e-02 -9.338378906250000000e-02 -8.856201171875000000e-02 3.814697265625000000e-02 -1.585388183593750000e-02 -8.430480957031250000e-03 4.998779296875000000e-02 8.953857421875000000e-02 -9.521484375000000000e-02 -5.886840820312500000e-02 8.978271484375000000e-02 -4.077148437500000000e-02 5.206298828125000000e-02 -3.698730468750000000e-02 7.293701171875000000e-02 7.489013671875000000e-02 6.985664367675781250e-04 -3.983974456787109375e-04

2.569580078125000000e-02 6.292724609375000000e-02 -9.600830078125000000e-02 -9.338378906250000000e-02 -7.232666015625000000e-02 -5.645751953125000000e-02 1.989746093750000000e-02 9.808349609375000000e-02 -5.081176757812500000e-02 -2.532958984375000000e-02 -7.574462890625000000e-02 9.216308593750000000e-03 6.744384765625000000e-02 -8.715820312500000000e-02 7.696533203125000000e-02 8.538818359375000000e-02 -7.202148437500000000e-03 6.292724609375000000e-02 9.759521484375000000e-02 7.330322265625000000e-02 3.417968750000000000e-03 3.094482421875000000e-02 -1.306152343750000000e-02 1.147460937500000000e-02 9.222412109375000000e-02

-3.094482421875000000e-02 -6.591796875000000000e-02 7.293701171875000000e-02 -6.384277343750000000e-02 5.264282226562500000e-02 -1.287841796875000000e-02 6.412506103515625000e-03 -9.057617187500000000e-02 -3.857421875000000000e-02 -4.238891601562500000e-02 2.447509765625000000e-02 -7.092285156250000000e-02 -7.495117187500000000e-02 4.364013671875000000e-02 -7.653808593750000000e-02 -7.452392578125000000e-02 -8.032226562500000000e-02 5.950927734375000000e-02 -3.332519531250000000e-02 -2.130126953125000000e-02 7.550048828125000000e-02 -6.909179687500000000e-02 8.392333984375000000e-02 8.892822265625000000e-02 -2.333068847656250000e-02

-7.775878906250000000e-02 8.258056640625000000e-02 -1.530456542968750000e-02 -4.458618164062500000e-02 1.559448242187500000e-02 -9.930419921875000000e-02 1.020050048828125000e-02 3.436279296875000000e-02 -1.365661621093750000e-02 -9.136962890625000000e-02 -2.609252929687500000e-03 6.298828125000000000e-02 8.068847656250000000e-02 -6.506347656250000000e-02 -4.663085937500000000e-02 -7.269287109375000000e-02 1.470565795898437500e-03 8.648681640625000000e-02 4.287719726562500000e-02 1.678466796875000000e-02 9.881591796875000000e-02 -1.057624816894531250e-03 9.330749511718750000e-03 -5.624389648437500000e-02 1.643371582031250000e-02

-6.829833984375000000e-02 2.845764160156250000e-02 -1.006469726562500000e-01 7.977294921875000000e-02 -7.855224609375000000e-02 3.506469726562500000e-02 1.545715332031250000e-02 -2.632141113281250000e-02 8.453369140625000000e-02 2.323913574218750000e-02 9.628295898437500000e-03 -1.200103759765625000e-02 7.873535156250000000e-02 -9.039306640625000000e-02 4.440307617187500000e-02 -9.759521484375000000e-02 9.161376953125000000e-02 -9.033203125000000000e-02 -9.667968750000000000e-02 -3.262329101562500000e-02 9.655761718750000000e-02 -4.360961914062500000e-02 7.604980468750000000e-02 -3.500366210937500000e-02 -6.903076171875000000e-02

8.074951171875000000e-02 -9.643554687500000000e-02 5.902099609375000000e-02 -9.161376953125000000e-02 8.331298828125000000e-02 -6.408691406250000000e-02 -2.471923828125000000e-02 -9.704589843750000000e-02 2.569580078125000000e-02 6.671142578125000000e-02 7.977294921875000000e-02 -7.556152343750000000e-02 -2.850341796875000000e-02 9.466552734375000000e-02 7.696533203125000000e-02 6.707763671875000000e-02 -2.227783203125000000e-02 -2.111816406250000000e-02 -4.821777343750000000e-03 -9.722900390625000000e-02 6.732177734375000000e-02 1.586914062500000000e-03 -3.216552734375000000e-02 -7.189941406250000000e-02 -5.502319335937500000e-02

8.038330078125000000e-02 -8.032226562500000000e-02 -2.166748046875000000e-02 5.621337890625000000e-02 -6.185913085937500000e-02 7.415771484375000000e-02 5.047607421875000000e-02 9.747314453125000000e-02 -1.263427734375000000e-02 3.167724609375000000e-02 8.892822265625000000e-02 -7.171630859375000000e-02 1.489257812500000000e-02 9.967041015625000000e-02 4.638671875000000000e-03 -4.217529296875000000e-02 -1.403808593750000000e-03 -2.673339843750000000e-02 3.460693359375000000e-02 -2.270507812500000000e-02 5.377197265625000000e-02 -1.989746093750000000e-02 -3.533935546875000000e-02 -5.926513671875000000e-02 6.671142578125000000e-02

1.666259765625000000e-02 4.156494140625000000e-02 -1.989746093750000000e-02 -6.225585937500000000e-02 2.014160156250000000e-03 -1.867675781250000000e-02 -6.027221679687500000e-02 -6.787109375000000000e-02 -7.971191406250000000e-02 4.705810546875000000e-02 5.706787109375000000e-02 7.733154296875000000e-02 -6.970214843750000000e-02 9.844970703125000000e-02 -1.666259765625000000e-02 -4.638671875000000000e-02 3.338623046875000000e-02 5.059814453125000000e-02 3.118896484375000000e-02 -5.764770507812500000e-02 -4.638671875000000000e-02 -2.166748046875000000e-02 5.743408203125000000e-02 -5.102539062500000000e-02 -8.819580078125000000e-02

2.629089355468750000e-02 1.501464843750000000e-02 -5.212402343750000000e-02 6.048583984375000000e-02 -7.092285156250000000e-02 -7.220458984375000000e-02 1.314544677734375000e-02 4.339599609375000000e-02 -2.381896972656250000e-02 -8.689880371093750000e-03 6.359100341796875000e-03 5.493164062500000000e-02 -2.590942382812500000e-02 -9.191894531250000000e-02 1.545715332031250000e-02 9.515380859375000000e-02 -5.264282226562500000e-02 -4.846191406250000000e-02 9.210205078125000000e-02 9.698486328125000000e-02 6.744384765625000000e-02 5.947875976562500000e-02 -8.020019531250000000e-02 4.061889648437500000e-02 4.235839843750000000e-02

8.074951171875000000e-02 5.401611328125000000e-02 -2.706909179687500000e-02 2.597045898437500000e-02 -6.890869140625000000e-02 -5.908203125000000000e-02 4.696655273437500000e-02 1.026000976562500000e-01 7.635498046875000000e-02 1.609802246093750000e-02 2.532958984375000000e-03 -3.089904785156250000e-02 -7.513427734375000000e-02 6.988525390625000000e-02 -2.337646484375000000e-02 -8.715820312500000000e-02 2.500915527343750000e-02 -1.074218750000000000e-02 1.119232177734375000e-02 -7.257080078125000000e-02 -4.397583007812500000e-02 -1.023559570312500000e-01 -4.199218750000000000e-02 -7.873535156250000000e-02 -4.345703125000000000e-02

-6.286621093750000000e-02 -4.339599609375000000e-02 -9.844970703125000000e-02 -4.739379882812500000e-02 -7.092285156250000000e-02 -7.855224609375000000e-02 -6.787109375000000000e-02 -9.223937988281250000e-03 3.521728515625000000e-02 -1.137542724609375000e-02 8.953857421875000000e-02 -4.177856445312500000e-02 1.826477050781250000e-02 -7.855224609375000000e-02 4.525756835937500000e-02 -3.673553466796875000e-03 7.513427734375000000e-02 7.818603515625000000e-02 1.821899414062500000e-02 8.728027343750000000e-02 6.182861328125000000e-02 2.131652832031250000e-02 7.080078125000000000e-02 4.373168945312500000e-02 -7.055664062500000000e-02

5.715942382812500000e-02 -5.102539062500000000e-02 7.757568359375000000e-02 -5.621337890625000000e-02 -5.984497070312500000e-02 9.680175781250000000e-02 3.109741210937500000e-02 -1.014404296875000000e-01 -4.681396484375000000e-02 -6.542205810546875000e-03 9.600830078125000000e-02 -4.269409179687500000e-02 3.265380859375000000e-02 6.988525390625000000e-02 -9.020996093750000000e-02 -1.702880859375000000e-02 9.155273437500000000e-02 -8.941650390625000000e-02 -7.635498046875000000e-02 2.140808105468750000e-02 -6.524658203125000000e-02 6.076049804687500000e-02 7.141113281250000000e-02 -8.770751953125000000e-02 3.802490234375000000e-02

-1.428985595703125000e-02 1.960754394531250000e-03 -7.550048828125000000e-02 3.195190429687500000e-02 -1.334381103515625000e-02 2.751159667968750000e-02 5.575561523437500000e-02 -7.452392578125000000e-02 -3.262329101562500000e-02 -6.921386718750000000e-02 -2.291870117187500000e-02 -8.978271484375000000e-02 6.573486328125000000e-02 -4.333496093750000000e-02 -1.955032348632812500e-04 -1.531600952148437500e-03 2.754211425781250000e-02 -9.063720703125000000e-02 -7.250976562500000000e-02 -1.594543457031250000e-02 -5.093383789062500000e-02 -6.976318359375000000e-02 3.747558593750000000e-02 7.747650146484375000e-03 -8.551025390625000000e-02

-6.994628906250000000e-02 1.625061035156250000e-02 6.872558593750000000e-02 -9.277343750000000000e-02 -5.111694335937500000e-02 3.930664062500000000e-02 6.292724609375000000e-02 -4.035949707031250000e-03 -1.519775390625000000e-02 8.007812500000000000e-02 1.144409179687500000e-02 -3.875732421875000000e-02 6.579589843750000000e-02 -9.033203125000000000e-03 -3.053283691406250000e-02 1.721191406250000000e-02 -5.279541015625000000e-02 5.117797851562500000e-02 9.851074218750000000e-02 -3.085327148437500000e-02 -6.080627441406250000e-03 -2.001953125000000000e-02 -9.279251098632812500e-04 -7.464599609375000000e-02 3.707885742187500000e-02

5.560302734375000000e-02 -6.384277343750000000e-02 -2.445220947265625000e-03 8.721923828125000000e-02 -9.320068359375000000e-02 -7.434082031250000000e-02 -8.538818359375000000e-02 5.621337890625000000e-02 -3.982543945312500000e-02 -4.234313964843750000e-03 1.147460937500000000e-02 -6.707763671875000000e-02 -9.600830078125000000e-02 -4.681396484375000000e-02 -1.446533203125000000e-02 9.381103515625000000e-02 7.977294921875000000e-02 5.926513671875000000e-02 2.445983886718750000e-02 -7.812500000000000000e-02 8.013916015625000000e-02 -9.320068359375000000e-02 3.912353515625000000e-02 4.217529296875000000e-02 3.457641601562500000e-02

-1.064300537109375000e-02 1.121520996093750000e-02 -9.851074218750000000e-02 -7.995605468750000000e-02 -7.836914062500000000e-02 -5.825805664062500000e-02 -5.255126953125000000e-02 -6.384277343750000000e-02 -7.739257812500000000e-02 -2.876281738281250000e-02 -8.563232421875000000e-02 -1.901626586914062500e-03 9.637451171875000000e-02 1.450347900390625000e-02 1.326560974121093750e-03 -6.970214843750000000e-02 8.660888671875000000e-02 4.611206054687500000e-02 3.396606445312500000e-02 4.077148437500000000e-02 1.443481445312500000e-02 -6.329345703125000000e-02 7.690429687500000000e-02 -3.805541992187500000e-02 -6.805419921875000000e-02

1.122283935546875000e-02 -8.420944213867187500e-04 -2.893066406250000000e-02 -8.215332031250000000e-02 -4.034423828125000000e-02 -8.966064453125000000e-02 -3.286743164062500000e-02 4.997253417968750000e-03 -5.850219726562500000e-02 -5.999755859375000000e-02 -6.646728515625000000e-02 8.506774902343750000e-03 -4.602050781250000000e-02 6.964111328125000000e-02 8.319091796875000000e-02 2.246093750000000000e-02 -1.683044433593750000e-02 -5.111694335937500000e-02 -1.371765136718750000e-02 5.694580078125000000e-02 -5.404663085937500000e-02 -6.854248046875000000e-02 -7.843017578125000000e-02 8.987426757812500000e-03 -1.765251159667968750e-03

-1.086425781250000000e-02 -3.094482421875000000e-02 8.233642578125000000e-02 1.647949218750000000e-02 6.549072265625000000e-02 -6.933593750000000000e-02 9.193420410156250000e-03 -7.391357421875000000e-02 -1.203918457031250000e-02 -6.469726562500000000e-02 8.599853515625000000e-02 9.197998046875000000e-02 8.514404296875000000e-02 5.523681640625000000e-02 8.917236328125000000e-02 -1.010131835937500000e-01 9.783935546875000000e-02 -6.750488281250000000e-02 7.952880859375000000e-02 4.302978515625000000e-02 -9.899902343750000000e-02 9.375000000000000000e-02 -7.531738281250000000e-02 6.671142578125000000e-02 -4.641723632812500000e-02

8.651733398437500000e-03 7.769775390625000000e-02 4.217529296875000000e-02 -4.516601562500000000e-02 4.708862304687500000e-02 -3.016662597656250000e-02 3.234863281250000000e-02 -8.758544921875000000e-02 -8.862304687500000000e-02 4.107666015625000000e-02 5.184936523437500000e-02 -2.146911621093750000e-02 -6.668090820312500000e-03 7.977294921875000000e-02 7.366943359375000000e-02 6.304931640625000000e-02 -2.792358398437500000e-02 -8.526611328125000000e-02 7.583618164062500000e-03 8.984375000000000000e-02 7.141113281250000000e-02 -5.447387695312500000e-03 -1.148223876953125000e-02 8.923339843750000000e-02 -5.596923828125000000e-02

4.196166992187500000e-02 1.008911132812500000e-01 -6.066894531250000000e-02 4.464721679687500000e-02 4.248046875000000000e-02 -6.292724609375000000e-02 -1.940917968750000000e-02 -5.016326904296875000e-03 -1.532745361328125000e-02 7.836914062500000000e-02 7.788085937500000000e-02 -7.855224609375000000e-02 9.899902343750000000e-02 -2.607727050781250000e-02 -7.946777343750000000e-02 4.147338867187500000e-02 -6.523132324218750000e-03 4.174804687500000000e-02 5.424499511718750000e-03 -5.471801757812500000e-02 -9.118652343750000000e-02 7.611083984375000000e-02 -1.001586914062500000e-01 -7.604980468750000000e-02 7.275390625000000000e-02

-1.264190673828125000e-02 7.635498046875000000e-02 -4.644775390625000000e-02 -1.462554931640625000e-02 -2.447128295898437500e-03 -9.899902343750000000e-02 -8.905029296875000000e-02 -3.955078125000000000e-02 3.387451171875000000e-02 -8.184814453125000000e-02 -6.298828125000000000e-02 -1.818847656250000000e-02 8.227539062500000000e-02 6.185913085937500000e-02 3.228759765625000000e-02 2.146911621093750000e-02 -3.936767578125000000e-02 2.935791015625000000e-02 8.905029296875000000e-02 -6.781005859375000000e-02 2.432250976562500000e-02 -4.174804687500000000e-02 -7.977294921875000000e-02 -8.453369140625000000e-02 5.343627929687500000e-02

-1.989746093750000000e-02 -9.643554687500000000e-02 -9.600830078125000000e-02 -4.782104492187500000e-02 5.426025390625000000e-02 4.800415039062500000e-02 -5.261230468750000000e-02 -6.689453125000000000e-02 -8.251953125000000000e-02 6.292724609375000000e-02 5.685424804687500000e-02 1.063537597656250000e-02 9.259033203125000000e-02 -2.532958984375000000e-02 1.684570312500000000e-02 -3.875732421875000000e-02 -5.102539062500000000e-02 7.164001464843750000e-03 -9.399414062500000000e-02 6.085205078125000000e-02 3.741455078125000000e-02 3.466796875000000000e-02 3.028869628906250000e-02 2.534484863281250000e-02 5.780029296875000000e-02

1.628112792968750000e-02 -2.069091796875000000e-02 -4.815673828125000000e-02 -7.092285156250000000e-02 1.908874511718750000e-02 4.080200195312500000e-02 -2.922058105468750000e-02 5.499267578125000000e-02 -3.756713867187500000e-02 8.874511718750000000e-02 8.343505859375000000e-02 3.503417968750000000e-02 -6.787109375000000000e-02 -7.434082031250000000e-02 -7.330322265625000000e-02 6.744384765625000000e-02 4.534912109375000000e-02 8.068847656250000000e-02 -9.033203125000000000e-02 -5.499267578125000000e-02 -4.049682617187500000e-02 -3.945922851562500000e-02 7.495880126953125000e-03 -6.872558593750000000e-02 8.941650390625000000e-02

1.823425292968750000e-02 -9.483337402343750000e-03 -6.359100341796875000e-03 -3.634643554687500000e-02 -1.486968994140625000e-02 3.283691406250000000e-02 -7.147216796875000000e-02 3.228759765625000000e-02 -5.197143554687500000e-02 7.220458984375000000e-02 1.388549804687500000e-02 8.155822753906250000e-03 5.053710937500000000e-02 5.932617187500000000e-02 -5.096435546875000000e-02 -9.381103515625000000e-02 -3.591918945312500000e-02 4.916381835937500000e-02 6.353759765625000000e-02 3.292846679687500000e-02 -7.635498046875000000e-02 1.934814453125000000e-02 -8.422851562500000000e-02 8.441162109375000000e-02 -5.892944335937500000e-02

-6.652832031250000000e-02 7.855224609375000000e-02 -3.918457031250000000e-02 -6.027221679687500000e-02 -9.802246093750000000e-02 -9.722900390625000000e-02 3.717041015625000000e-02 -8.374023437500000000e-02 6.988525390625000000e-02 2.569580078125000000e-02 -7.690429687500000000e-02 4.901123046875000000e-02 2.264404296875000000e-02 -8.233642578125000000e-02 -8.215332031250000000e-02 -5.383300781250000000e-02 3.131103515625000000e-02 6.304931640625000000e-02 8.294677734375000000e-02 3.314208984375000000e-02 -2.368164062500000000e-02 3.277587890625000000e-02 5.462646484375000000e-02 -5.984497070312500000e-02 1.016235351562500000e-01

-3.253173828125000000e-02 -7.952880859375000000e-02 5.688476562500000000e-02 -6.481933593750000000e-02 -3.614425659179687500e-03 -2.616882324218750000e-02 1.660156250000000000e-02 -6.872558593750000000e-02 7.617187500000000000e-02 -8.947753906250000000e-02 -3.051757812500000000e-02 -9.692382812500000000e-02 -1.039505004882812500e-03 9.783935546875000000e-02 -1.001586914062500000e-01 1.223564147949218750e-03 6.903076171875000000e-02 -2.348327636718750000e-02 -2.024841308593750000e-02 -9.838867187500000000e-02 2.238464355468750000e-02 -2.670288085937500000e-02 -3.759765625000000000e-02 5.136108398437500000e-02 -5.801391601562500000e-02

6.292724609375000000e-02 -9.301757812500000000e-02 3.564453125000000000e-02 4.782104492187500000e-02 8.099365234375000000e-02 -6.027221679687500000e-02 -3.125000000000000000e-02 -6.085205078125000000e-02 3.961181640625000000e-02 -9.674072265625000000e-02 -6.988525390625000000e-02 -1.317596435546875000e-02 -3.598022460937500000e-02 8.538818359375000000e-02 1.010131835937500000e-01 3.741455078125000000e-02 1.022338867187500000e-01 -2.671813964843750000e-02 8.801269531250000000e-02 -1.219940185546875000e-02 6.130981445312500000e-02 -6.140136718750000000e-02 3.591918945312500000e-02 -4.165649414062500000e-02 -6.903076171875000000e-02

2.691650390625000000e-02 5.621337890625000000e-02 2.990722656250000000e-02 -1.122283935546875000e-02 2.275466918945312500e-03 1.565551757812500000e-02 8.163452148437500000e-03 2.593994140625000000e-02 -8.825683593750000000e-02 -5.880737304687500000e-02 6.463623046875000000e-02 6.292724609375000000e-02 -2.629089355468750000e-02 3.353881835937500000e-02 -3.890991210937500000e-02 7.736206054687500000e-03 7.377624511718750000e-03 -2.464294433593750000e-02 4.248046875000000000e-02 1.994323730468750000e-02 5.695343017578125000e-03 5.851745605468750000e-03 4.333496093750000000e-02 3.347778320312500000e-02 7.495880126953125000e-03

-2.130126953125000000e-02 7.672119140625000000e-02 -3.015136718750000000e-02 -9.942626953125000000e-02 8.612060546875000000e-02 1.022338867187500000e-01 1.306152343750000000e-02 5.499267578125000000e-02 -6.408691406250000000e-03 -2.893066406250000000e-02 -9.240722656250000000e-02 7.391357421875000000e-02 -2.612304687500000000e-02 1.403808593750000000e-03 1.666259765625000000e-02 6.042480468750000000e-03 -7.855224609375000000e-02 -1.165771484375000000e-02 7.305908203125000000e-02 -4.879760742187500000e-02 4.473876953125000000e-02 3.192138671875000000e-02 -7.944107055664062500e-04 -1.010131835937500000e-01 -8.013916015625000000e-02

-6.005859375000000000e-02 6.451416015625000000e-02 -8.468627929687500000e-03 -5.261230468750000000e-02 7.635498046875000000e-02 3.286743164062500000e-02 9.820556640625000000e-02 -6.689453125000000000e-02 1.602172851562500000e-02 1.020812988281250000e-02 -7.232666015625000000e-03 -1.026611328125000000e-01 -1.512908935546875000e-02 3.805541992187500000e-02 1.460266113281250000e-02 -5.062866210937500000e-02 9.405517578125000000e-02 8.776855468750000000e-02 1.048278808593750000e-02 -5.895996093750000000e-02 -9.173583984375000000e-02 4.302978515625000000e-02 -8.258056640625000000e-02 6.524658203125000000e-02 2.574157714843750000e-02

-7.891845703125000000e-02 -8.520507812500000000e-02 -5.725097656250000000e-02 -5.844116210937500000e-02 -8.074951171875000000e-02 8.673095703125000000e-02 4.714965820312500000e-02 7.733154296875000000e-02 -5.303955078125000000e-02 3.311157226562500000e-02 -6.488037109375000000e-02 -1.002197265625000000e-01 -1.947021484375000000e-02 5.059814453125000000e-02 7.232666015625000000e-02 7.708740234375000000e-02 7.415771484375000000e-02 -2.677917480468750000e-02 -3.659057617187500000e-02 -6.045532226562500000e-02 4.879760742187500000e-02 -2.638244628906250000e-02 -7.934570312500000000e-02 8.892822265625000000e-02 -4.458618164062500000e-02

6.390380859375000000e-02 -5.743408203125000000e-02 -8.251953125000000000e-02 2.937316894531250000e-02 -2.002716064453125000e-03 1.200866699218750000e-02 1.380157470703125000e-02 1.577377319335937500e-03 5.328369140625000000e-02 -8.355712890625000000e-02 -7.293701171875000000e-02 -1.306915283203125000e-02 4.937744140625000000e-02 3.875732421875000000e-02 7.672119140625000000e-02 -8.557128906250000000e-02 8.416748046875000000e-02 9.075927734375000000e-02 -2.957153320312500000e-02 8.514404296875000000e-02 -3.775024414062500000e-02 4.119873046875000000e-02 -8.215332031250000000e-02 -3.170776367187500000e-02 3.885269165039062500e-03

7.635498046875000000e-02 7.354736328125000000e-02 9.405517578125000000e-02 2.691650390625000000e-02 -1.586914062500000000e-02 6.964111328125000000e-02 4.302978515625000000e-02 -4.580688476562500000e-02 8.160400390625000000e-02 -1.989746093750000000e-02 6.829833984375000000e-02 -5.081176757812500000e-02 -5.944824218750000000e-02 -6.408691406250000000e-02 -1.028442382812500000e-01 -9.765625000000000000e-04 5.145263671875000000e-02 -1.031160354614257812e-05 3.961181640625000000e-02 1.324462890625000000e-02 -2.252197265625000000e-02 -6.122589111328125000e-04 -3.918457031250000000e-02 -3.753662109375000000e-02 8.074951171875000000e-02

-2.453613281250000000e-02 -2.990722656250000000e-03 -9.460449218750000000e-02 -2.199172973632812500e-03 7.537841796875000000e-02 6.108283996582031250e-04 5.926513671875000000e-02 1.007080078125000000e-02 8.331298828125000000e-02 -8.520507812500000000e-02 9.759521484375000000e-02 6.451416015625000000e-02 5.902099609375000000e-02 1.062011718750000000e-02 -3.796386718750000000e-02 -1.586914062500000000e-03 4.583740234375000000e-02 4.779052734375000000e-02 4.705810546875000000e-02 6.243896484375000000e-02 4.193115234375000000e-02 1.509094238281250000e-02 -2.331542968750000000e-02 -2.209472656250000000e-02 3.509521484375000000e-02

4.779052734375000000e-02 8.941650390625000000e-02 6.768798828125000000e-02 7.696533203125000000e-02 -2.521514892578125000e-03 4.986572265625000000e-02 8.056640625000000000e-02 -1.002197265625000000e-01 -7.335662841796875000e-03 -3.417968750000000000e-02 -1.026611328125000000e-01 8.079528808593750000e-03 8.477783203125000000e-02 5.435943603515625000e-03 4.656982421875000000e-02 1.085662841796875000e-02 1.768493652343750000e-02 -9.942626953125000000e-02 9.625244140625000000e-02 7.434082031250000000e-02 1.799011230468750000e-02 -7.580566406250000000e-02 3.065490722656250000e-02 2.807617187500000000e-02 9.741210937500000000e-02

3.234863281250000000e-03 2.972412109375000000e-02 -7.971191406250000000e-02 -8.917236328125000000e-02 2.130126953125000000e-02 6.768798828125000000e-02 -6.994628906250000000e-02 1.024780273437500000e-01 -9.460449218750000000e-02 -5.242919921875000000e-02 -2.453613281250000000e-02 -4.519653320312500000e-02 2.874755859375000000e-02 -6.604003906250000000e-02 -1.043701171875000000e-02 -1.342773437500000000e-02 6.835937500000000000e-03 -4.289150238037109375e-04 -7.049560546875000000e-02 1.062011718750000000e-02 -3.656005859375000000e-02 -1.004638671875000000e-01 -3.472900390625000000e-02 -9.161376953125000000e-02 -3.613281250000000000e-02

-8.422851562500000000e-03 -9.381103515625000000e-02 -4.800415039062500000e-02 7.672119140625000000e-02 -4.980468750000000000e-02 -9.460449218750000000e-02 -9.136962890625000000e-02 -6.225585937500000000e-02 1.089477539062500000e-02 -6.768798828125000000e-02 -5.077362060546875000e-03 -4.980468750000000000e-02 9.918212890625000000e-02 5.328369140625000000e-02 -5.523681640625000000e-02 -3.674316406250000000e-02 -4.580688476562500000e-02 -2.189636230468750000e-02 5.923461914062500000e-02 -9.783935546875000000e-02 -6.652832031250000000e-02 1.265716552734375000e-02 -9.442138671875000000e-02 1.570129394531250000e-02 5.523681640625000000e-02

7.757568359375000000e-02 -6.042480468750000000e-03 8.660888671875000000e-02 3.277587890625000000e-02 8.441162109375000000e-02 -6.268310546875000000e-02 -3.576660156250000000e-02 -6.530761718750000000e-02 1.043701171875000000e-02 -1.327514648437500000e-02 -8.276367187500000000e-02 1.428985595703125000e-02 -2.752685546875000000e-02 -1.971435546875000000e-02 -3.047180175781250000e-02 1.184082031250000000e-02 -1.745605468750000000e-02 5.786132812500000000e-02 -4.165649414062500000e-03 -2.452087402343750000e-02 -1.910400390625000000e-02 1.203918457031250000e-02 -9.277343750000000000e-02 3.231811523437500000e-02 -3.585815429687500000e-03

