9.223937988281250000e-03 2.606201171875000000e-02 -5.081176757812500000e-02 -4.458618164062500000e-02 -7.348632812500000000e-02 -8.416748046875000000e-02 -9.802246093750000000e-02 6.964111328125000000e-02 -2.290344238281250000e-02 -8.649826049804687500e-04 -4.955291748046875000e-03 -4.077148437500000000e-02 4.058837890625000000e-02 4.339599609375000000e-02 -2.529907226562500000e-02 3.997802734375000000e-02 -6.066894531250000000e-02 -8.496093750000000000e-02 9.600830078125000000e-02 4.339599609375000000e-02 -7.092285156250000000e-02 -4.116821289062500000e-02 -7.067871093750000000e-02 1.010131835937500000e-01 3.497314453125000000e-02

-3.979492187500000000e-02 -3.076171875000000000e-02 -2.006530761718750000e-02 3.070068359375000000e-02 -5.062866210937500000e-02 5.145263671875000000e-02 8.502197265625000000e-02 -9.216308593750000000e-03 4.437255859375000000e-02 -3.393554687500000000e-02 -7.330322265625000000e-02 -4.861450195312500000e-02 -6.567382812500000000e-02 7.855224609375000000e-02 -4.800415039062500000e-02 -4.739379882812500000e-02 1.008911132812500000e-01 3.631591796875000000e-02 4.448890686035156250e-04 7.537841796875000000e-02 -6.768798828125000000e-02 -7.611083984375000000e-02 1.000366210937500000e-01 9.689331054687500000e-04 -6.066894531250000000e-02

1.544189453125000000e-02 -9.197998046875000000e-02 -1.788330078125000000e-02 -5.242919921875000000e-02 6.390380859375000000e-02 -3.735351562500000000e-02 1.544189453125000000e-02 1.007080078125000000e-02 -9.338378906250000000e-02 -4.215240478515625000e-03 6.170654296875000000e-02 3.094482421875000000e-02 -1.629638671875000000e-02 -4.238891601562500000e-02 -4.861450195312500000e-02 -2.832031250000000000e-02 -6.848144531250000000e-02 8.038330078125000000e-02 5.267333984375000000e-02 -3.271484375000000000e-02 -7.873535156250000000e-02 -5.645751953125000000e-02 6.390380859375000000e-02 -3.533935546875000000e-02 -4.598999023437500000e-02

9.844970703125000000e-02 -8.459472656250000000e-02 6.774902343750000000e-02 7.331848144531250000e-03 1.678466796875000000e-02 -1.669311523437500000e-02 5.822753906250000000e-02 7.794189453125000000e-02 3.671264648437500000e-02 6.130218505859375000e-03 -3.488159179687500000e-02 -7.788085937500000000e-02 -6.250000000000000000e-02 3.637695312500000000e-02 8.682250976562500000e-03 8.013916015625000000e-02 1.011657714843750000e-02 3.298950195312500000e-02 -9.637451171875000000e-02 6.750488281250000000e-02 6.115722656250000000e-02 -3.637695312500000000e-02 -9.741210937500000000e-02 8.056640625000000000e-03 9.161376953125000000e-02

3.338623046875000000e-02 -5.081176757812500000e-02 -4.696655273437500000e-02 -8.734130859375000000e-02 -4.708862304687500000e-02 1.788330078125000000e-02 1.718139648437500000e-02 9.844970703125000000e-02 6.842041015625000000e-02 -4.907226562500000000e-02 7.942199707031250000e-03 8.111572265625000000e-02 9.245872497558593750e-04 -9.567260742187500000e-03 -2.645874023437500000e-02 -7.153320312500000000e-02 8.300781250000000000e-02 2.490234375000000000e-02 7.971191406250000000e-02 8.062744140625000000e-02 1.049041748046875000e-02 4.635620117187500000e-02 -7.543945312500000000e-02 1.730346679687500000e-02 -4.650878906250000000e-02

-8.215332031250000000e-02 1.770019531250000000e-02 1.018676757812500000e-01 -3.753662109375000000e-02 1.885986328125000000e-02 -2.734375000000000000e-02 -8.422851562500000000e-03 6.732177734375000000e-02 -1.824951171875000000e-02 4.815673828125000000e-02 7.647705078125000000e-02 5.181884765625000000e-02 -8.312988281250000000e-02 6.182861328125000000e-02 9.906005859375000000e-02 2.972412109375000000e-02 8.453369140625000000e-02 9.503173828125000000e-02 6.011962890625000000e-02 3.845214843750000000e-03 7.391357421875000000e-02 -6.005859375000000000e-02 -3.576660156250000000e-02 1.215934753417968750e-03 2.593994140625000000e-02

9.747314453125000000e-02 -2.569580078125000000e-02 3.277587890625000000e-02 7.647705078125000000e-02 -2.392578125000000000e-02 8.197021484375000000e-02 -6.384277343750000000e-02 7.452392578125000000e-02 -4.211425781250000000e-03 5.242919921875000000e-02 -3.497314453125000000e-02 1.708984375000000000e-02 -6.628417968750000000e-02 1.245117187500000000e-02 2.386474609375000000e-02 7.202148437500000000e-03 -5.764770507812500000e-02 4.278564453125000000e-02 -1.464843750000000000e-02 -9.582519531250000000e-02 1.788330078125000000e-02 8.270263671875000000e-02 -2.130126953125000000e-02 -1.287841796875000000e-02 -7.470703125000000000e-02

-2.770996093750000000e-02 3.558349609375000000e-02 -3.375244140625000000e-02 3.289794921875000000e-02 -2.197265625000000000e-03 -7.153320312500000000e-02 1.385498046875000000e-02 -1.446533203125000000e-02 -6.665039062500000000e-02 7.708740234375000000e-02 -3.515625000000000000e-02 6.463623046875000000e-02 3.277587890625000000e-02 1.989746093750000000e-02 -3.216552734375000000e-02 4.583740234375000000e-02 -1.788330078125000000e-02 5.865478515625000000e-02 9.661865234375000000e-02 -7.995605468750000000e-02 -8.496093750000000000e-02 -5.502319335937500000e-02 7.025146484375000000e-02 6.732177734375000000e-02 -9.039306640625000000e-02

-2.609252929687500000e-02 -8.398437500000000000e-02 5.743408203125000000e-02 6.811523437500000000e-02 1.226806640625000000e-02 2.284240722656250000e-02 -5.148315429687500000e-02 4.812622070312500000e-02 -2.883911132812500000e-02 1.884460449218750000e-02 3.976440429687500000e-02 -8.581542968750000000e-02 6.454467773437500000e-03 -7.092285156250000000e-02 -9.112548828125000000e-02 -9.741210937500000000e-02 -6.335449218750000000e-02 -2.308654785156250000e-02 -9.143066406250000000e-02 -3.765869140625000000e-02 -4.619598388671875000e-03 2.485656738281250000e-02 -6.390380859375000000e-02 -7.366943359375000000e-02 3.048706054687500000e-02

1.589965820312500000e-02 6.610107421875000000e-02 -6.664276123046875000e-03 -1.382446289062500000e-02 4.983520507812500000e-02 2.067565917968750000e-02 6.579589843750000000e-02 -1.629638671875000000e-02 -6.634521484375000000e-02 1.622009277343750000e-02 1.012573242187500000e-01 -2.967834472656250000e-02 -4.724121093750000000e-02 -9.240722656250000000e-02 2.082824707031250000e-02 6.768798828125000000e-02 -7.176399230957031250e-04 -2.363586425781250000e-02 2.363586425781250000e-02 -6.909179687500000000e-02 -7.189941406250000000e-02 6.854248046875000000e-02 4.492187500000000000e-02 -2.453613281250000000e-02 -4.524230957031250000e-03

7.171630859375000000e-02 -7.232666015625000000e-03 -1.264190673828125000e-02 -4.782104492187500000e-02 -1.024169921875000000e-01 -1.465606689453125000e-02 2.061843872070312500e-03 2.765655517578125000e-03 5.596923828125000000e-02 -2.299499511718750000e-02 6.021118164062500000e-02 -7.629394531250000000e-02 -1.010131835937500000e-01 8.917236328125000000e-02 4.721069335937500000e-02 -6.207275390625000000e-02 -4.721069335937500000e-02 8.325195312500000000e-02 -2.980041503906250000e-02 6.915283203125000000e-02 -9.655761718750000000e-02 8.293151855468750000e-03 -6.573486328125000000e-02 5.712890625000000000e-02 -2.932739257812500000e-02

-8.715820312500000000e-02 6.829833984375000000e-02 5.087280273437500000e-02 3.216552734375000000e-02 7.830810546875000000e-02 -9.558105468750000000e-02 2.588272094726562500e-03 3.555297851562500000e-02 -6.234741210937500000e-02 -6.646728515625000000e-02 6.250000000000000000e-02 5.657958984375000000e-02 -8.825683593750000000e-02 -6.469726562500000000e-02 -6.823730468750000000e-02 -5.908203125000000000e-02 8.781433105468750000e-03 -9.326171875000000000e-02 9.674072265625000000e-02 8.834838867187500000e-03 8.770751953125000000e-02 6.774902343750000000e-02 -1.919555664062500000e-02 -8.129882812500000000e-02 -1.231193542480468750e-03

-8.679199218750000000e-02 1.564025878906250000e-02 -4.550170898437500000e-02 1.006469726562500000e-01 5.526733398437500000e-02 -6.127929687500000000e-02 -5.700683593750000000e-02 7.305908203125000000e-02 -7.397460937500000000e-02 5.975341796875000000e-02 7.263183593750000000e-02 -3.317260742187500000e-02 -3.533935546875000000e-02 -1.020507812500000000e-01 -7.708740234375000000e-02 -8.996582031250000000e-02 9.881591796875000000e-02 5.279541015625000000e-02 -3.363037109375000000e-02 5.313110351562500000e-02 -1.902770996093750000e-02 4.492187500000000000e-02 5.078125000000000000e-02 -7.586669921875000000e-02 6.158447265625000000e-02

-5.041503906250000000e-02 -1.014404296875000000e-01 4.772949218750000000e-02 -8.636474609375000000e-02 -3.930664062500000000e-02 6.829833984375000000e-02 2.914428710937500000e-02 -9.197998046875000000e-02 -2.880859375000000000e-02 -2.006530761718750000e-02 1.232910156250000000e-02 6.390380859375000000e-02 -2.453613281250000000e-02 -3.591918945312500000e-02 9.002685546875000000e-03 -7.309913635253906250e-04 -3.359985351562500000e-02 -1.269531250000000000e-02 7.623291015625000000e-02 2.366638183593750000e-02 -1.008300781250000000e-01 3.088378906250000000e-02 -1.212310791015625000e-02 5.261230468750000000e-02 -7.788085937500000000e-02

7.196044921875000000e-02 4.364013671875000000e-02 5.084228515625000000e-02 5.145263671875000000e-02 6.610107421875000000e-02 7.769775390625000000e-02 5.017089843750000000e-02 6.182861328125000000e-02 -7.971191406250000000e-02 -4.177856445312500000e-02 -5.841064453125000000e-02 9.295654296875000000e-02 -3.076171875000000000e-02 -9.661865234375000000e-02 -9.381103515625000000e-02 3.656005859375000000e-02 -5.786132812500000000e-02 -4.943847656250000000e-02 -5.364990234375000000e-02 2.714538574218750000e-02 5.746459960937500000e-02 -2.957153320312500000e-02 6.427001953125000000e-02 8.233642578125000000e-02 4.519653320312500000e-02

-8.917236328125000000e-02 5.023193359375000000e-02 -1.409530639648437500e-03 -2.613830566406250000e-02 4.309082031250000000e-02 -3.576660156250000000e-02 -3.674316406250000000e-02 -6.372070312500000000e-02 -1.174926757812500000e-02 2.380371093750000000e-02 -3.538131713867187500e-03 2.394104003906250000e-02 -1.419830322265625000e-02 4.534912109375000000e-02 -6.286621093750000000e-02 -7.092285156250000000e-02 -3.231811523437500000e-02 9.277343750000000000e-02 -4.327392578125000000e-02 9.780883789062500000e-03 -3.445434570312500000e-02 -5.688476562500000000e-02 1.024169921875000000e-01 -2.870178222656250000e-02 4.800415039062500000e-02

8.953857421875000000e-02 6.829833984375000000e-02 2.055358886718750000e-02 -9.759521484375000000e-02 -2.987670898437500000e-02 -3.799438476562500000e-02 4.418945312500000000e-02 -7.348632812500000000e-02 -4.891967773437500000e-02 2.369689941406250000e-02 -9.185791015625000000e-02 -8.705139160156250000e-03 -2.070617675781250000e-02 -3.753662109375000000e-02 -2.131652832031250000e-02 -6.872558593750000000e-02 6.866455078125000000e-02 6.280517578125000000e-02 2.111816406250000000e-02 5.236816406250000000e-02 -1.388549804687500000e-03 1.977539062500000000e-02 -2.241516113281250000e-02 -2.044677734375000000e-02 -1.442718505859375000e-02

6.890869140625000000e-02 -7.019042968750000000e-03 4.193115234375000000e-02 7.135009765625000000e-02 6.329345703125000000e-02 -5.545043945312500000e-02 5.920410156250000000e-02 5.364990234375000000e-02 -2.929687500000000000e-02 5.609130859375000000e-02 1.351928710937500000e-02 -6.225585937500000000e-02 2.008056640625000000e-02 -1.708984375000000000e-02 -9.240722656250000000e-02 -5.322265625000000000e-02 -7.952880859375000000e-02 5.548095703125000000e-02 -6.811523437500000000e-02 -6.512451171875000000e-02 -5.261230468750000000e-02 1.483917236328125000e-02 -6.750488281250000000e-02 -8.996582031250000000e-02 -6.604003906250000000e-02

8.673095703125000000e-02 6.964111328125000000e-02 1.585388183593750000e-02 3.408432006835937500e-03 4.534912109375000000e-02 -6.311035156250000000e-02 1.103210449218750000e-02 1.544189453125000000e-02 8.630371093750000000e-02 3.387451171875000000e-02 9.399414062500000000e-03 1.102447509765625000e-03 9.844970703125000000e-02 8.453369140625000000e-02 -9.100341796875000000e-02 -8.668899536132812500e-04 -9.600830078125000000e-02 1.771545410156250000e-02 -6.317138671875000000e-02 5.218505859375000000e-03 1.071929931640625000e-02 -5.825805664062500000e-02 -3.796386718750000000e-02 -6.294250488281250000e-03 4.766845703125000000e-02

5.026245117187500000e-02 -5.026245117187500000e-02 3.616333007812500000e-02 -8.917236328125000000e-02 -9.161376953125000000e-02 -6.329345703125000000e-02 -1.945495605468750000e-02 -9.539794921875000000e-02 -7.769775390625000000e-02 -5.651855468750000000e-02 7.580566406250000000e-02 3.289794921875000000e-02 -6.494140625000000000e-02 2.781677246093750000e-02 -5.258178710937500000e-02 -9.301757812500000000e-02 3.903198242187500000e-02 6.866455078125000000e-02 -7.299804687500000000e-02 -1.513481140136718750e-03 -2.659606933593750000e-02 7.031250000000000000e-02 1.007843017578125000e-02 4.446411132812500000e-02 8.996582031250000000e-02

8.233642578125000000e-02 -9.399414062500000000e-02 1.576232910156250000e-02 1.010131835937500000e-01 6.896972656250000000e-02 -1.025390625000000000e-02 8.282470703125000000e-02 -7.214355468750000000e-02 -3.848266601562500000e-02 8.911132812500000000e-02 -4.187011718750000000e-02 8.233642578125000000e-02 8.374023437500000000e-02 -2.085876464843750000e-02 1.821899414062500000e-02 7.415771484375000000e-02 -9.057617187500000000e-02 -6.618499755859375000e-03 -2.853393554687500000e-02 -6.492614746093750000e-03 -4.931640625000000000e-02 -1.000976562500000000e-01 -7.800292968750000000e-02 -5.963134765625000000e-02 2.549743652343750000e-02

4.534912109375000000e-02 -7.513427734375000000e-02 4.211425781250000000e-03 -1.788330078125000000e-02 -3.393554687500000000e-02 -7.092285156250000000e-02 1.241302490234375000e-02 7.025146484375000000e-02 -5.523681640625000000e-02 -2.670288085937500000e-02 -3.268432617187500000e-02 -8.538818359375000000e-02 2.471923828125000000e-02 -4.357910156250000000e-02 3.116607666015625000e-03 -9.381103515625000000e-02 -9.020996093750000000e-02 -5.181884765625000000e-02 6.488037109375000000e-02 -2.026367187500000000e-02 7.804870605468750000e-03 -9.362792968750000000e-02 4.959106445312500000e-02 6.866455078125000000e-02 7.522583007812500000e-03

-1.446533203125000000e-02 2.986907958984375000e-03 -3.732299804687500000e-02 -9.826660156250000000e-03 -2.926635742187500000e-02 -7.205963134765625000e-03 6.628417968750000000e-02 1.010131835937500000e-01 -1.000976562500000000e-01 6.665039062500000000e-02 -4.815673828125000000e-02 9.295654296875000000e-02 -7.031250000000000000e-02 4.132080078125000000e-02 6.707763671875000000e-02 -4.519653320312500000e-02 -1.871585845947265625e-04 4.495239257812500000e-02 -9.655761718750000000e-02 5.505371093750000000e-02 -3.092956542968750000e-02 -2.844238281250000000e-02 -8.337402343750000000e-02 6.500244140625000000e-02 8.874511718750000000e-02

1.087951660156250000e-02 6.805419921875000000e-03 -8.178710937500000000e-02 4.904174804687500000e-02 4.266357421875000000e-02 -6.652832031250000000e-02 -7.556152343750000000e-02 -5.599975585937500000e-03 8.770751953125000000e-02 5.728149414062500000e-02 -1.713562011718750000e-02 6.683349609375000000e-02 1.021728515625000000e-01 -1.000366210937500000e-01 8.856201171875000000e-02 7.794189453125000000e-02 -1.759338378906250000e-02 -9.716796875000000000e-02 -6.280517578125000000e-02 9.216308593750000000e-02 -8.721923828125000000e-02 -8.959960937500000000e-02 5.145263671875000000e-02 3.308105468750000000e-02 3.674316406250000000e-02

3.594970703125000000e-02 5.377197265625000000e-02 -2.929687500000000000e-02 -7.574462890625000000e-02 -2.148437500000000000e-02 8.758544921875000000e-02 -8.636474609375000000e-02 1.263427734375000000e-02 7.989501953125000000e-02 6.964111328125000000e-02 -1.910400390625000000e-02 -4.879760742187500000e-02 -4.077148437500000000e-02 4.925537109375000000e-02 -9.442138671875000000e-02 -2.252197265625000000e-02 5.670166015625000000e-02 -8.538818359375000000e-02 -4.638671875000000000e-02 -3.594970703125000000e-02 -6.787109375000000000e-02 3.753662109375000000e-02 -8.251953125000000000e-02 -2.813720703125000000e-02 8.953857421875000000e-02

-1.490783691406250000e-02 -7.629394531250000000e-02 1.985549926757812500e-03 1.985168457031250000e-02 -3.973388671875000000e-02 -1.016235351562500000e-01 7.293701171875000000e-03 7.167816162109375000e-03 4.226684570312500000e-02 -8.221435546875000000e-02 1.024169921875000000e-01 6.359863281250000000e-02 2.087402343750000000e-02 6.677246093750000000e-02 -4.479980468750000000e-02 8.294677734375000000e-02 -1.123428344726562500e-03 1.736450195312500000e-02 6.549072265625000000e-02 -9.704589843750000000e-03 6.335449218750000000e-02 -9.088134765625000000e-02 3.604125976562500000e-02 8.612060546875000000e-02 -5.096435546875000000e-02

8.721923828125000000e-02 4.278564453125000000e-02 -7.189941406250000000e-02 -2.848815917968750000e-02 -5.380249023437500000e-02 8.514404296875000000e-02 2.032470703125000000e-02 1.012573242187500000e-01 1.002197265625000000e-01 -4.309082031250000000e-02 3.521728515625000000e-02 8.294677734375000000e-02 -4.141235351562500000e-02 4.278564453125000000e-02 -6.146240234375000000e-02 1.242828369140625000e-02 -9.924316406250000000e-02 6.604003906250000000e-02 -4.321289062500000000e-02 7.336425781250000000e-02 -3.842163085937500000e-02 6.475830078125000000e-02 2.879333496093750000e-02 3.393554687500000000e-02 -1.021728515625000000e-01

6.207275390625000000e-02 5.267333984375000000e-02 -8.618164062500000000e-02 -1.014404296875000000e-01 6.408691406250000000e-02 2.146911621093750000e-02 8.874511718750000000e-02 -2.798080444335937500e-03 -8.947753906250000000e-02 8.898925781250000000e-02 8.612060546875000000e-02 -7.775878906250000000e-02 8.074951171875000000e-02 -4.352569580078125000e-03 7.031250000000000000e-02 -9.643554687500000000e-02 -3.216552734375000000e-02 -5.789184570312500000e-02 -4.922485351562500000e-02 6.341552734375000000e-02 1.097106933593750000e-02 6.201171875000000000e-02 -4.467773437500000000e-02 -3.149414062500000000e-02 8.837890625000000000e-02

7.049560546875000000e-02 -2.453613281250000000e-02 3.192138671875000000e-02 -4.318237304687500000e-02 -1.586914062500000000e-03 -6.945800781250000000e-02 -2.972412109375000000e-02 -3.375244140625000000e-02 -4.901123046875000000e-02 3.411865234375000000e-02 1.605224609375000000e-02 3.778076171875000000e-02 3.289794921875000000e-02 -7.733154296875000000e-02 4.034423828125000000e-02 1.018676757812500000e-01 -9.670257568359375000e-04 9.881591796875000000e-02 -6.268310546875000000e-02 6.793212890625000000e-02 1.245117187500000000e-02 -2.471923828125000000e-02 6.024169921875000000e-02 -1.447296142578125000e-02 -5.484008789062500000e-02

-1.838684082031250000e-03 9.906005859375000000e-02 -4.871368408203125000e-03 8.294677734375000000e-02 -1.902770996093750000e-02 2.049255371093750000e-02 -9.381103515625000000e-02 -8.837890625000000000e-02 -4.760742187500000000e-02 4.437255859375000000e-02 -6.713867187500000000e-02 6.646728515625000000e-02 -8.251953125000000000e-02 -3.074645996093750000e-02 -1.555633544921875000e-02 2.838134765625000000e-02 6.951904296875000000e-02 1.884460449218750000e-02 8.068847656250000000e-02 -3.436279296875000000e-02 -8.752441406250000000e-02 1.011352539062500000e-01 8.068847656250000000e-02 -8.758544921875000000e-02 -8.709716796875000000e-02

-1.647949218750000000e-02 -2.893066406250000000e-02 -8.837890625000000000e-02 -7.801055908203125000e-03 3.533935546875000000e-02 -2.893066406250000000e-02 1.840209960937500000e-02 -7.348632812500000000e-02 -1.870727539062500000e-02 -3.637695312500000000e-02 -6.045532226562500000e-02 -6.085205078125000000e-02 -9.082031250000000000e-02 -3.497314453125000000e-02 -6.011962890625000000e-03 -9.558105468750000000e-02 -9.136962890625000000e-02 -4.653930664062500000e-04 7.354736328125000000e-02 7.952880859375000000e-02 9.637451171875000000e-02 2.250671386718750000e-03 2.310180664062500000e-02 -6.185913085937500000e-02 4.580688476562500000e-02

-4.077148437500000000e-02 9.405517578125000000e-02 -3.515625000000000000e-02 -9.442138671875000000e-02 -3.094482421875000000e-02 -1.544189453125000000e-02 4.711914062500000000e-02 9.295654296875000000e-02 -1.935005187988281250e-03 -4.980468750000000000e-02 -6.311035156250000000e-02 -4.980468750000000000e-02 3.680419921875000000e-02 2.647399902343750000e-03 4.220581054687500000e-02 -6.679534912109375000e-03 4.095458984375000000e-02 3.311157226562500000e-02 -2.310180664062500000e-02 9.118652343750000000e-02 -1.666259765625000000e-02 3.013610839843750000e-02 7.641601562500000000e-02 -1.004638671875000000e-01 -9.100341796875000000e-02

7.073974609375000000e-02 -6.848144531250000000e-02 5.275726318359375000e-03 -4.156494140625000000e-02 7.208251953125000000e-02 -8.636474609375000000e-02 5.645751953125000000e-02 5.706787109375000000e-02 4.583740234375000000e-02 -2.087402343750000000e-02 4.058837890625000000e-02 -3.253173828125000000e-02 2.508544921875000000e-02 7.208251953125000000e-02 -9.881591796875000000e-02 2.716064453125000000e-02 6.707763671875000000e-02 -9.844970703125000000e-02 1.043701171875000000e-02 -1.885986328125000000e-02 6.744384765625000000e-02 1.233100891113281250e-03 -6.890869140625000000e-02 9.841918945312500000e-03 9.555816650390625000e-04

9.344482421875000000e-02 -4.357910156250000000e-02 -9.460449218750000000e-02 -6.286621093750000000e-02 -2.209472656250000000e-02 -8.294677734375000000e-02 -1.123046875000000000e-02 -2.673339843750000000e-02 5.059814453125000000e-02 -1.014404296875000000e-01 -5.603027343750000000e-02 -8.355712890625000000e-02 8.953857421875000000e-02 -4.760742187500000000e-02 6.890869140625000000e-02 3.118896484375000000e-02 -4.498291015625000000e-02 2.593994140625000000e-02 5.584716796875000000e-02 -4.156494140625000000e-02 -8.312988281250000000e-02 -8.056640625000000000e-03 7.293701171875000000e-02 -6.787109375000000000e-02 7.696533203125000000e-02

-4.840087890625000000e-02 6.793212890625000000e-02 1.009521484375000000e-01 -1.012573242187500000e-01 -2.413940429687500000e-02 -6.167602539062500000e-02 -7.855224609375000000e-02 -8.135986328125000000e-02 2.786254882812500000e-02 5.892944335937500000e-02 6.964111328125000000e-02 6.732177734375000000e-02 -1.745605468750000000e-02 -5.743408203125000000e-02 -9.082031250000000000e-02 5.828857421875000000e-02 -5.261230468750000000e-02 -8.251953125000000000e-02 5.044555664062500000e-02 -2.378463745117187500e-03 -3.378295898437500000e-02 -2.297973632812500000e-02 -9.460449218750000000e-02 9.259033203125000000e-02 -1.290130615234375000e-02

-2.648925781250000000e-02 6.085205078125000000e-02 8.880615234375000000e-02 9.844970703125000000e-02 7.513427734375000000e-02 2.996826171875000000e-02 -4.016113281250000000e-02 4.718017578125000000e-02 -5.120849609375000000e-02 9.808349609375000000e-02 -3.594970703125000000e-02 3.155517578125000000e-02 7.647705078125000000e-02 4.925537109375000000e-02 -7.855224609375000000e-02 7.934570312500000000e-04 -5.422973632812500000e-02 -9.985351562500000000e-02 3.717041015625000000e-02 6.231689453125000000e-02 6.463623046875000000e-02 -6.933593750000000000e-02 6.121826171875000000e-02 4.815673828125000000e-02 8.843994140625000000e-02

6.042480468750000000e-03 -7.952880859375000000e-02 8.734130859375000000e-02 -3.192138671875000000e-02 1.849365234375000000e-02 7.049560546875000000e-02 3.628540039062500000e-02 -4.699707031250000000e-02 -6.848144531250000000e-02 6.431579589843750000e-03 -3.234863281250000000e-02 1.806640625000000000e-02 4.498291015625000000e-02 -9.423828125000000000e-02 -9.942626953125000000e-02 -4.598999023437500000e-02 5.987548828125000000e-02 -9.590148925781250000e-03 -3.335571289062500000e-02 4.620361328125000000e-02 9.442138671875000000e-02 -1.286315917968750000e-02 -1.806640625000000000e-02 -1.304626464843750000e-02 2.528381347656250000e-02

-4.211425781250000000e-03 -2.972412109375000000e-02 -3.817749023437500000e-02 7.550048828125000000e-02 -4.739379882812500000e-02 5.047607421875000000e-02 -5.709838867187500000e-02 -3.894042968750000000e-02 3.973388671875000000e-02 7.025146484375000000e-02 4.095458984375000000e-02 7.891845703125000000e-02 9.686279296875000000e-02 -7.330322265625000000e-02 -1.884460449218750000e-02 2.374267578125000000e-02 3.741455078125000000e-02 -5.499267578125000000e-02 -4.159545898437500000e-02 -8.654785156250000000e-02 -2.597045898437500000e-02 2.874755859375000000e-02 -4.141235351562500000e-02 -2.896118164062500000e-02 -6.292724609375000000e-02

