-6.207275390625000000e-02 -9.460449218750000000e-03 -2.595520019531250000e-02 -1.770019531250000000e-02 -8.715820312500000000e-02 -5.563354492187500000e-02 9.844970703125000000e-02 7.696533203125000000e-02 -8.520507812500000000e-02 5.206298828125000000e-02 -4.458618164062500000e-02 -8.337402343750000000e-02 -2.850341796875000000e-02 -5.523681640625000000e-02 1.850891113281250000e-02 -3.979492187500000000e-02 -6.872558593750000000e-02 -4.278564453125000000e-02 -6.970214843750000000e-02 -4.382324218750000000e-02 5.950927734375000000e-02 -7.330322265625000000e-02 2.180099487304687500e-03 -7.128906250000000000e-02 2.947998046875000000e-02

-1.446533203125000000e-02 9.942626953125000000e-02 2.410888671875000000e-02 -8.374023437500000000e-02 2.288818359375000000e-02 3.192138671875000000e-02 4.718017578125000000e-02 3.155517578125000000e-02 -3.332519531250000000e-02 -1.629638671875000000e-02 4.656982421875000000e-02 6.768798828125000000e-02 3.604888916015625000e-03 6.866455078125000000e-02 3.350830078125000000e-02 -9.362792968750000000e-02 -5.163574218750000000e-02 7.757568359375000000e-02 -5.242919921875000000e-02 -9.960937500000000000e-02 2.655029296875000000e-02 6.854248046875000000e-02 3.472900390625000000e-02 -1.947021484375000000e-02 -2.508544921875000000e-02

-2.195358276367187500e-03 -9.179687500000000000e-02 -8.758544921875000000e-02 -5.343627929687500000e-02 2.325439453125000000e-02 -1.245117187500000000e-02 1.947021484375000000e-02 9.063720703125000000e-02 7.073974609375000000e-02 -4.138183593750000000e-02 -6.945800781250000000e-02 3.814697265625000000e-02 1.544189453125000000e-02 3.717041015625000000e-02 3.033447265625000000e-02 -2.850341796875000000e-02 -7.030487060546875000e-03 5.987548828125000000e-02 8.666992187500000000e-03 1.885986328125000000e-02 -9.826660156250000000e-03 -4.800415039062500000e-02 8.538818359375000000e-02 1.885986328125000000e-02 7.446289062500000000e-03

-1.010131835937500000e-01 6.390380859375000000e-02 1.174926757812500000e-02 3.591918945312500000e-02 7.067871093750000000e-02 -1.020507812500000000e-01 6.445312500000000000e-02 7.171630859375000000e-02 -8.221435546875000000e-02 -9.423828125000000000e-02 -3.781127929687500000e-02 -8.563232421875000000e-02 -4.919433593750000000e-02 -8.294677734375000000e-02 2.125549316406250000e-02 -6.445312500000000000e-02 -4.644775390625000000e-02 2.062988281250000000e-02 -4.229736328125000000e-02 -4.183959960937500000e-02 -9.759521484375000000e-02 3.784179687500000000e-02 -9.185791015625000000e-02 1.706123352050781250e-03 2.128601074218750000e-02

5.026245117187500000e-02 6.524658203125000000e-02 -3.494262695312500000e-02 7.983398437500000000e-02 -2.513122558593750000e-02 3.009033203125000000e-02 -4.400634765625000000e-02 1.910400390625000000e-02 8.795166015625000000e-02 7.647705078125000000e-02 -4.074096679687500000e-02 -5.619049072265625000e-03 -1.010742187500000000e-01 -8.996582031250000000e-02 -9.197998046875000000e-02 -8.197021484375000000e-02 8.277893066406250000e-03 3.041076660156250000e-02 1.380157470703125000e-02 1.012573242187500000e-01 -1.189422607421875000e-02 4.000854492187500000e-02 4.849243164062500000e-02 4.208374023437500000e-02 -4.949951171875000000e-02

1.824951171875000000e-02 -5.163574218750000000e-02 9.381103515625000000e-02 9.075927734375000000e-02 7.794189453125000000e-02 5.242919921875000000e-02 -9.704589843750000000e-02 -6.027221679687500000e-02 5.499267578125000000e-02 4.156494140625000000e-02 7.574462890625000000e-02 1.464843750000000000e-02 -7.171630859375000000e-02 8.978271484375000000e-02 6.207275390625000000e-02 1.043701171875000000e-02 -1.306152343750000000e-02 -4.660034179687500000e-02 1.025390625000000000e-02 -7.495117187500000000e-02 -5.163574218750000000e-02 6.988525390625000000e-02 1.367187500000000000e-02 -2.990722656250000000e-02 2.209472656250000000e-02

-5.624389648437500000e-02 -8.178710937500000000e-02 2.508544921875000000e-02 5.120849609375000000e-02 -4.177856445312500000e-02 6.890869140625000000e-02 -1.287841796875000000e-02 1.004028320312500000e-01 -1.403808593750000000e-03 9.033203125000000000e-03 5.145263671875000000e-02 7.049560546875000000e-02 7.989501953125000000e-02 3.472900390625000000e-02 5.865478515625000000e-02 1.910400390625000000e-02 -3.033447265625000000e-02 -1.018676757812500000e-01 -5.743408203125000000e-02 3.460693359375000000e-02 4.901123046875000000e-02 -9.216308593750000000e-03 -7.952880859375000000e-02 -7.232666015625000000e-02 -7.629394531250000000e-02

-8.996582031250000000e-02 -3.295898437500000000e-02 -3.051757812500000000e-02 -2.832031250000000000e-02 -5.221557617187500000e-02 6.512451171875000000e-02 2.496337890625000000e-02 1.806640625000000000e-02 -4.821777343750000000e-02 2.807617187500000000e-03 1.910400390625000000e-02 5.804443359375000000e-02 8.221435546875000000e-02 6.646728515625000000e-02 1.770019531250000000e-02 -4.541015625000000000e-02 3.167724609375000000e-02 -2.130126953125000000e-02 6.866455078125000000e-02 4.998779296875000000e-02 1.147460937500000000e-02 7.574462890625000000e-02 -3.015136718750000000e-02 -8.178710937500000000e-02 -8.850097656250000000e-03

1.945495605468750000e-02 -3.997802734375000000e-02 8.862304687500000000e-02 8.795166015625000000e-02 -6.109619140625000000e-02 8.331298828125000000e-02 5.227661132812500000e-02 -2.989196777343750000e-02 -7.580566406250000000e-02 -5.529785156250000000e-02 -4.476928710937500000e-02 -9.783935546875000000e-02 -1.689147949218750000e-02 1.010131835937500000e-01 -4.263305664062500000e-02 -1.029968261718750000e-02 -1.336669921875000000e-02 8.996582031250000000e-02 -5.139160156250000000e-02 2.038574218750000000e-02 8.605957031250000000e-02 -4.452514648437500000e-02 -2.365112304687500000e-02 2.633666992187500000e-02 3.875732421875000000e-02

8.880615234375000000e-02 1.224517822265625000e-02 -1.196289062500000000e-02 3.131103515625000000e-02 -3.414916992187500000e-02 2.470397949218750000e-02 -4.315185546875000000e-02 -5.435943603515625000e-03 5.734252929687500000e-02 -8.843994140625000000e-02 -3.713989257812500000e-02 -7.391357421875000000e-02 -2.069091796875000000e-02 -9.704589843750000000e-02 -3.372192382812500000e-02 -3.857421875000000000e-02 7.708740234375000000e-02 9.936523437500000000e-02 -8.612060546875000000e-02 -4.049682617187500000e-02 -8.654785156250000000e-02 -4.653930664062500000e-02 -1.232910156250000000e-02 -5.319213867187500000e-02 -5.352020263671875000e-03

5.364990234375000000e-02 5.584716796875000000e-03 9.246826171875000000e-03 -9.020996093750000000e-02 -7.452392578125000000e-02 -1.526641845703125000e-02 2.587890625000000000e-02 1.002807617187500000e-01 -5.838012695312500000e-02 9.484863281250000000e-02 7.916259765625000000e-02 4.742431640625000000e-02 9.661865234375000000e-02 -8.593750000000000000e-02 -5.282592773437500000e-02 -3.192138671875000000e-02 -5.160522460937500000e-02 5.242919921875000000e-02 -1.018676757812500000e-01 -7.244873046875000000e-02 -8.476257324218750000e-03 -4.132080078125000000e-02 -9.259033203125000000e-02 3.729248046875000000e-02 -6.835937500000000000e-02

-7.312011718750000000e-02 -3.637695312500000000e-02 5.148315429687500000e-02 -9.375000000000000000e-02 7.940673828125000000e-02 3.228759765625000000e-02 1.016235351562500000e-01 7.366943359375000000e-02 -7.919311523437500000e-03 1.291656494140625000e-02 -8.996582031250000000e-02 -2.534484863281250000e-02 6.860351562500000000e-02 -5.737304687500000000e-02 1.416015625000000000e-02 -4.022216796875000000e-02 6.420898437500000000e-02 -3.848266601562500000e-02 2.420043945312500000e-02 -7.785797119140625000e-03 7.427978515625000000e-02 7.348632812500000000e-02 -5.221557617187500000e-02 -2.246093750000000000e-02 5.319213867187500000e-02

8.978271484375000000e-02 7.769775390625000000e-02 3.873825073242187500e-03 8.258056640625000000e-02 1.388549804687500000e-02 -9.582519531250000000e-02 -6.713867187500000000e-02 2.348327636718750000e-02 -3.967285156250000000e-02 9.808349609375000000e-02 -7.092285156250000000e-02 -4.721069335937500000e-02 -9.039306640625000000e-02 9.857177734375000000e-02 -8.532714843750000000e-02 -1.102447509765625000e-03 -1.262664794921875000e-02 6.738281250000000000e-02 -2.029418945312500000e-02 2.796936035156250000e-02 -7.513427734375000000e-02 -5.914306640625000000e-02 -7.865905761718750000e-03 -8.081054687500000000e-02 -1.293182373046875000e-02

2.227783203125000000e-02 8.917236328125000000e-02 -6.066894531250000000e-02 -9.259033203125000000e-02 -6.065368652343750000e-03 7.989501953125000000e-02 -9.460449218750000000e-02 8.892822265625000000e-02 -3.787231445312500000e-02 1.002807617187500000e-01 9.765625000000000000e-02 -1.430511474609375000e-02 -3.375244140625000000e-02 -5.218505859375000000e-02 6.860351562500000000e-02 -2.757263183593750000e-02 -7.110595703125000000e-02 9.283447265625000000e-02 -5.863189697265625000e-03 7.336425781250000000e-02 -3.933715820312500000e-02 8.483886718750000000e-02 2.626037597656250000e-02 9.301757812500000000e-02 -3.958129882812500000e-02

-7.067871093750000000e-02 -1.666259765625000000e-02 8.355712890625000000e-02 7.635498046875000000e-02 1.524353027343750000e-02 4.644775390625000000e-02 -3.314208984375000000e-02 7.022857666015625000e-03 -4.339599609375000000e-02 2.969360351562500000e-02 4.302978515625000000e-02 -9.619140625000000000e-02 -9.057617187500000000e-02 2.947998046875000000e-02 -4.299926757812500000e-02 -1.008300781250000000e-01 -1.994323730468750000e-02 -5.346679687500000000e-02 6.121826171875000000e-02 6.292724609375000000e-02 -4.296302795410156250e-04 -3.958129882812500000e-02 3.277587890625000000e-02 -5.905151367187500000e-02 -6.628417968750000000e-02

2.813720703125000000e-02 -6.127929687500000000e-02 2.319335937500000000e-02 -4.400634765625000000e-02 3.759765625000000000e-02 -7.110595703125000000e-02 -6.561279296875000000e-02 9.637451171875000000e-02 -5.990600585937500000e-02 -2.598571777343750000e-02 2.345275878906250000e-02 9.326171875000000000e-02 -9.057617187500000000e-02 6.671142578125000000e-02 -6.768798828125000000e-02 -4.559326171875000000e-02 7.421875000000000000e-02 7.324218750000000000e-02 -1.831054687500000000e-02 -7.031250000000000000e-02 -7.562255859375000000e-02 6.964111328125000000e-02 3.829956054687500000e-02 -3.378295898437500000e-02 -4.989624023437500000e-02

3.875732421875000000e-02 7.513427734375000000e-02 1.884460449218750000e-02 8.239746093750000000e-03 -2.287292480468750000e-02 8.197021484375000000e-02 2.104187011718750000e-02 4.241943359375000000e-02 8.221435546875000000e-02 3.457641601562500000e-02 3.710937500000000000e-02 8.734130859375000000e-02 4.031372070312500000e-02 -7.710456848144531250e-04 8.782958984375000000e-02 3.711700439453125000e-03 -8.898925781250000000e-02 4.269409179687500000e-02 4.226684570312500000e-02 -1.039886474609375000e-02 7.849121093750000000e-02 -5.230712890625000000e-02 -7.858276367187500000e-03 5.207061767578125000e-03 4.067993164062500000e-02

-7.714843750000000000e-02 -9.539794921875000000e-02 6.048583984375000000e-02 -1.123809814453125000e-02 4.800415039062500000e-02 7.446289062500000000e-03 -5.120849609375000000e-02 7.073974609375000000e-02 6.866455078125000000e-02 6.793212890625000000e-02 6.805419921875000000e-02 1.548004150390625000e-02 8.917236328125000000e-02 -4.638671875000000000e-03 -5.241394042968750000e-03 6.268310546875000000e-02 7.672119140625000000e-02 -7.153320312500000000e-02 -5.505371093750000000e-02 4.678344726562500000e-02 4.214477539062500000e-02 -1.512145996093750000e-02 -6.628417968750000000e-02 7.045745849609375000e-03 -9.179687500000000000e-02

4.360675811767578125e-04 7.769775390625000000e-02 -2.323150634765625000e-03 4.306030273437500000e-02 8.441162109375000000e-02 -6.207275390625000000e-02 6.182861328125000000e-02 -1.490020751953125000e-02 6.115722656250000000e-02 -9.625244140625000000e-02 4.217529296875000000e-02 1.066589355468750000e-02 -6.945800781250000000e-02 4.840087890625000000e-02 -7.794189453125000000e-02 4.998779296875000000e-02 8.441162109375000000e-02 -1.018676757812500000e-01 9.710693359375000000e-02 -6.848144531250000000e-02 -4.061889648437500000e-02 -9.326171875000000000e-02 8.673095703125000000e-02 9.631347656250000000e-02 8.343505859375000000e-02

8.416748046875000000e-02 1.582336425781250000e-02 -2.572631835937500000e-02 1.018676757812500000e-01 4.653930664062500000e-02 5.398559570312500000e-02 2.497863769531250000e-02 2.545166015625000000e-02 -7.366943359375000000e-02 7.086181640625000000e-02 3.515625000000000000e-02 -2.542114257812500000e-02 -2.204895019531250000e-03 -4.415893554687500000e-02 3.723144531250000000e-02 8.843994140625000000e-02 3.167724609375000000e-02 -4.290771484375000000e-02 -9.704589843750000000e-02 1.016845703125000000e-01 -8.538818359375000000e-02 6.396484375000000000e-02 -6.976318359375000000e-02 3.530883789062500000e-02 -4.415893554687500000e-02

-4.598999023437500000e-02 -3.533935546875000000e-02 6.250000000000000000e-02 -3.512573242187500000e-02 -4.437255859375000000e-02 -9.759521484375000000e-02 -1.649475097656250000e-02 -1.386260986328125000e-02 5.712890625000000000e-02 8.865356445312500000e-03 7.659912109375000000e-02 4.085540771484375000e-03 -6.536865234375000000e-02 9.979248046875000000e-02 -8.618164062500000000e-02 7.574462890625000000e-02 -5.545043945312500000e-02 6.109619140625000000e-02 4.556274414062500000e-02 -9.191894531250000000e-02 -7.031250000000000000e-02 5.444335937500000000e-02 -4.962158203125000000e-02 -8.905029296875000000e-02 -9.613037109375000000e-02

-9.503173828125000000e-02 -5.905151367187500000e-02 1.366424560546875000e-02 -1.147460937500000000e-02 1.647949218750000000e-02 4.193115234375000000e-02 3.875732421875000000e-02 -7.006835937500000000e-02 -1.788330078125000000e-02 -6.146240234375000000e-02 6.292724609375000000e-02 8.636474609375000000e-02 -2.490234375000000000e-02 -5.081176757812500000e-02 -9.197998046875000000e-02 -8.959960937500000000e-02 8.721923828125000000e-02 2.655029296875000000e-02 1.024780273437500000e-01 -5.203247070312500000e-02 5.865478515625000000e-02 3.933715820312500000e-02 -3.629684448242187500e-03 6.854248046875000000e-02 -7.330322265625000000e-02

-7.855224609375000000e-02 -8.679199218750000000e-02 4.501342773437500000e-02 -4.595947265625000000e-02 -7.867431640625000000e-02 -5.261230468750000000e-02 5.087280273437500000e-02 2.912902832031250000e-02 1.760864257812500000e-02 9.802246093750000000e-02 -1.525115966796875000e-02 -5.673217773437500000e-02 4.421997070312500000e-02 -2.490234375000000000e-02 -8.834838867187500000e-03 -8.959960937500000000e-02 -6.443023681640625000e-03 9.936523437500000000e-02 7.971191406250000000e-02 -1.283264160156250000e-02 6.921386718750000000e-02 6.597900390625000000e-02 -1.751899719238281250e-03 -3.857421875000000000e-02 9.307861328125000000e-02

1.428985595703125000e-02 -3.115844726562500000e-02 -7.043457031250000000e-02 9.857177734375000000e-02 -7.690429687500000000e-02 8.502197265625000000e-02 3.744506835937500000e-02 4.371643066406250000e-03 4.083251953125000000e-02 4.611206054687500000e-02 6.811523437500000000e-02 -6.057739257812500000e-02 4.397583007812500000e-02 -1.028442382812500000e-01 -8.898925781250000000e-02 1.965332031250000000e-02 2.513122558593750000e-02 -9.265136718750000000e-02 6.793212890625000000e-02 3.265380859375000000e-02 -1.843261718750000000e-02 8.770751953125000000e-02 -8.923339843750000000e-02 -3.634643554687500000e-02 6.173706054687500000e-02

6.652832031250000000e-03 4.315185546875000000e-02 7.550048828125000000e-02 8.819580078125000000e-02 -4.922485351562500000e-02 -7.775878906250000000e-02 -1.428222656250000000e-02 -4.440307617187500000e-02 6.549072265625000000e-02 -9.381103515625000000e-02 3.228759765625000000e-02 -1.010131835937500000e-01 -3.717041015625000000e-02 -4.098510742187500000e-02 4.998779296875000000e-02 5.462646484375000000e-02 2.069091796875000000e-02 9.698486328125000000e-02 -7.531738281250000000e-02 -2.453613281250000000e-02 -6.890869140625000000e-02 -9.661865234375000000e-02 3.350830078125000000e-02 -6.085205078125000000e-02 -4.278564453125000000e-02

-2.551269531250000000e-02 -9.539794921875000000e-02 -5.401611328125000000e-02 -3.297805786132812500e-03 -3.726196289062500000e-02 -1.022338867187500000e-01 7.702636718750000000e-02 -5.523681640625000000e-02 -8.369445800781250000e-03 1.419067382812500000e-02 -4.425048828125000000e-02 -3.070068359375000000e-02 -1.848220825195312500e-03 -1.300811767578125000e-02 -7.690429687500000000e-02 1.285552978515625000e-02 7.739257812500000000e-02 3.311157226562500000e-02 1.840209960937500000e-02 -6.774902343750000000e-02 6.530761718750000000e-02 7.568359375000000000e-02 3.387451171875000000e-02 6.781005859375000000e-02 -1.333618164062500000e-02

3.778076171875000000e-02 -8.339881896972656250e-04 7.073974609375000000e-02 -9.600830078125000000e-02 4.403686523437500000e-02 2.447509765625000000e-02 9.594726562500000000e-02 6.646728515625000000e-02 2.902221679687500000e-02 6.451416015625000000e-02 4.669189453125000000e-02 9.820556640625000000e-02 7.928466796875000000e-02 4.261016845703125000e-03 5.722045898437500000e-02 2.288818359375000000e-02 1.710510253906250000e-02 5.178833007812500000e-02 -1.231384277343750000e-02 1.003417968750000000e-01 -1.098632812500000000e-02 -3.393554687500000000e-02 2.047729492187500000e-02 -4.949951171875000000e-02 -2.406311035156250000e-02

3.912353515625000000e-02 6.146240234375000000e-02 6.854248046875000000e-02 -7.592773437500000000e-02 -3.173828125000000000e-02 4.815673828125000000e-02 -5.407714843750000000e-02 -9.381103515625000000e-02 -1.522064208984375000e-02 7.159423828125000000e-02 -4.165649414062500000e-02 -4.058837890625000000e-03 1.000366210937500000e-01 7.769775390625000000e-02 5.340576171875000000e-02 1.060485839843750000e-02 1.806640625000000000e-02 -3.108215332031250000e-02 -5.789184570312500000e-02 -3.738403320312500000e-02 7.648468017578125000e-03 2.648925781250000000e-02 -2.963256835937500000e-02 -4.306030273437500000e-02 -2.314758300781250000e-02

8.795166015625000000e-02 -7.934570312500000000e-02 1.024780273437500000e-01 2.593994140625000000e-02 -7.006835937500000000e-02 -9.277343750000000000e-02 6.744384765625000000e-02 3.234863281250000000e-03 -1.006469726562500000e-01 -5.966186523437500000e-02 -2.069091796875000000e-02 -5.865478515625000000e-02 -5.966186523437500000e-02 1.947021484375000000e-02 1.165771484375000000e-02 2.471923828125000000e-02 -6.207275390625000000e-02 -7.250976562500000000e-02 1.026000976562500000e-01 6.927490234375000000e-02 -6.488037109375000000e-02 -4.278564453125000000e-02 -5.844116210937500000e-02 -5.422973632812500000e-02 4.840087890625000000e-02

1.165771484375000000e-02 2.667236328125000000e-02 -1.451110839843750000e-02 -2.470397949218750000e-02 2.748489379882812500e-03 5.020141601562500000e-02 -8.862304687500000000e-02 6.854248046875000000e-02 -4.156494140625000000e-02 -4.846191406250000000e-02 3.505706787109375000e-03 6.124877929687500000e-02 -7.891845703125000000e-02 -2.006530761718750000e-02 9.661865234375000000e-02 -6.185913085937500000e-02 3.167724609375000000e-02 6.488037109375000000e-02 -6.573486328125000000e-02 2.003479003906250000e-02 7.580566406250000000e-02 -7.226562500000000000e-02 -3.961181640625000000e-02 3.695678710937500000e-02 -2.487182617187500000e-02

8.038330078125000000e-02 2.655029296875000000e-02 4.183959960937500000e-02 8.099365234375000000e-02 7.818603515625000000e-02 -5.242919921875000000e-02 7.263183593750000000e-02 -8.459472656250000000e-02 -5.966186523437500000e-02 -8.056640625000000000e-02 2.568054199218750000e-02 -8.996582031250000000e-02 2.935791015625000000e-02 5.767822265625000000e-02 7.330322265625000000e-02 -3.253173828125000000e-02 -3.332519531250000000e-02 -5.794525146484375000e-03 -8.520507812500000000e-02 6.524658203125000000e-02 5.328369140625000000e-02 2.441406250000000000e-02 8.953857421875000000e-02 1.018676757812500000e-01 6.512451171875000000e-02

1.226806640625000000e-02 -6.848144531250000000e-02 7.818603515625000000e-02 -1.727294921875000000e-02 -9.600830078125000000e-02 4.180908203125000000e-02 2.102661132812500000e-02 -3.253173828125000000e-02 -5.142211914062500000e-02 -2.252197265625000000e-02 -9.741210937500000000e-02 2.886962890625000000e-02 6.243896484375000000e-02 1.586914062500000000e-02 6.610107421875000000e-02 1.016235351562500000e-01 2.629089355468750000e-02 8.734130859375000000e-02 3.469848632812500000e-02 -9.661865234375000000e-02 1.406669616699218750e-03 -7.672119140625000000e-02 -3.475952148437500000e-02 3.298950195312500000e-02 -5.285644531250000000e-02

3.277587890625000000e-02 6.683349609375000000e-02 9.942626953125000000e-02 3.851318359375000000e-02 -1.026611328125000000e-01 -1.588821411132812500e-03 5.560302734375000000e-02 5.120849609375000000e-02 5.059814453125000000e-02 -6.787109375000000000e-02 -1.563072204589843750e-03 -2.809524536132812500e-03 1.104736328125000000e-02 -2.069091796875000000e-02 1.226806640625000000e-02 -7.019042968750000000e-03 -4.177856445312500000e-02 8.111572265625000000e-02 2.813720703125000000e-02 9.759521484375000000e-02 1.684570312500000000e-02 -3.238677978515625000e-03 8.441162109375000000e-02 -9.442138671875000000e-02 4.522705078125000000e-02

2.374267578125000000e-02 7.696533203125000000e-02 7.812500000000000000e-03 -8.618164062500000000e-02 4.803466796875000000e-02 7.769775390625000000e-02 5.963134765625000000e-02 2.014160156250000000e-03 -4.940795898437500000e-02 1.000366210937500000e-01 9.539794921875000000e-02 -1.263427734375000000e-02 7.147216796875000000e-02 4.083251953125000000e-02 1.202392578125000000e-02 7.977294921875000000e-02 5.096435546875000000e-02 -4.299926757812500000e-02 -2.752685546875000000e-02 7.452392578125000000e-02 5.548095703125000000e-02 -8.477783203125000000e-02 5.670166015625000000e-02 -8.416748046875000000e-02 -4.660034179687500000e-02

6.121826171875000000e-02 6.964111328125000000e-02 8.041381835937500000e-03 9.014892578125000000e-02 7.305908203125000000e-02 -1.325988769531250000e-02 6.855010986328125000e-03 -5.361938476562500000e-02 -1.966476440429687500e-03 -1.893615722656250000e-02 3.353881835937500000e-02 2.009582519531250000e-02 -1.262664794921875000e-02 -6.567382812500000000e-02 6.240844726562500000e-03 9.918212890625000000e-02 8.221435546875000000e-02 -1.020050048828125000e-02 -2.258300781250000000e-02 -5.456542968750000000e-02 -8.941650390625000000e-02 -3.789901733398437500e-03 -8.593750000000000000e-02 7.971191406250000000e-02 7.763671875000000000e-02

6.463623046875000000e-02 5.718994140625000000e-02 9.698486328125000000e-02 -1.220703125000000000e-03 1.184082031250000000e-02 2.569580078125000000e-02 -4.922485351562500000e-02 -1.245117187500000000e-02 8.111572265625000000e-02 8.477783203125000000e-02 6.964111328125000000e-02 9.643554687500000000e-03 1.770019531250000000e-02 4.821777343750000000e-03 6.024169921875000000e-02 7.257080078125000000e-02 -1.568603515625000000e-02 -5.322265625000000000e-02 -4.580688476562500000e-02 4.156494140625000000e-02 2.655029296875000000e-02 1.010131835937500000e-01 -1.006469726562500000e-01 -2.752685546875000000e-02 -2.410888671875000000e-02

-9.741210937500000000e-02 -7.629394531250000000e-02 -9.423828125000000000e-02 -2.954101562500000000e-02 -3.411865234375000000e-02 -5.584716796875000000e-02 -9.643554687500000000e-02 -6.839752197265625000e-03 -4.519653320312500000e-02 9.844970703125000000e-02 8.538818359375000000e-02 -1.643371582031250000e-02 -9.201049804687500000e-03 4.901123046875000000e-02 2.658081054687500000e-02 8.612060546875000000e-02 -3.674316406250000000e-02 -9.381103515625000000e-02 -4.260253906250000000e-02 -7.794189453125000000e-02 9.039306640625000000e-02 -5.783081054687500000e-02 6.021118164062500000e-02 9.381103515625000000e-02 1.154327392578125000e-02

7.366943359375000000e-02 6.231689453125000000e-02 5.773925781250000000e-02 6.401062011718750000e-03 -8.557128906250000000e-02 -7.205963134765625000e-03 -3.753662109375000000e-02 -8.496093750000000000e-02 5.438232421875000000e-02 1.744079589843750000e-02 3.533935546875000000e-02 8.337402343750000000e-02 -7.891845703125000000e-02 1.287841796875000000e-02 -2.923583984375000000e-02 -4.559326171875000000e-02 -5.484008789062500000e-02 -9.979248046875000000e-02 3.616333007812500000e-02 5.322265625000000000e-02 2.496337890625000000e-02 -7.835388183593750000e-03 8.819580078125000000e-02 1.023101806640625000e-02 6.420135498046875000e-03

