-9.844970703125000000e-02 -2.435684204101562500e-03 1.390380859375000000e-01 -4.492187500000000000e-02 1.020507812500000000e-01 -2.493286132812500000e-02 -5.792236328125000000e-02 -8.447265625000000000e-02 -1.195678710937500000e-01 8.337402343750000000e-02 6.970214843750000000e-02 2.073669433593750000e-02 5.459594726562500000e-02 8.880615234375000000e-02 8.245849609375000000e-02 -5.924224853515625000e-03 -8.819580078125000000e-03 1.005859375000000000e-01 5.883789062500000000e-02 2.142333984375000000e-02 -6.168365478515625000e-03 -1.331787109375000000e-01 -9.844970703125000000e-02 8.264160156250000000e-02 7.366180419921875000e-03

6.286621093750000000e-02 -5.798339843750000000e-02 1.660156250000000000e-02 -4.565429687500000000e-02 5.664062500000000000e-02 -9.301757812500000000e-02 5.990600585937500000e-02 4.888916015625000000e-02 1.074218750000000000e-01 1.219482421875000000e-01 -1.263427734375000000e-01 7.788085937500000000e-02 3.619384765625000000e-02 -1.115417480468750000e-02 -1.107788085937500000e-01 -4.253387451171875000e-03 9.216308593750000000e-02 -6.317138671875000000e-02 -7.299804687500000000e-02 7.214355468750000000e-02 9.692382812500000000e-02 6.396484375000000000e-02 -6.561279296875000000e-02 -9.536743164062500000e-03 2.539062500000000000e-02

1.043090820312500000e-01 -1.795959472656250000e-02 -1.342773437500000000e-01 8.979797363281250000e-03 -1.293945312500000000e-01 -1.184082031250000000e-02 -3.656387329101562500e-03 1.385498046875000000e-01 -1.972961425781250000e-02 -8.624267578125000000e-02 5.300903320312500000e-02 -1.254882812500000000e-01 1.457977294921875000e-02 1.903533935546875000e-03 1.281738281250000000e-01 1.007690429687500000e-01 1.178588867187500000e-01 7.550048828125000000e-02 1.048583984375000000e-01 -4.452514648437500000e-02 -1.073608398437500000e-01 6.152343750000000000e-02 4.476928710937500000e-02 -4.620361328125000000e-02 4.736328125000000000e-02

1.093750000000000000e-01 -5.578613281250000000e-02 6.885528564453125000e-03 1.081085205078125000e-02 -7.385253906250000000e-02 2.819824218750000000e-02 1.385498046875000000e-01 -1.071777343750000000e-01 3.198623657226562500e-03 -1.262207031250000000e-01 -3.503417968750000000e-02 -8.447265625000000000e-02 -3.302001953125000000e-02 -1.074829101562500000e-01 -8.190917968750000000e-02 -9.106445312500000000e-02 7.928466796875000000e-02 -4.595947265625000000e-02 -5.361938476562500000e-02 -6.112670898437500000e-02 -5.694580078125000000e-02 -7.788085937500000000e-02 1.014404296875000000e-01 -3.662109375000000000e-02 -4.342651367187500000e-02

-1.400146484375000000e-01 4.219055175781250000e-03 -1.221923828125000000e-01 1.217651367187500000e-01 -7.299804687500000000e-02 -3.074645996093750000e-02 8.990478515625000000e-02 8.111572265625000000e-02 -6.024169921875000000e-02 -7.934570312500000000e-02 -9.674072265625000000e-02 -1.192626953125000000e-01 1.176757812500000000e-01 8.557128906250000000e-02 2.767944335937500000e-02 1.165771484375000000e-02 -4.165649414062500000e-02 -5.142211914062500000e-02 -7.983398437500000000e-02 -9.814453125000000000e-02 4.226684570312500000e-02 1.023101806640625000e-02 -6.317138671875000000e-02 1.241455078125000000e-01 9.902954101562500000e-03

1.270751953125000000e-01 1.136474609375000000e-01 2.388000488281250000e-02 -1.230468750000000000e-01 -7.708740234375000000e-02 -9.594726562500000000e-02 9.759521484375000000e-02 2.325439453125000000e-02 1.492309570312500000e-02 -7.720947265625000000e-03 8.918762207031250000e-03 -4.058837890625000000e-02 1.356201171875000000e-01 -1.121826171875000000e-01 8.221435546875000000e-02 -4.177856445312500000e-02 -9.838867187500000000e-02 1.121826171875000000e-01 4.208374023437500000e-02 3.936767578125000000e-02 7.635498046875000000e-02 3.065490722656250000e-02 2.758789062500000000e-02 3.168106079101562500e-03 -1.117553710937500000e-01

-1.696777343750000000e-02 1.022949218750000000e-01 3.338623046875000000e-02 7.104873657226562500e-04 -1.304931640625000000e-01 -1.323242187500000000e-01 -1.269531250000000000e-01 -7.922363281250000000e-02 1.326904296875000000e-01 7.574462890625000000e-02 3.286361694335937500e-03 3.393554687500000000e-02 -5.859375000000000000e-02 -6.182861328125000000e-02 -5.770874023437500000e-02 1.281738281250000000e-01 7.824707031250000000e-02 -8.557128906250000000e-02 -6.890869140625000000e-02 -5.017089843750000000e-02 -6.130981445312500000e-02 -7.598876953125000000e-02 9.521484375000000000e-02 4.476928710937500000e-02 -7.495117187500000000e-02

3.796386718750000000e-02 -9.704589843750000000e-02 1.232299804687500000e-01 -4.101562500000000000e-02 1.135864257812500000e-01 3.201293945312500000e-02 2.070617675781250000e-02 -9.696960449218750000e-03 -3.268432617187500000e-02 8.087158203125000000e-02 -7.678222656250000000e-02 -1.331787109375000000e-01 6.427001953125000000e-02 4.547119140625000000e-03 1.337890625000000000e-01 -1.637268066406250000e-02 6.149291992187500000e-02 -1.501464843750000000e-02 -1.195068359375000000e-01 -9.014892578125000000e-02 -9.497070312500000000e-02 -3.936767578125000000e-02 -9.765625000000000000e-02 -1.304931640625000000e-01 1.202392578125000000e-01

-1.375732421875000000e-01 -9.161376953125000000e-02 -4.376220703125000000e-02 -9.735107421875000000e-02 6.591796875000000000e-03 -5.856323242187500000e-02 1.201782226562500000e-01 3.808593750000000000e-02 1.210327148437500000e-01 8.868408203125000000e-02 -3.170776367187500000e-02 4.205322265625000000e-02 2.017211914062500000e-02 1.325683593750000000e-01 -7.965087890625000000e-03 -1.244354248046875000e-02 -8.374023437500000000e-02 -1.279296875000000000e-01 -7.501220703125000000e-02 -1.126708984375000000e-01 4.248046875000000000e-02 1.143798828125000000e-01 -9.899902343750000000e-02 -4.241943359375000000e-02 -2.656555175781250000e-02

