-1.113281250000000000e-01 -5.578613281250000000e-02 -5.889892578125000000e-02 6.408691406250000000e-02 -8.697509765625000000e-02 1.103973388671875000e-02 -3.576660156250000000e-02 -1.284179687500000000e-01 6.561279296875000000e-02 4.455566406250000000e-02 -6.152343750000000000e-02 -5.413818359375000000e-02 1.214599609375000000e-01 -9.161376953125000000e-02 9.735107421875000000e-02 -5.612182617187500000e-02 7.061004638671875000e-03 1.109619140625000000e-01 7.409667968750000000e-02 1.265869140625000000e-01 1.358642578125000000e-01 1.005859375000000000e-01 4.583740234375000000e-02 3.796386718750000000e-02 2.868652343750000000e-02

7.690429687500000000e-02 5.114746093750000000e-02 -8.148193359375000000e-02 -9.350585937500000000e-02 1.014404296875000000e-01 7.763671875000000000e-02 6.945800781250000000e-02 -6.021118164062500000e-02 -9.130859375000000000e-02 -1.527404785156250000e-02 1.231689453125000000e-01 -7.983398437500000000e-02 -2.766418457031250000e-02 4.510498046875000000e-02 -1.069335937500000000e-01 1.271972656250000000e-01 2.011108398437500000e-02 -8.477783203125000000e-02 1.022338867187500000e-01 7.141113281250000000e-02 1.130371093750000000e-01 -7.495117187500000000e-02 -4.510498046875000000e-02 -1.019897460937500000e-01 7.324218750000000000e-02

9.637451171875000000e-02 -5.474853515625000000e-02 2.070617675781250000e-02 -3.540039062500000000e-02 -7.055664062500000000e-02 -8.532714843750000000e-02 -1.263427734375000000e-01 -1.329803466796875000e-02 -1.077880859375000000e-01 -1.395263671875000000e-01 1.301269531250000000e-01 -5.603027343750000000e-02 -1.005249023437500000e-01 8.294677734375000000e-02 8.892822265625000000e-02 6.057739257812500000e-02 1.958608627319335938e-04 -3.668212890625000000e-02 2.430725097656250000e-02 1.318359375000000000e-01 5.020141601562500000e-03 1.216430664062500000e-01 -3.311157226562500000e-02 -8.911132812500000000e-02 -5.169677734375000000e-02

-1.937866210937500000e-02 2.856445312500000000e-02 6.408691406250000000e-02 6.622314453125000000e-02 1.395263671875000000e-01 1.348876953125000000e-01 2.044677734375000000e-02 -1.229858398437500000e-01 -1.093139648437500000e-01 4.916381835937500000e-02 4.266357421875000000e-02 4.589843750000000000e-02 3.469848632812500000e-02 4.901123046875000000e-02 -1.348876953125000000e-01 8.453369140625000000e-02 1.000976562500000000e-01 1.236572265625000000e-01 -1.320800781250000000e-01 6.030273437500000000e-02 6.817626953125000000e-02 4.327392578125000000e-02 2.838134765625000000e-02 -1.208496093750000000e-01 6.143188476562500000e-02

7.324218750000000000e-02 -7.983398437500000000e-02 -6.210327148437500000e-02 1.185302734375000000e-01 -1.037597656250000000e-02 -1.197509765625000000e-01 9.466552734375000000e-02 1.233520507812500000e-01 6.210327148437500000e-02 -4.412841796875000000e-02 -1.070556640625000000e-01 -2.801513671875000000e-02 1.397705078125000000e-01 6.256103515625000000e-02 1.043090820312500000e-01 -6.457519531250000000e-02 7.147216796875000000e-02 -1.565551757812500000e-02 9.625244140625000000e-02 -5.670166015625000000e-02 -9.808349609375000000e-02 7.733154296875000000e-02 7.360839843750000000e-02 3.059387207031250000e-02 -8.886718750000000000e-02

7.519531250000000000e-02 -4.220581054687500000e-02 -4.187011718750000000e-02 1.063232421875000000e-01 -4.592895507812500000e-02 -8.642578125000000000e-02 5.902099609375000000e-02 1.322021484375000000e-01 1.232910156250000000e-01 -1.385498046875000000e-01 1.203613281250000000e-01 -8.801269531250000000e-02 4.995727539062500000e-02 -1.998901367187500000e-02 1.438140869140625000e-02 1.441955566406250000e-02 -2.879333496093750000e-02 -1.356201171875000000e-01 5.844116210937500000e-02 1.356201171875000000e-01 -1.044921875000000000e-01 5.227661132812500000e-02 8.465576171875000000e-02 -9.625244140625000000e-02 1.024169921875000000e-01

-5.084228515625000000e-02 6.420898437500000000e-02 -4.562377929687500000e-02 9.442138671875000000e-02 6.921386718750000000e-02 6.835937500000000000e-02 2.854919433593750000e-02 -6.610107421875000000e-02 -1.232299804687500000e-01 -5.850791931152343750e-04 9.411621093750000000e-02 6.080627441406250000e-03 6.996154785156250000e-03 1.370849609375000000e-01 8.721923828125000000e-02 -4.821777343750000000e-03 8.404541015625000000e-02 -1.939392089843750000e-02 -5.592346191406250000e-03 4.382324218750000000e-02 -4.464721679687500000e-02 -6.372070312500000000e-02 -7.464599609375000000e-02 1.112060546875000000e-01 -1.325683593750000000e-01

6.835937500000000000e-02 6.219482421875000000e-02 6.353759765625000000e-02 -7.067871093750000000e-02 -2.282714843750000000e-02 8.666992187500000000e-02 -9.814453125000000000e-02 -5.010986328125000000e-02 8.781433105468750000e-03 9.436035156250000000e-02 -1.606750488281250000e-02 -7.135009765625000000e-02 -9.320068359375000000e-02 -1.060180664062500000e-01 -8.563232421875000000e-02 1.298828125000000000e-01 -1.336669921875000000e-01 -3.881835937500000000e-02 -1.312255859375000000e-01 -3.646850585937500000e-02 4.968261718750000000e-02 -6.185913085937500000e-02 6.584167480468750000e-03 3.356933593750000000e-03 -1.036376953125000000e-01

-2.464294433593750000e-02 -1.022949218750000000e-01 1.374511718750000000e-01 1.268310546875000000e-01 -5.688476562500000000e-02 9.545898437500000000e-02 -4.672241210937500000e-02 -6.683349609375000000e-02 -3.564453125000000000e-02 2.009868621826171875e-04 -1.323699951171875000e-02 -1.080932617187500000e-01 9.753417968750000000e-02 1.292724609375000000e-01 1.036376953125000000e-01 1.502227783203125000e-02 1.162719726562500000e-02 3.637695312500000000e-02 2.052307128906250000e-02 1.145019531250000000e-01 1.392822265625000000e-01 -1.219482421875000000e-01 -1.384277343750000000e-01 -9.271240234375000000e-02 3.074645996093750000e-02

