-7.934570312500000000e-02 -1.271972656250000000e-01 -2.536010742187500000e-02 -5.465698242187500000e-02 -8.398437500000000000e-02 3.039550781250000000e-02 1.353759765625000000e-01 -2.366638183593750000e-02 -6.069946289062500000e-02 -1.803588867187500000e-02 -1.342773437500000000e-01 -9.161376953125000000e-02 -4.272460937500000000e-02 3.985595703125000000e-02 3.167724609375000000e-02 4.003906250000000000e-02 -3.991699218750000000e-02 -1.506042480468750000e-02 7.824707031250000000e-02 -1.193237304687500000e-01 -7.629394531250000000e-02 6.945800781250000000e-02 -5.523681640625000000e-02 5.531311035156250000e-03 1.060791015625000000e-01

3.747558593750000000e-02 8.642578125000000000e-02 -8.367919921875000000e-02 1.356201171875000000e-01 -1.170654296875000000e-01 -4.046630859375000000e-02 -6.069946289062500000e-02 -2.320861816406250000e-02 8.776855468750000000e-02 1.278076171875000000e-01 4.263305664062500000e-02 -8.941650390625000000e-02 1.898193359375000000e-02 5.731201171875000000e-02 -8.404541015625000000e-02 7.757568359375000000e-02 1.331787109375000000e-01 -9.849548339843750000e-03 9.436035156250000000e-02 -4.235839843750000000e-02 5.105590820312500000e-02 6.213378906250000000e-02 1.378173828125000000e-01 2.026367187500000000e-02 6.750488281250000000e-02

9.570312500000000000e-02 -7.873535156250000000e-02 3.836059570312500000e-02 9.484863281250000000e-02 -1.122283935546875000e-02 -1.334228515625000000e-01 -1.104125976562500000e-01 -1.359863281250000000e-01 -4.916381835937500000e-02 -1.285400390625000000e-01 -1.385498046875000000e-01 -3.662109375000000000e-02 -2.714538574218750000e-02 1.320800781250000000e-01 1.018676757812500000e-01 1.311035156250000000e-01 -1.003417968750000000e-01 -4.573822021484375000e-03 -1.147460937500000000e-02 1.267089843750000000e-01 -1.347656250000000000e-01 9.667968750000000000e-02 -1.336669921875000000e-01 -2.908325195312500000e-02 -1.165161132812500000e-01

-6.781005859375000000e-02 -8.447265625000000000e-02 -8.459472656250000000e-02 -1.217041015625000000e-01 8.801269531250000000e-02 -1.722335815429687500e-03 -9.979248046875000000e-02 8.734130859375000000e-02 2.520751953125000000e-02 7.104492187500000000e-02 1.290283203125000000e-01 -9.985351562500000000e-02 -3.402709960937500000e-02 4.949951171875000000e-02 -1.275634765625000000e-01 -1.196899414062500000e-01 -1.254882812500000000e-01 -7.904052734375000000e-02 -9.484863281250000000e-02 -2.302551269531250000e-02 -1.352539062500000000e-01 -9.814453125000000000e-02 5.932617187500000000e-02 -8.038330078125000000e-02 -1.336669921875000000e-01

-5.499267578125000000e-02 9.545898437500000000e-02 -2.496337890625000000e-02 1.073455810546875000e-02 -2.693176269531250000e-03 -8.666992187500000000e-03 -1.389160156250000000e-01 -1.174316406250000000e-01 -1.331787109375000000e-01 9.820556640625000000e-02 -9.838867187500000000e-02 8.338928222656250000e-03 4.803466796875000000e-02 1.129760742187500000e-01 -4.791259765625000000e-02 6.311035156250000000e-02 -1.263427734375000000e-01 7.550048828125000000e-02 -1.307373046875000000e-01 5.776977539062500000e-02 1.278076171875000000e-01 7.423400878906250000e-03 -1.919555664062500000e-02 9.411621093750000000e-02 6.618499755859375000e-03

1.020507812500000000e-01 -9.765625000000000000e-02 -1.142578125000000000e-01 -1.380615234375000000e-01 -6.292724609375000000e-02 3.570556640625000000e-02 -5.996704101562500000e-02 8.349609375000000000e-02 -4.180908203125000000e-02 -7.891845703125000000e-02 -7.797241210937500000e-03 -1.241455078125000000e-01 -9.844970703125000000e-02 1.239624023437500000e-01 8.160400390625000000e-02 1.138305664062500000e-01 2.526855468750000000e-02 3.039550781250000000e-02 -1.041870117187500000e-01 -6.280517578125000000e-02 -9.185791015625000000e-02 1.223754882812500000e-02 -4.620361328125000000e-02 6.781005859375000000e-02 5.468750000000000000e-02

-1.219482421875000000e-01 -1.254882812500000000e-01 7.891845703125000000e-02 6.179809570312500000e-02 -1.099243164062500000e-01 -4.486083984375000000e-02 -1.121215820312500000e-01 -7.495880126953125000e-03 -9.216308593750000000e-02 2.798461914062500000e-02 -2.047729492187500000e-02 5.007934570312500000e-02 1.228027343750000000e-01 1.045532226562500000e-01 -1.032104492187500000e-01 -1.170043945312500000e-01 -3.280639648437500000e-02 -8.776855468750000000e-02 -8.801269531250000000e-02 6.445312500000000000e-02 9.838867187500000000e-02 3.619384765625000000e-02 -1.356201171875000000e-01 -2.162170410156250000e-02 -6.561279296875000000e-02

-2.127075195312500000e-02 -9.529113769531250000e-03 -1.141357421875000000e-02 -5.688476562500000000e-02 -6.021118164062500000e-02 -1.307373046875000000e-01 -6.756591796875000000e-02 -1.676940917968750000e-02 5.920410156250000000e-02 6.896972656250000000e-02 -1.074218750000000000e-01 -3.286743164062500000e-02 1.281738281250000000e-01 -9.216308593750000000e-02 4.150390625000000000e-02 -9.466552734375000000e-02 -7.830810546875000000e-02 -1.211547851562500000e-01 1.351318359375000000e-01 -2.584838867187500000e-02 1.010742187500000000e-01 -1.345214843750000000e-01 -2.709960937500000000e-02 -5.960083007812500000e-02 7.824707031250000000e-02

-1.167602539062500000e-01 -8.508300781250000000e-02 3.610229492187500000e-02 6.871223449707031250e-04 -6.097412109375000000e-02 8.007812500000000000e-02 -3.912353515625000000e-02 1.354980468750000000e-01 9.851074218750000000e-02 -8.953857421875000000e-02 -1.069335937500000000e-01 4.513549804687500000e-02 2.400207519531250000e-02 -4.635620117187500000e-02 -1.457214355468750000e-02 1.315917968750000000e-01 1.285400390625000000e-01 -7.244873046875000000e-02 9.149169921875000000e-02 -3.149414062500000000e-02 5.984497070312500000e-02 -9.838867187500000000e-02 -8.013916015625000000e-02 -1.867675781250000000e-02 1.228332519531250000e-02

