1.282958984375000000e-01 -1.013183593750000000e-02 -4.266357421875000000e-02 1.069946289062500000e-01 1.016845703125000000e-01 -1.279296875000000000e-01 -1.362304687500000000e-01 2.383422851562500000e-02 -5.053710937500000000e-02 -6.085205078125000000e-02 -1.192016601562500000e-01 9.326171875000000000e-02 1.010131835937500000e-01 -5.035400390625000000e-02 4.318237304687500000e-02 -1.330566406250000000e-01 3.520965576171875000e-03 -2.380371093750000000e-02 9.411621093750000000e-02 2.502441406250000000e-02 4.806518554687500000e-02 -3.027343750000000000e-02 3.038024902343750000e-02 3.482055664062500000e-02 7.946777343750000000e-02

-6.801605224609375000e-03 5.224609375000000000e-02 -8.013916015625000000e-02 -7.055664062500000000e-02 -4.235839843750000000e-02 1.124267578125000000e-01 -4.373168945312500000e-02 -4.052734375000000000e-02 8.007812500000000000e-02 -3.015995025634765625e-04 8.953857421875000000e-02 2.687072753906250000e-02 -1.008911132812500000e-01 9.082031250000000000e-02 4.431152343750000000e-02 -4.678344726562500000e-02 8.776855468750000000e-02 7.495117187500000000e-02 5.160522460937500000e-02 1.962280273437500000e-02 -1.373291015625000000e-01 -2.601623535156250000e-02 1.525115966796875000e-02 1.013183593750000000e-02 -4.510498046875000000e-02

6.488037109375000000e-02 2.308654785156250000e-02 2.957153320312500000e-02 5.371093750000000000e-02 -8.367919921875000000e-02 -1.369628906250000000e-01 8.374023437500000000e-02 4.943847656250000000e-02 -6.890869140625000000e-02 6.738281250000000000e-02 -1.323242187500000000e-01 -1.274414062500000000e-01 -1.019897460937500000e-01 -1.248168945312500000e-01 6.304931640625000000e-02 -6.896972656250000000e-02 -2.584838867187500000e-02 9.460449218750000000e-02 1.168212890625000000e-01 2.107238769531250000e-02 1.235961914062500000e-01 1.252441406250000000e-01 -6.378173828125000000e-02 -4.669189453125000000e-02 3.374099731445312500e-03

1.966857910156250000e-02 1.045227050781250000e-02 -9.820556640625000000e-02 -8.764648437500000000e-02 9.655761718750000000e-02 9.350585937500000000e-02 -1.289062500000000000e-01 -1.002807617187500000e-01 3.857421875000000000e-02 5.538940429687500000e-02 1.306152343750000000e-01 -4.870605468750000000e-02 -4.769897460937500000e-02 -1.484680175781250000e-02 -2.087402343750000000e-02 6.951904296875000000e-02 -3.970336914062500000e-02 -8.337402343750000000e-02 4.806518554687500000e-02 3.652954101562500000e-02 -1.118164062500000000e-01 2.192687988281250000e-02 -1.019897460937500000e-01 -5.599975585937500000e-02 5.548095703125000000e-02

4.943847656250000000e-02 4.342651367187500000e-02 -6.835937500000000000e-02 -8.782958984375000000e-02 -3.198242187500000000e-02 1.214599609375000000e-01 1.300048828125000000e-01 -2.281188964843750000e-02 -1.001586914062500000e-01 -1.708984375000000000e-02 9.960937500000000000e-02 -1.933288574218750000e-02 -4.278564453125000000e-02 -6.347656250000000000e-02 -1.051025390625000000e-01 -1.354980468750000000e-01 -3.082275390625000000e-02 -1.197509765625000000e-01 -8.441162109375000000e-02 -1.307373046875000000e-01 -1.226196289062500000e-01 3.274536132812500000e-02 -8.587646484375000000e-02 -9.082031250000000000e-02 -1.274414062500000000e-01

-1.058349609375000000e-01 9.954833984375000000e-02 1.901245117187500000e-02 -1.451110839843750000e-02 -1.107177734375000000e-01 -6.311035156250000000e-02 1.093750000000000000e-01 4.049682617187500000e-02 -7.733154296875000000e-02 -1.306152343750000000e-01 9.994506835937500000e-03 7.080078125000000000e-02 -1.116333007812500000e-01 -8.215332031250000000e-02 5.715942382812500000e-02 5.664062500000000000e-02 1.148071289062500000e-01 5.554199218750000000e-02 6.365966796875000000e-02 -1.378173828125000000e-01 -8.703613281250000000e-02 -1.140747070312500000e-01 -1.312255859375000000e-01 4.174804687500000000e-02 -1.615905761718750000e-02

6.701660156250000000e-02 -1.282958984375000000e-01 2.507019042968750000e-02 -4.507446289062500000e-02 3.276824951171875000e-03 -2.876281738281250000e-02 1.353759765625000000e-01 5.850219726562500000e-02 1.253662109375000000e-01 1.323242187500000000e-01 8.648681640625000000e-02 -1.129150390625000000e-01 8.862304687500000000e-02 -1.315917968750000000e-01 -8.813476562500000000e-02 -8.117675781250000000e-02 6.976318359375000000e-02 -1.208496093750000000e-01 5.836486816406250000e-03 -3.439331054687500000e-02 1.072998046875000000e-01 -9.436035156250000000e-02 2.246093750000000000e-02 9.301757812500000000e-02 -1.647949218750000000e-02

2.600097656250000000e-02 -2.542114257812500000e-02 -8.496093750000000000e-02 -1.211547851562500000e-01 5.569458007812500000e-02 8.642578125000000000e-02 1.701354980468750000e-02 -3.262329101562500000e-02 4.125976562500000000e-02 1.016235351562500000e-01 6.738281250000000000e-02 -9.078979492187500000e-03 -2.070617675781250000e-02 -1.019287109375000000e-01 -2.528381347656250000e-02 1.643371582031250000e-02 -1.206665039062500000e-01 -1.186523437500000000e-01 -4.708862304687500000e-02 -9.228515625000000000e-02 -2.629089355468750000e-02 6.671905517578125000e-03 1.123809814453125000e-02 7.214355468750000000e-02 1.695251464843750000e-02

-1.091308593750000000e-01 1.295166015625000000e-01 -9.881591796875000000e-02 2.136230468750000000e-02 -1.000976562500000000e-01 -1.186523437500000000e-01 -6.127929687500000000e-02 -9.887695312500000000e-02 -4.650878906250000000e-02 7.647705078125000000e-02 3.421020507812500000e-02 1.151123046875000000e-01 1.102294921875000000e-01 7.360839843750000000e-02 -5.075073242187500000e-02 1.216125488281250000e-02 -1.313476562500000000e-01 -3.802490234375000000e-02 -5.749511718750000000e-02 1.102447509765625000e-02 6.878662109375000000e-02 7.934570312500000000e-02 -3.936767578125000000e-02 7.360839843750000000e-02 9.124755859375000000e-02

