7.080078125000000000e-02 7.409667968750000000e-02 1.670837402343750000e-02 -1.419067382812500000e-02 -1.132202148437500000e-01 1.378173828125000000e-01 1.918029785156250000e-02 -1.336669921875000000e-01 -8.703613281250000000e-02 7.362365722656250000e-03 -3.503417968750000000e-02 -9.437561035156250000e-03 -1.547241210937500000e-02 1.170043945312500000e-01 -1.336669921875000000e-01 9.667968750000000000e-02 1.000976562500000000e-01 -7.165527343750000000e-02 1.093139648437500000e-01 8.251953125000000000e-02 -2.131652832031250000e-02 -1.716613769531250000e-02 1.170043945312500000e-01 -1.244506835937500000e-01 1.187133789062500000e-01

-1.753234863281250000e-02 -8.220672607421875000e-04 -8.532714843750000000e-02 -1.267242431640625000e-02 1.226806640625000000e-01 8.007812500000000000e-02 -6.427001953125000000e-02 7.434082031250000000e-02 1.295166015625000000e-01 6.018066406250000000e-02 -2.655029296875000000e-02 1.119384765625000000e-01 7.897949218750000000e-02 -7.800292968750000000e-02 1.351318359375000000e-01 3.086853027343750000e-02 6.530761718750000000e-02 5.203247070312500000e-02 1.060180664062500000e-01 5.954742431640625000e-03 -1.786804199218750000e-02 -1.362304687500000000e-01 5.795288085937500000e-02 -4.431152343750000000e-02 -1.378173828125000000e-01

-8.941650390625000000e-02 -1.395263671875000000e-01 -9.051513671875000000e-02 1.463890075683593750e-03 -6.317138671875000000e-02 -1.239013671875000000e-01 6.192016601562500000e-02 -5.194091796875000000e-02 -1.074829101562500000e-01 6.475830078125000000e-02 -7.000732421875000000e-02 9.741210937500000000e-02 -1.353759765625000000e-01 -9.747314453125000000e-02 -5.780029296875000000e-02 1.112670898437500000e-01 3.713989257812500000e-02 1.731872558593750000e-02 7.269287109375000000e-02 3.781127929687500000e-02 1.205444335937500000e-01 8.483886718750000000e-02 -4.269409179687500000e-02 7.788085937500000000e-02 -2.400207519531250000e-02

3.747558593750000000e-02 -6.237792968750000000e-02 2.672195434570312500e-03 -4.968261718750000000e-02 2.925109863281250000e-02 -2.716064453125000000e-02 -1.115722656250000000e-01 3.787231445312500000e-02 -6.961822509765625000e-03 -3.063964843750000000e-02 3.442382812500000000e-02 -8.972167968750000000e-02 -1.347656250000000000e-01 -3.019714355468750000e-02 8.624267578125000000e-02 -8.959960937500000000e-02 2.058410644531250000e-02 3.225708007812500000e-02 -3.259277343750000000e-02 1.328125000000000000e-01 7.495117187500000000e-02 8.013916015625000000e-02 -2.548217773437500000e-02 1.234130859375000000e-01 4.251098632812500000e-02

-2.839660644531250000e-02 -8.776855468750000000e-02 1.342773437500000000e-01 1.326751708984375000e-02 -1.378173828125000000e-01 -5.337524414062500000e-02 -8.715820312500000000e-02 -4.962158203125000000e-02 -6.164550781250000000e-02 -6.835937500000000000e-02 -4.992675781250000000e-02 2.766418457031250000e-02 -1.963806152343750000e-02 8.581542968750000000e-02 1.170654296875000000e-01 9.893798828125000000e-02 -6.774902343750000000e-02 2.885437011718750000e-02 9.399414062500000000e-02 -1.771545410156250000e-02 -1.129760742187500000e-01 -1.251220703125000000e-01 -1.069335937500000000e-01 -9.985351562500000000e-02 -4.135131835937500000e-02

-5.767822265625000000e-02 -8.288574218750000000e-02 -1.795959472656250000e-02 1.646423339843750000e-02 -5.249023437500000000e-03 -8.642578125000000000e-02 2.615356445312500000e-02 -6.994628906250000000e-02 1.314697265625000000e-01 4.058837890625000000e-02 1.103210449218750000e-02 1.374511718750000000e-01 -1.181640625000000000e-01 -9.631347656250000000e-02 -1.140747070312500000e-01 -3.359985351562500000e-02 -7.049560546875000000e-02 4.541015625000000000e-02 -2.737426757812500000e-02 -9.014892578125000000e-02 4.016113281250000000e-02 5.413818359375000000e-02 -1.673889160156250000e-02 -5.883789062500000000e-02 5.462646484375000000e-02

1.033935546875000000e-01 -9.765625000000000000e-02 7.891845703125000000e-02 7.055664062500000000e-02 4.882812500000000000e-03 1.231689453125000000e-01 6.042480468750000000e-02 1.273345947265625000e-02 4.507446289062500000e-02 3.979492187500000000e-02 -1.135253906250000000e-01 5.382537841796875000e-03 1.245727539062500000e-01 -2.786254882812500000e-02 -9.991455078125000000e-02 -1.232299804687500000e-01 -7.220458984375000000e-02 1.118659973144531250e-03 5.493164062500000000e-03 -8.105468750000000000e-02 7.519531250000000000e-02 7.220458984375000000e-02 -8.237361907958984375e-05 -1.298828125000000000e-01 1.162719726562500000e-01

-3.417968750000000000e-02 -5.633544921875000000e-02 8.186340332031250000e-03 1.057739257812500000e-01 5.554199218750000000e-02 4.290771484375000000e-02 -4.745483398437500000e-02 -3.649902343750000000e-02 -2.618408203125000000e-02 -9.625244140625000000e-02 -8.746337890625000000e-02 -7.373809814453125000e-03 8.233642578125000000e-02 1.165771484375000000e-01 -4.226684570312500000e-03 -4.104614257812500000e-02 1.385498046875000000e-01 -3.967285156250000000e-02 -8.886718750000000000e-02 -1.090087890625000000e-01 1.018066406250000000e-01 3.047943115234375000e-03 -5.749511718750000000e-02 -1.156616210937500000e-01 -6.185913085937500000e-02

-7.025146484375000000e-02 8.093261718750000000e-02 -1.206054687500000000e-01 -2.119445800781250000e-02 -1.063842773437500000e-01 3.143310546875000000e-02 7.843017578125000000e-02 -7.031250000000000000e-02 7.647705078125000000e-02 1.123046875000000000e-01 6.216430664062500000e-02 3.103637695312500000e-02 -1.262207031250000000e-01 -9.472656250000000000e-02 1.102294921875000000e-01 2.336502075195312500e-03 -1.235961914062500000e-01 5.993652343750000000e-02 -1.374511718750000000e-01 8.459472656250000000e-02 1.001586914062500000e-01 -1.246337890625000000e-01 5.596923828125000000e-02 -1.375732421875000000e-01 -5.746459960937500000e-02

