8.819580078125000000e-03 9.240722656250000000e-02 1.268005371093750000e-02 -1.795959472656250000e-02 -1.358642578125000000e-01 1.148681640625000000e-01 1.278076171875000000e-01 5.230712890625000000e-02 -2.484130859375000000e-02 7.881164550781250000e-03 4.129028320312500000e-02 -5.139160156250000000e-02 -1.139526367187500000e-01 -1.353759765625000000e-01 -1.264648437500000000e-01 -7.586669921875000000e-02 4.135131835937500000e-02 -6.671142578125000000e-02 2.816772460937500000e-02 -8.630371093750000000e-02 9.832763671875000000e-02 -1.186523437500000000e-01 1.307373046875000000e-01 2.176284790039062500e-03 -6.756591796875000000e-02

-8.801269531250000000e-02 -4.046630859375000000e-02 -1.296386718750000000e-01 1.038818359375000000e-01 4.479980468750000000e-02 -2.019882202148437500e-03 -6.835937500000000000e-02 1.821899414062500000e-02 -6.616210937500000000e-02 8.862304687500000000e-02 -1.301269531250000000e-01 -1.318359375000000000e-01 1.322021484375000000e-01 2.522277832031250000e-02 -3.756713867187500000e-02 9.295654296875000000e-02 5.609130859375000000e-02 -9.301757812500000000e-02 1.361083984375000000e-01 8.471679687500000000e-02 3.488159179687500000e-02 -3.034973144531250000e-02 -1.241455078125000000e-01 -8.752441406250000000e-02 1.721191406250000000e-02

-1.112670898437500000e-01 -7.606506347656250000e-03 3.656005859375000000e-02 -6.329345703125000000e-02 4.541015625000000000e-02 3.637695312500000000e-02 1.203002929687500000e-01 1.289062500000000000e-01 1.091766357421875000e-02 7.208251953125000000e-02 1.334228515625000000e-01 -1.274414062500000000e-01 -4.672241210937500000e-02 1.340332031250000000e-01 2.342224121093750000e-02 -5.804443359375000000e-02 1.040649414062500000e-01 4.339599609375000000e-02 6.994628906250000000e-02 -1.378173828125000000e-01 1.643371582031250000e-02 -9.619140625000000000e-02 1.240234375000000000e-01 9.927749633789062500e-04 1.033935546875000000e-01

8.154296875000000000e-02 -8.697509765625000000e-02 8.978271484375000000e-02 -1.127929687500000000e-01 1.632690429687500000e-02 -1.104736328125000000e-01 -8.941650390625000000e-02 1.146697998046875000e-02 -5.709838867187500000e-02 4.797363281250000000e-02 -1.296386718750000000e-01 -9.484863281250000000e-02 9.132385253906250000e-03 4.452514648437500000e-02 1.054687500000000000e-01 -3.713989257812500000e-02 -7.519531250000000000e-02 -1.271972656250000000e-01 -1.265869140625000000e-01 1.774597167968750000e-02 5.984497070312500000e-02 7.031250000000000000e-02 2.682495117187500000e-02 -4.345703125000000000e-02 1.131591796875000000e-01

-7.189941406250000000e-02 -1.217651367187500000e-02 4.684448242187500000e-02 1.112670898437500000e-01 -1.003417968750000000e-01 4.028320312500000000e-03 8.673095703125000000e-02 8.197021484375000000e-02 2.056884765625000000e-02 6.992340087890625000e-03 1.212768554687500000e-01 -8.064270019531250000e-03 -5.368041992187500000e-02 -8.251953125000000000e-02 -9.719848632812500000e-03 -4.531860351562500000e-02 -8.746337890625000000e-02 -5.935668945312500000e-02 7.110595703125000000e-02 2.838134765625000000e-02 -1.376953125000000000e-01 -2.177429199218750000e-02 -6.427001953125000000e-02 -5.935668945312500000e-02 4.367065429687500000e-02

-1.167602539062500000e-01 -4.730224609375000000e-02 -5.725097656250000000e-02 -6.201171875000000000e-02 3.747558593750000000e-02 -1.271972656250000000e-01 1.256103515625000000e-01 9.802246093750000000e-02 -1.333007812500000000e-01 2.264404296875000000e-02 -7.073974609375000000e-02 1.099853515625000000e-01 -7.635498046875000000e-02 -1.354980468750000000e-01 -4.046630859375000000e-02 1.930236816406250000e-02 -5.895996093750000000e-02 -6.207275390625000000e-02 1.814270019531250000e-02 -1.188354492187500000e-01 4.626464843750000000e-02 1.232299804687500000e-01 -1.369628906250000000e-01 -8.477783203125000000e-02 -8.258056640625000000e-02

-9.570312500000000000e-02 -2.349853515625000000e-02 8.905029296875000000e-02 1.011962890625000000e-01 1.025390625000000000e-01 4.162597656250000000e-02 -9.082031250000000000e-02 4.638671875000000000e-02 5.816650390625000000e-02 5.407714843750000000e-02 4.190063476562500000e-02 -1.080322265625000000e-01 6.036376953125000000e-02 -1.105346679687500000e-01 -3.219604492187500000e-02 -1.208496093750000000e-01 5.999755859375000000e-02 4.398345947265625000e-03 -1.260986328125000000e-01 -1.309814453125000000e-01 -2.134704589843750000e-02 -3.036499023437500000e-02 -1.222534179687500000e-01 2.044677734375000000e-02 -1.025390625000000000e-01

-8.972167968750000000e-02 -6.042480468750000000e-02 1.105346679687500000e-01 1.195068359375000000e-01 -2.526855468750000000e-02 4.406738281250000000e-02 7.763671875000000000e-02 -3.430175781250000000e-02 -7.110595703125000000e-02 -1.088256835937500000e-01 1.224975585937500000e-01 -3.283691406250000000e-02 3.236770629882812500e-03 -6.182861328125000000e-02 -7.641601562500000000e-02 -5.737304687500000000e-03 -4.806518554687500000e-03 -4.510498046875000000e-02 -6.701660156250000000e-02 7.989501953125000000e-02 1.176147460937500000e-01 7.299804687500000000e-02 1.039886474609375000e-02 1.206207275390625000e-02 -2.163696289062500000e-02

-1.255798339843750000e-02 -9.271240234375000000e-02 9.498596191406250000e-03 1.375732421875000000e-01 -1.364746093750000000e-01 -3.503417968750000000e-02 3.497314453125000000e-02 -9.210205078125000000e-02 1.231689453125000000e-01 6.958007812500000000e-02 7.635498046875000000e-02 3.497314453125000000e-02 -1.317977905273437500e-03 9.063720703125000000e-02 1.389160156250000000e-01 5.505371093750000000e-02 -4.147338867187500000e-02 -7.220458984375000000e-02 -1.110839843750000000e-01 5.114746093750000000e-02 -7.946777343750000000e-02 -5.963134765625000000e-02 -8.587646484375000000e-02 -1.325683593750000000e-01 -1.082763671875000000e-01

