7.275390625000000000e-02 -8.752441406250000000e-02 -1.844787597656250000e-02 1.326904296875000000e-01 7.897949218750000000e-02 1.005859375000000000e-01 -9.895324707031250000e-03 9.643554687500000000e-02 1.034545898437500000e-01 -1.075439453125000000e-01 -2.650451660156250000e-02 7.122039794921875000e-03 8.380126953125000000e-02 1.741027832031250000e-02 -2.464294433593750000e-02 9.515380859375000000e-02 3.158569335937500000e-02 7.824707031250000000e-02 -1.274414062500000000e-01 -1.111450195312500000e-01 -4.788208007812500000e-02 -9.814453125000000000e-02 -4.919433593750000000e-02 6.311035156250000000e-02 -1.400146484375000000e-01

-4.376220703125000000e-02 -1.025390625000000000e-01 -6.152343750000000000e-02 1.014404296875000000e-01 1.287841796875000000e-01 3.393554687500000000e-02 5.361938476562500000e-02 -1.395263671875000000e-01 1.270751953125000000e-01 1.060180664062500000e-01 2.575683593750000000e-02 3.417968750000000000e-02 2.737426757812500000e-02 -1.263427734375000000e-01 1.000366210937500000e-01 -5.068969726562500000e-02 -1.175537109375000000e-01 3.259277343750000000e-02 -4.080200195312500000e-02 -9.875488281250000000e-02 -1.879882812500000000e-02 1.278076171875000000e-01 -9.655761718750000000e-02 5.310058593750000000e-02 -6.921386718750000000e-02

-5.847167968750000000e-02 8.666992187500000000e-02 7.891845703125000000e-02 -7.293701171875000000e-02 -1.395263671875000000e-01 -4.400634765625000000e-02 9.838867187500000000e-02 -4.754638671875000000e-02 1.334228515625000000e-01 1.051025390625000000e-01 7.513427734375000000e-02 -1.022949218750000000e-01 3.970336914062500000e-02 1.030273437500000000e-01 -5.877685546875000000e-02 -1.179199218750000000e-01 1.298828125000000000e-01 1.137542724609375000e-02 3.787231445312500000e-02 1.022949218750000000e-01 8.033752441406250000e-03 8.001708984375000000e-02 -3.292846679687500000e-02 -1.104736328125000000e-01 -5.520629882812500000e-02

-3.967285156250000000e-02 -9.954833984375000000e-02 7.818603515625000000e-02 -6.665039062500000000e-02 1.136779785156250000e-02 3.475952148437500000e-02 9.384155273437500000e-03 5.072021484375000000e-02 7.942199707031250000e-03 -3.997802734375000000e-02 1.166381835937500000e-01 2.955627441406250000e-02 1.050415039062500000e-01 4.769897460937500000e-02 -1.107788085937500000e-01 -1.161499023437500000e-01 -6.726074218750000000e-02 1.351318359375000000e-01 -2.033996582031250000e-02 1.170654296875000000e-01 -2.912902832031250000e-02 -5.767822265625000000e-02 1.221923828125000000e-01 -1.178588867187500000e-01 8.905029296875000000e-02

1.640319824218750000e-02 -1.840209960937500000e-02 -2.204895019531250000e-03 6.240844726562500000e-02 1.232147216796875000e-02 7.543945312500000000e-02 -1.660156250000000000e-02 -1.122436523437500000e-01 -1.585388183593750000e-02 3.433227539062500000e-02 4.953002929687500000e-02 3.860473632812500000e-02 1.395416259765625000e-02 1.270294189453125000e-02 -1.445770263671875000e-02 2.201843261718750000e-02 1.036987304687500000e-01 -2.409362792968750000e-02 5.477905273437500000e-02 -1.019897460937500000e-01 9.936523437500000000e-02 -3.458023071289062500e-03 -5.224609375000000000e-02 -4.623413085937500000e-02 -7.983398437500000000e-02

4.235839843750000000e-02 -4.760742187500000000e-02 4.333496093750000000e-02 -3.506469726562500000e-02 6.127929687500000000e-02 -9.814453125000000000e-02 2.394104003906250000e-02 -1.724243164062500000e-02 -7.640838623046875000e-03 -1.306152343750000000e-01 -9.979248046875000000e-02 1.248779296875000000e-01 8.410644531250000000e-02 -2.462768554687500000e-02 -5.683898925781250000e-03 -5.590820312500000000e-02 1.248779296875000000e-01 -8.422851562500000000e-03 -1.304931640625000000e-01 1.951599121093750000e-02 9.783935546875000000e-02 1.307373046875000000e-01 -4.400634765625000000e-02 1.285400390625000000e-01 -1.275634765625000000e-02

2.648925781250000000e-02 1.367187500000000000e-02 1.194458007812500000e-01 5.541992187500000000e-02 -1.170654296875000000e-01 9.994506835937500000e-04 -8.666992187500000000e-02 7.806396484375000000e-02 8.380126953125000000e-02 -3.726196289062500000e-02 6.195068359375000000e-03 -8.801269531250000000e-02 -1.228637695312500000e-01 1.339111328125000000e-01 2.561950683593750000e-02 5.007934570312500000e-02 9.197998046875000000e-02 -6.536865234375000000e-02 7.409667968750000000e-02 1.233520507812500000e-01 -1.049804687500000000e-01 -4.321289062500000000e-02 -6.317138671875000000e-02 -1.285400390625000000e-01 -7.421875000000000000e-02

-2.377319335937500000e-02 -8.728027343750000000e-02 2.200317382812500000e-02 -1.162109375000000000e-01 9.014892578125000000e-02 -1.208496093750000000e-01 -8.770751953125000000e-02 7.586669921875000000e-02 -1.334228515625000000e-01 -7.055664062500000000e-02 4.684448242187500000e-02 -1.358642578125000000e-01 -1.129150390625000000e-02 -1.287841796875000000e-01 -1.149291992187500000e-01 1.612854003906250000e-02 -1.160278320312500000e-01 1.197509765625000000e-01 -9.240722656250000000e-02 1.021118164062500000e-01 3.234863281250000000e-02 1.102294921875000000e-01 -7.958984375000000000e-02 4.458618164062500000e-02 -1.285400390625000000e-01

-2.267456054687500000e-02 -8.422851562500000000e-02 -7.244873046875000000e-02 -5.828857421875000000e-02 -5.798339843750000000e-02 -6.626129150390625000e-03 4.656982421875000000e-02 -4.290771484375000000e-02 6.134033203125000000e-02 5.084228515625000000e-02 -4.421997070312500000e-02 -3.799438476562500000e-02 1.065063476562500000e-01 1.126098632812500000e-01 7.122802734375000000e-02 3.851318359375000000e-02 1.313476562500000000e-01 3.393554687500000000e-02 -5.313873291015625000e-03 -1.201782226562500000e-01 -5.310058593750000000e-03 2.526855468750000000e-02 8.532714843750000000e-02 6.420898437500000000e-02 -3.448486328125000000e-02

