-8.666992187500000000e-02 1.234130859375000000e-01 -3.730773925781250000e-03 3.863525390625000000e-02 -9.899902343750000000e-02 -1.030883789062500000e-01 1.151123046875000000e-01 7.183837890625000000e-02 -1.036376953125000000e-01 1.008300781250000000e-01 -7.458496093750000000e-02 -4.431152343750000000e-02 5.087280273437500000e-02 9.875488281250000000e-02 1.002807617187500000e-01 9.844970703125000000e-02 -7.275390625000000000e-02 1.375732421875000000e-01 1.177978515625000000e-01 1.092529296875000000e-01 -4.000854492187500000e-02 1.260986328125000000e-01 -5.958557128906250000e-03 -1.285400390625000000e-01 3.219604492187500000e-02

5.268096923828125000e-03 -2.734375000000000000e-02 1.307373046875000000e-01 -1.281738281250000000e-02 -9.924316406250000000e-02 -8.209228515625000000e-03 -8.013916015625000000e-02 -7.556152343750000000e-02 -1.213989257812500000e-01 1.071777343750000000e-01 -6.094360351562500000e-02 1.280517578125000000e-01 9.941101074218750000e-03 -1.322174072265625000e-02 2.232360839843750000e-02 -7.690429687500000000e-02 3.149414062500000000e-02 9.375000000000000000e-02 7.275390625000000000e-02 -1.107177734375000000e-01 5.239868164062500000e-02 -6.481933593750000000e-02 -6.835937500000000000e-02 4.846191406250000000e-02 9.265136718750000000e-02

-2.032470703125000000e-02 -7.495117187500000000e-02 1.067504882812500000e-01 9.558105468750000000e-02 -2.105712890625000000e-02 1.052246093750000000e-01 -1.194458007812500000e-01 9.527587890625000000e-02 -1.135253906250000000e-01 -1.000366210937500000e-01 -1.033935546875000000e-01 -1.010131835937500000e-02 -1.369628906250000000e-01 -8.621215820312500000e-03 -2.619934082031250000e-02 -1.136474609375000000e-01 4.281616210937500000e-02 2.876281738281250000e-02 5.218505859375000000e-02 -1.178588867187500000e-01 3.105163574218750000e-02 -4.373168945312500000e-02 1.346435546875000000e-01 1.241455078125000000e-01 -1.189575195312500000e-01

5.688476562500000000e-02 -7.055664062500000000e-02 -4.119873046875000000e-02 4.736328125000000000e-02 -4.788208007812500000e-02 8.172607421875000000e-02 -1.281738281250000000e-01 9.930419921875000000e-02 -5.966186523437500000e-03 7.708740234375000000e-02 8.892822265625000000e-02 -5.748748779296875000e-03 -9.899902343750000000e-02 1.361083984375000000e-01 -6.683349609375000000e-02 -5.755615234375000000e-02 5.654907226562500000e-02 -1.137695312500000000e-01 -7.849121093750000000e-02 -5.349731445312500000e-02 -1.087036132812500000e-01 1.036376953125000000e-01 -1.060485839843750000e-02 -1.276855468750000000e-01 -8.624267578125000000e-02

-1.309814453125000000e-01 9.082031250000000000e-02 -4.272460937500000000e-02 -1.170043945312500000e-01 -5.444335937500000000e-02 -7.025146484375000000e-02 -9.924316406250000000e-02 1.140136718750000000e-01 1.089477539062500000e-02 2.531433105468750000e-02 -1.063842773437500000e-01 5.496215820312500000e-02 -7.019042968750000000e-02 -1.168823242187500000e-01 -7.202148437500000000e-02 -5.340576171875000000e-02 6.561279296875000000e-02 -2.719116210937500000e-02 -5.020141601562500000e-03 2.395629882812500000e-02 -5.117797851562500000e-02 -1.244506835937500000e-01 -1.082763671875000000e-01 1.175537109375000000e-01 2.842712402343750000e-02

-1.145629882812500000e-01 1.168823242187500000e-01 1.359863281250000000e-01 3.485107421875000000e-02 4.626464843750000000e-02 1.060791015625000000e-01 -8.642578125000000000e-02 5.175781250000000000e-02 1.383056640625000000e-01 -9.742736816406250000e-03 -6.155395507812500000e-02 7.031250000000000000e-02 -4.003906250000000000e-02 1.034545898437500000e-02 5.313110351562500000e-02 6.756591796875000000e-02 3.817749023437500000e-02 -5.303955078125000000e-02 -6.622314453125000000e-02 2.230834960937500000e-02 1.373291015625000000e-01 -7.415771484375000000e-02 6.701660156250000000e-02 5.303955078125000000e-02 -7.177734375000000000e-02

-6.866455078125000000e-02 -5.303955078125000000e-02 -8.404541015625000000e-02 -1.058349609375000000e-01 -3.059387207031250000e-03 1.280517578125000000e-01 5.773925781250000000e-02 -4.067993164062500000e-02 1.233520507812500000e-01 1.102294921875000000e-01 -1.391601562500000000e-01 9.594726562500000000e-02 -5.007934570312500000e-02 -3.652954101562500000e-02 1.230468750000000000e-01 8.966064453125000000e-02 -5.078125000000000000e-02 -1.336669921875000000e-01 9.899902343750000000e-02 -1.059570312500000000e-01 1.246948242187500000e-01 2.376556396484375000e-03 -1.074829101562500000e-01 2.645874023437500000e-02 -6.027221679687500000e-03

5.737304687500000000e-02 2.185058593750000000e-02 -2.923583984375000000e-02 -9.655761718750000000e-02 9.124755859375000000e-02 1.141357421875000000e-01 -7.867431640625000000e-02 3.332519531250000000e-02 5.633544921875000000e-02 -8.886718750000000000e-02 -1.820373535156250000e-02 1.246337890625000000e-01 -7.995605468750000000e-02 9.838867187500000000e-02 7.214355468750000000e-02 1.327514648437500000e-02 -8.758544921875000000e-02 -2.459716796875000000e-02 -5.990600585937500000e-02 1.051025390625000000e-01 -6.408691406250000000e-02 5.993652343750000000e-02 -8.422851562500000000e-02 4.788208007812500000e-02 -1.044921875000000000e-01

-1.914978027343750000e-02 -1.224975585937500000e-01 -4.110717773437500000e-02 1.248168945312500000e-02 -3.503417968750000000e-02 -4.458618164062500000e-02 2.690124511718750000e-02 -8.569335937500000000e-02 1.378173828125000000e-01 7.836914062500000000e-02 1.089477539062500000e-01 9.130859375000000000e-02 7.196044921875000000e-02 -4.946899414062500000e-02 -1.118774414062500000e-01 7.391357421875000000e-02 1.079711914062500000e-01 -1.171875000000000000e-02 1.216430664062500000e-01 6.524658203125000000e-02 3.038024902343750000e-02 -6.671142578125000000e-02 -7.684326171875000000e-02 -9.036064147949218750e-04 -7.183837890625000000e-02

