1.202392578125000000e-01 4.809570312500000000e-02 -2.900695800781250000e-02 -9.484863281250000000e-02 -6.866455078125000000e-02 3.335571289062500000e-02 -1.151123046875000000e-01 -1.376953125000000000e-01 2.653503417968750000e-02 -9.136962890625000000e-02 2.616882324218750000e-02 -7.080078125000000000e-02 5.984497070312500000e-02 -7.464599609375000000e-02 -5.850219726562500000e-02 5.874633789062500000e-02 -1.846313476562500000e-02 -4.129028320312500000e-02 1.270751953125000000e-01 -3.250122070312500000e-02 -1.571655273437500000e-02 -2.749633789062500000e-02 -1.157226562500000000e-01 1.246337890625000000e-01 2.398681640625000000e-02

-3.253173828125000000e-02 -3.089904785156250000e-02 -9.985351562500000000e-02 5.047607421875000000e-02 -1.148223876953125000e-02 1.104736328125000000e-01 -1.959228515625000000e-02 -5.990600585937500000e-02 -9.106445312500000000e-02 4.370117187500000000e-02 1.337432861328125000e-02 -2.164840698242187500e-03 -2.774047851562500000e-02 -9.350585937500000000e-02 3.387451171875000000e-02 1.252441406250000000e-01 1.214599609375000000e-01 9.375000000000000000e-02 -8.782958984375000000e-02 -1.137695312500000000e-01 4.000854492187500000e-02 1.096191406250000000e-01 -2.658081054687500000e-02 -1.230468750000000000e-01 4.370117187500000000e-02

-7.247924804687500000e-03 1.158447265625000000e-01 -9.381103515625000000e-02 6.018066406250000000e-02 -7.934570312500000000e-03 -1.071777343750000000e-01 -8.453369140625000000e-02 5.239868164062500000e-02 1.187744140625000000e-01 2.099609375000000000e-02 1.148681640625000000e-01 -6.262207031250000000e-02 -1.038818359375000000e-01 7.897949218750000000e-02 3.114318847656250000e-02 -3.170776367187500000e-02 -3.475952148437500000e-02 -7.067871093750000000e-02 -5.737304687500000000e-02 -8.354187011718750000e-03 -3.028869628906250000e-02 3.099060058593750000e-02 -7.745361328125000000e-02 -4.153442382812500000e-02 8.471679687500000000e-02

-1.009521484375000000e-01 2.822875976562500000e-02 1.098632812500000000e-01 -9.191894531250000000e-02 3.524780273437500000e-02 -9.594726562500000000e-02 6.317138671875000000e-02 1.130676269531250000e-02 -1.696586608886718750e-03 9.082031250000000000e-02 -5.441284179687500000e-02 -2.545166015625000000e-02 -5.270385742187500000e-02 5.603027343750000000e-02 -1.143798828125000000e-01 -4.440307617187500000e-03 9.594726562500000000e-02 -5.465698242187500000e-02 -8.428955078125000000e-02 -9.262084960937500000e-03 -5.313110351562500000e-02 -1.167602539062500000e-01 7.379150390625000000e-02 7.763671875000000000e-02 -5.450439453125000000e-02

8.117675781250000000e-02 2.619934082031250000e-02 1.226806640625000000e-01 -2.026367187500000000e-02 1.309814453125000000e-01 -6.341552734375000000e-02 -1.115112304687500000e-01 6.604003906250000000e-02 3.945922851562500000e-02 -1.391601562500000000e-01 1.094360351562500000e-01 -2.015686035156250000e-02 -1.364898681640625000e-02 -3.781127929687500000e-02 -1.218872070312500000e-01 4.537963867187500000e-02 -5.104064941406250000e-03 -2.612304687500000000e-02 2.587890625000000000e-02 -4.558563232421875000e-03 7.717132568359375000e-03 2.131652832031250000e-02 1.634216308593750000e-02 -3.967285156250000000e-02 3.283691406250000000e-02

-1.870727539062500000e-02 -4.156494140625000000e-02 -5.743408203125000000e-02 1.082763671875000000e-01 -7.739257812500000000e-02 -8.752441406250000000e-02 1.040039062500000000e-01 -2.160644531250000000e-02 7.238769531250000000e-02 1.146850585937500000e-01 -8.636474609375000000e-02 -3.860473632812500000e-02 -1.114501953125000000e-01 -9.686279296875000000e-02 7.855224609375000000e-02 1.346435546875000000e-01 -1.390380859375000000e-01 -1.806640625000000000e-02 1.724243164062500000e-02 7.739257812500000000e-02 -9.881591796875000000e-02 -6.439208984375000000e-03 -4.162597656250000000e-02 6.213378906250000000e-02 1.300048828125000000e-01

9.814453125000000000e-02 1.528167724609375000e-02 2.198791503906250000e-02 -8.148193359375000000e-02 -1.011962890625000000e-01 -1.019897460937500000e-01 6.262207031250000000e-02 -1.125488281250000000e-01 4.150390625000000000e-03 -1.318359375000000000e-01 -1.006469726562500000e-01 1.245727539062500000e-01 6.829833984375000000e-02 -1.022949218750000000e-01 9.674072265625000000e-02 9.576416015625000000e-02 1.215209960937500000e-01 -9.704589843750000000e-02 -1.386718750000000000e-01 2.511596679687500000e-02 -1.309204101562500000e-02 1.256103515625000000e-01 7.621765136718750000e-03 -6.341552734375000000e-02 8.746337890625000000e-02

-3.802490234375000000e-02 -1.329345703125000000e-01 2.073669433593750000e-02 -4.779052734375000000e-02 -1.182250976562500000e-01 -7.739257812500000000e-02 -2.639770507812500000e-02 1.199951171875000000e-01 -7.196044921875000000e-02 -8.593750000000000000e-02 1.215209960937500000e-01 -1.777648925781250000e-02 -6.726074218750000000e-02 7.550048828125000000e-02 6.414794921875000000e-02 -1.207885742187500000e-01 -7.519531250000000000e-02 -1.055908203125000000e-01 -1.285400390625000000e-01 1.246337890625000000e-01 2.055358886718750000e-02 -1.375732421875000000e-01 1.141357421875000000e-01 -1.290283203125000000e-01 5.352783203125000000e-02

8.033752441406250000e-03 1.268310546875000000e-01 -3.155517578125000000e-02 -1.170654296875000000e-01 -7.165527343750000000e-02 -2.479553222656250000e-03 -8.197021484375000000e-02 9.234619140625000000e-02 1.285400390625000000e-01 -2.873229980468750000e-02 -7.543945312500000000e-02 -1.175537109375000000e-01 -4.756927490234375000e-03 1.130981445312500000e-01 1.035156250000000000e-01 -2.864074707031250000e-02 -3.406524658203125000e-03 -1.260986328125000000e-01 3.567504882812500000e-02 -6.103515625000000000e-04 4.386901855468750000e-03 -4.837036132812500000e-02 1.165771484375000000e-01 1.156005859375000000e-01 7.244873046875000000e-02

