-9.252929687500000000e-02 -2.113037109375000000e-01

1.444091796875000000e-01 -1.425781250000000000e-01

1.686096191406250000e-02 2.082519531250000000e-01

-6.585693359375000000e-02 7.293701171875000000e-02

3.598022460937500000e-02 1.800537109375000000e-01

7.452392578125000000e-02 -1.072387695312500000e-01

-8.660888671875000000e-02 1.206665039062500000e-01

1.174316406250000000e-01 1.186523437500000000e-01

1.578369140625000000e-01 1.795654296875000000e-01

-5.410766601562500000e-02 1.254882812500000000e-01

-3.161621093750000000e-02 8.233642578125000000e-02

9.204101562500000000e-02 -2.404785156250000000e-01

6.475830078125000000e-02 -1.122436523437500000e-01

6.408691406250000000e-02 -9.570312500000000000e-02

-2.344970703125000000e-01 -9.539794921875000000e-02

-6.280517578125000000e-02 1.284179687500000000e-01

-3.092956542968750000e-02 -1.374511718750000000e-01

-1.608886718750000000e-01 1.580810546875000000e-01

2.420654296875000000e-01 8.996582031250000000e-02

-1.949462890625000000e-01 1.878662109375000000e-01

1.677246093750000000e-01 2.045898437500000000e-01

1.550292968750000000e-01 -1.055908203125000000e-01

-2.219238281250000000e-01 2.318115234375000000e-01

1.621093750000000000e-01 -3.083801269531250000e-02

2.111816406250000000e-02 -1.422119140625000000e-01

3.652572631835937500e-03 -5.197143554687500000e-02

2.900695800781250000e-02 -1.623535156250000000e-01

-2.080078125000000000e-01 1.088256835937500000e-01

2.369384765625000000e-01 2.244873046875000000e-01

6.088256835937500000e-02 2.135009765625000000e-01

3.942871093750000000e-02 -1.026000976562500000e-01

7.495117187500000000e-02 -1.394042968750000000e-01

-9.167480468750000000e-02 1.253662109375000000e-01

1.352539062500000000e-01 -1.872558593750000000e-01

2.283935546875000000e-01 -5.252075195312500000e-02

1.693115234375000000e-01 9.265136718750000000e-02

-1.101684570312500000e-01 -7.781982421875000000e-03

-5.212402343750000000e-02 4.748535156250000000e-02

5.209350585937500000e-02 -7.238769531250000000e-02

-2.225341796875000000e-01 1.662597656250000000e-01

1.156616210937500000e-01 2.159423828125000000e-01

-5.023193359375000000e-02 -1.004638671875000000e-01

1.495361328125000000e-01 3.295898437500000000e-02

-1.733398437500000000e-02 2.366943359375000000e-01

-1.951904296875000000e-01 9.906005859375000000e-02

-1.362304687500000000e-01 1.627197265625000000e-01

1.407470703125000000e-01 -1.379394531250000000e-01

4.522705078125000000e-02 2.243652343750000000e-01

9.753417968750000000e-02 2.045898437500000000e-01

-1.088256835937500000e-01 -1.176147460937500000e-01

2.732849121093750000e-02 -1.169586181640625000e-02

-4.153442382812500000e-02 -2.302246093750000000e-01

-8.642578125000000000e-02 8.117675781250000000e-02

9.436035156250000000e-02 6.628417968750000000e-02

-1.457519531250000000e-01 -8.306884765625000000e-02

-1.762695312500000000e-01 2.137451171875000000e-01

-1.267089843750000000e-01 -2.390136718750000000e-01

6.823730468750000000e-02 -5.505371093750000000e-02

1.273193359375000000e-01 1.802978515625000000e-01

-3.744506835937500000e-02 -1.544189453125000000e-01

1.368408203125000000e-01 -1.970214843750000000e-01

1.566162109375000000e-01 1.007080078125000000e-01

-4.492187500000000000e-02 9.069824218750000000e-02

2.034912109375000000e-01 7.159423828125000000e-02

6.359863281250000000e-02 -2.410888671875000000e-01

-9.436035156250000000e-02 1.032714843750000000e-01

1.933593750000000000e-01 -2.322998046875000000e-01

-1.455078125000000000e-01 -1.486816406250000000e-01

2.390136718750000000e-01 1.616210937500000000e-01

-1.724853515625000000e-01 -3.683471679687500000e-02

1.489257812500000000e-01 2.419433593750000000e-01

-4.840087890625000000e-02 1.831054687500000000e-01

-1.148681640625000000e-01 -1.105957031250000000e-01

-9.680175781250000000e-02 1.859130859375000000e-01

1.584472656250000000e-01 7.824707031250000000e-02

1.192016601562500000e-01 1.370849609375000000e-01

1.429443359375000000e-01 1.553955078125000000e-01

1.324462890625000000e-01 -6.213378906250000000e-02

-3.913879394531250000e-03 5.935668945312500000e-02

-1.012573242187500000e-01 1.049194335937500000e-01

1.513671875000000000e-01 -2.325439453125000000e-01

1.436767578125000000e-01 -8.831787109375000000e-02

6.347656250000000000e-02 -1.993408203125000000e-01

-1.822509765625000000e-01 1.652832031250000000e-01

1.192016601562500000e-01 5.993652343750000000e-02

7.448196411132812500e-04 1.784667968750000000e-01

-1.523437500000000000e-01 -5.633544921875000000e-02

-1.556396484375000000e-01 -9.637451171875000000e-02

-2.010498046875000000e-01 -2.277832031250000000e-01

-1.511383056640625000e-02 2.131652832031250000e-02

5.740356445312500000e-02 1.676025390625000000e-01

-2.047119140625000000e-01 2.174072265625000000e-01

-1.576423645019531250e-03 9.234619140625000000e-02

-1.677246093750000000e-01 3.997802734375000000e-02

1.094970703125000000e-01 9.802246093750000000e-02

-1.748657226562500000e-02 -2.377319335937500000e-02

-8.569335937500000000e-02 5.245208740234375000e-03

-6.652832031250000000e-02 1.887207031250000000e-01

1.894531250000000000e-01 -8.050537109375000000e-02

-9.436035156250000000e-02 1.358642578125000000e-01

